svm_type epsilon_svr
kernel_type linear
nr_class 2
total_sv 244
rho 0.00187401
SV
-1 2:0.11424257 4:0.0096559688 
1 2:0.1154877 4:0.0094608104 
0.4621996899372233 2:0.068520364 3:2.219573 4:0.010165085 
1 2:0.055396803 3:2.4244593 4:0.011640226 
1 2:0.010149204 3:2.9177288 4:0.014892716 
1 2:0.030675729 3:2.7661064 4:0.013725265 
1 2:0.0555165 3:2.4897981 4:0.010543112 
1 2:0.020796134 3:2.8362894 4:0.01459739 
1 2:0.0096083875 3:3.0848869 4:0.01495375 
1 3:3.0190189 4:0.015073887 5:0.00021571343 
0.3612495623634245 2:0.008900757 3:3.0695338 4:0.014956115 
-1 2:0.074847549 4:0.010846132 
-1 2:0.070233326 4:0.011775968 
-1 2:0.070393201 4:0.01187299 
-1 2:0.074533521 4:0.010796836 
-1 2:0.074954498 4:0.011007617 
-1 2:0.074391875 4:0.011147109 
-1 2:0.072967683 4:0.011078778 
-1 2:0.069774472 4:0.012128969 
-1 2:0.073825933 4:0.010529375 
-1 2:0.078932863 4:0.010668115 
-1 2:0.081221818 4:0.010255745 
-1 2:0.077532882 4:0.011238187 
1 1:0.14569469 2:0.042053941 
1 1:0.14331858 2:0.051505584 
1 1:0.14277226 2:0.054979767 
1 1:0.14352195 2:0.053834767 
1 1:0.14302739 2:0.054307668 
1 1:0.15261685 2:0.029961674 
1 1:0.15146293 2:0.035621433 
1 1:0.14274105 2:0.054924492 
-1 1:0.14531178 2:0.052532796 
-1 1:0.067794425 2:0.017929056 
-1 1:0.048390939 2:0.027301079 
-1 1:0.049662291 2:0.0295004 
-1 1:0.053363166 2:0.026196474 
-1 1:0.063938412 2:0.019182072 3:3.1145777 
-0.3857299456143881 1:0.057667084 2:0.016289107 3:3.0833573 
-1 1:0.052831758 2:0.034446996 
-1 1:0.048670508 2:0.030669982 
-1 1:0.052150623 2:0.030157676 
-1 1:0.055752052 2:0.018053638 3:3.1115125 
-0.5014170796642881 1:0.058961687 2:0.0089878822 3:2.9873065 
-0.3754020138364338 1:0.038064122 2:0.044508489 
-1 1:0.054132319 2:0.0068013968 3:2.9772913 
-1 1:0.062373193 2:0.012374233 3:3.0177438 
1 2:0.062486594 4:0.00060940473 
-1 1:0.052400268 2:0.016400186 
-1 1:0.064372216 2:0.01720462 3:2.9935429 
-1 1:0.061552588 2:0.015932962 3:2.95387 
-1 1:0.028553866 3:2.6307068 5:0.013104544 
-1 1:0.039558998 3:3.1119647 5:0.013911114 
-1 2:0.029988885 3:0.40070477 4:0.015734298 5:0.00080373626 
-1 4:0.01474037 5:0.0021186695 
-0.123160008208857 2:0.015323264 3:0.25429629 4:0.01386498 5:0.0014758125 
1 2:0.059750849 4:0.00055861809 
-0.3608980628682315 3:0.23755128 4:0.014415481 5:0.0042488679 
-0.5828431433286433 3:0.78803582 4:0.010101068 5:0.011228742 
-1 2:0.021278432 4:0.010990259 
-1 3:1.1977338 4:0.0060181926 5:0.013745063 
0.2086819151860282 1:0.073472019 2:0.062787615 3:2.5055295 
-1 1:0.075537102 2:0.071346182 3:2.5481017 
-1 1:0.054337715 2:0.060849049 3:0.22317162 
-1 1:0.049192789 2:0.063758627 3:0.31031814 
-1 1:0.046991773 2:0.069324114 3:0.35287148 
-1 1:0.044576588 2:0.069024199 3:0.35622156 
-1 1:0.036969066 2:0.078308356 3:0.39311788 
-1 1:0.040863873 2:0.059439897 3:0.39355516 
-1 1:0.039070321 2:0.075771511 3:0.37432384 
-1 1:0.088581046 3:2.6133307 5:0.01738463 
-1 1:0.064740587 3:1.212385 5:0.014332868 
-1 1:0.054324542 3:1.0768205 5:0.015057923 
-0.2248574293789417 1:0.054943974 3:1.1964918 5:0.013483973 
-0.01244724124969107 1:0.061230214 3:1.3054672 5:0.012299201 
-1 4:0.013647354 5:0.0078474217 
-0.1748009672271106 1:0.050492508 3:0.95702391 5:0.014699583 
-1 4:0.011692732 5:0.0099175876 
-1 4:0.015323231 5:0.0022123824 
-1 1:0.058424142 3:1.1588076 5:0.012472021 
-1 1:0.060916215 3:1.3411845 5:0.010197925 
-1 4:0.014972565 
-1 1:0.061437671 3:1.1767809 5:0.010977421 
-0.07788530702279782 1:0.052124059 2:0.033461474 3:2.1749381 
-1 4:0.013602589 5:0.0067135421 
-1 4:0.013014024 5:0.0077125051 
-0.7751425706210582 1:0.056690253 3:1.1602691 5:0.010814851 
-1 4:0.012245351 5:0.011590218 
-1 2:0.078490597 4:0.017465615 
1 2:0.044063782 4:0.0078153661 
-1 4:0.011066283 5:0.010334591 
-1 4:0.013685747 5:0.0066556934 
-1 4:0.012392523 5:0.009469761 
-1 4:0.01264725 5:0.0083542301 
1 2:0.067440566 
-1 4:0.015051131 
-1 4:0.0092657571 5:0.012192852 
-1 2:0.036641946 4:0.01661189 
1 1:0.0026546621 2:0.05789667 
1 2:0.046252113 4:0.00088288105 
-1 2:0.03058557 4:0.0131197 
1 2:0.07111278 
1 2:0.072526848 
-1 4:0.011306255 5:0.0099337661 
1 1:0.11158829 2:0.10399499 4:0.0018585003 5:5.3967316e-05 
1 1:0.11291346 2:0.060141543 4:0.0017735376 5:0.0011298406 
1 1:0.014203067 4:0.0018997028 
1 4:0.011293087 5:0.0098784362 
1 3:2.9581368 4:0.012470039 5:0.0084291875 
1 3:2.9787309 4:0.012013574 5:0.0090738637 
1 3:3.024507 4:0.012106656 5:0.0088702287 
1 4:0.010974049 5:0.010256196 
1 4:0.011277209 5:0.0098989679 
1 3:3.0507762 4:0.0122679 5:0.0086429923 
1 3:3.044077 4:0.011515515 5:0.0096219055 
1 4:0.011013278 5:0.010196266 
1 4:0.011807346 5:0.009254345 
1 4:0.01090161 5:0.010305521 
1 3:3.0180306 4:0.012584471 5:0.0081681729 
1 4:0.012187061 5:0.0087502959 
1 4:0.011798309 5:0.009263465 
1 3:2.9967147 4:0.013092322 5:0.0073252036 
1 4:0.010735881 5:0.010476888 
1 3:3.049519 4:0.011041572 5:0.010154863 
1 4:0.010244874 5:0.010962146 
1 3:2.9778372 4:0.012358238 5:0.0085271071 
1 3:2.8822934 4:0.012478928 5:0.0083802793 
1 4:0.0091465305 5:0.011889021 
1 3:3.082884 4:0.011535339 5:0.0096077436 
1 3:3.0307948 4:0.0120108 5:0.0090554142 
1 3:3.0636014 4:0.012387091 5:0.0085634891 
1 4:0.01108013 5:0.01012038 
1 3:2.897442 4:0.011055844 5:0.01019443 
1 4:0.01055127 5:0.010679869 
0.7033764225129844 3:2.9977699 4:0.011051741 5:0.010190523 
1 3:2.9823709 4:0.011974019 5:0.0090775275 
1 4:0.0096081577 5:0.011528056 
1 4:0.0084725382 5:0.012403361 
1 3:3.0994299 4:0.010690822 5:0.010571435 
1 4:0.010451572 5:0.010800775 
1 3:2.9285238 4:0.0078929727 5:0.012764285 
1 1:0.096296193 
1 1:0.07428904 2:0.059476326 3:0.060399486 
0.2191150409388663 1:0.079240467 5:0.0018456364 
1 3:2.7090371 4:0.011415646 5:0.0097341132 
1 1:0.14910587 5:0.0066616761 
1 1:0.15197152 5:0.0058171398 
1 1:0.14965667 5:0.0064542392 
1 1:0.14979214 5:0.006692991 
1 1:0.15069097 5:0.0061727577 
1 1:0.14748702 5:0.0076728351 
1 1:0.14965052 5:0.0068843607 
1 1:0.14588942 5:0.0077944623 
1 1:0.15022552 5:0.006849979 
1 1:0.15235162 5:0.006570654 
1 1:0.14957279 5:0.0073717872 
-1 1:0.14702511 5:0.0093643871 
-1 1:0.092440988 3:2.5766662 5:0.0042335193 
-0.7222258693767334 1:0.083390356 3:2.3974818 5:0.0077219322 
-1 1:0.087490124 3:2.3972665 5:0.007292373 
-1 4:0.015072093 5:0.0018298961 
-1 1:0.078947953 2:0.0014413389 3:2.7071266 5:0.0025117636 
-1 1:0.055361943 2:0.0053858665 3:2.6422109 5:0.0021338133 
-1 1:0.055753338 3:2.1704572 5:0.0096368055 
-0.6988320179279462 4:0.014995367 
-1 1:0.054496625 3:2.4913795 5:0.0049399776 
-1 1:0.055530198 2:0.01511895 3:2.8919276 
-1 1:0.062288893 2:0.013782036 3:2.9494517 
-1 1:0.060915809 2:0.0059931799 3:2.9123853 
-1 1:0.054751512 3:2.2015846 5:0.011130396 
-0.001862186954094611 1:0.037357303 3:2.0048037 5:0.012831188 
-1 1:0.05795724 2:0.028830443 
-1 3:0.14048493 4:0.013573003 5:0.0063946388 
-0.4885070924854233 1:0.056944138 3:2.6107627 5:0.0045022647 
-1 1:0.06060999 2:0.0062916775 3:2.8904257 
0.9306051426485323 2:0.065046926 4:0.0014840564 
-1 1:0.066172836 2:0.0033090825 3:2.9310385 
-1 1:0.064351024 3:2.792805 5:0.00041726532 
-1 4:0.014579487 5:0.0035589021 
-0.004072357033525427 3:0.53739845 4:0.011602078 5:0.01009944 
-1 1:0.057746647 3:2.6255215 5:0.0032184518 
-1 1:0.069115218 2:0.020386766 3:3.0108662 
-1 1:0.066457404 3:2.9182728 
1 2:0.071428183 4:0.0016834331 
1 1:0.0084419545 2:0.065591285 
-1 3:0.10175058 4:0.013438524 5:0.0067530501 
-1 3:0.10617369 4:0.013034266 5:0.0074393644 
-1 1:0.052582599 3:2.6629602 5:0.0012510409 
-1 3:0.76842725 4:0.015154011 5:0.0092656369 
-1 2:0.04433277 4:0.010929096 
-1 4:0.014052843 5:0.0052813955 
1 2:0.063169331 4:0.00053592644 
1 1:0.017200369 2:0.068564504 
-1 1:0.074936215 
1 1:0.017879453 2:0.068374147 
1 2:0.064701028 4:0.00072157498 
1 4:0.00014199455 
1 1:0.010894028 2:0.10192146 
-1 1:0.0080216712 2:0.09573648 
-1 1:0.01953867 2:0.083664138 
-1 1:0.016285507 2:0.085163652 
-1 1:0.0087892513 2:0.087483685 
-1 1:0.015339132 2:0.084268078 
-1 1:0.013489421 2:0.086243645 
-1 1:0.015441972 2:0.086363394 
-1 1:0.018471168 2:0.088347084 
-1 1:0.0043349833 2:0.08692549 
1 2:0.005303228 3:1.1972569 4:0.017698379 
1 3:1.3590182 4:0.018959228 
1 3:1.1296966 4:0.017131679 
1 3:1.1901644 4:0.016952945 
1 3:1.097486 4:0.016218985 
-1 1:0.11985487 2:0.12150761 
1 3:1.1717718 4:0.01673889 
0.339896231510261 2:0.099369338 
1 2:0.0053420153 3:1.148204 4:0.017027381 
1 2:0.079696937 4:0.0029427998 
1 2:0.033998819 3:0.32912372 4:0.012764844 
1 2:0.00017952421 3:0.89536706 4:0.015505916 
1 2:0.06829038 4:0.00058263127 
1 1:0.0028361692 2:0.068263097 
1 1:0.0075164688 2:0.073641352 
1 2:0.087957972 4:0.0026050069 
-1 1:0.083165611 5:0.0021136265 
1 1:0.0060485203 2:0.11748135 4:0.001766084 
1 1:0.029189489 2:0.069345672 
1 1:0.022993987 2:0.06978374 4:0.00011593731 
0.1236340858434718 1:0.024970299 2:0.063020902 4:0.00014125361 
1 1:0.026477784 2:0.063286961 
1 1:0.012996671 2:0.070835718 4:0.0022707896 
1 1:0.024069911 2:0.071235495 4:0.00027080963 
1 1:0.02425992 2:0.065549914 4:0.00039918042 
1 1:0.0044899433 2:0.08548682 4:0.0042307959 
1 1:0.012623112 2:0.070499157 4:0.0022389751 
1 1:0.11982185 3:2.7194302 5:0.0092955203 
1 1:0.12299563 3:2.7434084 5:0.0087910081 
0.9799810938363156 1:0.11954516 3:2.6859055 5:0.0095466229 
1 1:0.11959543 3:2.7369726 5:0.009002624 
-1 1:0.10394802 3:2.5431364 5:0.011455248 
-1 1:0.081054846 3:0.90912792 5:0.0095550444 
-1 1:0.078499024 3:1.5309184 5:0.0048642591 
-1 1:0.016568045 3:0.58690152 5:0.014288406 
-0.7997826689707597 4:0.0083779671 5:0.012452525 
0.9811267769918169 1:0.0069780765 3:0.019860282 5:0.015004092 
1 2:0.058108369 3:0.78890297 
