svm_type epsilon_svr
kernel_type linear
nr_class 2
total_sv 409
rho 0.000116681
SV
-1 2:0.027321682 4:0.017828967 5:0.0065813144 
-1 2:0.033058278 4:0.018076938 5:0.0058991777 
-1 2:0.029193806 4:0.01792162 5:0.0063248211 
-1 2:0.022761599 4:0.017584601 5:0.0071854858 
-1 2:0.022822531 4:0.017668613 5:0.0072418749 
-1 2:0.022082178 4:0.017649164 5:0.0073723016 
-1 2:0.020447758 4:0.017550738 5:0.0075812811 
1 2:0.017000407 4:0.017445907 5:0.0080138417 
-1 2:0.019228254 3:1.5562019 4:0.016960536 5:0.0063144409 
1 2:0.017486821 3:1.6185745 4:0.016549732 5:0.0063776189 
-1 2:0.017506942 3:1.6571222 4:0.016069269 5:0.0060997878 
-1 2:0.017072885 3:1.6717148 4:0.015972662 5:0.0058885129 
1 2:0.00893014 3:1.9116141 4:0.014717489 5:0.0054564193 
1 2:0.031623056 3:1.7922285 4:0.015177406 5:0.0027176898 
1 2:0.014582142 3:1.9039609 4:0.014758318 5:0.0045986527 
1 2:0.021540391 3:1.920843 4:0.014804078 5:0.0038566409 
1 2:0.084630438 3:1.4319992 4:0.013759953 
1 2:0.033698225 3:1.814505 4:0.015094943 5:0.0019534436 
1 2:0.010806218 3:2.005928 4:0.014475061 5:0.0048650766 
1 2:0.028159785 3:1.9566449 4:0.014664228 5:0.0033352535 
-1 1:0.16031487 5:0.0011721517 
1 2:0.015044191 3:2.0536408 4:0.014224769 5:0.0049834078 
1 1:0.14779885 
1 2:0.019411631 3:2.1196028 4:0.014207727 5:0.0048192286 
1 2:0.038304804 3:1.980602 4:0.014668744 5:0.0031729678 
1 2:0.029264333 3:2.1187175 4:0.014303577 5:0.0045224796 
1 2:0.0896185 3:1.7099495 4:0.014848069 
1 2:0.03174384 3:2.2328874 4:0.013999515 5:0.0053938043 
0.03642646395014523 2:0.059017228 3:2.0023436 4:0.014779029 5:0.0025806551 
-1 4:0.0025304083 5:0.021061743 
-1 4:0.010757787 5:0.017359135 
-1 4:0.010886766 5:0.017091548 
-1 4:0.010870632 5:0.017205474 
-1 4:0.0063436497 5:0.020187984 
-1 4:0.010035937 5:0.018509948 
-1 4:0.011753398 5:0.01696746 
-1 4:0.013147211 5:0.016647848 
1 3:2.4503591 4:0.011527906 5:0.017807509 
-0.0841259229786729 3:2.4733282 4:0.01009852 5:0.017735376 
-0.1392101448940563 3:2.5578586 4:0.0066611032 5:0.017808452 
-1 3:2.7473108 4:0.0038244266 5:0.01904219 
-1 5:0.02025903 
1 1:0.11164662 
-1 2:0.1105212 3:0.71749726 4:0.012839638 
-1 5:0.014783325 
-1 1:0.10715147 5:0.0030998146 
-1 1:0.10257649 3:2.9047985 5:0.0048032167 
-1 1:0.099684129 3:2.8736832 5:0.0059371447 
-1 1:0.11459818 3:2.9391635 5:0.0041012434 
-1 1:0.10059344 3:2.8885429 5:0.0053407298 
-1 1:0.10420433 3:2.8625493 5:0.0064438881 
-1 1:0.10469561 3:2.9505304 5:0.0047918451 
-1 1:0.10073085 3:2.8719656 5:0.006097853 
-1 1:0.10199901 3:2.9664914 5:0.0051140956 
-1 1:0.1132962 3:2.9910881 5:0.0043643124 
-1 1:0.10291288 3:2.9478281 5:0.0059553151 
-1 1:0.096225928 3:2.8803429 5:0.0069558377 
-0.3016080677121356 1:0.098834953 3:2.8910142 5:0.0072830991 
-1 1:0.049167548 2:0.12105788 
-1 4:0.01492935 5:0.010227922 
-1 4:0.015300908 5:0.010020802 
-1 4:0.014939506 5:0.01007821 
-1 4:0.014923458 5:0.010243441 
-1 4:0.015728065 5:0.0089348152 
-1 4:0.015111308 5:0.010125621 
-1 4:0.015089321 5:0.0099555275 
-1 4:0.015172337 5:0.0099431633 
1 4:0.015259856 5:0.009832535 
1 4:0.013109014 5:0.011111886 
1 4:0.012116459 5:0.011385144 
1 4:0.011913636 5:0.011247175 
1 4:0.011119115 5:0.011846993 
1 4:0.011141334 5:0.0117111 
1 4:0.011778046 5:0.011453916 
1 4:0.010940207 5:0.011940382 
1 4:0.010934988 5:0.011724876 
1 4:0.010135821 5:0.012331065 
1 4:0.011129468 5:0.011486909 
1 4:0.010695154 5:0.012112574 
1 4:0.0097516799 5:0.012565876 
1 4:0.0094818443 5:0.012729196 
1 4:0.0094747904 5:0.012639838 
1 4:0.0089117107 5:0.013003831 
1 4:0.008780085 5:0.013085223 
1 4:0.0086614458 5:0.013011555 
1 4:0.0082360362 5:0.013457061 
1 4:0.0077384929 5:0.013683239 
1 4:0.0076616396 5:0.013748335 
1 4:0.0070639154 5:0.013979893 
1 4:0.0073936409 5:0.013849712 
1 4:0.0073634335 5:0.013780008 
1 4:0.0062593109 5:0.014267459 
1 4:0.0068647502 5:0.014105132 
1 4:0.0074577537 5:0.013661398 
1 4:0.0064894682 5:0.013740301 
1 4:0.014205081 5:0.0063882025 
1 4:0.012818379 5:0.0085218341 
1 4:0.0058171184 5:0.014283218 
1 4:0.0041640857 5:0.014542846 
1 2:0.060529579 3:2.8950138 4:0.011816861 
1 1:0.046543504 2:0.10314829 3:2.7635053 4:0.007369396 
1 2:0.08766434 4:0.018341907 
1 4:0.010581081 5:0.010830334 
1 1:0.093124193 2:0.10058738 3:2.6373076 4:0.0052881396 
1 1:0.0075200447 2:0.1063294 3:3.1337854 4:0.013671997 
1 2:0.059272306 3:3.0755324 4:0.013412129 
1 2:0.051333607 3:2.7694051 4:0.012311617 
1 2:0.077032634 4:0.014637461 
1 2:0.060999888 3:2.9020827 4:0.012756178 
0.01281185835300176 2:0.057571399 3:2.7715386 4:0.011835089 
1 2:0.068404754 3:2.8487808 4:0.012213595 
1 1:0.0014415837 2:0.054196693 3:2.9104544 4:0.013284852 
1 1:0.0015465813 2:0.055764307 3:3.0609214 4:0.013749795 
1 1:0.026804042 2:0.080442786 3:3.0158507 4:0.013093865 
1 2:0.059149108 4:0.014692657 
1 2:0.0025937775 4:0.0072064375 5:0.013424835 
1 4:0.0086074656 5:0.012594795 
1 1:0.19487253 2:0.014576541 5:0.0031826121 
1 1:0.19369501 2:0.026103758 5:0.0020922593 
1 1:0.19499623 2:0.022987303 5:0.0024742064 
1 1:0.1932819 2:0.032058074 5:0.0016686614 
1 1:0.19673645 2:0.018964157 5:0.0029670513 
-1 1:0.19986126 2:0.024325173 5:0.0026331344 
-1 1:0.1280968 2:0.022563806 3:2.0430111 
-0.2203686077114856 1:0.13890071 2:0.00058567475 3:1.8513492 
-1 1:0.12549319 3:1.7988834 5:0.0015219493 
-1 1:0.12219673 2:0.0087325439 3:1.9716061 
-1 1:0.1306888 2:0.01325938 3:1.9845237 
-1 1:0.1264605 2:0.0049326584 3:1.953558 
1 1:0.13080209 2:0.0098011004 3:1.9874907 
1 1:0.141627 2:0.0080415848 3:1.9502796 
0.1065842485716556 1:0.14039558 2:0.0086548009 3:1.9295587 
1 1:0.13820589 2:0.00030728838 3:1.871355 
1 1:0.12619715 2:0.0061290569 3:2.031447 
-1 1:0.13377481 2:0.011694171 3:2.0007491 
1 1:0.12623622 2:0.01335642 3:2.0034212 
1 1:0.12235884 3:1.488175 5:0.0056633652 
1 1:0.12916117 3:1.3908664 5:0.0048984142 
1 1:0.10341887 3:1.2572911 5:0.0069978724 
1 1:0.12199075 3:1.4313284 5:0.0043672488 
-1 4:0.013703276 5:0.0061553929 
-1 4:0.012804399 5:0.0079852615 
-1 4:0.013690524 5:0.0061918759 
-1 4:0.013694927 5:0.0061697156 
-1 4:0.01271922 5:0.008119703 
-1 4:0.013261461 5:0.0071442946 
-1 4:0.013758453 5:0.0060621556 
-1 4:0.013644062 5:0.0062951231 
1 4:0.013704646 5:0.0061512879 
0.09062021583472775 3:1.8307882 4:0.014368061 5:0.0044305978 
1 3:1.8363684 4:0.014468851 5:0.004129416 
1 3:1.8785174 4:0.01433251 5:0.0045369134 
1 3:1.8121191 4:0.014724069 5:0.0032179311 
1 3:1.7248835 4:0.014982642 5:0.0019381572 
1 3:1.7045668 4:0.014965377 5:0.0020453492 
0.5872260200150534 3:1.707191 4:0.014878264 5:0.0024978933 
1 3:1.7147603 4:0.014839771 5:0.0026072257 
1 3:1.7200634 4:0.015001353 5:0.0020266695 
1 3:1.7056852 4:0.014907993 5:0.0025926822 
1 3:1.6952019 4:0.014972578 5:0.0023265767 
1 3:1.7648104 4:0.014728414 5:0.0034581604 
1 3:1.7255217 4:0.014947256 5:0.0024544644 
1 3:1.6845244 4:0.014978017 5:0.0022032688 
1 3:1.6605668 4:0.014846649 5:0.0026646926 
1 3:1.7487924 4:0.01491989 5:0.0029258492 
1 3:1.6680322 4:0.014932783 5:0.002569208 
1 3:1.7306981 4:0.015051203 5:0.0025670748 
0.06540371384986778 3:1.7253509 4:0.014891617 5:0.0028734714 
1 3:1.7019413 4:0.01498556 5:0.0023822734 
1 3:1.7913966 4:0.01431843 5:0.0046691667 
1 3:1.8276329 4:0.014731315 5:0.0037730997 
1 3:1.8296793 4:0.014362872 5:0.0046202014 
1 3:1.7697178 4:0.014576331 5:0.0039771703 
1 3:1.8241222 4:0.014290374 5:0.0048640359 
1 3:1.7972879 4:0.01447362 5:0.0042443002 
1 3:1.897612 4:0.014037293 5:0.0054591872 
1 3:1.9106273 4:0.013841736 5:0.0058972293 
1 3:1.9436059 4:0.013424749 5:0.0067200958 
1 3:1.908619 4:0.013718557 5:0.0061605665 
1 2:0.0045312459 3:1.8432371 4:0.013877657 5:0.0058018824 
1 3:2.1026661 4:0.012554414 5:0.0083792061 
-1 3:2.9522773 4:0.011526733 5:0.0099578491 
-1 3:3.1034421 4:0.01105413 5:0.010897883 
-1 3:3.0558533 4:0.010379033 5:0.011133164 
-1 4:0.0105009 5:0.012134066 
-1 3:2.7175541 4:0.01331107 5:0.0072859162 
-1 3:2.8136856 4:0.012617179 5:0.0084579397 
-1 3:3.1305962 4:0.010781351 5:0.011178964 
-1 3:2.5571333 4:0.013703769 5:0.0061853334 
-1 4:0.010748365 5:0.011345437 
-1 3:3.0179478 4:0.010106724 5:0.011219781 
-1 3:1.4412389 4:0.016482376 5:0.0027003153 
-1 3:1.4526926 4:0.015676101 5:0.0036824064 
-0.09705987742483976 3:1.4269366 4:0.014430859 5:0.0064231455 
-1 3:1.6579988 4:0.014228891 5:0.0072273071 
-0.8230246975550407 3:2.2662131 4:0.010265886 5:0.013136767 
-1 3:0.68195868 4:0.014132387 
-1 2:0.12587831 4:0.0081975644 
-1 3:1.6027251 4:0.0156442 5:0.0064463833 
-1 3:1.1592322 4:0.015615355 5:0.00028676384 
-0.4227096976399002 3:1.7851683 4:0.011785022 5:0.010385445 
-1 3:2.0632021 4:0.00928476 5:0.012435756 
-1 3:1.5957271 4:0.014125047 5:0.0067023994 
-1 3:1.562281 4:0.011313544 5:0.010082653 
-1 3:1.6289651 4:0.01128262 5:0.010108699 
-1 3:2.9792509 4:0.011620697 5:0.009946832 
-1 4:0.011066944 5:0.011074995 
-1 4:0.0087617688 5:0.012795143 
-1 3:3.0576831 4:0.010940755 5:0.010736815 
-1 3:2.0232637 4:0.014999799 
-1 3:2.7647749 4:0.012369903 5:0.008578574 
-1 1:0.10235826 5:0.012579908 
-1 3:1.3282498 4:0.01425249 5:0.0087409504 
-1 3:1.1347881 4:0.01397329 5:0.0083299623 
-1 3:1.2158416 4:0.013532985 5:0.010289104 
-1 3:1.21863 4:0.013966562 5:0.0068667277 
-1 3:1.618028 4:0.0097186728 5:0.013075609 
-1 3:0.91697663 4:0.015236111 5:0.0051177886 
-0.8281451675048934 1:0.14826172 2:0.046902411 5:0.0014741633 
-1 3:1.3746448 4:0.010137184 5:0.01227122 
1 1:0.16645699 3:2.9709525 5:0.0063907928 
-1 3:1.4955666 4:0.0089481624 5:0.012811634 
-1 3:0.68374067 4:0.015039323 5:0.0033237737 
-0.5938503799306895 3:0.63285483 4:0.015032058 5:0.0033389473 
-1 3:0.51711942 4:0.014989358 5:0.0034281289 
-1 3:0.61487767 4:0.014974926 5:0.0034582693 
1 1:0.1929297 2:0.063853607 5:0.0041242846 
1 1:0.19178276 2:0.068108987 5:0.0037736315 
0.4493438996895189 1:0.18966603 2:0.069161525 5:0.0035989399 
1 1:0.19192307 2:0.067941793 5:0.0037498292 
1 1:0.19325687 2:0.067663122 5:0.0038830173 
1 1:0.19092724 2:0.069338495 5:0.0036134084 
-1 1:0.19087194 2:0.07246625 5:0.0033668085 
-1 1:0.11201812 2:0.055091192 3:2.2125146 5:0.001204493 
-1 1:0.1147197 2:0.052929362 3:2.2280326 5:0.0015335956 
-1 1:0.11656201 2:0.052748768 3:2.1676816 5:0.0016906334 
-1 1:0.11309076 2:0.053784477 3:2.1640094 5:0.0013456378 
-0.6090083397987962 1:0.11564861 2:0.054778608 3:2.1516434 5:0.0012958577 
-1 1:0.11390617 2:0.051474127 3:2.1268596 5:0.0015529771 
-1 1:0.11796429 2:0.050832587 3:2.0878029 5:0.0016601353 
-1 1:0.11898366 2:0.052958921 3:2.0572436 5:0.0012676712 
-1 1:0.11475747 2:0.054634721 3:2.0974687 5:0.00082252678 
-1 1:0.11772074 2:0.052426549 3:2.0867713 5:0.0010611332 
-1 1:0.11654594 2:0.051998253 3:2.0889798 5:0.00092313504 
-1 1:0.11877695 2:0.050470802 3:2.0533205 5:0.0011552031 
-1 1:0.11980469 2:0.050852235 3:2.049845 5:0.0010896743 
-1 1:0.12139993 2:0.054364619 3:2.0275553 5:0.00039546716 
-0.3851414753358113 1:0.11865352 2:0.046240991 3:1.982509 5:0.0010675081 
-1 1:0.11920096 2:0.054929672 3:2.0159524 
-1 1:0.12507829 2:0.048478519 3:1.9671831 5:0.00066382097 
-1 1:0.12468104 2:0.049525658 3:1.9794399 5:0.00032663364 
-0.01084952817559075 1:0.12390281 2:0.053402507 3:1.983037 
-1 1:0.12094918 2:0.061487986 3:2.0344285 
-1 1:0.12475979 2:0.051604538 3:2.0047902 
-1 1:0.12173972 2:0.051675933 3:1.9697382 
-1 1:0.12423514 2:0.048606179 3:1.9414417 
-1 1:0.12391653 2:0.045093244 3:1.9117388 
-0.1547449528773516 1:0.1247193 2:0.052517638 3:1.9240678 
-1 1:0.12564301 2:0.042172275 3:1.8603409 
-1 1:0.12715926 2:0.04504655 3:1.877341 
-0.09062021583472775 1:0.12681699 2:0.039848019 3:1.8396672 
-1 1:0.11472778 2:0.073961306 3:2.0720728 
-1 1:0.12727647 2:0.039875455 3:1.8328114 
-0.5688908587579262 1:0.12745749 2:0.038852281 3:1.814472 
-1 1:0.13311313 2:0.037907609 3:1.8003079 
-1 1:0.12495434 2:0.043595278 3:1.858717 
-1 1:0.13242338 2:0.029374406 3:1.8163518 
-1 1:0.12594821 2:0.037779719 3:1.8607824 
-1 1:0.11921059 2:0.051905186 3:1.9086209 
-1 1:0.12375317 2:0.037763904 3:1.871886 
-1 1:0.12635374 2:0.038383567 3:1.8923381 
-1 1:0.12794751 2:0.021263983 3:1.7764565 
-1 1:0.12768562 2:0.033082671 3:1.878785 
-1 1:0.12565817 2:0.037156864 3:1.9551127 
-1 1:0.06459156 2:0.097367739 
-1 1:0.061233888 2:0.090407429 
-0.8587052624516889 4:0.012821006 5:0.0080176721 
-1 4:0.01289978 5:0.0078981161 
-1 4:0.012849681 5:0.0079986282 
-1 4:0.013081315 5:0.0077064524 
1 4:0.012486113 5:0.0085279373 
1 4:0.0099352666 5:0.011340854 
1 4:0.0090968898 5:0.012034082 
1 4:0.011015955 5:0.010184197 
1 4:0.0088999195 5:0.012141216 
1 4:0.0079306228 5:0.012801571 
1 4:0.0069902851 5:0.013365747 
1 4:0.0039941083 5:0.014497679 
1 4:0.0052376173 5:0.014189265 
0.9820260643265499 2:0.0095346611 3:3.0277378 4:0.015000228 5:2.8703572e-05 
1 2:0.0098495673 4:0.014225627 5:0.0051309631 
1 1:0.0034744454 4:0.0052537656 5:0.01491403 
1 4:0.010885173 5:0.010384407 
1 4:0.010280688 5:0.011013644 
1 4:0.0074983809 5:0.013072137 
1 4:0.013321296 5:0.0069490648 
1 1:0.03140513 2:0.11951357 3:2.6734615 4:0.0090849535 
-1 2:0.035510659 3:1.5330333 4:0.0089252351 
1 1:0.11533997 2:0.10823946 3:2.086897 
1 2:0.012619126 4:0.013812969 5:0.0059672605 
1 1:0.031241378 2:0.12744113 3:2.9031203 4:0.012184163 
1 1:0.061087038 5:0.013894603 
1 1:0.13371627 2:0.080532365 3:1.8523365 
1 4:0.004649341 5:0.014301565 
1 1:0.061256052 2:0.10785592 3:2.5632261 4:0.0075989564 
1 1:0.11942856 2:0.09866091 3:2.1492816 4:0.00045417115 
1 1:0.071694903 2:0.097711633 3:2.3080701 4:0.0055107522 
1 1:0.037755233 2:0.11043517 3:3.0386187 4:0.014154299 
0.01396407842775974 2:0.065652476 3:2.5625658 4:0.012259978 
1 1:0.029464649 2:0.091186475 3:2.7426434 4:0.012325804 
1 2:0.051258387 3:2.9080319 4:0.014303064 
1 2:0.059788537 3:2.7294259 4:0.013471489 
1 1:0.077398807 2:0.090244771 3:2.2602271 4:0.0045921544 
1 1:0.024470314 2:0.11200766 4:0.015140286 
1 2:0.08428053 3:3.0001711 4:0.01463039 
1 2:0.099955823 4:0.015403274 
1 1:0.12546503 2:0.0044351129 3:1.0462053 
1 1:0.12504389 2:0.0038966921 3:1.0486119 
1 1:0.12375655 2:0.0038036253 3:1.0508226 
1 1:0.12409945 2:0.0046394014 3:1.0523027 
1 1:0.12419427 2:0.0047577867 3:1.0630857 
1 1:0.12455139 2:0.0041389087 3:1.0500687 
1 1:0.1233546 2:0.0047029639 3:1.0564927 
1 1:0.12404681 2:0.0059143292 3:1.0587595 
1 1:0.12515208 2:0.0031288143 3:1.0443053 
-0.1576627152965785 1:0.11838569 
-1 1:0.12145901 
1 1:0.13933759 
0.8785554885293779 1:0.14492952 2:0.0021484999 
0.8243915570736259 1:0.13863361 
1 1:0.13214609 5:0.0036402412 
1 1:0.1243774 2:0.09468524 3:0.43371052 
-0.97127598943121 2:0.11640479 3:0.90406365 4:0.012006582 
-1 2:0.11935748 3:0.64444397 4:0.0088310862 
-1 2:0.1306234 3:0.63534305 4:0.0076502228 
-1 2:0.12306731 3:0.56470142 4:0.0068117512 
-1 2:0.12704045 3:0.57093129 4:0.0067683314 
-1 2:0.14481142 3:0.75921283 4:0.013008907 
-1 2:0.081447354 3:0.93805609 4:0.013980104 
-1 2:0.0880959 3:1.0067849 4:0.014658313 
-1 3:2.4654076 4:0.0086880021 5:0.017185999 
-1 2:0.10444697 3:0.77245758 4:0.0093674766 
-1 2:0.10126472 3:0.77454636 4:0.0099607904 
-1 2:0.10137329 3:0.77556381 4:0.0099658687 
1 2:0.1375951 3:0.84750137 4:0.010704777 
1 1:0.11986712 2:0.11838153 
-1 3:0.59910901 4:0.015455141 5:0.0051456469 
-1 2:0.14446591 4:0.0054644886 
-1 3:0.061420044 4:0.014639848 5:0.00328573 
-1 3:0.44184046 4:0.013409134 5:0.0067914735 
1 1:0.10968487 2:0.034922278 
-1 2:0.14546347 4:0.0040456418 
1 1:0.11613286 2:0.086266107 
1 1:0.13513911 2:0.1408844 
1 1:0.11496771 2:0.11239406 
1 1:0.11629827 2:0.013467835 
-0.8196491931175022 2:0.14160834 4:0.0043354485 
-1 1:0.053907882 3:2.5089013 5:0.015176949 
-1 3:0.022352581 4:0.019437684 
-1 3:0.0057402899 4:0.019293876 
-1 3:0.0043395807 4:0.019281507 
-1 3:0.013547306 4:0.019362125 
-1 3:0.015019422 4:0.019374862 
-1 3:0.015034323 4:0.019374991 
1 3:0.007900839 4:0.019312882 
-0.794234012428751 4:0.01638393 
-1 4:0.01632608 
-1 4:0.016015776 5:6.100231e-05 
-1 4:0.015113581 5:0.0028341486 
1 4:0.015176862 5:0.0028507604 
-1 4:0.015429286 5:0.0016688869 
-1 4:0.014995523 5:0.0033920437 
-1 4:0.01481727 5:0.0039745289 
1 4:0.011921912 5:0.0091816265 
1 4:0.011350057 5:0.0098099012 
-1 4:0.01108259 5:0.010163622 
-1 1:0.069519775 3:1.2204074 5:0.017225704 
-1 4:0.014761166 5:0.004242483 
1 1:0.040931138 2:0.12617197 3:2.9701509 
1 1:0.042138292 2:0.12755297 3:2.9742455 
1 1:0.042463799 2:0.12619456 3:2.9670838 
1 1:0.040320128 2:0.12916787 3:2.9927849 
1 1:0.041503706 2:0.12671697 3:2.9788062 
1 1:0.041424344 2:0.12642881 3:2.9757676 
1 1:0.042727657 2:0.12637196 3:2.9624775 
1 1:0.044374942 2:0.12702373 3:2.9578012 
-1 1:0.041178423 2:0.12654966 3:2.974209 
1 2:0.0028621735 3:2.9704784 4:0.015084744 
-1 2:0.094032032 3:1.4870813 4:0.00722006 
-1 2:0.12100512 3:1.3044286 4:0.0082687477 
1 3:3.05309 4:0.015665556 5:0.00028948216 
-1 2:0.030337601 3:1.9738301 4:0.014398463 
-1 2:0.11223272 3:1.2005383 4:0.0091199884 
-0.2738950293575683 2:0.10086847 3:1.3166456 4:0.0091733414 
-0.2973549094015561 1:0.011817982 2:0.054475862 3:0.051096008 
-1 2:0.098372457 3:1.7291636 4:0.013516411 
-1 1:0.041640688 2:0.036831249 
-0.9904869512454245 2:0.1285866 3:1.1439495 4:0.0069815162 
-1 1:0.022261618 2:0.066973558 3:0.11745622 
1 2:0.0048000987 3:2.544482 4:0.015073905 
-0.03338258913255897 1:0.0017776823 2:0.087912099 3:0.1557295 
-1 2:0.094727027 3:1.7317998 4:0.011219088 
-0.1423837083280207 2:0.133419 3:1.634715 4:0.010944104 
1 3:3.0028408 4:0.014395729 5:0.0042220931 
1 3:3.0598102 4:0.013513483 5:0.0067957286 
1 1:0.18933061 5:0.0098614315 
-0.02690605620786072 2:0.16526477 3:0.54693943 
-0.3520592580906519 2:0.018682313 5:0.012781651 
1 1:0.29564903 2:0.067378276 3:2.5980918 4:0.014753524 
