svm_type epsilon_svr
kernel_type linear
nr_class 2
total_sv 184
rho 0.000714072
SV
0.3954826323133425 1:0.083559462 2:0.051054164 
1 1:0.10544102 2:0.0052728287 5:0.00091833652 
1 1:0.10583804 5:0.001706941 
1 1:0.10355516 2:0.018084195 
1 1:0.1028464 5:0.0040948435 
1 1:0.1036854 5:0.0035677313 
1 1:0.1002689 2:0.029441592 
1 1:0.10434068 5:0.0021727338 
1 1:0.10333105 5:0.0032450719 
-1 1:0.1057503 5:0.0023006935 
-0.6086214992728393 1:0.05444454 2:0.0033021328 3:2.2235448 5:0.0020317086 
-0.1415754961404125 1:0.041766258 2:0.01637312 3:2.4804204 
0.006151552718210169 1:0.0179194 2:0.053062392 3:3.1179094 
1 2:0.052626021 
-1 2:0.096605776 3:0.46912808 4:0.011908215 5:0.015116159 
1 2:0.072713016 4:0.0076769151 
1 2:0.037582412 3:2.246396 4:0.011707119 
1 2:0.037828963 3:2.2279447 4:0.011409863 
1 2:0.046428912 3:2.060517 4:0.0098921954 
1 3:2.9034544 4:0.015098178 5:4.5396936e-05 
1 2:0.02873109 3:2.347935 4:0.012881444 
-1 1:0.0540741 2:0.030594193 3:0.5759012 
1 3:3.1223389 4:0.010669373 5:0.0062095384 
1 5:0.0098955337 
-1 1:0.11547966 2:0.010510897 5:0.0071038909 
-1 1:0.05774604 2:0.029183609 3:2.167541 5:0.0024688604 
-0.2961645750349917 1:0.04913801 2:0.028538487 3:2.2533462 5:0.0010392094 
-1 1:0.053787339 2:0.026640403 3:2.120721 5:0.0028208873 
-1 1:0.046808337 2:0.028812168 3:2.0695066 5:0.002506747 
-0.9204516164999537 1:0.051352196 2:0.022798819 3:2.0221312 5:0.003609439 
-1 1:0.046977128 2:0.031540145 3:2.2051925 5:0.0003276814 
-1 1:0.04775933 2:0.025121459 3:2.057893 5:0.002684868 
-1 1:0.048690663 2:0.021614551 3:1.9794176 5:0.003561509 
-0.02940151545236653 1:0.043751602 2:0.026539678 3:1.9778444 5:0.0026413287 
-1 1:0.040012225 3:1.7034035 5:0.011688458 
-1 1:0.047094173 2:0.025362061 3:1.9085318 5:0.0026320572 
-1 1:0.047263206 2:0.031915881 3:2.1892166 
-1 1:0.049448656 2:0.084209958 3:2.5811835 
-1 4:0.011456848 5:0.01108252 
-0.5273013234342659 4:0.015013324 5:0.0021359422 
-1 1:0.041997332 2:0.0075856365 3:1.7845798 5:0.0050643371 
-1 1:0.039089767 2:0.0082737714 3:1.8385615 5:0.0045457949 
-1 1:0.043223052 2:0.0066070136 3:1.7393486 5:0.0051555211 
-0.948396574044248 1:0.04624009 3:1.4032515 5:0.0098230134 
-1 1:0.039535711 2:0.0090591546 3:1.8144361 5:0.0037393772 
-1 4:0.013801163 
-1 4:0.013934709 
-1 4:0.012725097 5:0.0082973126 
-1 4:0.01508184 
-1 4:0.014681019 
-1 3:1.5205301 5:0.014263919 
-1 2:0.082137058 4:0.0091406103 
1 2:0.084968708 4:0.0089092955 
1 1:0.0044826985 2:0.067035071 3:2.0377122 4:0.0077424909 
1 2:0.054151658 3:2.7961122 4:0.01430655 
-0.3258875893019662 2:0.30027109 5:0.015 
1 1:0.104205 2:0.030265795 
1 1:0.099218945 2:0.029467144 
1 1:0.10045961 2:0.026300544 
1 1:0.091764014 2:0.050526694 
1 1:0.10081226 2:0.027198715 
1 1:0.10319276 2:0.026192815 
1 1:0.1052971 2:0.018855284 
1 1:0.10986974 2:0.027422211 
-1 1:0.11897296 5:0.001713633 
0.1054925567518577 1:0.064351188 3:2.5831102 5:0.011117695 
-1 1:0.046564233 2:0.016577745 
-1 1:0.042132878 2:0.022003767 
-1 1:0.046162468 2:0.047781778 
-1 1:0.043661751 2:0.023556115 
-1 1:0.044797236 2:0.019612727 
-0.2109470264995187 2:0.010754561 4:0.012100358 
-0.7598479146473064 3:0.83624369 4:0.011587586 5:0.0095354192 
-1 2:0.0079902717 4:0.012796277 
1 1:0.040427829 3:1.7983624 5:0.014970858 
1 1:0.041813151 3:1.7775923 5:0.015011708 
1 1:0.037847036 3:1.7064692 5:0.015081542 
1 1:0.046874533 3:1.8394395 5:0.014777079 
-1 3:0.09619051 4:0.014978103 
0.9266210897828734 1:0.041940967 3:1.8126276 5:0.015000744 
-1 1:0.036499674 2:0.037217178 
-1 
1 1:0.074555765 2:0.0004362325 
1 1:0.078385745 
1 1:0.065917355 5:0.0073951941 
1 1:0.080961122 5:0.0013210891 
1 1:0.077857543 2:0.0028257734 
1 1:0.074362127 2:0.001087522 
1 1:0.0293075 5:0.012613338 
1 1:0.073273866 5:0.0007481796 
1 1:0.085185796 
-1 1:0.063007268 2:0.038863598 
0.9857321804073533 1:0.059652514 2:0.013952775 3:3.0951903 
0.4243625295605826 3:2.9133173 5:0.0029823777 
1 2:0.082726202 4:0.00248145 
1 2:0.036917035 3:2.2221043 4:0.0091208813 
1 2:0.024604807 3:2.4898623 4:0.012782543 
1 2:0.038947536 3:2.1715792 4:0.009422978 
1 2:0.035322014 3:2.2064966 4:0.010517369 
1 2:0.038482477 3:2.1480249 4:0.010011733 
1 2:0.037799411 3:2.3432259 4:0.011656366 
-1 1:0.064269664 2:0.023637083 3:0.30819365 
1 3:3.0776265 4:0.015260696 5:0.0012755652 
0.7907308222638196 2:0.044159087 3:2.0736907 4:0.010102987 
1 2:0.042584288 3:2.3710681 4:0.012691518 
1 2:0.041265607 3:2.537574 4:0.013334447 
1 2:0.043106244 3:2.4977019 4:0.013060438 
1 4:0.0025884089 5:0.015 
1 4:0.0025720261 5:0.015 
1 4:0.0022940414 5:0.012495559 
1 2:0.037864276 3:2.735286 4:0.011302064 
1 2:0.049536383 3:2.577228 4:0.010084689 
1 2:0.049139614 3:2.6072862 4:0.010031186 
1 4:0.0013589563 5:0.011014035 
1 4:0.0017811056 5:0.0096293444 
-1 1:0.088607461 2:0.026515644 5:0.0050372719 
-1 1:0.059395513 2:0.012543124 3:2.3306665 5:0.0075043044 
-1 1:0.057093247 2:0.012009709 3:2.2988397 5:0.0077254671 
-1 1:0.051608888 2:0.013053687 3:2.1937634 5:0.0081992541 
-1 1:0.046859512 2:0.017094052 3:2.2049673 5:0.0071387605 
-1 1:0.046195483 2:0.02086373 3:2.278592 5:0.006024975 
-1 1:0.047110745 2:0.013955964 3:2.1412572 5:0.0078592432 
-1 4:0.014562126 
-0.1239020275019591 1:0.046489885 2:0.014682396 3:2.1277092 5:0.0075031925 
-1 1:0.047409371 2:0.031311703 3:2.4377606 5:0.0021842287 
-1 1:0.04466864 2:0.020161864 3:2.2513505 5:0.0047575941 
-0.005433739373209567 1:0.04328482 2:0.032096183 3:2.2976496 5:0.0029333384 
-0.3247732231950914 1:0.042609629 2:0.022596905 3:2.3976392 5:0.0020129003 
-1 1:0.043503824 2:0.020401481 3:2.3637266 5:0.0026816023 
-1 1:0.046111881 2:0.02172347 3:2.3792673 5:0.0020118507 
-1 1:0.043603984 2:0.022192487 3:2.4646722 5:0.00036607883 
-1 1:0.041722951 2:0.020422268 3:2.3957609 5:0.00053321609 
-1 1:0.032533363 2:0.027649128 3:2.5944834 
-1 2:0.021185578 4:0.011141715 
-1 1:0.031200702 2:0.033185105 3:2.6788201 
-1 2:0.055605693 4:0.01206658 
-1 2:0.051847963 4:0.012506244 
-1 2:0.05240294 4:0.012605828 
-1 2:0.059772348 4:0.011498539 
-0.6109070187319332 2:0.062931532 4:0.011004249 
-1 2:0.027022944 4:0.01454624 
-1 2:0.05749166 4:0.011878295 
1 2:0.057327653 4:0.011898823 
1 2:0.026909947 3:2.6581704 4:0.014333908 
1 2:0.013304871 3:2.884822 4:0.014952183 
1 2:0.019417928 3:2.8176958 4:0.014772837 
1 2:0.021466947 3:2.8952055 4:0.014738686 
0.149757154103849 2:0.045016945 3:2.3614023 4:0.011469631 
1 2:0.013745509 3:3.0379658 4:0.015001038 
1 2:0.054767781 3:2.2120439 4:0.010134785 
1 2:0.04449405 3:2.671206 4:0.013472153 
1 4:0.00058336396 5:0.015 
1 2:0.045399562 3:2.6656454 4:0.013598217 
1 2:0.048567953 3:2.5820815 4:0.012985004 
1 2:0.048548611 3:2.6445278 4:0.013299107 
1 2:0.029978123 3:2.9503125 4:0.014869284 
1 3:1.2265135 4:0.00016755409 
0.0113427155245999 3:1.2402596 4:0.00011706405 
1 2:0.054260974 3:2.2576102 4:0.010610085 
1 3:0.46831943 
1 1:0.20070771 3:2.1617917 4:0.00036779741 
1 1:0.20089255 3:2.190704 4:0.00031245767 
0.007323920680914054 2:0.051680278 3:2.6998685 4:0.013238904 
0.1736834817893061 1:0.23731886 2:0.14000861 4:0.00047341879 
-1 1:0.11466241 2:0.045915404 
-0.9436710567977394 1:0.069481518 2:0.011349048 3:2.4398227 5:0.0021414765 
-1 1:0.069525387 2:0.022676406 3:2.6105262 
-1 1:0.059582628 2:0.019231032 3:2.5112577 
-1 1:0.057248733 2:0.015382231 3:2.426873 5:0.00073493096 
-1 1:0.048763697 2:0.024501391 3:2.5871216 
-1 1:0.044493251 2:0.022714065 3:2.5718134 
-1 4:0.013934446 
-1 1:0.033622398 2:0.024531215 3:2.8142114 
-1 4:0.015003379 
-1 1:0.057416723 2:0.0099748315 3:2.1928093 5:0.0023043276 
-1 1:0.033225458 2:0.030481106 3:2.8308517 
-1 1:0.035367726 2:0.025244726 3:2.7974081 
-1 1:0.015336639 2:0.051717345 3:2.8744921 
1 2:0.036035475 
-1 1:0.037868841 2:0.032975316 3:2.7961064 
-1 4:0.014568757 
-0.05437338352666404 1:0.036577789 2:0.041824191 3:2.559179 
0.8549749435577572 2:0.037675408 
-1 1:0.03967026 2:0.022442578 3:2.5495755 
