svm_type epsilon_svr
kernel_type linear
nr_class 2
total_sv 219
rho 0.00105972
SV
1 2:0.11424257 4:0.0096559688 
1 2:0.11479681 4:0.0094182517 
1 2:0.11507564 4:0.0092120205 
1 2:0.11608138 4:0.0093578171 
1 2:0.11537832 4:0.0093955239 
1 2:0.11573344 4:0.0093642951 
1 2:0.11473681 4:0.0095177348 
1 2:0.11516147 4:0.0094513511 
1 2:0.11696793 4:0.0091729218 
-1 2:0.1154877 4:0.0094608104 
-0.00656497219911019 2:0.074097709 3:1.9326682 4:0.0066023862 
-1 2:0.078155835 3:1.9330017 4:0.006112027 
-1 2:0.071894957 3:2.1373803 4:0.0083657195 
-1 1:0.002199724 2:0.078526138 3:1.6016091 4:0.00069664065 
-0.05063807897796442 2:0.04857635 3:2.4589753 4:0.01117848 
0.008439662249835059 2:0.074533521 4:0.010796836 
1 2:0.073825933 4:0.010529375 
1 2:0.078932863 4:0.010668115 
1 2:0.081221818 4:0.010255745 
-1 2:0.077532882 4:0.011238187 
-1 1:0.14531178 2:0.052532796 
1 1:0.064071346 2:0.027348447 3:3.1314135 
-1 1:0.010160492 2:0.085933697 
1 1:0.068615385 2:0.019019336 3:3.1205498 
1 1:0.062942921 2:0.0096410846 3:3.0866293 
0.1726116316483785 1:0.054132319 2:0.0068013968 3:2.9772913 
1 1:0.052504787 2:0.015173827 3:3.1123195 
0.6006829910666167 1:0.065464272 2:0.033416933 3:3.1172187 
-1 2:0.018782269 4:0.010019365 
1 1:0.068262475 2:0.011335376 
-1 1:0.049313038 5:0.013290682 
-1 1:0.045613509 5:0.013577077 
-1 1:0.042479788 3:3.113684 5:0.013833118 
-1 1:0.052733332 5:0.013008559 
-1 1:0.053630089 5:0.012897664 
-0.9654893807551337 1:0.043329279 3:3.131115 5:0.013722211 
-1 1:0.04631635 5:0.013415797 
-1 1:0.02679139 3:2.9774547 5:0.014801692 
-1 1:0.027124741 3:2.9720694 5:0.014829513 
1 1:0.039558998 3:3.1119647 5:0.013911114 
-1 2:0.052499565 4:0.009400014 
0.03897636997456375 1:0.067396406 2:0.065663955 3:2.5767606 
1 1:0.057894026 2:0.076270649 3:2.6898774 
-1 1:0.075537102 2:0.071346182 3:2.5481017 
-1 1:0.12861274 3:2.9773245 5:0.014654658 
-1 1:0.13358853 3:3.0385641 5:0.013981503 
-1 1:0.12982648 3:2.9987181 5:0.014608089 
-1 1:0.13046849 3:2.977517 5:0.01461194 
-1 1:0.13509866 3:3.0375585 5:0.013879669 
-1 1:0.13708539 3:3.0649972 5:0.013610853 
-1 1:0.13024314 3:2.9801482 5:0.014641116 
1 1:0.088581046 3:2.6133307 5:0.01738463 
1 1:0.043296308 3:0.85975488 5:0.014261166 
-1 2:0.044063782 4:0.0078153661 
-1 1:0.01338031 2:0.066832876 
-1 1:0.0056134106 2:0.062536661 
-0.28205301413125 4:0.0059827736 5:0.013774044 
1 1:0.081524864 2:0.11893092 4:0.0024016593 5:0.00021958819 
1 1:0.11291346 2:0.060141543 4:0.0017735376 5:0.0011298406 
-1 4:0.0096144023 5:0.011569984 
-0.3432352387252664 4:0.011415539 5:0.009744253 
-1 4:0.011379576 5:0.0097774173 
-1 4:0.011286293 5:0.0098819636 
1 4:0.011293087 5:0.0098784362 
1 3:2.9787309 4:0.012013574 5:0.0090738637 
1 4:0.010974049 5:0.010256196 
1 4:0.011277209 5:0.0098989679 
1 3:3.0507762 4:0.0122679 5:0.0086429923 
0.03786986726408163 3:3.044077 4:0.011515515 5:0.0096219055 
1 4:0.0091465305 5:0.011889021 
1 3:3.1315946 4:0.010395394 5:0.010932463 
1 4:0.0084725382 5:0.012403361 
1 4:0.0052502298 5:0.01405526 
1 4:0.00691044 5:0.01335787 
1 3:2.9285238 4:0.0078929727 5:0.012764285 
1 5:0.014906625 
1 1:0.14702511 5:0.0093643871 
1 1:0.043880041 3:1.5481818 5:0.013839701 
-1 1:0.033178046 2:0.046057223 
-1 1:0.01676163 2:0.065568848 
0.1641705612903554 2:0.16032828 3:1.4275213 5:0.01449848 
1 2:0.0911171 
1 2:0.089403072 
1 2:0.090603287 
1 2:0.092005441 
1 2:0.08993651 
1 2:0.092425272 
1 2:0.092807428 
1 2:0.096723509 
1 2:0.099675971 
-1 1:0.010894028 2:0.10192146 
-1 1:0.0080216712 2:0.09573648 
-1 1:0.01953867 2:0.083664138 
-1 1:0.016285507 2:0.085163652 
-1 1:0.0087892513 2:0.087483685 
-1 1:0.0091384466 2:0.084492115 
-1 1:0.015339132 2:0.084268078 
-1 1:0.013489421 2:0.086243645 
-1 1:0.015441972 2:0.086363394 
-0.7285997684424086 1:0.009806692 2:0.086336602 
-1 2:0.08969086 
-0.4427302830767511 2:0.086465818 
-1 1:0.018471168 2:0.088347084 
-1 1:0.00016879531 2:0.087849338 
-1 1:0.0043349833 2:0.08692549 
-1 2:0.077178279 
-1 2:0.0839236 
-1 1:0.011914544 2:0.084002969 
-1 2:0.10027176 
-0.3138085574166152 2:0.091067502 3:0.045193321 4:0.004239396 
-1 2:0.099369338 
-1 1:0.006847967 2:0.077928151 
-1 2:0.07308563 4:0.0017035074 
-1 2:0.0696507 4:0.0022582907 
-1 1:0.0095996024 2:0.080365156 4:0.00028536551 
-0.6585347754504632 1:0.0060485203 2:0.11748135 4:0.001766084 
-1 1:0.029189489 2:0.069345672 
-0.8671187610533105 1:0.11699219 3:2.6793142 5:0.0099329475 
-0.07796590992817329 1:0.119611 3:2.694023 5:0.0097731312 
-1 1:0.11415611 3:2.6255988 5:0.010378342 
-1 1:0.10943854 3:2.6009754 5:0.010805269 
1 1:0.10394802 3:2.5431364 5:0.011455248 
1 1:0.0070108353 3:0.17154602 5:0.015042914 
1 1:0.012669994 3:0.11678436 5:0.014927763 
1 1:0.030163593 3:0.64267818 5:0.012708264 
1 1:0.012036201 3:0.079551081 5:0.014918125 
1 1:0.0013950808 3:0.081960553 5:0.015029186 
1 1:0.0087014075 3:0.14459288 5:0.014919827 
1 1:0.0010377627 3:0.072680029 5:0.015003637 
1 1:0.0031220913 3:0.12223552 5:0.014978985 
1 3:0.077149286 5:0.015014511 
1 1:0.0051154841 3:0.16604899 5:0.014907008 
1 1:0.00073543675 3:0.13597191 5:0.014954716 
1 3:0.16171456 5:0.01495147 
1 3:0.12425721 5:0.014997438 
1 2:0.079703512 3:0.20177374 4:0.0027207919 5:0.00087292448 
1 2:0.058108369 3:0.78890297 
1 2:0.069406504 3:0.38265725 5:7.0848472e-05 
1 2:0.10404568 4:0.0050792405 
1 2:0.07944943 4:0.0093984235 
1 2:0.11199172 4:8.8724408e-05 
1 2:0.078502728 4:0.0097394655 
1 2:0.084121438 4:0.0085143576 
1 2:0.093204064 4:0.0069175367 
1 2:0.10280303 4:0.0056252367 
-1 2:0.087470865 4:0.0082168083 
-1 2:0.050987747 3:0.91275873 4:0.010838839 
-0.03285262659224436 2:0.057497462 3:0.83214919 4:0.0097718875 
-1 2:0.079352904 3:0.26069927 4:0.0024993 
-1 2:0.058607029 3:0.80182161 4:0.0091059477 
-0.2673293647087667 2:0.0068498831 3:0.85011684 4:0.012365565 
-0.831137562943091 2:0.065738005 3:0.64590445 4:0.0075365635 
1 1:0.030401107 5:0.014539058 
-1 2:0.063964385 3:0.39076339 4:0.0048068526 
0.9743246404024272 1:0.0045561085 4:0.00054162706 5:0.015010218 
1 1:0.05787282 2:0.017891723 
-1 2:0.036400465 3:0.58685786 4:0.0092666493 
1 1:0.0055381869 3:3.0087692 4:0.00068310888 5:0.014986648 
1 1:0.0040162723 2:0.31332307 3:3.1183362 4:0.00071929292 5:0.010741561 
-0.04874739772724022 1:0.30991259 3:1.4612955 4:0.0089306117 
1 1:0.10017438 2:0.11149252 
1 1:0.11957802 2:0.092307879 
1 1:0.12893387 2:0.084516102 
1 1:0.11973401 2:0.085296184 
-1 1:0.11466312 2:0.08557486 
1 4:0.0063732141 5:0.013584528 
1 1:0.0060284342 3:0.57849758 5:0.014563676 
-1 2:0.09148338 4:0.0052029976 
1 1:0.041824927 3:0.93683696 5:0.014274697 
-1 4:0.0042051493 5:0.014401079 
-1 3:0.42720636 5:0.015146778 
-1 3:0.136976 4:0.005746803 5:0.014743898 
0.4035678467911845 1:0.057358198 3:1.8314826 5:0.00032149786 
-1 1:0.0073670268 2:0.059378443 
1 2:0.099131294 4:0.0050104504 
-1 2:0.10233445 4:0.005236516 
-0.1154231635631154 2:0.069488112 3:1.6516485 4:0.0090097813 
-0.4035678467911845 2:0.068269187 3:1.8326147 4:0.0093960655 
1 1:0.047409067 5:0.0085761111 
-1 1:0.050013067 2:0.057133964 3:0.60363718 
1 1:0.12713808 2:0.080345771 
1 1:0.11636033 2:0.088208089 
1 1:0.10987816 2:0.10562846 
-1 1:0.14504023 5:0.013836835 
1 1:0.15631508 5:0.011102684 
0.4067046973752315 1:0.035308345 2:0.041702102 3:2.8381534 
0.261507053848749 1:0.022226336 2:0.057424106 3:3.0879571 
1 1:0.081288464 2:0.062819127 
0.4666546179155286 1:0.1056311 2:0.011712808 3:3.1032351 
1 1:0.087203421 2:0.059379355 
-1 3:0.9739889 5:0.021192418 
1 1:0.11290521 2:0.0033126348 3:3.0251232 
-1 1:0.039459485 2:0.043907756 
-1 1:0.035459586 2:0.037133696 
-1 1:0.043241592 2:0.047237243 
-1 1:0.006323589 2:0.052722122 4:0.00062577991 
-1 1:0.06267349 2:0.015831566 
-1 1:0.052331254 2:0.012400266 3:3.0878162 
-1 1:0.057209714 2:0.058714282 
1 2:0.078974638 4:0.010792578 
1 2:0.080067301 4:0.010690283 
-1 2:0.070741455 4:0.011924781 
-1 2:0.06468631 3:0.41071547 4:0.0095539506 
-1 2:0.067048492 3:0.28978359 4:0.0083346624 
-1 2:0.079500251 4:0.0022294626 
-1 2:0.074553537 3:0.14910359 4:0.0060537919 
-1 2:0.076437108 3:0.24831752 4:0.0055806584 
-1 2:0.070049337 3:0.38816373 4:0.0082960976 
-1 2:0.078253843 3:0.15234944 4:0.0058167237 
-1 2:0.063730022 3:0.55903369 4:0.010140102 
1 1:0.022693524 2:0.0081309934 5:0.0044899963 
-1 2:0.072121455 3:0.20096542 4:0.0057187424 
1 2:0.10548871 5:0.0029275982 
1 1:0.019349782 2:0.10619015 3:2.8490535 5:0.010519442 
0.9002867626551332 1:0.066565648 2:0.044815978 
1 1:0.05924788 2:0.052791693 
-1 1:0.081166338 5:0.0035123535 
-1 3:0.21311436 4:0.009686587 5:0.01190869 
-1 1:0.0084170308 2:0.065380246 
