svm_type epsilon_svr
kernel_type linear
nr_class 2
total_sv 367
rho 0.00145583
SV
-1 3:0.29948777 4:0.015017841 
-1 3:0.3122248 4:0.015043904 
-1 3:0.27596933 4:0.014983832 
-1 3:0.30976957 4:0.015037822 
-1 3:0.29888433 4:0.015017984 
-1 3:0.27382129 4:0.014977882 
-1 2:0.0018039647 3:0.24187344 4:0.014885357 
-1 3:0.31826109 4:0.01505027 
-1 3:0.36324829 4:0.01499215 5:0.00068624788 
1 3:0.31329304 4:0.015039488 
-1 1:0.11615214 2:0.042701013 
1 3:2.3854711 4:0.015694815 5:0.0028043484 
1 2:0.036877257 3:1.9981029 4:0.015447185 
-1 1:0.068125312 2:0.048762132 
-1 3:1.5159532 4:0.015159648 5:0.00042255512 
-1 3:1.541895 4:0.015179879 5:0.001200268 
-1 3:1.5405861 4:0.015190501 5:0.0012751305 
-1 3:1.5342449 4:0.015175293 5:0.0009535822 
-0.4089209457441465 3:1.5002662 4:0.015177441 5:0.0002801244 
-1 3:1.5831783 4:0.01513177 5:0.0020975092 
-1 3:1.4841876 4:0.015261003 5:0.00056574211 
-1 3:1.5426396 4:0.015170128 5:0.0011169915 
-1 3:1.5535567 4:0.015157018 5:0.0012823923 
-1 3:1.592296 4:0.015084082 5:0.0015962227 
1 3:1.5405217 4:0.015196505 5:0.0013360058 
1 2:0.028170256 4:0.014174989 
1 2:0.015664522 4:0.014504041 
1 2:0.013471737 4:0.014564252 
-1 1:0.11155223 3:1.8163764 5:0.006092052 
1 2:0.013533106 4:0.014438673 
1 2:0.022217451 4:0.013925371 
1 2:0.016824718 4:0.014265323 
1 2:0.027630925 4:0.013544162 
1 2:0.065858109 
-1 1:0.0092560627 2:0.059696809 3:1.4600138 5:0.0059339922 
1 1:0.012915658 2:0.086110223 4:0.00032222452 
1 1:0.0030813878 2:0.069396767 4:0.00042781559 
1 2:0.0063026418 4:0.015871507 
-1 2:0.075535474 4:0.012096661 
-1 2:0.073356594 4:0.012222767 
-1 2:0.076509942 4:0.011901988 
-1 2:0.07427944 4:0.012207001 
-1 2:0.07367389 4:0.012284951 
-1 2:0.073840576 4:0.012110541 
-1 2:0.074570821 4:0.012086322 
-1 2:0.075612408 4:0.012113114 
-1 2:0.074974316 4:0.012082451 
-1 2:0.074375053 4:0.011884604 
1 2:0.066703687 4:0.012990396 
0.1350010392620544 1:0.024182115 2:0.018591169 4:0.00071271016 
0.1522145545153754 3:3.0025326 4:0.00034014948 5:0.015193891 
0.1460487742831597 2:0.016237864 3:1.6846271 4:0.01475876 5:0.003084184 
-1 3:1.5918422 4:0.015741394 5:0.005597961 
-1 3:1.3711293 4:0.016699637 5:0.0018399423 
-1 3:1.3225627 4:0.017020679 5:0.00059638075 
-1 3:1.8974683 4:0.014120342 5:0.0096747611 
-1 3:1.2637194 4:0.016953501 
-1 3:1.3500155 4:0.016888587 5:0.0012393298 
-1 3:1.1056881 4:0.017016879 
-1 3:1.2842998 4:0.016965564 5:6.7548009e-05 
-1 3:1.4270394 4:0.016672891 5:0.0026309794 
-1 3:1.2031507 4:0.016805639 
-1 3:1.505306 4:0.016469232 5:0.0038649003 
1 3:1.7839447 4:0.01374154 5:0.0089216135 
1 4:0.015632653 
1 4:0.015606898 5:0.00080769555 
1 4:0.015144497 5:0.00049878192 
1 4:0.014730343 5:0.0046994501 
1 4:0.014829068 5:0.0028890958 
1 4:0.014887779 
1 4:0.011255213 
-1 2:0.082521839 4:0.0087839369 
1 2:0.063031893 3:0.33535793 4:0.0061153962 
1 2:0.046817242 3:0.46263848 4:0.0083172275 
0.0110479333986583 1:0.016188705 2:0.072293693 3:0.20176602 4:0.0017179428 
0.04034069171809222 1:0.038822249 2:0.080897962 3:0.24748245 
1 1:0.021080981 2:0.071125242 3:0.14438006 4:0.00011101075 
-1 2:0.17947696 5:0.0073026595 
-1 3:1.1464731 4:0.014276496 5:0.0064915988 
1 3:1.1456062 4:0.014266586 5:0.0065983349 
1 4:0.014874167 5:0.0019395164 
1 4:0.014866053 5:0.0020053319 
1 2:0.0037863968 4:0.015013341 
1 4:0.014926928 5:0.0014807143 
1 4:0.014881167 5:0.0018857976 
0.2893264115074465 4:0.014734393 5:0.0028390988 
1 4:0.014919355 5:0.0016325614 
1 4:0.014376079 5:0.0043028045 
1 4:0.014913005 5:0.0017375731 
1 4:0.014934476 5:0.0015595364 
1 4:0.014915828 5:0.0016908292 
1 2:0.0084572556 4:0.015075339 
1 1:0.073340429 3:1.5468485 
1 1:0.082187991 3:1.6593362 
1 1:0.077758959 3:1.6458646 
1 1:0.07635367 3:1.5522109 
1 1:0.080261708 3:1.5858509 
1 1:0.077672513 3:1.6201187 
1 1:0.085555207 3:1.587826 
1 1:0.083550168 3:1.5956835 
1 1:0.090229211 3:1.4666952 5:0.0021460598 
1 1:0.09251724 3:1.636509 
1 1:0.092652895 3:1.5848073 
-1 1:0.087719643 3:1.5056208 5:0.0011588447 
-1 1:0.078448369 2:0.0018094602 
-1 1:0.071043469 2:0.011026346 
-1 1:0.072549555 
-1 1:0.078457868 
-1 1:0.073685204 
-1 1:0.069946135 
-1 1:0.071397007 
-1 1:0.073534732 
-1 1:0.070705647 
-1 1:0.068815155 
-1 1:0.068613947 
-1 1:0.064104 
-0.1004936941279078 1:0.062573047 
-0.8451024277376541 1:0.076604522 
1 1:0.25701487 3:0.75865525 4:0.014226571 
-1 3:1.055293 4:0.017376806 5:0.0015466722 
-1 3:1.7055837 4:0.014008782 5:0.011411439 
1 1:0.084282988 3:2.9570121 5:0.015407039 
-1 3:1.0547133 4:0.017409701 5:0.001492157 
-1 3:1.0476133 4:0.017284488 5:0.0015593465 
-1 3:1.6794892 4:0.013640892 5:0.011262474 
-1 3:0.7776567 4:0.016943772 
-1 3:0.9749197 4:0.017468846 5:0.0001069671 
1 3:1.0357356 4:0.017353944 5:0.0012785348 
-1 2:0.050723008 3:2.7760847 
-1 1:0.018560972 2:0.049159936 3:2.6888009 
-1 1:0.021415105 2:0.058658119 3:2.2698431 
-0.7530173502317373 1:0.047043305 2:0.052734592 3:2.7340082 
-1 1:0.029789288 2:0.050857298 3:2.2865619 
-1 1:0.013722502 2:0.054230995 3:2.5527545 
1 4:0.0097766421 
-1 1:0.011726515 2:0.081503766 
1 2:0.046220209 4:0.0022036312 
1 2:0.045777144 4:0.0010780094 
-1 1:0.1139397 2:0.34766356 3:2.4783419 4:0.0058537086 5:0.0092003736 
1 1:0.1452811 2:0.12786704 3:1.835657 4:0.0057580931 
-1 2:0.0034999585 4:0.016153982 5:0.0088266949 
-1 2:0.0055701914 4:0.016283432 5:0.0087059 
-1 2:0.0097248343 4:0.016428667 5:0.0083600545 
-1 2:0.0081595896 4:0.016315621 5:0.0084399054 
-1 4:0.016053824 5:0.0095068279 
-1 4:0.016019435 5:0.0093734416 
-1 2:0.0041226795 4:0.016195564 5:0.0087906986 
1 2:0.00049938275 4:0.016107777 5:0.0091336963 
1 4:0.016318976 5:0.01036762 
1 4:0.015814883 5:0.010136052 
1 2:0.0031672849 4:0.015959276 5:0.0084404144 
1 2:0.0073513403 4:0.015836001 5:0.0077150864 
1 2:0.013354808 4:0.01590812 5:0.0066777027 
1 2:0.0076302507 4:0.015549478 5:0.0068959161 
1 2:0.025990237 4:0.015620597 5:0.0043383818 
1 2:0.019000452 4:0.01556531 5:0.0050689669 
1 2:0.029732416 4:0.015592698 5:0.0034437822 
1 2:0.030719586 4:0.015385229 5:0.0031324682 
1 2:0.035349858 4:0.015337198 5:0.0023105448 
1 2:0.032368049 4:0.015271664 5:0.0025550947 
1 2:0.041073243 4:0.015262606 5:0.0015058902 
1 2:0.038707706 4:0.015166957 5:0.0016392722 
1 2:0.041990614 4:0.015181127 5:0.0011781238 
1 2:0.036394706 4:0.015103782 5:0.001653124 
1 2:0.0567857 4:0.015097915 
1 2:0.047521144 4:0.015141226 5:0.00048753663 
1 2:0.040066221 4:0.015068555 5:0.0012238828 
1 2:0.041181067 4:0.01505536 5:0.00090776932 
1 2:0.0038670039 4:0.014672021 5:0.0049277955 
1 2:0.050142165 4:0.015034571 
1 2:0.045297495 4:0.015047471 5:0.00046652014 
1 2:0.083980343 4:0.01462099 
1 2:0.060340528 4:0.015001522 
1 2:0.055317378 4:0.015008898 
1 2:0.06555704 4:0.01490004 
1 2:0.047854066 4:0.015036058 5:0.00039831018 
1 2:0.063211141 4:0.014936206 
0.277407371375069 2:0.044314216 4:0.015021821 5:0.00041567736 
1 2:0.047843628 4:0.015010611 5:0.00025727425 
1 2:0.06241311 4:0.014941675 
1 2:0.074073251 4:0.014786525 
1 2:0.068772211 4:0.014941819 
-1 1:0.038844329 3:0.62969168 5:0.0043941466 
1 1:0.16015238 5:0.020090813 
1 1:0.16407507 5:0.019992841 
1 1:0.16441019 5:0.019949504 
1 1:0.16710214 5:0.019862515 
1 1:0.16122683 5:0.0200826 
0.2391967214096125 1:0.15986259 5:0.020099391 
1 1:0.23991725 5:0.0020886048 
-1 1:0.16457849 5:0.020024341 
-1 1:0.088680098 3:0.29082821 5:0.017279588 
-1 1:0.21071759 3:0.7342357 5:0.0097852406 
1 1:0.11451774 5:0.018672927 
1 1:0.04796763 4:0.0078072525 5:0.016258616 
-0.2595928362997734 1:0.15780283 2:0.013487104 3:1.256245 
-1 1:0.074238387 3:0.12886064 5:0.01780346 
-1 1:0.097509833 3:0.23993932 5:0.015354789 
1 1:0.15843974 5:0.010474271 
1 1:0.16436058 5:0.010245802 
1 1:0.16028423 5:0.010112514 
1 1:0.15752634 5:0.012128643 
1 1:0.168565 5:0.0098794479 
1 1:0.16665215 5:0.010791997 
1 1:0.15337047 5:0.01078406 
1 1:0.091452155 4:0.0012353221 5:0.014994963 
1 1:0.11517057 4:4.5464865e-05 5:0.015003727 
-1 1:0.18358107 5:0.010118956 
1 1:0.094588454 4:0.002889899 5:0.014742342 
-1 1:0.17158355 5:0.0085231103 
1 1:0.17419527 5:0.014612409 
-0.6752069605988579 1:0.098814378 3:0.12130893 5:0.0105061 
-1 1:0.070164471 3:0.56086452 5:0.0069977705 
1 1:0.18217821 5:0.015176863 
1 1:0.18443821 5:0.015151597 
1 1:0.17910615 4:0.0012950247 5:0.015052949 
1 1:0.17452504 4:0.0011336526 5:0.015001096 
-1 1:0.12937689 2:0.063921032 3:0.54080853 5:0.00048547279 
-1 4:0.016076412 5:0.013840122 
-1 4:0.016576585 5:0.013236949 
-1 4:0.01645205 5:0.013391417 
-1 4:0.01540942 5:0.014579087 
-1 4:0.015964603 5:0.013968946 
-1 4:0.016075874 5:0.013840747 
-1 4:0.016486912 5:0.013348473 
-1 4:0.016154411 5:0.013749 
-1 4:0.015286156 5:0.014708277 
1 4:0.016325262 5:0.013545694 
-0.8097120803794382 3:2.4731956 4:0.014732945 5:0.015262383 
1 3:2.3719965 4:0.016310847 5:0.013563048 
-1 3:2.3872517 4:0.015647877 5:0.014322847 
-1 2:0.011083633 3:2.3510269 4:0.016287147 5:0.013591499 
-1 2:0.012444935 3:2.3390527 4:0.01639999 5:0.013455123 
-1 2:0.045922887 3:2.3519785 4:0.016114159 5:0.0088736916 
1 2:0.060138785 3:2.2380226 4:0.016966983 5:0.0067690334 
-1 5:0.020236183 
-1 2:0.042546394 3:2.4116036 4:0.015307212 5:0.0086445178 
-1 1:0.0005947194 5:0.01837969 
0.2994202311791865 2:0.053399019 3:2.4446893 4:0.015371646 5:0.006926393 
0.08298136855675731 2:0.076118733 3:2.3022918 4:0.015830961 5:0.0040616404 
-1 1:0.10749449 5:0.012486552 
-0.2912610907944925 2:0.095762713 3:2.341412 4:0.015097331 5:0.0018145124 
-0.3005127919299386 2:0.12388084 3:2.1977126 4:0.015079482 
-0.1108664692255109 2:0.12211575 3:2.276256 4:0.015112152 5:0.00032022737 
1 1:0.13050573 5:0.013371184 
-1 1:0.063917947 3:2.7860095 4:0.014025612 5:0.0073795119 
-1 2:0.017191836 4:0.015602999 5:0.0019824373 
-1 2:0.020583044 4:0.015576311 5:0.0016498278 
-1 2:0.01837195 4:0.015598801 5:0.0018715931 
-1 2:0.029642152 4:0.015564227 5:0.00077289074 
-1 2:0.017838258 4:0.015645245 5:0.0019920617 
-1 2:0.015859807 4:0.015612671 5:0.0021186099 
-1 2:0.016716375 4:0.015684077 5:0.0021347062 
-1 2:0.025444403 4:0.015676286 5:0.001305122 
1 2:0.017370858 4:0.015641986 5:0.0020006546 
1 2:0.021674391 3:2.6661102 4:0.015067497 
1 2:0.028345741 3:2.6162224 4:0.014927937 
1 2:0.020245184 3:2.6049888 4:0.015018754 
0.06135471861324437 2:0.024545263 3:2.5400718 4:0.01491579 
1 2:0.027228615 3:2.7148156 4:0.014833428 
1 2:0.031655505 3:2.6686091 4:0.014728643 
1 2:0.02722321 3:2.7151508 4:0.01481657 
1 2:0.033253622 3:2.6391315 4:0.014680871 
1 2:0.031672181 3:2.7034452 4:0.014728164 
1 2:0.033896829 3:2.6938866 4:0.014689389 
1 2:0.03428788 3:2.7272939 4:0.014690365 
1 2:0.036143299 3:2.736067 4:0.014708719 
1 2:0.038160655 3:2.696436 4:0.01465215 
1 2:0.040957678 3:2.7520065 4:0.014640782 
1 2:0.038884154 3:2.7287591 4:0.014676208 
1 2:0.04732111 3:2.7096048 4:0.014470294 
1 2:0.043788371 3:2.6870988 4:0.014600781 
0.8882975273007093 2:0.045288438 3:2.7580421 4:0.014552109 
1 2:0.044460355 3:2.7103697 4:0.014575584 
1 2:0.054615519 3:2.6126959 4:0.014292002 
1 2:0.051761975 3:2.6591564 4:0.014441622 
1 2:0.034526299 3:2.7982286 4:0.014825428 
1 2:0.06457028 3:2.6916999 4:0.014542529 
1 2:0.05349275 3:2.7492009 4:0.014975413 
1 2:0.062488074 3:2.7801557 4:0.014959593 
-1 2:0.13844102 4:0.0065888219 
1 2:0.011257842 3:2.5866025 4:0.014700242 
1 2:0.010178954 3:2.3658195 4:0.014861604 
1 2:0.046270253 3:2.2045478 4:0.013149309 
1 2:0.049459064 3:2.3969453 4:0.013814705 
1 3:2.5131631 4:0.015255795 5:0.0011090556 
1 1:0.060267306 5:0.018819557 
0.01663338474758062 1:0.25136938 3:1.9635447 4:0.0095236301 
1 1:0.26908556 3:1.8779533 4:0.010591193 
-1 2:0.013029639 4:0.020593163 5:0.0050913298 
-1 2:0.0097036235 4:0.020487625 5:0.0055006547 
-1 4:0.020257565 5:0.0062953214 
-1 4:0.020269946 5:0.0062553403 
-1 4:0.020305124 5:0.0061401897 
-1 4:0.019565143 5:0.0081978762 
-1 2:0.012914352 4:0.020594379 5:0.00508641 
-1 2:0.018481371 4:0.020673084 5:0.0047564274 
-1 4:0.015822021 5:0.014130239 
1 2:0.010418481 4:0.020516905 5:0.00539042 
-1 1:0.16828287 5:0.014602991 
-1 1:0.29022612 5:0.0079066405 
-1 1:0.23355392 5:0.0097828131 
-1 1:0.23929623 5:0.0087253925 
-0.8819507612550929 1:0.1976282 5:0.0097738635 
1 1:0.15019097 2:0.16974876 4:0.0028003938 
1 1:0.19658071 2:0.018757285 3:2.5931456 
1 1:0.19770814 2:0.027827968 3:2.6342985 
1 1:0.19262366 2:0.029138657 3:2.6223877 
1 1:0.18954247 2:0.017100004 3:2.6086285 
1 1:0.19219016 2:0.020719167 3:2.6133804 
1 1:0.19690735 2:0.016293524 3:2.5926654 
1 1:0.19433516 2:0.025803256 3:2.6251726 
-1 1:0.18676841 2:0.022926684 3:2.614981 
-1 1:0.13682713 2:0.065341801 3:2.7900894 
-1 1:0.13764654 2:0.061325407 3:2.8123013 
-1 1:0.12558075 2:0.050044052 3:2.8082533 
-1 1:0.13163515 2:0.032658838 3:2.7540045 
-1 1:0.13236648 2:0.028891562 3:2.683172 
-1 1:0.11352238 2:0.037319484 3:2.7843016 
-1 1:0.12221556 2:0.03216891 3:2.7756485 
-1 1:0.11914544 2:0.029808485 3:2.7418647 
-1 1:0.12695095 2:0.019090068 3:2.7230154 
-1 1:0.12727304 2:0.020538466 3:2.7061373 
-1 1:0.11857233 2:0.030714299 3:2.769089 
-1 1:0.1307934 2:0.033434034 3:2.8207328 
-1 1:0.11537344 2:0.011628972 3:2.6118415 
-1 1:0.12219609 2:0.034682591 3:2.8317573 
-1 1:0.12695216 2:0.019370713 3:2.7369142 
-1 1:0.11689305 2:0.032699693 3:2.8292284 
-1 1:0.12743554 2:0.029959017 3:2.7813881 
-1 1:0.12504788 2:0.029133879 3:2.7727483 
-1 1:0.1264585 2:0.030734928 3:2.8009067 
-1 1:0.12569583 2:0.029643726 3:2.7945561 
-1 1:0.13239256 2:0.022416483 3:2.7318666 
-1 1:0.12987397 2:0.030627292 3:2.7183055 
-1 1:0.12338988 2:0.028743421 3:2.7280225 
-1 1:0.12822733 2:0.032385619 3:2.7737474 
-1 1:0.12441539 2:0.027539901 3:2.7668635 
-1 2:0.058292869 4:0.015270462 
-1 2:0.054020726 4:0.015514497 
-1 2:0.057980517 4:0.015314647 
-1 2:0.062132064 4:0.015001188 
-1 2:0.053515976 4:0.015744973 
-1 2:0.058323604 4:0.015179787 
-1 2:0.059638535 4:0.014984966 
-1 2:0.060447263 4:0.01509079 
1 2:0.060911476 4:0.015212322 
1 2:0.029351662 3:2.7540161 4:0.01478421 
1 2:0.023588651 3:2.7730769 4:0.015212153 
0.7086649747490121 3:2.8404057 4:0.015410104 
1 1:0.10576687 5:0.015965041 
1 1:0.15393653 3:3.0837333 5:0.018033624 
1 1:0.18988547 3:2.899715 5:0.019773213 
1 1:0.14184681 3:2.9287033 5:0.019542236 
1 1:0.19017862 3:2.9282176 5:0.019546242 
1 1:0.14363052 3:3.0772036 5:0.018106181 
1 1:0.19015047 3:2.9162176 5:0.019643746 
1 1:0.18908364 3:2.9054516 5:0.019728817 
-1 1:0.17741546 3:2.8705272 5:0.019988993 
-1 1:0.14850259 3:1.9393184 
-0.9821519100228325 1:0.11709879 2:0.056431543 3:2.5701349 
-0.7026999593077283 1:0.078429112 3:0.49723603 5:0.013762878 
-1 1:0.22377082 2:0.060937743 3:2.1209518 
0.7735535750391591 1:0.073381256 2:0.1003564 3:2.9259225 
1 1:0.066500582 2:0.092671867 
-1 1:0.19712074 3:0.82674377 5:0.004727026 
1 1:0.006427094 4:0.014715688 5:0.0045678358 
