svm_type epsilon_svr
kernel_type linear
nr_class 2
total_sv 618
rho 0.000895572
SV
-1 2:0.11013838 4:0.013364247 
-1 2:0.10902862 4:0.013598622 
-1 2:0.10933114 4:0.01407239 
-1 2:0.10992379 4:0.013718217 
-1 2:0.11043705 4:0.013254518 
-1 2:0.10941619 4:0.013483951 
1 2:0.10986928 4:0.013695396 
1 2:0.073991778 3:1.9779213 4:0.015275609 
1 2:0.069826792 3:1.9632131 4:0.015552837 
1 2:0.067822329 3:1.9299085 4:0.014210218 
1 1:0.014703611 2:0.070502193 3:2.0426536 4:0.010037405 
1 2:0.10040249 4:0.0088745344 
0.1448782472123181 2:0.067271366 3:1.1358076 4:0.01130797 
1 1:0.017981446 2:0.063988775 3:1.3215412 4:0.010970331 
-1 2:0.076065002 4:0.014221379 
-1 2:0.076682826 4:0.014135711 
-1 2:0.077274823 4:0.014101612 
-1 2:0.076528965 4:0.014144857 
-1 2:0.076675073 4:0.014130467 
-1 2:0.077069887 4:0.014139709 
-1 2:0.077117749 4:0.014135936 
-1 2:0.077407173 4:0.01415973 
-1 2:0.07703508 4:0.014135843 
1 2:0.067745672 3:1.8047713 4:0.015388892 
-1 4:0.019423662 5:0.0085276823 
-1 4:0.019212165 5:0.0089940371 
-1 4:0.019297896 5:0.0088085874 
-1 4:0.019255205 5:0.0089015211 
-1 4:0.019138909 5:0.0091488895 
-1 4:0.019008887 5:0.0094160614 
-1 4:0.019200167 5:0.0090196228 
1 4:0.019274574 5:0.0088595033 
-1 3:0.69928161 4:0.019163286 5:0.0090977186 
1 2:0.0012479943 3:0.65274585 4:0.01820304 5:0.0062079221 
-1 1:0.12961181 2:0.00928693 
1 1:0.23363511 3:2.6672302 
1 1:0.23257655 3:2.6711993 
1 1:0.23303434 3:2.6517534 
1 1:0.23481838 3:2.6668748 
1 1:0.23620801 3:2.6704911 
1 1:0.23880072 3:2.6775423 
1 1:0.23388077 3:2.6701676 
-1 1:0.23618127 3:2.6691191 
-1 1:0.18893962 3:2.1382396 
-1 1:0.17996756 3:2.1358554 
-1 1:0.17357108 3:2.1441669 
-1 1:0.16693745 3:2.1520737 
-1 1:0.1632838 3:2.1602277 
-1 1:0.15584934 3:2.1434657 
-1 1:0.15337117 3:2.1492605 
-1 1:0.15805291 3:2.1713628 
-1 1:0.15727794 3:2.174587 
-0.09318169554254206 1:0.15885616 3:2.1966982 
-1 1:0.1609536 3:2.1923109 
-1 1:0.16232504 3:2.3068288 5:0.0011920096 
-1 1:0.17363458 3:2.2967554 5:0.00081817902 
-1 1:0.17552744 3:2.2814715 5:0.0019436076 
-1 1:0.1645966 3:2.2651138 5:0.0023589743 
-1 1:0.17518813 3:2.322018 5:0.0017076069 
-1 1:0.17176787 3:2.2479165 5:0.0026487763 
-1 2:0.043363576 4:0.015776653 5:0.00053953526 
-1 2:0.044397414 4:0.015795515 5:0.00045698543 
-1 2:0.044766395 4:0.01580801 5:0.00045489592 
-1 2:0.044751855 4:0.015805399 5:0.00045901262 
-1 2:0.045888612 4:0.015797362 5:0.00037428004 
-1 2:0.043390017 4:0.015785178 5:0.00049739789 
1 2:0.038970928 3:0.001400833 4:0.015801487 5:0.00089226156 
1 2:0.053803347 3:3.0199256 4:0.014530359 
1 2:0.051816431 3:3.0375751 4:0.014498336 
1 2:0.048027911 3:3.0623347 4:0.014554689 
0.001653339680537451 2:0.05280113 3:3.0221152 4:0.01445205 
1 2:0.043026751 3:3.1201167 4:0.01465457 
1 2:0.042876751 3:3.0661538 4:0.014572442 
1 2:0.048660933 3:2.9895222 4:0.014504254 
1 2:0.045368908 3:3.0413872 4:0.014443488 
1 2:0.051732617 3:3.0447583 4:0.014439213 
1 2:0.053069246 3:3.0537608 4:0.014300801 
1 2:0.051487537 3:3.0299078 4:0.014350976 
1 2:0.041173195 4:0.014685096 
1 2:0.047792469 3:3.0153606 4:0.014461782 
1 2:0.048167424 3:3.029266 4:0.014431061 
1 2:0.04633243 3:3.0426029 4:0.014416461 
1 2:0.050776899 3:3.0211749 4:0.014301355 
1 2:0.044077404 3:3.0474092 4:0.014523775 
1 2:0.049299267 3:3.0419121 4:0.014390045 
1 2:0.050908204 3:3.0389945 4:0.01430007 
1 2:0.050893799 3:3.0385176 4:0.014247386 
1 2:0.045238904 3:3.065859 4:0.014617171 
1 2:0.056419591 3:2.993522 4:0.014134749 
1 2:0.040969247 3:3.0545947 4:0.014773467 
1 2:0.051083165 3:3.0891592 4:0.014330028 
1 2:0.047140383 3:3.0590506 4:0.014505364 
1 2:0.049984376 3:3.0357646 4:0.014302172 
1 2:0.03767839 3:3.0729744 4:0.01489765 
1 2:0.054288632 3:2.9673521 4:0.014145715 
0.4162543429342049 2:0.062259145 3:3.0198475 4:0.013958506 
1 2:0.05666167 3:3.0310832 4:0.013985746 
1 2:0.052973911 3:2.9694636 4:0.014293651 
1 2:0.047542847 3:3.0500898 4:0.014460285 
1 2:0.047757847 3:3.0014642 4:0.01432177 
1 2:0.052937044 3:3.0249991 4:0.014271251 
1 2:0.054574025 3:2.9813803 4:0.014204082 
1 2:0.05555007 3:3.0512506 4:0.014249605 
1 2:0.058891264 3:2.9801619 4:0.014062729 
1 2:0.056867442 3:2.9422001 4:0.01396298 
1 2:0.053245356 3:2.9723052 4:0.014166255 
1 2:0.06059971 3:2.9213058 4:0.013981737 
1 2:0.059267183 3:2.9985437 4:0.014287247 
1 2:0.057721732 3:2.9069184 4:0.014296624 
1 2:0.063693411 3:2.8857802 4:0.013961206 
1 2:0.06548864 3:2.8793122 4:0.013972512 
1 2:0.06725342 3:2.842406 4:0.013816849 
1 2:0.063922787 3:2.8942014 4:0.014039328 
1 2:0.062363413 3:2.8513409 4:0.014030971 
1 2:0.059261238 3:2.8700872 4:0.014400254 
1 2:0.062843985 3:2.8893888 4:0.013511272 
0.2850522548325331 2:0.06114077 3:2.85856 4:0.0138569 
1 2:0.067379881 3:2.8597815 4:0.013793297 
1 2:0.063621002 3:2.8498605 4:0.013734433 
1 1:0.11020119 5:0.0031119498 
1 1:0.11138042 5:0.0028790241 
1 1:0.10536298 5:0.0035991568 
1 1:0.1099233 5:0.0036752809 
1 1:0.11185483 5:0.0031489441 
-1 1:0.11380706 5:0.0030954956 
-1 1:0.073428008 3:2.0195276 5:0.0087534448 
-1 1:0.079214141 3:1.9970539 5:0.008088451 
-1 1:0.051756515 3:1.932406 5:0.0093253173 
-1 1:0.038381373 3:1.9187955 5:0.0094326833 
-1 1:0.041324148 3:1.8035957 5:0.0093984338 
-1 1:0.14722569 3:1.7054621 5:0.0046041329 
1 2:0.051890847 4:0.011189101 
-1 1:0.052401333 3:2.2208372 5:0.008437927 
1 2:0.090744969 4:0.0083843282 
1 2:0.07103305 3:0.30498807 4:0.0070462955 
0.7497127906884435 2:0.05848398 3:0.086885344 4:0.0057807573 
1 2:0.052294715 4:0.0051037211 
1 2:0.05642836 4:0.0047392635 
1 2:0.055623674 4:0.0042819315 
1 2:0.052406166 4:0.0061466437 
1 2:0.053895818 4:0.0054089904 
1 2:0.046936467 4:0.0048309939 
1 1:0.014065708 2:0.051886548 4:0.001867252 
1 2:0.044320872 4:0.004791935 
1 1:0.027513721 2:0.045925581 4:0.0005998595 
1 2:0.037342794 4:0.0043747971 
1 3:0.10198254 4:0.010386851 
1 2:0.02113786 4:0.0080598046 
1 1:0.031345827 2:0.054460496 4:0.0011004269 
-1 1:0.21166528 
1 1:0.021374627 2:0.042361853 4:0.0027008386 
1 1:0.0058859845 2:0.049002051 4:0.0045623391 
1 1:0.023165769 2:0.036893856 4:0.0032638151 
0.1013228309311186 1:0.014664582 2:0.050767722 4:0.0037027145 
1 1:0.019444864 2:0.05004391 4:0.0031309383 
1 1:0.082412625 2:0.056854187 4:0.0014579053 
1 1:0.13070256 2:0.080947453 3:0.1241116 4:0.0044055327 
1 1:0.1207925 2:0.054820876 4:4.1050704e-05 
-1 1:0.019078625 2:0.076121615 3:3.0529242 
0.1701815535395176 1:0.016917737 2:0.058868125 3:0.68887399 4:0.00055983524 
-0.1472554720357302 5:0.013733294 
0.6414498801788692 1:0.067434317 2:0.055316317 3:0.52319489 
0.09697805034723772 1:0.15004479 2:0.050895271 3:0.61443467 
0.09947215252679892 1:0.025712145 2:0.068043044 3:0.69485543 4:0.0037913824 
-0.06257601657266945 3:1.7499474 4:0.011264163 5:0.017680481 
-1 1:0.0063315035 3:1.78832 4:0.009911386 5:0.017933347 
1 1:0.0054085583 3:1.786313 4:0.010024137 5:0.017932414 
-0.7471824788192171 1:0.028038664 3:0.69164343 5:0.014838703 
-1 1:0.024009235 3:0.81844808 5:0.014267654 
-0.7264671165916451 2:0.11424257 4:0.0096559688 
1 2:0.1154877 4:0.0094608104 
-1 1:0.094310524 2:0.051812479 3:0.55942736 
1 2:0.0096083875 3:3.0848869 4:0.01495375 
-1 2:0.070233326 4:0.011775968 
-1 2:0.070393201 4:0.01187299 
-1 2:0.074391875 4:0.011147109 
-1 2:0.069774472 4:0.012128969 
-1 2:0.077532882 4:0.011238187 
1 1:0.14569469 2:0.042053941 
1 1:0.14331858 2:0.051505584 
1 1:0.14277226 2:0.054979767 
1 1:0.14352195 2:0.053834767 
1 1:0.14302739 2:0.054307668 
1 1:0.15261685 2:0.029961674 
1 1:0.15146293 2:0.035621433 
1 1:0.14274105 2:0.054924492 
-1 1:0.14531178 2:0.052532796 
-1 1:0.067794425 2:0.017929056 
-1 1:0.048390939 2:0.027301079 
-1 1:0.049662291 2:0.0295004 
-1 1:0.053363166 2:0.026196474 
-1 1:0.063938412 2:0.019182072 3:3.1145777 
-1 1:0.057667084 2:0.016289107 3:3.0833573 
-1 1:0.052831758 2:0.034446996 
-1 1:0.048670508 2:0.030669982 
-1 1:0.052150623 2:0.030157676 
-1 1:0.035103392 2:0.044377347 
-1 1:0.055752052 2:0.018053638 3:3.1115125 
-1 1:0.058961687 2:0.0089878822 3:2.9873065 
-1 1:0.038064122 2:0.044508489 
1 2:0.0070967643 4:0.01420539 
-1 1:0.054132319 2:0.0068013968 3:2.9772913 
-1 1:0.062373193 2:0.012374233 3:3.0177438 
1 2:0.062486594 4:0.00060940473 
-1 1:0.052400268 2:0.016400186 
-1 1:0.064372216 2:0.01720462 3:2.9935429 
-1 1:0.061552588 2:0.015932962 3:2.95387 
-0.9921593029321297 1:0.072417319 2:0.052025839 3:2.9975526 
-1 1:0.039558998 3:3.1119647 5:0.013911114 
-1 1:0.075537102 2:0.071346182 3:2.5481017 
-0.8311218360553004 1:0.05720235 2:0.061224373 3:0.18358764 
-1 1:0.054337715 2:0.060849049 3:0.22317162 
-0.9532421805828973 1:0.050811308 2:0.064317936 3:0.28909983 
-1 1:0.055733924 2:0.061242222 3:0.22872302 
-1 1:0.049192789 2:0.063758627 3:0.31031814 
-1 1:0.047503082 2:0.064859933 3:0.32651745 
-1 1:0.046991773 2:0.069324114 3:0.35287148 
-1 1:0.044576588 2:0.069024199 3:0.35622156 
-1 1:0.039787348 2:0.074007585 3:0.41673684 
-1 1:0.040443568 2:0.072023817 3:0.35061063 
-1 1:0.042455726 2:0.069767692 3:0.37304859 
-1 1:0.039383761 2:0.072211129 3:0.383586 
-1 1:0.036969066 2:0.078308356 3:0.39311788 
-1 1:0.037342211 2:0.066270068 3:0.33936124 
-1 1:0.029874955 2:0.07780578 3:0.4467201 
-1 1:0.029076905 2:0.078629969 3:0.43400339 
-1 1:0.040863873 2:0.059439897 3:0.39355516 
-0.3409776047961948 1:0.047112175 2:0.062881637 3:0.31855371 
-1 1:0.039070321 2:0.075771511 3:0.37432384 
-1 1:0.037466452 2:0.0775036 3:0.41112586 
-1 1:0.041701663 2:0.066577605 3:0.30857866 
-0.8185991291885288 1:0.014494766 2:0.065428862 3:0.53609011 
-1 1:0.0573203 2:0.068967641 3:0.1360492 
0.795008289691198 1:0.13708539 3:3.0649972 5:0.013610853 
-1 1:0.088581046 3:2.6133307 5:0.01738463 
-1 1:0.061437671 3:1.1767809 5:0.010977421 
1 4:0.0092916734 5:0.011886635 
1 2:0.044063782 4:0.0078153661 
1 4:0.014697311 
1 2:0.067440566 
1 1:0.0026546621 2:0.05789667 
1 2:0.07111278 
0.8070905643970386 2:0.072526848 
1 1:0.11291346 2:0.060141543 4:0.0017735376 5:0.0011298406 
1 1:0.014203067 4:0.0018997028 
-1 4:0.01199602 5:0.0090170405 
-1 4:0.01341927 5:0.0067041488 
-1 4:0.013263243 5:0.0070063011 
-1 4:0.011677437 5:0.0094215596 
-0.7246601210300787 4:0.011415539 5:0.009744253 
-1 4:0.012880495 5:0.007689273 
-1 4:0.01310053 5:0.0073058973 
-1 4:0.012376067 5:0.0084766221 
1 4:0.011293087 5:0.0098784362 
1 3:2.9787309 4:0.012013574 5:0.0090738637 
1 4:0.010974049 5:0.010256196 
1 4:0.011277209 5:0.0098989679 
1 3:3.0507762 4:0.0122679 5:0.0086429923 
1 3:3.044077 4:0.011515515 5:0.0096219055 
1 4:0.011807346 5:0.009254345 
1 3:3.0180306 4:0.012584471 5:0.0081681729 
1 4:0.012187061 5:0.0087502959 
1 4:0.011798309 5:0.009263465 
1 4:0.010735881 5:0.010476888 
1 3:2.9778372 4:0.012358238 5:0.0085271071 
1 3:2.8822934 4:0.012478928 5:0.0083802793 
1 4:0.0091465305 5:0.011889021 
1 4:0.01108013 5:0.01012038 
1 3:2.897442 4:0.011055844 5:0.01019443 
1 3:2.9823709 4:0.011974019 5:0.0090775275 
1 4:0.0084725382 5:0.012403361 
1 3:2.9285238 4:0.0078929727 5:0.012764285 
1 3:2.7090371 4:0.011415646 5:0.0097341132 
1 1:0.14910587 5:0.0066616761 
1 1:0.15197152 5:0.0058171398 
1 1:0.14965667 5:0.0064542392 
1 1:0.14979214 5:0.006692991 
1 1:0.15069097 5:0.0061727577 
1 1:0.14748702 5:0.0076728351 
1 1:0.14965052 5:0.0068843607 
1 1:0.14588942 5:0.0077944623 
1 1:0.15022552 5:0.006849979 
1 1:0.15235162 5:0.006570654 
1 1:0.14957279 5:0.0073717872 
-1 1:0.14702511 5:0.0093643871 
-1 1:0.092440988 3:2.5766662 5:0.0042335193 
-1 1:0.078947953 2:0.0014413389 3:2.7071266 5:0.0025117636 
-1 1:0.055361943 2:0.0053858665 3:2.6422109 5:0.0021338133 
-1 1:0.054496625 3:2.4913795 5:0.0049399776 
-1 1:0.043880041 3:1.5481818 5:0.013839701 
-1 1:0.055530198 2:0.01511895 3:2.8919276 
-1 1:0.062288893 2:0.013782036 3:2.9494517 
-0.2571857525515051 1:0.058088027 2:0.0093342701 3:2.9180876 
-1 1:0.060915809 2:0.0059931799 3:2.9123853 
-0.5550319926705192 1:0.062381828 2:0.017690741 3:2.9916363 
-1 1:0.05795724 2:0.028830443 
-1 1:0.055664743 2:0.028772392 
-1 1:0.06060999 2:0.0062916775 3:2.8904257 
-1 1:0.066172836 2:0.0033090825 3:2.9310385 
-1 1:0.064351024 3:2.792805 5:0.00041726532 
-1 1:0.057746647 3:2.6255215 5:0.0032184518 
-1 1:0.069115218 2:0.020386766 3:3.0108662 
1 4:0.015033678 5:0.002036716 
-1 1:0.072574789 2:0.0077817053 3:2.629398 5:0.0001748648 
-1 1:0.066457404 3:2.9182728 
1 4:0.015151308 5:0.00082673091 
-1 1:0.052582599 3:2.6629602 5:0.0012510409 
1 2:0.029314066 4:0.014415245 
1 1:0.01676163 2:0.065568848 
1 2:0.063169331 4:0.00053592644 
1 1:0.017200369 2:0.068564504 
1 1:0.017879453 2:0.068374147 
-1 1:0.062189233 2:0.021658568 3:3.0987413 
1 4:0.00014199455 
-0.06903869614044056 2:0.16032828 3:1.4275213 5:0.01449848 
1 1:0.010894028 2:0.10192146 
-1 1:0.0080216712 2:0.09573648 
-1 1:0.01953867 2:0.083664138 
-1 1:0.016285507 2:0.085163652 
-1 1:0.0087892513 2:0.087483685 
-1 1:0.015339132 2:0.084268078 
-1 1:0.013489421 2:0.086243645 
-1 1:0.015441972 2:0.086363394 
-1 1:0.018471168 2:0.088347084 
-1 1:0.0043349833 2:0.08692549 
-1 1:0.011914544 2:0.084002969 
1 3:1.1901644 4:0.016952945 
-1 1:0.11985487 2:0.12150761 
1 2:0.06829038 4:0.00058263127 
1 1:0.0028361692 2:0.068263097 
-1 1:0.083165611 5:0.0021136265 
1 1:0.0060485203 2:0.11748135 4:0.001766084 
0.009792254584402769 1:0.029189489 2:0.069345672 
1 1:0.022993987 2:0.06978374 4:0.00011593731 
1 1:0.024069911 2:0.071235495 4:0.00027080963 
1 1:0.02425992 2:0.065549914 4:0.00039918042 
1 1:0.11982185 3:2.7194302 5:0.0092955203 
1 1:0.11699219 3:2.6793142 5:0.0099329475 
1 1:0.12299563 3:2.7434084 5:0.0087910081 
1 1:0.11954516 3:2.6859055 5:0.0095466229 
1 1:0.11959543 3:2.7369726 5:0.009002624 
1 1:0.119611 3:2.694023 5:0.0097731312 
1 1:0.11415611 3:2.6255988 5:0.010378342 
1 1:0.10943854 3:2.6009754 5:0.010805269 
-1 1:0.10394802 3:2.5431364 5:0.011455248 
-1 1:0.081054846 3:0.90912792 5:0.0095550444 
-1 1:0.073150655 3:0.92831532 5:0.008969202 
-0.06369622166106845 1:0.078499024 3:1.5309184 5:0.0048642591 
-1 1:0.081067752 3:1.3294581 5:0.003042248 
-0.632554625770551 1:0.058732052 3:0.77100619 5:0.01112265 
-1 1:0.068323008 3:1.0705384 5:0.0085820304 
1 1:0.00188303 3:0.097229577 5:0.015023348 
1 1:0.0069780765 3:0.019860282 5:0.015004092 
1 3:0.016282614 4:0.0004225486 5:0.015016708 
0.9813364579448638 3:0.051561739 4:0.00013441341 5:0.015022636 
-1 4:0.015138891 
-1 4:0.016107559 5:0.0025215059 
-1 2:0.0022341741 4:0.015053122 
-1 2:0.037314518 4:0.013986528 
-1 2:0.0044722298 4:0.015053066 
-1 4:0.0151149 
-1 4:0.016047971 5:0.0035501251 
-1 2:0.0031551626 4:0.015089271 
-1 4:0.015406696 5:0.0035612064 
-1 2:0.00093192403 4:0.015016548 
-1 2:0.00084164994 4:0.01506655 
-1 4:0.01518383 
-1 4:0.015169823 
1 4:0.015156399 5:0.00035389487 
1 2:0.011241154 3:0.81764561 4:0.014725469 
-1 1:0.05460778 2:0.044099565 
1 3:1.0693328 4:0.014897259 5:0.002025051 
1 2:0.0023805483 3:0.85614444 4:0.015022764 
1 2:0.0058800736 3:0.84151517 4:0.014997858 
1 2:0.011251479 3:0.71049199 4:0.014895477 
1 2:0.010251988 3:0.86454375 4:0.015005886 
1 2:0.0064556715 3:0.87826859 4:0.015017579 
-1 1:0.033782678 2:0.017009374 
-0.05037485403265734 3:1.0758328 4:0.014633892 5:0.0035273451 
1 2:0.011929855 3:0.80711326 4:0.01502379 5:0.00015461561 
-1 1:0.039803837 2:0.0017711843 
-1 1:0.085231976 2:0.0011224328 
0.5170215127958916 1:0.16558919 3:2.98554 5:0.015204151 
1 1:0.16959404 3:2.9912487 5:0.015119454 
-1 1:0.16905469 3:3.0694085 5:0.013911494 
-1 1:0.05581065 2:0.10591986 3:2.7139614 
-1 1:0.049377303 2:0.035938271 3:1.9473588 5:0.0018804309 
-0.08705507643295238 1:0.047937594 2:0.13493605 3:2.0493769 
-0.252476966248525 1:0.094640483 2:0.062164973 3:1.2736562 5:0.006101972 
1 4:0.01192223 5:0.0094011231 
-1 1:0.07346964 2:0.082293752 3:1.421473 5:0.003870556 
-1 1:0.035420346 3:3.0085008 5:0.014861946 
1 1:0.0075370251 3:0.14461816 4:0.0026889698 5:0.015673673 
-1 1:0.05680298 2:0.0079898964 3:1.0548582 5:0.0074369848 
-1 1:0.057267468 2:0.017157315 3:1.0354558 5:0.0063583314 
-1 1:0.067142528 3:0.98669499 5:0.0083195382 
-1 1:0.057993408 2:0.020678114 3:1.1289696 5:0.0052193606 
-1 1:0.050483812 3:0.36475635 5:0.013660329 
0.9635992677425607 1:0.038503308 3:0.11671409 5:0.014926053 
-0.656199853822516 1:0.084597467 2:0.00073353734 3:0.89243688 5:0.0070216649 
1 4:0.012278091 
1 1:0.023538204 4:0.0052341102 5:0.01406275 
1 2:0.038982177 3:3.0817918 4:0.00048862267 
0.7924068029798856 2:0.032890154 3:3.0852765 4:0.0012064095 
-1 2:0.065614089 3:2.0497288 
-0.5188683380369512 1:0.0021265032 2:0.065851521 3:1.8665072 
-1 1:0.033578942 2:0.058368981 3:3.0790279 
1 2:0.045984496 3:0.23911765 4:0.0034375361 
1 1:0.003821805 2:0.036507197 3:0.18393947 4:0.0025961813 
1 1:0.013378173 2:0.035020123 3:0.17803573 4:0.0014458189 
1 1:0.0078921728 2:0.033068661 3:0.28450241 4:0.0031883354 
1 1:0.0092110427 2:0.032268 3:0.18629144 4:0.0019950412 
1 1:0.0231626 2:0.035574338 3:0.23577741 4:0.0010598012 
1 1:0.0099213726 2:0.038828493 3:0.4548372 4:0.0037948601 
1 1:0.024783362 2:0.030843989 3:0.20737437 4:0.00030234303 
1 2:0.036876382 3:0.4428091 4:0.0052819818 
0.6736921163672571 1:0.020321869 2:0.033799517 3:0.44774814 4:0.0031791083 
1 1:0.015004762 2:0.037764597 3:0.43809961 4:0.0032257303 
1 1:0.043772463 2:0.02854797 3:0.45153409 4:0.0011224619 
0.3989911305483225 1:0.05229128 2:0.010074836 3:0.14436785 
1 1:0.039767482 2:0.024603286 3:0.37981759 
1 1:0.023675264 2:0.053126895 3:0.61536725 4:0.0031195883 
1 1:0.044604534 2:0.011107909 3:0.22289462 
-1 1:0.0014434739 5:0.00046278986 
-1 1:0.024483233 4:0.011905036 5:0.017557623 
-1 1:0.12344193 5:0.012433176 
-1 1:0.03414012 4:0.013003725 5:0.016760165 
-1 2:0.04602827 4:0.016734901 
-1 2:0.05575246 4:0.015781454 
-1 2:0.05706137 4:0.015582439 
-1 2:0.035877546 4:0.018063955 
-1 2:0.058823844 4:0.015379092 
-1 2:0.034243105 4:0.016379021 
-1 2:0.0532935 4:0.01603805 
-1 2:0.057686914 4:0.015832927 
-1 2:0.076127633 4:0.014135265 
1 2:0.041927703 3:1.2675683 4:0.016473644 
-1 1:0.041061656 
-1 3:2.6679932 4:0.018484517 5:0.00094360217 
-1 3:2.3088548 4:0.018195823 
-1 1:0.080755123 4:2.2894763e-06 5:0.017884756 
-1 1:0.010613106 3:0.33271654 4:0.014463321 5:0.011368404 
1 4:0.0048036666 
-1 2:0.052714406 4:0.0072798565 
1 2:0.058099446 3:1.1370203 4:0.011382014 
1 2:0.048606086 3:1.0924541 4:0.0105811 
0.04217122625710049 1:0.052456717 2:0.016918228 3:0.63273659 
-1 2:0.064893627 4:0.019054214 
-1 2:0.064822905 4:0.018892819 
-1 2:0.06564631 4:0.019079489 
-1 2:0.071442375 4:0.017768287 
-1 2:0.06548198 4:0.018906124 
-1 2:0.065261963 4:0.018653434 
-1 2:0.069036728 4:0.017522997 
-1 2:0.063675894 4:0.01950082 
-1 2:0.064471601 4:0.019361351 
-1 2:0.070513126 4:0.018238351 
-1 2:0.06145085 4:0.019559052 
-1 2:0.069142848 4:0.017519687 
-1 2:0.062930117 4:0.019445621 
1 2:0.064340397 4:0.017415738 
-1 2:0.049468045 3:0.75529876 4:0.019806427 
-1 2:0.050448183 3:0.82285873 4:0.020770174 
-0.8780311671241111 2:0.045741376 3:0.55595518 4:0.017782669 
1 1:0.065854443 
-1 1:0.011175191 2:0.061383507 3:0.82989131 4:0.017039518 
-1 1:0.016219505 2:0.050881081 3:0.61436485 4:0.015848784 
1 1:0.045095529 
-0.8215174858082456 2:0.08304981 3:1.3447226 4:0.01700181 5:0.0012461026 
1 1:0.038389348 
1 1:0.048834385 
-1 4:0.019474474 5:0.0084109957 
-1 4:0.019518506 5:0.0083083047 
-1 3:2.7615906 4:0.021209092 
-1 3:2.6205522 4:0.020939788 
1 4:0.016064183 5:0.013854315 
1 4:0.01739887 
1 4:0.019366234 5:0.0011846601 
-1 2:0.050390732 4:0.012801646 
1 2:0.087470865 4:0.0082168083 
1 2:0.050987747 3:0.91275873 4:0.010838839 
1 2:0.057497462 3:0.83214919 4:0.0097718875 
1 2:0.0059807068 3:1.554917 4:0.014775476 
1 1:0.0045561085 4:0.00054162706 5:0.015010218 
-1 1:0.041498259 2:0.031370526 
0.05940299748120542 1:0.040457119 3:0.258429 4:0.0031504296 
1 1:0.070584991 3:0.30513233 4:0.0026366651 
1 1:0.30971899 3:1.4624102 4:0.0090169341 
1 1:0.30991259 3:1.4612955 4:0.0089306117 
1 1:0.13327653 2:0.065553044 
1 1:0.14381685 2:0.038714556 5:0.0010366048 
1 1:0.14757789 2:0.027927591 5:0.0021796631 
1 1:0.13046961 2:0.071599962 
1 1:0.11957802 2:0.092307879 
1 1:0.12893387 2:0.084516102 
1 1:0.12843412 2:0.076356213 
1 1:0.11973401 2:0.085296184 
-1 3:1.209777 4:0.012368434 5:0.011129378 
-1 1:0.11466312 2:0.08557486 
-0.1927358292172018 1:0.042254798 2:0.051359572 3:2.770203 
1 4:0.0063732141 5:0.013584528 
-0.2052681586772172 1:0.056208621 2:0.017049238 3:2.0922765 
-1 1:0.073426807 3:1.1802366 5:0.010943172 
-0.4525114208599695 1:0.03778265 3:1.1694364 5:0.010107544 
1 4:0.0087884209 5:0.012523051 
-0.5224712272470995 1:0.036291291 3:0.71701331 5:0.012284841 
-1 1:0.04237914 3:0.95182887 5:0.012254302 
-0.6389649365715497 1:0.048432697 3:1.5072614 5:0.010877732 
1 2:0.041545739 4:0.00060543191 
-1 1:0.041824927 3:0.93683696 5:0.014274697 
-1 2:0.010211028 4:0.014873153 
1 2:0.016047598 4:0.015040489 5:0.0058109753 
1 2:0.042882492 4:0.011539551 
1 4:0.013447025 5:0.0073486093 
-1 1:0.046338463 2:0.059646367 3:2.293144 
1 2:0.059483156 
1 2:0.061188872 
1 2:0.059335212 
0.3780736366880857 1:0.0038581768 2:0.059595446 
1 1:0.0051714551 2:0.060526042 
-0.1419088207198846 1:0.032532293 3:1.0546591 5:0.011301304 
-1 2:0.032037151 4:0.014839029 
-1 2:0.050008396 4:0.0141284 
-1 2:0.052526039 4:0.014016527 
-1 2:0.018772403 4:0.015000221 5:0.00012950386 
-1 2:0.007718287 4:0.014867351 5:0.0020004578 
-1 2:0.042977571 4:0.014465306 
-1 2:0.065697625 4:0.013061882 
-1 2:0.068789379 4:0.012564075 
-1 2:0.039033355 4:0.014634217 
-1 2:0.053284918 4:0.013930377 
-1 2:0.10233445 4:0.005236516 
-1 1:0.047409067 5:0.0085761111 
1 2:0.017459946 3:2.7224013 4:0.009951588 5:0.0011254105 
1 1:0.1586652 2:0.013156176 5:0.0075895079 
1 1:0.12713808 2:0.080345771 
1 1:0.11636033 2:0.088208089 
1 1:0.13782782 2:0.049194189 5:0.0028759269 
1 1:0.1320102 2:0.066493629 5:0.00061171502 
1 1:0.14504023 5:0.013836835 
1 1:0.15226422 2:0.042042318 5:0.0041798648 
-1 1:0.15631508 5:0.011102684 
-1 1:0.06411892 2:0.039898274 3:2.7741563 
-1 1:0.048383729 2:0.055864915 3:3.0669667 
-1 1:0.048709218 2:0.04537161 3:2.9027065 
-1 1:0.052648528 2:0.048869267 3:2.8912909 
-1 1:0.053550118 2:0.044555608 3:2.8812931 
-1 1:0.041967934 2:0.036895689 3:2.8350198 
-1 1:0.071078337 2:0.04226726 3:2.8478234 
-1 1:0.034630883 2:0.059031304 3:3.0160052 
1 2:0.0091817597 4:0.012560361 
1 4:0.014954665 
-1 1:0.062234243 2:0.039556479 3:2.665354 
-1 1:0.048896721 2:0.05370447 3:2.7700528 
1 4:0.014529941 5:0.0059359999 
1 4:0.015222299 5:0.0012531295 
-1 1:0.02567267 2:0.061371092 3:2.9258736 
1 2:0.024937194 4:0.011775356 
1 2:0.03431933 4:0.011154662 
-1 1:0.015151331 2:0.063035254 3:2.9565284 
-0.3609901072188303 1:0.070158022 2:0.0036774859 3:2.3332799 5:3.8971435e-05 
1 1:0.1006286 2:0.031193907 
1 1:0.081288464 2:0.062819127 
1 1:0.10552692 2:0.0091022114 3:3.0915954 
1 1:0.1056311 2:0.011712808 3:3.1032351 
1 1:0.10848964 2:0.0052622106 3:3.0664109 
1 1:0.10557784 2:0.021016796 
1 1:0.10388806 2:0.0092692023 3:3.0896561 
1 1:0.087203421 2:0.059379355 
-1 1:0.11290521 2:0.0033126348 3:3.0251232 
-1 1:0.039459485 2:0.043907756 
1 1:0.006323589 2:0.052722122 4:0.00062577991 
-1 1:0.055593069 2:0.015415956 3:3.1368237 
-1 1:0.06267349 2:0.015831566 
-1 1:0.063678349 2:0.0015208056 3:2.9331045 
-1 1:0.052331254 2:0.012400266 3:3.0878162 
-1 1:0.05849829 3:2.8267179 
-1 1:0.062616626 2:0.0074517913 3:2.9393572 
-1 1:0.054079177 2:0.0034942406 3:2.9718817 
-1 1:0.055864189 2:0.0028452095 3:3.0551291 
-1 1:0.054347336 3:2.8546631 
-0.2724308340227957 1:0.050568862 3:2.7362573 
0.6510788990937306 1:0.027537824 2:0.053035172 
1 1:0.015224903 2:0.050028086 4:0.00128468 
-1 1:0.053417227 2:0.01449559 3:2.8344788 
-1 1:0.067159869 3:3.0543318 
-0.01262741348674271 1:0.034284095 3:2.3884744 5:0.0072629925 
-1 1:0.05239481 3:2.8400877 5:0.0034663592 
-1 1:0.039487908 2:0.010433517 3:2.8309809 
1 1:0.025636356 2:0.054057073 
1 2:0.032918168 4:0.011412222 
1 1:0.012027224 2:0.011806016 4:0.00086607985 
-0.7770520565369762 2:0.074894307 4:0.011033256 
-1 4:0.015061696 
-1 2:0.057118462 4:0.012933144 
-1 2:0.04181001 4:0.014013878 
-1 2:0.069996177 4:0.011639546 
-1 2:0.021593228 4:0.014845751 
-1 2:0.017077772 4:0.01492274 
1 2:0.070741455 4:0.011924781 
1 2:0.067048492 3:0.28978359 4:0.0083346624 
-1 1:0.085652361 
1 1:0.16978163 3:1.0705843 4:0.0097247455 5:0.00036450041 
1 1:0.067669342 2:0.044028734 
1 1:0.070548252 2:0.011898324 5:0.0012299375 
1 1:0.069246002 2:0.044375345 
1 1:0.070681057 5:0.0063507281 
1 1:0.066565648 2:0.044815978 
1 1:0.05924788 2:0.052791693 
1 1:0.078720465 2:0.018441148 
1 1:0.076816419 5:0.0049207995 
1 1:0.080306301 5:0.0038508831 
-1 1:0.081166338 5:0.0035123535 
-1 1:0.059263793 2:0.027296915 3:2.683659 
1 1:0.056097681 2:0.0057421155 5:0.0095226078 
0.08564492332713332 1:0.056097681 2:0.0057421155 5:0.0095226078 
0.9941492662349867 1:0.056097681 2:0.0057421155 5:0.0095226078 
1 1:0.056097681 2:0.0057421155 5:0.0095226078 
