svm_type epsilon_svr
kernel_type linear
nr_class 2
total_sv 496
rho 0.000981712
SV
1 1:0.054174348 2:0.11041581 
1 1:0.058090812 2:0.10775957 
1 1:0.057046172 2:0.10710231 
1 1:0.044650738 2:0.11965178 
1 1:0.055854537 2:0.10535112 
1 1:0.049183319 2:0.11263634 
1 1:0.045042899 2:0.11411887 
-1 1:0.048175839 2:0.11379445 
-1 2:0.0755733 3:1.3336327 
-0.09143421204230344 2:0.08220852 3:1.5460438 
-0.946922844075363 2:0.076277217 3:1.5366674 
-1 2:0.050355658 3:1.7111139 4:0.0020259065 
-0.1669432707861124 1:0.0041962521 2:0.0685558 3:1.4096567 
-1 2:0.065972985 3:1.3492255 
-1 1:0.0077760889 2:0.076102637 3:1.4838299 
-0.4622285004426617 2:0.036108494 3:1.5890849 
-0.08855537770275403 2:0.077801673 3:1.6447537 
-1 1:0.007472261 2:0.062988025 3:1.5444816 
-0.01300013038845285 2:0.069202755 3:1.708352 
-1 1:0.0025881268 2:0.071959519 3:1.5358712 
1 1:0.065994215 2:0.078654035 3:2.8011333 
1 1:0.070871416 2:0.075015834 3:2.7609995 
1 1:0.071817652 2:0.075434044 3:2.7503246 
1 1:0.079522085 2:0.069928749 3:2.7041523 
1 1:0.07872105 2:0.071785118 3:2.7039174 
1 1:0.079931272 2:0.069645806 3:2.7030935 
1 1:0.072964071 2:0.09116455 3:2.8429424 
1 1:0.081566912 2:0.072257925 3:2.695601 
-1 1:0.077421835 2:0.08969408 3:2.8711968 
-1 1:0.065313056 2:0.076123189 
-1 1:0.01853133 2:0.094539638 
-1 1:0.016689404 2:0.084983609 
-1 2:0.082527794 
-1 2:0.08803813 3:0.052402993 4:0.0057185375 
-1 1:0.03358078 2:0.072414143 
-1 1:0.019321445 2:0.065509425 
1 1:0.0046714859 2:0.073406316 
-1 1:0.049988905 2:0.085439462 
-1 1:0.02083962 2:0.071642069 
-1 1:0.0132224 2:0.068127316 
-1 2:0.079777024 4:0.0018452678 
-1 1:0.01450646 2:0.088666387 
-1 2:0.067403508 4:0.00056240039 
-1 2:0.037496933 4:0.0074533801 
-1 2:0.058168852 
1 3:2.5598468 4:0.0036646032 5:0.017443514 
-1 2:0.018765058 4:0.0097977211 
-1 3:1.8101766 4:0.0012754913 5:0.015054175 
-1 3:1.8031737 4:0.0012891859 5:0.015042289 
1 3:1.8097329 4:0.001253952 5:0.015052627 
1 1:0.0093558996 3:0.61664221 5:0.014794557 
1 1:0.015211877 3:0.53394084 5:0.014645418 
1 1:0.020676578 3:0.62948933 5:0.014518708 
1 1:0.013776675 3:0.60621328 5:0.014789879 
1 1:0.0064492456 3:0.45829051 5:0.014998672 
1 1:0.009222065 3:0.50534606 5:0.014941245 
1 1:0.0079997046 3:0.45265893 5:0.014971094 
1 1:0.055619325 3:0.56740574 5:0.013692072 
1 1:0.036672998 3:0.66596082 5:0.013686346 
1 3:0.39011636 4:0.0010143281 5:0.014966612 
1 3:0.28044699 4:0.0043919771 5:0.0144952 
0.4913473182802629 3:0.30069883 4:0.0014272959 5:0.014932336 
1 3:0.13779391 4:0.0019383513 5:0.014874257 
1 3:0.22682844 4:0.0026226191 5:0.014800469 
-1 1:0.055319291 5:0.013495706 
-1 1:0.051080071 5:0.013935948 
-1 1:0.054677674 5:0.013619535 
-1 1:0.059192073 5:0.013144819 
-1 1:0.056099086 5:0.013430333 
-1 1:0.056816234 5:0.01356608 
-1 1:0.056883199 5:0.013486069 
-1 1:0.053912813 5:0.013919208 
1 1:0.048728659 5:0.014197961 
1 3:1.4844202 5:0.015310426 
1 3:1.5724547 5:0.015200815 
1 1:0.011808417 2:0.10691405 4:0.0081922873 
1 1:0.013040853 2:0.10661577 4:0.0080571944 
1 1:0.012013768 2:0.10757553 4:0.0081841323 
1 1:0.01169668 2:0.10745846 4:0.008226205 
1 1:0.01379996 2:0.1082594 4:0.0079872724 
1 1:0.011489191 2:0.10682124 4:0.0082407591 
1 1:0.015247932 2:0.10777399 4:0.0077302307 
-1 1:0.010328538 2:0.10817517 4:0.0083734702 
-1 1:0.0065860961 2:0.075486012 4:0.0084842313 
-1 1:0.007950257 2:0.073833887 4:0.0083916511 
-1 1:0.017195053 2:0.074463331 4:0.0066776957 
-1 1:0.015248731 2:0.074671607 4:0.0064993571 
-1 1:0.014970943 2:0.072519235 4:0.0064318816 
-1 1:0.014360353 2:0.071477496 4:0.0063933588 
-1 1:0.0096215411 2:0.073573446 4:0.0073197125 
-1 1:0.012701021 2:0.074094006 4:0.0067221184 
-1 1:0.013653317 2:0.072907999 4:0.0065325591 
-1 1:0.020173255 2:0.072686401 4:0.0052791822 
-1 1:0.014545586 2:0.074513492 4:0.0059622199 
-1 1:0.011737266 2:0.071884613 4:0.0063710349 
-1 1:0.021669042 2:0.072025674 4:0.0040938158 
-1 1:0.017462541 2:0.069878739 4:0.0045351716 
-1 1:0.017164109 2:0.072873864 4:0.0043734639 
-1 1:0.025215445 2:0.072376248 4:0.0028359887 
-1 1:0.018694291 2:0.075237663 4:0.0044389265 
-1 1:0.020890364 2:0.074602745 4:0.0033923224 
-1 1:0.024140973 2:0.07675314 4:0.0023647091 
-1 1:0.027454288 2:0.083324904 4:0.002106932 
-1 1:0.032870101 2:0.074527086 4:0.00077223363 
-1 1:0.027719353 2:0.075143895 4:0.000920079 
-1 1:0.031769642 2:0.074473615 4:0.00072962179 
-1 1:0.025749912 2:0.075751527 4:0.0012096266 
-1 1:0.040786301 2:0.069827532 
-1 1:0.029640485 2:0.070523346 4:0.00020893356 
-1 1:0.036547548 2:0.073962453 
-0.3444892425329665 1:0.025935924 2:0.075889298 4:0.00099102085 
-1 1:0.029753677 2:0.070346279 4:1.9659151e-05 
-1 1:0.045928733 2:0.072603022 
-1 1:0.030065156 2:0.06641328 
-1 1:0.024465132 2:0.084124979 4:0.0014994772 
-1 1:0.032925611 2:0.064502361 
-1 1:0.025613529 2:0.069281497 
-1 1:0.048536677 2:0.073446984 
-1 1:0.039575557 2:0.05023595 
-1 1:0.034039482 2:0.078409988 
-1 1:0.010421222 2:0.082773355 4:0.0031240137 
-1 1:0.0036084135 2:0.088012899 4:0.0037571145 
-1 1:0.034341142 2:0.060826546 
-1 1:0.035297964 2:0.06341688 
-1 1:0.028254843 2:0.074081923 
-1 3:2.7459323 4:0.0080781016 5:0.013141342 
-1 3:2.771302 4:0.0078014488 5:0.013324312 
-1 3:2.7426924 4:0.0080283024 5:0.01314559 
-1 3:2.7434359 4:0.0081641726 5:0.013103581 
-1 3:2.7542505 4:0.0078281052 5:0.013252653 
-1 3:2.7583737 4:0.0080120861 5:0.013210127 
-1 3:2.7376887 4:0.0081045735 5:0.013101697 
1 3:2.7484571 4:0.007943823 5:0.013194427 
0.727039386361624 1:0.024881082 3:1.2298237 5:0.010859549 
1 1:0.065255346 3:2.7092363 5:0.0098181813 
1 1:0.0021111183 3:1.6335348 5:0.013508 
0.532215078036099 3:1.5343811 5:0.014575752 
1 3:1.6146139 5:0.014455405 
1 3:1.6271216 5:0.014526959 
1 3:1.6230489 5:0.014719416 
-0.07444547701482791 1:0.16542934 3:2.3420041 5:0.0087571856 
-0.5203329005260093 1:0.16450004 3:2.3542394 5:0.0084269253 
1 1:0.16505661 3:2.3590602 5:0.0084639559 
1 1:0.14288771 5:0.007329614 
1 1:0.13702021 5:0.0054496423 
0.1571153741938434 1:0.13114268 2:0.021202838 
1 1:0.080635449 5:0.0079146491 
1 1:0.10023245 5:0.00074676335 
-1 3:1.3714414 4:0.012658534 5:0.0099581539 
1 3:1.3701761 4:0.012630713 5:0.010076298 
1 4:0.014114191 5:0.005123583 
1 4:0.01426472 5:0.0046911224 
1 4:0.014652557 5:0.0032257224 
1 1:0.16627425 2:0.018578013 3:2.8411777 
1 1:0.11442925 2:0.0018056676 
1 3:1.9832152 4:0.015295607 
-1 2:0.011437728 4:0.014974578 
1 3:0.31329304 4:0.015039488 
1 1:0.096414921 2:0.055093216 
-1 2:0.10178681 3:0.027020883 
-1 2:0.055111626 3:0.44956072 4:0.003284062 
-1 2:0.064274845 3:0.20722645 
-1 1:0.019581178 5:0.014847198 
-1 1:0.043773404 2:0.062317646 3:0.066870426 
1 3:1.5405217 4:0.015196505 5:0.0013360058 
-1 2:0.12041753 4:0.0037133806 
1 1:0.017935395 2:0.085437063 
1 1:0.041718941 2:0.078850806 
1 1:0.026154244 2:0.084468726 
1 1:0.01674542 2:0.087436271 4:0.00011800092 
1 1:0.016468643 2:0.085586133 
1 1:0.036882622 2:0.08114715 
1 1:0.023815551 2:0.08356235 
1 1:0.0091100885 2:0.086741459 4:0.0014712081 
-1 1:0.012915658 2:0.086110223 4:0.00032222452 
-1 1:0.03890926 2:0.049041715 
-1 1:0.03079305 2:0.044226239 
-1 1:0.018433795 2:0.033264927 
1 3:1.5502179 4:0.003527368 5:0.014619158 
-1 2:0.05773437 4:0.0060918496 
1 1:0.047485629 2:0.031588676 3:3.1408075 
1 2:0.075535474 4:0.012096661 
0.102026431710569 2:0.073356594 4:0.012222767 
1 2:0.076509942 4:0.011901988 
1 2:0.07427944 4:0.012207001 
1 2:0.073840576 4:0.012110541 
1 2:0.074570821 4:0.012086322 
1 2:0.075612408 4:0.012113114 
1 2:0.074974316 4:0.012082451 
1 2:0.074375053 4:0.011884604 
-1 2:0.066703687 4:0.012990396 
-1 2:0.041983173 3:0.50918425 4:0.013052766 
-1 2:0.045058343 3:0.19405559 4:0.011135728 
-1 2:0.048983884 4:0.0081519231 
0.9188949244783532 1:0.019201891 5:0.005299643 
-1 2:0.032007974 3:0.33870842 4:0.012273774 
1 3:3.0025326 4:0.00034014948 5:0.015193891 
-1 2:0.056041602 3:0.70073636 4:0.011975371 
1 5:0.012735733 
0.8808994313144028 5:0.012097202 
-1 3:1.8974683 4:0.014120342 5:0.0096747611 
1 3:1.7839447 4:0.01374154 5:0.0089216135 
1 4:0.014564226 5:0.0059000001 
0.246404114053629 4:0.014792578 5:0.0035851297 
1 4:0.012208259 5:0.0054052173 
1 4:0.0088809491 5:0.0050864335 
1 4:0.0093843133 5:0.00090708161 
1 4:0.0085115284 5:0.0031842934 
1 2:0.083059095 4:0.0090689059 
1 2:0.083760873 4:0.009086604 
1 2:0.085326103 4:0.0087405488 
1 2:0.085089729 4:0.0087728026 
1 2:0.084727948 4:0.0085985454 
-1 3:0.67275754 5:0.016964157 
1 2:0.084824114 4:0.0087323569 
1 2:0.085480063 4:0.0085063387 
1 2:0.083744128 4:0.0082861975 
1 2:0.084627766 4:0.0089437491 
1 2:0.085523109 4:0.0085060188 
-1 2:0.082521839 4:0.0087839369 
-1 2:0.046817242 3:0.46263848 4:0.0083172275 
-1 2:0.049268896 3:0.38980889 4:0.0071425959 
-0.9137554845916793 2:0.039929778 3:0.44565923 4:0.010264583 
-1 2:0.0427595 3:0.40176234 4:0.011970157 
-1 2:0.046269584 3:0.14617243 4:0.0033336202 
-1 1:0.01895945 2:0.044503246 3:0.22327477 4:0.0016220534 
-1 2:0.064513175 3:0.56653784 4:0.008595777 
-1 2:0.062730233 3:0.59485744 4:0.0068708483 
1 2:0.0071963866 
1 2:0.17947696 5:0.0073026595 
-1 3:1.1464731 4:0.014276496 5:0.0064915988 
1 3:1.1456062 4:0.014266586 5:0.0065983349 
1 4:0.014376079 5:0.0043028045 
1 1:0.087719643 3:1.5056208 5:0.0011588447 
-1 1:0.070199634 2:0.060820998 
-0.04110273062628757 1:0.25701487 3:0.75865525 4:0.014226571 
-1 1:0.084282988 3:2.9570121 5:0.015407039 
-1 3:1.6794892 4:0.013640892 5:0.011262474 
1 3:1.0357356 4:0.017353944 5:0.0012785348 
1 1:0.03608303 2:0.063973473 3:1.8903289 5:0.0017617028 
1 1:0.032218364 2:0.038102078 3:2.230782 
-1 2:0.017162859 4:0.0070798599 
1 1:0.00021155191 2:0.075594574 
1 1:0.0076204414 2:0.077569573 
1 2:0.076940851 
1 1:0.0039694478 2:0.073968873 
1 1:0.015947151 2:0.077266626 
1 2:0.077868027 
1 2:0.076885426 
1 1:0.0078573466 2:0.078078464 
1 1:0.014245152 2:0.075852276 
1 1:0.0064000977 2:0.07756178 
1 1:0.0034183104 2:0.075196308 
-1 1:0.011726515 2:0.081503766 
-1 2:0.057456337 3:0.23832415 4:0.0054368238 
-1 2:0.06678926 3:0.20230031 4:0.0064942483 
-1 2:0.046492416 3:0.64140965 4:0.012871802 
-1 2:0.076460163 3:0.1414846 4:0.0060316128 
1 1:0.067431032 2:0.0018245836 5:0.00031660121 
1 1:0.091436192 2:0.0027534937 5:0.0008083076 
1 1:0.094653432 2:0.29322236 3:2.3413097 4:0.0074071289 5:0.0046013755 
1 1:0.1139397 2:0.34766356 3:2.4783419 4:0.0058537086 5:0.0092003736 
0.3780116308941399 1:0.1452811 2:0.12786704 3:1.835657 4:0.0057580931 
1 2:0.30123204 5:0.010910751 
1 2:0.11424257 4:0.0096559688 
1 2:0.11479681 4:0.0094182517 
1 2:0.11507564 4:0.0092120205 
1 2:0.11608138 4:0.0093578171 
1 2:0.11537832 4:0.0093955239 
1 2:0.11573344 4:0.0093642951 
1 2:0.11473681 4:0.0095177348 
1 2:0.11516147 4:0.0094513511 
1 2:0.11696793 4:0.0091729218 
-1 2:0.1154877 4:0.0094608104 
-1 2:0.076671635 3:1.8960855 4:0.0057777821 
-1 2:0.074097709 3:1.9326682 4:0.0066023862 
-1 2:0.078155835 3:1.9330017 4:0.006112027 
-0.7407928477370099 2:0.074762863 3:2.0492245 4:0.0067322763 
-1 2:0.071894957 3:2.1373803 4:0.0083657195 
-1 1:0.002199724 2:0.078526138 3:1.6016091 4:0.00069664065 
-1 2:0.04857635 3:2.4589753 4:0.01117848 
1 2:0.074847549 4:0.010846132 
0.9227472395743743 2:0.070233326 4:0.011775968 
1 2:0.074533521 4:0.010796836 
1 2:0.074954498 4:0.011007617 
1 2:0.074391875 4:0.011147109 
1 2:0.072967683 4:0.011078778 
1 2:0.073825933 4:0.010529375 
1 2:0.078932863 4:0.010668115 
1 2:0.081221818 4:0.010255745 
-1 2:0.077532882 4:0.011238187 
-0.727039386361624 2:0.071155451 3:1.1958019 4:0.0071641405 
0.8559292868533486 1:0.14277226 2:0.054979767 
-1 1:0.14531178 2:0.052532796 
0.1185735511895169 1:0.05450618 2:0.019021924 
1 1:0.064071346 2:0.027348447 3:3.1314135 
-1 1:0.010160492 2:0.085933697 
1 1:0.068615385 2:0.019019336 3:3.1205498 
0.2632207335893073 1:0.057181312 2:0.015974085 3:3.0826273 
1 1:0.062942921 2:0.0096410846 3:3.0866293 
1 1:0.054132319 2:0.0068013968 3:2.9772913 
1 1:0.052504787 2:0.015173827 3:3.1123195 
1 1:0.065464272 2:0.033416933 3:3.1172187 
-0.1582878766204352 2:0.018782269 4:0.010019365 
1 1:0.068262475 2:0.011335376 
-1 1:0.049313038 5:0.013290682 
-1 1:0.045613509 5:0.013577077 
-1 1:0.042479788 3:3.113684 5:0.013833118 
-1 1:0.052733332 5:0.013008559 
-1 1:0.053630089 5:0.012897664 
-1 1:0.043329279 3:3.131115 5:0.013722211 
-1 1:0.04631635 5:0.013415797 
-1 1:0.02679139 3:2.9774547 5:0.014801692 
-1 1:0.027124741 3:2.9720694 5:0.014829513 
1 1:0.039558998 3:3.1119647 5:0.013911114 
-1 2:0.052499565 4:0.009400014 
-1 3:1.0513774 4:0.011283542 5:0.010604881 
1 1:0.067396406 2:0.065663955 3:2.5767606 
0.2025018044436629 1:0.069231361 2:0.064190384 3:2.5551265 
1 1:0.057894026 2:0.076270649 3:2.6898774 
-1 1:0.075537102 2:0.071346182 3:2.5481017 
-1 1:0.039070321 2:0.075771511 3:0.37432384 
-0.2323188675818403 1:0.037466452 2:0.0775036 3:0.41112586 
-1 1:0.018816589 2:0.080090345 3:0.65129402 
-0.08070389616439917 1:0.0013345185 2:0.08036515 3:0.89899703 
-0.615263007951515 1:0.023264657 2:0.070129358 3:0.68000085 
-1 1:0.12861274 3:2.9773245 5:0.014654658 
-1 1:0.13358853 3:3.0385641 5:0.013981503 
-1 1:0.12982648 3:2.9987181 5:0.014608089 
-1 1:0.13046849 3:2.977517 5:0.01461194 
-1 1:0.13509866 3:3.0375585 5:0.013879669 
-1 1:0.13708539 3:3.0649972 5:0.013610853 
-1 1:0.13024314 3:2.9801482 5:0.014641116 
1 1:0.088581046 3:2.6133307 5:0.01738463 
1 1:0.043296308 3:0.85975488 5:0.014261166 
-1 2:0.044063782 4:0.0078153661 
-1 1:0.01338031 2:0.066832876 
1 1:0.081524864 2:0.11893092 4:0.0024016593 5:0.00021958819 
1 1:0.11291346 2:0.060141543 4:0.0017735376 5:0.0011298406 
-1 4:0.0096144023 5:0.011569984 
1 4:0.011293087 5:0.0098784362 
1 3:2.9787309 4:0.012013574 5:0.0090738637 
1 4:0.010974049 5:0.010256196 
1 4:0.011277209 5:0.0098989679 
1 3:3.0507762 4:0.0122679 5:0.0086429923 
1 3:3.044077 4:0.011515515 5:0.0096219055 
1 4:0.0091465305 5:0.011889021 
1 3:3.1315946 4:0.010395394 5:0.010932463 
1 4:0.0073461508 5:0.013162868 
1 4:0.0084725382 5:0.012403361 
1 4:0.0052502298 5:0.01405526 
1 4:0.00691044 5:0.01335787 
1 3:2.9285238 4:0.0078929727 5:0.012764285 
1 5:0.014906625 
-1 1:0.070539695 2:0.041618953 3:0.41692685 
1 1:0.14702511 5:0.0093643871 
1 1:0.043880041 3:1.5481818 5:0.013839701 
0.01235917393178559 1:0.060915809 2:0.0059931799 3:2.9123853 
1 1:0.05876931 2:0.0061146192 3:2.9043929 
-1 1:0.033178046 2:0.046057223 
0.1974779852128446 1:0.066457404 3:2.9182728 
0.03768749182058592 1:0.053871993 3:2.6295 5:0.0017130799 
-1 3:1.4854791 4:0.0017596489 5:0.016556242 
-1 1:0.01676163 2:0.065568848 
1 1:0.056973976 2:0.015532047 3:2.7910053 
1 1:0.05680175 3:2.9897114 
0.5091163140026356 1:0.06112371 2:0.023772139 3:3.1152689 
0.1669432707861124 2:0.16032828 3:1.4275213 5:0.01449848 
1 2:0.0911171 
1 2:0.089403072 
1 2:0.090603287 
1 2:0.092005441 
1 2:0.08993651 
1 2:0.092425272 
1 2:0.092807428 
1 2:0.096723509 
1 2:0.099675971 
-1 1:0.010894028 2:0.10192146 
-1 1:0.0080216712 2:0.09573648 
-1 1:0.01953867 2:0.083664138 
-1 1:0.016285507 2:0.085163652 
-1 1:0.0087892513 2:0.087483685 
-1 1:0.0091384466 2:0.084492115 
-1 1:0.015339132 2:0.084268078 
-1 1:0.013489421 2:0.086243645 
-1 1:0.015441972 2:0.086363394 
-1 2:0.08969086 
-1 1:0.018471168 2:0.088347084 
-1 1:0.00016879531 2:0.087849338 
-1 1:0.0043349833 2:0.08692549 
-1 2:0.077178279 
-1 2:0.0839236 
-1 1:0.011914544 2:0.084002969 
-1 2:0.10027176 
1 1:0.13544827 5:0.0059921875 
-1 2:0.099369338 
-1 1:0.006847967 2:0.077928151 
-1 2:0.0696507 4:0.0022582907 
-1 1:0.0095996024 2:0.080365156 4:0.00028536551 
-1 1:0.029189489 2:0.069345672 
-1 1:0.11699219 3:2.6793142 5:0.0099329475 
-0.2480577892936005 1:0.11954516 3:2.6859055 5:0.0095466229 
-1 1:0.119611 3:2.694023 5:0.0097731312 
-1 1:0.11415611 3:2.6255988 5:0.010378342 
-1 1:0.10943854 3:2.6009754 5:0.010805269 
1 1:0.10394802 3:2.5431364 5:0.011455248 
0.4060588528580356 1:0.016568045 3:0.58690152 5:0.014288406 
0.004881703367987151 1:0.049854841 3:0.51638981 5:0.012802448 
1 1:0.0070108353 3:0.17154602 5:0.015042914 
1 1:0.012669994 3:0.11678436 5:0.014927763 
0.1853307700110907 1:0.001580482 3:0.11088294 5:0.015072936 
1 1:0.030163593 3:0.64267818 5:0.012708264 
1 1:0.012036201 3:0.079551081 5:0.014918125 
1 1:0.0013950808 3:0.081960553 5:0.015029186 
0.4887973747319573 1:0.0092201591 3:0.18142204 5:0.014904972 
1 1:0.0087014075 3:0.14459288 5:0.014919827 
1 1:0.0010377627 3:0.072680029 5:0.015003637 
1 1:0.0031220913 3:0.12223552 5:0.014978985 
1 3:0.077149286 5:0.015014511 
1 1:0.0051154841 3:0.16604899 5:0.014907008 
1 1:0.00073543675 3:0.13597191 5:0.014954716 
1 3:0.16171456 5:0.01495147 
1 3:0.12425721 5:0.014997438 
1 2:0.079703512 3:0.20177374 4:0.0027207919 5:0.00087292448 
1 2:0.058108369 3:0.78890297 
1 2:0.069406504 3:0.38265725 5:7.0848472e-05 
-1 1:0.071465108 3:1.4266384 5:0.017838792 
-0.2346020048989424 1:0.11630279 3:1.9453216 5:0.013053599 
-1 1:0.088450222 3:1.6130259 5:0.017784166 
-1 1:0.055637142 3:1.1302052 5:0.019828545 
-1 1:0.087695581 3:1.621589 5:0.017781084 
-1 1:0.086000551 3:1.5851146 5:0.018140081 
-1 1:0.088655763 3:1.6238178 5:0.017674528 
-1 1:0.087701716 3:1.6158904 5:0.017771504 
-1 1:0.086105515 3:1.585859 5:0.018103672 
1 1:0.090337143 3:1.6324672 5:0.017644703 
-1 2:0.0075467292 3:2.6886454 4:0.012764306 
1 1:0.053148164 5:0.01550759 
1 1:0.059528975 5:0.010197354 
0.03256970509665643 1:0.072124914 2:0.044045761 3:0.12633091 
1 4:0.0041883025 5:0.015 
1 4:0.010387526 5:0.012020799 
-1 3:1.0136223 4:0.0082378444 5:0.012619017 
-0.117449916711267 3:0.88284057 4:0.0097276363 5:0.011525963 
-1 3:0.81516671 4:0.010848022 5:0.010408451 
-1 3:0.86869215 4:0.010116524 5:0.011144307 
1 3:0.976722 4:0.0091146382 5:0.011947052 
-0.4365188515322661 2:0.078550043 4:0.007066616 
-1 1:0.019846664 2:0.062632235 4:0.00058049425 
1 1:0.014928691 2:0.1133419 
1 1:0.044553732 2:0.076150454 3:2.8728009 
1 1:0.04277261 2:0.077584439 3:2.8929663 
-1 2:0.053431439 4:0.011191228 
1 4:0.0036856768 5:0.015 
-1 1:0.085570593 2:0.017840471 3:0.20660373 
1 2:0.12562885 4:0.0044162659 
-1 3:1.8466478 4:0.014060344 5:0.015884166 
-1 3:1.7422231 4:0.015639439 5:0.01433206 
1 1:0.016899972 3:2.1070173 4:0.0094972587 5:0.01896845 
1 4:0.020702782 5:0.0046254539 
-1 2:0.031628751 3:2.43045 
-1 3:2.2205807 4:0.0082696392 5:0.012799215 
-1 3:2.2165858 4:0.0084097817 5:0.012682303 
-1 3:2.2675481 4:0.0079672496 5:0.012912243 
-1 3:2.0863547 4:0.0099412685 5:0.011536874 
-1 3:2.2784065 4:0.0076111867 5:0.013176814 
-0.945268770974902 3:2.2183266 4:0.0087448793 5:0.012362174 
1 3:1.921014 4:0.011397822 5:0.010278372 
1 4:0.0076147468 5:0.013025106 
-0.5604493166538245 1:0.046828111 3:1.5441579 5:0.013890171 
1 2:0.11597112 4:0.0099533203 
1 1:0.11051505 2:0.10518355 
1 1:0.062006609 2:0.13487844 4:0.0040849776 
-1 3:0.6438764 5:0.020449067 
-1 1:0.054600015 2:0.13769447 4:0.0051382827 
-1 2:0.078782988 3:0.2867528 4:0.015706355 
-1 1:0.033530776 2:0.09442928 4:0.0067699384 
-1 1:0.071164362 2:0.069369768 
1 1:0.072096069 
1 1:0.05458998 5:0.0040261826 
1 1:0.01781875 2:0.12321381 4:0.010326222 
1 2:0.098979973 4:0.016185594 
-1 2:0.057567349 4:0.020159013 5:0.0014084264 
-1 2:0.048120104 4:0.020714373 5:0.0021688553 
-1 4:0.018903017 5:0.009626835 
-1 4:0.018331676 5:0.010674721 
-1 4:0.019445365 5:0.0084780774 
-0.07818624358178002 4:0.019692967 5:0.0078858763 
-1 1:0.036043419 5:0.019668572 
-1 4:0.018485636 5:0.010405828 
-1 4:0.018998833 5:0.0094363307 
-1 4:0.017919703 5:0.01135272 
-1 4:0.018349584 5:0.010643908 
1 2:0.041679653 4:0.021135741 
1 4:0.00055727897 5:0.016936975 
1 4:0.006815659 5:0.013967594 
