svm_type epsilon_svr
kernel_type linear
nr_class 2
total_sv 407
rho 0.00112176
SV
1 3:0.31329304 4:0.015039488 
1 1:0.19149816 2:0.010186941 5:0.00048460035 
-1 2:0.10178681 3:0.027020883 
1 1:0.01447182 4:0.0030025366 5:0.014721884 
-1 2:0.037199339 3:0.94836055 4:0.0098215468 
-0.1381465139078474 2:0.055111626 3:0.44956072 4:0.003284062 
-1 2:0.064274845 3:0.20722645 
1 1:0.089056731 2:0.016816121 5:0.0057067304 
1 4:0.0064168295 5:0.014946042 
-1 2:0.044132954 3:1.5199726 4:0.012469973 
-1 1:0.043773404 2:0.062317646 3:0.066870426 
1 3:1.5405217 4:0.015196505 5:0.0013360058 
-1 2:0.12041753 4:0.0037133806 
1 1:0.0091986103 3:0.85682586 5:0.01572285 
-1 2:0.065858109 
-1 2:0.047418718 4:0.0041469153 
1 1:0.020489988 3:0.082456258 4:0.0066592551 5:0.013447501 
1 1:0.017935395 2:0.085437063 
1 1:0.041718941 2:0.078850806 
1 1:0.026154244 2:0.084468726 
1 1:0.01674542 2:0.087436271 4:0.00011800092 
1 1:0.016468643 2:0.085586133 
1 1:0.036882622 2:0.08114715 
1 1:0.023815551 2:0.08356235 
1 1:0.0091100885 2:0.086741459 4:0.0014712081 
-1 1:0.012915658 2:0.086110223 4:0.00032222452 
-1 1:0.03890926 2:0.049041715 
-1 1:0.03079305 2:0.044226239 
-1 1:0.032090287 2:0.042792222 
-1 1:0.018433795 2:0.033264927 
-1 1:0.049164011 2:0.025640197 
0.08797562685968215 1:0.057383552 3:3.0364081 5:0.0016291997 
1 3:1.5502179 4:0.003527368 5:0.014619158 
-1 2:0.075620213 4:0.0058132147 
-1 1:0.011098104 2:0.05065392 
-1 1:0.029372919 2:0.028587233 
-1 1:0.0030813878 2:0.069396767 4:0.00042781559 
-1 2:0.057025387 4:0.007921704 
-1 2:0.05773437 4:0.0060918496 
-1 2:0.0657828 4:0.0034732029 
1 1:0.047485629 2:0.031588676 3:3.1408075 
-1 2:0.066703687 4:0.012990396 
-1 2:0.048983884 4:0.0081519231 
0.3184528247352985 1:0.019201891 5:0.005299643 
1 5:0.014796618 
1 3:3.0025326 4:0.00034014948 5:0.015193891 
1 5:0.012735733 
1 5:0.012097202 
1 3:1.7839447 4:0.01374154 5:0.0089216135 
1 4:0.014564226 5:0.0059000001 
1 4:0.015126871 5:0.0021666746 
1 4:0.014730343 5:0.0046994501 
1 4:0.014261658 5:0.0055565557 
1 4:0.014792578 5:0.0035851297 
1 4:0.012460332 5:0.0085156636 
1 4:0.014869039 5:0.00022993928 
1 4:0.012208259 5:0.0054052173 
1 4:0.010085829 5:0.0064242316 
1 4:0.011151177 5:0.0034400242 
0.3852466587232991 4:0.010444536 5:0.00027380277 
1 4:0.010577553 5:0.003031876 
1 4:0.0088809491 5:0.0050864335 
1 4:0.0093843133 5:0.00090708161 
1 4:0.0085115284 5:0.0031842934 
-1 3:0.67275754 5:0.016964157 
-1 2:0.082521839 4:0.0087839369 
-1 2:0.046817242 3:0.46263848 4:0.0083172275 
-1 2:0.046269584 3:0.14617243 4:0.0033336202 
-1 1:0.0059843612 2:0.033175492 4:0.00045198591 
-0.6058913766996205 1:0.01895945 2:0.044503246 3:0.22327477 4:0.0016220534 
-1 1:0.030350958 2:0.056480821 
1 1:0.13329367 5:0.0021956933 
1 1:0.14326782 5:0.00017378464 
1 1:0.12425095 5:0.00099247312 
1 2:0.0071963866 
1 2:0.17947696 5:0.0073026595 
1 3:1.1456062 4:0.014266586 5:0.0065983349 
1 4:0.014874167 5:0.0019395164 
1 4:0.014376079 5:0.0043028045 
1 1:0.087719643 3:1.5056208 5:0.0011588447 
-1 1:0.063989559 2:0.064067403 
-1 1:0.070199634 2:0.060820998 
-1 1:0.061314689 2:0.090531495 
-1 1:0.054351718 2:0.08425708 
-1 1:0.0057078241 2:0.10696757 3:0.055376258 4:0.0035272276 
-1 1:0.084282988 3:2.9570121 5:0.015407039 
1 3:1.0357356 4:0.017353944 5:0.0012785348 
1 1:0.0087416814 3:0.022426714 4:0.0083627005 5:0.013008194 
-1 2:0.012755515 4:0.0082607257 
1 4:0.013358966 5:0.0076381475 
1 3:0.00010166197 4:0.0085503266 5:0.012825893 
1 4:0.012307844 5:0.0087692682 
-1 2:0.017162859 4:0.0070798599 
1 1:0.00021155191 2:0.075594574 
1 1:0.0076204414 2:0.077569573 
1 2:0.076940851 
1 1:0.0039694478 2:0.073968873 
1 1:0.015947151 2:0.077266626 
1 2:0.077868027 
1 2:0.076885426 
1 1:0.0078573466 2:0.078078464 
1 1:0.014245152 2:0.075852276 
1 1:0.0064000977 2:0.07756178 
1 1:0.0034183104 2:0.075196308 
-1 1:0.011726515 2:0.081503766 
-0.7941438634736158 2:0.056755319 3:0.13639505 4:0.0054221691 
-0.0093150910827115 2:0.06678926 3:0.20230031 4:0.0064942483 
-1 2:0.076460163 3:0.1414846 4:0.0060316128 
1 1:0.067431032 2:0.0018245836 5:0.00031660121 
1 1:0.091436192 2:0.0027534937 5:0.0008083076 
1 1:0.094653432 2:0.29322236 3:2.3413097 4:0.0074071289 5:0.0046013755 
0.02263975971214735 1:0.1139397 2:0.34766356 3:2.4783419 4:0.0058537086 5:0.0092003736 
1 2:0.30123204 5:0.010910751 
1 4:0.015156399 5:0.00035389487 
1 3:2.7248229 5:0.015315207 
1 1:0.015833513 3:3.0832189 5:0.012462642 
1 1:0.048225283 5:0.0095804936 
-1 1:0.1657135 3:2.9736219 5:0.015379373 
-1 1:0.16552772 3:2.9612237 5:0.015559332 
-1 1:0.1657289 3:2.9813786 5:0.01526558 
-1 1:0.16558919 3:2.98554 5:0.015204151 
-1 1:0.1630262 3:2.9664192 5:0.015484209 
-1 1:0.16499071 3:2.9712455 5:0.015414049 
-1 1:0.16571995 3:2.9344976 5:0.015939094 
-1 1:0.16959404 3:2.9912487 5:0.015119454 
-1 1:0.1678782 3:2.9536057 5:0.015668725 
-1 1:0.16667628 3:2.9728102 5:0.015391227 
1 1:0.16905469 3:3.0694085 5:0.013911494 
0.2214559349625145 1:0.014106437 4:0.0056294208 5:0.013974693 
0.5632929916496018 1:0.091966319 3:0.21217859 5:0.014913726 
0.2107450904112119 1:0.11229014 3:0.52654721 5:0.013448642 
1 4:0.01192223 5:0.0094011231 
-1 1:0.037580671 3:3.0284798 5:0.014796778 
-1 1:0.035034851 3:2.9844731 5:0.014880415 
-1 1:0.035989158 3:2.9906373 5:0.014859218 
-1 1:0.036658914 3:3.0158771 5:0.014831147 
-1 1:0.037550746 3:3.0214079 5:0.014804421 
-1 1:0.033301598 3:2.9772787 5:0.014915523 
-1 1:0.036155477 3:3.007229 5:0.014847612 
1 1:0.035420346 3:3.0085008 5:0.014861946 
1 1:0.0090361747 3:0.11857808 4:0.0025278409 5:0.015769302 
1 1:0.028986523 3:0.33087101 5:0.01510239 
1 1:0.060671917 3:0.49131518 5:0.012595857 
1 1:0.050483812 3:0.36475635 5:0.013660329 
-0.5157965270827591 1:0.035277998 2:0.038797774 3:3.0073108 
1 4:0.0081559668 5:0.013144001 
1 1:0.059641762 2:0.019786394 3:1.1138533 5:0.0051044685 
1 1:0.073582631 3:0.11124863 5:0.014406681 
-0.4446249684567743 2:0.038982177 3:3.0817918 4:0.00048862267 
-1 2:0.068525872 3:2.7269433 
1 1:0.035482815 2:0.060676573 3:3.0231746 
1 1:0.030377552 2:0.060060869 3:3.05357 
1 1:0.030077728 2:0.05929989 3:3.0476209 
1 1:0.038186758 2:0.061848123 3:3.0041208 
1 1:0.03375044 2:0.05851511 3:3.0530555 
1 1:0.03277611 2:0.061720553 3:3.0342151 
1 1:0.038754523 2:0.061460676 3:2.9754477 
1 1:0.032932424 2:0.059115249 3:3.0557866 
1 1:0.032382749 2:0.060375712 3:3.0406197 
1 1:0.030399631 2:0.059359466 3:3.024447 
-1 1:0.033578942 2:0.058368981 3:3.0790279 
-1 1:0.010486756 2:0.041526902 3:0.086546919 4:0.00049659149 
-1 1:0.0017955023 2:0.034709891 3:0.35074236 4:0.0040233401 
-1 1:0.0098272947 2:0.03323359 3:0.21085446 4:0.0020776042 
-1 1:0.013378173 2:0.035020123 3:0.17803573 4:0.0014458189 
-0.1314878277859713 1:0.021046531 2:0.036487712 3:0.17728331 4:0.00021008681 
-1 1:0.022515342 2:0.028489106 3:0.047611146 
-0.1169175549045038 1:0.021544633 2:0.028224684 3:0.25905947 4:0.000775718 
-1 1:0.015388275 2:0.03009109 3:0.28979971 4:0.0015848581 
-1 1:0.023970853 2:0.034061571 3:0.19586813 
-1 1:0.010955204 2:0.035229118 3:0.42781709 4:0.0032078343 
-1 2:0.043421194 3:0.33951299 4:0.0036766288 
-1 1:0.023002532 2:0.028279086 3:0.37736622 4:0.0013626628 
1 1:0.03184262 5:0.0018771075 
1 5:0.0072104868 
1 1:0.0014434739 5:0.00046278986 
-1 1:0.096272028 5:0.020693793 
-1 1:0.099406074 5:0.018876652 
-1 1:0.062508466 5:0.020985949 
-1 1:0.075433075 5:0.020365326 
-1 1:0.010423011 4:0.0052528731 5:0.02055255 
-1 1:0.024483233 4:0.011905036 5:0.017557623 
-1 1:0.036234929 4:0.0053035646 5:0.020539528 
-1 1:0.07810382 5:0.020968793 
-1 1:0.10098161 5:0.018640473 
1 2:0.076127633 4:0.014135265 
-1 1:0.035692185 2:0.056256996 3:1.1271642 4:0.011034983 
-1 1:0.061478069 2:0.02505915 3:0.5576005 4:0.0037300216 
-1 1:0.070182409 4:0.0011940683 5:0.018031308 
-1 1:0.098527018 5:0.017393361 
-1 1:0.11371776 5:0.016420558 
-1 1:0.1053029 5:0.01687066 
-1 1:0.061396873 4:0.0021391482 5:0.018208005 
-1 1:0.047082878 4:0.0067686143 5:0.016438265 
-1 1:0.070654187 4:0.00075474127 5:0.018157091 
-1 1:0.072542495 4:0.00078583153 5:0.018028007 
-1 1:0.055453666 4:0.00424868 5:0.017620109 
1 1:0.080755123 4:2.2894763e-06 5:0.017884756 
1 2:0.052714406 4:0.0072798565 
-1 2:0.058099446 3:1.1370203 4:0.011382014 
-1 2:0.048606086 3:1.0924541 4:0.0105811 
-1 2:0.042134582 3:1.0491915 4:0.0093929825 
-1 1:0.034509722 2:0.025409516 3:0.75669525 4:0.0026353231 
-1 1:0.037379613 2:0.027090528 3:0.78451199 4:0.002294979 
-1 1:0.047468851 2:0.060851943 3:1.4651179 4:0.0090292902 
-1 2:0.064340397 4:0.017415738 
-0.02337436701267518 1:0.069795839 
-1 1:0.10807754 5:0.016266261 
-1 4:0.0086785994 5:0.019356702 
-1 1:0.017888666 4:0.0058068074 5:0.020402965 
-1 1:0.054555414 5:0.021124547 
-1 1:0.019044069 4:0.0050395489 5:0.020605896 
-1 1:0.048292946 4:0.00080628606 5:0.021197875 
-1 1:0.0059330661 4:0.007425638 5:0.019871082 
-1 1:0.0042868316 4:0.0083496499 5:0.019500855 
1 3:2.6205522 4:0.020939788 
1 4:0.016064183 5:0.013854315 
-1 4:0.016585066 
-1 4:0.01739887 
-1 4:0.01729523 
-1 1:0.1057503 5:0.0023006935 
-1 2:0.052626021 
-1 2:0.072713016 4:0.0076769151 
-1 2:0.043889157 3:2.0081842 4:0.0093821889 
-0.8490073303706136 2:0.02873109 3:2.347935 4:0.012881444 
-1 2:0.053016203 3:1.5400325 4:0.0028374089 
1 1:0.031698136 5:0.010368188 
1 1:0.040305179 5:0.010243549 
1 1:0.032680376 5:0.010525368 
0.7618718317521073 1:0.054087692 
1 1:0.058634136 5:0.00017141295 
1 4:0.0017758303 5:0.012268725 
-1 1:0.11547966 2:0.010510897 5:0.0071038909 
1 1:0.04775933 2:0.025121459 3:2.057893 5:0.002684868 
1 1:0.040012225 3:1.7034035 5:0.011688458 
-1 2:0.058246804 4:0.0014681361 
-1 2:0.054069568 
1 2:0.088035983 4:0.0058318449 
1 2:0.089089762 4:0.0051404933 
1 2:0.088919321 4:0.0052017771 
0.75380706450962 2:0.086405507 4:0.0063911113 
1 2:0.089148956 4:0.0054457676 
-1 2:0.084968708 4:0.0089092955 
1 1:0.051214851 5:0.00046903858 
-0.03676311445881209 1:0.018068954 2:0.057274598 3:1.1710333 
-0.1906383686132783 1:0.0044826985 2:0.067035071 3:2.0377122 4:0.0077424909 
1 2:0.30027109 5:0.015 
1 1:0.014696743 2:0.088490171 
1 1:0.040699948 2:0.083098564 
1 1:0.086348945 2:0.096732602 
-1 1:0.11897296 5:0.001713633 
-1 2:0.057386348 
0.02087581258491955 1:0.043440995 2:0.009320332 5:0.0010730177 
1 1:0.052911469 2:0.019709857 5:0.00032482293 
1 1:0.062166918 2:0.023660405 3:3.0476939 5:0.0024044971 
1 1:0.050952279 2:0.044497139 
1 1:0.060769523 2:0.030327788 5:0.00057284782 
-1 
-1 5:0.015056429 
-1 1:0.063007268 2:0.038863598 
0.03977768542462064 1:0.047757172 3:2.8968688 
0.09051214336705715 2:0.15412389 3:1.8854633 5:0.012985802 
1 2:0.083354383 4:0.001949733 
1 2:0.078343688 4:0.003459532 
1 2:0.07600581 4:0.0035973963 
1 2:0.088810782 
1 2:0.074975915 4:0.0045123455 
1 2:0.085356226 4:0.0015500113 
1 2:0.085913168 4:0.00090664873 
1 2:0.094209415 
1 2:0.085770805 4:0.00071758166 
1 2:0.087565419 4:0.0011147804 
1 2:0.086716275 4:6.4677365e-05 
1 2:0.083481977 4:0.0021835049 
-1 2:0.082726202 4:0.00248145 
-1 2:0.051977579 3:1.7381692 4:0.0024014328 
-0.4747398405225163 2:0.056250401 3:1.7127107 4:0.0023915754 
-1 2:0.034519359 3:2.28692 4:0.010257547 
-0.2635902940778903 2:0.038947536 3:2.1715792 4:0.009422978 
-1 2:0.049977249 3:1.8989547 4:0.0068307766 
-1 2:0.050737074 3:1.9677151 4:0.0070194048 
-1 2:0.048734592 3:2.2278009 4:0.011041554 
-0.5655513858752833 2:0.043106244 3:2.4977019 4:0.013060438 
-1 1:0.088607461 2:0.026515644 5:0.0050372719 
1 1:0.057093247 2:0.012009709 3:2.2988397 5:0.0077254671 
-1 2:0.033699069 4:0.0042739541 
-1 2:0.053401585 
-1 2:0.052022633 
1 2:0.083198557 4:0.0042106926 
-1 2:0.057327653 4:0.011898823 
-1 2:0.046942679 3:2.3492002 4:0.011870401 
-0.06126022929327435 2:0.054260974 3:2.2576102 4:0.010610085 
1 1:0.20070771 3:2.1617917 4:0.00036779741 
1 1:0.23731886 2:0.14000861 4:0.00047341879 
1 1:0.23744821 2:0.13998851 4:0.00045391727 
-1 1:0.11466241 2:0.045915404 
1 1:0.045908622 2:0.015332931 3:2.4339719 5:2.2595324e-05 
-1 1:0.016053524 2:0.031553261 
-1 2:0.065199211 
-1 2:0.052381956 
1 1:0.057416723 2:0.0099748315 3:2.1928093 5:0.0023043276 
-1 2:0.053105448 
1 2:0.10404568 4:0.0050792405 
1 2:0.11199172 4:8.8724408e-05 
1 2:0.093204064 4:0.0069175367 
1 2:0.10280303 4:0.0056252367 
-1 2:0.087470865 4:0.0082168083 
-1 2:0.050987747 3:0.91275873 4:0.010838839 
1 1:0.099226799 5:0.0044653432 
-1 2:0.044654035 3:0.99138462 4:0.011435376 
-1 2:0.079352904 3:0.26069927 4:0.0024993 
-1 2:0.0068498831 3:0.85011684 4:0.012365565 
1 1:0.030401107 5:0.014539058 
-1 2:0.063964385 3:0.39076339 4:0.0048068526 
1 1:0.0045561085 4:0.00054162706 5:0.015010218 
1 1:0.05787282 2:0.017891723 
1 1:0.0079550316 5:0.015028357 
-1 2:0.036400465 3:0.58685786 4:0.0092666493 
-0.8378345367561224 1:0.0045204766 2:0.070074611 
1 1:0.0055381869 3:3.0087692 4:0.00068310888 5:0.014986648 
1 1:0.0040162723 2:0.31332307 3:3.1183362 4:0.00071929292 5:0.010741561 
1 1:0.10017438 2:0.11149252 
1 1:0.11957802 2:0.092307879 
0.9776470177857406 1:0.12893387 2:0.084516102 
0.5678187075866428 1:0.11973401 2:0.085296184 
-1 1:0.11466312 2:0.08557486 
1 1:0.0061954572 3:0.23687734 4:0.0024050037 5:0.01525216 
1 1:0.018570195 3:0.4768594 5:0.015316785 
1 4:0.01061727 5:0.013138664 
1 4:0.0063732141 5:0.013584528 
1 1:0.073426807 3:1.1802366 5:0.010943172 
1 1:0.061428291 3:0.2435053 5:0.014616932 
1 1:0.054684616 3:0.97333469 5:0.015894488 
1 4:0.0087884209 5:0.012523051 
1 1:0.036291291 3:0.71701331 5:0.012284841 
1 1:0.04237914 3:0.95182887 5:0.012254302 
1 1:0.036103555 3:0.96233112 5:0.017033042 
1 1:0.0060284342 3:0.57849758 5:0.014563676 
-1 2:0.09148338 4:0.0052029976 
1 4:0.0067545323 5:0.014160456 
1 4:0.010308376 5:0.012389609 
-0.5181986179016561 1:0.020367117 2:0.043371177 3:2.6879544 
1 1:0.041824927 3:0.93683696 5:0.014274697 
-1 4:0.0042051493 5:0.014401079 
1 2:0.016047598 4:0.015040489 5:0.0058109753 
1 4:0.013447025 5:0.0073486093 
1 1:0.057358198 3:1.8314826 5:0.00032149786 
-1 1:0.0073670268 2:0.059378443 
-1 2:0.061188872 
-1 2:0.059834684 
1 2:0.099131294 4:0.0050104504 
-1 2:0.10233445 4:0.005236516 
-1 2:0.069488112 3:1.6516485 4:0.0090097813 
-1 2:0.068269187 3:1.8326147 4:0.0093960655 
-1 1:0.016330358 2:0.068462897 3:1.1456656 4:0.0011496004 
1 1:0.047409067 5:0.0085761111 
-0.7437553856166653 1:0.050013067 2:0.057133964 3:0.60363718 
1 4:0.0090009633 5:0.012104695 
1 1:0.11636033 2:0.088208089 
1 1:0.10987816 2:0.10562846 
-0.9990584857844608 1:0.14504023 5:0.013836835 
1 1:0.15631508 5:0.011102684 
0.1381465139078474 1:0.00034815841 3:0.4792986 4:0.0073071728 5:0.014359373 
1 3:0.0066621813 4:0.013117727 5:0.0090095679 
1 1:0.026443263 3:0.66344866 4:0.0017486391 5:0.015157836 
1 3:0.13219487 4:0.0097213133 5:0.011947345 
-1 2:0.062986319 
1 1:0.038241204 3:0.7704336 5:0.014980987 
1 1:0.10552692 2:0.0091022114 3:3.0915954 
1 1:0.1056311 2:0.011712808 3:3.1032351 
0.06690194381503139 1:0.10848964 2:0.0052622106 3:3.0664109 
1 1:0.10388806 2:0.0092692023 3:3.0896561 
-1 3:0.9739889 5:0.021192418 
1 1:0.11290521 2:0.0033126348 3:3.0251232 
-1 1:0.035616785 2:0.041502218 
-1 1:0.039459485 2:0.043907756 
-1 1:0.035459586 2:0.037133696 
-1 1:0.043241592 2:0.047237243 
-1 1:0.04758085 2:0.047208579 
-0.8484726374922581 1:0.048593576 2:0.043141616 
-1 1:0.051019529 2:0.043657764 
-1 1:0.006323589 2:0.052722122 4:0.00062577991 
-0.01611246840548857 1:0.055593069 2:0.015415956 3:3.1368237 
-1 1:0.06267349 2:0.015831566 
-1 1:0.052331254 2:0.012400266 3:3.0878162 
-1 1:0.050143158 2:0.023946185 
-1 1:0.057209714 2:0.058714282 
-1 1:0.015224903 2:0.050028086 4:0.00128468 
-1 2:0.070741455 4:0.011924781 
-1 2:0.067048492 3:0.28978359 4:0.0083346624 
-1 2:0.079500251 4:0.0022294626 
-1 2:0.074553537 3:0.14910359 4:0.0060537919 
1 1:0.084417746 5:0.0059381423 
-1 2:0.070049337 3:0.38816373 4:0.0082960976 
-1 2:0.078253843 3:0.15234944 4:0.0058167237 
1 1:0.022693524 2:0.0081309934 5:0.0044899963 
-1 2:0.072121455 3:0.20096542 4:0.0057187424 
-0.04248682221254328 2:0.083793499 3:0.12838355 4:0.0053349214 
-1 1:0.012126884 2:0.074039647 4:0.00097305838 
1 2:0.10548871 5:0.0029275982 
1 1:0.019349782 2:0.10619015 3:2.8490535 5:0.010519442 
-1 1:0.081166338 5:0.0035123535 
-1 2:0.064066674 
-1 1:0.003381864 2:0.064019088 
-1 1:0.0084170308 2:0.065380246 
-1 2:0.064217737 
-1 1:0.00025771291 2:0.062920532 
