svm_type epsilon_svr
kernel_type linear
nr_class 2
total_sv 619
rho 0.0011415
SV
-1 2:0.017000407 4:0.017445907 5:0.0080138417 
1 1:0.16031487 5:0.0011721517 
1 1:0.14511213 5:0.00061588459 
-1 4:0.0025304083 5:0.021061743 
-1 4:0.010757787 5:0.017359135 
-1 4:0.010886766 5:0.017091548 
-1 4:0.010870632 5:0.017205474 
-1 4:0.0063436497 5:0.020187984 
-1 4:0.010035937 5:0.018509948 
-1 4:0.011753398 5:0.01696746 
-1 4:0.013147211 5:0.016647848 
1 3:2.4503591 4:0.011527906 5:0.017807509 
1 1:0.0086190536 3:2.836798 4:0.0025567724 5:0.019826095 
0.08807033515158601 3:2.8080291 4:0.004756555 5:0.019850964 
1 3:2.855308 4:0.0040042967 5:0.020831841 
1 3:2.6766166 4:0.0041834289 5:0.018253804 
-1 1:0.082812671 2:0.013869 
-1 1:0.054027687 2:0.04479808 
-1 1:0.061876994 2:0.052241374 
-0.4421024944934019 1:0.056657331 2:0.045848785 
-1 1:0.058520271 2:0.0095442033 
-1 2:0.1105212 3:0.71749726 4:0.012839638 
1 3:2.9944269 4:0.0034973349 5:0.016647459 
-1 1:0.10715147 5:0.0030998146 
1 1:0.11459818 3:2.9391635 5:0.0041012434 
1 1:0.10420433 3:2.8625493 5:0.0064438881 
1 1:0.10073085 3:2.8719656 5:0.006097853 
0.788381911070234 1:0.10199901 3:2.9664914 5:0.0051140956 
0.9007195780062716 1:0.10771729 3:2.9313047 5:0.0054848173 
1 1:0.11844337 3:3.0006097 5:0.0036572262 
1 1:0.096225928 3:2.8803429 5:0.0069558377 
1 1:0.045175668 2:0.12455903 
1 1:0.045903963 2:0.12344625 
1 1:0.045809468 2:0.12306679 
1 1:0.048987074 2:0.12100032 
1 1:0.050101103 2:0.1195698 
-1 1:0.049167548 2:0.12105788 
-1 1:0.038792335 2:0.099637409 
-1 1:0.037655092 2:0.094768277 
-1 1:0.037336268 2:0.08952766 
-1 1:0.037456587 2:0.089008198 
-1 1:0.036798607 2:0.083335295 
-1 1:0.036799678 2:0.079396882 
-1 1:0.038876714 2:0.075215627 
-1 1:0.036898406 2:0.070074342 
-1 1:0.034277914 2:0.065430886 
-1 1:0.038691767 2:0.060324765 
-1 1:0.028364332 2:0.060071549 
-1 1:0.030238545 2:0.057130621 
-1 1:0.03450524 2:0.057905441 
-1 1:0.038494843 2:0.061176255 
-1 1:0.026264651 2:0.058341882 
-1 1:0.027610914 2:0.055621375 
-1 1:0.035651573 2:0.050056745 
-1 1:0.034104607 2:0.059725119 4:0.00089351863 
-1 1:0.026955659 2:0.056324287 4:0.00035022453 
-1 1:0.02714356 2:0.054123283 4:0.00032584483 
-1 1:0.036623554 2:0.053204298 
-1 1:0.030427862 2:0.052263167 4:0.00023286731 
-1 1:0.032226404 2:0.059776001 4:0.001203619 
-1 1:0.030793462 2:0.046130757 
-1 1:0.033966634 2:0.046739904 
-1 1:0.030450848 2:0.059528757 
-1 1:0.040968228 2:0.051040545 
-1 1:0.027266442 2:0.056220006 4:1.6825736e-05 
-1 1:0.043382822 2:0.054006445 
-1 1:0.04120326 2:0.057445348 
-1 1:0.044243399 2:0.056087993 
-1 1:0.0274913 2:0.055766148 4:0.00033763251 
-1 1:0.042448238 2:0.041938798 
-1 1:0.039371397 2:0.056714615 
-1 1:0.047540934 2:0.05255774 
-1 1:0.04651265 2:0.045300941 
-1 1:0.043358856 2:0.065428655 
-1 1:0.030624377 2:0.051091299 
-1 1:0.042451246 2:0.052464799 
-1 1:0.052647042 2:0.055296331 
-1 1:0.021113494 2:0.056785645 4:0.00045814432 
-1 1:0.021642588 2:0.065419169 
-1 1:0.018790763 2:0.051658856 
-1 1:0.05760291 2:0.04652195 
-1 1:0.05980975 2:0.049269982 
-1 1:0.017801888 2:0.049409792 
-1 1:0.03427411 2:0.0566774 
-1 1:0.027188461 2:0.056438898 
-1 1:0.045920833 2:0.053406543 
-1 1:0.052476124 2:0.056716676 
-1 1:0.052521786 2:0.053933572 
-1 1:0.040707178 2:0.053178565 
-1 1:0.036109107 2:0.054430532 
-1 1:0.055708146 2:0.045705204 
-1 1:0.066623393 2:0.054370259 
-1 1:0.055799894 2:0.047593106 
-1 1:0.084088553 2:0.05461495 
-1 1:0.079235869 2:0.046834283 
-1 1:0.018913437 2:0.056828667 
-1 3:0.68203548 4:0.006262177 5:0.014728324 
-1 4:0.01492935 5:0.010227922 
-1 4:0.015300908 5:0.010020802 
-1 4:0.014939506 5:0.01007821 
-1 4:0.014923458 5:0.010243441 
-1 4:0.015728065 5:0.0089348152 
-1 4:0.015111308 5:0.010125621 
-1 4:0.015089321 5:0.0099555275 
-1 4:0.015172337 5:0.0099431633 
1 4:0.015259856 5:0.009832535 
1 4:0.013109014 5:0.011111886 
1 4:0.011913636 5:0.011247175 
1 4:0.0094747904 5:0.012639838 
1 4:0.008780085 5:0.013085223 
1 4:0.0077384929 5:0.013683239 
1 4:0.0076616396 5:0.013748335 
1 4:0.0070639154 5:0.013979893 
1 4:0.0073634335 5:0.013780008 
1 4:0.0067345334 5:0.014107319 
1 4:0.0059710426 5:0.014272719 
1 4:0.0062593109 5:0.014267459 
1 4:0.0068647502 5:0.014105132 
1 1:0.0088863701 5:0.015227749 
1 4:0.0022504271 5:0.01592772 
1 4:0.0028216308 5:0.015307269 
1 1:0.019827361 5:0.014572101 
1 4:0.0058171184 5:0.014283218 
1 1:0.03781513 5:0.013800618 
1 5:0.014958267 
0.6557982404869384 5:0.015217782 
1 4:0.0041640857 5:0.014542846 
-0.1440153057251817 1:0.046543504 2:0.10314829 3:2.7635053 4:0.007369396 
1 1:0.086338546 5:0.0061087054 
1 4:0.0024266181 5:0.015281067 
-1 1:0.093124193 2:0.10058738 3:2.6373076 4:0.0052881396 
1 2:0.10968797 4:0.016509262 
1 2:0.064125291 4:0.016694599 
1 5:0.013574851 
1 1:0.19986126 2:0.024325173 5:0.0026331344 
1 4:0.013704646 5:0.0061512879 
-1 1:0.087452144 5:0.012931586 
-1 4:0.0105009 5:0.012134066 
-1 4:0.010748365 5:0.011345437 
-1 1:0.1005623 5:0.011855436 
1 3:3.0179478 4:0.010106724 5:0.011219781 
-1 1:0.058780463 5:0.014983204 
-1 4:0.011066944 5:0.011074995 
-1 1:0.055531798 5:0.015252772 
-1 1:0.067200123 5:0.014451749 
-1 1:0.024213584 4:0.00079964406 5:0.015717176 
-1 4:0.0087617688 5:0.012795143 
-1 1:0.068450846 5:0.014764148 
-1 1:0.076881341 5:0.013940727 
-1 1:0.05744338 5:0.015247675 
-1 1:0.10235826 5:0.012579908 
1 1:0.14826172 2:0.046902411 5:0.0014741633 
-1 1:0.19087194 2:0.07246625 5:0.0033668085 
1 1:0.11201812 2:0.055091192 3:2.2125146 5:0.001204493 
1 1:0.1147197 2:0.052929362 3:2.2280326 5:0.0015335956 
1 1:0.11309076 2:0.053784477 3:2.1640094 5:0.0013456378 
1 1:0.11350714 2:0.052782715 3:2.0942047 5:0.00093815875 
1 1:0.11980469 2:0.050852235 3:2.049845 5:0.0010896743 
1 1:0.12162232 2:0.049824484 3:1.9931631 5:0.00045542363 
0.2700833810887979 1:0.12111468 2:0.046709576 3:1.970619 5:0.00045945129 
1 1:0.1238403 2:0.049109968 3:1.9735265 
0.9159632956254957 1:0.12381418 2:0.04298878 3:1.8862048 
1 1:0.060038024 2:0.097050241 
1 1:0.063667946 2:0.096680147 
1 1:0.058728284 2:0.10071568 
1 1:0.062600365 2:0.099529993 
1 1:0.057510816 2:0.10190117 
1 1:0.061356236 2:0.098900011 
-1 1:0.06459156 2:0.097367739 
-1 1:0.061233888 2:0.090407429 
-1 1:0.053449113 2:0.068975132 
-1 1:0.049506517 2:0.069807838 
-1 1:0.04622551 2:0.066685176 
-1 1:0.04527878 2:0.065344954 
-1 1:0.039550797 2:0.064609624 
-1 1:0.038729623 2:0.059840985 
-1 1:0.029835701 2:0.064584924 
-1 1:0.02625637 2:0.062336888 
-1 1:0.034357547 2:0.060012491 
-1 1:0.034712512 2:0.056503218 
-1 1:0.030660821 2:0.057689945 
-1 1:0.017378476 2:0.056177083 
-1 1:0.029819329 2:0.053745425 
-1 1:0.036232059 2:0.056878114 
-1 1:0.031341712 2:0.056591318 
-1 1:0.034135045 2:0.053461506 
-1 1:0.020752544 2:0.060152818 
-1 1:0.032132256 2:0.05763873 
-1 1:0.024745984 2:0.055331027 
-1 1:0.029302186 2:0.058323926 
-0.2737904578201294 1:0.02750149 2:0.056194361 
-1 1:0.025510084 2:0.061412497 
-0.5663683024698772 1:0.016410409 2:0.063300779 
-1 1:0.022759523 2:0.060469664 
-1 1:0.023787962 2:0.059378559 
-1 1:0.050510191 2:0.055768986 
-1 1:0.038181855 2:0.054137787 
-1 1:0.031104377 2:0.056329046 
-1 1:0.019486268 2:0.058760854 
-1 1:0.04476887 2:0.052700276 
-1 1:0.053660039 2:0.05553261 
-1 1:0.026186271 2:0.059233007 
-1 1:0.031960217 2:0.062542509 
-1 1:0.043102985 2:0.06006984 
-1 1:0.047923271 2:0.060088165 
-1 1:0.015448774 2:0.063604477 
-1 1:0.033799268 2:0.060512504 
1 4:0.012486113 5:0.0085279373 
1 4:0.0081489817 5:0.012751192 
1 4:0.0083937429 5:0.012525395 
1 4:0.0088999195 5:0.012141216 
1 4:0.0079306228 5:0.012801571 
1 4:0.0046638046 5:0.014445431 
1 4:0.0069902851 5:0.013365747 
1 4:0.0038020465 5:0.014688364 
1 4:0.0032203659 5:0.014770908 
1 4:0.0048196553 5:0.014209724 
1 4:0.0029928368 5:0.01488108 
1 4:0.0039941083 5:0.014497679 
1 4:0.0031732223 5:0.014664155 
1 4:0.0033345547 5:0.015069383 
1 4:0.0071431547 5:0.015906652 
-1 1:0.13854035 2:0.046545551 3:1.3629113 
1 1:0.033580631 5:0.015650595 
1 4:0.00096258544 5:0.01532034 
1 4:0.0065959897 5:0.015573915 
1 4:0.013321296 5:0.0069490648 
-1 1:0.03140513 2:0.11951357 3:2.6734615 4:0.0090849535 
1 4:0.0021017113 5:0.016851462 
1 4:0.0038165748 5:0.016375928 
1 1:0.029305321 5:0.015371939 
-0.3568852884140197 1:0.11533997 2:0.10823946 3:2.086897 
1 4:0.0055761314 5:0.014909007 
-0.9625357537835102 1:0.13371627 2:0.080532365 3:1.8523365 
0.950153511802254 4:0.004649341 5:0.014301565 
1 4:0.00051901485 5:0.015410283 
-1 1:0.061256052 2:0.10785592 3:2.5632261 4:0.0075989564 
-1 1:0.11942856 2:0.09866091 3:2.1492816 4:0.00045417115 
1 4:0.00095931544 5:0.015249425 
1 5:0.015117306 
1 5:0.015015291 
1 1:0.068595598 5:0.011581775 
1 5:0.013985312 
-1 1:0.077398807 2:0.090244771 3:2.2602271 4:0.0045921544 
1 5:0.011620433 
1 2:0.099955823 4:0.015403274 
-1 1:0.12515208 2:0.0031288143 3:1.0443053 
-1 1:0.12778687 
1 1:0.13214609 5:0.0036402412 
1 1:0.13396753 
1 1:0.12138572 
1 1:0.10977174 
0.1814944519678919 2:0.11935748 3:0.64444397 4:0.0088310862 
1 2:0.1306234 3:0.63534305 4:0.0076502228 
1 2:0.12306731 3:0.56470142 4:0.0068117512 
1 2:0.12704045 3:0.57093129 4:0.0067683314 
-1 3:2.4654076 4:0.0086880021 5:0.017185999 
-1 3:2.8999315 4:0.0027392907 5:0.017441856 
1 2:0.1375951 3:0.84750137 4:0.010704777 
1 2:0.19113685 
1 2:0.18075897 
1 1:0.026167634 2:0.17453962 
0.7382292826033955 2:0.14446591 4:0.0054644886 
1 1:0.11496771 2:0.11239406 
1 1:0.11629827 2:0.013467835 
-1 3:0.007900839 4:0.019312882 
1 4:0.015176862 5:0.0028507604 
1 4:0.014046232 5:0.0059287322 
1 4:0.011921912 5:0.0091816265 
1 4:0.011689674 5:0.0095507073 
1 4:0.010659131 5:0.010684226 
1 4:0.011350057 5:0.0098099012 
1 4:0.011333458 5:0.0099082083 
1 4:0.01192443 5:0.0092608369 
1 4:0.010619715 5:0.011228186 
0.6395986250838589 4:0.0084968087 5:0.012452966 
1 1:0.069519775 3:1.2204074 5:0.017225704 
1 4:0.00940827 5:0.011813239 
1 4:0.012180776 5:0.0096402624 
1 3:0.018125908 4:0.0088938606 5:0.012997531 
0.3212602539344372 3:0.1182422 4:0.0051038301 5:0.014264839 
1 4:0.0066830611 5:0.013470193 
1 4:0.0097228152 5:0.012005862 
0.9318387102878987 2:0.057212188 3:3.1405218 
1 1:0.040931138 2:0.12617197 3:2.9701509 
1 1:0.042138292 2:0.12755297 3:2.9742455 
1 1:0.042463799 2:0.12619456 3:2.9670838 
1 1:0.040320128 2:0.12916787 3:2.9927849 
1 1:0.041503706 2:0.12671697 3:2.9788062 
1 1:0.041424344 2:0.12642881 3:2.9757676 
1 1:0.042727657 2:0.12637196 3:2.9624775 
1 1:0.044374942 2:0.12702373 3:2.9578012 
-1 1:0.041178423 2:0.12654966 3:2.974209 
-1 1:0.014527516 2:0.074989516 3:1.0821733 
-0.8491906484216484 1:0.030340311 2:0.070168721 3:0.76604309 
-1 1:0.0042514137 2:0.086305678 3:0.959153 
-0.0204135274048818 2:0.072645206 3:1.2968764 4:0.0034631653 
-0.007270877000754094 2:0.10740301 3:1.1697176 4:0.0010618226 
1 2:0.0028621735 3:2.9704784 4:0.015084744 
-0.754915392466995 1:0.034453321 2:0.094082585 3:0.78423802 
1 4:0.01578195 5:0.0013337669 
0.3963249785259803 3:3.05309 4:0.015665556 5:0.00028948216 
0.1437976725956804 1:0.038447245 2:0.044939742 
-0.3734515139554163 1:0.1199251 3:2.2583425 5:0.011189008 
1 1:0.13521301 2:0.0088303863 3:2.970671 5:0.00085222209 
-1 1:0.14052873 2:0.0018185179 3:2.9469657 5:0.0016873231 
0.4715820812509472 1:0.075665626 5:0.011122491 
1 1:0.087152646 2:0.028270769 
0.4278445911902607 1:0.078674011 2:0.084752297 
1 1:0.072263447 5:0.0097562942 
1 1:0.076198029 5:0.0065328183 
1 1:0.094386978 5:0.0084026401 
1 4:0.0039347156 5:0.014485793 
1 1:0.075318401 5:0.010299185 
1 1:0.052400132 2:0.0040105258 5:0.00034667917 
1 1:0.092142283 5:0.0084795368 
1 1:0.059516103 5:0.01169516 
1 1:0.075693702 5:0.0050241021 
1 1:0.079278253 5:0.010331551 
1 1:0.058665793 5:0.0010882939 
1 1:0.056120381 5:0.0044254784 
1 1:0.083483768 5:0.0043795173 
1 1:0.061244712 5:0.00050101943 
1 1:0.065715795 5:0.0015168681 
1 1:0.062457215 5:0.0079838544 
1 1:0.066755158 5:0.0025080943 
1 1:0.063231912 5:0.011544426 
1 1:0.069513802 5:0.0025730982 
1 1:0.050349524 5:0.00043637265 
1 1:0.048384465 5:0.00038006268 
1 1:0.049015495 
1 1:0.040023286 5:0.011507918 
1 1:0.04394255 5:0.0016430684 
1 1:0.044845423 
1 1:0.051926942 5:0.00078701665 
1 1:0.050717214 5:0.00072328745 
1 1:0.04778914 5:0.0094237191 
1 1:0.043458659 5:0.010117082 
1 1:0.035622722 5:0.011252551 
1 1:0.029890598 5:0.011845714 
1 1:0.039934492 5:0.010743007 
1 1:0.065279122 5:0.00060043097 
1 1:0.03759974 5:0.011150571 
1 1:0.039089454 5:0.010309002 
1 2:0.083557942 4:0.0032492811 
1 2:0.07219131 4:0.0028724584 
1 2:0.078937061 
1 2:0.078910841 
1 2:0.050857951 4:0.0078346304 
-1 2:0.064329044 4:0.0054105207 
-0.229737594258102 2:0.045061464 4:0.0017749119 
-1 2:0.025526804 4:0.0072009768 
1 1:0.039776938 2:0.036304835 3:1.964868 5:0.00044863706 
-1 4:0.010205971 
-1 4:0.014050881 
1 1:0.054745138 2:0.053175527 3:2.1676205 
1 4:0.013966877 5:0.006026186 
0.6669068857655439 1:0.0015505414 2:0.073370159 3:3.0395882 
1 1:0.10343116 2:0.0016126713 3:1.9428523 
-1 1:0.072343537 2:0.069819588 3:0.38638121 
1 1:0.080048656 5:0.0044801482 
1 1:0.070606548 5:0.0060669016 
1 1:0.071521194 5:0.0078587006 
1 1:0.03954031 5:0.011593939 
1 1:0.078799632 5:0.0065006325 
1 1:0.03392435 5:0.012516456 
1 1:0.058903521 5:0.008446725 
1 1:0.062860656 5:0.0033550965 
1 1:0.069458084 5:0.0001874741 
1 1:0.064773381 5:0.0096846425 
1 1:0.01870059 5:0.012899135 
1 1:0.039403145 5:0.010135219 
1 1:0.027357085 5:0.011830133 
-1 2:0.066141724 3:2.3393969 4:0.010927434 
-0.256986130530066 2:0.06583828 3:2.2065638 4:0.010638606 
-1 2:0.066467108 3:2.3212979 4:0.01072656 
-1 2:0.074259375 3:2.0138151 4:0.0089588992 
-0.7580145103033709 1:0.0027424298 3:1.8518017 5:0.014821369 
-1 3:0.43508064 4:0.013805543 5:0.0074429842 
-1 3:0.41224145 4:0.01402411 5:0.0068308886 
-0.09312119425635224 3:0.33558654 4:0.014420079 5:0.0066064757 
-1 1:0.03238215 2:0.057538393 4:0.0026188651 
-1 1:0.014330176 2:0.063640224 4:0.0018632519 
-1 1:0.0074179719 2:0.054310418 4:0.0053554644 
1 1:0.085039635 2:0.089618653 
1 1:0.10740643 2:0.075835546 
1 1:0.12118475 2:0.053977398 
1 1:0.088627127 2:0.089614865 
1 1:0.08560687 2:0.091635923 
-1 2:0.11824956 4:0.008960905 
1 1:0.076703513 2:0.070431045 
1 1:0.068035253 2:0.05655929 
1 1:0.066126769 2:0.055065765 
1 1:0.06238789 2:0.074151005 
1 1:0.071594978 2:0.051849561 
-1 1:0.016464466 2:0.077496967 4:0.0052142033 
-1 1:0.028669605 2:0.063230463 4:0.0014594699 
-1 1:0.057710735 2:0.055755035 
-1 1:0.048895625 2:0.052532398 
-1 2:0.071359679 4:0.0078596047 
-1 2:0.070091798 4:0.0074889985 
-1 1:0.046799326 2:0.051409679 
-1 1:0.044317364 2:0.051711822 
-1 1:0.044285393 2:0.051612613 
-1 1:0.048182265 2:0.050639686 
-1 1:0.033745517 2:0.048939349 
-1 4:0.0035038964 
1 2:0.077695365 3:0.40525804 4:0.0035148826 
1 1:0.046129883 2:0.085812037 3:0.061222616 
1 2:0.078426105 3:0.41421731 4:0.0036143268 
0.1113066352874826 2:0.077828894 3:0.41143964 4:0.0036985769 
1 2:0.079376262 3:0.33669549 4:0.0026107761 
1 2:0.094472433 3:0.47188789 4:0.0042817983 
1 1:4.0657565e-05 2:0.081856725 3:0.29098725 4:0.0020884626 
1 1:0.0024985922 2:0.082484538 3:0.25392883 4:0.0015339147 
-1 1:0.0024972962 2:0.0837444 3:0.26635341 4:0.0016964589 
-1 2:0.057161771 4:0.00038407593 
-1 1:0.063817131 4:0.0078158101 
1 
1 2:0.10061901 4:0.0062368444 
1 2:0.10078318 4:0.0063422139 
1 2:0.071057723 4:0.0084259529 
1 2:0.094380658 3:0.0096728786 4:0.0082338385 
1 2:0.092084429 3:0.052719353 4:0.0089786968 
1 2:0.097027567 4:0.007982382 
1 2:0.092368862 3:0.036655424 4:0.0087128139 
1 2:0.089036328 3:0.09850335 4:0.0099899526 
-1 2:0.089104321 3:0.092701195 4:0.009894568 
-1 2:0.065453407 4:0.00304034 
-1 1:0.0099226634 2:0.061633788 
-1 1:0.0055775511 2:0.057045357 
-1 4:0.0043031784 5:0.014526919 
-1 4:0.0024908384 5:0.015166117 
-1 4:0.0021076391 5:0.015 
-1 4:0.0020313642 5:0.015 
-1 4:0.0042642833 5:0.01454178 
-1 4:0.002641159 5:0.015128318 
-1 4:0.0020848761 5:0.015 
-1 4:0.0022538006 5:0.015 
-1 4:0.0029831758 5:0.014867451 
-1 4:0.0026527005 5:0.014932149 
-1 4:0.0024789499 5:0.01515804 
1 4:0.0022989584 5:0.015 
1 1:0.0015451876 5:0.014779562 
-1 2:0.061799114 3:1.1836149 4:0.0045468586 
-0.1567704274558697 2:0.059316027 3:1.2112747 4:0.0033586789 
-1 2:0.058854813 3:1.2969459 4:0.004034717 
1 2:0.095932124 4:0.0084899908 
1 2:0.095783468 4:0.0086372875 
1 2:0.094289853 4:0.0089607052 
1 2:0.093632409 4:0.0091091516 
1 2:0.10644804 3:0.03977328 4:0.0078519606 
1 2:0.093340307 4:0.0095324989 
-1 1:0.038632333 3:2.982863 5:0.014709068 
1 1:0.035382372 3:2.9502731 5:0.015025348 
-1 1:0.0020175251 2:0.04881017 4:0.00038104648 
-1 1:0.0030680732 2:0.050455402 
-1 3:0.50371068 4:0.010504544 5:0.017500567 
-1 3:0.49395699 4:0.010671242 5:0.017396588 
-1 3:0.51721704 4:0.010192945 5:0.017624375 
-1 3:0.49480654 4:0.010672555 5:0.01740884 
-1 3:0.49345725 4:0.010711963 5:0.017397561 
-1 3:0.49528058 4:0.01066442 5:0.017413921 
-1 3:0.47425226 4:0.011067861 5:0.017192851 
-1 3:0.44947048 4:0.011451988 5:0.016907482 
-1 3:0.49532292 4:0.010693496 5:0.017420301 
1 3:0.51451673 4:0.010419418 5:0.017635951 
1 1:0.0018615862 4:0.007531608 5:0.016605206 
-1 2:0.053640077 3:1.9490473 4:0.0076637815 
-1 2:0.0034999585 4:0.016153982 5:0.0088266949 
-1 2:0.0055701914 4:0.016283432 5:0.0087059 
-1 4:0.016053824 5:0.0095068279 
-1 4:0.016019435 5:0.0093734416 
-1 2:0.0041226795 4:0.016195564 5:0.0087906986 
-1 2:0.00049938275 4:0.016107777 5:0.0091336963 
0.6828121796558169 4:0.016185976 5:0.0099280319 
1 2:0.0076302507 4:0.015549478 5:0.0068959161 
0.743003485643147 2:0.081250651 4:0.014794912 
-1 4:0.0046661383 5:0.02069365 
1 2:0.049831456 4:0.015011992 5:0.00014575119 
1 2:0.063355767 4:0.015050459 
1 2:0.09861913 4:0.014708702 
-1 4:0.0038016782 5:0.020869769 
1 2:0.098922512 4:0.014814822 
1 2:0.11250085 4:0.014469451 
1 2:0.079592098 4:0.015034858 
1 2:0.11424852 4:0.014944811 
1 2:0.10811552 4:0.014935969 
1 2:0.10050249 4:0.015155634 
1 2:0.11756351 4:0.014727137 
1 2:0.1180765 4:0.014972149 
-1 5:0.021203639 
1 2:0.12582969 4:0.014224225 
0.03101306036211774 2:0.13665869 4:0.014354269 
1 2:0.1141067 4:0.015127278 
1 2:0.11827442 4:0.015088197 
-1 1:0.16015238 5:0.020090813 
-1 1:0.16407507 5:0.019992841 
-1 1:0.16441019 5:0.019949504 
-1 1:0.15396409 5:0.020111552 
-1 1:0.16710214 5:0.019862515 
-1 1:0.16122683 5:0.0200826 
-1 1:0.15986259 5:0.020099391 
1 1:0.16457849 5:0.020024341 
1 1:0.12654532 5:0.020431623 
1 1:0.13112923 3:0.0045772405 5:0.01987211 
-1 1:0.14065167 3:0.034880968 5:0.019542418 
0.02070503013384279 1:0.10998165 5:0.021060465 
1 1:0.14225112 5:0.01592219 
0.01684005795722851 1:0.15780873 5:0.014424319 
1 1:0.10119099 5:0.016936751 
-0.2807257920503621 1:0.16299559 2:0.064992975 3:2.2162608 
1 1:0.15281691 5:0.013618241 
1 1:0.12501547 5:0.013767591 
-1 1:0.15752634 5:0.012128643 
1 1:0.13697412 5:0.011948411 
1 1:0.11517057 4:4.5464865e-05 5:0.015003727 
1 1:0.18358107 5:0.010118956 
1 1:0.17158355 5:0.0085231103 
1 1:0.16858578 5:0.0099843078 
0.0231840882064257 1:0.19026882 5:0.0092091131 
1 1:0.18358325 5:0.0089548641 
-1 1:0.060048521 2:0.05092635 3:2.085955 
1 1:0.0543977 2:0.044369697 3:0.44575883 5:0.0029505115 
-1 1:0.065563576 2:0.054534273 3:1.9726348 
1 1:0.12937689 2:0.063921032 3:0.54080853 5:0.00048547279 
-1 4:0.016076412 5:0.013840122 
-1 4:0.016576585 5:0.013236949 
-1 4:0.01645205 5:0.013391417 
-1 4:0.01540942 5:0.014579087 
-1 4:0.015964603 5:0.013968946 
-1 4:0.016075874 5:0.013840747 
-1 4:0.016486912 5:0.013348473 
-1 4:0.016154411 5:0.013749 
-1 4:0.015286156 5:0.014708277 
1 4:0.016325262 5:0.013545694 
-0.1095139777161964 3:2.3349457 4:0.016737945 5:0.013032314 
-0.346124587176965 3:2.3860495 4:0.016122497 5:0.013786409 
-1 3:2.4341095 4:0.015724828 5:0.014238321 
1 3:2.8554217 4:0.008101508 5:0.019605243 
1 5:0.020236183 
1 5:0.019691003 
-0.1207375994242596 1:0.060782908 2:0.12786822 3:0.83676447 4:0.0056942395 
1 2:0.07703046 3:2.3797785 4:0.015154873 5:0.0041800813 
1 2:0.11060035 3:2.192182 4:0.015328763 
1 1:0.10749449 5:0.012486552 
1 2:0.11549276 3:2.3187792 4:0.01509837 5:0.0007083618 
0.134989796181075 2:0.10168662 3:2.3784151 4:0.015076705 5:0.0018492165 
1 2:0.12492439 3:2.2365044 4:0.015075836 
1 2:0.12201479 3:2.2816234 4:0.015091439 5:0.00033252009 
0.8324952045182308 2:0.13111341 3:2.1853266 4:0.015050733 
-0.3892336603248216 1:0.27067172 3:2.0511617 4:0.01883104 5:0.0097668801 
-1 1:0.13050573 5:0.013371184 
-1 1:0.09771417 4:0.0040402553 5:0.014940276 
-1 1:0.06422542 4:0.0023632927 5:0.016336978 
-1 1:0.096974637 4:0.0041423846 5:0.014914455 
-1 1:0.097244645 4:0.0036503361 5:0.015078894 
-1 1:0.087045708 4:0.0010803692 5:0.015974831 
-1 1:0.095496822 4:0.0041025607 5:0.014947938 
-1 1:0.093299053 4:0.0040066838 5:0.015017521 
1 2:0.017370858 4:0.015641986 5:0.0020006546 
1 3:3.0946147 4:0.012657723 5:0.010498632 
1 2:0.11174922 4:0.0094795868 
1 2:0.10643276 4:0.0094487871 
1 2:0.10129813 4:0.010094787 
1 2:0.12255537 4:0.0080189494 
1 2:0.11091784 4:0.0099351044 
-1 4:0.010373366 5:0.011774485 
1 2:0.10296217 4:0.010195891 
1 2:0.10321464 4:0.0094832402 
1 2:0.13822517 4:0.0068087891 
-1 2:0.13844102 4:0.0065888219 
-1 2:0.076603355 3:2.0919672 4:0.011070303 
-1 2:0.046270253 3:2.2045478 4:0.013149309 
-1 2:0.10764486 3:1.9504198 4:0.0095171035 
-1 2:0.10162674 3:2.0500175 4:0.0089412263 
-0.9459085796357809 2:0.084950907 3:1.8107701 4:0.011011938 
-1 1:0.060267306 5:0.018819557 
-0.002024026733452623 1:0.02311788 3:1.5023754 4:0.0041793383 
-1 5:0.021205479 
-1 4:0.019565143 5:0.0081978762 
-1 4:0.0086901852 5:0.019351503 
-1 4:0.015822021 5:0.014130239 
-1 2:0.010418481 4:0.020516905 5:0.00539042 
0.8277768848420828 1:0.24671238 5:0.0072350442 
-1 3:2.0781496 4:0.0079771326 5:0.019656179 
-0.4789823815416477 1:0.010754331 3:2.7113078 5:0.020492822 
0.3811335026410574 1:0.19770814 2:0.027827968 3:2.6342985 
1 1:0.18676841 2:0.022926684 3:2.614981 
-1 1:0.13682713 2:0.065341801 3:2.7900894 
-1 1:0.13764654 2:0.061325407 3:2.8123013 
-1 1:0.12558075 2:0.050044052 3:2.8082533 
-1 1:0.13163515 2:0.032658838 3:2.7540045 
-1 1:0.11352238 2:0.037319484 3:2.7843016 
-1 1:0.12221556 2:0.03216891 3:2.7756485 
-1 2:0.060911476 4:0.015212322 
-1 2:0.068118856 3:2.5470363 4:0.013256514 
-0.585564061720677 2:0.026536288 3:2.7869355 4:0.015536425 
-0.6199514708238028 2:0.032923702 3:2.6726075 4:0.015069901 
-1 2:0.032413245 3:2.6324229 4:0.015131024 
-1 2:0.033014355 3:2.7254283 4:0.015022967 
-1 2:0.029351662 3:2.7540161 4:0.01478421 
-1 1:0.15393653 3:3.0837333 5:0.018033624 
-1 1:0.18988547 3:2.899715 5:0.019773213 
-1 1:0.14184681 3:2.9287033 5:0.019542236 
-1 1:0.19017862 3:2.9282176 5:0.019546242 
-1 1:0.14363052 3:3.0772036 5:0.018106181 
-1 1:0.19015047 3:2.9162176 5:0.019643746 
-1 1:0.18908364 3:2.9054516 5:0.019728817 
1 1:0.17741546 3:2.8705272 5:0.019988993 
-0.423423702871743 1:0.1612285 3:0.66310723 5:0.018625935 
-1 1:0.13733179 3:0.54489803 5:0.019664768 
1 1:0.19648307 3:0.99521956 5:0.0075505533 
-1 1:0.184104 2:0.061650858 3:2.5579862 
1 1:0.16279905 3:0.58317935 5:0.010018209 
-0.0863977210902153 1:0.18917945 2:0.10832272 3:2.6227753 
-1 1:0.016957772 2:0.073221573 4:0.012021582 
0.1652956960463896 1:0.19712074 3:0.82674377 5:0.004727026 
0.1755535719571329 1:0.13766663 3:0.38714923 5:0.0091620853 
