svm_type epsilon_svr
kernel_type linear
nr_class 2
total_sv 355
rho 0.00144803
SV
-1 1:0.1199251 3:2.2583425 5:0.011189008 
-1 1:0.14052873 2:0.0018185179 3:2.9469657 5:0.0016873231 
1 1:0.072263447 5:0.0097562942 
1 1:0.076198029 5:0.0065328183 
1 4:0.0039347156 5:0.014485793 
1 1:0.059516103 5:0.01169516 
0.5739706817235619 1:0.058665793 5:0.0010882939 
1 1:0.061244712 5:0.00050101943 
1 1:0.065715795 5:0.0015168681 
1 1:0.062457215 5:0.0079838544 
0.3510206267142344 1:0.066755158 5:0.0025080943 
1 1:0.063231912 5:0.011544426 
1 1:0.050349524 5:0.00043637265 
1 1:0.048384465 5:0.00038006268 
1 1:0.049015495 
1 1:0.040023286 5:0.011507918 
1 1:0.051926942 5:0.00078701665 
1 1:0.050717214 5:0.00072328745 
1 1:0.04778914 5:0.0094237191 
1 1:0.029890598 5:0.011845714 
1 1:0.039934492 5:0.010743007 
1 1:0.065279122 5:0.00060043097 
1 1:0.03759974 5:0.011150571 
1 1:0.039089454 5:0.010309002 
1 2:0.083557942 4:0.0032492811 
1 2:0.07219131 4:0.0028724584 
1 2:0.078937061 
1 2:0.078910841 
1 2:0.050857951 4:0.0078346304 
0.5732257168518508 2:0.041680762 3:0.082250467 4:0.010122527 
-1 2:0.064329044 4:0.0054105207 
-1 2:0.045061464 4:0.0017749119 
-1 2:0.025526804 4:0.0072009768 
-1 4:0.010205971 
1 4:0.015639869 
1 4:0.015752824 
1 4:0.013966877 5:0.006026186 
1 1:0.10343116 2:0.0016126713 3:1.9428523 
-0.5380625681262032 1:0.072343537 2:0.069819588 3:0.38638121 
1 1:0.070606548 5:0.0060669016 
1 1:0.071521194 5:0.0078587006 
1 1:0.03954031 5:0.011593939 
1 1:0.078799632 5:0.0065006325 
1 1:0.03392435 5:0.012516456 
1 1:0.058903521 5:0.008446725 
1 1:0.062860656 5:0.0033550965 
1 1:0.069458084 5:0.0001874741 
1 1:0.064773381 5:0.0096846425 
1 1:0.01870059 5:0.012899135 
1 1:0.039403145 5:0.010135219 
1 1:0.027357085 5:0.011830133 
-1 2:0.066141724 3:2.3393969 4:0.010927434 
-1 2:0.066467108 3:2.3212979 4:0.01072656 
-0.8280732142732422 1:0.0027424298 3:1.8518017 5:0.014821369 
-1 1:0.03238215 2:0.057538393 4:0.0026188651 
1 4:0.01097403 5:0.011641955 
-1 1:0.014330176 2:0.063640224 4:0.0018632519 
1 2:0.024625235 4:0.015036263 5:0.00026949532 
1 4:0.013596911 5:0.0065678385 
1 4:0.0090758499 5:0.012078235 
-1 1:0.0074179719 2:0.054310418 4:0.0053554644 
-1 1:0.078342489 2:0.051550241 3:2.9746237 
1 4:0.011589977 5:0.0095292804 
1 2:0.025196246 4:0.014981192 5:0.00094551345 
1 1:0.085039635 2:0.089618653 
1 1:0.08560687 2:0.091635923 
-1 2:0.11824956 4:0.008960905 
0.4037117691529249 1:0.076703513 2:0.070431045 
-1 1:0.016464466 2:0.077496967 4:0.0052142033 
-1 1:0.028669605 2:0.063230463 4:0.0014594699 
-1 1:0.057710735 2:0.055755035 
-1 1:0.029375982 2:0.061069124 4:0.0014103385 
-1 1:0.048895625 2:0.052532398 
-0.9943350301143968 1:0.032979763 2:0.045666182 4:0.0019133496 
-1 2:0.071359679 4:0.0078596047 
-1 1:0.048149759 2:0.051444629 
-1 2:0.070091798 4:0.0074889985 
-1 1:0.047167019 2:0.053938638 
-1 1:0.046799326 2:0.051409679 
-1 1:0.044317364 2:0.051711822 
-1 1:0.044285393 2:0.051612613 
-1 1:0.048182265 2:0.050639686 
-1 1:0.033745517 2:0.048939349 
-1 4:0.0035038964 
1 2:0.077695365 3:0.40525804 4:0.0035148826 
1 1:0.046129883 2:0.085812037 3:0.061222616 
1 2:0.077561601 3:0.43018629 4:0.0039693551 
1 2:0.078426105 3:0.41421731 4:0.0036143268 
1 2:0.077828894 3:0.41143964 4:0.0036985769 
1 2:0.079376262 3:0.33669549 4:0.0026107761 
1 2:0.081184987 3:0.52809173 4:0.005505881 
1 2:0.094472433 3:0.47188789 4:0.0042817983 
1 1:4.0657565e-05 2:0.081856725 3:0.29098725 4:0.0020884626 
1 1:0.0024985922 2:0.082484538 3:0.25392883 4:0.0015339147 
-1 1:0.0024972962 2:0.0837444 3:0.26635341 4:0.0016964589 
-1 1:0.01063634 2:0.066623789 
-1 1:0.00046655933 2:0.059196475 
-1 2:0.057161771 4:0.00038407593 
-1 1:0.063817131 4:0.0078158101 
1 
0.4963721098025596 2:0.074721849 3:0.24399519 4:0.011116674 
1 2:0.10061901 4:0.0062368444 
1 2:0.10078318 4:0.0063422139 
1 2:0.071057723 4:0.0084259529 
1 2:0.094380658 3:0.0096728786 4:0.0082338385 
1 2:0.092084429 3:0.052719353 4:0.0089786968 
1 2:0.097027567 4:0.007982382 
1 2:0.092368862 3:0.036655424 4:0.0087128139 
1 2:0.089036328 3:0.09850335 4:0.0099899526 
-1 2:0.089104321 3:0.092701195 4:0.009894568 
-1 2:0.065453407 4:0.00304034 
-1 1:0.0099226634 2:0.061633788 
-1 1:0.0055775511 2:0.057045357 
-1 4:0.0043031784 5:0.014526919 
-1 4:0.0024908384 5:0.015166117 
-1 4:0.0021076391 5:0.015 
-1 4:0.0020313642 5:0.015 
-1 4:0.0042642833 5:0.01454178 
-1 4:0.002641159 5:0.015128318 
-1 4:0.0020848761 5:0.015 
-1 4:0.0022538006 5:0.015 
-1 4:0.0029831758 5:0.014867451 
-1 4:0.0026527005 5:0.014932149 
-1 4:0.0024789499 5:0.01515804 
1 4:0.0022989584 5:0.015 
1 1:0.0015451876 5:0.014779562 
-1 2:0.058854813 3:1.2969459 4:0.004034717 
1 2:0.095932124 4:0.0084899908 
1 2:0.095783468 4:0.0086372875 
1 2:0.094289853 4:0.0089607052 
1 2:0.093632409 4:0.0091091516 
1 2:0.10644804 3:0.03977328 4:0.0078519606 
1 2:0.093340307 4:0.0095324989 
-1 1:0.038632333 3:2.982863 5:0.014709068 
1 1:0.035382372 3:2.9502731 5:0.015025348 
-1 1:0.0037705156 2:0.047748777 4:0.0006442052 
-1 1:0.0020175251 2:0.04881017 4:0.00038104648 
-1 1:0.0030680732 2:0.050455402 
-1 3:0.50371068 4:0.010504544 5:0.017500567 
-1 3:0.49395699 4:0.010671242 5:0.017396588 
-1 3:0.51721704 4:0.010192945 5:0.017624375 
-1 3:0.49480654 4:0.010672555 5:0.01740884 
-1 3:0.49345725 4:0.010711963 5:0.017397561 
-1 3:0.49528058 4:0.01066442 5:0.017413921 
-1 3:0.47425226 4:0.011067861 5:0.017192851 
-1 3:0.44947048 4:0.011451988 5:0.016907482 
-1 3:0.49532292 4:0.010693496 5:0.017420301 
1 3:0.51451673 4:0.010419418 5:0.017635951 
1 1:0.0018615862 4:0.007531608 5:0.016605206 
1 1:0.00088664311 4:0.0072946085 5:0.014161592 
-1 2:0.056475318 3:1.6890045 4:0.0039782552 
-0.04666491785156771 1:0.27267348 2:0.0032700016 3:2.837294 4:0.015247658 
1 2:0.11013838 4:0.013364247 
1 2:0.10902862 4:0.013598622 
1 2:0.10933114 4:0.01407239 
1 2:0.10992379 4:0.013718217 
1 2:0.11043705 4:0.013254518 
1 2:0.10941619 4:0.013483951 
-1 2:0.10986928 4:0.013695396 
-1 2:0.073991778 3:1.9779213 4:0.015275609 
-0.1985185736095297 1:0.025593393 2:0.065673414 3:1.8705602 4:0.0085059385 
-0.7253974758161793 1:0.012362533 2:0.067972387 3:1.9565215 4:0.0093853026 
-1 1:0.014703611 2:0.070502193 3:2.0426536 4:0.010037405 
-1 1:0.015680782 2:0.072018234 3:2.1651816 4:0.010202449 
-0.6351604759208794 1:0.02469902 2:0.068489209 3:2.1675441 4:0.010056101 
1 2:0.099851583 4:0.0089354712 
1 2:0.10021178 4:0.0090300415 
1 2:0.10155494 4:0.0089271091 
1 2:0.099945491 4:0.0090298036 
1 2:0.1001868 4:0.0088944318 
1 2:0.10001963 4:0.0089856201 
1 2:0.10022874 4:0.0088937495 
-1 2:0.10040249 4:0.0088745344 
-1 2:0.06227329 3:0.84205112 4:0.0078414559 
-0.8873431511698305 2:0.059919322 3:0.66810375 4:0.0057895954 
-1 2:0.061140608 3:0.84997037 4:0.0068398426 
-1 1:0.0074113554 2:0.067109394 3:1.1900714 4:0.0088608747 
-1 1:0.024719564 2:0.072476696 3:1.1803193 4:0.0082596314 
-1 2:0.07703508 4:0.014135843 
-0.9435702731291477 4:0.019138909 5:0.0091488895 
-1 4:0.019008887 5:0.0094160614 
1 4:0.019274574 5:0.0088595033 
-1 1:0.12961181 2:0.00928693 
1 1:0.23618127 3:2.6691191 
-1 1:0.18893962 3:2.1382396 
-1 1:0.17996756 3:2.1358554 
-0.04569502312982766 1:0.17357108 3:2.1441669 
1 2:0.038970928 3:0.001400833 4:0.015801487 5:0.00089226156 
-1 1:0.11380706 5:0.0030954956 
1 1:0.079214141 3:1.9970539 5:0.008088451 
1 3:1.6927123 5:0.012958597 
1 1:0.052401333 3:2.2208372 5:0.008437927 
1 2:0.081931542 4:0.0090544799 
1 2:0.078632043 4:0.0093855195 
1 2:0.087022677 4:0.0084558472 
1 2:0.083380851 4:0.0088387126 
1 2:0.091199547 4:0.0082391866 
1 2:0.089932968 4:0.0084238248 
1 2:0.096779624 4:0.0076253313 
-1 2:0.090744969 4:0.0083843282 
-1 2:0.071262776 3:0.41371113 4:0.0082716977 
-1 2:0.072839806 3:0.37430539 4:0.0078573388 
-0.0872234265723575 2:0.071641004 3:0.36683704 4:0.0076970778 
-0.4371241880119517 2:0.068599603 3:0.3367629 4:0.007877617 
-1 2:0.070258568 3:0.34066075 4:0.0069955508 
-1 2:0.07103305 3:0.30498807 4:0.0070462955 
-1 2:0.069283904 3:0.23999058 4:0.0070969926 
-1 2:0.064408457 3:0.25969188 4:0.0066517766 
-1 2:0.065826241 3:0.24784362 4:0.0060327333 
-1 2:0.064815329 3:0.22586598 4:0.0055230884 
-1 2:0.062172106 3:0.23083202 4:0.0060784301 
-1 2:0.063712994 3:0.22200193 4:0.0057379491 
-1 2:0.063305541 3:0.17725636 4:0.0055371421 
-1 2:0.064736412 3:0.15529252 4:0.0053563508 
-1 2:0.060044865 3:0.1424435 4:0.0062933032 
-1 2:0.062174505 3:0.11684048 4:0.0062787538 
-1 2:0.057034306 3:0.074623994 4:0.0050366296 
-1 2:0.05848398 3:0.086885344 4:0.0057807573 
-1 1:0.0083386557 2:0.058280657 4:0.0030384513 
-1 2:0.052294715 4:0.0051037211 
-1 2:0.05642836 4:0.0047392635 
-1 2:0.055623674 4:0.0042819315 
-1 2:0.055247905 4:0.003371658 
-1 1:0.0057453999 2:0.053004986 4:0.0025189783 
-1 2:0.044320872 4:0.004791935 
-1 1:0.027513721 2:0.045925581 4:0.0005998595 
-1 2:0.04513835 4:0.0045555777 
-0.09058497529916058 3:0.10198254 4:0.010386851 
-1 2:0.02113786 4:0.0080598046 
-1 1:0.010875783 2:0.045913882 4:0.0024617772 
-1 1:0.21166528 
-1 1:0.097693817 2:0.046491036 
-1 1:0.021374627 2:0.042361853 4:0.0027008386 
1 3:2.9890523 4:0.0021195375 5:0.0177025 
-1 1:0.070599571 2:0.070353992 3:0.086085632 4:0.0033114454 
-1 1:0.025539785 2:0.044877736 4:0.004401363 
-1 1:0.023165769 2:0.036893856 4:0.0032638151 
-1 1:0.082412625 2:0.056854187 4:0.0014579053 
-1 1:0.040904993 2:0.042910337 4:0.0019559155 
-1 1:0.13070256 2:0.080947453 3:0.1241116 4:0.0044055327 
-1 1:0.1207925 2:0.054820876 4:4.1050704e-05 
1 1:0.011488297 2:0.075764466 3:3.069264 
1 1:0.012319154 2:0.076074044 3:3.0680213 
1 1:0.01074072 2:0.075889987 3:3.0706899 
1 1:0.011623245 2:0.076275942 3:3.0704175 
1 1:0.011387956 2:0.075712313 3:3.0758945 
1 1:0.01032522 2:0.07598848 3:3.077064 
1 1:0.0079705234 2:0.07532836 3:3.0747597 
1 1:0.016636973 2:0.076103783 3:3.0679943 
-1 1:0.019078625 2:0.076121615 3:3.0529242 
-1 2:0.053537799 3:0.7013293 4:0.0021039917 
-1 2:0.050601681 3:0.71849241 4:0.0020204271 
-0.00616278411243929 1:0.012423822 2:0.046196967 3:0.72008909 4:0.00017413538 
-1 1:0.0090544329 2:0.045712012 3:0.45736592 4:8.5022818e-05 
-1 1:0.01065369 2:0.054044895 3:0.53138611 4:0.0003158029 
-1 1:0.01799498 2:0.041297151 3:0.43834822 
-1 1:0.0036864305 2:0.059755408 3:0.61756045 4:0.001925275 
-1 1:0.094614496 2:0.068325726 3:0.77203364 
1 5:0.00071190595 
-1 1:0.025712145 2:0.068043044 3:0.69485543 4:0.0037913824 
1 2:0.096244382 3:2.3676509 4:0.015948768 5:0.0009551752 
-1 1:0.0068239336 3:1.7930684 4:0.0098442557 5:0.017984825 
-1 3:1.7499474 4:0.011264163 5:0.017680481 
-1 1:0.0035958486 3:1.7771307 4:0.010264973 5:0.017857822 
-1 1:0.0063315035 3:1.78832 4:0.009911386 5:0.017933347 
-1 1:0.0038528554 3:1.782626 4:0.010217053 5:0.017926226 
-1 1:0.0039259174 3:1.7834661 4:0.010207082 5:0.017936048 
1 1:0.0054085583 3:1.786313 4:0.010024137 5:0.017932414 
1 1:0.017354196 3:0.46513754 4:0.0058248489 5:0.016935667 
0.5911651836083467 1:0.018191449 3:0.46488006 4:0.0052544722 5:0.016789258 
1 1:0.016734094 3:0.50089518 4:0.0032866816 5:0.016435087 
1 1:0.034977791 3:0.56733038 4:0.00019219405 5:0.01590769 
1 1:0.033805491 3:0.57493482 4:3.3135337e-06 5:0.015917764 
1 1:0.04153737 3:0.58129609 5:0.015545544 
1 1:0.018681279 3:0.44261567 4:0.0012787077 5:0.015707101 
1 1:0.019505905 3:0.44545923 4:0.00089618285 5:0.01567725 
1 2:0.10404568 4:0.0050792405 
1 2:0.07944943 4:0.0093984235 
1 2:0.11199172 4:8.8724408e-05 
1 2:0.078502728 4:0.0097394655 
1 2:0.084121438 4:0.0085143576 
1 2:0.070500071 4:0.010477674 
1 2:0.093204064 4:0.0069175367 
1 2:0.10280303 4:0.0056252367 
-1 2:0.087470865 4:0.0082168083 
-1 2:0.050987747 3:0.91275873 4:0.010838839 
-0.2804138900246556 2:0.044654035 3:0.99138462 4:0.011435376 
-1 2:0.079352904 3:0.26069927 4:0.0024993 
1 1:0.030401107 5:0.014539058 
-1 2:0.063964385 3:0.39076339 4:0.0048068526 
-0.4124034359110371 2:0.057048143 3:0.5577987 4:0.0075446145 
1 1:0.0045561085 4:0.00054162706 5:0.015010218 
1 1:0.05787282 2:0.017891723 
1 1:0.0055381869 3:3.0087692 4:0.00068310888 5:0.014986648 
1 1:0.0040162723 2:0.31332307 3:3.1183362 4:0.00071929292 5:0.010741561 
-0.001921493324953124 1:0.30991259 3:1.4612955 4:0.0089306117 
1 1:0.10017438 2:0.11149252 
-1 1:0.11466312 2:0.08557486 
1 4:0.0063732141 5:0.013584528 
1 4:0.0087884209 5:0.012523051 
1 1:0.0060284342 3:0.57849758 5:0.014563676 
-1 2:0.09148338 4:0.0052029976 
1 2:0.011878338 4:0.017049762 5:0.00067224397 
1 1:0.041824927 3:0.93683696 5:0.014274697 
-1 4:0.0042051493 5:0.014401079 
-1 3:0.42720636 5:0.015146778 
1 2:0.016047598 4:0.015040489 5:0.0058109753 
1 4:0.013447025 5:0.0073486093 
1 1:0.057358198 3:1.8314826 5:0.00032149786 
-1 1:0.0073670268 2:0.059378443 
1 2:0.099131294 4:0.0050104504 
1 2:0.068789379 4:0.012564075 
-1 2:0.10233445 4:0.005236516 
-0.3511235721257296 2:0.069488112 3:1.6516485 4:0.0090097813 
-0.005664969885603166 1:0.016330358 2:0.068462897 3:1.1456656 4:0.0011496004 
1 1:0.047409067 5:0.0085761111 
-1 1:0.050013067 2:0.057133964 3:0.60363718 
-0.1091677216815622 1:0.1586652 2:0.013156176 5:0.0075895079 
-1 1:0.14504023 5:0.013836835 
1 1:0.15631508 5:0.011102684 
1 1:0.035308345 2:0.041702102 3:2.8381534 
0.03059225807073172 1:0.055711234 2:0.038577901 3:2.4521445 5:0.00034088872 
1 1:0.032693419 2:0.055717707 3:2.8400972 
0.8886039864564755 3:0.0066621813 4:0.013117727 5:0.0090095679 
1 4:0.015222299 5:0.0012531295 
-1 3:0.9739889 5:0.021192418 
1 1:0.11290521 2:0.0033126348 3:3.0251232 
-1 1:0.039459485 2:0.043907756 
-1 1:0.035459586 2:0.037133696 
-1 1:0.043241592 2:0.047237243 
-1 1:0.006323589 2:0.052722122 4:0.00062577991 
-1 1:0.055593069 2:0.015415956 3:3.1368237 
-1 1:0.052331254 2:0.012400266 3:3.0878162 
0.7467546443091463 1:0.050568862 3:2.7362573 
-1 1:0.057209714 2:0.058714282 
1 1:0.040962238 2:0.0013486215 3:2.647439 
1 2:0.074894307 4:0.011033256 
1 2:0.069996177 4:0.011639546 
1 2:0.078974638 4:0.010792578 
1 2:0.080067301 4:0.010690283 
-1 2:0.070741455 4:0.011924781 
-1 2:0.06468631 3:0.41071547 4:0.0095539506 
-1 2:0.067048492 3:0.28978359 4:0.0083346624 
-1 2:0.079500251 4:0.0022294626 
-0.9391077984309829 2:0.074553537 3:0.14910359 4:0.0060537919 
-1 2:0.070049337 3:0.38816373 4:0.0082960976 
-1 2:0.078253843 3:0.15234944 4:0.0058167237 
-1 2:0.063730022 3:0.55903369 4:0.010140102 
1 1:0.022693524 2:0.0081309934 5:0.0044899963 
1 2:0.10548871 5:0.0029275982 
1 1:0.019349782 2:0.10619015 3:2.8490535 5:0.010519442 
1 1:0.05924788 2:0.052791693 
-1 1:0.081166338 5:0.0035123535 
-0.09169801816859005 3:0.21311436 4:0.009686587 5:0.01190869 
-1 1:0.0084170308 2:0.065380246 
