svm_type epsilon_svr
kernel_type linear
nr_class 2
total_sv 1120
rho 0.00149398
SV
-1 2:0.017000407 4:0.017445907 5:0.0080138417 
0.8350910847914946 1:0.14511213 5:0.00061588459 
-1 4:0.0025304083 5:0.021061743 
-1 4:0.010757787 5:0.017359135 
-1 4:0.010886766 5:0.017091548 
-1 4:0.010870632 5:0.017205474 
-1 4:0.0063436497 5:0.020187984 
-1 4:0.010035937 5:0.018509948 
-1 4:0.011753398 5:0.01696746 
-1 4:0.013147211 5:0.016647848 
1 3:2.4503591 4:0.011527906 5:0.017807509 
-1 1:0.084302986 2:0.054586799 
1 1:0.0086190536 3:2.836798 4:0.0025567724 5:0.019826095 
1 3:2.855308 4:0.0040042967 5:0.020831841 
-1 1:0.082812671 2:0.013869 
-1 1:0.069843741 2:0.038607875 
-1 1:0.054027687 2:0.04479808 
-1 1:0.061876994 2:0.052241374 
-1 1:0.056657331 2:0.045848785 
-1 1:0.058520271 2:0.0095442033 
1 3:2.9944269 4:0.0034973349 5:0.016647459 
-1 1:0.10715147 5:0.0030998146 
1 1:0.10420433 3:2.8625493 5:0.0064438881 
0.1503448497918262 1:0.096225928 3:2.8803429 5:0.0069558377 
1 1:0.045175668 2:0.12455903 
1 1:0.045903963 2:0.12344625 
1 1:0.045809468 2:0.12306679 
1 1:0.048987074 2:0.12100032 
1 1:0.050101103 2:0.1195698 
-1 1:0.049167548 2:0.12105788 
-1 1:0.038792335 2:0.099637409 
-1 1:0.037655092 2:0.094768277 
-1 1:0.037336268 2:0.08952766 
-1 1:0.037456587 2:0.089008198 
-1 1:0.036798607 2:0.083335295 
-1 1:0.036799678 2:0.079396882 
-1 1:0.038876714 2:0.075215627 
-1 1:0.036898406 2:0.070074342 
-1 1:0.034771303 2:0.068386037 
-1 1:0.034277914 2:0.065430886 
-1 1:0.038691767 2:0.060324765 
-1 1:0.028364332 2:0.060071549 
-1 1:0.030238545 2:0.057130621 
-1 1:0.03450524 2:0.057905441 
-1 1:0.038494843 2:0.061176255 
-1 1:0.037110209 2:0.059372152 
-1 1:0.026264651 2:0.058341882 
-1 1:0.027610914 2:0.055621375 
-1 1:0.035651573 2:0.050056745 
-1 1:0.034104607 2:0.059725119 4:0.00089351863 
-1 1:0.026955659 2:0.056324287 4:0.00035022453 
-1 1:0.02714356 2:0.054123283 4:0.00032584483 
-1 1:0.036623554 2:0.053204298 
-1 1:0.030427862 2:0.052263167 4:0.00023286731 
-1 1:0.032226404 2:0.059776001 4:0.001203619 
-1 1:0.030793462 2:0.046130757 
-1 1:0.033966634 2:0.046739904 
-1 1:0.030450848 2:0.059528757 
-1 1:0.040968228 2:0.051040545 
-1 1:0.027266442 2:0.056220006 4:1.6825736e-05 
-1 1:0.043382822 2:0.054006445 
-1 1:0.04120326 2:0.057445348 
-1 1:0.044243399 2:0.056087993 
-1 1:0.0274913 2:0.055766148 4:0.00033763251 
-1 1:0.042448238 2:0.041938798 
-1 1:0.039371397 2:0.056714615 
-1 1:0.047540934 2:0.05255774 
-1 1:0.04651265 2:0.045300941 
-1 1:0.043358856 2:0.065428655 
-1 1:0.030624377 2:0.051091299 
-1 1:0.042451246 2:0.052464799 
-1 1:0.052647042 2:0.055296331 
-1 1:0.050918083 2:0.051961606 
-1 1:0.021113494 2:0.056785645 4:0.00045814432 
-1 1:0.021642588 2:0.065419169 
-1 1:0.018790763 2:0.051658856 
-1 1:0.05760291 2:0.04652195 
-1 1:0.05980975 2:0.049269982 
-1 1:0.017801888 2:0.049409792 
-1 1:0.047634041 2:0.051251188 
-1 1:0.03427411 2:0.0566774 
-1 1:0.027188461 2:0.056438898 
-1 1:0.045920833 2:0.053406543 
-1 1:0.040061497 2:0.061025161 
-1 1:0.052476124 2:0.056716676 
-1 1:0.052521786 2:0.053933572 
-1 1:0.040707178 2:0.053178565 
-1 1:0.036109107 2:0.054430532 
-1 1:0.055708146 2:0.045705204 
-1 1:0.061760486 2:0.05099 
-1 1:0.066623393 2:0.054370259 
-1 1:0.055799894 2:0.047593106 
-1 1:0.040695394 2:0.053042394 
-1 1:0.084088553 2:0.05461495 
-1 1:0.079235869 2:0.046834283 
-1 1:0.086960011 2:0.056358738 
-1 1:0.018913437 2:0.056828667 
-1 1:0.086306998 2:0.044005191 
-1 1:0.050115404 2:0.052066173 
-1 1:0.07732499 2:0.042753481 
-1 4:0.01492935 5:0.010227922 
-1 4:0.015300908 5:0.010020802 
-1 4:0.014939506 5:0.01007821 
-1 4:0.014923458 5:0.010243441 
-1 4:0.015728065 5:0.0089348152 
-1 4:0.015111308 5:0.010125621 
-1 4:0.015089321 5:0.0099555275 
-1 4:0.015172337 5:0.0099431633 
1 4:0.015259856 5:0.009832535 
1 4:0.013109014 5:0.011111886 
1 4:0.011913636 5:0.011247175 
1 4:0.0094747904 5:0.012639838 
1 4:0.008780085 5:0.013085223 
1 4:0.0077384929 5:0.013683239 
1 4:0.0076616396 5:0.013748335 
1 4:0.0070639154 5:0.013979893 
1 4:0.0073634335 5:0.013780008 
1 4:0.0059710426 5:0.014272719 
1 4:0.0062593109 5:0.014267459 
1 4:0.0068647502 5:0.014105132 
1 1:0.0088863701 5:0.015227749 
1 4:0.0022504271 5:0.01592772 
1 1:0.019827361 5:0.014572101 
1 4:0.0058171184 5:0.014283218 
1 1:0.03781513 5:0.013800618 
1 5:0.014958267 
1 4:0.0041640857 5:0.014542846 
-1 1:0.046543504 2:0.10314829 3:2.7635053 4:0.007369396 
1 1:0.086338546 5:0.0061087054 
1 4:0.0024266181 5:0.015281067 
-1 1:0.093124193 2:0.10058738 3:2.6373076 4:0.0052881396 
-0.9906026778122345 2:0.051333607 3:2.7694051 4:0.012311617 
-1 2:0.077032634 4:0.014637461 
-1 2:0.060999888 3:2.9020827 4:0.012756178 
1 2:0.064125291 4:0.016694599 
1 5:0.013574851 
-1 2:0.068404754 3:2.8487808 4:0.012213595 
-1 1:0.015385419 2:0.063944188 3:2.5966183 4:0.0090063074 
1 1:0.19986126 2:0.024325173 5:0.0026331344 
1 4:0.013704646 5:0.0061512879 
-1 3:2.9522773 4:0.011526733 5:0.0099578491 
-1 3:3.1034421 4:0.01105413 5:0.010897883 
-1 1:0.087452144 5:0.012931586 
-1 3:3.0558533 4:0.010379033 5:0.011133164 
-1 4:0.0105009 5:0.012134066 
-1 3:3.1305962 4:0.010781351 5:0.011178964 
-1 4:0.010748365 5:0.011345437 
-1 1:0.1005623 5:0.011855436 
1 3:3.0179478 4:0.010106724 5:0.011219781 
-1 1:0.058780463 5:0.014983204 
-1 3:2.9792509 4:0.011620697 5:0.009946832 
-1 4:0.011066944 5:0.011074995 
-1 1:0.055531798 5:0.015252772 
-1 1:0.067200123 5:0.014451749 
-1 1:0.024213584 4:0.00079964406 5:0.015717176 
-1 4:0.0087617688 5:0.012795143 
-1 1:0.068450846 5:0.014764148 
-1 3:3.0576831 4:0.010940755 5:0.010736815 
-0.1092991528326691 3:2.7647749 4:0.012369903 5:0.008578574 
-1 1:0.076881341 5:0.013940727 
-1 1:0.05744338 5:0.015247675 
-1 1:0.10235826 5:0.012579908 
-1 3:1.1347881 4:0.01397329 5:0.0083299623 
-1 1:0.19087194 2:0.07246625 5:0.0033668085 
-0.1702138429960914 1:0.12565817 2:0.037156864 3:1.9551127 
1 1:0.060038024 2:0.097050241 
1 1:0.063667946 2:0.096680147 
1 1:0.058728284 2:0.10071568 
1 1:0.062600365 2:0.099529993 
1 1:0.057510816 2:0.10190117 
1 1:0.061356236 2:0.098900011 
-1 1:0.06459156 2:0.097367739 
-1 1:0.061233888 2:0.090407429 
-1 1:0.053449113 2:0.068975132 
-0.8053874193282454 1:0.051959822 2:0.071115711 
-1 1:0.049506517 2:0.069807838 
-1 1:0.054727099 2:0.065164348 
-1 1:0.04622551 2:0.066685176 
-1 1:0.04527878 2:0.065344954 
-1 1:0.037925847 2:0.064986906 
-1 1:0.039550797 2:0.064609624 
-1 1:0.038729623 2:0.059840985 
-1 1:0.029835701 2:0.064584924 
-1 1:0.02625637 2:0.062336888 
-1 1:0.034357547 2:0.060012491 
-1 1:0.034712512 2:0.056503218 
-1 1:0.033158926 2:0.053423278 
-1 1:0.030660821 2:0.057689945 
-1 1:0.017378476 2:0.056177083 
-1 1:0.029819329 2:0.053745425 
-1 1:0.036232059 2:0.056878114 
-1 1:0.031341712 2:0.056591318 
-1 1:0.034135045 2:0.053461506 
-1 1:0.020752544 2:0.060152818 
-1 1:0.032132256 2:0.05763873 
-1 1:0.034137065 2:0.049812631 
-1 1:0.024745984 2:0.055331027 
-1 1:0.044752962 2:0.054699703 
-1 1:0.029302186 2:0.058323926 
-1 1:0.02750149 2:0.056194361 
-1 1:0.025510084 2:0.061412497 
-1 1:0.016410409 2:0.063300779 
-1 1:0.022759523 2:0.060469664 
-1 1:0.023787962 2:0.059378559 
-1 1:0.050510191 2:0.055768986 
-1 1:0.038181855 2:0.054137787 
-1 1:0.024304364 2:0.059360856 
-1 1:0.031104377 2:0.056329046 
-1 1:0.019486268 2:0.058760854 
-1 1:0.04476887 2:0.052700276 
-1 1:0.053660039 2:0.05553261 
-1 1:0.026186271 2:0.059233007 
-1 1:0.031960217 2:0.062542509 
-1 1:0.043102985 2:0.06006984 
-1 1:0.047923271 2:0.060088165 
-1 1:0.015448774 2:0.063604477 
-1 1:0.04895776 2:0.061593436 
-1 1:0.054537933 2:0.055718459 
-1 1:0.019713979 2:0.062648391 
-1 1:0.033799268 2:0.060512504 
1 4:0.012486113 5:0.0085279373 
1 4:0.0083937429 5:0.012525395 
1 4:0.0088999195 5:0.012141216 
1 4:0.0079306228 5:0.012801571 
1 4:0.0069902851 5:0.013365747 
1 4:0.0038020465 5:0.014688364 
1 4:0.0032203659 5:0.014770908 
1 4:0.0048196553 5:0.014209724 
1 4:0.0029928368 5:0.01488108 
1 4:0.0039941083 5:0.014497679 
1 4:0.0033345547 5:0.015069383 
1 4:0.0071431547 5:0.015906652 
-1 1:0.13854035 2:0.046545551 3:1.3629113 
1 4:0.00096258544 5:0.01532034 
1 4:0.0065959897 5:0.015573915 
1 4:0.013321296 5:0.0069490648 
-1 1:0.03140513 2:0.11951357 3:2.6734615 4:0.0090849535 
1 4:0.0021017113 5:0.016851462 
-0.7951641361460671 2:0.035510659 3:1.5330333 4:0.0089252351 
1 4:0.0038165748 5:0.016375928 
1 1:0.029305321 5:0.015371939 
-0.03072322388161209 1:0.11533997 2:0.10823946 3:2.086897 
0.2833501447514728 2:0.012619126 4:0.013812969 5:0.0059672605 
1 4:0.0055761314 5:0.014909007 
-0.1832252781526709 1:0.13371627 2:0.080532365 3:1.8523365 
-1 1:0.061256052 2:0.10785592 3:2.5632261 4:0.0075989564 
-1 1:0.11942856 2:0.09866091 3:2.1492816 4:0.00045417115 
1 4:0.00095931544 5:0.015249425 
1 5:0.015015291 
1 1:0.068595598 5:0.011581775 
-0.1030691009532819 2:0.065652476 3:2.5625658 4:0.012259978 
-1 1:0.077398807 2:0.090244771 3:2.2602271 4:0.0045921544 
-1 1:0.12515208 2:0.0031288143 3:1.0443053 
-1 1:0.12778687 
-1 1:0.12093284 
-1 1:0.12145901 
1 2:0.11935748 3:0.64444397 4:0.0088310862 
1 2:0.1306234 3:0.63534305 4:0.0076502228 
1 2:0.12306731 3:0.56470142 4:0.0068117512 
1 2:0.12704045 3:0.57093129 4:0.0067683314 
1 2:0.14481142 3:0.75921283 4:0.013008907 
-1 3:2.4654076 4:0.0086880021 5:0.017185999 
-1 3:2.8999315 4:0.0027392907 5:0.017441856 
0.7432522336899797 2:0.10444697 3:0.77245758 4:0.0093674766 
1 2:0.1375951 3:0.84750137 4:0.010704777 
1 2:0.18075897 
1 1:0.11629827 2:0.013467835 
-1 3:0.007900839 4:0.019312882 
1 4:0.015176862 5:0.0028507604 
1 4:0.014046232 5:0.0059287322 
1 4:0.011921912 5:0.0091816265 
1 4:0.011689674 5:0.0095507073 
1 4:0.010659131 5:0.010684226 
1 4:0.011350057 5:0.0098099012 
1 4:0.011333458 5:0.0099082083 
1 4:0.01192443 5:0.0092608369 
1 4:0.010619715 5:0.011228186 
1 1:0.069519775 3:1.2204074 5:0.017225704 
1 4:0.00940827 5:0.011813239 
1 4:0.012180776 5:0.0096402624 
1 3:0.018125908 4:0.0088938606 5:0.012997531 
1 3:0.1182422 4:0.0051038301 5:0.014264839 
1 4:0.0066830611 5:0.013470193 
1 4:0.0097228152 5:0.012005862 
1 3:0.16935691 4:0.0063791238 5:0.014241987 
1 1:0.040931138 2:0.12617197 3:2.9701509 
1 1:0.042138292 2:0.12755297 3:2.9742455 
1 1:0.042463799 2:0.12619456 3:2.9670838 
1 1:0.040320128 2:0.12916787 3:2.9927849 
1 1:0.041503706 2:0.12671697 3:2.9788062 
1 1:0.041424344 2:0.12642881 3:2.9757676 
1 1:0.042727657 2:0.12637196 3:2.9624775 
1 1:0.044374942 2:0.12702373 3:2.9578012 
-1 1:0.041178423 2:0.12654966 3:2.974209 
-0.2699468109997994 1:0.014527516 2:0.074989516 3:1.0821733 
-1 1:0.0042514137 2:0.086305678 3:0.959153 
-0.05859371511661793 2:0.10740301 3:1.1697176 4:0.0010618226 
1 4:0.01578195 5:0.0013337669 
1 3:0.31329304 4:0.015039488 
1 1:0.096414921 2:0.055093216 
-1 2:0.10178681 3:0.027020883 
-1 2:0.055111626 3:0.44956072 4:0.003284062 
-1 2:0.064274845 3:0.20722645 
-1 1:0.019581178 5:0.014847198 
-1 1:0.043773404 2:0.062317646 3:0.066870426 
1 3:1.5405217 4:0.015196505 5:0.0013360058 
-1 2:0.12041753 4:0.0037133806 
-1 4:0.010053621 5:0.012091389 
1 1:0.017935395 2:0.085437063 
1 1:0.041718941 2:0.078850806 
1 1:0.026154244 2:0.084468726 
1 1:0.01674542 2:0.087436271 4:0.00011800092 
1 1:0.016468643 2:0.085586133 
1 1:0.036882622 2:0.08114715 
1 1:0.023815551 2:0.08356235 
1 1:0.0091100885 2:0.086741459 4:0.0014712081 
-1 1:0.012915658 2:0.086110223 4:0.00032222452 
-1 1:0.03890926 2:0.049041715 
-1 1:0.03079305 2:0.044226239 
-1 1:0.018433795 2:0.033264927 
1 3:1.5502179 4:0.003527368 5:0.014619158 
1 1:0.055356819 5:0.00012773597 
-0.8158562735244244 2:0.057025387 4:0.007921704 
-1 2:0.05773437 4:0.0060918496 
1 1:0.047485629 2:0.031588676 3:3.1408075 
1 2:0.076509942 4:0.011901988 
-1 2:0.066703687 4:0.012990396 
-1 2:0.048983884 4:0.0081519231 
1 1:0.019201891 5:0.005299643 
1 3:3.0025326 4:0.00034014948 5:0.015193891 
1 5:0.012735733 
1 3:1.7839447 4:0.01374154 5:0.0089216135 
1 4:0.014564226 5:0.0059000001 
1 4:0.014730343 5:0.0046994501 
1 4:0.014261658 5:0.0055565557 
1 4:0.014792578 5:0.0035851297 
1 4:0.014869039 5:0.00022993928 
1 4:0.012208259 5:0.0054052173 
1 4:0.010444536 5:0.00027380277 
1 4:0.010577553 5:0.003031876 
1 4:0.010297839 
1 4:0.0088809491 5:0.0050864335 
1 1:0.037149774 2:0.037040775 3:1.3295343 
1 4:0.0093843133 5:0.00090708161 
1 4:0.0085115284 5:0.0031842934 
1 2:0.083059095 4:0.0090689059 
1 2:0.083760873 4:0.009086604 
1 2:0.085326103 4:0.0087405488 
1 2:0.085089729 4:0.0087728026 
1 2:0.084727948 4:0.0085985454 
-1 3:0.67275754 5:0.016964157 
1 2:0.084824114 4:0.0087323569 
1 2:0.085480063 4:0.0085063387 
1 2:0.083744128 4:0.0082861975 
1 2:0.084627766 4:0.0089437491 
1 2:0.085523109 4:0.0085060188 
-1 2:0.082521839 4:0.0087839369 
-1 2:0.046817242 3:0.46263848 4:0.0083172275 
-0.03937906949870925 2:0.046269584 3:0.14617243 4:0.0033336202 
-1 2:0.062730233 3:0.59485744 4:0.0068708483 
1 1:0.14326782 5:0.00017378464 
1 2:0.0071963866 
1 2:0.17947696 5:0.0073026595 
1 3:1.1456062 4:0.014266586 5:0.0065983349 
1 4:0.014874167 5:0.0019395164 
1 4:0.014376079 5:0.0043028045 
1 1:0.087719643 3:1.5056208 5:0.0011588447 
-1 1:0.070199634 2:0.060820998 
-1 1:0.061314689 2:0.090531495 
1 1:0.053542824 
1 1:0.064565997 
-0.01249933607570023 3:1.7055837 4:0.014008782 5:0.011411439 
-1 1:0.084282988 3:2.9570121 5:0.015407039 
1 3:1.0357356 4:0.017353944 5:0.0012785348 
1 1:0.032218364 2:0.038102078 3:2.230782 
1 1:0.00021155191 2:0.075594574 
1 1:0.0076204414 2:0.077569573 
1 2:0.076940851 
1 1:0.0039694478 2:0.073968873 
1 1:0.015947151 2:0.077266626 
1 2:0.077868027 
1 2:0.076885426 
1 1:0.0078573466 2:0.078078464 
1 1:0.014245152 2:0.075852276 
1 1:0.0064000977 2:0.07756178 
1 1:0.0034183104 2:0.075196308 
-1 1:0.011726515 2:0.081503766 
-0.3600439978053161 2:0.06678926 3:0.20230031 4:0.0064942483 
-1 2:0.076460163 3:0.1414846 4:0.0060316128 
1 1:0.067431032 2:0.0018245836 5:0.00031660121 
1 1:0.091436192 2:0.0027534937 5:0.0008083076 
1 1:0.094653432 2:0.29322236 3:2.3413097 4:0.0074071289 5:0.0046013755 
1 2:0.30123204 5:0.010910751 
-1 1:0.1199251 3:2.2583425 5:0.011189008 
-1 1:0.14052873 2:0.0018185179 3:2.9469657 5:0.0016873231 
1 1:0.072263447 5:0.0097562942 
1 1:0.076198029 5:0.0065328183 
1 4:0.0039347156 5:0.014485793 
1 1:0.075318401 5:0.010299185 
1 1:0.052400132 2:0.0040105258 5:0.00034667917 
1 1:0.059516103 5:0.01169516 
1 1:0.058665793 5:0.0010882939 
1 1:0.056120381 5:0.0044254784 
1 1:0.061244712 5:0.00050101943 
1 1:0.065715795 5:0.0015168681 
1 1:0.062457215 5:0.0079838544 
1 1:0.066755158 5:0.0025080943 
1 1:0.063231912 5:0.011544426 
1 1:0.069513802 5:0.0025730982 
1 1:0.050349524 5:0.00043637265 
1 1:0.048384465 5:0.00038006268 
1 1:0.049015495 
1 1:0.040023286 5:0.011507918 
0.4542435991135351 1:0.044845423 
1 1:0.051926942 5:0.00078701665 
1 1:0.050717214 5:0.00072328745 
1 1:0.04778914 5:0.0094237191 
1 1:0.029890598 5:0.011845714 
1 1:0.039934492 5:0.010743007 
1 1:0.065279122 5:0.00060043097 
1 1:0.03759974 5:0.011150571 
0.3035020685338922 1:0.039089454 5:0.010309002 
1 2:0.083557942 4:0.0032492811 
1 2:0.07219131 4:0.0028724584 
1 2:0.078937061 
1 2:0.078910841 
1 2:0.050857951 4:0.0078346304 
-1 2:0.064329044 4:0.0054105207 
-1 2:0.045061464 4:0.0017749119 
-1 2:0.025526804 4:0.0072009768 
-1 4:0.010205971 
-1 4:0.014050881 
1 4:0.013966877 5:0.006026186 
1 1:0.10343116 2:0.0016126713 3:1.9428523 
1 1:0.080048656 5:0.0044801482 
1 1:0.070606548 5:0.0060669016 
1 1:0.071521194 5:0.0078587006 
1 1:0.03954031 5:0.011593939 
1 1:0.078799632 5:0.0065006325 
1 1:0.03392435 5:0.012516456 
1 1:0.058903521 5:0.008446725 
1 1:0.062860656 5:0.0033550965 
1 1:0.069458084 5:0.0001874741 
1 1:0.064773381 5:0.0096846425 
1 1:0.027357085 5:0.011830133 
-1 2:0.066467108 3:2.3212979 4:0.01072656 
-0.05411204757927401 2:0.074259375 3:2.0138151 4:0.0089588992 
-1 1:0.0027424298 3:1.8518017 5:0.014821369 
-1 1:0.03238215 2:0.057538393 4:0.0026188651 
-1 1:0.014330176 2:0.063640224 4:0.0018632519 
-1 1:0.0074179719 2:0.054310418 4:0.0053554644 
1 1:0.085039635 2:0.089618653 
1 1:0.10740643 2:0.075835546 
0.4005177732944002 1:0.12118475 2:0.053977398 
1 1:0.088627127 2:0.089614865 
1 1:0.08560687 2:0.091635923 
-1 2:0.11824956 4:0.008960905 
1 1:0.076703513 2:0.070431045 
1 1:0.06238789 2:0.074151005 
-1 1:0.016464466 2:0.077496967 4:0.0052142033 
-1 1:0.028669605 2:0.063230463 4:0.0014594699 
-1 1:0.057710735 2:0.055755035 
-1 1:0.029375982 2:0.061069124 4:0.0014103385 
-1 1:0.048895625 2:0.052532398 
-1 2:0.071359679 4:0.0078596047 
-1 1:0.048149759 2:0.051444629 
-1 2:0.070091798 4:0.0074889985 
-1 1:0.046799326 2:0.051409679 
-1 1:0.044317364 2:0.051711822 
-1 1:0.044285393 2:0.051612613 
-1 1:0.048182265 2:0.050639686 
-1 1:0.033745517 2:0.048939349 
-1 4:0.0035038964 
1 2:0.077695365 3:0.40525804 4:0.0035148826 
1 1:0.046129883 2:0.085812037 3:0.061222616 
1 2:0.077561601 3:0.43018629 4:0.0039693551 
1 2:0.078426105 3:0.41421731 4:0.0036143268 
1 2:0.077828894 3:0.41143964 4:0.0036985769 
1 2:0.079376262 3:0.33669549 4:0.0026107761 
1 2:0.081184987 3:0.52809173 4:0.005505881 
1 2:0.094472433 3:0.47188789 4:0.0042817983 
1 1:4.0657565e-05 2:0.081856725 3:0.29098725 4:0.0020884626 
1 1:0.0024985922 2:0.082484538 3:0.25392883 4:0.0015339147 
-1 1:0.0024972962 2:0.0837444 3:0.26635341 4:0.0016964589 
-1 1:0.01063634 2:0.066623789 
-1 1:0.00046655933 2:0.059196475 
-1 2:0.057161771 4:0.00038407593 
-1 1:0.063817131 4:0.0078158101 
1 
1 2:0.10061901 4:0.0062368444 
1 2:0.10078318 4:0.0063422139 
1 2:0.071057723 4:0.0084259529 
1 2:0.094380658 3:0.0096728786 4:0.0082338385 
1 2:0.092084429 3:0.052719353 4:0.0089786968 
1 2:0.097027567 4:0.007982382 
1 2:0.092368862 3:0.036655424 4:0.0087128139 
1 2:0.089036328 3:0.09850335 4:0.0099899526 
-1 2:0.089104321 3:0.092701195 4:0.009894568 
-1 2:0.065453407 4:0.00304034 
-1 1:0.0099226634 2:0.061633788 
-1 1:0.0055775511 2:0.057045357 
-1 4:0.0043031784 5:0.014526919 
-1 4:0.0024908384 5:0.015166117 
-1 4:0.0021076391 5:0.015 
-1 4:0.0020313642 5:0.015 
-1 4:0.0042642833 5:0.01454178 
-1 4:0.002641159 5:0.015128318 
-1 4:0.0020848761 5:0.015 
-1 4:0.0022538006 5:0.015 
-1 4:0.0029831758 5:0.014867451 
-1 4:0.0026527005 5:0.014932149 
-1 4:0.0024789499 5:0.01515804 
1 4:0.0022989584 5:0.015 
1 1:0.0015451876 5:0.014779562 
-1 2:0.061799114 3:1.1836149 4:0.0045468586 
-0.2393743585153724 2:0.059316027 3:1.2112747 4:0.0033586789 
-1 2:0.058854813 3:1.2969459 4:0.004034717 
-0.8358287221509997 2:0.06221942 3:1.5528504 4:0.0043029126 
1 2:0.095932124 4:0.0084899908 
1 2:0.095783468 4:0.0086372875 
1 2:0.094289853 4:0.0089607052 
1 2:0.093632409 4:0.0091091516 
1 2:0.10644804 3:0.03977328 4:0.0078519606 
1 2:0.093340307 4:0.0095324989 
-1 1:0.038632333 3:2.982863 5:0.014709068 
1 1:0.035382372 3:2.9502731 5:0.015025348 
-1 1:0.0037705156 2:0.047748777 4:0.0006442052 
-1 1:0.0020175251 2:0.04881017 4:0.00038104648 
-1 1:0.0030680732 2:0.050455402 
-1 3:0.50371068 4:0.010504544 5:0.017500567 
-1 3:0.49395699 4:0.010671242 5:0.017396588 
-1 3:0.51721704 4:0.010192945 5:0.017624375 
-1 3:0.49480654 4:0.010672555 5:0.01740884 
-1 3:0.49345725 4:0.010711963 5:0.017397561 
-1 3:0.49528058 4:0.01066442 5:0.017413921 
-1 3:0.47425226 4:0.011067861 5:0.017192851 
-1 3:0.44947048 4:0.011451988 5:0.016907482 
-1 3:0.49532292 4:0.010693496 5:0.017420301 
1 3:0.51451673 4:0.010419418 5:0.017635951 
1 1:0.0018615862 4:0.007531608 5:0.016605206 
1 2:0.11013838 4:0.013364247 
1 2:0.10902862 4:0.013598622 
1 2:0.10933114 4:0.01407239 
1 2:0.10992379 4:0.013718217 
1 2:0.11043705 4:0.013254518 
1 2:0.10941619 4:0.013483951 
-1 2:0.10986928 4:0.013695396 
-1 2:0.073991778 3:1.9779213 4:0.015275609 
-0.7423643049417306 1:0.012362533 2:0.067972387 3:1.9565215 4:0.0093853026 
-1 1:0.014703611 2:0.070502193 3:2.0426536 4:0.010037405 
-0.06966906099298642 1:0.02203103 2:0.07251856 3:2.1434188 4:0.0098480027 
-1 1:0.015680782 2:0.072018234 3:2.1651816 4:0.010202449 
-1 1:0.02469902 2:0.068489209 3:2.1675441 4:0.010056101 
1 2:0.099851583 4:0.0089354712 
1 2:0.10021178 4:0.0090300415 
1 2:0.10155494 4:0.0089271091 
1 2:0.099945491 4:0.0090298036 
1 2:0.1001868 4:0.0088944318 
1 2:0.10001963 4:0.0089856201 
1 2:0.10022874 4:0.0088937495 
-1 2:0.10040249 4:0.0088745344 
-1 2:0.06227329 3:0.84205112 4:0.0078414559 
-1 2:0.059919322 3:0.66810375 4:0.0057895954 
-1 2:0.061140608 3:0.84997037 4:0.0068398426 
-1 1:0.0074113554 2:0.067109394 3:1.1900714 4:0.0088608747 
-1 1:0.024719564 2:0.072476696 3:1.1803193 4:0.0082596314 
-1 1:0.030585883 2:0.067717692 3:1.3343387 4:0.010602646 
-1 1:0.042906881 2:0.073702395 3:1.2095017 4:0.008910512 
-1 2:0.07703508 4:0.014135843 
-1 4:0.019423662 5:0.0085276823 
-1 4:0.019212165 5:0.0089940371 
-1 4:0.019297896 5:0.0088085874 
-1 4:0.019255205 5:0.0089015211 
-1 4:0.019138909 5:0.0091488895 
-1 4:0.019008887 5:0.0094160614 
-1 4:0.019200167 5:0.0090196228 
1 4:0.019274574 5:0.0088595033 
-1 1:0.12961181 2:0.00928693 
1 1:0.23618127 3:2.6691191 
-0.8425006078365134 1:0.17996756 3:2.1358554 
1 2:0.038970928 3:0.001400833 4:0.015801487 5:0.00089226156 
-1 1:0.11380706 5:0.0030954956 
0.7423643049417306 1:0.073428008 3:2.0195276 5:0.0087534448 
1 1:0.079214141 3:1.9970539 5:0.008088451 
1 1:0.052401333 3:2.2208372 5:0.008437927 
1 2:0.081931542 4:0.0090544799 
1 2:0.078632043 4:0.0093855195 
1 2:0.087022677 4:0.0084558472 
1 2:0.083380851 4:0.0088387126 
1 2:0.091199547 4:0.0082391866 
1 2:0.089932968 4:0.0084238248 
1 2:0.096779624 4:0.0076253313 
-1 2:0.090744969 4:0.0083843282 
-1 2:0.071262776 3:0.41371113 4:0.0082716977 
-1 2:0.072839806 3:0.37430539 4:0.0078573388 
-1 2:0.071641004 3:0.36683704 4:0.0076970778 
-1 2:0.068599603 3:0.3367629 4:0.007877617 
-1 2:0.070258568 3:0.34066075 4:0.0069955508 
-0.01010936535573689 2:0.066236806 3:0.32770588 4:0.0078748551 
-1 2:0.07103305 3:0.30498807 4:0.0070462955 
-1 2:0.069283904 3:0.23999058 4:0.0070969926 
-1 2:0.064408457 3:0.25969188 4:0.0066517766 
-1 2:0.065826241 3:0.24784362 4:0.0060327333 
-1 2:0.064815329 3:0.22586598 4:0.0055230884 
-1 2:0.062172106 3:0.23083202 4:0.0060784301 
-1 2:0.063712994 3:0.22200193 4:0.0057379491 
-1 2:0.063305541 3:0.17725636 4:0.0055371421 
-1 2:0.064736412 3:0.15529252 4:0.0053563508 
-1 2:0.060044865 3:0.1424435 4:0.0062933032 
-1 2:0.062174505 3:0.11684048 4:0.0062787538 
-1 2:0.057034306 3:0.074623994 4:0.0050366296 
-1 2:0.05848398 3:0.086885344 4:0.0057807573 
-1 2:0.055649243 3:0.047244561 4:0.0052534457 
-1 1:0.0083386557 2:0.058280657 4:0.0030384513 
-1 2:0.052294715 4:0.0051037211 
-1 2:0.05642836 4:0.0047392635 
-1 2:0.055623674 4:0.0042819315 
-1 2:0.055928793 4:0.0062397772 
-1 2:0.055247905 4:0.003371658 
-1 1:0.0057453999 2:0.053004986 4:0.0025189783 
-1 2:0.045851714 4:0.0048194826 
-1 2:0.044320872 4:0.004791935 
-1 1:0.027513721 2:0.045925581 4:0.0005998595 
-1 2:0.04513835 4:0.0045555777 
-1 3:0.10198254 4:0.010386851 
-1 2:0.02113786 4:0.0080598046 
-1 1:0.010875783 2:0.045913882 4:0.0024617772 
-1 1:0.21166528 
-1 1:0.097693817 2:0.046491036 
-1 1:0.021374627 2:0.042361853 4:0.0027008386 
-1 1:0.070599571 2:0.070353992 3:0.086085632 4:0.0033114454 
-1 1:0.025539785 2:0.044877736 4:0.004401363 
-1 1:0.023165769 2:0.036893856 4:0.0032638151 
-1 1:0.019444864 2:0.05004391 4:0.0031309383 
-1 1:0.040904993 2:0.042910337 4:0.0019559155 
-1 1:0.1207925 2:0.054820876 4:4.1050704e-05 
1 1:0.011488297 2:0.075764466 3:3.069264 
1 1:0.012319154 2:0.076074044 3:3.0680213 
1 1:0.01074072 2:0.075889987 3:3.0706899 
1 1:0.011623245 2:0.076275942 3:3.0704175 
1 1:0.011387956 2:0.075712313 3:3.0758945 
1 1:0.01032522 2:0.07598848 3:3.077064 
1 1:0.0079705234 2:0.07532836 3:3.0747597 
1 1:0.016636973 2:0.076103783 3:3.0679943 
-1 1:0.019078625 2:0.076121615 3:3.0529242 
-1 2:0.053537799 3:0.7013293 4:0.0021039917 
-1 2:0.050601681 3:0.71849241 4:0.0020204271 
-0.2592320516124087 2:0.049248354 3:0.67198749 4:0.0020008519 
-1 1:0.012423822 2:0.046196967 3:0.72008909 4:0.00017413538 
-1 1:0.0090544329 2:0.045712012 3:0.45736592 4:8.5022818e-05 
-0.8510674275532227 1:0.01065369 2:0.054044895 3:0.53138611 4:0.0003158029 
-1 1:0.0099060977 2:0.049109815 3:0.69796362 4:0.00052239809 
-0.9273745535466397 1:0.01799498 2:0.041297151 3:0.43834822 
-1 1:0.0036864305 2:0.059755408 3:0.61756045 4:0.001925275 
-1 4:0.0059306257 5:0.019265831 
-1 1:0.094614496 2:0.068325726 3:0.77203364 
1 5:0.00071190595 
-1 1:0.025712145 2:0.068043044 3:0.69485543 4:0.0037913824 
-1 2:0.070157772 3:0.77406995 4:0.0060731437 
-1 1:0.0068239336 3:1.7930684 4:0.0098442557 5:0.017984825 
-1 3:1.7499474 4:0.011264163 5:0.017680481 
-1 1:0.0035958486 3:1.7771307 4:0.010264973 5:0.017857822 
-1 1:0.0063315035 3:1.78832 4:0.009911386 5:0.017933347 
-1 1:0.0038528554 3:1.782626 4:0.010217053 5:0.017926226 
-1 1:0.0039259174 3:1.7834661 4:0.010207082 5:0.017936048 
1 1:0.0054085583 3:1.786313 4:0.010024137 5:0.017932414 
0.193225278944473 1:0.017354196 3:0.46513754 4:0.0058248489 5:0.016935667 
1 1:0.016734094 3:0.50089518 4:0.0032866816 5:0.016435087 
1 1:0.034977791 3:0.56733038 4:0.00019219405 5:0.01590769 
1 1:0.033805491 3:0.57493482 4:3.3135337e-06 5:0.015917764 
1 1:0.04153737 3:0.58129609 5:0.015545544 
1 1:0.018681279 3:0.44261567 4:0.0012787077 5:0.015707101 
1 1:0.019505905 3:0.44545923 4:0.00089618285 5:0.01567725 
0.1072133534884548 1:0.032271413 3:0.45774665 5:0.015252356 
1 2:0.11424257 4:0.0096559688 
1 2:0.11479681 4:0.0094182517 
1 2:0.11507564 4:0.0092120205 
1 2:0.11608138 4:0.0093578171 
1 2:0.11537832 4:0.0093955239 
1 2:0.11573344 4:0.0093642951 
1 2:0.11473681 4:0.0095177348 
1 2:0.11516147 4:0.0094513511 
1 2:0.11696793 4:0.0091729218 
-1 2:0.1154877 4:0.0094608104 
-0.5210800830206398 2:0.076671635 3:1.8960855 4:0.0057777821 
-1 2:0.074097709 3:1.9326682 4:0.0066023862 
-1 2:0.078155835 3:1.9330017 4:0.006112027 
-1 2:0.074762863 3:2.0492245 4:0.0067322763 
-1 2:0.071894957 3:2.1373803 4:0.0083657195 
-0.2276867302944389 2:0.068334598 3:2.3564541 4:0.010210351 
-1 1:0.002199724 2:0.078526138 3:1.6016091 4:0.00069664065 
-1 2:0.04857635 3:2.4589753 4:0.01117848 
-1 2:0.055332816 3:2.2953698 4:0.0098595417 
1 2:0.074847549 4:0.010846132 
1 2:0.074533521 4:0.010796836 
1 2:0.074954498 4:0.011007617 
1 2:0.074391875 4:0.011147109 
1 2:0.072967683 4:0.011078778 
1 2:0.073825933 4:0.010529375 
1 2:0.078932863 4:0.010668115 
1 2:0.081221818 4:0.010255745 
-1 2:0.077532882 4:0.011238187 
-1 1:0.14531178 2:0.052532796 
1 1:0.06532425 2:0.024314879 
1 1:0.05450618 2:0.019021924 
1 1:0.064071346 2:0.027348447 3:3.1314135 
-1 1:0.010160492 2:0.085933697 
1 1:0.068615385 2:0.019019336 3:3.1205498 
0.9296351993549647 1:0.057181312 2:0.015974085 3:3.0826273 
1 1:0.0685795 2:0.012818473 
1 1:0.062942921 2:0.0096410846 3:3.0866293 
1 1:0.055348897 2:0.0057291519 3:2.940018 
1 1:0.054132319 2:0.0068013968 3:2.9772913 
1 1:0.052504787 2:0.015173827 3:3.1123195 
1 1:0.068883356 2:0.033692792 3:2.7041391 
0.3975147875456543 1:0.065464272 2:0.033416933 3:3.1172187 
1 1:0.068262475 2:0.011335376 
-1 1:0.049313038 5:0.013290682 
-1 1:0.045613509 5:0.013577077 
-1 1:0.042479788 3:3.113684 5:0.013833118 
-1 1:0.052733332 5:0.013008559 
-1 1:0.053630089 5:0.012897664 
-1 1:0.043329279 3:3.131115 5:0.013722211 
-1 1:0.04631635 5:0.013415797 
-1 1:0.02679139 3:2.9774547 5:0.014801692 
-1 1:0.027124741 3:2.9720694 5:0.014829513 
1 1:0.039558998 3:3.1119647 5:0.013911114 
-1 2:0.052499565 4:0.009400014 
-1 3:1.0513774 4:0.011283542 5:0.010604881 
1 1:0.057894026 2:0.076270649 3:2.6898774 
-1 1:0.075537102 2:0.071346182 3:2.5481017 
-0.3859521726888421 1:0.018816589 2:0.080090345 3:0.65129402 
-1 1:0.12861274 3:2.9773245 5:0.014654658 
-1 1:0.13358853 3:3.0385641 5:0.013981503 
-1 1:0.12982648 3:2.9987181 5:0.014608089 
-1 1:0.13046849 3:2.977517 5:0.01461194 
-1 1:0.13509866 3:3.0375585 5:0.013879669 
-1 1:0.13708539 3:3.0649972 5:0.013610853 
-1 1:0.13024314 3:2.9801482 5:0.014641116 
1 1:0.088581046 3:2.6133307 5:0.01738463 
1 1:0.043296308 3:0.85975488 5:0.014261166 
-1 2:0.044063782 4:0.0078153661 
-1 1:0.01338031 2:0.066832876 
-1 4:0.0059827736 5:0.013774044 
-1 3:0.013778983 4:0.0053966298 5:0.014040994 
1 1:0.081524864 2:0.11893092 4:0.0024016593 5:0.00021958819 
1 1:0.11291346 2:0.060141543 4:0.0017735376 5:0.0011298406 
-1 4:0.0096144023 5:0.011569984 
-0.9248633331740549 4:0.011379576 5:0.0097774173 
-1 4:0.011286293 5:0.0098819636 
1 4:0.011293087 5:0.0098784362 
1 3:2.9787309 4:0.012013574 5:0.0090738637 
1 4:0.010974049 5:0.010256196 
1 4:0.011277209 5:0.0098989679 
1 3:3.0507762 4:0.0122679 5:0.0086429923 
1 4:0.0091465305 5:0.011889021 
1 4:0.0084725382 5:0.012403361 
1 4:0.00691044 5:0.01335787 
1 3:2.9285238 4:0.0078929727 5:0.012764285 
1 5:0.014906625 
1 1:0.14702511 5:0.0093643871 
1 1:0.043880041 3:1.5481818 5:0.013839701 
0.01178364638476545 1:0.055188473 2:0.010769831 3:2.8620527 
1 1:0.060915809 2:0.0059931799 3:2.9123853 
1 1:0.05876931 2:0.0061146192 3:2.9043929 
1 1:0.066172836 2:0.0033090825 3:2.9310385 
1 1:0.064351024 3:2.792805 5:0.00041726532 
-1 1:0.033178046 2:0.046057223 
1 1:0.066457404 3:2.9182728 
1 1:0.053871993 3:2.6295 5:0.0017130799 
1 1:0.05468179 2:0.01305888 3:2.8544468 
1 2:0.00028498725 4:0.015127391 5:0.0010004575 
-1 1:0.01676163 2:0.065568848 
1 1:0.056973976 2:0.015532047 3:2.7910053 
1 1:0.05680175 3:2.9897114 
1 2:0.0911171 
1 2:0.089403072 
1 2:0.090603287 
1 2:0.092005441 
1 2:0.08993651 
1 2:0.092425272 
1 2:0.092807428 
1 2:0.096723509 
1 2:0.099675971 
-1 1:0.010894028 2:0.10192146 
-1 1:0.0080216712 2:0.09573648 
-1 1:0.01953867 2:0.083664138 
-1 1:0.016285507 2:0.085163652 
-1 1:0.0087892513 2:0.087483685 
-1 1:0.0091384466 2:0.084492115 
-1 1:0.015339132 2:0.084268078 
-1 1:0.013489421 2:0.086243645 
-1 1:0.015441972 2:0.086363394 
-1 1:0.009806692 2:0.086336602 
-1 2:0.08969086 
-1 2:0.086465818 
-1 1:0.018471168 2:0.088347084 
-1 1:0.00016879531 2:0.087849338 
-1 1:0.0043349833 2:0.08692549 
-1 2:0.077178279 
-1 2:0.0839236 
-1 1:0.011914544 2:0.084002969 
-1 2:0.10027176 
-1 2:0.091067502 3:0.045193321 4:0.004239396 
1 1:0.13544827 5:0.0059921875 
-1 2:0.099369338 
-1 1:0.006847967 2:0.077928151 
-1 2:0.0696507 4:0.0022582907 
-1 1:0.0095996024 2:0.080365156 4:0.00028536551 
-1 1:0.0060485203 2:0.11748135 4:0.001766084 
-1 1:0.029189489 2:0.069345672 
-1 1:0.11982185 3:2.7194302 5:0.0092955203 
-1 1:0.11699219 3:2.6793142 5:0.0099329475 
-1 1:0.11954516 3:2.6859055 5:0.0095466229 
-1 1:0.119611 3:2.694023 5:0.0097731312 
-1 1:0.11415611 3:2.6255988 5:0.010378342 
-1 1:0.10943854 3:2.6009754 5:0.010805269 
1 1:0.10394802 3:2.5431364 5:0.011455248 
0.07260761881711954 1:0.049854841 3:0.51638981 5:0.012802448 
1 1:0.0070108353 3:0.17154602 5:0.015042914 
1 1:0.012669994 3:0.11678436 5:0.014927763 
1 1:0.030163593 3:0.64267818 5:0.012708264 
1 1:0.012036201 3:0.079551081 5:0.014918125 
1 1:0.0013950808 3:0.081960553 5:0.015029186 
1 1:0.0087014075 3:0.14459288 5:0.014919827 
1 1:0.0010377627 3:0.072680029 5:0.015003637 
1 1:0.0031220913 3:0.12223552 5:0.014978985 
1 3:0.077149286 5:0.015014511 
1 1:0.0051154841 3:0.16604899 5:0.014907008 
1 1:0.00073543675 3:0.13597191 5:0.014954716 
0.7629383419073478 3:0.16171456 5:0.01495147 
1 3:0.12425721 5:0.014997438 
1 2:0.079703512 3:0.20177374 4:0.0027207919 5:0.00087292448 
1 2:0.058108369 3:0.78890297 
1 2:0.069406504 3:0.38265725 5:7.0848472e-05 
-1 4:0.01492661 5:0.0015365057 
-1 1:0.16182098 5:0.010026317 
-0.1276718701045694 1:0.16295909 5:0.0095857679 
-1 1:0.16249243 5:0.0099669038 
-1 1:0.16186818 5:0.009952006 
-1 1:0.16258046 5:0.0098266503 
-1 1:0.16204466 5:0.0097811708 
-1 1:0.1622932 5:0.0098370701 
1 1:0.16128225 5:0.0092873733 
1 1:0.11063308 2:0.077627486 
1 1:0.11295513 2:0.056344497 
1 1:0.1126043 2:0.04826465 
-1 1:0.10671931 2:0.069459238 
-1 1:0.02928733 2:0.075190464 
-1 2:0.047522636 4:0.015138737 
1 4:0.011645072 5:0.010503553 
-0.7850803872057934 1:0.024113113 2:0.029864437 3:2.5407499 4:0.0080997765 
-1 2:0.068923741 3:2.7859462 4:0.010722167 
1 2:0.066085513 4:0.015482894 
-1 4:0.0055875723 5:0.017961823 
-1 4:0.0049002831 5:0.017989586 
-1 4:0.0052572262 5:0.017917882 
-1 4:0.0056128445 5:0.017593503 
-1 4:0.0033684644 5:0.018371591 
-1 4:0.0079369043 5:0.016475456 
-1 4:0.0015262874 5:0.018507316 
-1 4:0.0056439572 5:0.017217048 
-1 4:0.0046843681 5:0.017771041 
-1 4:0.0050075762 5:0.017408899 
1 5:0.0087236961 
1 1:0.073287354 3:1.065494 5:0.0035322091 
1 1:0.042166721 5:0.0056591867 
1 1:0.025233182 5:0.0066361743 
1 1:0.024934549 5:0.0087684968 
1 1:0.0080945065 5:0.008610278 
1 1:0.054504338 5:0.00013630715 
-1 1:0.069392664 2:0.019379638 
1 1:0.070743392 
1 1:0.063226756 
1 1:0.064291861 
1 1:0.062976547 
1 1:0.059858259 5:0.00013609018 
1 1:0.061075449 5:0.0016003781 
1 1:0.072385357 5:0.00014923846 
-1 3:2.8405228 5:0.017882215 
0.4035503361047611 1:0.082207412 
1 1:0.070404283 
0.03589368591586464 1:0.07369399 
1 1:0.054845178 5:0.00024740074 
1 1:0.057129499 5:0.00086936055 
1 1:0.048304548 5:0.0036044186 
1 1:0.054615993 5:0.0013051334 
1 1:0.056672902 5:0.0033194224 
1 1:0.052893107 5:0.0026826677 
1 2:0.07646048 4:0.0094868609 
-1 2:0.040604523 4:0.010812438 
-1 2:0.073105094 4:0.0067857995 
1 4:0.0097209819 5:0.011585239 
1 1:0.11015594 2:0.026613149 3:2.0941451 
-1 1:0.073630241 2:0.027084064 
-1 1:0.068121252 2:0.025829152 
-1 1:0.067651731 2:0.027386424 
-1 1:0.067785142 2:0.01165561 
-1 1:0.063246653 2:0.013707292 
-1 1:0.066244164 2:0.027496687 
-1 1:0.067805624 2:0.023972707 
-1 1:0.076862625 2:0.014828699 
-1 2:0.082640696 3:0.53960991 4:0.011784236 
-1 1:0.0462778 2:0.052391147 3:0.031791906 4:0.007056478 
1 1:0.017985717 2:0.090354797 3:2.9717937 4:0.00037393157 
1 2:0.086530013 4:0.011123592 
1 2:0.084944544 4:0.011432898 
0.4055346219397759 2:0.079033876 4:0.012233367 
1 2:0.095711139 4:0.0091568655 
1 2:0.084427109 4:0.011739293 
1 2:0.087423096 4:0.01116072 
1 2:0.090269494 4:0.010625156 
-1 1:0.023226115 2:0.10208551 3:2.9312487 
1 1:0.058829942 
1 1:0.056148312 
-1 1:0.008610498 2:0.060639265 4:0.0077236954 
1 1:0.026310517 5:0.0033635198 
1 1:0.083559462 2:0.051054164 
-1 1:0.1057503 5:0.0023006935 
-1 2:0.052626021 
1 2:0.077903543 4:0.00602991 
1 2:0.08085422 4:0.0057311392 
1 2:0.072805175 4:0.0077017827 
1 2:0.062820889 4:0.010012528 
1 2:0.068587076 4:0.0093759067 
1 2:0.066000719 4:0.0096735024 
1 2:0.08601621 4:0.0081119794 
-1 2:0.072713016 4:0.0076769151 
-1 2:0.043889157 3:2.0081842 4:0.0093821889 
-1 2:0.02873109 3:2.347935 4:0.012881444 
1 1:0.040305179 5:0.010243549 
-1 1:0.0540741 2:0.030594193 3:0.5759012 
1 1:0.054087692 
1 1:0.058634136 5:0.00017141295 
-1 1:0.11547966 2:0.010510897 5:0.0071038909 
1 1:0.04775933 2:0.025121459 3:2.057893 5:0.002684868 
1 1:0.047263206 2:0.031915881 3:2.1892166 
-1 2:0.054069568 
1 2:0.082835541 4:0.0082460077 
1 2:0.088035983 4:0.0058318449 
1 2:0.089089762 4:0.0051404933 
1 2:0.088919321 4:0.0052017771 
1 2:0.086405507 4:0.0063911113 
1 2:0.089148956 4:0.0054457676 
1 2:0.083191765 4:0.0084793019 
1 2:0.085647403 4:0.0089290354 
1 2:0.084580219 4:0.0066684088 
1 2:0.084362167 4:0.0074742239 
1 2:0.082137058 4:0.0091406103 
-1 2:0.084968708 4:0.0089092955 
1 1:0.051214851 5:0.00046903858 
1 5:0.001571367 
1 2:0.30027109 5:0.015 
1 1:0.091764014 2:0.050526694 
1 1:0.014696743 2:0.088490171 
1 1:0.040699948 2:0.083098564 
1 1:0.086348945 2:0.096732602 
-1 1:0.11897296 5:0.001713633 
1 1:0.046564233 2:0.016577745 
1 1:0.043440995 2:0.009320332 5:0.0010730177 
1 1:0.047293569 2:0.013902744 
1 1:0.040833951 2:0.020088236 
1 1:0.052911469 2:0.019709857 5:0.00032482293 
1 1:0.046623202 2:0.01674217 
1 1:0.040478492 2:0.021491343 
1 1:0.044637692 2:0.020105469 
1 1:0.045048179 2:0.018045779 
1 1:0.044002021 2:0.017706502 
1 1:0.062166918 2:0.023660405 3:3.0476939 5:0.0024044971 
1 1:0.04778425 2:0.0209747 
1 1:0.047838193 2:0.034452385 
1 1:0.050952279 2:0.044497139 
1 1:0.060769523 2:0.030327788 5:0.00057284782 
-1 
-1 1:0.0293075 5:0.012613338 
-1 5:0.015056429 
-1 1:0.063007268 2:0.038863598 
1 1:0.047757172 3:2.8968688 
1 2:0.083354383 4:0.001949733 
1 2:0.078343688 4:0.003459532 
1 2:0.07600581 4:0.0035973963 
1 2:0.088810782 
1 2:0.074975915 4:0.0045123455 
1 2:0.085356226 4:0.0015500113 
1 2:0.073922866 4:0.0049648024 
1 2:0.071415592 4:0.0055007677 
1 2:0.085913168 4:0.00090664873 
1 2:0.094209415 
1 2:0.085770805 4:0.00071758166 
1 2:0.087565419 4:0.0011147804 
1 2:0.086716275 4:6.4677365e-05 
1 2:0.083481977 4:0.0021835049 
-1 2:0.082726202 4:0.00248145 
-0.1897340790841871 2:0.034519359 3:2.28692 4:0.010257547 
-1 2:0.050737074 3:1.9677151 4:0.0070194048 
-1 2:0.048734592 3:2.2278009 4:0.011041554 
-0.3463834792475295 2:0.043106244 3:2.4977019 4:0.013060438 
-1 1:0.088607461 2:0.026515644 5:0.0050372719 
-1 2:0.033699069 4:0.0042739541 
-1 2:0.052022633 
1 2:0.083198557 4:0.0042106926 
-1 2:0.057327653 4:0.011898823 
-1 2:0.046942679 3:2.3492002 4:0.011870401 
-0.2061534805823517 2:0.050296817 3:2.233558 4:0.010066116 
1 1:0.051940854 3:0.004882835 5:1.244732e-05 
1 3:1.2265135 4:0.00016755409 
0.2393743585153724 3:1.2402596 4:0.00011706405 
1 1:0.20070771 3:2.1617917 4:0.00036779741 
0.02862279173353771 1:0.23731886 2:0.14000861 4:0.00047341879 
1 1:0.23744821 2:0.13998851 4:0.00045391727 
1 1:0.10994725 2:0.055052644 
1 1:0.10606851 2:0.065419355 
1 1:0.11328599 2:0.050249874 
1 1:0.1101417 2:0.052849448 
1 1:0.11022398 2:0.05486416 
-1 1:0.11466241 2:0.045915404 
1 1:0.045908622 2:0.015332931 3:2.4339719 5:2.2595324e-05 
1 1:0.03954222 2:0.018455523 3:2.4609587 
-1 1:0.016053524 2:0.031553261 
-1 2:0.065199211 
1 1:0.046264865 2:0.041136482 3:2.281648 
-1 2:0.052381956 
1 1:0.029941908 2:0.028221771 3:2.9710469 
0.1905594559348006 1:0.057416723 2:0.0099748315 3:2.1928093 5:0.0023043276 
0.1897340790841871 1:0.030487673 2:0.011618645 3:2.2713987 
0.1086239110691 1:0.048269748 2:0.0072781192 3:2.313471 
1 2:0.10404568 4:0.0050792405 
1 2:0.07944943 4:0.0093984235 
1 2:0.11199172 4:8.8724408e-05 
1 2:0.078502728 4:0.0097394655 
1 2:0.084121438 4:0.0085143576 
1 2:0.070500071 4:0.010477674 
1 2:0.093204064 4:0.0069175367 
1 2:0.10280303 4:0.0056252367 
-1 2:0.087470865 4:0.0082168083 
-0.0116741939695052 2:0.059523887 3:0.86425367 4:0.0097486868 
-1 2:0.050987747 3:0.91275873 4:0.010838839 
1 1:0.099226799 5:0.0044653432 
-1 2:0.057497462 3:0.83214919 4:0.0097718875 
-0.8879851539891139 2:0.044654035 3:0.99138462 4:0.011435376 
-1 2:0.057408683 3:0.7617624 4:0.0087881722 
-1 2:0.079352904 3:0.26069927 4:0.0024993 
-0.2091582857107357 2:0.065738005 3:0.64590445 4:0.0075365635 
-1 2:0.063964385 3:0.39076339 4:0.0048068526 
1 1:0.044692574 2:0.049140667 
0.8887137771589504 1:0.050140088 2:0.033157074 
1 1:0.05787282 2:0.017891723 
-0.6041989193543391 2:0.036400465 3:0.58685786 4:0.0092666493 
1 1:0.05701541 2:0.0099193602 
1 1:0.052876039 2:0.020408175 
1 1:0.0040162723 2:0.31332307 3:3.1183362 4:0.00071929292 5:0.010741561 
1 1:0.13327653 2:0.065553044 
1 1:0.13046961 2:0.071599962 
1 1:0.10017438 2:0.11149252 
1 1:0.11957802 2:0.092307879 
1 1:0.12893387 2:0.084516102 
1 1:0.12843412 2:0.076356213 
1 1:0.11973401 2:0.085296184 
-1 3:1.209777 4:0.012368434 5:0.011129378 
-1 1:0.11466312 2:0.08557486 
1 4:0.0063732141 5:0.013584528 
1 1:0.0060284342 3:0.57849758 5:0.014563676 
-1 2:0.09148338 4:0.0052029976 
1 1:0.041824927 3:0.93683696 5:0.014274697 
-1 4:0.0042051493 5:0.014401079 
-1 3:0.42720636 5:0.015146778 
-1 3:0.136976 4:0.005746803 5:0.014743898 
1 1:0.057358198 3:1.8314826 5:0.00032149786 
-1 1:0.0073670268 2:0.059378443 
1 2:0.099131294 4:0.0050104504 
-1 2:0.10233445 4:0.005236516 
-1 2:0.069488112 3:1.6516485 4:0.0090097813 
-1 2:0.068269187 3:1.8326147 4:0.0093960655 
-1 1:0.016330358 2:0.068462897 3:1.1456656 4:0.0011496004 
1 1:0.047409067 5:0.0085761111 
-1 1:0.050013067 2:0.057133964 3:0.60363718 
1 1:0.12713808 2:0.080345771 
1 1:0.11636033 2:0.088208089 
1 1:0.10987816 2:0.10562846 
-1 1:0.14504023 5:0.013836835 
1 1:0.15631508 5:0.011102684 
-1 1:0.057006992 3:1.5716034 5:0.01697221 
0.05190152862067763 1:0.053550118 2:0.044555608 3:2.8812931 
1 1:0.035308345 2:0.041702102 3:2.8381534 
0.2276867302944389 1:0.055711234 2:0.038577901 3:2.4521445 5:0.00034088872 
1 1:0.081288464 2:0.062819127 
0.1128151225082242 1:0.1056311 2:0.011712808 3:3.1032351 
1 1:0.087203421 2:0.059379355 
-1 3:0.9739889 5:0.021192418 
1 1:0.11290521 2:0.0033126348 3:3.0251232 
-1 1:0.039459485 2:0.043907756 
-1 1:0.035459586 2:0.037133696 
-1 1:0.043241592 2:0.047237243 
-1 1:0.006323589 2:0.052722122 4:0.00062577991 
-1 1:0.052331254 2:0.012400266 3:3.0878162 
1 1:0.040962238 2:0.0013486215 3:2.647439 
0.7326640194036274 1:0.056259447 3:3.0957361 
1 2:0.074894307 4:0.011033256 
1 2:0.078974638 4:0.010792578 
1 2:0.080067301 4:0.010690283 
-1 2:0.070741455 4:0.011924781 
-1 2:0.06468631 3:0.41071547 4:0.0095539506 
-1 2:0.067048492 3:0.28978359 4:0.0083346624 
-1 2:0.079500251 4:0.0022294626 
-1 2:0.074553537 3:0.14910359 4:0.0060537919 
-1 2:0.070049337 3:0.38816373 4:0.0082960976 
-1 2:0.078253843 3:0.15234944 4:0.0058167237 
-1 2:0.063730022 3:0.55903369 4:0.010140102 
1 1:0.022693524 2:0.0081309934 5:0.0044899963 
-1 2:0.072121455 3:0.20096542 4:0.0057187424 
1 2:0.10548871 5:0.0029275982 
1 1:0.019349782 2:0.10619015 3:2.8490535 5:0.010519442 
1 1:0.067669342 2:0.044028734 
1 1:0.069246002 2:0.044375345 
1 1:0.066565648 2:0.044815978 
1 1:0.05924788 2:0.052791693 
1 1:0.078720465 2:0.018441148 
-1 1:0.081166338 5:0.0035123535 
-1 3:0.21311436 4:0.009686587 5:0.01190869 
-1 1:0.0084170308 2:0.065380246 
