svm_type epsilon_svr
kernel_type linear
nr_class 2
total_sv 3699
rho 0.00126987
SV
-1 3:0.54754595 4:0.013893082 5:0.0088783519 
-1 3:0.54653995 4:0.013908972 5:0.0088147862 
1 3:0.55715446 4:0.013839224 5:0.0087993662 
-1 3:0.57370596 4:0.013682694 5:0.0090806772 
-1 3:0.55049769 4:0.013875986 5:0.0088558628 
0.5455354830786296 3:0.5411164 4:0.013937062 5:0.0088838056 
-1 3:0.53306775 4:0.014022409 5:0.0086585702 
-1 3:0.55815987 4:0.013811325 5:0.0089382852 
1 3:2.0926791 4:0.014519631 5:0.0043082357 
-1 3:2.1230893 4:0.014632603 5:0.0036283898 
-1 3:2.1224245 4:0.014644801 5:0.0036125727 
-1 3:2.1356079 4:0.014569207 5:0.0039285935 
1 3:2.1471212 4:0.014541711 5:0.0040480701 
-1 3:2.122275 4:0.014641417 5:0.0035684464 
-1 3:2.1090403 4:0.014635087 5:0.0035773076 
1 3:2.1481849 4:0.014535471 5:0.0041010262 
1 3:2.1255209 4:0.014633441 5:0.0036454994 
-1 3:2.146742 4:0.01461366 5:0.0036519995 
1 3:2.0968008 4:0.014653166 5:0.003523091 
1 3:2.2326626 4:0.014128192 5:0.0051099355 
-1 3:2.1484219 4:0.014459608 5:0.0041790399 
1 3:2.1518995 4:0.014404554 5:0.0044113058 
1 3:2.1680533 4:0.014507701 5:0.0039473072 
-1 3:2.1268431 4:0.014583755 5:0.0036859087 
1 3:2.1747028 4:0.014369677 5:0.004477798 
-1 3:2.1182727 4:0.014548405 5:0.0037796161 
1 3:2.1292067 4:0.014569254 5:0.00368879 
1 3:2.1527931 4:0.014504095 5:0.003935869 
1 3:2.1789658 4:0.014394857 5:0.0043062319 
-1 3:2.2341628 4:0.014368966 5:0.0043122803 
1 3:2.1753116 4:0.014601742 5:0.0034994337 
-1 3:2.2425504 4:0.014416813 5:0.0041419201 
1 3:2.138662 4:0.014600126 5:0.0035327166 
1 3:2.177926 4:0.014556003 5:0.0036730061 
1 3:2.1851388 4:0.014494839 5:0.0038962238 
-1 3:2.2217432 4:0.014439289 5:0.0040954803 
1 3:2.1690332 4:0.014646164 5:0.0032745614 
-1 3:2.2427144 4:0.014405583 5:0.0042026133 
1 3:2.1689817 4:0.014617567 5:0.003420702 
1 3:2.1744458 4:0.01453266 5:0.0037282369 
-1 3:2.1796548 4:0.014742611 5:0.0027993983 
-0.6112057727023266 3:2.2333946 4:0.014437148 5:0.0040710995 
1 3:2.2169481 4:0.014468463 5:0.0039631585 
1 3:2.2246935 4:0.014466836 5:0.003965421 
-1 3:2.2759019 4:0.014328807 5:0.0044371912 
1 3:2.2589378 4:0.014391096 5:0.0042307234 
1 3:2.2451671 4:0.014431278 5:0.0040914841 
1 3:2.2446916 4:0.014527636 5:0.0037416816 
-1 3:2.2568151 4:0.014463526 5:0.0039775912 
1 3:2.1981166 4:0.014615052 5:0.0033773466 
1 2:0.0011256108 3:2.1756029 4:0.014771362 5:0.0026407063 
-1 3:2.2321524 4:0.014485747 5:0.0038973922 
1 2:0.0076341667 3:2.1468782 4:0.014915257 5:0.0017141038 
1 3:2.2167727 4:0.014508885 5:0.0038109036 
1 3:2.2475526 4:0.014578244 5:0.0035571264 
1 3:2.2680374 4:0.01455411 5:0.0036677886 
1 3:2.2694082 4:0.014496134 5:0.0038736206 
-1 3:2.2383722 4:0.014714047 5:0.0029684974 
1 3:2.2487163 4:0.014443934 5:0.0040697664 
1 2:0.001100552 3:2.1983136 4:0.0147499 5:0.0028285672 
-1 3:2.2747381 4:0.014463689 5:0.0040453994 
1 2:0.002299095 3:2.2181167 4:0.014749431 5:0.0028261911 
1 3:2.2744421 4:0.014465494 5:0.004015344 
1 3:2.2732094 4:0.014555685 5:0.0037109878 
1 3:2.270866 4:0.014471087 5:0.0039966759 
-1 3:2.279917 4:0.014519738 5:0.0038633788 
1 2:0.0032364422 3:2.2034665 4:0.014748937 5:0.002850269 
1 2:0.0027002622 3:2.2019238 4:0.014742607 5:0.0029025615 
-1 2:0.0033427197 3:2.1884224 4:0.014760595 5:0.0028099493 
-1 3:2.2578137 4:0.014463751 5:0.0040263011 
1 3:2.2629675 4:0.014450935 5:0.004079308 
1 3:2.2450558 4:0.014569901 5:0.0036521228 
1 2:0.0014026262 3:2.2179587 4:0.014647065 5:0.0033299693 
1 2:0.0034784618 3:2.2523394 4:0.014674504 5:0.003241674 
-1 2:0.0019454449 3:2.2836531 4:0.014775242 5:0.0028444001 
-1 2:0.0042174465 3:2.187584 4:0.014770087 5:0.0028259017 
1 3:2.2690929 4:0.014408977 5:0.0042508524 
1 3:2.3299033 4:0.014456545 5:0.0041614577 
-1 3:2.3009162 4:0.014559137 5:0.0037967159 
1 3:2.3238315 4:0.014400079 5:0.0042796736 
-1 3:2.2889728 4:0.014600076 5:0.0036176882 
1 2:0.00027414472 3:2.2891417 4:0.014440322 5:0.004115422 
-1 3:2.3701895 4:0.014323282 5:0.0045722717 
1 2:0.0069600352 3:2.1929868 4:0.01479212 5:0.00277455 
-1 3:2.301454 4:0.014588216 5:0.003794651 
-1 3:2.3440121 4:0.014414693 5:0.0043056144 
1 3:2.3043542 4:0.014508871 5:0.003916667 
-1 3:2.345107 4:0.014469891 5:0.0041227941 
1 2:0.0076588393 3:2.1963053 4:0.014815273 5:0.0024960941 
1 3:2.3178975 4:0.014498908 5:0.0040125287 
-1 3:2.306264 4:0.01451537 5:0.0039902475 
1 3:2.3227422 4:0.014503675 5:0.0039769729 
-1 3:2.3282508 4:0.01455197 5:0.0038991146 
1 3:2.3503772 4:0.014330854 5:0.0045175247 
1 2:0.003237862 3:2.3009166 4:0.01461163 5:0.0036110528 
-0.8061042164466123 3:2.3044938 4:0.014482924 5:0.0040268551 
1 3:2.3502059 4:0.014441725 5:0.0041964022 
-1 2:0.00096396704 3:2.3010559 4:0.014680155 5:0.0034423603 
1 3:2.3295157 4:0.014480734 5:0.0040714311 
-1 3:2.3733455 4:0.014421394 5:0.0043500068 
1 2:0.013420052 3:2.2660112 4:0.01494441 5:0.0022266951 
1 3:2.32672 4:0.014499023 5:0.0040188387 
1 3:2.369668 4:0.014435763 5:0.004311186 
-1 2:0.0061836831 3:2.2870232 4:0.014859793 5:0.0026342188 
-1 3:2.3672142 4:0.014540939 5:0.0040580663 
1 2:0.010554437 3:2.2649675 4:0.014758141 5:0.0029493976 
-1 2:0.0057825534 3:2.2783791 4:0.014670858 5:0.0034365499 
1 2:0.0081248903 3:2.2947573 4:0.014716216 5:0.0031986646 
-1 2:0.0007039305 3:2.3384489 4:0.014701056 5:0.0034857351 
-1 2:0.030126838 3:2.1004873 4:0.015151186 
1 2:0.012822176 3:2.1863365 4:0.014761013 5:0.0026845917 
-1 2:0.0041106625 3:2.3455534 4:0.014267485 5:0.0046674191 
1 2:0.0012588114 3:2.3979129 4:0.01392172 5:0.0055868034 
1 2:0.010070245 3:2.2749892 4:0.014534604 5:0.0037139355 
1 3:2.4210418 4:0.013991047 5:0.0054470164 
-1 2:0.0067993855 3:2.3550649 4:0.014796632 5:0.0031406797 
1 3:2.4318358 4:0.014022135 5:0.0053767367 
1 2:0.0026675042 3:2.4127058 4:0.01458739 5:0.004043519 
-1 2:0.0057278807 3:2.3817798 4:0.01501369 5:0.0028029401 
-1 3:2.4685458 4:0.014071681 5:0.005404882 
1 2:0.0029315039 3:2.4270152 4:0.014141775 5:0.0051273896 
1 3:2.4892095 4:0.013887751 5:0.0058362511 
-1 2:0.0094726668 3:2.4134477 4:0.014742818 5:0.0035711841 
-1 3:2.4654176 4:0.014163629 5:0.0052622718 
1 3:2.5018477 4:0.013976544 5:0.0056410469 
-1 3:2.4627168 4:0.014236049 5:0.0050046547 
1 3:2.4761047 4:0.013934648 5:0.0056531769 
-1 2:0.0035973614 3:2.4507391 4:0.014601562 5:0.0041534898 
-1 2:0.0082900579 3:2.4024638 4:0.014572583 5:0.0040117543 
1 3:2.5530146 4:0.013352473 5:0.0069116027 
1 3:2.704041 4:0.01199079 5:0.0090521322 
-1 2:0.020779654 3:2.2530027 4:0.015049247 5:0.0014731176 
1 3:2.5958732 4:0.01309743 5:0.0073765357 
1 3:2.6311052 4:0.012986897 5:0.0076070124 
1 3:2.6641262 4:0.013348558 5:0.0072117958 
1 2:0.010369628 3:2.502531 4:0.014600888 5:0.0043058483 
-1 3:2.7623232 4:0.01269123 5:0.0083559022 
1 2:0.0098487446 3:2.4313254 4:0.014171795 5:0.0050397404 
1 3:2.7224252 4:0.012105898 5:0.0089160601 
-1 3:2.7261303 4:0.013292056 5:0.0074886172 
1 3:2.6738689 4:0.012049322 5:0.0089339112 
-1 2:0.0086760803 3:2.6268085 4:0.01375085 5:0.0065308986 
1 3:2.7599749 4:0.011404118 5:0.0097670987 
-1 2:0.010909285 3:2.5357945 4:0.014199194 5:0.0053169584 
1 3:2.7702619 4:0.011264894 5:0.0099072091 
-1 2:0.0086844027 3:2.6456987 4:0.014985363 5:0.0046520073 
1 3:2.8140778 4:0.010191076 5:0.011023083 
-1 3:2.8007906 4:0.012670141 5:0.0084496038 
1 3:2.8190799 4:0.0096403579 5:0.011542946 
-1 2:0.035010869 3:2.0069468 4:0.014977114 
-1 3:2.9853782 4:0.0090280729 5:0.011987281 
1 4:0.0039342538 5:0.014483851 
-1 1:0.008934318 5:0.010424754 
1 3:2.9863048 4:0.011384039 5:0.010193748 
-1 5:0.011405122 
-1 3:2.9279059 4:0.012741558 5:0.0087721354 
-1 2:0.027943026 3:2.4635379 4:0.014778142 5:0.0036621558 
-1 4:0.0077811041 5:0.012964073 
1 3:2.9811989 4:0.0087975635 5:0.012156584 
1 5:0.014392635 
1 3:3.1297572 4:0.0078646072 5:0.01278806 
1 3:3.0155863 4:0.0089152489 5:0.012074696 
-1 2:0.088885717 3:1.8618133 4:0.013812973 
-1 2:0.000548357 3:2.9649201 4:0.010451469 5:0.010914446 
1 4:0.0073946079 5:0.013083669 
-1 4:0.00024436959 5:0.015347094 
1 4:0.0059320975 5:0.013786994 
-1 4:0.00349497 5:0.014941439 
-1 1:0.016548338 5:0.00016210513 
-1 1:0.033015543 2:0.065933512 3:0.76777838 4:0.0022050738 
1 1:0.063026905 2:0.040260575 3:0.55349398 
1 2:0.052596519 3:1.6173488 4:0.013366431 
-1 2:0.071369055 3:1.7051518 4:0.012971539 
-1 1:0.024387355 
-1 2:0.069620273 3:1.6164612 4:0.012550491 
-1 5:0.0046018508 
-1 2:0.01034659 4:0.0041740491 5:0.014466749 
1 1:0.018679169 2:0.041519511 3:1.5306304 4:0.012649189 
-1 2:0.047480507 3:1.1316575 4:0.015530848 
-1 5:0.0060654287 
1 1:0.035066337 
1 5:0.0072655744 
-1 5:8.438098e-05 
1 1:0.025295499 
1 1:0.039029668 2:0.052136366 3:2.0866421 4:0.014988783 5:0.00058455476 
-1 5:0.00078780154 
1 1:0.019018461 2:0.045850724 3:2.2213185 4:0.014804498 5:0.0024610246 
1 1:0.012227253 5:0.00096414605 
1 
1 
1 1:0.034843223 2:0.050000628 3:2.0723255 4:0.014996132 5:0.00036758321 
-1 3:1.837746 4:0.015057224 5:0.0016021878 
-1 3:1.8609545 4:0.015015071 5:0.0018357857 
1 3:1.8985074 4:0.014942641 5:0.0021591506 
-1 3:1.8001547 4:0.015101895 5:0.00096391883 
1 3:1.8915428 4:0.014954661 5:0.0021722737 
1 3:1.8348464 4:0.015055002 5:0.0013588008 
-1 3:1.7779497 4:0.015130386 5:0.00074691628 
1 2:0.013710965 4:0.014752053 
-1 2:0.016534253 4:0.014652173 
1 2:0.0051413151 4:0.01502246 
-1 2:0.017226798 4:0.014621157 
-1 2:0.017877788 4:0.014559606 
1 2:0.013279248 4:0.014698826 
-1 2:0.0070920781 4:0.01492476 
-1 2:0.0076063034 4:0.014899177 
1 2:0.0090608236 4:0.014866253 
1 2:0.012480925 4:0.014720954 
-1 2:0.0095321312 4:0.01480518 
1 2:0.0039205803 4:0.014970529 
1 4:0.015079311 
1 2:0.0061103917 4:0.014892556 
1 2:0.014064992 4:0.014677716 
1 2:0.018021597 4:0.014601216 
-1 2:0.0085230833 4:0.014869338 
1 2:0.062569733 4:0.01085878 
-1 2:0.041529964 4:0.013656946 
-1 3:0.86364439 4:0.0046173468 5:0.014690347 
-1 2:0.0176638 4:0.014653159 
1 4:0.015137907 5:0.0014735892 
-1 2:0.026230538 4:0.014325465 
1 2:0.018797989 4:0.014596001 
1 2:0.039008238 4:0.013895194 
-1 2:0.013888757 4:0.01480272 
1 2:0.085966563 4:0.0092846294 
-1 2:0.056899701 4:0.013044633 
-1 2:0.043179605 4:0.013384717 
1 4:0.01512292 5:0.0002688788 
-1 2:0.015401112 4:0.014720261 
1 2:0.023584628 4:0.014421486 
-1 2:0.02275391 4:0.014579875 
-1 2:0.027467678 4:0.014386447 
-1 2:0.022917816 4:0.014484375 
1 4:0.015163401 
1 2:0.029589521 4:0.014405474 
-1 2:0.023995392 4:0.014625061 
-1 2:0.025387422 4:0.014472863 
1 4:0.015173465 5:0.00021630862 
-1 4:0.01511105 5:0.0012282997 
1 2:0.011957623 4:0.014833145 
-1 4:0.015110194 
-1 2:0.055666339 4:0.012885095 
-1 2:0.045434557 4:0.013634867 
-1 1:0.10915586 3:2.6167407 5:0.0011708312 
-1 2:0.047011359 4:0.013841636 
1 2:0.00014997322 4:0.015077607 
-1 3:0.078254829 4:0.014430014 5:0.005689807 
-1 1:0.0063068414 3:1.4147196 5:0.015861402 
1 2:0.08564913 4:0.010475376 
-1 2:0.056656703 4:0.013631638 
1 2:0.0064233826 4:0.015040078 
-1 2:0.061191342 4:0.013059205 
-1 1:0.0067284912 2:0.10758039 
-1 2:0.059508473 4:0.013216992 
1 4:0.015228795 
-1 2:0.063831205 4:0.013369637 
1 2:0.072367574 4:0.012409205 
-1 2:0.041333061 4:0.014222389 
-1 2:0.06210462 4:0.013271609 
1 2:0.046857661 4:0.013653645 
-1 2:0.048309593 4:0.013954521 
-1 2:0.072162583 4:0.012643908 
-1 2:0.085870864 4:0.011001123 
-1 3:0.14714243 4:0.014623668 5:0.0058021944 
-1 1:0.1087673 2:0.055552932 3:3.0801378 
-1 2:0.067237821 4:0.013268066 
1 2:0.099212298 4:0.0081771298 
-1 2:0.019599887 4:0.014806122 
1 2:0.11101991 4:0.00790758 
-1 2:0.052486903 4:0.01355511 
-1 2:0.13007558 4:0.00052467312 
-1 3:0.28119383 4:0.013542843 5:0.0075653264 
-1 2:0.037633116 4:0.014374967 
1 2:0.096045088 4:0.0088595537 
-1 2:0.096260986 4:0.0099207267 
-1 1:0.09572024 3:2.3080556 5:0.0075531693 
-1 2:0.12625339 4:0.0050157511 
1 2:0.0067481743 4:0.015144284 
-1 3:0.23508767 4:0.013859214 5:0.0071146845 
1 1:0.12255152 2:0.016624779 3:2.8797406 
1 1:0.1208757 3:2.712459 5:0.0015434819 
1 3:0.077324169 4:0.01366344 5:0.006311481 
-1 1:0.06874059 3:1.9948743 5:0.011894931 
-1 1:0.10016129 3:2.4706488 5:0.0049037124 
1 2:0.080080897 4:0.011297519 
-1 2:0.062909053 4:0.013528311 
-1 2:0.024398813 4:0.014715091 
-1 1:0.086012285 3:2.2971473 5:0.008443139 
1 2:0.058911171 4:0.01323529 
-1 2:0.027429633 4:0.014579462 
-1 2:0.063919707 4:0.012449299 
1 2:0.0061912071 4:0.014993323 
-1 4:0.014992809 5:0.0018686128 
1 4:0.015000993 5:0.0011053887 
-1 4:0.014820028 5:0.0030561403 
-1 2:0.00016342012 4:0.015018569 
1 2:0.022985997 4:0.014617789 
-1 4:0.014982859 5:0.0012726413 
-1 3:0.68271429 4:0.011192023 5:0.011052596 
-1 2:0.035256285 4:0.014301571 
-1 3:1.2001728 4:0.0033369995 5:0.014938634 
-1 2:0.077721951 4:0.011729864 
1 2:0.036955663 4:0.014203437 
1 2:0.030311036 4:0.014459754 
1 1:0.18410018 3:2.3987356 
-1 1:0.16719873 3:2.6130929 
1 1:0.17873809 3:2.3436813 
1 1:0.17701148 3:2.6132191 
-1 1:0.16666033 3:2.5073827 
-1 1:0.18545426 2:0.0021374225 3:2.66784 
-1 1:0.18550335 3:2.6266504 
1 1:0.19835334 3:2.486423 
-1 1:0.19230716 3:2.40869 
1 1:0.19803047 3:2.3460643 
-1 1:0.17644452 3:2.5911866 
-1 1:0.16905295 3:2.3143265 
1 1:0.14060678 
-1 1:0.11985292 
-1 1:0.13498756 
-1 1:0.11876407 
1 1:0.12478507 
-1 1:0.1204851 
-1 1:0.11433163 
1 1:0.11299137 
-1 1:0.1079611 
1 1:0.12035801 
1 1:0.1199909 
1 1:0.098669887 
-1 1:0.091933542 2:0.014605848 
-1 1:0.11409064 
1 1:0.11889774 
1 1:0.10999039 
-1 1:0.10146296 
1 1:0.11902273 
-1 1:0.085801554 2:0.018150787 
-1 1:0.085569504 
-1 1:0.089715744 5:0.00033491675 
1 1:0.08634713 5:0.0019612887 
-1 1:0.058340111 2:0.033502615 
1 1:0.057888063 2:0.11189308 
-1 1:0.067228776 
-1 1:0.011813445 5:0.0087903992 
-1 1:0.083896489 5:0.0019046945 
-1 3:2.1607174 4:0.013186089 5:0.0092080117 
1 1:0.052016282 5:0.0083778593 
-1 5:0.01481503 
-1 3:2.0819472 4:0.014026965 5:0.0080680936 
-1 1:0.010145755 2:0.052100934 
1 1:0.080663123 
-1 1:0.058711357 5:7.6306569e-05 
1 1:0.060777015 5:0.0074118433 
-1 1:0.048825896 2:0.0032488372 
1 1:0.047379417 5:0.0056720695 
-1 1:0.047214347 2:0.012269679 
-1 2:0.1050381 3:0.44335216 4:0.016333469 
-1 2:0.084020425 3:1.0392636 4:0.018127744 
-1 1:0.012436159 5:0.012075899 
-1 1:0.066617208 
-1 3:2.2057391 4:0.013204192 5:0.0082959134 
-1 2:0.050778442 3:0.70023575 4:0.012847052 
-1 1:0.08575608 5:0.0016468564 
1 1:0.087217063 5:0.0015423805 
-1 1:0.025051449 2:0.050818701 
-1 2:0.061682801 3:1.1894679 4:0.016844027 
1 1:0.0074262436 2:0.031022021 
-1 2:0.041064532 3:0.17447105 4:0.0079233693 
1 2:0.041803321 3:1.7910633 4:0.015459641 5:0.000933788 
-1 2:0.070512799 3:1.0509243 4:0.015458059 
-1 2:0.032131157 3:2.0054665 4:0.014725771 5:0.004183062 
-1 1:0.016723007 2:0.005222956 
-1 2:0.0076438623 3:2.127062 4:0.013988265 5:0.0061488862 
-1 1:0.026008652 5:0.00098849114 
1 2:0.072808362 3:1.2499249 4:0.013229121 
-1 2:0.032246574 3:1.9893539 4:0.014837914 5:0.0034118548 
-1 1:0.0085893888 
-1 2:0.01453187 3:2.3735475 4:0.012715043 5:0.0082445883 
-1 2:0.022065721 3:0.4358133 4:0.0091242296 
-1 
-1 2:0.025164013 3:2.2192618 4:0.014205228 5:0.0049805122 
-1 
-1 
-1 
-1 3:2.6403491 4:0.01075986 5:0.010537625 
1 5:0.0010620198 
1 5:0.0013273349 
-1 2:0.068012583 3:2.5827173 4:0.012299604 5:0.0085884363 
1 5:0.0026712324 
1 1:0.14673913 3:1.8353552 5:0.00088570426 
-1 1:0.12928371 3:1.770052 5:0.0022284424 
-1 1:0.13270987 3:1.7289105 5:0.0031809127 
-1 1:0.15046759 3:1.8512867 
1 1:0.1728714 3:1.8985724 
-1 1:0.15615003 3:1.8971246 
1 1:0.1732423 3:2.0237588 
1 1:0.15147892 3:1.8903884 
1 1:0.13189555 3:1.704884 5:0.0030036863 
-1 1:0.12650036 3:1.6981277 5:0.0027806331 
1 1:0.16353333 3:1.9294709 
-1 1:0.10142512 5:0.00037611925 
1 1:0.11616216 
-1 1:0.10113944 
1 1:0.11804276 
-1 1:0.10126144 5:0.00063705705 
-1 1:0.10708054 
1 1:0.10388011 5:0.0010555296 
1 1:0.099530806 5:0.00029498927 
-1 1:0.095288575 5:0.00037647049 
1 1:0.11042233 
-1 1:0.10285594 
-1 1:0.1050156 2:0.0061734264 
1 1:0.10385257 5:0.00014601345 
-1 1:0.084350308 2:0.028107851 
1 1:0.092637442 
-1 1:0.070015795 5:0.0033968502 
1 1:0.099624677 
-1 1:0.0756539 5:0.0031773914 
-1 1:0.077102459 2:0.028804933 
-1 1:0.080997368 5:0.0029896626 
-1 1:0.08904479 
1 1:0.091718898 
-1 1:0.075606761 
1 1:0.081135297 5:0.0006915902 
-1 1:0.069869741 2:0.018038416 
1 1:0.085454391 2:0.0049816637 
-1 1:0.068433248 2:0.00029206436 
1 1:0.078444562 5:0.0010455452 
-1 1:0.07122473 5:0.00042301289 
-1 1:0.077465169 5:0.00023049315 
1 1:0.083203305 
1 1:0.066593659 5:0.0034115974 
-1 1:0.058445286 5:0.0032011016 
1 1:0.074027554 5:0.0015397541 
-1 1:0.049151286 5:0.002112319 
1 1:0.04113363 2:0.041598145 
-1 1:0.037368137 2:0.042354001 
1 1:0.048466991 5:0.004260192 
1 1:0.021774525 5:0.0084585358 
-1 1:0.01911647 5:0.0088113308 
-1 1:0.035589159 2:0.014921995 
1 1:0.045527579 3:3.0522702 5:0.0062240142 
1 1:0.035080743 5:0.0056875483 
1 2:0.032061796 3:0.082129216 4:0.0132795 
1 1:0.032881065 2:0.030069144 
1 1:0.00098979334 2:0.036312576 4:0.0028616667 
1 1:0.096632397 3:3.087734 5:0.0050612753 
1 2:0.037163329 4:0.010894304 
-1 2:0.038810809 4:0.01381334 
-1 1:0.016718711 2:0.035663624 4:2.3457662e-05 
-1 1:0.0193064 2:0.037937776 4:0.003656806 
-1 1:0.026509949 2:0.038015464 4:0.0056827188 
1 1:0.032033889 2:0.045552805 4:0.0047934925 
1 1:0.020501214 2:0.038615627 4:0.0072096101 
-1 2:0.047781482 3:0.010052154 4:0.010824371 
-1 1:0.0071460421 
-1 2:0.059111666 4:0.0082676537 
1 1:0.0074835022 2:0.045764682 4:0.0047656043 
-1 2:0.047481849 4:0.013552451 
-1 3:3.0790235 5:0.011511399 
1 1:0.051844621 5:0.0054792768 
-1 5:0.01132434 
-1 2:0.054820409 3:0.33460755 4:0.012720117 
-1 1:0.0021471058 
-1 2:0.031843819 4:0.0020883359 
-1 1:0.014032467 5:0.0060026858 
-1 2:0.028033741 4:0.0023445492 
1 1:0.024239132 2:0.048865655 3:0.046499059 4:0.0096861329 
-1 1:0.04384285 5:0.0020774196 
-1 2:0.039537969 3:0.61432703 4:0.01462344 
1 1:0.023153618 5:0.0064410677 
1 1:0.012195846 5:0.0061858038 
-1 1:0.0058675665 5:0.0072913746 
1 1:0.011543918 5:0.0084235129 
1 1:0.014301905 5:0.006749972 
1 5:0.0070094222 
-1 5:0.0092786663 
1 1:0.038773521 5:0.0028753283 
-1 5:0.0054838158 
1 1:0.013413754 5:0.0065416154 
-1 1:0.017140887 5:0.003819616 
-1 1:0.048964448 
1 1:0.022815759 5:0.0018051399 
-1 1:0.031581994 
1 5:0.0069704913 
1 5:0.0032655372 
-1 5:0.0043748265 
-1 1:0.023578124 5:0.00023426179 
1 1:0.056196785 
1 1:0.019602054 
1 2:0.055486542 3:1.2218577 4:0.014447444 5:0.0042367279 
-1 5:0.011307698 
-1 1:0.011641059 5:0.0046134927 
-1 2:0.046991379 3:1.3386313 4:0.015956891 5:0.0017126276 
1 1:0.032169006 5:0.0058480497 
1 5:0.0025094817 
-1 5:0.0028594404 
-1 5:0.013693553 
-1 5:0.013039813 
-1 1:0.083219265 2:0.043728957 3:2.531623 
1 1:0.098437933 2:0.031020194 3:2.3981523 
-1 1:0.081184954 2:0.047416766 3:2.5689166 
1 1:0.086347709 2:0.041833078 3:2.5002461 
-1 1:0.082690099 2:0.046845122 3:2.561596 
1 1:0.089839643 2:0.044566919 3:2.5372161 
-1 1:0.079194442 2:0.050246487 3:2.6033207 
1 1:0.04663301 2:0.044884279 3:0.76862047 
1 1:0.042705884 2:0.044471165 3:0.82315051 
1 1:0.037002636 2:0.045641184 3:0.58120386 
-1 1:0.03692054 2:0.040577303 3:0.54250175 
-1 1:0.033053837 2:0.048195987 3:0.73455722 
1 1:0.039271677 2:0.042452619 3:0.75086718 
-1 1:0.018931363 2:0.049737716 3:0.82106905 
-1 1:0.029331439 2:0.036009518 3:0.87325635 
1 1:0.059988184 2:0.023030094 3:0.51881677 
1 1:0.0330641 2:0.014337552 3:0.63766753 
1 1:0.014124814 2:0.017514843 3:0.61617778 
-1 2:0.041571015 3:1.4157863 4:0.005585032 
-1 1:0.017506763 2:0.044242857 3:1.3133419 4:0.0018612544 
-1 1:0.041459065 2:0.039819864 3:1.0092421 
1 1:0.062151136 2:0.035292694 3:1.1397179 
1 1:0.03540329 3:0.57719044 
-1 2:0.020155488 3:0.79938073 
-1 2:0.012294983 4:0.0097184244 5:0.011727702 
-1 1:0.038222838 2:0.039659052 3:1.4835544 4:0.0045681496 
-1 1:0.018623879 2:0.032701167 3:1.5839936 4:0.0068383228 
-1 1:0.041754063 2:0.022315949 3:1.6108379 4:0.0044290638 
-1 5:0.01237992 
1 5:0.015252687 
-1 5:0.011864162 
1 1:0.0323128 3:0.85099791 
-1 1:0.0061114543 2:0.03166295 3:1.5947697 4:0.0080100096 
1 5:0.0062880871 
-1 
-1 1:0.033472794 2:0.018461921 3:1.4158706 4:0.0042505411 
-1 5:0.0079655164 
-1 5:0.011497649 
-1 1:0.015127834 2:0.033096346 3:1.5973012 4:0.0074571945 
1 1:0.033422841 2:0.029798811 3:1.606977 4:0.0047889817 
-1 1:0.02012933 2:0.033424215 3:1.3599945 4:0.0060540102 
1 1:0.030800237 2:0.029142998 3:1.622603 4:0.0065671507 
-1 1:0.0013300358 2:0.037234674 3:1.8114844 4:0.0089977659 
1 1:0.026167655 2:0.03432308 3:1.7284239 4:0.0080019166 
1 1:0.02853677 2:0.027795088 3:1.4831712 4:0.0046286922 
1 1:0.019049698 2:0.030831889 3:1.6375616 4:0.0083110645 
-1 2:0.021621562 3:1.3626089 4:0.0065727621 
-1 1:0.04315576 2:0.016772802 3:1.4559618 4:0.0043546464 
-1 4:0.0025385151 5:0.015876274 
-1 1:0.012224866 2:0.030062168 3:2.0284536 4:0.010840403 
-1 1:0.028414991 2:0.034268859 3:1.6420459 4:0.0092218391 
-1 5:0.012915456 
-1 1:0.018472846 2:0.02419064 3:1.5137643 4:0.0064297918 
-1 1:0.026809252 2:0.026491882 3:2.0441515 4:0.0096934888 
1 1:0.040975627 2:0.014705966 3:1.5444168 4:0.0054026732 
-1 1:0.024771403 2:0.024452471 3:1.3649408 4:0.0066170538 
-1 2:0.050476853 3:2.3687852 4:0.013522099 
-1 1:0.030210573 2:0.033719729 3:1.9257261 4:0.0082583532 
1 1:0.037410363 2:0.033550381 3:1.7892458 4:0.0080105213 
-1 1:0.032001619 2:0.026795352 3:1.8866426 4:0.0078744318 
1 1:0.040206651 2:0.021476585 3:1.5405898 4:0.0056629447 
1 1:0.032845807 2:0.027894378 3:1.5706633 4:0.0072008322 
-1 2:0.053442501 3:2.3082407 4:0.013380325 
1 1:0.051935705 2:0.034457488 3:1.9834358 4:0.0075354166 
-1 5:0.010355852 
1 5:0.012362274 
-1 1:0.041051505 2:0.030954908 3:1.7321653 4:0.0070883058 
1 1:0.036079368 2:0.041583779 3:2.0620128 4:0.0094126992 
-1 1:0.026323168 2:0.020588153 3:1.7494251 4:0.0075214978 
-1 1:0.045522219 2:0.041993978 3:1.7353706 4:0.0083363306 
-1 2:0.013405452 4:0.004703369 5:0.014487957 
-1 1:0.0057042274 2:0.030325159 3:1.5702255 4:0.0090123327 
1 1:0.037192467 2:0.035446587 3:1.8054324 4:0.0089042112 
1 1:0.027438193 2:0.031123017 3:2.0315512 4:0.0082817777 
1 5:0.0054737193 
-1 5:0.010363763 
-1 5:0.010355147 
-1 2:0.039412346 3:1.9458018 4:0.010883146 
-1 5:0.012099696 
-1 1:0.031799934 2:0.018300004 3:2.0158476 4:0.011239254 
1 5:0.012261987 
-1 5:0.015107747 
-1 2:0.039160874 4:0.01723594 5:0.0028037713 
1 2:0.036148814 4:0.017081548 5:0.0032384942 
-1 2:0.040347686 4:0.017346054 5:0.0027863615 
1 2:0.038707121 4:0.017177114 5:0.0027790643 
1 2:0.041471158 4:0.017343359 5:0.0025180004 
-1 2:0.042669227 4:0.017441486 5:0.0026768455 
-1 2:0.035174359 4:0.017242074 5:0.0034958785 
1 2:0.039007898 4:0.017063398 5:0.0027404094 
1 2:0.016019578 3:1.4388158 4:0.018454989 5:0.0061363787 
-1 2:0.022388633 3:1.3700876 4:0.018844856 5:0.0050141517 
-1 2:0.018030441 3:1.4080302 4:0.018155673 5:0.0055217466 
-1 2:0.017875556 3:1.4624812 4:0.017955421 5:0.0054873186 
1 2:0.013083153 3:1.5260461 4:0.017412048 5:0.0064289046 
1 2:0.0119562 3:1.6035351 4:0.017031322 5:0.0066001683 
1 2:0.010584591 3:1.571422 4:0.017044487 5:0.0066018694 
-1 2:0.017552241 3:1.5004351 4:0.017478776 5:0.0054313621 
-1 2:0.012764958 3:1.5348859 4:0.016957077 5:0.0061968864 
1 2:0.009830805 3:1.6612939 4:0.016302644 5:0.0069098731 
1 2:0.011250969 3:1.6566677 4:0.01641449 5:0.0065710885 
-1 2:0.0083496225 3:1.6896418 4:0.016248523 5:0.0069831203 
1 2:0.006596657 3:1.7265181 4:0.01576228 5:0.0074793678 
1 2:0.010907542 3:1.6905171 4:0.016082395 5:0.006596413 
-1 2:0.010807846 3:1.6754248 4:0.016102154 5:0.0065163994 
1 3:1.8583581 4:0.014947023 5:0.0084723864 
1 2:0.010646355 3:1.6915919 4:0.015917823 5:0.0064675585 
-1 2:0.0032772002 3:1.7581613 4:0.015478522 5:0.0075068385 
-1 2:0.0074582176 3:1.7674597 4:0.015671032 5:0.0068869512 
1 2:0.0055981205 3:1.8217855 4:0.015111254 5:0.0075600657 
-1 2:0.018307212 3:1.6376098 4:0.016339157 5:0.0049576257 
-1 2:0.0097350898 3:1.6985006 4:0.015576669 5:0.0064550563 
1 2:0.0076233322 3:1.837091 4:0.015317907 5:0.0068438326 
1 2:0.015028349 3:1.6501721 4:0.016173558 5:0.0053193015 
-1 2:0.01881072 3:1.6012913 4:0.016266143 5:0.004762056 
-1 2:0.0084534083 3:1.7630489 4:0.015515967 5:0.0063956735 
1 2:0.0093555172 3:1.7850689 4:0.015444523 5:0.0063567987 
1 2:0.0080617836 3:1.7970553 4:0.015305578 5:0.0065354352 
1 2:0.010748105 3:1.7906066 4:0.015385356 5:0.0060887233 
1 2:0.012803328 3:1.7959477 4:0.015676823 5:0.0055401544 
-1 2:0.011455747 3:1.6913723 4:0.015610906 5:0.0056331824 
-1 2:0.012298545 3:1.7604304 4:0.015517548 5:0.0055944308 
1 2:0.0001006071 3:1.9287357 4:0.014366018 5:0.0079076962 
1 2:0.013024233 3:1.7837811 4:0.015573966 5:0.0052389797 
-1 2:0.01220094 3:1.7660141 4:0.015390034 5:0.0053196263 
-1 2:0.0088873301 3:1.8542135 4:0.015031922 5:0.0058489867 
1 2:0.014727214 3:1.7918772 4:0.015364704 5:0.0049661751 
1 2:0.011088495 3:1.8537068 4:0.01502552 5:0.0054131718 
1 2:0.01808676 3:1.7983459 4:0.015277298 5:0.0044072589 
-1 2:0.017892283 3:1.7601592 4:0.015404046 5:0.0042930305 
1 3:2.1974804 4:0.012519291 5:0.009694422 
-1 2:0.012932363 3:1.8828503 4:0.015020527 5:0.0048967905 
1 2:0.01311084 3:1.9001954 4:0.014832838 5:0.0052633878 
-1 2:0.015351536 3:1.8522785 4:0.015046614 5:0.0045618272 
1 2:0.014923889 3:1.8417292 4:0.014966625 5:0.0047474909 
-1 2:0.01899516 3:1.8282674 4:0.01527559 5:0.0039438223 
1 2:0.019004269 3:1.7827416 4:0.015141802 5:0.0041597749 
-1 2:0.01736202 3:1.89948 4:0.014952484 5:0.0041860289 
1 2:0.014853646 3:1.8742174 4:0.01485571 5:0.004546875 
-1 2:0.017415277 3:1.8863242 4:0.014995349 5:0.0039643571 
-1 2:0.016034943 3:1.8402686 4:0.014876795 5:0.0042491318 
-1 3:2.4330125 4:0.01065302 5:0.011528179 
-1 5:0.010079893 
-1 2:0.031190595 3:1.7953345 4:0.015277364 5:0.0021012338 
-1 2:0.015845211 3:1.9187189 4:0.014820692 5:0.0040668411 
1 2:0.015420148 3:1.9415431 4:0.014814691 5:0.0041823259 
-1 2:0.045461529 3:1.6834228 4:0.015418572 5:0.00018499185 
-1 2:0.018307021 3:1.8833377 4:0.014856166 5:0.0036682382 
1 3:2.4024125 4:0.01137322 5:0.01039294 
1 2:0.0054862555 3:2.1315323 4:0.01387008 5:0.0066309033 
-1 2:0.016030771 3:1.977261 4:0.014664692 5:0.0041520041 
1 2:0.017629309 3:1.9734365 4:0.014612597 5:0.0042908082 
1 2:0.022298183 3:1.8999495 4:0.014973989 5:0.003187789 
-1 2:0.0074515576 3:2.0105436 4:0.014369551 5:0.0050098201 
-1 2:0.023815335 3:1.9202077 4:0.014888546 5:0.0031232347 
1 2:0.0060368627 3:2.1283678 4:0.014008189 5:0.0057975404 
-1 2:0.017174446 3:1.9754548 4:0.014709697 5:0.003730128 
1 2:0.0053195291 3:2.1194363 4:0.013959718 5:0.0058703735 
-1 2:0.012734709 3:2.0571141 4:0.014396719 5:0.0046582994 
1 2:0.011570019 3:2.105277 4:0.013928399 5:0.0060957475 
1 1:0.019538968 2:0.088981271 3:0.55908492 4:0.005121561 
1 2:0.019254923 3:2.0050176 4:0.01470214 5:0.0035056646 
1 1:0.12327922 
1 2:0.018056611 3:2.0667647 4:0.014608972 5:0.0037951049 
1 2:0.021668259 3:2.007672 4:0.014693718 5:0.0033050285 
-1 2:0.055961985 3:1.6809072 4:0.015219215 
1 2:0.028557944 3:1.9257013 4:0.014910302 5:0.0024940514 
-1 2:0.014968668 3:2.1027676 4:0.014404103 5:0.0043405622 
1 2:0.012741783 3:2.1173189 4:0.014284855 5:0.0048296547 
-1 2:0.018331125 3:2.0988531 4:0.014568535 5:0.0037072412 
-1 2:0.023288154 3:2.0423674 4:0.014642694 5:0.0034336671 
1 2:0.0038740345 3:2.1739802 4:0.01386032 5:0.0060313755 
1 2:0.013750978 3:2.1578842 4:0.014247757 5:0.0048177256 
1 1:0.045179148 2:0.14000231 3:0.56834124 4:0.0025197961 
-1 2:0.0085184261 3:2.1737732 4:0.014234355 5:0.0048058195 
1 2:0.018743406 3:2.114643 4:0.014407266 5:0.004337126 
-1 2:0.022908223 3:2.0405637 4:0.014611115 5:0.0035038552 
-1 1:0.12998789 
-1 2:0.024291249 3:2.0551929 4:0.014626081 5:0.0034166017 
1 2:0.018919629 3:2.2050565 4:0.01426945 5:0.0046660511 
-1 2:0.016400184 3:2.0699711 4:0.014433655 5:0.0042559977 
-1 3:2.2395592 4:0.013603631 5:0.0063991306 
-1 1:0.087959072 
-1 2:0.087106796 3:1.5851338 4:0.014939761 
1 2:0.03598317 3:1.9826701 4:0.014854479 5:0.0022275175 
-1 2:0.046419084 3:1.9458592 4:0.014956601 5:0.0013639312 
1 2:0.013428837 3:2.1702408 4:0.014185986 5:0.0049711012 
-1 2:0.033865529 3:2.1298934 4:0.014738486 5:0.002801436 
-1 2:0.027737862 3:2.1044741 4:0.014614047 5:0.0034267503 
1 2:0.014058286 3:2.2391661 4:0.014069066 5:0.0052562517 
1 2:0.075463294 3:1.6243194 4:0.014905091 
-1 2:0.081991647 3:1.743167 4:0.014954347 
1 2:0.024481524 3:2.2242438 4:0.014455626 5:0.0040138034 
1 2:0.048385884 3:2.0490007 4:0.014897965 5:0.0017496837 
-1 2:0.053612092 3:1.915335 4:0.015015693 5:0.00063798443 
1 2:0.028857081 3:2.1861664 4:0.01447513 5:0.0039351428 
1 2:0.019720246 3:2.1995396 4:0.014301647 5:0.0045765538 
1 2:0.071750129 3:1.820731 4:0.015043502 
1 1:0.13186449 2:0.12793038 3:0.051120785 
1 2:0.029214226 3:2.1868921 4:0.014401534 5:0.0041962477 
-1 4:0.0061871652 5:0.015110216 
-1 4:0.0030883835 5:0.016786008 
-1 1:0.033460134 2:0.038654555 3:1.7963589 
-1 4:0.0015040563 5:0.014978433 
1 4:0.0041218463 5:0.01473732 
-1 1:0.089246459 2:0.018777496 3:1.9484499 
1 4:0.012781454 5:0.0081657369 
-1 4:0.0096590583 5:0.012391556 
-1 1:0.082717325 2:0.053457557 3:1.9419044 
1 4:0.0087590155 5:0.012728176 
-1 4:0.0094916745 5:0.011871416 
-1 4:0.0094621508 5:0.011807012 
1 4:0.0097138442 5:0.011648581 
-1 4:0.011935694 5:0.0093029901 
1 3:1.0592161 4:0.008626347 5:0.014867698 
-1 3:0.58588083 4:0.014593315 5:0.0075830412 
-1 1:0.075194335 2:0.01947169 
1 3:1.2249568 4:0.0067157135 5:0.015256907 
-1 3:1.5121344 4:0.005922015 5:0.01394915 
-1 2:0.0092642812 3:0.73628371 4:0.013272568 5:0.0082991751 
1 2:0.013873513 3:0.56498397 4:0.014590015 5:0.0067468203 
-1 3:1.5044332 4:0.0028908451 5:0.015930152 
-1 1:0.043588794 2:0.058942263 
1 3:1.3354123 4:0.0057250772 5:0.014806988 
-1 1:0.063735883 
1 1:0.0070777436 2:0.073281689 4:0.011487095 
-1 2:0.0062012365 3:0.9596291 4:0.011641904 5:0.010665196 
-1 1:0.038944235 2:0.0015926289 
-1 2:0.054565635 3:0.34097789 4:0.015345151 5:0.00010123028 
-1 1:0.022789683 2:0.067704594 4:0.0076330311 
1 1:0.018095064 2:0.066531014 4:0.0094745391 
1 1:0.020814672 2:0.066645226 4:0.0087526144 
-1 2:0.070108922 3:0.0035009488 4:0.014518872 
-1 1:0.014919498 2:0.068790413 4:0.009635558 
1 1:0.0035266017 2:0.068462312 4:0.01246816 
-1 1:0.0172939 2:0.067840476 4:0.0089063335 
-1 3:1.9262079 4:0.00032088209 5:0.015217848 
-1 1:0.02457457 2:0.068704105 4:0.0072444274 
-1 1:0.022456484 2:0.068590888 4:0.0079477689 
1 1:0.021399627 2:0.06817623 4:0.0084453667 
1 1:0.018946081 2:0.070085656 4:0.0087459226 
-1 3:1.5887668 4:0.0059782737 5:0.013956897 
1 1:0.017553756 2:0.070650994 4:0.0089412493 
-1 2:0.059332403 3:0.26899737 4:0.015217019 
1 3:1.4666275 4:0.0064402137 5:0.013934981 
-1 2:0.046428225 3:0.55835824 4:0.015031464 5:0.0023530072 
1 3:1.4911083 4:0.0063161923 5:0.014126539 
1 3:1.53564 4:0.0063453809 5:0.013914933 
-1 1:0.013861572 5:0.0057865803 
-1 2:0.011946146 3:1.0940461 4:0.011988647 5:0.009326137 
-1 1:0.03475044 
1 2:0.068724887 4:0.012786081 
1 1:0.079042008 2:0.018835408 
1 1:0.041744388 5:0.0017617101 
1 3:2.1451629 5:0.015 
1 1:0.016579296 2:0.070022319 4:0.0100926 
1 1:0.015429475 2:0.069038544 4:0.010476643 
1 1:0.057389112 
1 1:0.2864086 3:0.39766707 4:0.016905754 5:0.009495498 
-1 1:0.25087096 2:0.10946949 3:0.99117576 4:0.0084744906 5:0.016938552 
1 1:0.020454739 2:0.2827807 3:2.1347117 5:0.014918286 
1 1:0.011835203 2:0.076072338 
1 1:0.012241678 2:0.075594509 
1 1:0.0081847134 2:0.076392345 
1 1:0.0096704109 2:0.076031723 
-1 1:0.012507643 2:0.07330522 
1 1:0.01173409 2:0.075698517 
1 1:0.027513051 2:0.052516618 
1 1:0.025798803 2:0.050126592 
-1 1:0.020764468 2:0.049464929 
1 1:0.023825771 2:0.048064046 
1 1:0.016993447 2:0.04650766 
1 1:0.015977543 2:0.042173438 
1 1:0.0057427251 2:0.041581272 
-1 1:0.0035545733 2:0.042056855 
1 1:0.00755965 2:0.050738037 
-1 1:0.0033005214 2:0.036682263 
1 1:0.0069743373 2:0.036792481 
1 2:0.033616356 
-1 1:0.009068667 3:0.35589453 4:0.012481691 5:0.011395895 
1 1:0.01801198 3:0.47888873 4:0.01134182 5:0.01265755 
1 2:0.038816699 4:0.00076909731 
1 2:0.045674936 
1 2:0.04668878 
1 1:0.024511619 2:0.067407448 3:2.8898877 
-1 1:0.05345318 3:1.1420297 4:0.00022954418 5:0.01657318 
-1 2:0.067857095 
1 2:0.052987898 
1 1:0.063001328 3:1.0454367 4:0.00070572357 5:0.016087457 
1 1:0.075318258 2:0.006289416 3:1.779691 5:0.012770573 
1 1:0.0071037415 2:0.044640977 
-1 2:0.068580858 
-1 1:0.063203531 2:0.017392853 3:1.9320295 5:0.011428005 
-1 2:0.018492884 4:0.0064064679 
-1 1:0.054337343 3:1.2434799 5:0.016376115 
-1 1:0.032361003 2:0.064169131 3:2.7026401 
-1 4:0.013992867 
1 2:0.04399732 4:0.0012017756 
-1 2:0.063357977 
-1 2:0.022558611 4:0.002042601 
-1 1:0.022055757 3:0.62385155 4:0.0078145453 5:0.01461123 
-1 2:0.026877649 4:0.0035191576 
-1 2:0.055588051 
1 2:0.061962649 
-1 1:0.042200011 2:0.0040376269 3:1.6309996 5:0.014273013 
-1 2:0.030430009 4:0.0046007468 
-1 2:0.064485217 
-1 1:0.03563616 3:1.3132421 5:0.016462537 
-1 4:0.016714482 
-1 2:0.057327331 4:1.4594997e-05 
-1 2:0.050443645 
-1 2:0.014787098 4:0.010790394 
1 4:0.014110109 5:0.0080861652 
-1 4:0.014872569 
-1 1:0.0091319962 2:0.061399445 3:2.8789593 
-1 4:0.014294198 5:0.0076460437 
1 4:0.015057451 5:0.0031197766 
1 1:0.054489658 2:0.025849473 3:2.0087497 5:0.0073006816 
-1 1:0.038916097 2:0.04728618 3:2.2488102 5:0.003188021 
-1 1:0.05664748 3:1.4833578 5:0.014090449 
-1 4:0.015980877 5:0.0038709903 
-1 1:0.035269723 2:0.032973447 3:2.077497 5:0.0062671591 
-1 1:0.076107092 2:0.033200878 3:2.077549 5:0.0053412699 
-1 4:0.012554814 
-1 4:0.015336389 
-1 4:0.015199286 
-1 4:0.015255361 5:0.0047956415 
1 3:0.18121833 4:0.011753472 5:0.011075549 
-1 4:0.015985907 
-1 4:0.014778289 5:0.0070707734 
-1 4:0.016028237 5:0.0014897616 
1 4:0.015062171 5:0.0049592594 
-1 4:0.01471412 5:0.0064312034 
1 4:0.014855601 5:0.0055187132 
-1 4:0.01409582 5:0.0072001173 
-1 2:0.05048786 
-1 1:0.040205905 3:1.1067508 5:0.015871384 
-1 3:0.063210719 4:0.012437166 5:0.0098880938 
-1 2:0.076422728 
-1 4:0.014074558 
1 4:0.013810028 
-1 3:0.066335753 4:0.012648624 5:0.0096003924 
1 4:0.014122045 
-1 4:0.015416647 5:0.0021298032 
1 4:0.013096428 
1 4:0.015624763 
-1 4:0.014316279 5:0.0079857397 
1 4:0.014955279 
-1 4:0.015502537 5:0.0044566418 
1 4:0.012836542 
-1 4:0.013510253 
-1 4:0.016122438 
-1 1:0.043798223 3:1.4453031 5:0.01341832 
-1 1:0.0053453896 3:0.39823797 4:0.0079844615 5:0.013497359 
-1 4:0.014841066 
-1 3:0.53308575 4:0.0074448593 5:0.014282376 
-1 1:0.035499572 3:1.1099224 5:0.015713754 
-1 2:0.0036548541 4:0.011492336 
-1 2:0.052279647 4:0.0029547123 
-1 1:0.006454795 3:0.54477806 4:0.006603416 5:0.014335482 
1 4:0.014592045 5:0.0057660807 
1 1:0.019846655 2:0.068376339 
-1 2:0.059295585 
-1 4:0.013488929 5:0.00859689 
1 3:0.1742519 4:0.010696828 5:0.011506674 
-1 4:0.014717339 5:0.0066502715 
-1 1:0.0030485167 3:0.67057963 4:0.0055904985 5:0.015022308 
-1 4:0.014349287 
1 1:0.10937999 2:0.06128216 4:0.0059863112 
1 2:0.067232726 
-1 
1 1:0.0038290845 3:0.5498817 4:0.0077171462 5:0.019049863 
-1 1:0.0027566733 3:0.5856452 4:0.0073608719 5:0.01945447 
1 1:0.0047803176 3:0.56659317 4:0.007400726 5:0.019177374 
-1 1:0.00099616506 3:0.57911969 4:0.0076617578 5:0.019479036 
1 1:0.01314873 3:0.5947063 4:0.0063425494 5:0.019151818 
-1 1:0.0016340538 3:0.54359508 4:0.0079328291 5:0.01903731 
-1 1:0.0050141068 3:0.57003951 4:0.0073244754 5:0.019198631 
1 1:0.0086365792 3:0.59561777 4:0.0066865555 5:0.019316248 
-1 3:0.53198815 4:0.0088940311 5:0.019214341 
1 1:0.011153571 4:0.0052817742 5:0.017815489 
-1 1:0.00724381 4:0.004699462 5:0.018249761 
1 1:0.0073105202 4:0.0060649428 5:0.017419234 
-1 1:0.0052106734 4:0.0034778627 5:0.01839992 
1 1:0.01416614 4:0.0039227437 5:0.017550562 
-1 1:0.0027362976 4:0.0037072567 5:0.018296054 
-1 1:0.00067696433 4:0.0073662678 5:0.016631322 
1 1:0.02016653 4:0.00082609535 5:0.017725081 
1 1:0.014592296 4:0.0013896895 5:0.01783695 
-1 1:0.0020738407 4:0.0067527076 5:0.016694896 
1 1:0.025999612 4:0.0029513659 5:0.016652016 
1 1:0.018804061 4:0.0028562837 5:0.017114215 
-1 1:0.010978974 4:0.0051370747 5:0.016702533 
1 1:0.017349614 4:0.0035587885 5:0.016924302 
1 1:0.010383103 5:0.018209227 
1 2:0.01281201 3:2.7193636 4:0.019181601 5:0.0023928501 
-1 1:0.046508439 2:0.038059551 3:0.48465597 
-1 4:0.0052424088 5:0.020555222 
-1 4:0.014082185 5:0.013191396 
1 2:0.031937065 3:2.0814566 4:0.016901817 
-1 4:0.012267019 5:0.017306653 
-1 3:2.7169882 4:0.019269022 5:0.0027182782 
1 4:0.015189279 5:0.011653422 
1 4:0.0089496061 5:0.017149265 
-1 4:0.018813214 5:0.0098011721 
1 3:2.5544147 4:0.018986439 5:0.00051639379 
-1 3:2.825072 4:0.019606985 5:0.0053400732 
-1 4:0.015380204 5:0.011460192 
-1 4:0.013272523 5:0.0130977 
1 3:3.0073652 4:0.0134766 5:0.010081925 
1 2:0.02194303 3:1.9630849 4:0.016443411 
1 4:0.0051151631 5:0.016393135 
-1 4:0.0072116004 5:0.017243821 
1 1:0.0066246981 4:0.0016214887 5:0.016743967 
1 4:0.0044777205 5:0.016922099 
1 3:2.9160121 4:0.015839312 5:0.0081446113 
1 1:0.053509207 2:0.039935529 3:0.25833729 
1 2:0.010109517 3:2.1447531 4:0.016680675 
1 4:0.013548495 5:0.012264335 
1 1:0.049205735 2:0.046483096 3:0.55927101 
1 3:2.8617627 4:0.015498722 5:0.0078608351 
1 4:0.0066477494 5:0.017646316 
1 1:0.046492464 2:0.044330327 3:0.58207763 
1 4:0.0050463762 5:0.017388365 
-1 4:0.0075526045 5:0.01645122 
1 3:3.1326387 4:0.011078711 5:0.011756506 
-1 3:2.5777221 4:0.016465965 5:0.003121297 
-1 5:0.016455939 
1 2:0.013999589 3:1.7698338 4:0.014827316 
-1 2:0.036720306 3:1.3718081 4:0.0095738742 
-0.08531800427570764 2:0.015323779 3:1.7626361 4:0.014686635 
1 2:0.0091008233 3:1.9300513 4:0.015477216 
1 3:2.775154 4:0.014391001 5:0.0074372812 
-1 3:3.1306431 4:0.014008008 5:0.010694237 
-1 3:3.1285305 4:0.013315766 5:0.011056837 
-1 3:2.8246185 4:0.013526089 5:0.0088185324 
1 2:0.0045538046 3:2.1110063 4:0.016012381 
1 1:0.032659837 2:0.05184248 3:0.42019084 
-1 3:3.0525511 4:0.012084989 5:0.011032093 
1 4:0.0041951558 5:0.015 
-1 1:0.0058142548 5:0.013407107 
-1 1:0.058361747 5:0.012959857 
1 1:0.0090626138 4:0.0029438436 5:0.015 
-1 1:0.0073144503 2:0.20924966 4:0.0061804321 5:0.015000001 
1 1:0.064648744 2:0.20073597 4:0.0091973727 5:0.013164207 
-1 2:0.2311177 5:0.016584414 
1 1:0.096880403 2:0.0658676 
1 1:0.1033823 2:0.045059666 
-1 1:0.080404436 2:0.066674833 
1 1:0.11099343 2:0.046060598 
1 1:0.10102409 2:0.051180489 
-1 1:0.095605468 2:0.053908087 
-1 1:0.10744489 2:0.033516075 
1 1:0.10982069 2:0.05396971 
-1 1:0.082361525 2:0.062701888 
-1 1:0.1016356 2:0.054355243 
1 1:0.10221981 2:0.063151421 
1 1:0.087707336 2:0.015002635 
-1 1:0.080296062 2:0.023463858 
1 1:0.089785748 2:0.015035168 
-1 1:0.080745098 2:0.034971978 
1 1:0.089238435 2:0.026789735 
-1 1:0.077474247 
1 1:0.083578394 2:0.034035596 
1 1:0.079356331 2:0.031471081 
1 1:0.051495049 2:0.041315897 
-1 1:0.034966959 2:0.021444876 
-1 1:0.045892188 2:0.038789802 
-1 2:0.015211039 3:0.035591397 4:0.016137128 5:0.0068900348 
-1 1:0.06584876 2:0.049090524 
-1 3:0.75702283 4:0.0082841697 5:0.015185566 
-1 1:0.055024131 2:0.019419712 
-1 1:0.069924767 2:0.019313677 
-1 1:0.048245259 3:2.789765 5:0.0017123818 
1 1:0.056451001 2:0.027555863 
1 3:0.916036 4:0.0052644445 5:0.016495212 
-1 3:0.48418853 4:0.011804127 5:0.012118224 
1 3:0.18591551 4:0.014583342 5:0.014889453 
-1 3:0.76812495 4:0.0078173495 5:0.014880667 
-1 1:0.030701349 2:0.039756078 
-1 3:0.73475925 4:0.0096538481 5:0.012228283 
1 3:0.81988836 4:0.0083661839 5:0.01398308 
-1 2:0.013693431 3:0.48228806 4:0.01270369 5:0.0093305458 
-1 3:1.2457415 5:0.017616799 
1 4:0.019294719 5:0.0027706737 
-1 3:0.083099991 4:0.016375233 5:0.012469936 
-1 3:1.3174931 5:0.01760942 
-1 3:1.3178002 5:0.017662168 
-1 4:0.016699986 5:0.0078837705 
1 1:0.00605835 3:1.4423334 5:0.017578099 
-1 3:0.68793731 4:0.008938555 5:0.014860736 
-1 1:0.0097386724 3:1.4158001 5:0.01745938 
1 1:0.017265186 3:1.3191349 5:0.018252764 
1 1:0.017683704 3:1.369703 5:0.017844706 
-1 3:0.3735275 4:0.012131325 5:0.013035562 
-1 3:1.3589795 5:0.016994066 
1 1:0.016071554 3:1.3786796 5:0.017718849 
1 3:1.0657497 4:0.0031086116 5:0.017044462 
-1 3:1.4990021 5:0.016348306 
-1 2:0.041450085 
1 2:0.030680996 4:0.0098954943 
1 1:0.020502639 2:0.044605507 
-1 1:0.0036575725 2:0.049281202 
-1 3:1.6022483 5:0.015853101 
-1 2:0.039226413 4:0.0026009074 
-1 3:1.2422081 4:0.0016559568 5:0.016445317 
-1 3:1.2684791 4:0.00074706994 5:0.016568947 
-1 2:0.032061398 4:0.0092353135 
-1 1:0.0017332501 2:0.008585849 3:2.5497347 5:0.0060148385 
-1 1:0.016157336 3:1.439115 5:0.017188346 
-1 2:0.044942576 
-1 3:0.94744355 4:0.0064936947 5:0.01483703 
-1 3:0.76622411 4:0.0087172849 5:0.014289128 
1 3:1.0492107 4:0.0033039036 5:0.017045574 
-1 3:0.48670671 4:0.011341482 5:0.012841073 
1 3:0.86467476 4:0.0066241938 5:0.01593448 
1 3:1.6491053 5:0.015345971 
-1 3:1.209572 4:0.0051489979 5:0.014435875 
1 1:0.012901663 3:1.3889275 5:0.016970499 
1 1:0.053725731 2:0.039325105 
1 3:1.0383318 4:0.0038128696 5:0.016445506 
1 3:0.94030882 4:0.0079387809 5:0.013720901 
-1 3:1.1349563 4:0.0057662849 5:0.014442939 
-1 2:0.048522759 
-1 2:0.035746403 4:0.0076833314 
-1 1:0.047891058 2:0.033643479 
1 1:0.021568552 2:0.050250823 
-1 1:0.026239193 2:0.042570538 
-1 3:0.81194706 4:0.0099324987 5:0.011917512 
-1 2:0.039289888 4:0.0073717536 
1 1:0.061116261 2:0.037090855 
-1 3:0.63130824 4:0.010735315 5:0.01246076 
1 3:0.76264187 4:0.0090663812 5:0.01357324 
1 1:0.044258062 2:0.032449153 
-1 1:0.011640056 2:0.034624176 
-1 1:0.028386406 3:2.7710646 5:0.0031682102 
-1 3:0.83800639 4:0.010007966 5:0.011650945 
-1 1:0.0096590939 2:0.023799074 
-1 3:0.91854797 4:0.0082038083 5:0.0132863 
-1 2:0.029247611 4:0.012353594 
-1 1:0.011096119 2:0.018784083 
-1 1:0.032349185 2:0.033666636 
1 3:0.45433636 4:0.012775403 5:0.0095441767 
-1 3:1.3506631 4:0.0025068664 5:0.015047557 
1 2:0.012645589 4:0.01571946 
-1 3:0.32771043 4:0.013962635 5:0.0073639957 
-1 3:1.1610877 4:0.004937254 5:0.014699698 
1 3:1.1391365 4:0.003615955 5:0.015800589 
1 1:0.057808874 2:0.0088204297 3:3.0370158 
1 2:0.048812757 4:0.0058078239 
-1 1:0.01336823 2:0.053237949 
-1 3:1.1055784 4:0.0065223975 5:0.013976339 
1 1:0.066229591 3:2.493915 5:0.0071166664 
1 3:0.97003307 4:0.0068269891 5:0.014389494 
-1 3:1.3046574 4:0.0033156471 5:0.015083942 
1 3:0.75565502 4:0.010121405 5:0.012130696 
-1 3:0.76915872 4:0.010972232 5:0.01065735 
1 3:0.91723421 4:0.0082276766 5:0.013410008 
1 2:0.01676097 4:0.015094687 
1 2:0.019535637 4:0.014997047 
-1 2:0.014263574 4:0.015167861 
1 2:0.014187335 4:0.015201488 
-1 2:0.012006163 4:0.01525799 
1 2:0.0084815471 4:0.015422329 
-1 2:0.012055059 4:0.015273809 
1 2:0.013693799 4:0.015205475 
-1 3:1.5922472 4:0.015364791 
1 3:1.5936997 4:0.0152518 
-1 2:0.0078200124 3:1.4984867 4:0.01493231 
1 2:0.0029114015 3:1.5602779 4:0.015093672 
-1 3:1.4971103 4:0.015198106 
-1 2:0.015960807 3:1.3617583 4:0.014499541 
1 2:0.00059481399 3:1.5411722 4:0.01510903 
1 3:1.5300853 4:0.015096127 
-1 2:0.00096232595 3:1.5279957 4:0.014978494 
1 3:1.6087514 4:0.015100379 
1 3:1.5529956 4:0.015233092 
-1 3:1.5110749 4:0.015047181 
1 3:1.5892357 4:0.015106157 
1 3:1.5928127 4:0.015178322 
-1 3:1.5757453 4:0.01530131 
-1 3:1.617976 4:0.015226443 
1 3:1.6246862 4:0.01523397 
1 3:1.5767698 4:0.015106795 
-1 3:1.6130492 4:0.015314686 
-1 3:1.8184522 4:0.015367526 5:0.0011852518 
1 3:1.6248353 4:0.015312431 
-1 3:1.8103375 4:0.015432168 5:0.00026494452 
-1 3:1.8664365 4:0.015312484 5:0.0015481387 
-1 3:1.7667262 4:0.015427054 
1 3:1.7611767 4:0.015368173 
1 3:1.824058 4:0.015353666 5:0.00051885485 
-1 3:1.7321959 4:0.015351478 5:0.00044155581 
1 3:1.8538475 4:0.015174976 5:0.0018678006 
1 3:1.703272 4:0.015351649 
-1 3:1.9464801 4:0.015007645 5:0.0028839206 
1 3:1.7546323 4:0.015351159 
-1 3:1.8985183 4:0.015121403 5:0.0022462031 
-1 3:1.7678344 4:0.015265218 5:0.00037501386 
1 3:1.8134658 4:0.015168299 5:0.001497486 
-1 3:1.7281113 4:0.015261888 
1 3:1.9647199 4:0.014833478 5:0.0034655857 
1 3:1.9292793 4:0.014886888 5:0.0032018819 
-1 3:1.6895799 4:0.015220869 
1 3:1.7849369 4:0.015208207 5:0.00039405126 
-1 3:1.8502397 4:0.015028355 5:0.0021394287 
1 3:1.7783153 4:0.015136956 5:0.00084360407 
1 3:2.0255378 4:0.014589478 5:0.0041983058 
-1 3:1.8573174 4:0.015136938 5:0.0015273799 
1 3:1.6860352 4:0.015209211 
-1 3:1.9569949 4:0.014711078 5:0.0037128212 
-1 3:1.9350909 4:0.014869859 5:0.0028397257 
-1 3:1.8315946 4:0.015107226 5:0.0011318543 
-1 3:1.7731025 4:0.015107219 5:0.0011281117 
1 3:1.7379381 4:0.015189705 5:0.00016321534 
-1 3:1.7884716 4:0.015019962 5:0.0019070626 
1 3:1.7823889 4:0.015108108 5:0.001049823 
1 3:1.857837 4:0.014803172 5:0.0030552542 
-1 3:1.9350565 4:0.014494827 5:0.0042405548 
1 3:1.9523362 4:0.014573992 5:0.0039578209 
1 3:1.8783725 4:0.0147614 5:0.0031956827 
-1 3:1.8304523 4:0.014898066 5:0.0026178476 
1 3:1.6684591 4:0.015148725 5:0.00039971646 
-1 3:1.6221623 4:0.01515263 
-1 3:1.6851203 4:0.015155941 5:1.0705883e-05 
1 3:1.9431298 4:0.014518092 5:0.0042615282 
1 3:1.7937771 4:0.014943395 5:0.0023215223 
1 3:1.9149206 4:0.014575666 5:0.003908219 
1 3:1.8824397 4:0.014756957 5:0.003234411 
-1 3:1.6394244 4:0.015170317 
1 3:1.6816032 4:0.015120348 5:0.00073923004 
1 3:1.6632288 4:0.015188971 
1 3:1.7379431 4:0.014990181 5:0.0019153796 
-1 3:1.6688434 4:0.015148792 
1 3:1.7906197 4:0.014861188 5:0.0026998745 
-1 3:1.9392976 4:0.014623547 5:0.0039076776 
1 3:1.6156975 4:0.015130014 
-1 3:1.6508358 4:0.015122751 
1 3:1.6837287 4:0.015122464 
-1 3:1.8951212 4:0.014760896 5:0.0033204094 
1 3:1.9852644 4:0.013659599 5:0.0063262551 
-1 3:1.8753948 4:0.014732598 5:0.003357288 
1 3:1.7865518 4:0.015015795 5:0.0015812243 
-1 2:0.0046884445 3:1.4715604 4:0.014895856 
-1 3:1.6644544 4:0.015111822 5:0.0002149925 
-1 3:1.7275829 4:0.014961956 5:0.0019196185 
1 3:1.7737107 4:0.014959013 5:0.0020574673 
-1 2:0.0068033079 3:1.4848879 4:0.014885338 
-1 3:1.7390958 4:0.015101307 5:0.00078623005 
1 3:1.7117752 4:0.015030557 5:0.0012033957 
-1 2:0.022563832 3:1.3659462 4:0.014363051 
1 3:1.6675879 4:0.015101818 5:0.00012348511 
-1 3:1.5976435 4:0.015086334 
1 3:1.9330981 4:0.014457966 5:0.0043887094 
-1 2:0.015606302 3:1.4167125 4:0.014702904 
1 3:1.6907297 4:0.015083283 5:0.00051968756 
1 2:0.007437288 3:1.4339942 4:0.014848549 
-1 3:1.6358849 4:0.01512449 5:0.00024938451 
1 2:0.011347368 3:1.4167616 4:0.014752653 
-1 2:0.010538206 3:1.45042 4:0.01479765 
1 3:1.6954627 4:0.015076805 5:0.00083661539 
-1 3:1.5973981 4:0.01509293 
-1 3:2.0990402 4:0.013492931 5:0.0067620411 
1 3:1.7516345 4:0.014918537 5:0.0021102755 
1 3:1.8683382 4:0.014395036 5:0.0043386774 
1 3:1.709812 4:0.015070731 5:0.00068040818 
-1 3:1.5642335 4:0.015074448 
-1 2:0.0047676514 3:1.4520198 4:0.01494317 
1 3:1.683472 4:0.014961608 5:0.0016528597 
1 3:1.5662515 4:0.015100869 5:0.00015237797 
-1 3:1.6290962 4:0.015056532 5:0.00093443391 
1 3:1.7520037 4:0.014961839 5:0.0019719919 
-1 3:1.6070326 4:0.015112412 
-1 2:0.00074025462 3:1.5651559 4:0.015077806 
1 3:1.7194473 4:0.01490767 5:0.0022106802 
-1 2:0.011380056 3:1.4098275 4:0.014868619 
1 2:0.027570054 3:1.2573176 4:0.014309726 
-1 2:0.0089038975 3:1.4645927 4:0.014912075 
1 2:0.0030239051 3:1.4643366 4:0.015042241 
-1 3:1.634219 4:0.01510312 5:0.00028873249 
1 3:1.5631336 4:0.015095059 
-1 3:1.5624439 4:0.015060549 
-1 2:0.0079119819 3:1.4742063 4:0.014939839 
1 3:1.6602997 4:0.01504654 5:0.0010404047 
-1 2:0.00071379184 3:1.5194943 4:0.015067681 
-1 2:0.0028838307 3:1.4854816 4:0.015030815 
1 3:1.8393918 4:0.014701159 5:0.0033909952 
1 2:0.018144837 3:1.4222968 4:0.014736652 
-1 3:1.5348358 4:0.015082412 
1 3:1.5982692 4:0.015091499 
-1 2:7.8774128e-05 3:1.5927168 4:0.01509394 
1 3:1.6384578 4:0.015060471 5:0.00061662882 
1 2:0.0057464588 3:1.5084663 4:0.014983122 
-1 3:1.5290029 4:0.01504567 
1 2:0.0012979948 3:1.5704401 4:0.015069337 
-1 2:0.035695638 3:1.2537741 4:0.014071475 
1 3:1.8096753 4:0.01462756 5:0.0035365561 
-1 3:1.546745 4:0.015059615 
1 3:1.7450149 4:0.014848975 5:0.0024292379 
-1 3:1.62459 4:0.015079911 
-1 3:1.8284752 4:0.014739938 5:0.00304996 
1 3:1.7137528 4:0.015006586 5:0.0012300765 
1 3:1.5920456 4:0.015074292 
-1 3:1.9459222 4:0.014449408 5:0.0044268764 
1 3:1.8295778 4:0.014692311 5:0.0032434461 
-1 3:1.58653 4:0.015057762 
1 3:1.7102283 4:0.014900524 5:0.0021385049 
-1 2:0.011495503 3:1.444627 4:0.014903679 
1 2:0.017647227 3:1.4327631 4:0.014794498 
-1 2:0.03198824 3:1.303157 4:0.014336512 
-1 3:1.5421401 4:0.015071333 
1 3:1.7018311 4:0.014967274 5:0.0017236175 
-1 3:1.9661422 4:0.014116183 5:0.0053318731 
-1 3:1.6683419 4:0.015071485 5:0.00084324013 
-1 3:1.7249001 4:0.014984922 5:0.0015719055 
1 3:1.6357892 4:0.015068798 5:0.00041980164 
1 3:1.5704587 4:0.015048054 5:0.00032492652 
-1 2:0.015287784 3:1.4204391 4:0.014864471 
1 3:1.7376982 4:0.014743416 5:0.0029393412 
1 3:1.7780059 4:0.014919098 5:0.002402661 
-1 3:1.6354177 4:0.015110108 5:0.00034745854 
1 2:0.013807604 3:1.4339368 4:0.014931621 
-1 2:0.010152373 3:1.5111285 4:0.015039799 
1 3:1.640845 4:0.015085726 5:0.0005685264 
1 3:1.6741179 4:0.015100027 5:0.00068987727 
-1 2:0.014447136 3:1.45461 4:0.014942059 
-1 3:1.7941268 4:0.014684838 5:0.0034879355 
1 3:1.8459154 4:0.014327935 5:0.0045651454 
1 3:1.7771047 4:0.014786556 5:0.0029204569 
-1 3:1.6570191 4:0.014991224 5:0.0016682459 
1 3:1.6062126 4:0.015038459 5:0.00089591714 
-1 3:1.6841527 4:0.014988819 5:0.0016359108 
1 3:1.8030008 4:0.014711958 5:0.0032683248 
-1 2:0.0047872935 3:1.5357208 4:0.015115673 
1 3:1.6060115 4:0.015107482 5:0.00023101331 
-1 3:1.8064286 4:0.014823537 5:0.0029464519 
1 3:1.8538068 4:0.014617648 5:0.0037294386 
-1 3:1.6691526 4:0.015124911 5:0.0005242972 
1 3:1.9435242 4:0.01417339 5:0.0052883839 
-1 2:0.0025600257 3:1.5534853 4:0.015118691 
1 3:1.6351754 4:0.01505963 5:0.0008588584 
1 3:1.8187057 4:0.014826636 5:0.0029325581 
-1 2:0.012592807 3:1.4812977 4:0.015049568 
-1 3:1.6982378 4:0.014959396 5:0.0019263426 
1 3:1.7975204 4:0.014855152 5:0.0027354748 
1 2:0.0073329688 3:1.5792103 4:0.015126902 
-1 2:0.010990466 3:1.5278273 4:0.0150879 
-1 3:1.6173959 4:0.015098801 5:0.00045728589 
1 2:0.0028469035 3:1.6417437 4:0.015122109 5:5.2435077e-05 
1 3:1.6849181 4:0.014876712 5:0.002543757 
-1 2:0.00251556 3:1.6477862 4:0.01515124 
-1 2:0.026940196 3:1.3464883 4:0.014750333 
-1 3:1.6379951 4:0.015074632 5:0.00097233465 
1 3:1.8956486 4:0.014338454 5:0.0046634287 
1 3:1.9495206 4:0.014445768 5:0.0045001422 
-1 2:0.0042187424 3:1.6170026 4:0.015145736 
1 3:1.6130633 4:0.015039835 5:0.0011519653 
1 3:1.8758462 4:0.014656737 5:0.0036206494 
-1 2:0.014192635 3:1.5318182 4:0.015065182 
-1 3:1.7461517 4:0.014696169 5:0.0033840819 
1 3:1.9047734 4:0.014321396 5:0.0046606861 
1 3:1.885782 4:0.014587974 5:0.0038770351 
-1 2:0.008584064 3:1.5732252 4:0.015098904 
1 3:1.836429 4:0.014794819 5:0.0029583366 
1 3:1.7610505 4:0.014977912 5:0.0021646945 
-1 2:0.016117475 3:1.5084569 4:0.015033303 
1 3:1.7457253 4:0.014834863 5:0.0026818134 
-1 2:0.02977483 3:1.3624404 4:0.014727099 
1 3:1.6728457 4:0.015083365 5:0.001237562 
1 3:1.8033208 4:0.014982155 5:0.0020730948 
-1 2:0.011949324 3:1.5838957 4:0.015091231 
1 3:1.7111769 4:0.014948917 5:0.0018780265 
-1 2:0.029066772 3:1.4325195 4:0.014805351 
1 3:1.9593348 4:0.013670545 5:0.0062225371 
1 3:1.9293319 4:0.014276759 5:0.0048129353 
1 3:1.7969679 4:0.014645362 5:0.0034763179 
1 2:0.00043301336 3:1.6504986 4:0.015068061 5:0.00073823643 
-1 2:0.011899111 3:1.5435194 4:0.015100596 
1 3:1.7437411 4:0.014896319 5:0.0025815716 
-1 3:1.755922 4:0.015024724 5:0.0019839168 
-1 3:1.6758039 4:0.014918656 5:0.0023250014 
1 3:2.0540659 4:0.013243558 5:0.0071317241 
1 2:0.016020941 3:1.5550224 4:0.015088209 
1 3:1.7833401 4:0.014817593 5:0.0030587376 
-1 2:0.0073248451 3:1.6323351 4:0.01514119 
1 3:1.7894083 4:0.014632792 5:0.0035699638 
-1 3:1.7373357 4:0.014863227 5:0.00264546 
1 3:1.9986542 4:0.013335161 5:0.0070455823 
-1 2:0.0092218063 3:1.6364317 4:0.015198914 
-1 2:0.020483434 3:1.5098288 4:0.015051841 
1 3:1.9994841 4:0.013486783 5:0.0067082882 
-1 2:0.016705428 3:1.5411848 4:0.015098676 
-1 3:1.9373301 4:0.013639253 5:0.0063654721 
1 3:1.7856805 4:0.014753339 5:0.0031321174 
-1 3:1.8066026 4:0.014660224 5:0.003595156 
1 3:1.9511969 4:0.014065942 5:0.0054556811 
1 3:1.9261836 4:0.014098114 5:0.0053293666 
1 3:1.8217614 4:0.014662302 5:0.00361568 
-1 3:1.860894 4:0.014644266 5:0.003962388 
-1 3:1.9478901 4:0.014240493 5:0.0050410306 
1 3:1.8299739 4:0.014742691 5:0.0031795584 
-1 2:0.011806396 3:1.5638265 4:0.015123451 
1 3:2.0347863 4:0.012991181 5:0.0075687803 
-1 3:1.7937132 4:0.014905393 5:0.002660128 
1 3:1.7002382 4:0.014957835 5:0.0022977576 
-1 2:0.011517962 3:1.61045 4:0.015148178 5:0.0002607851 
1 3:2.0715908 4:0.012876849 5:0.0078456584 
-1 3:2.1199295 4:0.012607138 5:0.0082500808 
1 3:1.8290837 4:0.014376884 5:0.0044569534 
-1 3:2.0249316 4:0.01303586 5:0.007526907 
1 3:1.8082593 4:0.014369199 5:0.0044425913 
-1 2:0.025060939 3:1.4269289 4:0.015009681 
-1 3:1.9308616 4:0.014022008 5:0.0057322053 
1 3:1.8172096 4:0.014382765 5:0.0044481336 
-1 2:0.010916598 3:1.5762689 4:0.015079441 5:0.00084646855 
1 3:2.4133693 4:0.0089325716 5:0.012113373 
-1 3:2.0556474 4:0.01282452 5:0.0078799782 
1 3:2.1832954 4:0.011092621 5:0.01012505 
1 3:2.1871563 4:0.011794701 5:0.0093195273 
-1 3:1.9130776 4:0.013676781 5:0.0063035259 
1 3:1.8418003 4:0.01403933 5:0.0054072812 
1 3:2.0301325 4:0.012448296 5:0.0084457132 
-1 3:1.7751971 4:0.014519954 5:0.0040481036 
-1 3:2.198523 4:0.010968836 5:0.010334183 
-1 3:2.540961 4:0.0061844283 5:0.013665989 
1 3:2.2717705 4:0.0088635839 5:0.012135949 
1 3:1.9216804 4:0.013934337 5:0.0059106719 
-1 3:1.929242 4:0.014244524 5:0.0054134898 
-1 3:1.8402076 4:0.014423941 5:0.0044441853 
-1 3:2.0848964 4:0.011724143 5:0.0093957166 
1 3:1.8634707 4:0.013766606 5:0.0060989474 
-1 3:2.0402119 4:0.012408113 5:0.0084758527 
1 3:2.1593763 4:0.010950365 5:0.010255887 
-1 3:2.9211461 4:0.0017712938 5:0.014958931 
1 3:1.9463893 4:0.012970879 5:0.0075519864 
-1 5:0.014997354 
-1 2:0.010691266 3:1.6816844 4:0.014899876 5:0.002491062 
1 3:1.7449366 4:0.014360802 5:0.0044666091 
-1 3:2.2192839 4:0.012120202 5:0.0090942359 
-1 2:0.033735136 3:1.4671053 4:0.015061479 
1 3:2.1582391 4:0.011641775 5:0.0095692655 
-1 1:0.18459912 5:0.0093351908 
-1 1:0.18372822 5:0.0093166227 
-1 1:0.18230241 5:0.0094830372 
-1 1:0.18409103 5:0.0092739405 
-1 1:0.1826487 5:0.0091042019 
-1 1:0.12548421 3:0.66591095 5:0.0095196197 
1 1:0.1272429 3:0.66619519 5:0.0094648572 
-1 1:0.11922372 3:0.65721805 5:0.0096811368 
-1 1:0.11877179 2:0.0008365939 3:0.66512522 5:0.0094395831 
-1 1:0.11453617 2:0.00443461 3:0.68556046 5:0.0090942444 
-1 1:0.11266788 2:0.0030814894 3:0.66934549 5:0.0095316246 
-1 1:0.10714807 2:0.0065803787 3:0.67627786 5:0.0093389692 
-1 1:0.10566423 2:0.0058564668 3:0.66509517 5:0.0096201288 
-1 1:0.10385102 2:0.007575812 3:0.66219484 5:0.0095521863 
-1 1:0.10135154 2:0.0082433471 3:0.65877332 5:0.0095659594 
-1 1:0.094206537 2:0.011594015 3:0.6558085 5:0.0096792399 
-1 1:0.09282386 2:0.01479403 3:0.67984501 5:0.0091540141 
1 1:0.095143148 2:0.011191709 3:0.65469833 5:0.010069933 
-1 1:0.090531704 2:0.011344454 3:0.6220758 5:0.010081403 
-1 1:0.092809773 2:0.012578615 3:0.62286784 5:0.0098733105 
-1 1:0.093418793 2:0.0091416245 3:0.58284866 5:0.010227222 
1 1:0.097612221 2:0.0092616119 3:0.56617608 5:0.010124301 
-1 1:0.09281519 2:0.012955136 3:0.58208174 5:0.0094751141 
-1 1:0.095087797 2:0.0081978387 3:0.5475827 5:0.010200341 
-1 1:0.095392767 2:0.011555715 3:0.5548835 5:0.0094803822 
1 1:0.10012643 2:0.017628903 3:0.61393401 5:0.008337025 
-1 1:0.094477088 2:0.011416249 3:0.57552741 5:0.0092293942 
-1 1:0.09315098 2:0.016082113 3:0.59570092 5:0.0083215523 
-1 1:0.095780914 2:0.0079994364 3:0.52231592 5:0.0095872047 
-1 1:0.095946319 2:0.011399012 3:0.53122563 5:0.0089290476 
-1 1:0.093057396 2:0.010197091 3:0.50564896 5:0.008949614 
-1 1:0.09542088 2:0.011667274 3:0.53245163 5:0.0084875263 
1 1:0.11007094 2:0.018503589 3:0.60312327 5:0.0073026913 
-1 1:0.092527594 2:0.015308917 3:0.57956907 5:0.0076572421 
-1 1:0.097862469 2:0.0082294657 3:0.50141536 5:0.0087529803 
1 1:0.096234229 2:0.013666833 3:0.54468675 5:0.0076910372 
-1 1:0.090902665 2:0.0068787277 3:0.49598813 5:0.0087019961 
-1 1:0.096981412 2:0.0048360108 3:0.43480865 5:0.0090473105 
-1 1:0.095457514 2:0.011193094 3:0.50299797 5:0.0077588583 
1 1:0.10058521 2:0.0031676568 3:0.42969418 5:0.0090166512 
-1 1:0.093763547 2:0.0066069183 3:0.43112274 5:0.0084531196 
-1 1:0.092166248 2:0.0070109194 3:0.44348952 5:0.008222047 
1 1:0.098514333 2:0.0082352694 3:0.44034797 5:0.0078788625 
-1 1:0.092993586 2:0.0075489555 3:0.4234135 5:0.0079857796 
1 1:0.10481687 2:0.014611095 3:0.500323 5:0.0067151955 
-1 1:0.099946892 2:0.0085921759 3:0.44665806 5:0.0076268536 
1 1:0.10111466 2:0.0021755667 3:0.38232772 5:0.0084117449 
-1 1:0.092736209 2:0.0093062119 3:0.42582694 5:0.0072953427 
-1 1:0.093162202 2:0.011577691 3:0.46888521 5:0.0067963373 
-1 1:0.097746317 2:0.0064253605 3:0.42347614 5:0.0075211619 
1 1:0.095541973 2:0.014751878 3:0.48337929 5:0.006156114 
-1 1:0.091432653 2:0.0041335117 3:0.39068176 5:0.0078461258 
1 1:0.092188386 2:0.0075912153 3:0.4196953 5:0.007157739 
-1 1:0.086742298 3:0.37761993 5:0.0085089065 
1 1:0.10301083 2:0.018101606 3:0.52415854 5:0.0052834896 
1 1:0.10018414 2:0.0091776881 3:0.44249265 5:0.0066641951 
-1 1:0.095507374 2:0.0033291164 3:0.38148075 5:0.0074601546 
1 1:0.099074575 2:0.0025881219 3:0.35561147 5:0.0074951002 
1 1:0.093628918 2:0.00048967637 3:0.33847176 5:0.007763889 
-1 1:0.087493855 3:0.27083123 5:0.0091834655 
1 1:0.098489347 2:0.0071811305 3:0.39144293 5:0.0064289419 
-1 1:0.09283456 2:0.0029313324 3:0.34864746 5:0.0072101293 
-1 1:0.10935305 2:0.016597914 3:0.42487276 5:0.0050744031 
1 1:0.10591965 2:0.024033794 3:0.55381985 5:0.003715765 
-1 1:0.087666215 3:0.239337 5:0.008868433 
-1 1:0.1009318 2:0.014433022 3:0.4438405 5:0.0050720264 
-1 1:0.1075978 2:0.023327891 3:0.53952472 5:0.0037221584 
-1 1:0.097658711 2:0.059650001 3:0.83648656 
-1 1:0.10617397 2:0.035261857 3:0.64979686 5:0.0019374805 
-1 1:0.10822476 2:0.038821246 3:0.60934498 5:0.0016553935 
1 1:0.11106176 2:0.033172401 3:0.58729429 5:0.0023051794 
-1 1:0.10071718 3:0.19741839 5:0.0078605491 
1 1:0.1083384 2:0.02353517 3:0.42298459 5:0.0037924565 
-1 1:0.080741867 3:0.22792212 5:0.0080743416 
-1 1:0.082244369 2:0.0031764382 3:0.28981969 5:0.0067365492 
-1 1:0.1035807 2:0.029471922 3:0.49702491 5:0.002812842 
1 1:0.11117709 2:0.019108429 3:0.41547265 5:0.0042378387 
-1 1:0.078982178 2:0.0074485336 3:0.34921681 5:0.0058906065 
1 1:0.1103319 2:0.031520161 3:0.52327092 5:0.0022625727 
-1 1:0.093670978 2:0.0018976275 3:0.28393775 5:0.00657595 
-1 1:0.1052869 2:0.028354212 3:0.43046422 5:0.0028609751 
-1 1:0.10677147 2:0.013036003 3:0.3123477 5:0.0049535094 
1 1:0.10737235 2:0.015784379 3:0.31657098 5:0.0045083015 
-1 1:0.078929834 2:0.0028914163 3:0.25210717 5:0.0065946078 
-1 1:0.10177991 2:0.013958983 3:0.30115784 5:0.0047124251 
-1 2:0.010535564 4:0.013587196 
1 1:0.095288591 2:0.053884617 3:0.64812239 
-1 1:0.085912428 2:0.053100166 3:0.62219916 
-1 1:0.10460268 2:0.02277858 3:0.39512435 5:0.0032750761 
1 1:0.11665494 2:0.016535545 3:0.27234383 5:0.0042693737 
-1 1:0.10228481 2:0.0180182 3:0.31066784 5:0.003961158 
-1 1:0.10917208 2:0.00059031741 3:0.15117069 5:0.00632675 
1 1:0.12943492 2:0.045837639 3:0.4456081 5:0.00088017201 
-1 1:0.11863432 2:0.025027306 3:0.27463209 5:0.003364081 
1 1:0.15337362 2:0.041727387 3:0.36320634 5:0.0019148716 
-1 1:0.098639724 2:0.0017257298 3:0.076247477 5:0.0066002097 
-1 1:0.10045681 2:0.030515821 3:0.26602306 5:0.0028584193 
1 1:0.11926477 2:0.031268283 3:0.31264457 5:0.0026201792 
-1 1:0.035647234 2:0.11546159 3:1.1926175 
1 1:0.13466398 2:0.016295686 3:0.22583647 5:0.0043038926 
1 1:0.11507234 2:0.029387941 3:0.30947386 5:0.0026963877 
1 1:0.089576778 2:0.04860784 3:0.51223397 
-1 1:0.079328234 2:0.010747617 3:0.20463 5:0.0055388413 
1 1:0.1377368 2:0.031731006 3:0.21252454 5:0.0031083793 
-1 1:0.099567148 2:0.062859191 3:0.62540565 
1 1:0.12357922 2:0.015129629 3:0.18071247 5:0.0046953847 
1 1:0.06128438 2:0.10249188 3:1.027668 
-1 1:0.088776224 2:0.037849298 3:0.41196951 5:0.0014186405 
1 1:0.080627024 2:0.08432166 3:0.86939969 
-1 1:0.086354683 2:0.074682221 3:0.7407482 
1 1:0.11249337 2:0.056496239 3:0.62180847 
-1 1:0.087269054 2:0.067754107 3:0.64256293 
-1 1:0.080546065 2:0.070861369 3:0.77907085 
1 1:0.11960994 2:0.012355774 3:0.11373092 5:0.0052760758 
-1 1:0.070214918 5:0.013786054 
1 2:0.10866475 3:2.0092038 
-1 1:0.095364969 2:0.070457542 3:0.67816876 
1 2:0.13504475 3:1.6546977 
1 1:0.14101004 2:0.084943254 3:0.57165154 
-1 1:0.099563745 5:0.0098666581 
1 1:0.1476409 2:0.058232682 3:0.36502175 5:0.0012072731 
1 1:0.1062235 2:0.054077395 3:0.44041531 5:0.00013626738 
-1 1:0.082458884 5:0.013241251 
-1 1:0.094050736 2:0.087046031 3:0.74982885 
-1 1:0.039638288 5:0.015841879 
-1 1:0.11116616 2:0.058388109 3:0.3675937 5:0.00034309093 
-1 1:0.10411111 2:0.06827359 3:0.60233458 
0.6392538874368084 1:0.14987851 2:0.085127372 3:0.48995634 
1 1:0.13482639 2:0.098212681 3:0.59000909 
1 2:0.027297809 3:2.7535957 4:0.0085561001 
1 1:0.15502927 2:0.069229497 3:0.34736947 5:0.0011440914 
-1 1:0.11467983 2:0.10059077 3:0.61154988 
1 1:0.10455694 5:0.0029806874 
-1 1:0.10362938 5:0.0025466127 
1 1:0.10489864 5:0.0029705446 
1 1:0.10247758 5:0.0032881669 
-1 1:0.09940739 5:0.0036878711 
-1 1:0.10348921 5:0.0029504816 
1 1:0.10780427 5:0.0026354969 
-1 1:0.099733893 5:0.0039950159 
1 1:0.069249445 3:1.4704583 5:0.0093034474 
-1 1:0.068539007 3:1.4839879 5:0.00907498 
-1 1:0.066951256 3:1.415425 5:0.0092825505 
1 1:0.080778699 3:1.4908971 5:0.0082276348 
1 1:0.074044785 3:1.4933149 5:0.0083924716 
-1 1:0.066934647 3:1.5110423 5:0.0085785989 
1 1:0.077942075 3:1.5244464 5:0.0081142593 
-1 1:0.06788626 3:1.5378682 5:0.0084571971 
1 1:0.066939204 3:1.5226454 5:0.0088059116 
1 1:0.058787871 3:1.4133371 5:0.0098401682 
1 1:0.057016944 3:1.4545957 5:0.0095271093 
-1 1:0.049792473 3:1.3918507 5:0.010398413 
1 1:0.064499889 3:1.433486 5:0.0093146678 
-1 1:0.054166473 3:1.4140875 5:0.0097830249 
1 1:0.07084476 3:1.4068341 5:0.0090217671 
-1 1:0.058880696 3:1.4257392 5:0.0097802395 
1 1:0.071937254 3:1.5190271 5:0.0078519754 
-1 1:0.060469106 3:1.4436508 5:0.0092068304 
1 1:0.07452923 3:1.5920825 5:0.0072267011 
-1 1:0.049797235 3:1.4332106 5:0.0098427419 
1 1:0.059782412 3:1.493456 5:0.008370667 
-1 1:0.050981668 3:1.430175 5:0.0096472445 
1 1:0.056642962 3:1.3704037 5:0.0099792549 
1 1:0.042409 3:1.1685957 5:0.012257098 
-1 1:0.043462838 3:1.3331385 5:0.010701628 
-1 1:0.043664428 3:1.3125204 5:0.010539171 
1 1:0.051555513 3:1.2620936 5:0.010826801 
-1 1:0.037374773 3:1.3067748 5:0.011258578 
1 1:0.043346206 3:1.1641475 5:0.012148113 
1 1:0.044703358 3:1.2998699 5:0.010477241 
-1 1:0.037871944 3:1.282563 5:0.011284238 
1 1:0.03258427 3:1.1868512 5:0.012184646 
-1 1:0.034016803 3:1.3207802 5:0.011068195 
1 1:0.055012881 3:1.3835951 5:0.009123554 
1 1:0.041801281 3:1.2548324 5:0.011194592 
-1 1:0.037551158 3:1.348331 5:0.010801585 
-1 1:0.045850623 3:1.3991306 5:0.009726451 
1 1:0.061371062 3:1.4005848 5:0.0088393621 
1 1:0.048647412 3:1.3998392 5:0.0096693513 
-1 1:0.029944703 3:1.2365823 5:0.012071451 
1 1:0.036478812 3:1.1538102 5:0.012410402 
-1 1:0.040260047 3:1.2586496 5:0.011262793 
1 1:0.048923941 3:1.3694286 5:0.0097916774 
-1 1:0.04336109 3:1.353597 5:0.010364833 
-1 1:0.052669857 3:1.4753029 5:0.0089655268 
-1 1:0.052938295 3:1.4107259 5:0.0094386645 
-1 1:0.053988726 3:1.4662404 5:0.0084983938 
1 1:0.067545827 3:1.5772552 5:0.0065203664 
1 1:0.036606634 3:1.1801046 5:0.012040286 
-1 1:0.03157108 3:1.2765462 5:0.011634504 
1 1:0.054788614 3:1.4812618 5:0.0082936221 
-1 1:0.038310757 3:1.151676 5:0.012375982 
1 1:0.057044802 3:1.281886 5:0.010166463 
1 1:0.034241603 3:0.92785469 5:0.013614783 
-1 1:0.042759507 3:1.2340886 5:0.011245707 
1 1:0.055878322 3:1.294729 5:0.010066231 
-1 1:0.030808529 3:1.0443804 5:0.013314031 
-1 1:0.051042967 3:1.2153812 5:0.011559129 
1 1:0.053859389 3:1.104782 5:0.012100355 
1 1:0.050633549 3:1.2846884 5:0.010811218 
1 1:0.036641763 3:1.0748019 5:0.012940341 
-1 1:0.022401792 3:1.120022 5:0.013332471 
1 1:0.059435198 3:1.320253 5:0.010309669 
-1 1:0.04918204 3:1.2768607 5:0.010764717 
1 1:0.061277694 3:1.230511 5:0.010757636 
-1 1:0.035643351 3:1.1457985 5:0.012892687 
-1 1:0.034144826 3:1.0063036 5:0.013511503 
0.870732089889744 1:0.057153303 3:1.6512139 5:0.0053510985 
-1 1:0.031297625 3:0.97779336 5:0.013586538 
1 4:0.014175092 5:0.0057767425 
-1 1:0.031790235 3:0.92296362 5:0.013885152 
-1 1:0.067534149 3:1.2042557 5:0.01056953 
1 4:0.0069980027 5:0.013961916 
1 1:0.064649408 2:0.0078285474 3:1.79327 5:0.0029420598 
1 1:0.037769221 3:1.0725453 5:0.01299242 
1 4:0.015012742 5:0.0013164351 
1 1:0.049762808 3:1.0376197 5:0.012550782 
-1 1:0.031370335 3:0.84273385 5:0.014182708 
1 4:0.013963802 5:0.0061587349 
1 1:0.042614825 3:0.90161045 5:0.013587524 
-1 1:0.023962611 3:0.73618528 5:0.014675139 
1 4:0.012695144 5:0.0087489884 
-1 1:0.015288903 3:0.74276481 5:0.014786246 
-1 4:0.013035574 5:0.0081332114 
1 4:0.010248493 5:0.011452422 
-1 1:0.043653378 3:0.95506839 5:0.013544917 
1 1:0.071745043 3:1.3552454 5:0.0086865242 
1 4:0.014558151 5:0.004531411 
1 1:0.057635944 3:1.2229707 5:0.010890153 
1 2:0.019135783 4:0.011441028 
1 4:0.011505249 5:0.010332501 
1 1:0.084134247 3:1.3889155 5:0.0083645608 
-1 4:0.010091108 5:0.011397838 
-1 4:0.01131758 5:0.01010899 
1 4:0.015050456 5:0.0023890748 
-1 1:0.048197892 3:1.3521376 5:0.0095062064 
1 1:0.079399065 3:1.169387 5:0.010401437 
-1 1:0.051933375 3:0.80209386 5:0.013985161 
1 1:0.084247525 3:1.1554537 5:0.010227201 
1 4:0.014907848 5:0.0033338173 
-1 1:0.0016345661 3:0.10889501 4:0.0038566203 5:0.014935366 
1 4:0.014279771 5:0.0053327093 
-1 1:0.0075814806 3:0.46382204 4:0.00072417807 5:0.015013361 
-1 1:0.054796269 3:0.93145916 5:0.013116099 
1 1:0.071498601 3:1.3141495 5:0.0094330057 
-1 3:0.22364758 4:0.0039151143 5:0.014596084 
-1 1:0.0043075487 3:0.2685734 4:0.0031712344 5:0.014847929 
1 1:0.053930768 3:0.78409925 5:0.014294722 
-1 1:0.040448176 3:0.86094495 5:0.014051025 
1 1:0.06608051 3:1.2208395 5:0.011025095 
1 4:0.014279735 5:0.0054167971 
1 1:0.034516257 3:0.37815931 4:0.00034001614 5:0.015574325 
-1 1:0.015626482 3:0.6271863 5:0.015014273 
-1 1:0.079652258 2:0.0021124521 3:1.7037189 5:0.0049449947 
-1 1:0.019759753 3:0.40339485 4:0.0013857639 5:0.015187709 
1 1:0.022615589 3:0.37238076 4:0.001937628 5:0.015213772 
-1 1:0.04881067 3:0.82606692 5:0.014391205 
1 1:0.065899899 3:0.82913774 5:0.014052129 
1 1:0.011333034 3:0.10318007 4:0.0051946888 5:0.014408209 
-1 1:0.050755097 3:0.77504258 5:0.014666062 
1 1:0.054860279 3:0.74773284 5:0.014631304 
1 4:0.01451228 
-1 1:6.00428e-05 3:0.57879636 4:0.0023080781 5:0.014832648 
1 4:0.010321669 5:0.0077798152 
1 4:0.012517821 
1 1:0.031904804 3:0.37344864 4:0.0010510186 5:0.015301547 
1 2:0.057079115 4:0.0057762431 
1 4:0.012568479 5:0.00064371738 
1 1:0.056918436 3:0.70392308 5:0.014348974 
-1 1:0.023364116 3:0.32974498 4:0.0022242826 5:0.014093787 
1 4:0.012093234 5:0.0023798193 
1 4:0.012144189 5:0.0011339955 
-1 4:0.012708177 
1 4:0.010312779 5:0.0026797423 
1 4:0.010935625 5:0.0028214327 
1 2:0.067294597 
1 4:0.011050192 5:0.00012500781 
-1 4:0.011434311 5:0.0030580491 
1 4:0.0089281257 
-1 4:0.012746549 5:0.0044952172 
1 4:0.0096695555 
-1 4:0.011186492 
1 4:0.0095709889 5:0.0035935965 
-1 4:0.0070330516 5:0.0090914764 
-1 4:0.0092813781 5:0.0021691325 
1 4:0.0088652066 
1 4:0.010172221 5:0.0020891064 
1 4:0.010990884 
-1 4:0.010980392 5:0.00037522462 
1 1:0.014572109 2:0.092133502 
1 1:0.013192304 2:0.092567441 
1 1:0.012594764 2:0.092144179 
-1 1:0.014208902 2:0.093909095 
1 1:0.024044462 2:0.094963441 
-1 1:0.009598744 2:0.091841531 
1 1:0.01287488 2:0.092833113 
1 1:0.023377986 2:0.0935353 
1 2:0.071885678 3:0.043242414 4:0.0030474403 
1 2:0.069881414 3:0.082124749 4:0.0037778001 
-1 2:0.068568774 3:0.061655648 4:0.0036238302 
1 2:0.065843111 3:0.053205404 4:0.0031316413 
-1 2:0.063103349 3:0.07033809 4:0.0039009425 
1 2:0.061111913 3:0.066350692 4:0.0036566408 
-1 2:0.06190724 4:0.0028910801 
1 2:0.057479268 3:0.0014379345 4:0.0020139241 
-1 2:0.05663932 3:0.10028057 4:0.0045848339 
-1 2:0.054628653 3:0.090976742 4:0.0040256996 
1 1:7.5249998e-05 2:0.05663372 4:0.00091998233 
1 2:0.053378324 3:0.026825156 4:0.0022044253 
-1 2:0.05330374 3:0.072998277 4:0.0037831715 
1 1:0.0020328698 2:0.053539489 4:0.0010289036 
-1 2:0.053831702 4:0.0012109942 
1 1:0.0095926924 2:0.057998032 
1 1:0.0024070391 2:0.052709115 4:0.00043024566 
1 2:0.053456986 3:0.013377314 4:0.0016053119 
-1 2:0.052880939 3:0.098288833 4:0.0037214373 
1 1:0.0019989375 2:0.053109957 3:0.081123588 4:0.0015671844 
1 2:0.051465084 4:0.0016988399 
1 2:0.053065357 3:0.001688039 4:0.00204425 
-1 2:0.056119597 3:0.013569457 4:0.0027116121 
1 1:0.0046434656 2:0.045414988 3:0.038186836 4:0.0012416866 
-1 2:0.053119767 3:0.10201975 4:0.0034839882 
-1 1:0.0044598628 2:0.054395805 
1 1:0.007125838 2:0.053979117 
-1 1:0.0014080897 2:0.050959245 4:0.0010239181 
1 1:0.0094685605 2:0.052185845 3:0.025210005 4:0.00030673101 
1 1:0.00066206862 2:0.052034244 3:0.066183708 4:0.0014700396 
-1 2:0.051219415 3:0.080684485 4:0.0024776879 
1 1:0.00644322 2:0.048627691 3:0.057173803 4:0.00086240694 
1 1:0.0069444347 2:0.057670911 
1 2:0.052956277 4:0.0019231767 
-1 2:0.054454169 3:0.15890335 4:0.0046320433 
-1 2:0.051764014 3:0.190853 4:0.0037900646 
1 1:0.0065193046 2:0.04900304 3:0.030497012 4:0.00037496215 
1 1:0.0040778889 2:0.051096566 4:0.00089118936 
-1 2:0.051068004 3:0.022866485 4:0.0018734756 
1 1:0.010347429 2:0.04831458 4:2.4646861e-05 
1 1:0.0013750774 2:0.049704774 3:0.065983959 4:0.0017942436 
1 2:0.051004107 3:0.090633651 4:0.0014618359 
-1 2:0.056103423 3:0.14170627 4:0.0042647861 
1 1:0.0003493714 2:0.051352112 3:0.14819443 4:0.0017178074 
1 2:0.051731858 3:0.04119737 4:0.0015965503 
1 2:0.054116008 3:0.077916585 4:0.0036558383 
-1 2:0.057520457 3:0.17057673 4:0.0049802304 
-1 2:0.057291021 3:0.23243989 4:0.0044953327 
1 2:0.055313493 3:0.15601045 4:0.0022514986 
-1 2:0.056673335 3:0.044023652 4:0.0031077625 
1 2:0.057005504 3:0.12158922 4:0.0037899152 
1 2:0.056814082 3:0.20620897 4:0.0044362802 
-1 2:0.056912048 3:0.17100097 4:0.0041637373 
-1 2:0.056140039 3:0.016814116 4:0.0022880887 
-1 2:0.05374751 4:0.0016246061 
1 1:0.0022321745 2:0.050828174 4:0.00068576465 
1 2:0.056707078 3:0.13328102 4:0.0054202547 
-1 2:0.055841441 3:0.076864095 4:0.0045573897 
1 2:0.049592427 4:0.0016066698 
-1 2:0.053336543 3:0.029592347 4:0.0034475326 
1 1:0.0029323704 2:0.050127798 4:0.0014268802 
-1 2:0.052652073 3:0.083456273 4:0.0036855163 
1 2:0.05166913 3:0.037157927 4:0.0019028753 
1 2:0.050363819 3:0.022978876 4:0.0019942321 
-1 2:0.053162306 3:0.028420145 4:0.0025858205 
-1 2:0.054340207 3:0.073060183 4:0.0025083518 
1 1:0.0013846536 2:0.051595164 3:0.0923023 4:0.0019728699 
1 1:0.0026889488 2:0.053855225 3:0.079265714 4:0.0015525965 
1 2:0.051171672 4:0.0015430441 
-1 2:0.053518448 3:0.096508224 4:0.0046213135 
1 1:0.0032633022 2:0.05309783 3:0.088162599 4:0.0016727025 
1 2:0.053131174 3:0.028608518 4:0.0017759635 
-1 2:0.058374184 3:0.22798006 4:0.0053545665 
1 1:0.012203542 2:0.049022592 3:0.046111514 4:0.00048631155 
-1 2:0.051531186 3:0.037117687 4:0.0021112646 
1 1:0.012122666 2:0.054976258 
1 1:0.0049061459 2:0.050814565 4:0.0010446148 
-1 2:0.05257055 3:0.084135218 4:0.0024972405 
-1 1:0.0034837738 2:0.051262571 3:0.02743043 4:0.0010457785 
1 1:0.021696717 2:0.04763602 3:0.025488524 
1 1:0.0059862534 2:0.050127593 4:0.00047293928 
1 1:0.0031485409 2:0.051779066 4:0.0012099152 
-1 2:0.052257857 3:0.044751026 4:0.0030838519 
-1 2:0.036328489 3:0.86330142 4:0.012292932 
1 1:0.002218691 2:0.051745046 3:0.070249857 4:0.0017922078 
-1 2:0.053014307 3:0.15484225 4:0.003508599 
1 1:0.017488248 2:0.052892276 
1 1:0.0056766697 2:0.050616047 3:0.088021238 4:0.0016400512 
-1 1:0.0022564665 2:0.056276797 4:0.0009359172 
-1 2:0.006526353 3:1.6040661 4:0.015035873 5:0.00088088753 
-1 2:0.054980345 3:0.15269323 4:0.0032750358 
-1 1:0.003717504 2:0.047583595 3:0.10809721 4:0.0023022392 
1 1:0.021990646 2:0.048020083 
-1 1:0.01436744 2:0.050544393 
1 1:0.028386781 2:0.049101935 
1 2:0.05165207 3:0.055631578 4:0.0022978968 
1 2:0.028555521 3:0.90198241 4:0.012598327 
1 2:0.051165809 4:0.0016448833 
1 1:0.0031750529 2:0.046755913 4:1.5337902e-05 
-1 2:0.057561699 3:0.20017328 4:0.0060755103 
1 1:0.010265155 2:0.049472296 3:0.008740945 4:0.00071216591 
-1 2:0.054413108 3:0.015649763 4:0.002839331 
1 1:0.0069673501 2:0.04997345 4:0.00020702628 
1 2:0.049441846 3:0.0065836073 4:0.0020617705 
1 2:0.056554633 4:0.0014147129 
1 2:0.054140283 3:0.070077943 4:0.0025613994 
-1 2:0.048888491 4:0.0032999988 
-1 2:0.049889576 3:0.029757503 4:0.0019515804 
1 2:0.039522352 3:0.62611625 4:0.0098663271 
-1 1:0.0029818941 2:0.047946801 4:9.6225965e-05 
1 1:0.0035938152 2:0.046142055 4:0.00071868065 
-1 1:0.0016716427 2:0.045020824 4:0.00054004394 
1 1:0.012708718 2:0.054235289 3:0.048827387 4:0.00069172422 
-1 2:0.023594288 3:1.3923827 4:0.014855481 
-1 3:3.0119321 4:0.0074734509 5:0.014807156 
-1 2:0.040816598 3:0.57882869 4:0.0085923925 
1 1:0.019275032 2:0.044338104 3:0.0035897986 
-1 1:0.00019877278 2:0.045830607 3:0.41420255 4:0.0060193142 
-1 1:0.040911089 5:0.0012714234 
1 1:0.060052956 
-1 3:2.9275002 4:0.007812536 5:0.014209955 
1 5:0.010711002 
-1 1:0.015951802 5:0.0049692962 
-1 2:0.017031923 3:2.6714305 4:0.012958688 5:0.010840801 
-1 3:2.9691205 4:0.0067705715 5:0.014560144 
-1 1:0.0021809516 2:0.058237902 3:0.5542382 4:0.0067364647 
1 1:0.041155795 5:0.004510367 
1 2:0.054287055 3:1.1777692 4:0.013486184 
-1 1:0.0089046406 5:0.010956281 
-1 2:0.019225294 3:1.4821767 4:0.014993218 
-1 2:0.046537349 3:1.1698809 4:0.013743407 
1 5:0.013699054 
1 1:0.088527455 
-1 4:0.00371246 5:0.015467435 
-1 1:0.025061166 2:0.057306796 3:0.26011555 4:0.0025489857 
-1 2:0.02840015 3:2.5419992 4:0.01260967 5:0.010185437 
1 2:0.059593099 3:1.2428543 4:0.013766994 
-1 1:0.047012851 5:0.00073008995 
-1 1:0.042792636 2:0.053322815 3:0.14766276 4:5.4182927e-05 
-1 2:0.069363819 3:1.5143008 4:0.015197726 
-1 2:0.070631258 3:1.3239848 4:0.014417302 
-1 3:2.9291152 4:0.0075049701 5:0.014053142 
-1 1:0.019901449 2:0.056795727 3:0.2092089 4:0.0027135785 
1 3:2.8911047 4:0.0072925165 5:0.014149472 
1 2:0.072491169 3:1.8142409 4:0.016031374 
1 2:0.050839848 3:1.4071434 4:0.014847227 
-1 2:0.055218616 3:1.3864926 4:0.014688041 
1 1:0.1026324 
-1 2:0.059651613 3:1.6899816 4:0.015789709 
1 4:0.002118618 5:0.015709489 
1 1:0.00065756128 3:3.0600807 4:0.013359336 5:0.016478111 
1 3:3.0419492 4:0.013655897 5:0.01623319 
-1 4:0.013721366 5:0.01617789 
1 4:0.013422367 5:0.016426809 
-1 1:2.0904188e-05 4:0.013717097 5:0.016181509 
-1 1:0.00473992 4:0.013795012 5:0.016115137 
-1 1:0.0082809678 4:0.013723568 5:0.016176022 
-1 1:0.011026179 4:0.013824543 5:0.016089811 
-1 1:0.0145371 4:0.013581497 5:0.016295488 
1 1:0.017231802 4:0.0136594 5:0.016230243 
-1 1:0.01505396 4:0.013991202 5:0.015945101 
-1 1:0.015918669 4:0.014626436 5:0.015364484 
-1 1:0.016623455 4:0.014926807 5:0.015072838 
-1 1:0.016287352 4:0.016190702 5:0.013428934 
1 1:0.019750709 4:0.01556169 5:0.013665166 
-1 1:0.017829255 4:0.015446999 5:0.013939164 
-1 1:0.019019856 4:0.01552246 5:0.013541719 
1 1:0.022498667 4:0.015409409 5:0.012979528 
-1 1:0.01786386 4:0.015901531 5:0.012429215 
-1 1:0.021298677 4:0.015477848 5:0.012305707 
1 1:0.022110724 4:0.015429126 5:0.011965716 
1 1:0.020001403 4:0.015083653 5:0.012750443 
-1 1:0.019278675 4:0.014424675 5:0.013817244 
-1 1:0.024843859 4:0.014470165 5:0.013011351 
1 1:0.038991716 4:0.012940955 5:0.012166368 
-1 1:0.029360326 4:0.013875495 5:0.012816815 
1 1:0.10206471 4:0.0020959285 5:0.016590595 
-1 2:0.071360616 3:1.3648243 
-1 2:0.07271853 3:1.5803137 
-1 1:0.008235632 2:0.056314408 3:1.1762386 5:0.0030906418 
1 1:0.024325029 4:0.013448442 5:0.013387278 
-1 1:0.019399475 4:0.014056028 5:0.012893028 
-1 2:0.063753596 3:1.3741749 
1 1:0.007249967 2:0.067794309 3:1.4717095 
-1 1:0.0037129614 2:0.061254778 3:1.408213 
1 1:0.0085013791 2:0.064668472 3:1.4090755 
1 1:0.056361847 4:0.012048775 5:0.011677383 
-1 2:0.068295987 3:1.2439911 
-1 2:0.065439572 3:1.2900594 
1 1:0.0058509736 2:0.063853837 3:1.2526339 5:0.00011301999 
1 2:0.065297494 3:1.2723701 
-1 2:0.068734777 3:1.2384015 
1 2:0.067353646 3:1.331775 
-1 2:0.070855684 3:1.220821 
-1 2:0.068876011 3:1.3007152 
1 2:0.068313422 3:1.2735611 
1 2:0.071089343 3:1.2026523 
-1 2:0.065413838 3:1.0926613 5:0.0012839566 
-1 2:0.070392696 3:1.2205655 
1 2:0.068980925 3:1.1393539 5:9.4709639e-05 
1 2:0.068484842 3:1.2494088 
-1 2:0.074161064 3:1.1143922 5:5.6882912e-05 
1 2:0.069262767 3:1.2290289 
-1 2:0.072955626 3:1.1919949 
1 1:0.084381376 2:0.047991586 3:2.3403763 
1 1:0.083106657 2:0.047333496 3:2.3339524 
1 1:0.082521374 2:0.047228505 3:2.3297581 
-1 1:0.080199222 2:0.047094069 3:2.3490297 
-1 1:0.099170044 2:0.044020904 3:2.3153474 
1 1:0.10550952 2:0.043970925 3:2.3161335 
1 1:0.091549773 2:0.061590286 3:2.502538 
1 1:0.081720767 2:0.063586263 3:2.505677 
-1 1:0.075898327 2:0.054418186 3:2.4106803 
-1 1:0.046575145 2:0.04800865 
-1 1:0.050515387 2:0.042626342 
-1 1:0.056570391 2:0.038908662 
1 1:0.035077609 2:0.073228797 
-1 1:0.048914155 2:0.04726065 
1 1:0.05128632 2:0.048444372 
1 1:0.049558662 2:0.040933893 
-1 1:0.036310605 2:0.04812391 
1 1:0.090691379 2:0.003377218 
1 1:0.072928495 2:0.036332614 
-1 1:0.062204268 2:0.029488814 
1 1:0.038318483 2:0.060908748 
-1 1:0.041105164 2:0.036066878 
-1 1:0.027764882 2:0.060586332 
1 1:0.056460042 2:0.049178494 
-1 1:0.034782102 2:0.054198319 
-1 1:0.029966342 5:0.0062685551 
1 3:1.3593655 4:0.012516887 5:0.008298678 
-1 1:0.073810064 2:0.00082084313 
1 1:0.098929342 2:0.046059683 
1 1:0.1126247 2:0.0089064805 
-1 1:0.03598669 5:0.010057755 
1 3:2.1801231 5:0.015197745 
1 3:1.7788861 4:0.0065312014 5:0.013512134 
-1 3:2.4905145 5:0.015066825 
1 3:1.8962221 4:0.0043249688 5:0.014390004 
-1 3:2.6135449 5:0.015299245 
1 3:1.4987243 4:0.0096070225 5:0.011537075 
1 2:0.011984689 3:1.2218905 4:0.012987136 5:0.0075218137 
-1 3:2.0604376 4:0.0054526543 5:0.014318305 
-1 3:1.7397334 4:0.0069576138 5:0.01328915 
1 1:0.0057373429 3:2.4816071 5:0.01417439 
-1 3:1.605925 4:0.0077674357 5:0.012891848 
1 3:1.5885774 4:0.0081181139 5:0.012660332 
1 1:0.094747192 2:0.03089437 
1 1:0.0025890642 3:2.1158663 5:0.015209047 
1 3:2.0634169 4:0.00053089759 5:0.015043006 
1 1:0.064216698 2:0.053599497 
-1 2:0.062549633 3:0.062231477 4:0.011874965 
-1 3:2.4796855 5:0.015148681 
1 3:2.0296727 4:0.002191157 5:0.014843059 
1 1:0.12515809 5:0.0012394359 
-1 3:2.2410382 5:0.014926266 
1 1:0.014456983 3:2.310367 5:0.014461415 
1 1:0.0041024314 2:0.057791002 3:0.33427895 4:0.013649672 
-1 2:0.061025646 3:0.27848462 4:0.01326252 
1 1:0.020427085 2:0.056826296 3:0.16258859 4:0.012103458 
-1 3:1.730466 4:0.0071157342 5:0.013270123 
1 3:2.0412905 5:0.015103519 
1 2:0.060615552 3:0.37790772 4:0.013935879 
-1 2:0.00069704193 3:1.6118818 4:0.011445259 5:0.010472478 
1 1:0.011347908 2:0.065825557 3:0.14278721 4:0.011932663 
1 1:0.068188062 2:0.059509166 
-1 2:0.061853191 3:0.1956744 4:0.013026421 
1 3:1.4051319 4:0.010431254 5:0.010790537 
1 1:0.06099978 2:0.040801226 
1 1:0.016526302 2:0.057502094 3:0.35331729 4:0.013935193 
-1 2:0.060500267 3:0.26567046 4:0.013443729 
-1 2:0.050601323 3:0.82089731 4:0.015251795 5:0.00041780388 
1 2:0.044721521 3:0.58744679 4:0.014967565 
1 2:0.057798536 3:0.4806401 4:0.014586016 
-1 2:0.069384239 3:0.30139848 4:0.013560354 
-1 2:0.069762984 3:0.3111395 4:0.013636564 
-1 2:0.064027062 3:0.23339547 4:0.0133464 
-1 1:0.0079912019 2:0.056975377 3:0.26412192 4:0.013689421 
1 1:0.01384625 2:0.056999023 3:0.32336649 4:0.014002474 
1 1:0.020194961 2:0.06946468 3:0.023320905 4:0.01078824 
-1 2:0.06636655 3:0.10051055 4:0.012196211 
1 2:0.04371903 3:0.88538649 4:0.014558492 5:0.00369635 
1 1:0.0049858858 2:0.063592678 3:0.40492571 4:0.014195035 
1 2:0.061737478 3:0.61509194 4:0.015027743 
1 2:0.047208345 3:0.69279362 4:0.015079873 
-1 2:0.04647687 3:1.0238747 4:0.015145631 5:0.0028922942 
1 2:0.06282846 3:0.46564458 4:0.01440786 
1 2:0.064529332 3:0.38969798 4:0.013974135 
-1 2:0.072558068 3:0.49882248 4:0.01445752 
-1 2:0.069154942 3:0.25058136 4:0.013262117 
1 1:0.035764642 2:0.066302385 4:0.010082625 
1 2:0.038960375 3:0.77966213 4:0.014753464 5:0.0027089705 
1 2:0.06314552 3:0.22787003 4:0.013370299 
-1 2:0.067144791 3:0.2073734 4:0.01316162 
1 2:0.035714862 3:0.90733399 4:0.014287486 5:0.0045687824 
1 1:0.058782984 2:0.064113074 4:0.0089284684 
1 2:0.061803871 3:0.27847382 4:0.013627545 
-1 2:0.076121102 3:0.27099599 4:0.013493903 
1 2:0.059318762 3:0.36337656 4:0.014241613 
1 2:0.066920384 3:0.29095618 4:0.013625081 
1 2:0.076844072 3:0.1952278 4:0.012695764 
-1 2:0.05926963 3:0.64917306 4:0.015097282 
-1 2:0.064717668 3:0.27847273 4:0.013872753 
-1 2:0.053481267 3:0.6838012 4:0.015099641 
1 1:0.011523954 2:0.060024607 3:0.013356628 4:0.011963893 
-1 2:0.060308474 3:0.52703195 4:0.014905628 
-1 3:1.7738035 4:0.0062579769 5:0.014516522 
-1 3:1.7673101 4:0.006255894 5:0.014562484 
-1 3:1.7747197 4:0.0059829412 5:0.014755164 
1 3:1.7753012 4:0.0057161094 5:0.014988187 
1 3:1.7592708 4:0.0061346431 5:0.014730308 
1 4:0.0088212582 5:0.012171727 
0.2595253528913837 4:0.0085913006 5:0.012323933 
1 4:0.0082172704 5:0.012573384 
1 4:0.0077556047 5:0.012856794 
-1 4:0.0075164164 5:0.012982568 
1 4:0.006464646 5:0.013574616 
-1 3:0.11757565 4:0.0055099348 5:0.013980793 
1 4:0.005356034 5:0.014125073 
-1 3:0.064818033 4:0.007173459 5:0.01317537 
-1 3:0.096646589 4:0.0049896047 5:0.014156434 
-1 3:0.34281538 4:0.0057328516 5:0.013910766 
1 3:0.13416153 4:0.0040097132 5:0.014574569 
1 4:0.0070620889 5:0.013244175 
-1 3:0.14359702 4:0.0071328462 5:0.013195595 
-1 4:0.0064713015 5:0.013559425 
1 3:0.028993559 4:0.0057788349 5:0.014020849 
-1 3:0.081890937 4:0.00596281 5:0.013772387 
1 1:0.005669165 3:0.11213415 4:0.0012311653 5:0.015207581 
-1 4:0.0055094674 5:0.014015452 
1 3:0.18577392 4:0.0060631706 5:0.013795347 
1 3:0.101597 4:0.0072247646 5:0.013161891 
-1 3:0.01475884 4:0.006904808 5:0.013316502 
1 4:0.0053269325 5:0.014130774 
-1 4:0.00568883 5:0.013880567 
1 4:0.0064096206 5:0.013659576 
-1 3:0.14584368 4:0.0067970366 5:0.013396485 
1 3:0.021434358 4:0.0061631267 5:0.013792456 
-1 4:0.0070495139 5:0.013243759 
1 4:0.0063728083 5:0.013587991 
1 4:0.0075455311 5:0.012974683 
-1 3:0.36038293 4:0.0071354286 5:0.013201516 
1 3:0.083869191 4:0.0050520055 5:0.014267238 
-1 4:0.0076156527 5:0.01297623 
1 4:0.0054154746 5:0.014135568 
-1 4:0.0058169337 5:0.013952587 
1 4:0.0059628907 5:0.013970117 
-1 4:0.006532458 5:0.013503131 
1 1:0.0027214884 4:0.0035702583 5:0.014850959 
-1 4:0.0068158459 5:0.013452331 
-1 3:0.37640262 4:0.0058517885 5:0.013942131 
-1 4:0.0076477066 5:0.013149988 
1 1:0.0049741886 4:0.0049315084 5:0.014603756 
1 4:0.0055862309 5:0.014030616 
-1 4:0.0053311707 5:0.014023154 
1 4:0.0063724456 5:0.013855013 
-1 3:0.32062183 4:0.0061498654 5:0.013730298 
1 3:0.20567844 4:0.0049707591 5:0.014263667 
1 4:0.004137981 5:0.014521609 
1 4:0.0053003384 5:0.014149448 
1 3:0.15468054 4:0.0064890503 5:0.013560264 
-1 3:0.25760168 4:0.007303668 5:0.01310217 
1 3:0.00018266042 4:0.0048311182 5:0.014381009 
1 4:0.0060241368 5:0.013850328 
-1 3:0.016282377 4:0.0073660682 5:0.013068121 
1 1:0.022241285 2:0.056905988 
1 4:0.0065750584 5:0.013714605 
1 3:0.080942769 4:0.0060668675 5:0.013726131 
-1 4:0.009317604 5:0.011761713 
-1 3:0.063326653 4:0.0058588653 5:0.013826341 
-1 4:0.012959881 5:0.0079425304 
1 3:0.2025416 4:0.005319696 5:0.014072792 
-1 3:0.15644132 4:0.0047917623 5:0.014229915 
-1 4:0.0077854902 5:0.012891752 
1 1:0.0025156879 2:0.054774967 
1 4:0.0089660068 5:0.012260599 
1 4:0.0065601309 5:0.013495575 
1 4:0.0057457865 5:0.013863548 
-1 3:0.14069012 4:0.0077538485 5:0.012958096 
-1 3:0.21911031 4:0.0065748092 5:0.013484953 
1 3:0.26233558 4:0.0050056353 5:0.014208777 
1 1:0.022024404 2:0.044447989 
1 2:0.046726333 4:0.00050097838 
-1 2:0.049072488 4:0.0017644572 
-1 1:0.0096448705 2:0.047445 
1 1:0.0047493397 2:0.053239697 
1 1:0.058995588 3:0.939807 5:0.011090794 
1 1:0.029420707 2:0.052752621 3:2.9927692 
1 4:0.0080365903 5:0.012734066 
1 1:0.020200643 2:0.048709549 
1 4:0.0094746924 5:0.012109477 
1 1:0.049186921 3:1.0436881 5:0.011694478 
1 1:0.059233708 2:0.042261412 
1 3:0.16601869 4:0.009029542 5:0.012157426 
1 1:0.030314606 2:0.050283492 
-1 3:0.26470692 4:0.0042837117 5:0.014427275 
1 4:0.0088851975 5:0.012304992 
1 3:0.076477228 4:0.0064842166 5:0.013543092 
1 4:0.0073410085 5:0.013081291 
1 4:0.011112329 5:0.010075836 
1 1:0.038353774 2:0.053652158 
1 1:0.030838037 2:0.052675475 
-1 4:0.0074939983 5:0.012993954 
1 4:0.0081075896 5:0.012646947 
-1 3:0.26736046 4:0.0076122287 5:0.013000573 
-1 4:0.0082103663 5:0.012556893 
1 3:0.15218684 4:0.0056461602 5:0.013926545 
1 1:0.028229436 2:0.050190645 3:3.030681 
-1 1:0.012173731 2:0.058325445 3:3.047586 
-1 1:0.021604263 2:0.061094832 
1 1:0.023643247 2:0.065149018 
1 3:0.03367953 4:0.007741041 5:0.012848244 
-1 3:0.26830035 4:0.0093289445 5:0.012319411 
-1 2:0.057730783 4:0.0096906502 
-1 1:0.027278329 2:0.057283006 3:3.1282381 
-1 2:0.032464587 4:0.013199513 
-1 3:0.037641107 4:0.0067285582 5:0.013445443 
1 3:0.01291131 4:0.0069913322 5:0.012170552 
-1 1:0.058210264 2:0.0032384815 3:2.431398 
-1 1:0.020681561 2:0.061256208 
1 1:0.018492729 2:0.09593483 
1 1:0.019634008 2:0.096399167 
1 1:0.023241877 2:0.097064029 
1 1:0.022067497 2:0.097789397 
1 1:0.019790071 2:0.095610844 
-1 1:0.020982113 2:0.097254604 
1 1:0.020036802 2:0.095605343 
1 1:0.014027782 2:0.069515626 
1 1:0.012824273 2:0.066540288 
1 1:0.0056893517 2:0.060741294 
-1 1:0.0026767985 2:0.060337343 
1 1:0.004521406 2:0.05776012 
1 1:0.00061531125 2:0.057328568 
1 2:0.056628862 
-1 2:0.058261983 
1 2:0.053324074 
-1 2:0.054826838 
1 2:0.057097975 
-1 2:0.052580642 
1 2:0.051892129 
-1 2:0.056965592 
1 2:0.055820235 
1 2:0.051384919 
1 2:0.04990219 
-1 2:0.057790801 
1 2:0.052245284 
1 2:0.05237415 
1 2:0.050816648 
1 2:0.052918337 
-1 2:0.058562066 
1 2:0.054148714 
-1 2:0.053641844 
1 2:0.049365229 
-1 2:0.053599562 
1 2:0.052623471 
-1 2:0.055332609 
1 2:0.054155333 
1 2:0.056780509 
1 2:0.054823987 
-1 2:0.056265898 
1 2:0.049415344 
1 2:0.051715948 
-1 2:0.047308811 
1 2:0.054168673 
-1 2:0.052438105 
1 2:0.050210109 
1 2:0.056435775 
-1 2:0.049869253 
1 2:0.054591411 
1 2:0.05220286 
-1 2:0.055752302 4:0.00031417149 
-1 1:0.026042466 5:0.0077077231 
1 2:0.055278062 4:0.00055538395 
-1 2:0.05448146 4:0.00040636612 
-1 1:0.0020990237 2:0.030059318 
1 2:0.058951298 4:0.002067997 
1 2:0.05559636 4:0.0034799215 
1 2:0.055957292 4:0.0020219871 
-1 2:0.06458873 4:0.0043509707 
-1 2:0.056488452 4:0.00038078998 
1 2:0.055991608 4:0.0016869413 
-1 2:0.056062805 4:0.0017305279 
1 2:0.058508107 4:0.0016056203 
-1 2:0.054287679 4:0.00016971158 
1 2:0.052854784 
1 2:0.053804473 
1 2:0.052405862 
-1 2:0.051234388 4:0.0010668831 
-1 2:0.057505671 4:0.0027501463 
1 2:0.048090479 
-1 2:0.053369659 
1 2:0.053127258 
1 2:0.045379721 
-1 2:0.057299226 4:0.0009772222 
-1 2:0.058240272 4:0.0011184817 
1 2:0.050589404 
1 2:0.046508647 
1 2:0.060826929 4:0.0015298835 
-1 2:0.059156669 4:0.0054069483 
-1 2:0.060293427 4:0.0020778318 
-1 2:0.047617251 
1 2:0.060879833 4:0.0034044863 
1 2:0.062825031 4:0.0053078213 
-1 2:0.058404394 4:0.002813482 
-1 2:0.060751698 4:0.004749277 
-1 2:0.036461125 
1 2:0.059274437 4:0.00092230889 
-1 2:0.054146095 4:0.0019456781 
1 2:0.040533057 3:0.69870239 4:0.014487706 
-1 2:0.053720313 4:0.00036779664 
-1 1:0.007550888 2:0.026321377 
1 2:0.047310944 
-1 2:0.057306131 4:0.0018192556 
-1 2:0.053876213 4:9.8263503e-05 
-1 1:0.03189832 2:0.044163826 
-1 1:0.0078575715 5:0.0084587763 
1 3:2.194268 4:0.0096663649 5:0.014010119 
-1 1:0.00663167 5:0.0072801866 
1 1:0.031662465 2:0.041245999 
-1 2:0.0465668 
-1 2:0.0047505461 3:1.7060891 4:0.018358338 5:0.0055908108 
-1 2:0.022200918 3:1.5246811 4:0.018279536 5:0.0024569851 
1 2:0.000571556 3:1.784075 4:0.012957542 5:0.0098053536 
-1 2:0.051652422 4:0.00037712714 
1 3:1.8085915 4:0.013224601 5:0.010017207 
-1 3:1.795276 4:0.018466823 5:0.0064460867 
-1 3:1.9796373 4:0.011640001 5:0.011890836 
1 3:1.8677305 4:0.012215603 5:0.010673909 
1 2:0.00012492728 3:1.6262312 4:0.014683261 5:0.0073832162 
1 3:2.0051863 4:0.011256477 5:0.012160404 
-1 3:1.7912714 4:0.015064904 5:0.0088244688 
-1 3:2.0631967 4:0.010734013 5:0.01297217 
-1 2:0.065088808 4:0.0059942774 
1 3:2.0048805 4:0.0090256084 5:0.013150276 
1 1:0.03028189 5:0.015749484 
-1 3:2.0689436 4:0.013177167 5:0.011712728 
-1 3:2.20528 4:0.0090610212 5:0.013910851 
1 3:2.1416637 4:0.0089377022 5:0.013329207 
-1 2:0.010985859 3:1.4526578 4:0.018039101 5:0.0021234594 
1 3:1.8363794 4:0.01357224 5:0.010259584 
-1 2:0.075871702 3:0.15956729 4:0.0084596036 
1 3:1.7800613 4:0.012936491 5:0.010395105 
1 2:0.050342361 3:0.82546659 4:0.015697442 
-1 2:0.043629539 3:0.88039794 4:0.016146562 
1 1:0.013268548 3:2.8944445 5:0.015777325 
1 1:0.072316099 5:0.01275815 
-1 3:2.3338239 4:0.009105449 5:0.014844975 
-1 2:0.0024872727 3:1.6486348 4:0.013171566 5:0.0089200129 
1 2:0.013353873 3:1.5297702 4:0.013245573 5:0.0068966959 
-1 3:1.9722145 4:0.015066836 5:0.010730384 
-1 1:0.0029677865 2:0.041548448 
1 1:0.079096255 5:0.0081335451 
1 3:2.3260607 4:0.0063873986 5:0.015168336 
1 3:1.8739786 4:0.012948279 5:0.010908158 
-1 3:2.5874448 4:0.0040678175 5:0.017198995 
1 3:2.1737087 4:0.0071514742 5:0.014489604 
-1 1:0.067975322 5:0.004368988 
-1 2:0.063522549 3:0.022634315 4:0.0091749155 
1 1:0.066106841 5:0.0091202649 
1 2:0.051424295 3:1.0136627 4:0.016836774 
1 1:0.059736976 3:3.0399166 5:0.012090404 
1 1:0.021452807 3:2.7104172 5:0.01488271 
1 1:0.051706315 5:0.013161391 
1 3:2.7022901 5:0.015890117 
-1 3:2.0345744 4:0.012729287 5:0.012441217 
-1 2:0.066758458 4:0.0065393954 
1 1:0.040371269 5:0.012938727 
1 2:0.015029121 3:1.2504748 4:0.013132461 5:0.0038247926 
1 3:2.3600393 4:0.0029044809 5:0.01569839 
-1 3:2.1767563 4:0.0056004994 5:0.015 
-1 2:0.04526517 4:0.0028252017 
-1 2:0.039402194 4:0.0016393825 
1 3:2.665716 4:0.00074669114 5:0.017139774 
-1 3:1.9881272 4:0.011421634 5:0.01309888 
1 1:0.007309494 3:3.0346985 5:0.01464071 
1 1:0.017733999 5:0.012148624 
1 3:2.4011809 4:0.0042028819 5:0.015197789 
-1 3:2.3390339 4:0.0066122828 5:0.01487891 
-1 3:2.8264137 5:0.015283796 
1 1:0.01783573 5:0.011245803 
-1 3:1.6732629 4:0.014355225 5:0.0094048024 
-1 2:0.048715302 4:0.0029713166 
-1 2:0.065137909 3:0.098527018 4:0.011523592 
1 3:1.87785 4:0.010548021 5:0.011598643 
1 3:2.9053017 5:0.01515252 
1 2:0.035752489 3:1.0041442 4:0.0089666868 
-1 3:2.7760687 5:0.015158755 
1 1:0.024310811 3:2.9706798 5:0.013384835 
1 1:0.043244998 5:0.010759239 
-1 2:0.043337539 4:0.0030753515 
-1 3:2.7179027 4:0.0019074597 5:0.013830051 
-1 2:0.011127193 3:1.6763033 4:0.012376519 5:0.0062005537 
1 2:0.041085567 3:1.0464378 4:0.012893497 
-1 1:0.038233661 3:1.9692414 4:0.0067697583 5:0.020103989 
-0.9928911011803395 1:0.037043572 3:1.9631125 4:0.0068928459 5:0.02006212 
-1 1:0.036877304 3:1.9765643 4:0.0066223591 5:0.020153024 
1 1:0.036091401 3:0.47274532 4:0.0055486741 5:0.01958396 
-1 1:0.036493696 3:0.47668073 4:0.0050395944 5:0.019353512 
0.882823576093369 1:0.039316247 3:0.47250044 4:0.0043883943 5:0.019251541 
-1 1:0.038200243 3:0.45788762 4:0.004344244 5:0.018976475 
1 1:0.039978327 3:0.48281893 4:0.0040687368 5:0.018800215 
-1 1:0.036125357 3:0.39981168 4:0.004570704 5:0.01840287 
1 1:0.047752667 3:0.49350948 4:0.0016529851 5:0.018307505 
1 1:0.042079626 3:0.44458265 4:0.0030028064 5:0.0182247 
-1 1:0.039309931 3:0.35356273 4:0.0034778901 5:0.017916836 
1 1:0.051202641 3:0.49046212 4:0.00019840551 5:0.017747901 
-1 1:0.034617297 3:0.32176786 4:0.0043163221 5:0.017821803 
1 1:0.041357502 3:0.27217836 4:0.0043854453 5:0.017139475 
-1 1:0.037446263 3:0.25889958 4:0.004334535 5:0.017308419 
1 1:0.042054881 3:0.22653302 4:0.0042854903 5:0.016947658 
1 1:0.030745817 3:0.14836291 4:0.0059697071 5:0.016862741 
-1 1:0.024926578 3:0.14865424 4:0.0064441586 5:0.016953931 
-1 1:0.034937492 3:0.1513411 4:0.0053556399 5:0.016695578 
1 1:0.041814948 3:0.21337186 4:0.0037837064 5:0.016850692 
1 1:0.032326106 3:0.058074829 4:0.0065142099 5:0.015973118 
-1 1:0.02232645 4:0.0098923678 5:0.01424141 
-1 1:0.023095784 4:0.010230832 5:0.013690156 
1 1:0.040079406 4:0.0064888134 5:0.014562211 
1 1:0.01421471 4:0.0098984743 5:0.014805491 
-1 1:0.005899875 4:0.011746828 5:0.013756581 
-1 1:0.014708734 4:0.0095056471 5:0.014923807 
1 1:0.042705954 4:0.0055994541 5:0.015138752 
-1 1:0.0089089389 4:0.01013922 5:0.01385925 
1 1:0.060491058 3:0.025663998 4:0.0027635729 5:0.015362503 
-1 1:0.0017246044 4:0.010502425 5:0.013828384 
1 1:0.050192193 4:0.0060539951 5:0.014188199 
-1 1:0.012707706 4:0.0091463043 5:0.01394613 
-1 1:0.057810217 4:0.0032948097 5:0.015085579 
1 1:0.060639814 4:0.0030434105 5:0.015078755 
-1 1:0.033808985 4:0.0066959412 5:0.014373908 
-1 1:0.062158766 4:0.0027568371 5:0.015073903 
1 1:0.066953122 4:0.0022310315 5:0.015074162 
-1 1:0.054356074 4:0.0045455839 5:0.014749529 
1 1:0.08636612 4:0.0057784935 5:0.013842406 
1 1:0.054631738 4:0.0081853963 5:0.012610552 
-1 1:0.036803194 4:0.0089962447 5:0.012353239 
-1 1:0.028774716 4:0.012215876 5:0.0089049593 
1 1:0.047745171 4:0.011778663 5:0.0093294052 
1 1:0.040836333 4:0.010747271 5:0.010526694 
-1 1:0.043181101 4:0.0086893119 5:0.012389334 
1 1:0.054805723 4:0.0087761022 5:0.012170202 
-1 1:0.0031977336 4:0.014146006 5:0.0063714556 
1 1:0.056334324 4:0.0073676771 5:0.013110146 
-1 1:0.040288659 4:0.0083400176 5:0.012742023 
-1 1:0.042884854 4:0.0083064019 5:0.012753175 
1 1:0.063714725 4:0.0095801875 5:0.011563763 
1 1:0.058749149 4:0.0060134275 5:0.013779443 
-1 1:0.047447762 4:0.0070907767 5:0.013283422 
1 1:0.042218583 4:0.009709884 5:0.011633168 
-1 1:0.038960531 4:0.0075345554 5:0.013192132 
1 1:0.05983228 4:0.0078524511 5:0.012817377 
-1 1:0.063983347 4:0.0069421202 5:0.013327422 
1 1:0.068475477 4:0.0064892495 5:0.013539195 
-1 1:0.052130336 4:0.0076596791 5:0.01292622 
-1 1:0.063852315 4:0.0067438404 5:0.013441943 
1 1:0.077326707 4:0.006777423 5:0.013382368 
1 1:0.036860877 4:0.013687806 5:0.0066755483 
1 1:0.027082399 4:0.013832976 5:0.0062495123 
1 1:0.055100635 4:0.0092615663 5:0.011880015 
-1 1:0.052428491 4:0.0092177204 5:0.011924491 
-1 1:0.071107266 4:0.007093738 5:0.013283629 
1 1:0.078852574 4:0.0077633313 5:0.012858048 
-1 1:0.050859412 4:0.010449444 5:0.010890228 
-1 1:0.073827592 4:0.0084015878 5:0.012509416 
-1 1:0.074590457 4:0.010119907 5:0.011151768 
-1 1:0.096937042 4:0.0068160652 5:0.01337031 
-1 3:2.0935869 4:0.020432355 
-1 3:2.0920903 4:0.020423798 
-1 3:2.0955672 4:0.020443608 
-1 3:2.0964193 4:0.020448425 
-1 3:2.0868826 4:0.020393665 
-1 4:0.020432657 
1 4:0.020231134 
-1 4:0.020295419 
1 4:0.020197055 
-1 4:0.02020882 
1 4:0.020529154 
1 4:0.020531964 
-1 4:0.020532603 
1 4:0.020304098 
-1 4:0.02026865 
1 4:0.020300616 
1 4:0.020336865 
-1 4:0.020094663 
1 4:0.020322649 
-1 4:0.020515659 
1 4:0.020359169 
-1 4:0.020973523 
-1 4:0.020432188 
1 4:0.020254754 
1 4:0.02038211 
-1 4:0.02033358 
-1 4:0.020679653 
1 4:0.020350957 
1 4:0.020152311 
-1 4:0.020143545 
-1 4:0.02002072 
1 4:0.020035444 
-1 4:0.020165591 
1 4:0.019975477 
1 4:0.020314551 
-1 4:0.019919123 
1 4:0.02024618 
1 4:0.020105993 
1 4:0.019885357 
-1 4:0.019931182 
1 4:0.019738718 
-1 4:0.01960498 
-1 4:0.019648625 
1 4:0.019668504 
-1 4:0.019314113 
1 4:0.019162534 
-1 4:0.019151994 
1 4:0.019218327 
-1 4:0.01946551 
-1 4:0.019224376 
1 4:0.019115131 
-1 4:0.018836049 
1 4:0.019022805 
-1 4:0.018636559 
1 4:0.018703525 
-1 4:0.018754245 
-1 4:0.018814962 
1 4:0.018753596 
1 4:0.018601023 
-1 4:0.018593633 
1 4:0.01849369 
1 4:0.018506753 
1 4:0.018507794 
1 4:0.018466664 
-1 4:0.018452357 
1 4:0.018242161 
-1 4:0.018122457 
1 4:0.017936424 
1 4:0.017944662 
1 4:0.018116016 
1 4:0.017936422 
-1 4:0.018028786 
1 4:0.017574483 
1 4:0.017701798 
-1 4:0.01780979 
-1 4:0.017606067 
1 4:0.017377783 
-1 4:0.017416188 
1 4:0.017384687 
1 4:0.017389845 
1 4:0.017352995 
1 4:0.01734885 
-1 4:0.01730584 
-1 4:0.017139283 5:0.00029730138 
1 4:0.016880675 5:0.0007736335 
1 4:0.017398441 
-1 4:0.017592476 
1 4:0.016968007 
-1 4:0.017017205 
1 4:0.016961171 
-1 4:0.017078226 5:0.0011036723 
1 4:0.016374042 5:0.0017816908 
1 4:0.016745657 5:0.00011119705 
1 4:0.016578186 
1 4:0.016839574 5:0.0009349582 
-1 4:0.016731545 
1 4:0.016110078 5:0.0024219165 
1 4:0.016537999 5:0.0010681826 
-1 4:0.016739612 5:0.00021589655 
1 4:0.016393713 5:0.00079131999 
-1 4:0.016538601 
1 4:0.016464556 
-1 4:0.016213528 5:0.001472302 
1 4:0.016375823 
-1 4:0.016709602 
-1 4:0.016374185 
1 4:0.016264435 
-1 4:0.016541361 5:0.00036609653 
1 4:0.015755673 5:0.0036537909 
-1 4:0.016602193 5:0.00097543116 
-1 4:0.016479916 5:0.0004679312 
1 4:0.016179983 
1 4:0.015452828 5:0.0039785215 
-1 4:0.016557339 5:0.001051539 
1 4:0.016186312 5:0.0008429706 
-1 4:0.016035772 5:0.0022406722 
1 4:0.015878769 5:0.0012021392 
-1 4:0.016000173 5:0.0025673788 
-1 4:0.016000831 5:0.001780356 
1 4:0.015845649 5:0.0017170332 
-1 4:0.01645744 
1 4:0.015889862 5:0.0019413191 
1 4:0.01546404 5:0.0039300707 
1 4:0.016167921 5:0.00056976053 
-1 4:0.016485838 5:0.0015023395 
-1 4:0.016323344 5:0.0015382754 
1 4:0.015712 5:0.0025504329 
1 4:0.016104296 5:0.00030199829 
-1 4:0.015987411 5:0.0022772713 
1 4:0.015147342 5:0.0041172319 
1 2:0.10404568 4:0.0050792405 
1 2:0.07944943 4:0.0093984235 
-1 2:0.050390732 4:0.012801646 
1 2:0.11199172 4:8.8724408e-05 
-1 2:0.078502728 4:0.0097394655 
1 2:0.070500071 4:0.010477674 
1 2:0.093204064 4:0.0069175367 
-1 2:0.10280303 4:0.0056252367 
0.5374034724639039 2:0.087470865 4:0.0082168083 
1 2:0.059523887 3:0.86425367 4:0.0097486868 
-1 2:0.035570017 3:1.1601689 4:0.012900959 
1 2:0.061168016 3:0.74295006 4:0.0089321262 
1 2:0.024246935 3:1.277123 4:0.013857616 
-1 3:1.7473327 4:0.014980988 5:0.0013589298 
-1 2:0.055624443 3:0.86380856 4:0.010200104 
1 2:0.064822885 3:0.72375489 4:0.00798365 
1 2:0.060794653 3:0.80760839 4:0.009022346 
1 1:0.099226799 5:0.0044653432 
-1 2:0.057497462 3:0.83214919 4:0.0097718875 
1 2:0.0022870162 3:1.5847046 4:0.01498009 
1 2:0.052985264 3:0.88764506 4:0.010095392 
1 2:0.034130486 3:1.0379297 4:0.012279398 
1 2:0.044654035 3:0.99138462 4:0.011435376 
-1 2:0.074229317 3:0.45812507 4:0.0047856474 
1 2:0.074332863 3:0.40494719 4:0.0035882759 
1 3:1.4822617 4:0.014883063 
-1 2:0.077660762 3:0.5800409 4:0.0058520141 
1 2:0.051340022 3:0.86042432 4:0.0096848062 
1 2:0.032961144 3:1.1340026 4:0.012661649 
-1 2:0.047463452 3:0.95891183 4:0.010883347 
-1 2:0.037343169 3:1.1219384 4:0.012281449 
1 2:0.030445582 3:1.1856731 4:0.012842139 
1 2:0.03658946 3:1.122137 4:0.01237354 
-1 2:0.057306169 3:0.80316376 4:0.0092030614 
-1 2:0.022795154 3:1.2912161 4:0.01370533 
1 2:0.030692466 3:1.2089175 4:0.013064884 
1 2:0.03057174 3:1.1795717 4:0.012856451 
-1 2:0.042323319 3:1.0134989 4:0.011754325 
1 2:0.035092077 3:1.1001042 4:0.012333669 
-1 2:0.051211909 3:0.84667051 4:0.010085001 
1 2:0.052237595 3:0.8967418 4:0.010084187 
1 2:0.040782031 3:1.0253465 4:0.011820543 
1 2:0.030483598 3:1.2039642 4:0.013169284 
-1 2:0.056734216 3:0.94689189 4:0.010442878 
1 2:0.034469229 3:1.1239116 4:0.012587297 
1 2:0.03165014 3:1.1990165 4:0.012935039 
-1 2:0.056992736 3:0.80881067 4:0.0095553869 
1 2:0.05757869 3:0.81438906 4:0.0088526526 
-1 2:0.079352904 3:0.26069927 4:0.0024993 
-1 2:0.071632274 3:0.5637799 4:0.0061811334 
1 2:0.038431317 3:1.0727284 4:0.011931971 
1 3:1.959174 4:0.014509259 5:0.0038331372 
0.01408507305855149 2:0.046532142 3:1.0026669 4:0.011159903 
-1 2:0.0059807068 3:1.554917 4:0.014775476 
1 2:0.024420962 3:1.3642128 4:0.013693371 
1 2:0.05317008 3:0.94085979 4:0.009873432 
1 2:0.044264991 3:1.02826 4:0.011460582 
-1 2:0.052525828 3:0.79486226 4:0.0094391875 
1 2:0.042643405 3:1.0127455 4:0.01140204 
-1 2:0.058607029 3:0.80182161 4:0.0091059477 
1 2:0.061098079 3:0.72049607 4:0.0080785042 
-1 3:2.1307267 4:0.013961231 5:0.0056117233 
-1 2:0.0068498831 3:0.85011684 4:0.012365565 
