svm_type epsilon_svr
kernel_type linear
nr_class 2
total_sv 608
rho 0.00098845
SV
1 3:0.31329304 4:0.015039488 
0.3220766433062839 1:0.19149816 2:0.010186941 5:0.00048460035 
0.9729398897467176 1:0.096414921 2:0.055093216 
-1 2:0.10178681 3:0.027020883 
-1 2:0.055111626 3:0.44956072 4:0.003284062 
-1 2:0.064274845 3:0.20722645 
-0.1915905506893104 1:0.019581178 5:0.014847198 
1 3:2.9508643 4:0.012663281 5:0.010297968 
-1 2:0.044132954 3:1.5199726 4:0.012469973 
-1 1:0.043773404 2:0.062317646 3:0.066870426 
1 3:1.5405217 4:0.015196505 5:0.0013360058 
0.91655849806788 2:0.1244629 3:3.1149779 
-1 2:0.12041753 4:0.0037133806 
1 1:0.0091986103 3:0.85682586 5:0.01572285 
-1 2:0.065858109 
-1 2:0.047418718 4:0.0041469153 
1 1:0.017935395 2:0.085437063 
1 1:0.041718941 2:0.078850806 
1 1:0.026154244 2:0.084468726 
1 1:0.01674542 2:0.087436271 4:0.00011800092 
1 1:0.016468643 2:0.085586133 
1 1:0.036882622 2:0.08114715 
1 1:0.023815551 2:0.08356235 
1 1:0.0091100885 2:0.086741459 4:0.0014712081 
-1 1:0.012915658 2:0.086110223 4:0.00032222452 
-1 1:0.03890926 2:0.049041715 
-1 1:0.03079305 2:0.044226239 
-1 1:0.032090287 2:0.042792222 
-1 1:0.018433795 2:0.033264927 
-1 1:0.049164011 2:0.025640197 
1 1:0.057383552 3:3.0364081 5:0.0016291997 
1 3:1.5502179 4:0.003527368 5:0.014619158 
-1 2:0.075620213 4:0.0058132147 
1 1:0.074846206 3:2.9520973 5:0.0037369942 
-1 1:0.0030813878 2:0.069396767 4:0.00042781559 
-1 2:0.057025387 4:0.007921704 
-1 2:0.05773437 4:0.0060918496 
1 1:0.047485629 2:0.031588676 3:3.1408075 
1 2:0.076509942 4:0.011901988 
-1 2:0.066703687 4:0.012990396 
-1 2:0.048983884 4:0.0081519231 
1 3:3.0025326 4:0.00034014948 5:0.015193891 
-1 2:0.056041602 3:0.70073636 4:0.011975371 
1 5:0.012735733 
0.6573983756265098 5:0.012097202 
1 3:1.7839447 4:0.01374154 5:0.0089216135 
1 4:0.014564226 5:0.0059000001 
1 4:0.015606898 5:0.00080769555 
0.2968588284647911 4:0.015126871 5:0.0021666746 
1 4:0.014730343 5:0.0046994501 
1 4:0.014261658 5:0.0055565557 
1 4:0.014792578 5:0.0035851297 
1 4:0.014869039 5:0.00022993928 
1 4:0.012208259 5:0.0054052173 
1 4:0.011151177 5:0.0034400242 
1 4:0.010444536 5:0.00027380277 
1 4:0.010577553 5:0.003031876 
1 4:0.0088809491 5:0.0050864335 
1 4:0.0093843133 5:0.00090708161 
1 4:0.0085115284 5:0.0031842934 
1 2:0.083059095 4:0.0090689059 
1 2:0.083760873 4:0.009086604 
1 2:0.085326103 4:0.0087405488 
1 2:0.085089729 4:0.0087728026 
1 2:0.084727948 4:0.0085985454 
-1 3:0.67275754 5:0.016964157 
1 2:0.084824114 4:0.0087323569 
1 2:0.085480063 4:0.0085063387 
1 2:0.083744128 4:0.0082861975 
1 2:0.084627766 4:0.0089437491 
1 2:0.085523109 4:0.0085060188 
-1 2:0.082521839 4:0.0087839369 
-1 2:0.046817242 3:0.46263848 4:0.0083172275 
-0.8340932182217727 2:0.049268896 3:0.38980889 4:0.0071425959 
-1 2:0.0427595 3:0.40176234 4:0.011970157 
-1 2:0.046269584 3:0.14617243 4:0.0033336202 
-0.688938262814045 1:0.01895945 2:0.044503246 3:0.22327477 4:0.0016220534 
-1 2:0.064513175 3:0.56653784 4:0.008595777 
-1 1:0.030350958 2:0.056480821 
-1 2:0.062730233 3:0.59485744 4:0.0068708483 
1 1:0.14326782 5:0.00017378464 
1 2:0.0071963866 
1 2:0.17947696 5:0.0073026595 
1 3:1.1456062 4:0.014266586 5:0.0065983349 
1 4:0.014874167 5:0.0019395164 
1 4:0.014376079 5:0.0043028045 
1 1:0.087719643 3:1.5056208 5:0.0011588447 
-1 1:0.070199634 2:0.060820998 
-1 1:0.061314689 2:0.090531495 
-1 1:0.084282988 3:2.9570121 5:0.015407039 
1 3:1.0357356 4:0.017353944 5:0.0012785348 
1 1:0.0087416814 3:0.022426714 4:0.0083627005 5:0.013008194 
1 4:0.013358966 5:0.0076381475 
1 3:0.00010166197 4:0.0085503266 5:0.012825893 
1 4:0.012307844 5:0.0087692682 
-1 2:0.017162859 4:0.0070798599 
1 1:0.00021155191 2:0.075594574 
1 1:0.0076204414 2:0.077569573 
1 2:0.076940851 
1 1:0.0039694478 2:0.073968873 
1 1:0.015947151 2:0.077266626 
1 2:0.077868027 
1 2:0.076885426 
1 1:0.0078573466 2:0.078078464 
1 1:0.014245152 2:0.075852276 
1 1:0.0064000977 2:0.07756178 
1 1:0.0034183104 2:0.075196308 
-1 1:0.011726515 2:0.081503766 
-1 2:0.076460163 3:0.1414846 4:0.0060316128 
1 1:0.067431032 2:0.0018245836 5:0.00031660121 
1 1:0.091436192 2:0.0027534937 5:0.0008083076 
1 1:0.094653432 2:0.29322236 3:2.3413097 4:0.0074071289 5:0.0046013755 
1 1:0.1139397 2:0.34766356 3:2.4783419 4:0.0058537086 5:0.0092003736 
0.05650425214917954 1:0.1452811 2:0.12786704 3:1.835657 4:0.0057580931 
1 2:0.30123204 5:0.010910751 
-1 2:0.013693799 4:0.015205475 
1 1:0.1826487 5:0.0091042019 
0.7016736874806145 1:0.095780914 2:0.0079994364 3:0.52231592 5:0.0095872047 
1 1:0.087666215 3:0.239337 5:0.008868433 
0.04794724128966851 1:0.14101004 2:0.084943254 3:0.57165154 
1 1:0.14987851 2:0.085127372 3:0.48995634 
1 1:0.15226364 2:0.080318361 3:0.44449736 5:0.00015374853 
-1 1:0.099733893 5:0.0039950159 
-1 2:0.057079115 4:0.0057762431 
1 4:0.010312779 5:0.0026797423 
1 4:0.011050192 5:0.00012500781 
1 1:0.014572109 2:0.092133502 
1 1:0.013192304 2:0.092567441 
1 1:0.012594764 2:0.092144179 
1 1:0.014208902 2:0.093909095 
1 1:0.024044462 2:0.094963441 
1 1:0.009598744 2:0.091841531 
1 1:0.013860736 2:0.092657781 
1 1:0.01287488 2:0.092833113 
1 1:0.012429713 2:0.09246877 
1 1:0.01498454 2:0.092524932 
-1 1:0.023377986 2:0.0935353 
-1 2:0.068568774 3:0.061655648 4:0.0036238302 
-1 2:0.06190724 4:0.0028910801 
-1 1:7.5249998e-05 2:0.05663372 4:0.00091998233 
-1 2:0.053378324 3:0.026825156 4:0.0022044253 
-1 1:0.0019989375 2:0.053109957 3:0.081123588 4:0.0015671844 
-1 2:0.053065357 3:0.001688039 4:0.00204425 
-1 2:0.056119597 3:0.013569457 4:0.0027116121 
-1 1:0.0044598628 2:0.054395805 
-1 1:0.0069444347 2:0.057670911 
-1 1:0.0065193046 2:0.04900304 3:0.030497012 4:0.00037496215 
-1 2:0.051068004 3:0.022866485 4:0.0018734756 
-1 2:0.051004107 3:0.090633651 4:0.0014618359 
-0.2424569926644811 1:0.0003493714 2:0.051352112 3:0.14819443 4:0.0017178074 
-1 2:0.051731858 3:0.04119737 4:0.0015965503 
-1 2:0.055313493 3:0.15601045 4:0.0022514986 
-1 2:0.056673335 3:0.044023652 4:0.0031077625 
-1 2:0.056912048 3:0.17100097 4:0.0041637373 
-1 2:0.056140039 3:0.016814116 4:0.0022880887 
-1 1:0.0022321745 2:0.050828174 4:0.00068576465 
-1 2:0.055841441 3:0.076864095 4:0.0045573897 
-1 2:0.053336543 3:0.029592347 4:0.0034475326 
-1 1:0.0049061459 2:0.050814565 4:0.0010446148 
-1 1:0.0034837738 2:0.051262571 3:0.02743043 4:0.0010457785 
-1 1:0.0059862534 2:0.050127593 4:0.00047293928 
-1 2:0.052257857 3:0.044751026 4:0.0030838519 
-1 2:0.054140283 3:0.070077943 4:0.0025613994 
-1 1:0.0016716427 2:0.045020824 4:0.00054004394 
-1 2:0.040816598 3:0.57882869 4:0.0085923925 
-1 1:0.025061166 2:0.057306796 3:0.26011555 4:0.0025489857 
-1 1:0.00065756128 3:3.0600807 4:0.013359336 5:0.016478111 
-1 3:3.0421945 4:0.013651914 5:0.01623654 
-1 3:3.0337808 4:0.013788039 5:0.016121104 
-1 3:3.0561968 4:0.013423234 5:0.016426101 
-1 3:3.0370382 4:0.013735452 5:0.016165932 
-1 3:3.0432703 4:0.013634439 5:0.016251218 
-1 3:3.0419492 4:0.013655897 5:0.01623319 
-1 3:3.0288178 4:0.013867878 5:0.016052475 
1 3:3.027995 4:0.013881081 5:0.016041059 
1 4:0.013422367 5:0.016426809 
1 1:0.0047381253 4:0.013421504 5:0.016427514 
1 1:0.020001403 4:0.015083653 5:0.012750443 
1 1:0.008235632 2:0.056314408 3:1.1762386 5:0.0030906418 
1 2:0.065439572 3:1.2900594 
1 1:0.0058509736 2:0.063853837 3:1.2526339 5:0.00011301999 
1 2:0.068734777 3:1.2384015 
1 2:0.067353646 3:1.331775 
0.5196048445964038 2:0.070855684 3:1.220821 
1 2:0.071089343 3:1.2026523 
1 2:0.068980925 3:1.1393539 5:9.4709639e-05 
1 2:0.074161064 3:1.1143922 5:5.6882912e-05 
1 2:0.072955626 3:1.1919949 
1 1:0.073914974 2:0.074059102 3:2.5988831 
1 1:0.075898327 2:0.054418186 3:2.4106803 
-1 1:0.038946916 2:0.065409866 
-1 1:0.027764882 2:0.060586332 
-1 1:0.034782102 2:0.054198319 
1 1:0.0021768815 3:2.8614729 5:0.01335138 
1 1:0.0057373429 3:2.4816071 5:0.01417439 
-1 1:0.068188062 2:0.059509166 
-1 1:0.058782984 2:0.064113074 4:0.0089284684 
-1 3:1.7673101 4:0.006255894 5:0.014562484 
-0.01799811076203315 3:1.7975379 4:0.0055625134 5:0.014957697 
-1 3:1.7832032 4:0.0058493115 5:0.014812598 
1 3:1.7592708 4:0.0061346431 5:0.014730308 
1 4:0.0085913006 5:0.012323933 
1 4:0.0082172704 5:0.012573384 
1 4:0.0077556047 5:0.012856794 
1 4:0.006464646 5:0.013574616 
1 4:0.005356034 5:0.014125073 
1 4:0.0070620889 5:0.013244175 
1 3:0.01475884 4:0.006904808 5:0.013316502 
1 4:0.00568883 5:0.013880567 
1 4:0.0064096206 5:0.013659576 
1 3:0.083869191 4:0.0050520055 5:0.014267238 
1 4:0.0076156527 5:0.01297623 
1 4:0.006532458 5:0.013503131 
1 4:0.0073410085 5:0.013081291 
-1 1:0.038353774 2:0.053652158 
1 3:0.15218684 4:0.0056461602 5:0.013926545 
1 1:0.021451672 2:0.097065726 
1 1:0.020599325 2:0.095364687 
1 1:0.018492729 2:0.09593483 
1 1:0.022753637 2:0.097808877 
1 1:0.019634008 2:0.096399167 
1 1:0.023241877 2:0.097064029 
1 1:0.017953559 2:0.096792447 
1 1:0.022067497 2:0.097789397 
1 1:0.019790071 2:0.095610844 
1 1:0.020982113 2:0.097254604 
-1 1:0.020036802 2:0.095605343 
-1 1:0.014027782 2:0.069515626 
-1 1:0.0071436262 2:0.06433239 
-1 1:0.0026767985 2:0.060337343 
-1 1:0.004521406 2:0.05776012 
-1 2:0.060003017 
-1 2:0.058261983 
-1 2:0.057097975 
-1 2:0.056965592 
-1 2:0.051384919 
-1 2:0.057790801 
-1 2:0.050816648 
-1 2:0.054823987 
-1 2:0.055775291 
-1 2:0.052438105 
-1 2:0.049869253 
-1 2:0.05220286 
-1 2:0.055278062 4:0.00055538395 
-1 2:0.058951298 4:0.002067997 
-1 2:0.06458873 4:0.0043509707 
-0.8115948417199368 2:0.066758458 4:0.0065393954 
-1 2:0.04526517 4:0.0028252017 
1 3:2.665716 4:0.00074669114 5:0.017139774 
1 3:2.9053017 5:0.01515252 
-1 1:0.040323087 3:1.9805556 4:0.0065418702 5:0.020179295 
-1 1:0.038233661 3:1.9692414 4:0.0067697583 5:0.020103989 
-1 1:0.039860129 3:1.9750532 4:0.0066528035 5:0.020142994 
-1 1:0.037043572 3:1.9631125 4:0.0068928459 5:0.02006212 
-1 1:0.040595984 3:1.985594 4:0.0064401161 5:0.020211999 
-1 1:0.039239127 3:1.9749999 4:0.0066538774 5:0.020142639 
-1 1:0.039038209 3:1.9730728 4:0.006692682 5:0.020129779 
-1 1:0.038860256 3:1.9812106 4:0.0065286503 5:0.020183576 
1 1:0.036877304 3:1.9765643 4:0.0066223591 5:0.020153024 
1 1:0.039316247 3:0.47250044 4:0.0043883943 5:0.019251541 
1 1:0.037756502 3:0.46008078 4:0.0042645613 5:0.018747762 
1 1:0.042079626 3:0.44458265 4:0.0030028064 5:0.0182247 
1 1:0.051202641 3:0.49046212 4:0.00019840551 5:0.017747901 
1 1:0.041357502 3:0.27217836 4:0.0043854453 5:0.017139475 
1 1:0.040079406 4:0.0064888134 5:0.014562211 
1 1:0.005899875 4:0.011746828 5:0.013756581 
1 1:0.042705954 4:0.0055994541 5:0.015138752 
1 1:0.050192193 4:0.0060539951 5:0.014188199 
1 1:0.054805723 4:0.0087761022 5:0.012170202 
1 1:0.052130336 4:0.0076596791 5:0.01292622 
1 1:0.052782563 4:0.0099816289 5:0.011333929 
1 3:2.0868826 4:0.020393665 
-1 4:0.02002072 
1 4:0.015156399 5:0.00035389487 
1 3:2.7248229 5:0.015315207 
0.01376013281963584 1:0.020743416 3:2.7793543 5:0.014430807 
1 1:0.015833513 3:3.0832189 5:0.012462642 
0.5991528546310588 1:0.013566742 3:3.1026056 5:0.01256211 
1 3:2.6721762 5:0.014863959 
1 3:2.8338246 5:0.012793554 
-1 1:0.1657135 3:2.9736219 5:0.015379373 
-1 1:0.16552772 3:2.9612237 5:0.015559332 
-1 1:0.1657289 3:2.9813786 5:0.01526558 
-1 1:0.16558919 3:2.98554 5:0.015204151 
-1 1:0.1630262 3:2.9664192 5:0.015484209 
-1 1:0.16499071 3:2.9712455 5:0.015414049 
-1 1:0.16571995 3:2.9344976 5:0.015939094 
-1 1:0.16959404 3:2.9912487 5:0.015119454 
-1 1:0.1678782 3:2.9536057 5:0.015668725 
-1 1:0.16667628 3:2.9728102 5:0.015391227 
1 1:0.16905469 3:3.0694085 5:0.013911494 
1 4:0.01192223 5:0.0094011231 
-0.4987752795717203 1:0.035034851 3:2.9844731 5:0.014880415 
-0.04938824379015327 1:0.035989158 3:2.9906373 5:0.014859218 
-0.9756114463762094 1:0.033301598 3:2.9772787 5:0.014915523 
-0.4512868603899062 1:0.036155477 3:3.007229 5:0.014847612 
1 1:0.035420346 3:3.0085008 5:0.014861946 
1 1:0.0090361747 3:0.11857808 4:0.0025278409 5:0.015769302 
-1 1:0.033972411 2:0.030302056 3:2.0822417 
1 1:0.035482815 2:0.060676573 3:3.0231746 
1 1:0.030377552 2:0.060060869 3:3.05357 
1 1:0.030077728 2:0.05929989 3:3.0476209 
1 1:0.038186758 2:0.061848123 3:3.0041208 
1 1:0.03375044 2:0.05851511 3:3.0530555 
1 1:0.03277611 2:0.061720553 3:3.0342151 
1 1:0.04169497 2:0.060141689 3:2.9113563 
1 1:0.038754523 2:0.061460676 3:2.9754477 
1 1:0.032932424 2:0.059115249 3:3.0557866 
1 1:0.032382749 2:0.060375712 3:3.0406197 
1 1:0.030399631 2:0.059359466 3:3.024447 
-1 1:0.033578942 2:0.058368981 3:3.0790279 
-1 1:0.010486756 2:0.041526902 3:0.086546919 4:0.00049659149 
-1 1:0.0017955023 2:0.034709891 3:0.35074236 4:0.0040233401 
-1 1:0.0098272947 2:0.03323359 3:0.21085446 4:0.0020776042 
-1 1:0.013378173 2:0.035020123 3:0.17803573 4:0.0014458189 
-0.07211533801418613 1:0.0061670545 2:0.037248101 3:0.29412491 4:0.0028600236 
-0.9481731245254904 1:0.022515342 2:0.028489106 3:0.047611146 
-0.3906819018406859 1:0.021544633 2:0.028224684 3:0.25905947 4:0.000775718 
-1 1:0.0099213726 2:0.038828493 3:0.4548372 4:0.0037948601 
-1 1:0.015388275 2:0.03009109 3:0.28979971 4:0.0015848581 
-1 1:0.023970853 2:0.034061571 3:0.19586813 
-1 1:0.010955204 2:0.035229118 3:0.42781709 4:0.0032078343 
-0.4324155325330041 1:0.020321869 2:0.033799517 3:0.44774814 4:0.0031791083 
-1 2:0.043421194 3:0.33951299 4:0.0036766288 
-1 1:0.021232938 2:0.035846518 3:0.29916841 4:0.0011472887 
-1 1:0.015004762 2:0.037764597 3:0.43809961 4:0.0032257303 
-1 1:0.023002532 2:0.028279086 3:0.37736622 4:0.0013626628 
-1 1:0.043772463 2:0.02854797 3:0.45153409 4:0.0011224619 
1 1:0.03184262 5:0.0018771075 
0.2772184791795055 1:0.0080848642 5:0.0045027715 
1 5:0.0072104868 
1 1:0.0014434739 5:0.00046278986 
1 1:0.020177341 2:0.085034598 3:0.38491987 
-1 1:0.096272028 5:0.020693793 
-1 1:0.099406074 5:0.018876652 
-1 1:0.062508466 5:0.020985949 
-1 1:0.075433075 5:0.020365326 
-1 1:0.010423011 4:0.0052528731 5:0.02055255 
-1 1:0.024483233 4:0.011905036 5:0.017557623 
-1 1:0.036234929 4:0.0053035646 5:0.020539528 
-1 1:0.07810382 5:0.020968793 
-1 1:0.10098161 5:0.018640473 
-1 1:0.12344193 5:0.012433176 
-1 1:0.050587876 3:0.31337213 5:0.021208997 
1 2:0.076127633 4:0.014135265 
-0.2696294868023053 2:0.048940654 3:1.1794371 4:0.014994725 
-1 1:0.035692185 2:0.056256996 3:1.1271642 4:0.011034983 
-1 1:0.061478069 2:0.02505915 3:0.5576005 4:0.0037300216 
-0.7303705131976947 1:0.031959855 2:0.040469758 3:1.1762199 4:0.012178945 
-1 1:0.070182409 4:0.0011940683 5:0.018031308 
-1 1:0.098527018 5:0.017393361 
-1 1:0.11371776 5:0.016420558 
-1 1:0.1053029 5:0.01687066 
-1 1:0.061396873 4:0.0021391482 5:0.018208005 
-1 1:0.047082878 4:0.0067686143 5:0.016438265 
-1 1:0.070654187 4:0.00075474127 5:0.018157091 
-1 1:0.072542495 4:0.00078583153 5:0.018028007 
-1 1:0.055453666 4:0.00424868 5:0.017620109 
1 1:0.080755123 4:2.2894763e-06 5:0.017884756 
1 1:0.00081180661 2:0.053085731 4:0.0065792812 
1 2:0.053997251 4:0.0070255286 
1 1:0.0030584903 2:0.052291363 4:0.0064919137 
1 1:0.0023936728 2:0.052915724 4:0.0065914764 
1 1:0.0012727403 2:0.056027593 4:0.007220961 
1 2:0.054127448 4:0.0071339397 
1 1:0.0011565879 2:0.053786982 4:0.0069257128 
1 1:0.00036275411 2:0.052341956 4:0.0067613858 
0.7868219853302608 1:0.0020054804 2:0.052425581 4:0.0072715917 
1 2:0.052714406 4:0.0072798565 
-1 2:0.058099446 3:1.1370203 4:0.011382014 
-1 2:0.048606086 3:1.0924541 4:0.0105811 
-0.1387718624348799 2:0.042134582 3:1.0491915 4:0.0093929825 
-1 1:0.024815401 2:0.028220223 3:0.68549699 4:0.0028964254 
-0.839890287949359 1:0.030400195 2:0.028403421 3:0.66553108 4:0.0020139531 
-1 1:0.034509722 2:0.025409516 3:0.75669525 4:0.0026353231 
-1 1:0.037379613 2:0.027090528 3:0.78451199 4:0.002294979 
-1 1:0.047468851 2:0.060851943 3:1.4651179 4:0.0090292902 
-1 1:0.059040841 2:0.032888021 3:0.81138376 4:0.0004977939 
-1 2:0.064340397 4:0.017415738 
-0.185675085900697 1:0.069795839 
-1 1:0.10807754 5:0.016266261 
-1 4:0.0086785994 5:0.019356702 
-1 1:0.017888666 4:0.0058068074 5:0.020402965 
-1 1:0.054555414 5:0.021124547 
-1 1:0.019044069 4:0.0050395489 5:0.020605896 
-1 1:0.048292946 4:0.00080628606 5:0.021197875 
-1 1:0.0059330661 4:0.007425638 5:0.019871082 
-1 1:0.0042868316 4:0.0083496499 5:0.019500855 
1 3:2.6205522 4:0.020939788 
1 4:0.016064183 5:0.013854315 
-0.6064039060396316 1:0.075939584 3:0.37051913 5:0.020814973 
-1 4:0.016585066 
-1 4:0.01739887 
-1 4:0.01729523 
-1 1:0.059289176 4:0.0040734045 5:0.018936489 
1 2:0.087601294 4:0.0092056814 
1 2:0.14017171 4:0.00482228 
1 2:0.089489159 4:0.0087276581 
1 2:0.095865771 4:0.0079795574 
1 2:0.092067449 4:0.0082255865 
1 2:0.07558555 4:0.010264085 
1 2:0.089854376 4:0.0086872491 
1 2:0.093497792 4:0.0080451066 
-1 2:0.092147569 4:0.0080954641 
-1 2:0.10497809 3:2.7007064 4:0.0051064335 
-0.06210270694129319 2:0.052639361 3:2.7623018 4:0.0094245755 
-0.2199517751234549 2:0.072755918 3:2.4772345 4:0.0053338081 
-0.04971422118248033 2:0.08039675 3:2.5527294 4:0.0043070962 
-1 2:0.058449398 3:2.6671024 4:0.0067568053 
-1 2:0.073820901 3:2.5220037 4:0.0047299238 
-0.3745320857348167 2:0.079168936 3:2.464968 4:0.0055643874 
1 1:0.1984585 
-1 2:0.053665875 3:2.8234309 4:0.010949221 
-1 2:0.091076058 3:2.6530603 4:0.0079592403 
-1 2:0.05590634 3:2.904015 4:0.011185435 
-1 2:0.058365653 3:2.7495169 4:0.009801612 
-1 2:0.057851713 3:2.8639909 4:0.011009492 
-1 2:0.079138597 3:2.6153471 4:0.00737453 
-1 2:0.057272108 3:2.7229896 4:0.0095978547 
-0.08345393070079993 2:0.09284793 3:2.7501709 4:0.0090750153 
-0.4534309376650387 2:0.10580651 3:1.9962757 4:0.0012880602 
-1 2:0.068181424 3:2.6906046 4:0.010045926 
0.2357116944532119 2:0.045816929 3:3.0754751 4:0.012246536 
-0.2693141258866064 2:0.086924728 3:2.8983945 4:0.0098706887 
1 1:0.083817151 2:0.084886133 
-1 1:0.132459 2:0.06569705 5:0.004091288 
1 1:0.092117271 2:0.041658943 3:2.31902 5:0.0044863615 
1 1:0.078799439 2:0.047960526 3:2.3136582 5:0.0046477879 
1 1:0.069117215 2:0.061812665 3:2.2717622 5:0.0016833425 
1 1:0.073492625 2:0.0647768 3:2.2149794 5:0.0018561166 
1 1:0.067259818 2:0.067704185 3:2.2634727 5:0.00055003493 
0.6649331673092692 1:0.075005051 2:0.069547965 3:2.1859335 5:0.00073820117 
0.04696726785263473 1:0.081049502 2:0.072981586 3:2.1333732 5:0.00046287186 
1 1:0.042316765 2:0.090727896 3:2.2597525 
1 1:0.081495507 2:0.08320322 3:1.9962547 
1 1:0.042991627 2:0.096441003 3:2.2103625 
0.6561473774932556 1:0.0044374048 2:0.10527814 3:2.3811992 
1 2:0.105382 3:2.4293971 
-1 4:0.012639291 5:0.017036676 
-1 4:0.013036205 5:0.016734914 
-1 4:0.012943089 5:0.016807035 
-1 4:0.012000077 5:0.017492803 
-1 4:0.012510678 5:0.017131343 
-1 4:0.012657801 5:0.017022928 
-1 4:0.010457816 5:0.018456275 
1 4:0.012811776 5:0.016907348 
0.2684040002881211 3:2.0156662 4:0.011595748 5:0.017763407 
1 3:2.1618618 4:0.0095690402 5:0.018932339 
1 3:2.0036835 4:0.012118517 5:0.017410961 
1 3:2.2350584 4:0.0087952523 5:0.019303977 
1 3:2.1759507 4:0.0099508713 5:0.018734465 
1 3:2.565597 4:0.0019037036 5:0.02112761 
0.4700271878183327 3:2.2789409 4:0.0064358094 5:0.019612908 
1 1:0.092550311 2:0.075379753 
1 1:0.066044208 2:0.090636254 
1 1:0.10244052 2:0.063363629 
1 1:0.10078007 2:0.074980298 
1 1:0.0032436723 2:0.10092992 4:0.0074086627 
1 1:0.030168277 2:0.095828388 
1 1:0.096984118 2:0.080697305 
-1 2:0.092409429 4:0.0089325877 
-1 1:0.065230368 2:0.041779517 
-1 1:0.063674756 2:0.057698647 
-0.300662552061328 1:0.084792354 2:0.034891578 
-1 1:0.041581045 2:0.081030679 4:0.00055696416 
-1 2:0.092953171 4:0.0076183191 
-1 1:0.0065696201 2:0.092482385 4:0.0062050743 
-1 1:0.00043170547 2:0.094833774 4:0.0066912722 
-1 1:0.026552024 2:0.046963365 4:0.0095480243 
-1 2:0.094638433 4:0.0065261015 
-1 1:0.030286036 2:0.085044986 4:0.00052870356 
-1 2:0.069695719 4:0.0089888763 
-1 1:0.073717733 2:0.060836253 
-1 2:0.096552326 4:0.0052873836 
-1 1:0.027384792 2:0.062119205 
-1 1:0.03181294 2:0.091679001 
-1 2:0.09361872 4:0.0051463514 
-1 1:0.042474573 2:0.084217405 
-1 1:0.045351115 2:0.088426841 
-1 2:0.098898141 4:0.0053242879 
-1 2:0.098928308 4:0.0054327711 
-1 1:0.02382547 2:0.098438664 
-1 2:0.096673889 4:0.0057878464 
0.9763837732931594 1:0.095350393 3:2.8348018 
-1 1:0.0071126301 2:0.10333044 4:0.00026359568 
-1 2:0.09990463 4:0.0056953612 
-1 1:0.0060115315 2:0.10538981 4:1.4851821e-05 
1 1:0.088605717 2:0.042224779 3:3.1290603 
1 1:0.10343392 3:2.7001139 5:0.0020752709 
1 1:0.109136 2:0.00043625292 3:2.7529102 
0.9149020132038703 1:0.11062523 2:0.0048202256 3:2.6832302 
-1 1:0.0092152953 2:0.11208362 
-1 1:0.010940614 2:0.11219372 
1 1:0.10191468 2:0.013767313 3:2.8655775 
1 2:0.082253699 4:0.012582643 
1 2:0.10210126 4:0.010253635 
0.08582933804784362 2:0.077369625 4:0.012416394 
1 2:0.10216245 4:0.010427343 
-1 2:0.071038441 4:0.013303583 
-0.7563142735384851 2:0.076163177 3:0.90738995 4:0.010491155 
-1 2:0.0648207 3:1.2100911 4:0.011960411 
-1 2:0.077046667 3:0.96975296 4:0.010414394 
-0.1481942946453749 2:0.066577674 3:1.0770067 4:0.01169018 
-1 2:0.065102002 3:1.1275044 4:0.012228879 
-1 2:0.046937105 3:1.312155 4:0.013688057 
-1 2:0.055430126 3:1.2149688 4:0.01322355 
-1 2:0.052337772 3:1.2720065 4:0.013533235 
-1 2:0.041835697 3:1.2340235 4:0.014126856 
-1 2:0.10070763 3:0.74397644 4:0.0078536666 
-0.6349851460452388 2:0.11125074 3:0.79640245 4:0.0086021574 
0.2226438645213947 2:0.19962281 3:0.80420664 4:0.005283878 
1 1:0.018512542 2:0.17282155 
1 1:0.13088286 2:0.11080059 
-1 1:0.097134388 2:0.14729505 
-1 1:0.012843477 2:0.0805229 
-1 1:0.01429562 2:0.084635065 
-1 1:0.017051914 2:0.085079464 
-1 1:0.024074597 2:0.084839147 
-1 1:0.012474201 2:0.086266542 
-1 1:0.010096113 2:0.086878973 
-1 1:0.014173454 2:0.085885784 
-1 1:0.028477134 2:0.082417351 
-1 1:0.033753703 2:0.08460746 
-1 1:0.030869966 2:0.089221058 
-1 1:0.012774508 2:0.092352151 
1 3:0.078752877 4:0.0054574217 5:0.014110152 
1 3:0.41321719 4:4.4514838e-05 5:0.015053376 
1 1:0.027354055 3:0.76929998 5:0.014341467 
1 1:0.019168438 3:0.64186621 5:0.014681096 
1 3:0.3281307 4:0.0011006608 5:0.015023123 
1 3:0.31475459 4:0.0020826675 5:0.014960998 
1 1:0.0080087868 3:0.61298204 5:0.014993421 
1 1:0.015552131 3:0.69905926 5:0.01475113 
1 1:0.0046341682 3:0.55704905 5:0.01501156 
1 3:0.46832045 5:0.015097583 
1 3:0.4837129 5:0.01505152 
0.09739383571475047 3:0.4971512 5:0.01505316 
1 1:0.0019400192 3:0.56156559 5:0.015002574 
1 3:0.39350846 5:0.015034823 
1 3:0.28352317 4:0.0011882189 5:0.014979166 
1 3:0.19922779 4:0.0019201175 5:0.014889982 
1 3:0.21676235 4:0.001906788 5:0.014896375 
1 3:0.26345022 4:0.001197951 5:0.014974762 
1 3:0.30156549 4:0.00060285133 5:0.015010349 
1 3:0.14796854 4:0.0022072684 5:0.014841268 
1 2:0.079674266 4:0.010679284 
1 2:0.090638879 4:0.0093938091 
1 2:0.090395157 4:0.0096653709 
1 2:0.07787418 4:0.010858798 
1 2:0.078847369 4:0.010663853 
1 2:0.11421258 4:0.0069260492 
1 2:0.098762527 4:0.0089021529 
1 2:0.087054691 4:0.010692527 
1 2:0.099944105 4:0.0081858611 
1 2:0.095744632 4:0.0089257259 
-1 2:0.079163115 4:0.010887732 
-1 2:0.064039946 3:2.6476621 4:0.0095920955 
-1 2:0.085916038 3:2.2631109 4:0.0075072262 
-1 2:0.055213756 3:2.5993159 4:0.0094245528 
-1 2:0.059099193 3:2.3864427 4:0.0075947998 
-1 2:0.056155317 3:2.4780459 4:0.0087707186 
-0.5801206072817735 2:0.046570502 3:2.5733886 4:0.010311186 
-1 2:0.072423966 3:2.2530703 4:0.0058864965 
-1 2:0.073501801 3:2.3737691 4:0.0084222197 
-1 2:0.073344464 3:2.4652198 4:0.0096312638 
-0.01356269747216132 2:0.066982897 3:2.3217462 4:0.0066554714 
-1 2:0.082812456 3:2.1014598 4:0.0034633069 
-1 2:0.088105756 3:2.1789356 4:0.0046587648 
-1 2:0.078959641 3:2.3134334 4:0.0056255481 
0.1479784494268651 2:0.044762242 3:3.0671096 4:0.014414998 
-1 2:0.096086563 3:2.1902021 4:0.0049534647 
-1 2:0.094527775 3:2.6358175 4:0.0096194209 
1 2:0.055848353 3:3.0887059 4:0.014380609 
1 2:0.061445362 3:3.0379808 4:0.014499512 
1 1:0.1277931 2:0.074531983 
1 1:0.12733313 2:0.074842984 
1 1:0.12821268 2:0.074072123 
0.9973937507215556 1:0.12980938 2:0.07189905 5:7.7025344e-05 
-1 1:0.13374929 2:0.069686309 5:0.00058426354 
1 1:0.089457046 2:0.050981147 3:1.0764536 
1 1:0.095067636 2:0.038974519 3:0.76173626 5:6.0138091e-05 
1 1:0.084845392 2:0.051087591 3:0.82473604 
0.04445872223086653 1:0.085133961 2:0.036413252 3:0.76378316 
-0.9999999999999999 1:0.030592226 2:0.063437341 3:1.5862766 
-1 2:0.051024804 3:2.1383935 
-1 1:0.019822604 2:0.026146805 3:2.5079494 
-0.6980283084964909 2:0.040764723 3:2.8243844 4:0.0077150225 
1 2:0.11000742 4:0.0041373487 
1 2:0.096050925 4:0.0044524958 
1 2:0.094417057 4:0.0062158336 
1 2:0.092346617 4:0.0062400624 
1 2:0.10708949 4:0.0033960723 
1 2:0.1005174 4:0.0064679432 
1 2:0.13522878 4:0.0010883575 
1 2:0.095302866 4:0.0061846736 
1 2:0.072315511 4:0.0093342437 
1 2:0.089982916 4:0.0066518853 
-1 2:0.094899539 4:0.0057260293 
-0.02188172521944906 2:0.057031726 3:0.98770699 4:0.0097364024 
-0.1755681020394263 2:0.092988885 3:0.53620492 4:0.004251729 
-1 2:0.10080685 3:0.60828884 4:0.0070855428 
-1 2:0.044785593 3:1.224633 4:0.012871657 
-1 2:0.064500801 3:1.1228016 4:0.011783557 
-1 3:1.2288837 4:0.015932923 5:0.014005069 
1 3:0.65882705 4:0.020971708 5:0.0031917774 
0.2199881812080802 4:0.020672116 5:0.0047606307 
1 2:0.011161077 4:0.017996027 5:0.011231341 
1 4:0.019497453 5:0.0083575909 
