svm_type epsilon_svr
kernel_type linear
nr_class 2
total_sv 373
rho 0.00121133
SV
1 3:0.55815987 4:0.013811325 5:0.0089382852 
0.1264216368162072 3:2.8007906 4:0.012670141 5:0.0084496038 
1 5:0.014392635 
1 5:0.0046018508 
1 5:0.0072655744 
1 3:1.8088463 4:0.015095915 5:0.0011445039 
-0.8663404066295181 1:0.0067284912 2:0.10758039 
1 1:0.16905295 3:2.3143265 
1 1:0.089715744 5:0.00033491675 
-1 1:0.058340111 2:0.033502615 
0.9485453277284244 1:0.083896489 5:0.0019046945 
1 5:0.01481503 
-1 1:0.010145755 2:0.052100934 
-0.575228905026563 2:0.050778442 3:0.70023575 4:0.012847052 
1 1:0.16353333 3:1.9294709 
1 1:0.1009685 
1 1:0.10155358 5:0.001594896 
1 1:0.10126144 5:0.00063705705 
1 1:0.10385257 5:0.00014601345 
0.9540503023391865 1:0.024120355 5:0.0080190632 
1 1:0.045527579 3:3.0522702 5:0.0062240142 
-1 1:0.032881065 2:0.030069144 
-1 1:0.016718711 2:0.035663624 4:2.3457662e-05 
-1 2:0.059111666 4:0.0082676537 
-1 2:0.031843819 4:0.0020883359 
0.7282647970726746 1:0.04384285 5:0.0020774196 
1 1:0.023153618 5:0.0064410677 
1 1:0.012195846 5:0.0061858038 
1 1:0.0058675665 5:0.0072913746 
1 1:0.011543918 5:0.0084235129 
1 1:0.012870145 5:0.0055852697 
1 5:0.0028594404 
-1 1:0.079194442 2:0.050246487 3:2.6033207 
-1 1:0.039271677 2:0.042452619 3:0.75086718 
-1 1:0.029331439 2:0.036009518 3:0.87325635 
-0.7970007400031185 1:0.038222838 2:0.039659052 3:1.4835544 4:0.0045681496 
-1 1:0.015127834 2:0.033096346 3:1.5973012 4:0.0074571945 
-1 1:0.012224866 2:0.030062168 3:2.0284536 4:0.010840403 
-1 2:0.039007898 4:0.017063398 5:0.0027404094 
1 2:0.0001006071 3:1.9287357 4:0.014366018 5:0.0079076962 
1 3:2.1974804 4:0.012519291 5:0.009694422 
1 2:0.0074515576 3:2.0105436 4:0.014369551 5:0.0050098201 
-1 4:0.0061871652 5:0.015110216 
-1 4:0.0030883835 5:0.016786008 
-1 4:0.0015040563 5:0.014978433 
-1 4:0.0041218463 5:0.01473732 
-1 4:0.011935694 5:0.0093029901 
-1 1:0.022789683 2:0.067704594 4:0.0076330311 
1 1:0.041744388 5:0.0017617101 
1 1:0.25087096 2:0.10946949 3:0.99117576 4:0.0084744906 5:0.016938552 
1 1:0.020454739 2:0.2827807 3:2.1347117 5:0.014918286 
1 1:0.011835203 2:0.076072338 
1 1:0.0078790969 2:0.076375828 
1 1:0.012241678 2:0.075594509 
1 1:0.0081847134 2:0.076392345 
1 1:0.0080141225 2:0.076230784 
1 1:0.0096704109 2:0.076031723 
1 1:0.012507643 2:0.07330522 
1 1:0.01173409 2:0.075698517 
-1 1:0.0083177875 2:0.076013061 
-1 1:0.016993447 2:0.04650766 
-1 1:0.0035545733 2:0.042056855 
-1 2:0.063357977 
-1 2:0.022558611 4:0.002042601 
-1 2:0.055695273 
1 1:0.05664748 3:1.4833578 5:0.014090449 
1 3:0.18121833 4:0.011753472 5:0.011075549 
0.6549243979321951 1:0.10937999 2:0.06128216 4:0.0059863112 
-1 1:0.0038290845 3:0.5498817 4:0.0077171462 5:0.019049863 
-1 1:0.0027566733 3:0.5856452 4:0.0073608719 5:0.01945447 
-1 1:0.0047803176 3:0.56659317 4:0.007400726 5:0.019177374 
-1 1:0.00099616506 3:0.57911969 4:0.0076617578 5:0.019479036 
-1 1:0.01314873 3:0.5947063 4:0.0063425494 5:0.019151818 
-1 1:0.0016340538 3:0.54359508 4:0.0079328291 5:0.01903731 
-1 1:0.0050141068 3:0.57003951 4:0.0073244754 5:0.019198631 
-1 1:0.0080257717 3:0.59367252 4:0.0067625376 5:0.019319979 
-1 1:0.0086365792 3:0.59561777 4:0.0066865555 5:0.019316248 
-1 3:0.53198815 4:0.0088940311 5:0.019214341 
1 1:0.006768397 3:0.57273078 4:0.007118118 5:0.019154568 
1 1:0.011153571 4:0.0052817742 5:0.017815489 
-1 1:0.046508439 2:0.038059551 3:0.48465597 
1 4:0.015380204 5:0.011460192 
1 4:0.0050463762 5:0.017388365 
1 3:3.1285305 4:0.013315766 5:0.011056837 
0.4361358596908092 1:0.0073144503 2:0.20924966 4:0.0061804321 5:0.015000001 
1 1:0.096880403 2:0.0658676 
1 1:0.080404436 2:0.066674833 
-1 1:0.10221981 2:0.063151421 
-1 1:0.080296062 2:0.023463858 
-1 1:0.06584876 2:0.049090524 
-1 1:0.056451001 2:0.027555863 
1 3:0.81988836 4:0.0083661839 5:0.01398308 
1 3:0.083099991 4:0.016375233 5:0.012469936 
1 1:0.015562797 3:1.3264703 5:0.018202874 
-1 1:0.0036575725 2:0.049281202 
-1 2:0.039226413 4:0.0026009074 
1 3:1.0492107 4:0.0033039036 5:0.017045574 
-0.2029992599968815 1:0.071465108 3:1.4266384 5:0.017838792 
-1 1:0.11630279 3:1.9453216 5:0.013053599 
-1 1:0.055637142 3:1.1302052 5:0.019828545 
-0.6965564198483174 1:0.086000551 3:1.5851146 5:0.018140081 
-1 1:0.088655763 3:1.6238178 5:0.017674528 
1 1:0.090337143 3:1.6324672 5:0.017644703 
1 1:0.074553287 5:0.015766485 
1 1:0.071166718 5:0.015192454 
1 1:0.066631959 5:0.014388539 
1 1:0.065500748 2:0.00061247662 5:0.009858185 
-0.2152483261641218 2:0.0096844743 3:2.6177746 4:0.012192312 
-1 2:0.0075467292 3:2.6886454 4:0.012764306 
1 1:0.053148164 5:0.01550759 
1 1:0.060473328 5:0.0086782312 
1 1:0.059528975 5:0.010197354 
0.9602396489858672 4:0.00026584432 5:0.016431177 
1 4:0.0041883025 5:0.015 
1 4:0.0039612021 5:0.015 
1 4:0.01217865 5:0.010065144 
1 4:0.0035691273 5:0.015 
1 4:0.0034115795 5:0.015 
1 4:0.010387526 5:0.012020799 
1 5:0.013865317 
1 4:0.0010027378 5:0.01566813 
1 3:0.976722 4:0.0091146382 5:0.011947052 
1 1:0.031284154 3:1.3132233 5:0.013519829 
-1 2:0.081188392 4:0.0057096496 
-1 2:0.078550043 4:0.007066616 
1 2:0.016722705 4:0.014808644 5:0.0024791774 
-1 1:0.034371489 2:0.07183762 
-1 1:0.019846664 2:0.062632235 4:0.00058049425 
-1 1:0.041497151 2:0.077381646 
1 1:0.051567043 2:0.045088286 4:0.014983489 
1 1:0.014928691 2:0.1133419 
0.04893437478513444 1:0.04277261 2:0.077584439 3:2.8929663 
-1 2:0.053431439 4:0.011191228 
-0.01245567858151397 2:0.079274746 3:1.2597037 4:0.005167229 
-1 2:0.067169575 3:1.3306011 4:0.0062634966 
0.8565124587318093 3:2.9135667 4:0.014392439 5:0.0055431944 
1 4:0.0036856768 5:0.015 
1 4:0.0037781306 5:0.015 
-1 1:0.085570593 2:0.017840471 3:0.20660373 
1 2:0.12562885 4:0.0044162659 
-1 3:1.8466478 4:0.014060344 5:0.015884166 
-1 3:1.7422231 4:0.015639439 5:0.01433206 
1 1:0.016899972 3:2.1070173 4:0.0094972587 5:0.01896845 
1 4:0.020702782 5:0.0046254539 
1 4:0.018135148 5:0.0084984494 
1 4:0.017206942 5:0.0080554285 
1 1:0.0017020072 4:0.01608029 5:0.0082807201 
1 1:0.036626885 4:0.0067268588 5:0.015585536 
-1 2:0.031628751 3:2.43045 
-0.1697824158051732 2:0.01936631 3:2.41234 
-1 3:2.1852748 4:0.0089196772 5:0.012295676 
-1 3:2.0863547 4:0.0099412685 5:0.011536874 
1 3:1.921014 4:0.011397822 5:0.010278372 
1 4:0.012351374 5:0.0088133609 
1 4:0.011716477 5:0.009567346 
1 4:0.0076147468 5:0.013025106 
-1 1:0.00085010038 2:0.065549278 
1 1:0.020851141 3:0.92624124 5:0.015002664 
1 1:0.028749167 3:1.0134334 5:0.014913625 
1 2:0.11597112 4:0.0099533203 
1 1:0.11051505 2:0.10518355 
1 1:0.062006609 2:0.13487844 4:0.0040849776 
-1 3:0.6438764 5:0.020449067 
-1 1:0.054600015 2:0.13769447 4:0.0051382827 
-1 1:0.077802533 2:0.090516883 
-1 1:0.033530776 2:0.09442928 4:0.0067699384 
-1 1:0.071164362 2:0.069369768 
1 1:0.05458998 5:0.0040261826 
1 1:0.01781875 2:0.12321381 4:0.010326222 
-1 2:0.057567349 4:0.020159013 5:0.0014084264 
-1 2:0.048120104 4:0.020714373 5:0.0021688553 
-1 1:0.036043419 5:0.019668572 
1 2:0.041679653 4:0.021135741 
1 5:0.017297516 
0.3871571010462536 3:2.6605389 4:0.012473699 5:0.010187596 
1 4:0.00055727897 5:0.016936975 
1 4:0.006815659 5:0.013967594 
1 3:3.0302869 4:0.0083696361 5:0.011689624 
1 4:0.015156399 5:0.00035389487 
1 3:1.7355484 4:0.01233165 5:0.0090279656 
1 3:2.7248229 5:0.015315207 
1 1:0.015833513 3:3.0832189 5:0.012462642 
1 1:0.048225283 5:0.0095804936 
-0.4162315061270918 1:0.1657135 3:2.9736219 5:0.015379373 
-1 1:0.16552772 3:2.9612237 5:0.015559332 
-1 1:0.1630262 3:2.9664192 5:0.015484209 
-1 1:0.16499071 3:2.9712455 5:0.015414049 
-1 1:0.16571995 3:2.9344976 5:0.015939094 
-1 1:0.1678782 3:2.9536057 5:0.015668725 
-1 1:0.16667628 3:2.9728102 5:0.015391227 
1 1:0.16905469 3:3.0694085 5:0.013911494 
1 1:0.014106437 4:0.0056294208 5:0.013974693 
-1 2:0.090024922 
1 1:0.091966319 3:0.21217859 5:0.014913726 
1 1:0.11229014 3:0.52654721 5:0.013448642 
1 4:0.01192223 5:0.0094011231 
-1 1:0.035034851 3:2.9844731 5:0.014880415 
-1 1:0.035989158 3:2.9906373 5:0.014859218 
-1 1:0.033301598 3:2.9772787 5:0.014915523 
-0.788106075296676 1:0.036155477 3:3.007229 5:0.014847612 
1 1:0.035420346 3:3.0085008 5:0.014861946 
1 1:0.0090361747 3:0.11857808 4:0.0025278409 5:0.015769302 
1 1:0.011079535 3:0.11161576 4:0.0018285234 5:0.015638509 
1 1:0.028986523 3:0.33087101 5:0.01510239 
1 1:0.060671917 3:0.49131518 5:0.012595857 
1 1:0.050483812 3:0.36475635 5:0.013660329 
-1 1:0.035277998 2:0.038797774 3:3.0073108 
1 4:0.0081559668 5:0.013144001 
0.232672904305552 1:0.035512853 3:0.02428686 5:0.01497339 
1 1:0.059641762 2:0.019786394 3:1.1138533 5:0.0051044685 
1 1:0.073582631 3:0.11124863 5:0.014406681 
-0.01903473300381036 2:0.038982177 3:3.0817918 4:0.00048862267 
-0.5176541568829395 2:0.068525872 3:2.7269433 
-0.1209909448778741 2:0.057722145 3:2.5421618 
1 1:0.026524068 4:0.0047203709 5:0.014238719 
1 1:0.035482815 2:0.060676573 3:3.0231746 
1 1:0.030377552 2:0.060060869 3:3.05357 
1 1:0.030077728 2:0.05929989 3:3.0476209 
1 1:0.038186758 2:0.061848123 3:3.0041208 
1 1:0.03375044 2:0.05851511 3:3.0530555 
1 1:0.03277611 2:0.061720553 3:3.0342151 
1 1:0.038754523 2:0.061460676 3:2.9754477 
1 1:0.032932424 2:0.059115249 3:3.0557866 
1 1:0.032382749 2:0.060375712 3:3.0406197 
1 1:0.030399631 2:0.059359466 3:3.024447 
-1 1:0.033578942 2:0.058368981 3:3.0790279 
-1 1:0.010486756 2:0.041526902 3:0.086546919 4:0.00049659149 
-1 1:0.0017955023 2:0.034709891 3:0.35074236 4:0.0040233401 
-1 1:0.0098272947 2:0.03323359 3:0.21085446 4:0.0020776042 
-1 1:0.013378173 2:0.035020123 3:0.17803573 4:0.0014458189 
-1 1:0.021046531 2:0.036487712 3:0.17728331 4:0.00021008681 
-1 1:0.022515342 2:0.028489106 3:0.047611146 
-1 1:0.015388275 2:0.03009109 3:0.28979971 4:0.0015848581 
-1 1:0.023970853 2:0.034061571 3:0.19586813 
-1 1:0.030879031 2:0.040812025 3:0.15625006 
-1 1:0.010955204 2:0.035229118 3:0.42781709 4:0.0032078343 
-1 2:0.043421194 3:0.33951299 4:0.0036766288 
-1 1:0.023002532 2:0.028279086 3:0.37736622 4:0.0013626628 
1 1:0.03184262 5:0.0018771075 
1 5:0.01335644 
1 5:0.0072104868 
1 1:0.0014434739 5:0.00046278986 
-1 1:0.096272028 5:0.020693793 
-1 1:0.099406074 5:0.018876652 
-1 1:0.062508466 5:0.020985949 
-1 1:0.075433075 5:0.020365326 
-1 1:0.010423011 4:0.0052528731 5:0.02055255 
-1 1:0.024483233 4:0.011905036 5:0.017557623 
-1 1:0.036234929 4:0.0053035646 5:0.020539528 
-1 1:0.07810382 5:0.020968793 
-1 1:0.10098161 5:0.018640473 
0.2693425159325324 1:0.036883662 4:0.013003725 5:0.016760165 
1 2:0.076127633 4:0.014135265 
-0.9680595058517891 1:0.035692185 2:0.056256996 3:1.1271642 4:0.011034983 
-1 1:0.061478069 2:0.02505915 3:0.5576005 4:0.0037300216 
-1 1:0.070182409 4:0.0011940683 5:0.018031308 
-1 1:0.098527018 5:0.017393361 
-1 1:0.11371776 5:0.016420558 
-1 1:0.1053029 5:0.01687066 
-1 1:0.061396873 4:0.0021391482 5:0.018208005 
-1 1:0.047082878 4:0.0067686143 5:0.016438265 
-1 1:0.070654187 4:0.00075474127 5:0.018157091 
-1 1:0.072542495 4:0.00078583153 5:0.018028007 
-1 1:0.055453666 4:0.00424868 5:0.017620109 
1 1:0.080755123 4:2.2894763e-06 5:0.017884756 
1 2:0.052714406 4:0.0072798565 
-1 2:0.058099446 3:1.1370203 4:0.011382014 
-1 2:0.048606086 3:1.0924541 4:0.0105811 
-1 2:0.042134582 3:1.0491915 4:0.0093929825 
-1 1:0.0028726479 2:0.039012117 3:0.97918187 4:0.0078735638 
-1 1:0.037379613 2:0.027090528 3:0.78451199 4:0.002294979 
-1 1:0.029703905 2:0.034495633 3:0.94389104 4:0.0048236925 
-1 2:0.064340397 4:0.017415738 
-1 1:0.069795839 
-1 1:0.10807754 5:0.016266261 
-1 4:0.0086785994 5:0.019356702 
-1 1:0.017888666 4:0.0058068074 5:0.020402965 
-1 1:0.054555414 5:0.021124547 
-1 1:0.019044069 4:0.0050395489 5:0.020605896 
-1 1:0.048292946 4:0.00080628606 5:0.021197875 
-1 1:0.0059330661 4:0.007425638 5:0.019871082 
-1 1:0.0042868316 4:0.0083496499 5:0.019500855 
1 3:2.6205522 4:0.020939788 
1 4:0.016064183 5:0.013854315 
-1 4:0.016585066 
-1 4:0.01739887 
-0.09767577070371355 4:0.01729523 
-1 1:0.1057503 5:0.0023006935 
-1 2:0.054937097 
-1 2:0.052626021 
-1 2:0.072713016 4:0.0076769151 
-1 2:0.043889157 3:2.0081842 4:0.0093821889 
-0.06394566192449749 2:0.02873109 3:2.347935 4:0.012881444 
1 1:0.031698136 5:0.010368188 
1 1:0.040305179 5:0.010243549 
-1 1:0.0540741 2:0.030594193 3:0.5759012 
1 1:0.032680376 5:0.010525368 
1 1:0.058634136 5:0.00017141295 
1 4:0.0017758303 5:0.012268725 
-1 1:0.11547966 2:0.010510897 5:0.0071038909 
1 1:0.04775933 2:0.025121459 3:2.057893 5:0.002684868 
1 1:0.040012225 3:1.7034035 5:0.011688458 
-1 2:0.058246804 4:0.0014681361 
-0.3432481673444522 2:0.055601573 
-1 2:0.053639059 
-1 2:0.054069568 
-1 2:0.052655616 
-1 2:0.053008554 
1 2:0.088035983 4:0.0058318449 
1 2:0.089089762 4:0.0051404933 
1 2:0.088919321 4:0.0052017771 
0.3828145925179283 2:0.086405507 4:0.0063911113 
1 2:0.089148956 4:0.0054457676 
-1 2:0.084968708 4:0.0089092955 
-1 1:0.0099614769 2:0.06142537 3:1.3745993 4:0.0026440882 
1 1:0.051214851 5:0.00046903858 
-0.9245154927812252 1:0.018068954 2:0.057274598 3:1.1710333 
-0.1638823447842291 1:0.0044826985 2:0.067035071 3:2.0377122 4:0.0077424909 
1 2:0.30027109 5:0.015 
1 1:0.014696743 2:0.088490171 
1 1:0.040699948 2:0.083098564 
1 1:0.086348945 2:0.096732602 
-1 1:0.11897296 5:0.001713633 
-1 2:0.057386348 
1 1:0.052911469 2:0.019709857 5:0.00032482293 
1 1:0.062166918 2:0.023660405 3:3.0476939 5:0.0024044971 
0.3168807899729129 1:0.050952279 2:0.044497139 
-1 
-1 5:0.015056429 
-1 1:0.063007268 2:0.038863598 
1 2:0.15412389 3:1.8854633 5:0.012985802 
1 2:0.083354383 4:0.001949733 
1 2:0.078343688 4:0.003459532 
1 2:0.088810782 
1 2:0.085356226 4:0.0015500113 
1 2:0.085913168 4:0.00090664873 
1 2:0.094209415 
1 2:0.085770805 4:0.00071758166 
1 2:0.087565419 4:0.0011147804 
1 2:0.086716275 4:6.4677365e-05 
1 2:0.083481977 4:0.0021835049 
-1 2:0.082726202 4:0.00248145 
-1 2:0.061205436 3:1.8683442 4:0.0030805087 
-1 2:0.051977579 3:1.7381692 4:0.0024014328 
-1 2:0.056250401 3:1.7127107 4:0.0023915754 
-0.3771450050423641 2:0.034519359 3:2.28692 4:0.010257547 
-0.2209768320840599 2:0.038947536 3:2.1715792 4:0.009422978 
-1 2:0.049977249 3:1.8989547 4:0.0068307766 
-1 2:0.050737074 3:1.9677151 4:0.0070194048 
-1 2:0.054752446 3:1.9489921 4:0.006995658 
-0.03952273803289175 2:0.054474084 3:1.8930814 4:0.0062500977 
-0.441541307790303 2:0.044271113 3:2.0975673 4:0.010598098 
-1 2:0.048734592 3:2.2278009 4:0.011041554 
-0.6140233496684616 2:0.043106244 3:2.4977019 4:0.013060438 
-1 1:0.088607461 2:0.026515644 5:0.0050372719 
0.3771450050423641 1:0.057093247 2:0.012009709 3:2.2988397 5:0.0077254671 
-1 2:0.033699069 4:0.0042739541 
-1 2:0.053401585 
-1 2:0.052022633 
1 2:0.083198557 4:0.0042106926 
-1 2:0.057327653 4:0.011898823 
-1 2:0.046942679 3:2.3492002 4:0.011870401 
1 2:0.013745509 3:3.0379658 4:0.015001038 
1 1:0.20070771 3:2.1617917 4:0.00036779741 
1 1:0.23731886 2:0.14000861 4:0.00047341879 
1 1:0.23744821 2:0.13998851 4:0.00045391727 
0.9721240313517318 1:0.10606851 2:0.065419355 
-1 1:0.11466241 2:0.045915404 
1 1:0.045908622 2:0.015332931 3:2.4339719 5:2.2595324e-05 
-1 1:0.016053524 2:0.031553261 
-1 2:0.065199211 
-1 2:0.052381956 
-1 2:0.053105448 
