svm_type epsilon_svr
kernel_type linear
nr_class 2
total_sv 6783
rho 0.00248157
SV
-1 2:0.066782736 3:1.9337365 4:0.01464952 
-1 2:0.065442248 3:1.9236129 4:0.013458499 
-1 2:0.064060383 3:1.9181774 4:0.01277238 
-1 2:0.064613036 3:1.8349769 4:0.012262362 
-1 2:0.064895938 3:1.9137063 4:0.012101602 
-1 2:0.064919115 3:1.8454632 4:0.012221873 
-1 2:0.064797843 3:1.8727 4:0.011564308 
-1 1:0.0044707629 2:0.065025543 3:1.8624071 4:0.010473591 
-1 1:0.0073065364 2:0.064297716 3:1.8044845 4:0.010039291 
-1 1:0.00055083315 2:0.063158681 3:1.7765788 4:0.010362466 
-1 1:0.004759396 2:0.063714843 3:1.7898267 4:0.0099447346 
-1 1:0.00019195132 2:0.064111343 3:1.8440991 4:0.010193105 
-1 1:0.0048844175 2:0.064381835 3:1.8012154 4:0.0097118665 
-1 1:0.0067153641 2:0.064024674 3:1.844618 4:0.009701056 
-1 1:0.0053489471 2:0.063772649 3:1.852816 4:0.0098200246 
-1 1:0.01632675 2:0.06565941 3:1.8479218 4:0.0090239201 
-1 1:0.025593393 2:0.065673414 3:1.8705602 4:0.0085059385 
-1 1:0.0060607936 2:0.065248412 3:1.8845149 4:0.0097514654 
-1 1:0.0099610563 2:0.067474429 3:1.8592909 4:0.0095087771 
-1 1:0.019087613 2:0.067914943 3:1.9371234 4:0.0089769957 
-1 1:0.012362533 2:0.067972387 3:1.9565215 4:0.0093853026 
-1 1:0.0173695 2:0.066529984 3:1.9652657 4:0.009344395 
-1 1:0.036295428 2:0.068903493 3:2.0398769 4:0.0087064372 
-1 1:0.014530849 2:0.068609082 3:2.0250526 4:0.0095775549 
-1 1:0.032235844 2:0.068390168 3:2.0520758 4:0.0088063588 
-1 1:0.017074026 2:0.069435356 3:2.0059523 4:0.0096592472 
-0.1497615865662058 1:0.016739834 2:0.069277984 3:2.0089449 4:0.0097066576 
-1 1:0.014798923 2:0.068516882 3:2.0710749 4:0.0099572127 
-1 1:0.016541338 2:0.07060785 3:2.0789587 4:0.0098716852 
-1 1:0.014703611 2:0.070502193 3:2.0426536 4:0.010037405 
-1 1:0.021974787 2:0.070611141 3:2.1179303 4:0.0096595134 
-1 1:0.026443681 2:0.071357645 3:2.117245 4:0.0095943471 
-1 1:0.02203103 2:0.07251856 3:2.1434188 4:0.0098480027 
-1 1:0.015680782 2:0.072018234 3:2.1651816 4:0.010202449 
1 1:0.02321412 2:0.072099136 3:2.1691259 4:0.010107174 
-1 1:0.02469902 2:0.068489209 3:2.1675441 4:0.010056101 
-1 1:0.026706325 2:0.070442562 3:2.118137 4:0.010144332 
-1 1:0.026619502 2:0.072477356 3:2.2260726 4:0.010354313 
-1 1:0.039686528 2:0.072852406 3:2.2778844 4:0.010112499 
1 1:0.028573403 2:0.072282433 3:2.2163849 4:0.010289653 
-1 1:0.03208457 2:0.069588104 3:2.1051082 4:0.010392895 
-1 1:0.035136793 2:0.072623555 3:2.25942 4:0.010302208 
-1 1:0.051593039 2:0.070021391 3:2.2548259 4:0.010078816 
1 2:0.10155494 4:0.0089271091 
-1 2:0.065494858 3:1.1695374 4:0.011534987 
-1 2:0.065652539 3:1.173427 4:0.011282178 
-1 2:0.066142474 3:1.1343038 4:0.011218831 
-1 2:0.065897821 3:1.1305056 4:0.011208981 
-1 2:0.066169424 3:1.1140529 4:0.010702241 
-1 2:0.066141267 3:1.085397 4:0.010302342 
-0.4087137556104422 2:0.065955968 3:1.0715817 4:0.010262433 
-1 2:0.065153781 3:1.0699888 4:0.010159912 
-1 2:0.064985392 3:1.0489811 4:0.010185311 
-1 2:0.065039862 3:1.016358 4:0.0095242733 
-1 2:0.064869056 3:1.0200182 4:0.0096222299 
-1 2:0.06174292 3:0.97707232 4:0.0090529358 
-1 2:0.059520174 3:0.93721542 4:0.0088983084 
-1 2:0.061064284 3:0.90172001 4:0.0079499443 
-1 2:0.060872593 3:0.9022077 4:0.00781805 
-1 2:0.06227329 3:0.84205112 4:0.0078414559 
1 2:0.061849552 3:0.81074854 4:0.0076530479 
-1 2:0.058228702 3:0.83272297 4:0.0078210645 
1 2:0.060114503 3:0.83169975 4:0.0085652402 
-1 2:0.057762791 3:0.84337969 4:0.0076491828 
-1 2:0.059791767 3:0.8077615 4:0.0077249755 
1 2:0.059543882 3:0.82239279 4:0.0077009838 
-1 2:0.055583186 3:0.81996595 4:0.0073428621 
-1 2:0.058167594 3:0.74672052 4:0.0062153186 
-1 2:0.058464053 3:0.70740582 4:0.0071431699 
1 2:0.057952883 3:0.72218302 4:0.0072179738 
-1 2:0.053234805 3:0.76392692 4:0.0079522476 
-1 2:0.056153446 3:0.72405512 4:0.0058995453 
-1 1:0.0052791901 2:0.056720871 3:0.72860499 4:0.0050813477 
-1 2:0.058353195 3:0.72862789 4:0.0062339912 
1 2:0.059919322 3:0.66810375 4:0.0057895954 
-1 1:0.0034536662 2:0.053545231 3:0.72717187 4:0.0058032088 
1 2:0.056517761 3:0.73420187 4:0.0074379943 
-1 2:0.053645364 3:0.78334946 4:0.0078088355 
-1 2:0.053848768 3:0.8079188 4:0.0078261644 
-1 2:0.059646715 3:0.77304904 4:0.0074624068 
1 2:0.060384914 3:0.82470586 4:0.006840301 
-1 2:0.057022863 3:0.88105413 4:0.0072940489 
1 2:0.061140608 3:0.84997037 4:0.0068398426 
-1 2:0.048752198 3:1.0024292 4:0.0093101178 
-1 2:0.058185112 3:0.86241636 4:0.0072434378 
-1 2:0.059333863 3:0.86018812 4:0.0075252789 
-1 2:0.058311872 3:0.89841912 4:0.0077477612 
-1 2:0.059902172 3:0.95945942 4:0.0084692474 
-1 2:0.061342028 3:0.97945786 4:0.0088445366 
1 2:0.064377154 3:0.97603496 4:0.0073450599 
-1 2:0.060270196 3:0.97805329 4:0.0078604771 
-1 2:0.060841744 3:1.0154205 4:0.0080660061 
1 2:0.062961057 3:1.0388686 4:0.0081185411 
-1 2:0.058120379 3:1.1080845 4:0.0088398498 
-1 1:0.0059575698 2:0.060973151 3:1.0864794 4:0.0079662669 
-1 2:0.062858979 3:1.0414165 4:0.0083163397 
1 1:0.0031296053 2:0.062482056 3:1.0723252 4:0.0079981128 
-1 1:0.0047332561 2:0.058820079 3:1.1454887 4:0.0090049123 
1 1:0.0065408951 2:0.064955576 3:1.1073021 4:0.0078710038 
-1 1:0.0025833703 2:0.061185807 3:1.0962516 4:0.0086457269 
-1 2:0.065023515 3:1.1489272 4:0.0089943374 
1 1:0.0070915665 2:0.065436508 3:1.1141852 4:0.0081871916 
-1 1:0.0065641609 2:0.062949539 3:1.1364415 4:0.0087779575 
-1 1:0.0032029414 2:0.062629539 3:1.276157 4:0.010161698 
-1 1:0.0074113554 2:0.067109394 3:1.1900714 4:0.0088608747 
-1 1:0.0073843766 2:0.066448915 3:1.199179 4:0.0094213811 
-1 1:0.015830257 2:0.066477584 3:1.213639 4:0.0091366346 
-1 1:0.0086951307 2:0.066350512 3:1.1977971 4:0.0092901472 
-1 1:0.017152882 2:0.067192282 3:1.1982175 4:0.0090185565 
-1 1:0.010082814 2:0.067490503 3:1.2464471 4:0.0098652466 
1 1:0.024719564 2:0.072476696 3:1.1803193 4:0.0082596314 
-1 1:0.0070257973 2:0.066089123 3:1.2829555 4:0.010666493 
1 1:0.006208048 2:0.066853951 3:1.256576 4:0.010270625 
-1 1:0.017981446 2:0.063988775 3:1.3215412 4:0.010970331 
-1 1:0.027231373 2:0.06750457 3:1.3198191 4:0.010516837 
-1 1:0.032563282 2:0.067907234 3:1.3434098 4:0.01042673 
-1 1:0.023104533 2:0.068734855 3:1.3881665 4:0.011088242 
-1 1:0.030585883 2:0.067717692 3:1.3343387 4:0.010602646 
1 1:0.042906881 2:0.073702395 3:1.2095017 4:0.008910512 
-1 2:0.067359351 3:1.7521109 4:0.014316082 
-1 2:0.069010703 3:1.720721 4:0.013861913 
-1 2:0.069287237 3:1.709678 4:0.01364801 
-1 2:0.069499329 3:1.6620312 4:0.013549865 
-1 2:0.068187974 3:1.6523072 4:0.013238169 
-1 2:0.067340592 3:1.6489451 4:0.012889858 
-1 2:0.067753594 3:1.6240049 4:0.012753798 
-1 2:0.066734238 3:1.5807572 4:0.012299439 
-1 2:0.068180807 3:1.567859 4:0.01201834 
1 2:0.069641774 3:1.5324836 4:0.011900381 
-1 2:0.066105656 3:1.5514797 4:0.011963038 
-1 2:0.064719623 3:1.5796096 4:0.012428552 
-1 2:0.066423177 3:1.506275 4:0.011651253 
1 2:0.068016396 3:1.5029195 4:0.010989735 
-1 2:0.064900128 3:1.4967138 4:0.011557755 
1 2:0.0687304 3:1.4579754 4:0.011021053 
-1 2:0.063797401 3:1.4701734 4:0.011092054 
-1 2:0.065196175 3:1.4924037 4:0.011267611 
-1 2:0.065579163 3:1.4734823 4:0.011207201 
-1 2:0.065375936 3:1.5107291 4:0.010929325 
-1 2:0.067223718 3:1.4894986 4:0.011103564 
-1 2:0.069211478 3:1.4863921 4:0.010789459 
-0.004609621010918996 2:0.069410482 3:1.5131667 4:0.01105359 
-1 2:0.067666073 3:1.5958215 4:0.011564478 
-1 2:0.06797166 3:1.6033599 4:0.011679116 
-1 2:0.0678001 3:1.6466052 4:0.01172446 
-1 2:0.069477571 3:1.6127869 4:0.011224373 
-1 2:0.070399189 3:1.6004866 4:0.011671654 
-1 2:0.070202471 3:1.6578158 4:0.011753723 
-1 2:0.070175903 3:1.663637 4:0.011717772 
-1 2:0.070673463 3:1.681349 4:0.011832241 
-1 2:0.070040042 3:1.7140357 4:0.012155832 
-1 2:0.070633528 3:1.7290142 4:0.012082102 
1 2:0.072306186 3:1.7036016 4:0.011773432 
-1 2:0.068858317 3:1.7447955 4:0.012237997 
-1 2:0.071041467 3:1.7437222 4:0.011979578 
-1 2:0.072294758 3:1.7412765 4:0.012020333 
-1 1:0.00053451049 2:0.073803261 3:1.7530987 4:0.011918595 
-1 2:0.074720891 3:1.7532014 4:0.011877155 
-1 2:0.074442884 3:1.7691932 4:0.012044171 
1 1:0.0003229311 2:0.07482464 3:1.7960248 4:0.012222524 
-1 2:0.071314643 3:1.8158269 4:0.012558643 
-1 2:0.072085793 3:1.8336662 4:0.012680153 
1 2:0.075290251 3:1.8419212 4:0.012534962 
-1 2:0.072216506 3:1.8818683 4:0.01293398 
-1 2:0.074668303 3:1.9046166 4:0.012928285 
-1 1:0.005788907 2:0.075055793 3:1.8880509 4:0.012899513 
1 2:0.076841882 3:1.9017586 4:0.012901575 
-1 1:0.0089899608 2:0.072443781 3:1.9203493 4:0.013159562 
1 1:0.0091804193 2:0.075365675 3:1.9492277 4:0.013328284 
1 4:0.019423662 5:0.0085276823 
1 4:0.019255205 5:0.0089015211 
1 4:0.019138909 5:0.0091488895 
1 4:0.019274574 5:0.0088595033 
1 3:0.69589515 4:0.019104777 5:0.0092199508 
-1 3:0.7001432 4:0.019093959 5:0.0092423342 
1 3:0.67893152 4:0.019289785 5:0.0088263343 
1 3:0.68921416 4:0.019197315 5:0.0090256901 
1 3:0.69630305 4:0.019132535 5:0.0091622115 
-1 3:0.73623133 4:0.018759323 5:0.0099039286 
1 3:0.68732513 4:0.019276308 5:0.0088557303 
-1 3:0.69386768 4:0.019154507 5:0.0091161863 
-1 3:0.69079489 4:0.019176254 5:0.0090703508 
1 3:0.67186969 4:0.019354963 5:0.0086824766 
-1 3:0.68041964 4:0.019190666 5:0.0090398191 
1 3:0.6563867 4:0.01941629 5:0.0085444525 
-1 3:0.6423639 4:0.019441722 5:0.0084864267 
1 2:0.0066284136 3:0.59960925 4:0.019761054 5:0.0077136725 
1 2:0.0019223345 3:0.614085 4:0.01952917 5:0.008283206 
1 3:0.66129617 4:0.019182328 5:0.0090574993 
1 2:0.0017820352 3:0.64156935 4:0.019398701 5:0.0085843104 
-1 3:0.67521617 4:0.019065992 5:0.0092998907 
1 2:0.0009958928 3:0.64546233 4:0.019324512 5:0.0084516467 
-1 3:0.68230851 4:0.01908764 5:0.0092553768 
-1 2:0.0039163567 3:0.64279329 4:0.019276246 5:0.0079271522 
1 2:0.0093985531 3:0.60029829 4:0.019663901 5:0.0074970787 
-1 3:0.69202588 4:0.018739565 5:0.0085522783 
1 2:0.0026255168 3:0.65409369 4:0.019092881 5:0.0078101823 
-1 3:0.69043629 4:0.018525555 5:0.008312718 
1 2:0.0020474097 3:0.65381354 4:0.018846425 5:0.0075109011 
1 2:0.0026670787 3:0.6342178 4:0.01883905 5:0.0072222675 
-1 3:0.72182101 4:0.017864332 5:0.0081090026 
1 2:0.0012479943 3:0.65274585 4:0.01820304 5:0.0062079221 
1 3:0.68121227 4:0.018142729 5:0.0073186107 
-1 3:0.79409772 4:0.017221516 5:0.0099398509 
1 2:0.0023540942 3:0.65153298 4:0.018290875 5:0.0063989608 
-1 3:0.78816461 4:0.016117959 5:0.0085394373 
-1 3:0.72908437 4:0.017497669 5:0.0069901084 
-1 2:0.013524312 3:0.57184155 4:0.018773057 5:0.0051703003 
1 2:0.023768361 3:0.5028995 4:0.019244573 5:0.0044400299 
1 3:0.74000485 4:0.017399399 5:0.0082331152 
-1 3:0.78735326 4:0.016910556 5:0.0087105436 
1 1:0.12961181 2:0.00928693 
1 2:0.0017003267 3:0.69003614 4:0.017067641 5:0.0052269331 
1 1:0.13712624 2:0.012562699 
1 2:2.3664762e-05 3:0.69457571 4:0.017627311 5:0.0055245451 
1 3:0.79550184 4:0.014827941 5:0.007143993 
-1 3:0.83819782 4:0.014047389 5:0.007860216 
1 3:0.7142164 4:0.016943704 5:0.0053114497 
-1 3:0.79297243 4:0.014086409 5:0.0068527518 
1 3:0.75777779 4:0.013971495 5:0.0057862568 
-1 3:0.81673642 4:0.015877927 5:0.0077621125 
1 2:0.0037853874 3:0.67570116 4:0.015659734 5:0.0044948559 
-1 3:0.76677151 4:0.012632512 5:0.0060950205 
1 2:0.0076933938 3:0.65186976 4:0.015799581 5:0.0040176646 
1 3:0.75645089 4:0.013056407 5:0.0057665276 
-1 3:0.7887635 4:0.01432346 5:0.0063612103 
-1 3:0.73029968 4:0.013128831 5:0.004861307 
1 2:0.0086020645 3:0.64396338 4:0.014896232 5:0.0038065046 
-1 3:0.7294556 4:0.012326472 5:0.0053607905 
-1 1:0.14937235 2:0.025106568 
-1 3:0.73678229 4:0.011910035 5:0.0051977558 
-1 1:0.12855454 
1 3:0.7991125 4:0.011051403 5:0.0059192105 
1 2:0.0054753793 3:0.68189296 4:0.010999281 5:0.0035696975 
1 3:0.70723856 4:0.012009557 5:0.0044780322 
-1 1:0.23303434 3:2.6517534 
-0.6256446703591468 1:0.23620801 3:2.6704911 
1 1:0.15714795 3:2.1715425 
1 1:0.15956776 3:2.1923812 
1 1:0.16099535 3:2.1983474 
1 1:0.16541855 3:2.213943 
1 1:0.15973269 3:2.216639 
1 1:0.16038449 3:2.2126481 
1 1:0.16488998 3:2.2165624 
1 1:0.16597841 3:2.2292565 
0.001102711388102291 1:0.17056401 3:2.2494327 
1 1:0.15802288 3:2.2330486 5:0.00035673086 
1 1:0.15946025 3:2.2211896 5:0.00044943966 
1 1:0.15741873 3:2.2355427 5:0.00050364867 
1 1:0.15439914 3:2.27232 5:0.00078068243 
1 1:0.16029951 3:2.2609978 5:0.0010391318 
-1 1:0.15946699 3:2.2336401 5:0.0015789271 
1 1:0.16261498 3:2.2523215 5:0.0012614018 
-1 1:0.15639633 3:2.2341285 5:0.0017108321 
1 1:0.16155729 3:2.2334732 5:0.0012101098 
-1 1:0.15222733 3:2.2313815 5:0.0023709655 
1 1:0.16805571 3:2.2651005 5:0.00097469732 
1 1:0.16860761 3:2.2918488 5:0.00089127975 
0.5971779301058125 1:0.16282877 3:2.3093757 5:0.0012464099 
1 1:0.17363458 3:2.2967554 5:0.00081817902 
1 1:0.15762997 3:2.278317 5:0.0018434966 
1 1:0.1707066 3:2.2889184 5:0.0015161538 
1 1:0.16699173 3:2.3019927 5:0.0016543945 
-1 1:0.15911641 3:2.3329228 5:0.0019631167 
-1 1:0.15659289 3:2.2739545 5:0.0026230807 
1 1:0.16613743 3:2.2888224 5:0.001867304 
-1 1:0.15869777 3:2.3653775 5:0.0013717979 
1 1:0.173145 3:2.2571967 5:0.0018634494 
-1 1:0.16616223 3:2.3021095 5:0.0019194989 
-1 1:0.17938834 3:2.3015225 5:0.0014694886 
1 1:0.17798623 3:2.2248933 5:0.0020994635 
-1 1:0.17552744 3:2.2814715 5:0.0019436076 
1 1:0.17091959 3:2.2608914 5:0.0019168719 
1 1:0.16893675 3:2.2732233 5:0.0021408737 
-1 1:0.16657148 3:2.2533316 5:0.0027459799 
1 1:0.16754943 3:2.2938061 5:0.0018647678 
-1 1:0.17024342 3:2.2765046 5:0.0026324145 
1 1:0.16218485 3:2.257725 5:0.0024532841 
-1 1:0.15862217 3:2.288159 5:0.0025857766 
1 1:0.16954782 3:2.2817443 5:0.002078591 
1 1:0.17631256 3:2.2698446 5:0.0021916798 
1 1:0.17105927 3:2.2688574 5:0.002286706 
1 1:0.17477768 3:2.2792438 5:0.0024333574 
-1 1:0.18535288 3:2.2547289 5:0.0023702054 
1 1:0.18639721 3:2.2990216 5:0.0017499183 
1 1:0.16481039 3:2.2252137 5:0.0030681499 
0.02906821112421887 1:0.20342478 3:2.2986384 5:0.0004161457 
1 1:0.18308121 3:2.2246068 5:0.0019649499 
-1 1:0.1938465 3:2.2831376 5:0.00095655859 
1 1:0.17051137 3:2.2316243 5:0.0022138459 
-1 1:0.16471274 3:2.1976024 5:0.0033547026 
1 1:0.19216024 3:2.268419 5:0.0013296654 
1 1:0.18587078 3:2.2745551 5:0.001796675 
-1 1:0.16355956 3:2.183455 5:0.003138484 
1 1:0.19606183 3:2.2644335 5:0.0013699375 
1 1:0.18835787 3:2.2829537 5:0.0017564357 
-1 1:0.19714618 3:2.2575883 5:0.0016825974 
-1 1:0.1887683 3:2.2366179 5:0.0028249092 
1 1:0.1903045 3:2.1370421 5:0.0036180179 
-1 1:0.19793017 3:2.2541039 5:0.0024434531 
-1 1:0.19165585 3:2.181212 5:0.0036065472 
1 1:0.16775834 3:2.169018 5:0.0039482663 
1 1:0.19330887 3:2.1697691 5:0.0036031906 
-1 1:0.21266253 3:2.2411546 5:0.0022886574 
1 2:0.043363576 4:0.015776653 5:0.00053953526 
1 2:0.044397414 4:0.015795515 5:0.00045698543 
1 2:0.044766395 4:0.01580801 5:0.00045489592 
1 2:0.045888612 4:0.015797362 5:0.00037428004 
1 2:0.043390017 4:0.015785178 5:0.00049739789 
1 2:0.053803347 3:3.0199256 4:0.014530359 
1 2:0.051816431 3:3.0375751 4:0.014498336 
1 2:0.049104079 3:3.0411767 4:0.014518033 
1 2:0.05280113 3:3.0221152 4:0.01445205 
1 2:0.048376949 3:2.9793168 4:0.01452229 
1 2:0.043026751 3:3.1201167 4:0.01465457 
1 2:0.049633386 3:3.0353843 4:0.014533104 
1 2:0.052512528 3:3.033076 4:0.014396892 
1 2:0.051009341 3:3.0476738 4:0.014428049 
1 2:0.049003677 3:3.1036812 4:0.014435552 
1 2:0.045368908 3:3.0413872 4:0.014443488 
1 2:0.051732617 3:3.0447583 4:0.014439213 
-1 2:0.039464703 3:3.0625384 4:0.014755773 
1 2:0.053643153 3:2.9640469 4:0.014296301 
1 2:0.048825772 3:3.0711832 4:0.014458171 
1 2:0.051487537 3:3.0299078 4:0.014350976 
1 2:0.04573266 3:3.0016208 4:0.014431108 
1 2:0.049448504 3:2.9825781 4:0.014428357 
1 2:0.047792469 3:3.0153606 4:0.014461782 
1 2:0.049389783 3:3.0317897 4:0.014410409 
1 2:0.050776899 3:3.0211749 4:0.014301355 
1 2:0.051718882 3:3.0219009 4:0.014426629 
1 2:0.046558686 3:3.0119541 4:0.014379713 
1 2:0.050908204 3:3.0389945 4:0.01430007 
1 2:0.050893799 3:3.0385176 4:0.014247386 
1 2:0.04746474 3:3.0462801 4:0.014417361 
1 2:0.044119544 3:3.0980896 4:0.014489891 
1 2:0.056419591 3:2.993522 4:0.014134749 
1 2:0.04939504 3:3.0780562 4:0.014320937 
1 2:0.051083165 3:3.0891592 4:0.014330028 
-1 2:0.047140383 3:3.0590506 4:0.014505364 
1 2:0.051557615 3:3.0458199 4:0.014368371 
1 2:0.049984376 3:3.0357646 4:0.014302172 
1 2:0.049212863 3:3.0439097 4:0.014278889 
-1 2:0.050352353 3:3.0137985 4:0.014364815 
1 2:0.054719758 3:2.9628971 4:0.014129341 
-1 2:0.03767839 3:3.0729744 4:0.01489765 
1 2:0.054288632 3:2.9673521 4:0.014145715 
1 2:0.053600583 3:3.0054709 4:0.014084869 
-1 2:0.049219797 3:3.0288375 4:0.014399321 
1 2:0.062259145 3:3.0198475 4:0.013958506 
1 2:0.05666167 3:3.0310832 4:0.013985746 
1 2:0.052882869 3:3.0569995 4:0.014320029 
1 2:0.051601865 3:3.0040301 4:0.014213127 
1 2:0.04939441 3:3.048105 4:0.01445869 
1 2:0.053037375 3:3.0246881 4:0.014382196 
1 2:0.054501712 3:2.9625096 4:0.014418146 
1 2:0.052937044 3:3.0249991 4:0.014271251 
1 2:0.059450354 3:2.9555113 4:0.014042036 
1 2:0.058814532 3:2.9456013 4:0.013868816 
-1 2:0.042690654 3:2.984895 4:0.014598594 
1 2:0.058891264 3:2.9801619 4:0.014062729 
-1 2:0.058801953 3:2.9047312 4:0.014043543 
1 2:0.061300441 3:2.9076335 4:0.013938088 
1 2:0.056867442 3:2.9422001 4:0.01396298 
1 2:0.052772538 3:3.012686 4:0.014136485 
-1 2:0.053245356 3:2.9723052 4:0.014166255 
1 2:0.06059971 3:2.9213058 4:0.013981737 
1 2:0.059104768 3:2.8603868 4:0.01397279 
1 2:0.062240043 3:2.8714383 4:0.014068302 
-1 2:0.050612551 3:2.9948647 4:0.014513094 
1 2:0.06725342 3:2.842406 4:0.013816849 
1 2:0.062363413 3:2.8513409 4:0.014030971 
1 2:0.065438991 3:2.8454077 4:0.013665145 
-1 2:0.04868703 3:2.9095106 4:0.014587752 
1 2:0.061681035 3:2.826538 4:0.013516524 
-1 2:0.059849942 3:2.8624568 4:0.013598516 
1 2:0.062312334 3:2.8565996 4:0.01386214 
-1 2:0.06114077 3:2.85856 4:0.0138569 
1 2:0.070009598 3:2.8057833 4:0.013379966 
-0.9805380588794713 2:0.066481528 3:2.7484875 4:0.013439132 
1 2:0.065872657 3:2.8266933 4:0.013519682 
-1 2:0.06151275 3:2.8451268 4:0.013721937 
1 2:0.064239078 3:2.8595718 4:0.013452474 
1 2:0.059643585 3:2.8559449 4:0.014587928 
-1 2:0.053449736 3:2.9009018 4:0.014630709 
1 2:0.065399457 3:2.8623172 4:0.013377233 
1 2:0.063621002 3:2.8498605 4:0.013734433 
-1 2:0.065391479 3:2.8077308 4:0.014139473 
1 2:0.071545836 3:2.7758316 4:0.013699676 
1 2:0.0634035 3:2.8152822 4:0.01340849 
-1 2:0.05944018 3:2.9002135 4:0.013760556 
1 1:0.11138042 5:0.0028790241 
1 1:0.10536298 5:0.0035991568 
1 1:0.11380706 5:0.0030954956 
-1 1:0.073428008 3:2.0195276 5:0.0087534448 
-1 1:0.079214141 3:1.9970539 5:0.008088451 
1 1:0.075916149 3:1.9866626 5:0.0080002773 
1 1:0.06554881 3:1.9464554 5:0.0089149146 
-1 1:0.071849454 3:1.8959692 5:0.0089771982 
-1 1:0.056625232 3:1.9135261 5:0.0093720988 
1 1:0.062556408 3:1.9485674 5:0.008608096 
-1 1:0.059968877 3:1.8900683 5:0.0091690784 
1 1:0.051756515 3:1.932406 5:0.0093253173 
-1 1:0.063885236 3:1.9027879 5:0.0093932827 
-1 1:0.065699792 3:1.8995503 5:0.0088290954 
1 1:0.062735473 3:1.9129475 5:0.008400676 
-1 1:0.054934165 3:1.8786178 5:0.0097722407 
1 1:0.05467862 3:1.9558434 5:0.0088898938 
-1 1:0.047412525 3:1.8599133 5:0.010069187 
-1 1:0.058124801 3:1.9128313 5:0.009303942 
1 1:0.057656439 3:1.8985294 5:0.0090277822 
-1 1:0.052445384 3:1.8935889 5:0.0095111655 
1 1:0.038381373 3:1.9187955 5:0.0094326833 
-1 1:0.02758325 3:1.8267946 5:0.0110285 
-1 1:0.026879695 3:1.9114998 5:0.010436235 
1 1:0.04018487 3:1.8906702 5:0.0091943688 
1 1:0.0207043 3:1.8699881 5:0.011088626 
-1 1:0.017828899 3:1.8179299 5:0.01150943 
1 1:0.028257872 3:1.8763941 5:0.0098403693 
1 1:0.011966813 3:1.766855 5:0.011665396 
1 1:0.014478333 3:1.8139386 5:0.01172084 
-1 1:0.031713517 3:1.7090585 5:0.011576442 
-1 1:0.0041617607 3:1.7759546 5:0.011778145 
1 1:0.041324148 3:1.8035957 5:0.0093984338 
-1 1:0.00041791217 3:1.7326702 5:0.012816885 
1 1:0.024199358 3:1.8433924 5:0.010314795 
-1 3:1.7223255 5:0.012859407 
1 1:0.00047530598 3:1.8025352 5:0.011459667 
-1 1:0.0065089582 3:1.6899383 5:0.012047976 
-1 1:0.020010743 3:1.8522399 5:0.009732725 
1 1:0.026088436 3:1.9270522 5:0.0073351773 
-1 1:0.01955702 3:1.9982085 5:0.007158595 
-1 1:0.14460185 3:1.6244258 5:0.005589989 
-1 3:1.7602459 5:0.013074239 
1 1:0.19113441 3:1.6948826 5:0.0025962106 
-1 1:0.14275868 3:1.721095 5:0.0053806601 
1 1:0.13895373 3:1.6742406 5:0.0052827435 
1 1:0.14201238 3:1.857243 5:0.0031220553 
-1 1:0.11446732 3:1.7271869 5:0.0069112136 
1 1:0.14219752 3:1.7471199 5:0.0049698059 
-1 1:0.13994988 3:1.7581364 5:0.0046438823 
1 1:0.11468853 3:1.7514376 5:0.0062453895 
-1 1:0.12439686 3:1.8306723 5:0.0054408687 
-1 1:0.173206 3:1.7233966 5:0.0046160753 
-1 1:0.12169711 3:1.7141873 5:0.0063217425 
-1 2:0.1012795 4:0.0070964698 
-1 1:0.12472565 3:1.5913192 5:0.0079736698 
-1 2:0.069466479 3:2.7675093 
-1 1:0.18280725 2:0.037538239 3:2.4926318 
-1 1:0.12299536 3:1.7414548 5:0.0070078801 
-1 1:0.11171426 3:1.5673247 5:0.0091592974 
-1 1:0.044450442 2:0.070451688 3:2.9896092 
1 1:0.044088522 2:0.075628106 3:3.0554101 
-1 1:0.070983112 2:0.069593419 
-1 1:0.14453299 3:1.5962426 5:0.0077269148 
1 2:0.077936019 4:0.010963403 
1 2:0.087270244 
-1 1:0.055320026 3:2.2629383 5:0.0047917331 
1 1:0.026099866 2:0.083450102 
-1 1:0.078453336 3:1.9566032 5:0.0076983103 
-1 2:0.084323378 4:0.00042126301 
-1 1:0.079931279 3:1.8004419 5:0.0090939593 
-1 1:0.10698085 3:1.7963546 5:0.007797826 
-1 1:0.07207292 3:2.2618805 5:0.0039107147 
1 1:0.099330519 3:1.8847553 5:0.0071799583 
1 2:0.051890847 4:0.011189101 
1 1:0.04966852 3:1.3233995 5:0.013547914 
1 1:0.14581612 3:1.9593429 5:0.0053550679 
1 2:0.06902143 4:0.0062820717 
-1 1:0.018358617 2:0.071634832 
1 1:0.13195977 3:1.766163 5:0.0079623654 
-1 1:0.094906176 3:1.9503832 5:0.0077997762 
1 1:0.056233388 2:0.064944885 
-1 3:0.088787192 4:0.010867365 5:0.010413946 
1 1:0.038556912 3:2.2507094 5:0.0072036733 
1 2:0.069537808 4:0.0067265904 
-1 1:0.082194447 3:1.5781988 5:0.011604144 
1 1:0.062614315 3:1.3008406 5:0.013744162 
1 1:0.095864542 3:1.905797 5:0.0092164042 
-1 1:0.032038892 3:1.8849968 5:0.012913841 
-1 1:0.04593556 3:2.0301693 5:0.010820629 
-1 1:0.052401333 3:2.2208372 5:0.008437927 
1 3:0.30619022 4:0.010294247 5:0.010910088 
1 1:0.089035357 3:2.5589036 5:0.004147443 
-1 1:0.083922497 2:0.0074981553 3:2.8225961 
-1 1:0.093798083 3:1.8815279 5:0.0096408532 
-1 1:0.13807875 3:1.7092843 5:0.0095555746 
-1 1:0.069662204 3:1.5339459 5:0.012598036 
1 2:0.064835431 4:0.0089442444 
1 4:0.012499782 5:0.008355637 
1 3:0.81720276 4:0.0042997079 5:0.014440265 
-1 1:0.058711209 3:1.5404444 5:0.01305426 
-1 1:0.0582309 3:1.4130405 5:0.013638016 
-1 3:0.53250414 4:0.0087702889 5:0.01219315 
-1 1:0.069235692 2:0.035680986 
-1 3:0.22669271 4:0.0098519019 5:0.011407784 
1 1:0.064418912 2:0.065779667 
-1 1:0.074952506 2:0.032626199 
1 1:0.012588335 3:0.54796513 4:0.0042108196 5:0.014741878 
-1 1:0.0079750868 3:0.93783208 4:0.00062706218 5:0.014996561 
-1 1:0.056795415 2:0.0098790735 3:2.8841717 
-1 1:0.08341013 3:2.2172885 5:0.0082529712 
-1 3:1.0675352 4:0.0013793814 5:0.015069253 
1 1:0.054613419 2:0.030233928 
-1 3:1.8392781 4:4.0393175e-05 5:0.013081017 
1 3:1.7505782 4:0.0019612346 5:0.011091973 
-1 3:2.4906006 5:0.014645166 
1 2:0.043266636 3:1.4763709 4:0.003536427 5:0.0089062731 
1 2:0.081931542 4:0.0090544799 
-1 2:0.078632043 4:0.0093855195 
1 2:0.087022677 4:0.0084558472 
-1 2:0.083380851 4:0.0088387126 
-1 2:0.089932968 4:0.0084238248 
1 2:0.096779624 4:0.0076253313 
-1 2:0.071262776 3:0.41371113 4:0.0082716977 
-0.4801442891725601 2:0.071632456 3:0.33533446 4:0.008098436 
-1 2:0.068599603 3:0.3367629 4:0.007877617 
1 2:0.070258568 3:0.34066075 4:0.0069955508 
-1 2:0.066236806 3:0.32770588 4:0.0078748551 
-1 2:0.070081406 3:0.30668834 4:0.0073905963 
-1 2:0.07103305 3:0.30498807 4:0.0070462955 
-1 2:0.069283904 3:0.23999058 4:0.0070969926 
1 2:0.069745477 3:0.22054389 4:0.006686165 
1 2:0.067735926 3:0.21397612 4:0.0061352627 
-1 2:0.064408457 3:0.25969188 4:0.0066517766 
-1 2:0.062172106 3:0.23083202 4:0.0060784301 
-1 2:0.061462307 3:0.17844461 4:0.0058691343 
1 2:0.064736412 3:0.15529252 4:0.0053563508 
-1 2:0.056647252 3:0.19207693 4:0.0058609064 
-1 2:0.060044865 3:0.1424435 4:0.0062933032 
1 2:0.062174505 3:0.11684048 4:0.0062787538 
-1 2:0.057034306 3:0.074623994 4:0.0050366296 
1 2:0.05848398 3:0.086885344 4:0.0057807573 
-1 2:0.055649243 3:0.047244561 4:0.0052534457 
1 2:0.054741347 4:0.0055140785 
-1 2:0.052294715 4:0.0051037211 
-0.3404389183375933 2:0.055994989 4:0.0048123335 
1 2:0.055928793 4:0.0062397772 
-1 2:0.052406166 4:0.0061466437 
1 2:0.057523329 4:0.0039916943 
1 2:0.054413733 4:0.0032961372 
-1 2:0.0529558 4:0.003346369 
1 2:0.055247905 4:0.003371658 
-1 2:0.046936467 4:0.0048309939 
1 1:0.014065708 2:0.051886548 4:0.001867252 
-1 2:0.045851714 4:0.0048194826 
1 1:0.0028279102 2:0.049191049 4:0.0030841248 
-1 2:0.044320872 4:0.004791935 
-1 3:3.140583 5:0.017243452 
1 1:0.0094333116 2:0.045827852 4:0.0023334976 
-1 2:0.037342794 4:0.0043747971 
1 2:0.04513835 4:0.0045555777 
-1 3:0.10198254 4:0.010386851 
-1 5:0.017110454 
-1 2:0.02113786 4:0.0080598046 
-1 1:0.010875783 2:0.045913882 4:0.0024617772 
-1 1:0.031345827 2:0.054460496 4:0.0011004269 
-1 1:0.21166528 
-1 1:0.002427565 2:0.039443467 4:0.00354687 
1 1:0.097693817 2:0.046491036 
-1 1:0.035560602 2:0.039834004 4:0.0010310962 
-1 1:0.021374627 2:0.042361853 4:0.0027008386 
1 1:0.012626487 2:0.04463974 4:0.0025684404 
1 3:2.9890523 4:0.0021195375 5:0.0177025 
1 1:0.070599571 2:0.070353992 3:0.086085632 4:0.0033114454 
-1 1:0.0058859845 2:0.049002051 4:0.0045623391 
-1 3:2.9821007 4:0.00013884995 5:0.017433747 
1 3:2.7570292 4:0.0027847831 5:0.016338119 
-1 1:0.025539785 2:0.044877736 4:0.004401363 
1 1:0.0083290383 2:0.047268557 4:0.0039837637 
-1 1:0.023165769 2:0.036893856 4:0.0032638151 
-1 1:0.014664582 2:0.050767722 4:0.0037027145 
-1 5:0.016417245 
1 1:0.019444864 2:0.05004391 4:0.0031309383 
-1 3:3.0776246 5:0.016827485 
1 3:3.0664658 5:0.01543163 
1 1:0.082412625 2:0.056854187 4:0.0014579053 
1 1:0.040904993 2:0.042910337 4:0.0019559155 
1 1:0.13070256 2:0.080947453 3:0.1241116 4:0.0044055327 
-1 3:2.5962991 4:0.0031486833 5:0.015561398 
1 1:0.1207925 2:0.054820876 4:4.1050704e-05 
1 1:0.086467721 2:0.06054353 3:0.024161598 4:0.0038447634 
1 1:0.011488297 2:0.075764466 3:3.069264 
1 1:0.012319154 2:0.076074044 3:3.0680213 
1 1:0.01074072 2:0.075889987 3:3.0706899 
1 1:0.011623245 2:0.076275942 3:3.0704175 
1 1:0.011387956 2:0.075712313 3:3.0758945 
1 1:0.01032522 2:0.07598848 3:3.077064 
1 1:0.016636973 2:0.076103783 3:3.0679943 
1 2:0.053537799 3:0.7013293 4:0.0021039917 
-1 2:0.049248354 3:0.67198749 4:0.0020008519 
-1 2:0.05006631 3:0.71771848 4:0.0025043961 
-1 2:0.049337475 3:0.69500556 4:0.0013273416 
1 2:0.052345816 3:0.56617099 4:0.0021643425 
-1 1:0.012423822 2:0.046196967 3:0.72008909 4:0.00017413538 
-1 1:0.0020461068 2:0.04575608 3:0.69344903 4:0.00096202312 
-1 1:0.0090544329 2:0.045712012 3:0.45736592 4:8.5022818e-05 
-1 1:0.0074093593 2:0.045990196 3:0.61351784 4:0.00030919147 
1 1:0.00064563355 2:0.053892743 3:0.68432502 4:0.0015880586 
-1 1:0.013864346 2:0.0378486 3:0.53345642 
1 1:0.017806342 2:0.052805883 3:0.56108152 
-1 1:0.01778184 2:0.046693557 3:0.61773699 
-1 2:0.047838986 3:0.50985284 4:0.0018074324 
-1 1:0.025093717 2:0.055179003 3:0.6650024 
1 1:0.005325623 2:0.068106808 3:0.79177842 4:0.0019516042 
1 1:0.0012471088 2:0.065803165 3:0.74123555 4:0.0020651835 
-1 1:0.010543622 2:0.051938254 3:0.59719545 4:0.00022701999 
1 1:0.016917737 2:0.058868125 3:0.68887399 4:0.00055983524 
-1 1:0.012433251 2:0.044157311 3:0.51535095 
1 2:0.082776165 3:0.86806989 4:0.0042301646 
-1 1:0.0099060977 2:0.049109815 3:0.69796362 4:0.00052239809 
-1 1:0.0022732059 2:0.067104801 3:0.7109291 4:0.0023315069 
-1 1:0.0059031717 2:0.068580904 3:0.82260105 4:0.0021534574 
1 4:0.010390827 5:0.01677419 
-1 1:0.01799498 2:0.041297151 3:0.43834822 
1 1:0.0070857218 2:0.070099038 3:0.64926424 4:0.0020811473 
-1 1:0.018558314 2:0.056662106 3:0.71636586 4:0.00074647389 
1 1:0.0036864305 2:0.059755408 3:0.61756045 4:0.001925275 
1 4:0.0059306257 5:0.019265831 
1 4:0.0084810376 5:0.018057439 
1 1:0.0023288654 2:0.061624188 3:0.68874792 4:0.0026888726 
1 1:0.00599493 2:0.044788606 3:0.47079741 4:0.0013444724 
1 5:0.018336649 
-1 4:0.0080925868 5:0.017547117 
-1 1:0.094614496 2:0.068325726 3:0.77203364 
1 1:0.13440745 2:0.051543041 3:0.68603831 
-1 1:0.010066329 2:0.028629291 3:0.34214537 4:0.00045068811 
-1 1:0.0090392409 2:0.049209499 3:0.54091809 4:0.0027354888 
1 2:0.056834606 3:0.66892506 4:0.0041560821 
-1 1:0.011259959 2:0.029685171 3:0.34175971 4:0.00064806196 
-1 1:0.029110599 2:0.047262249 3:0.54909193 4:0.0010134003 
1 1:0.095095475 2:0.046040003 3:0.62241191 
-0.3023637850444871 2:0.065812355 3:0.67174663 4:0.0054263539 
-1 2:0.065520878 3:0.82301585 4:0.0048750599 
-1 1:0.14742037 2:0.040622395 3:0.54702035 
1 2:0.048403257 3:0.50051345 4:0.0047702323 
-1 5:0.013733294 
-1 1:0.0020859986 2:0.040273356 3:0.41045932 4:0.0028036715 
1 2:0.080406749 3:0.9516879 4:0.0071679541 
1 2:0.076706696 3:0.88859434 4:0.0063472044 
1 1:0.024831009 2:0.033241339 3:0.26483227 4:0.00021753689 
-1 5:0.00071190595 
-1 1:0.067434317 2:0.055316317 3:0.52319489 
1 2:0.066759566 3:0.87534413 4:0.006258523 
-1 1:0.017417543 2:0.058576908 3:0.65616913 4:0.0032494953 
1 2:0.071761766 3:0.73740576 4:0.0062987441 
1 2:0.062534053 3:0.74917176 4:0.0061010043 
1 4:0.0013825638 5:0.018126023 
1 1:0.15004479 2:0.050895271 3:0.61443467 
-1 5:0.01755829 
1 2:0.0800008 3:0.85284866 4:0.0073872452 
1 2:0.064440563 3:0.82452872 4:0.0070611361 
-1 2:0.046737064 3:0.48707995 4:0.0046276213 
-1 2:0.053164713 3:0.48763143 4:0.0047518602 
1 2:0.066523082 3:0.81666997 4:0.0065677712 
1 2:0.051161284 3:0.63602849 4:0.0049688738 
-1 1:0.013526624 
-1 2:0.052773006 3:0.64174312 4:0.0048380281 
-1 1:0.0016630563 2:0.068268911 3:0.68641004 4:0.0058271225 
1 1:8.5136579e-05 2:0.071130554 3:0.85832852 4:0.0060731461 
-1 2:0.039336261 3:0.45271775 4:0.0041541236 
-1 1:0.011883231 2:0.058085051 3:0.6921158 4:0.0040514662 
1 1:0.01444829 2:0.062577816 3:0.63240315 4:0.0045936549 
-1 1:0.033405368 2:0.039231019 3:0.53166378 4:0.0010003755 
1 1:0.0013849661 2:0.063816984 3:0.59841449 4:0.0057650229 
-1 2:0.049155628 3:0.66212028 4:0.0052164023 
-1 2:0.083960424 3:0.84613846 4:0.007781014 
1 2:0.085631312 3:1.0574895 4:0.0084812908 
-1 1:0.022912722 2:0.043001077 3:0.51758357 4:0.0021179787 
-1 2:0.061033035 3:0.50677784 4:0.0058409689 
1 2:0.10734454 3:1.6556517 4:0.012715447 
1 1:0.010487438 2:0.054703917 3:0.61295702 4:0.0042228135 
-1 2:0.046609442 3:0.41407212 4:0.0051665576 
-1 1:0.025712145 2:0.068043044 3:0.69485543 4:0.0037913824 
1 2:0.096244382 3:2.3676509 4:0.015948768 5:0.0009551752 
1 2:0.10905631 3:1.2451221 4:0.010759754 
-1 2:0.0574088 3:0.54830378 4:0.0053788289 
1 1:0.00079698092 2:0.062807348 3:0.68984357 4:0.0054713514 
-1 1:0.0042491055 2:0.058808766 3:0.76840719 4:0.0049237348 
1 2:0.066555923 3:0.68539162 4:0.0058587051 
-1 2:0.062727978 3:0.68717022 4:0.0058035702 
1 2:0.072869973 3:0.70686885 4:0.0065239237 
1 2:0.070157772 3:0.77406995 4:0.0060731437 
-1 1:0.011842807 2:0.064551796 3:0.68039046 4:0.0043157676 
-1 1:0.0049892466 2:0.065498421 3:0.73533562 4:0.0053315658 
-1 2:0.066875725 3:0.84314557 4:0.0056031837 
-1 2:0.06826622 3:0.64957611 4:0.0058277072 
-1 1:0.0047775397 2:0.073494305 3:0.802761 4:0.0055061531 
1 2:0.085583026 3:0.92473812 4:0.0068663221 
-1 2:0.075564712 3:0.84488554 4:0.0060063614 
-1 1:0.0068239336 3:1.7930684 4:0.0098442557 5:0.017984825 
-1 3:1.7499474 4:0.011264163 5:0.017680481 
-1 1:0.0035958486 3:1.7771307 4:0.010264973 5:0.017857822 
-1 1:0.0063315035 3:1.78832 4:0.009911386 5:0.017933347 
-1 1:0.0038528554 3:1.782626 4:0.010217053 5:0.017926226 
-1 1:0.0039259174 3:1.7834661 4:0.010207082 5:0.017936048 
-1 1:0.0054085583 3:1.786313 4:0.010024137 5:0.017932414 
-1 1:0.012560173 3:0.46281578 4:0.0071344352 5:0.017152149 
-1 1:0.011686241 3:0.44956248 4:0.0070688669 5:0.017108611 
-1 1:0.013491969 3:0.45378894 4:0.0067178726 5:0.017065775 
-1 1:0.015570422 3:0.4620325 4:0.0062456441 5:0.017021446 
-1 1:0.019638427 3:0.4681081 4:0.0056335953 5:0.016944223 
-1 1:0.017354196 3:0.46513754 4:0.0058248489 5:0.016935667 
-1 1:0.018771112 3:0.47662507 4:0.0054101548 5:0.01690009 
-1 1:0.019100093 3:0.47060734 4:0.0052960517 5:0.01680923 
-1 1:0.018191449 3:0.46488006 4:0.0052544722 5:0.016789258 
-1 1:0.027676939 3:0.47538593 4:0.003977841 5:0.016586355 
-1 1:0.023076797 3:0.45178503 4:0.0045308509 5:0.016593286 
1 1:0.025077629 3:0.47322875 4:0.0036077589 5:0.016526782 
-1 1:0.013837177 3:0.45128078 4:0.0050297038 5:0.016636395 
1 1:0.020567217 3:0.53843756 4:0.0033606197 5:0.016730514 
-1 1:0.026532282 3:0.50147495 4:0.0028947489 5:0.016482121 
1 1:0.028440047 3:0.54610611 4:0.0022358104 5:0.016488959 
1 1:0.030361203 3:0.5355835 4:0.0020470814 5:0.016374857 
-1 1:0.017167293 3:0.53283662 4:0.0035457677 5:0.016624244 
1 1:0.026621893 3:0.57480534 4:0.001609 5:0.016492214 
1 1:0.047001789 3:0.60206256 5:0.015762746 
1 1:0.016734094 3:0.50089518 4:0.0032866816 5:0.016435087 
1 1:0.022674743 3:0.53154881 4:0.0020574814 5:0.01636626 
-1 1:0.037987431 3:0.58269039 5:0.0159655 
-1 1:0.035486228 3:0.56476645 4:0.00028660942 5:0.015915799 
1 1:0.033693572 3:0.55342837 4:0.0003036359 5:0.01595093 
1 1:0.033805491 3:0.57493482 4:3.3135337e-06 5:0.015917764 
1 1:0.040084761 3:0.57201812 5:0.015682297 
1 1:0.029675957 3:0.58381139 5:0.015922964 
-1 1:0.019663406 3:0.56425298 4:0.00081488001 5:0.01622919 
1 1:0.046413292 3:0.66358694 5:0.015217349 
1 1:0.038431285 3:0.61900362 5:0.015535011 
-1 1:0.016570349 3:0.51025132 4:0.0017396533 5:0.016091562 
1 1:0.030658887 3:0.56401436 5:0.015731023 
1 1:0.036657174 3:0.55016957 5:0.015535363 
-1 1:0.034024089 3:0.51678663 5:0.015586105 
1 1:0.030633778 3:0.60104858 5:0.015688099 
1 1:0.024818518 3:0.52987736 4:0.00010869291 5:0.015853136 
1 1:0.030431481 3:0.52462023 5:0.015641924 
-1 1:0.010718026 3:0.39672674 4:0.0031568942 5:0.015841829 
1 1:0.013371091 3:0.45507527 4:0.0018349352 5:0.016023462 
-1 1:0.023783734 3:0.49368684 4:0.00013725315 5:0.015827749 
1 1:0.026545468 3:0.61948578 5:0.015705418 
-1 1:0.037775415 3:0.57576648 5:0.01533053 
1 1:0.044135144 3:0.62427468 5:0.014910933 
-1 1:0.030626267 3:0.62260416 5:0.015467162 
1 1:0.043574913 3:0.68663238 5:0.014913403 
-1 1:0.027432834 3:0.53111971 4:0.00020291211 5:0.015549873 
1 1:0.046673675 3:0.59324429 5:0.014891779 
-1 1:0.018681279 3:0.44261567 4:0.0012787077 5:0.015707101 
1 1:0.031257992 3:0.58885253 5:0.015386088 
-1 1:0.019505905 3:0.44545923 4:0.00089618285 5:0.01567725 
1 1:0.035026191 3:0.53739659 5:0.015254298 
1 1:0.039915222 3:0.48095991 5:0.015131324 
1 1:0.036904345 3:0.49068282 5:0.015196029 
1 1:0.027226822 3:0.4652694 5:0.015453876 
-1 1:0.017672656 3:0.36130305 4:0.001918457 5:0.015447567 
-1 1:0.043419544 3:0.57011709 5:0.014889788 
1 1:0.043257716 3:0.75530789 5:0.01400918 
1 1:0.034360548 3:0.44945198 5:0.015228612 
-1 1:0.032271413 3:0.45774665 5:0.015252356 
-1 1:0.025599028 3:0.46767177 5:0.01542997 
-1 1:0.038791737 3:0.52834176 5:0.014971033 
-1 1:0.029690084 3:0.5958975 5:0.015195104 
1 2:0.092975922 4:0.003534041 
-1 1:0.042719109 3:0.65550424 5:0.014675499 
1 1:0.040366883 3:0.71186946 5:0.014705087 
-1 1:0.019372395 3:0.56170824 5:0.015612358 
1 1:0.045048018 3:0.65256373 5:0.014493408 
1 1:0.052158242 3:0.63423694 5:0.014207613 
-1 1:0.038791355 3:0.51076319 5:0.015027456 
1 1:0.033937905 3:0.57394253 5:0.015089247 
1 1:0.038439107 3:0.46910615 5:0.015057272 
-1 1:0.036092069 3:0.45467018 5:0.015111971 
1 1:0.03844079 3:0.64584239 5:0.014653684 
-1 1:0.047442402 3:0.50965296 5:0.014719558 
1 1:0.044384376 3:0.52699105 5:0.014840639 
1 1:0.017653706 3:0.37287182 4:0.0014861737 5:0.015335337 
-1 1:0.034619214 3:0.31350071 4:6.5830731e-05 5:0.015078618 
-1 1:0.03321716 3:0.45542475 5:0.015127871 
1 1:0.033900701 3:0.46300736 5:0.015077692 
1 1:0.022050891 3:0.22067083 4:0.002056806 5:0.015005861 
-1 1:0.11800121 3:0.42131401 5:0.013957 
1 1:0.049420606 3:0.52468552 5:0.014612577 
-1 1:0.03508505 3:0.25256171 4:0.00059128901 5:0.01503422 
-1 1:0.051320967 3:0.67627304 5:0.014138139 
1 2:0.054861669 4:0.009133945 
-1 1:0.035942535 3:0.55994716 5:0.015021625 
1 1:0.02535771 3:0.57964177 5:0.015328934 
1 1:0.027839085 3:0.44850985 5:0.015257964 
1 1:0.10538575 3:0.4063268 5:0.014192364 
-1 1:0.033065794 3:0.29464888 4:0.00039638889 5:0.015083144 
-1 1:0.037585136 3:0.39409342 5:0.015062677 
-1 1:0.035248566 3:0.48247925 5:0.015045337 
-1 1:0.058897676 3:0.79839365 5:0.012751152 
1 1:0.098001249 3:0.41268869 5:0.014188959 
1 1:0.099591261 3:0.39704739 5:0.014347846 
1 2:0.039081056 4:0.011206077 
1 1:0.04886961 3:0.75263485 5:0.013559873 
-1 1:0.11056699 3:0.44695723 5:0.013559203 
1 1:0.10649642 3:0.43986802 5:0.013694348 
-1 2:0.046752908 4:0.010676691 
-1 1:0.1195771 3:0.43308892 5:0.013502313 
-1 1:0.031542745 3:0.53399398 5:0.01515258 
1 1:0.028038664 3:0.69164343 5:0.014838703 
-1 1:0.023543919 3:0.62408542 5:0.015421598 
1 2:0.055291339 4:0.0090918227 
-1 1:0.071347096 3:0.41098375 5:0.014543486 
1 1:0.024009235 3:0.81844808 5:0.014267654 
1 1:0.097792059 3:0.65856706 5:0.012865938 
1 1:0.035344224 3:0.6075079 5:0.015084062 
1 1:0.026331705 3:0.48910256 5:0.015372663 
-1 4:0.013764167 
1 1:0.021110411 3:0.40999709 4:0.00028331596 5:0.015460636 
1 1:0.024575687 3:0.36982662 4:0.00040321379 5:0.015340358 
-1 1:0.10986114 3:0.41929223 5:0.013849689 
1 1:0.021164169 3:0.52284986 5:0.015515614 
1 1:0.014173335 3:0.32380103 4:0.001997839 5:0.015399233 
-1 1:0.083393647 3:0.44998994 5:0.014313508 
1 1:0.082438202 3:0.66938024 5:0.01298559 
-1 1:0.084857548 3:0.43453795 5:0.014334378 
1 1:0.082733979 3:0.69759716 5:0.013091458 
1 2:0.017209366 4:0.011852793 
1 1:0.085414858 3:0.63062655 5:0.013458226 
-1 1:0.018372055 3:0.55056222 5:0.015592417 
-1 2:0.062641123 4:0.0065940459 
-1 1:0.074145079 3:0.33703126 5:0.014781445 
-1 1:0.08058622 3:0.40558431 5:0.014512563 
1 1:0.094212623 2:0.01230027 3:0.97808898 5:0.0096088894 
-1 1:0.025849595 3:0.46875597 5:0.015400995 
-1 1:0.086741195 2:0.0092997037 3:0.99522069 5:0.010127826 
1 2:0.055630217 4:0.0069406431 
1 1:0.073374692 3:0.53384499 5:0.01422361 
-1 1:0.1011576 3:0.56190929 5:0.013836612 
1 2:0.026047958 4:0.0097063789 
-1 2:0.04783955 4:0.007577555 
1 2:0.075180459 3:1.8950606 4:0.0067265513 
-1 2:0.072105298 3:1.9640596 4:0.0071140717 
-1 2:0.070701237 3:2.0300479 4:0.0071939765 
-1 2:0.075384238 3:1.8969528 4:0.0062085142 
-1 2:0.074703982 3:1.9563454 4:0.0062982902 
1 2:0.077639004 3:1.8750476 4:0.0059277837 
-1 2:0.072558807 3:1.9248383 4:0.0072712586 
-1 2:0.076671635 3:1.8960855 4:0.0057777821 
1 2:0.074025273 3:1.9481435 4:0.0070593687 
-1 2:0.074069022 3:1.9335549 4:0.0061998249 
-1 2:0.077331487 3:1.7836789 4:0.0054393223 
-1 2:0.076365322 3:1.871433 4:0.0058188468 
-1 2:0.073452091 3:1.9037528 4:0.006630059 
-1 2:0.07319962 3:1.8918271 4:0.0065326119 
-1 2:0.074097709 3:1.9326682 4:0.0066023862 
-1 2:0.074506591 3:1.9401111 4:0.0066094584 
-1 2:0.076600856 3:1.881643 4:0.0057166045 
-1 2:0.075049181 3:1.8990951 4:0.0066937109 
-1 2:0.075771528 3:1.9640074 4:0.0067823404 
1 2:0.074763563 3:2.0055613 4:0.0070456796 
-1 2:0.064962542 3:2.1376746 4:0.008915454 
-1 2:0.078155835 3:1.9330017 4:0.006112027 
-1 2:0.070858318 3:2.0886043 4:0.0080148325 
-1 2:0.075770034 3:1.8866014 4:0.0061902152 
-1 2:0.073523249 3:1.9906535 4:0.0072946659 
1 2:0.074897824 3:2.1001651 4:0.0074243777 
-1 2:0.073747573 3:1.9398084 4:0.0070015153 
-1 2:0.074762863 3:2.0492245 4:0.0067322763 
1 2:0.070315832 3:2.0915464 4:0.0084880556 
-1 2:0.057145601 3:2.2709939 4:0.010521077 
-1 2:0.075931001 3:1.8985287 4:0.0060337328 
1 2:0.079108359 3:1.9220945 4:0.0057733093 
-1 2:0.067861397 3:2.0954628 4:0.0086975055 
-1 2:0.074377341 3:2.0266387 4:0.0070576268 
1 2:0.079023841 3:1.9032223 4:0.0058732781 
-1 2:0.076742359 3:1.8841472 4:0.0059815869 
1 2:0.067962089 3:2.2140885 4:0.0096664669 
-1 2:0.080480912 3:1.8774276 4:0.0049590031 
-1 2:0.070105432 3:2.0901924 4:0.0083167546 
-1 2:0.077741913 3:2.0173046 4:0.006571587 
1 2:0.072612873 3:2.0858921 4:0.0080697189 
-1 2:0.064201461 3:2.2358156 4:0.0097160857 
-1 2:0.062975225 3:2.2258765 4:0.009891969 
-1 2:0.070916251 3:2.1076622 4:0.0082343661 
-1 2:0.075529507 3:2.0053 4:0.0071433792 
-1 2:0.081820687 3:1.8817458 4:0.0054456313 
1 2:0.086470273 3:1.7235427 4:0.0032993485 
-1 2:0.05974493 3:2.2623556 4:0.010566504 
-1 2:0.066102764 3:2.2160865 4:0.0094850588 
-1 2:0.078833304 3:1.893955 4:0.0055160028 
-1 2:0.071745377 3:2.0262279 4:0.0081554563 
-1 2:0.066033159 3:2.1657529 4:0.009548463 
-1 2:0.066515661 3:2.2277886 4:0.0094439695 
1 2:0.075044486 3:2.0384501 4:0.0072847283 
-1 3:3.1112851 4:0.014815727 5:0.0030494323 
-1 2:0.035916542 3:2.59739 4:0.01336893 
1 2:0.080098268 3:1.9570005 4:0.0067212486 
-1 2:0.071206805 3:2.1012146 4:0.0087615261 
-1 2:0.072365663 3:2.145453 4:0.008652659 
1 2:0.080574019 3:2.0573683 4:0.0077563796 
-1 2:0.069452192 3:2.1198863 4:0.0093539288 
1 2:0.081301622 3:1.9097498 4:0.0058812989 
-1 2:0.081296951 3:1.7936422 4:0.00479082 
1 2:0.071702494 3:2.1440513 4:0.0090704309 
-1 2:0.076397627 3:1.9793293 4:0.0067146746 
-1 2:0.079047262 3:1.8709141 4:0.0058958036 
-1 2:0.07891748 3:1.9186167 4:0.0070254552 
1 2:0.076004133 3:2.0609388 4:0.0079897082 
-1 2:0.058145847 3:2.3468439 4:0.011204632 
-1 2:0.065504713 3:2.2531526 4:0.0098855873 
-1 2:0.079689891 3:1.9350775 4:0.0061572883 
-1 2:0.068520364 3:2.219573 4:0.010165085 
1 2:0.082055081 3:1.8559191 4:0.0037927566 
-1 2:0.054355168 3:2.4212537 4:0.011824857 
1 2:0.08158466 3:1.918804 4:0.0057491786 
-1 2:0.072945414 3:2.0367769 4:0.0078858018 
1 1:0.017342602 2:0.084335575 3:1.4858363 
-1 2:0.075726971 3:1.8607164 4:0.0041369854 
-1 2:0.055396803 3:2.4244593 4:0.011640226 
-1 2:0.072787079 3:1.9775926 4:0.0052525477 
-1 2:0.049737294 3:2.3712044 4:0.012176634 
-1 2:0.078433629 3:1.8339978 4:0.0031452894 
-1 2:0.075417293 3:2.0670444 4:0.0075398131 
1 2:0.05780471 3:2.4935339 4:0.011883002 
1 2:0.070228892 3:2.2546056 4:0.0091913375 
-1 2:0.072184994 3:2.0761494 4:0.007877654 
-1 2:0.079312858 3:1.8381851 4:0.003604772 
-1 2:0.08060716 3:1.796999 4:0.0025966925 
1 2:0.069899656 3:2.1734708 4:0.0086056384 
-1 2:0.071911557 3:1.9887709 4:0.0059150095 
-1 2:0.068964202 3:2.0851021 4:0.0075329937 
1 2:0.067825845 3:2.2024599 4:0.0090337405 
1 2:0.021728798 3:2.7364223 4:0.014562278 
-1 2:0.0069349131 3:2.8409256 4:0.015029239 
1 2:0.068334598 3:2.3564541 4:0.010210351 
1 2:0.066746774 3:2.3044391 4:0.01027541 
-1 2:0.042713084 3:2.4565893 4:0.012686765 
1 2:0.077080215 3:2.1246652 4:0.0071748536 
1 4:0.0077640089 5:0.013456604 
-1 3:3.0218209 4:0.015231222 5:0.0024633412 
-1 1:0.019679699 2:0.063949046 3:1.38286 
-1 2:0.057682299 3:2.2501234 4:0.010972699 
-1 2:0.078481704 3:1.8295159 4:0.0034893338 
-1 3:2.906316 4:0.015377914 5:0.0010043932 
-1 2:0.010149204 3:2.9177288 4:0.014892716 
-1 2:0.034780378 3:2.6480084 4:0.013488184 
-1 2:0.067717814 3:1.9147747 4:0.0059897164 
-1 2:0.024140579 3:2.8711556 4:0.014456217 
1 1:0.023659825 2:0.072840988 3:1.3788936 
-1 2:0.073199199 3:1.7557183 4:0.0034555252 
1 2:0.068482227 3:2.2579121 4:0.0091604987 
1 2:0.034967999 3:2.5975316 4:0.01322563 
-1 4:0.014415335 5:0.0046358266 
-1 2:0.057530281 3:2.3149242 4:0.011026301 
-1 1:0.024436443 2:0.074238838 3:1.3388173 
-1 1:0.014348153 2:0.081897153 3:1.4439402 
1 2:0.074871682 3:2.396807 4:0.010159761 
1 2:0.080588602 3:1.6723655 4:0.0018667718 
-1 3:2.6238724 4:0.015196768 
1 2:0.07745414 3:1.7493419 4:0.0028556492 
1 2:0.063330286 3:2.1949479 4:0.0090571959 
-1 3:2.7636035 4:0.015501924 
1 1:0.094310524 2:0.051812479 3:0.55942736 
-1 2:0.064397105 3:2.0622719 4:0.0075879394 
-1 2:0.067621545 3:2.2558023 4:0.0089379119 
1 1:0.083942084 2:0.053203858 3:0.68496005 
1 2:0.071829363 3:1.8735964 4:0.0040147743 
-1 2:0.008715764 3:2.9000268 4:0.014920318 
1 2:0.07548045 3:1.8986253 4:0.0031333193 
-1 2:0.031363728 3:2.5303631 4:0.013639027 
1 2:0.080229002 3:1.9336545 4:0.0034920383 
1 2:0.066481702 3:2.2069285 4:0.0086777454 
1 2:0.030675729 3:2.7661064 4:0.013725265 
1 2:0.023606683 3:2.6706586 4:0.01424593 
-1 4:0.0096702901 5:0.012163659 
-1 2:0.0555165 3:2.4897981 4:0.010543112 
1 1:0.047245061 2:0.081825307 3:0.96331286 
-1 2:0.066078265 3:2.1781893 4:0.0087888724 
1 2:0.078493006 3:2.3709962 4:0.0092975357 
1 2:0.078191778 3:2.2825141 4:0.0087774414 
-1 2:0.078840582 3:1.9480325 4:0.0058346437 
-1 4:0.014425501 5:0.004185834 
1 2:0.094353023 3:2.1767303 4:0.0073999712 
1 2:0.080311933 3:1.9348098 4:0.0050537979 
-1 2:0.040593881 3:2.517112 4:0.012917433 
1 1:0.051656571 2:0.063207583 3:1.0958375 
-1 1:0.013533777 2:0.068210531 3:1.5792756 
-1 2:0.07192595 3:1.8531461 4:0.0040637316 
1 2:0.075895215 3:1.9372708 4:0.0056181848 
-1 1:0.0010271716 2:0.074010799 3:1.725248 4:0.0016165378 
-1 1:0.023806365 2:0.07112155 3:1.4359688 
1 1:0.007369504 2:0.075465713 3:1.5089933 
-1 1:0.0020324872 2:0.073142066 3:1.7230084 4:0.0013368797 
1 1:0.00081779146 2:0.08232155 3:1.7516627 4:0.0015345977 
1 2:0.072718093 3:1.995083 4:0.0054634333 
-1 2:0.042730897 3:2.5129136 4:0.012598888 
1 1:0.037519613 2:0.078591229 3:1.2023009 
1 2:0.062067623 3:2.2352329 4:0.0089537066 
-1 2:0.058660203 3:2.2946885 4:0.0086073272 
1 2:0.074572431 3:1.8524178 4:0.0030414605 
-1 2:0.0079303826 3:2.8472243 4:0.014927728 
-1 2:0.037835589 3:2.6481955 4:0.013064063 
1 2:0.079008026 3:1.7215654 4:0.0036374434 
-1 2:0.024632882 3:2.7112698 4:0.01405171 
1 1:0.082864781 2:0.05597361 3:0.71138149 
-1 2:0.054502732 3:2.2608031 4:0.009474922 
-1 1:0.024150213 2:0.065350553 3:1.4091258 
1 1:0.015264036 2:0.085223767 3:1.4906536 
1 2:0.058280725 3:2.3862261 4:0.010702254 
-1 2:0.058128093 3:2.3131988 4:0.0097904588 
1 1:0.092018761 2:0.042886623 3:0.4393537 
1 2:0.052488992 3:2.374155 4:0.011589079 
-1 2:0.029540705 3:2.778366 4:0.013901863 
-1 2:0.049496499 3:2.535944 4:0.01194303 
1 2:0.10671617 3:1.8558632 4:0.0046517759 
1 2:0.080239117 3:2.2062666 4:0.0090205067 
1 2:0.06445588 3:2.2901075 4:0.0087689176 
1 2:0.0463763 3:2.5402556 4:0.012214468 
-1 2:0.020796134 3:2.8362894 4:0.01459739 
1 2:0.070535617 3:2.1245026 4:0.007020228 
-1 2:0.053014943 3:2.265833 4:0.010552633 
1 2:0.055391679 3:2.4146236 4:0.010707083 
-1 2:0.0096083875 3:3.0848869 4:0.01495375 
1 2:0.055101168 3:2.2679438 4:0.0099352623 
-1 4:0.0097225166 5:0.011652032 
1 2:0.043122136 3:2.5802127 4:0.012468467 
-1 2:0.014796458 3:2.874969 4:0.014807104 
-1 2:0.04857635 3:2.4589753 4:0.01117848 
-1 2:0.026302279 3:2.8827604 4:0.014199999 
-1 2:0.036894985 3:2.647715 4:0.013364777 
1 2:0.055332816 3:2.2953698 4:0.0098595417 
-1 2:0.045315519 3:2.2447463 4:0.010183325 
-1 3:3.0190189 4:0.015073887 5:0.00021571343 
1 2:0.018903682 3:2.9775053 4:0.014722671 
0.003865506260270374 2:0.058620659 3:2.1833891 4:0.0094566666 
1 2:0.052889654 3:2.267672 4:0.010537705 
-1 2:0.008900757 3:3.0695338 4:0.014956115 
-1 2:0.057733682 3:2.1914538 4:0.0099914726 
-1 2:0.027478112 3:2.7578232 4:0.014269579 
-1 4:0.014476337 5:0.0039409249 
-1 2:0.061389061 3:2.0709623 4:0.0068303669 
-1 2:0.065369678 3:1.9586877 4:0.0059645889 
1 2:0.074847549 4:0.010846132 
1 2:0.074391875 4:0.011147109 
1 2:0.072967683 4:0.011078778 
-1 2:0.073825933 4:0.010529375 
1 2:0.081221818 4:0.010255745 
-1 2:0.077532882 4:0.011238187 
-1 2:0.057265342 3:1.4158368 4:0.013883231 
-1 2:0.06421497 3:1.1737746 4:0.011276431 
-1 2:0.056351278 3:1.5623401 4:0.013699883 
-1 2:0.062335832 3:1.3996509 4:0.012502392 
1 2:0.066030013 3:1.1563689 4:0.011452642 
-1 2:0.062299553 3:1.2149991 4:0.011789949 
1 2:0.063940538 3:1.37574 4:0.011408866 
-1 2:0.053816361 3:1.4539301 4:0.013476845 
-1 2:0.063370201 3:1.3667086 4:0.011900681 
-1 2:0.064755646 3:1.2763107 4:0.011737556 
1 2:0.071307692 3:1.1373168 4:0.0094986537 
-1 2:0.062809155 3:1.2987446 4:0.011354062 
1 2:0.065267506 3:1.3759448 4:0.011230029 
-1 2:0.059786593 3:1.3824781 4:0.012044001 
1 2:0.062122934 3:1.2803501 4:0.012166135 
-1 2:0.061232907 3:1.216341 4:0.011092582 
-1 2:0.058727904 3:1.2704164 4:0.011789474 
-1 2:0.063049416 3:1.4824143 4:0.011443379 
1 2:0.066097732 3:1.3465022 4:0.010659449 
1 2:0.06216555 3:1.2172827 4:0.011313006 
-1 2:0.060181862 3:1.3680471 4:0.011235136 
-1 2:0.06371289 3:1.1996334 4:0.010826676 
-1 2:0.066840278 3:1.2318196 4:0.0096043257 
1 2:0.069999249 3:1.284181 4:0.010059798 
-1 2:0.061209071 3:1.4248127 4:0.010998588 
1 2:0.06914476 3:1.3035408 4:0.0097123123 
-1 2:0.065499414 3:1.2946938 4:0.010100038 
-1 2:0.065444161 3:1.3656931 4:0.010407316 
1 2:0.066170796 3:1.3480388 4:0.010169296 
1 2:0.059323462 3:1.5194669 4:0.011854984 
-1 2:0.058003486 3:1.3683552 4:0.011056753 
-1 2:0.063254247 3:1.2285003 4:0.010179977 
1 2:0.072686235 3:1.0806021 4:0.0076404219 
-1 2:0.057675547 3:1.3869099 4:0.011545696 
-1 2:0.062719246 3:1.2414595 4:0.01029175 
1 2:0.071662629 3:1.23529 4:0.0089202974 
-1 2:0.059437505 3:1.2622657 4:0.010666063 
-1 2:0.061808313 3:1.4707681 4:0.010347981 
1 2:0.068620585 3:1.2596198 4:0.0091680816 
-1 2:0.063579172 3:1.2826996 4:0.010380042 
-1 2:0.065737082 3:1.2700638 4:0.0098619763 
1 2:0.059776862 3:1.5399372 4:0.011160499 
-1 2:0.057349416 3:1.3662145 4:0.011005835 
-1 2:0.058274588 3:1.3220761 4:0.010880343 
-1 2:0.05978967 3:1.392662 4:0.010244569 
-0.05466294668180627 2:0.061027798 3:1.3684508 4:0.010310132 
-1 2:0.062930598 3:1.3480881 4:0.0095956199 
1 2:0.06775398 3:1.3018417 4:0.0093637989 
-0.9338009633395581 2:0.067750813 3:1.2805688 4:0.0083620086 
-1 2:0.064068305 3:1.337133 4:0.0095961831 
1 2:0.06781612 3:1.3145524 4:0.0085354881 
-1 2:0.062459666 3:1.3898457 4:0.010039559 
1 2:0.061205788 3:1.467908 4:0.010824242 
-1 2:0.057957884 3:1.3234709 4:0.0093663226 
-1 2:0.067921652 3:1.1858088 4:0.0081421751 
1 2:0.068516639 3:1.2857999 4:0.0095495438 
1 2:0.06786128 3:1.3516525 4:0.0091009623 
-1 2:0.056544053 3:1.3777101 4:0.010794462 
1 2:0.071152615 3:1.3034137 4:0.0089346739 
-1 2:0.069035617 3:1.1387855 4:0.007104038 
1 2:0.07357912 3:1.2314644 4:0.0082708118 
1 2:0.059588027 3:1.4607418 4:0.01066306 
-1 2:0.05876981 3:1.4722062 4:0.010377497 
-1 2:0.06605226 3:1.3415133 4:0.0085971097 
-1 2:0.058413763 3:1.4724625 4:0.011054667 
1 2:0.067141648 3:1.2504378 4:0.0089192269 
-1 2:0.063106265 3:1.3013443 4:0.0097854006 
1 2:0.079393091 3:1.1017106 4:0.0051070018 
1 2:0.074890858 3:1.133407 4:0.0066251465 
-1 2:0.058462976 3:1.5371658 4:0.010748894 
1 2:0.051463846 3:1.7725363 4:0.012596264 
-1 2:0.059487886 3:1.3129088 4:0.010314616 
-1 2:0.059692566 3:1.4050463 4:0.010768237 
-1 2:0.066147385 3:1.3685771 4:0.0089304292 
-1 2:0.063546822 3:1.3937869 4:0.010137428 
1 2:0.073602048 3:1.3017593 4:0.0070586606 
-1 2:0.065855151 3:1.3561449 4:0.0095072671 
1 2:0.075091785 3:1.1584657 4:0.0053141889 
-1 2:0.055111161 3:1.4946917 4:0.011365527 
-1 2:0.07011745 3:1.2154918 4:0.0068479724 
1 2:0.071508075 3:1.2947169 4:0.0075278137 
-1 2:0.066848399 3:1.323027 4:0.0071721559 
-1 2:0.054372273 3:1.5364394 4:0.01165245 
1 2:0.077903826 3:1.2667332 4:0.0063978824 
1 2:0.075810353 3:1.0543953 4:0.0047824237 
-1 2:0.063386166 3:1.466171 4:0.0093995772 
1 1:0.014861544 2:0.075348024 3:0.7603073 
-1 2:0.066875046 3:1.208533 4:0.0072478559 
1 2:0.078026462 3:1.1578474 4:0.004967153 
1 1:0.0078620882 2:0.074956231 3:0.8176119 4:0.00085144753 
-1 1:0.05729603 
1 2:0.081174779 3:1.1561357 4:0.0060730216 
-1 1:0.00053066889 2:0.073852526 3:1.0841161 4:0.0034202681 
1 2:0.078532494 3:1.0440295 4:0.0050707131 
1 2:0.075700959 3:0.9998441 4:0.0027481694 
-1 2:0.067294568 3:0.94967171 4:0.004064709 
1 2:0.071670766 3:1.2474393 4:0.0072089536 
1 1:0.0023795541 2:0.073229161 3:0.85861349 4:0.0019172147 
-1 2:0.070955924 3:1.1053525 4:0.0054711705 
-1 2:0.066617503 3:1.4410953 4:0.00914127 
-1 2:0.0730811 3:1.3360831 4:0.0072830749 
-1 2:0.069778578 3:1.3792312 4:0.0093346484 
1 2:0.079102123 3:1.2331552 4:0.0065502634 
1 1:0.14302739 2:0.054307668 
-1 1:0.15261685 2:0.029961674 
-1 1:0.14531178 2:0.052532796 
1 1:0.087515502 2:0.034624151 
1 1:0.0824708 2:0.035071398 
1 1:0.082507652 2:0.031116235 
1 1:0.071410259 2:0.03589518 
1 1:0.07305913 2:0.033242178 
1 1:0.078728335 2:0.023186906 
1 1:0.074741607 2:0.027236656 
-1 1:0.067794425 2:0.017929056 
1 1:0.06532425 2:0.024314879 
1 1:0.062946139 2:0.040356969 
-1 1:0.060584498 2:0.031771932 
1 1:0.059402603 2:0.035585757 
1 1:0.074268597 2:0.024685944 
-1 1:0.056131611 2:0.033518223 
1 2:0.086257657 4:0.0004494628 
1 1:0.05315889 2:0.029438867 
-1 1:0.049042097 2:0.028147972 
-1 2:0.073119682 
-1 3:1.0130464 4:0.0053805853 5:0.01413632 
-1 1:0.048390939 2:0.027301079 
1 1:0.049662291 2:0.0295004 
-1 1:0.05450618 2:0.019021924 
-1 1:0.053361358 2:0.024531065 
1 2:0.073120527 4:0.0069974868 
-1 1:0.054578146 2:0.018096995 3:3.1281048 
1 1:0.05079292 2:0.027637837 
1 1:0.049090871 2:0.02890696 
-1 1:0.057073078 2:0.024027521 
1 2:0.071402014 
-1 1:0.054458656 2:0.014931372 
1 2:0.068803202 4:0.0072576587 
-1 1:0.0025134006 2:0.069402934 
1 2:0.069918007 4:0.0046814716 
-1 1:0.053363166 2:0.026196474 
1 2:0.09357923 4:0.0017646923 
-1 1:0.063938412 2:0.019182072 3:3.1145777 
-1 1:0.064071346 2:0.027348447 3:3.1314135 
1 1:0.010160492 2:0.085933697 
1 1:0.051684169 2:0.034705577 
-1 1:0.051893713 2:0.023655549 
-1 1:0.068615385 2:0.019019336 3:3.1205498 
-1 3:0.53083346 4:0.011475621 5:0.0098225586 
1 1:0.057667084 2:0.016289107 3:3.0833573 
1 2:0.068042531 4:0.0098395419 
-1 1:0.052831758 2:0.034446996 
1 1:0.059190614 2:0.024754603 
1 1:0.057181312 2:0.015974085 3:3.0826273 
1 1:0.053459056 2:0.02636665 
-1 1:0.017673658 3:1.6467807 5:0.015125346 
1 1:0.051791425 2:0.028238203 
-1 1:0.048670508 2:0.030669982 
1 1:0.047459076 2:0.045526058 
-1 1:0.052020291 2:0.017277943 3:3.0811992 
-1 1:0.035103392 2:0.044377347 
1 2:0.094533426 4:0.0021556709 
1 2:0.067210889 4:0.0081239325 
1 1:0.049066833 2:0.056072319 
-1 1:0.0685795 2:0.012818473 
1 1:0.055752052 2:0.018053638 3:3.1115125 
1 1:0.058961687 2:0.0089878822 3:2.9873065 
-1 1:0.046931506 2:0.04401067 
1 1:0.038064122 2:0.044508489 
1 1:0.066732217 2:0.019706522 3:3.0845632 
1 1:0.049747778 2:0.03561186 
1 1:0.055042612 2:0.026472041 
1 1:0.05244257 2:0.027247463 
-1 1:0.067789485 3:2.5202847 5:0.0066746712 
1 1:0.066010597 2:0.04426698 
1 1:0.057843012 2:0.020559668 3:3.1233186 
1 1:0.053803704 2:0.021029477 
-1 1:0.054759735 2:0.021154342 
-1 2:0.0070967643 4:0.01420539 
-1 3:1.2432218 4:0.0038102663 5:0.014977344 
-1 1:0.052669823 2:0.018566197 
1 1:0.041928889 2:0.036625723 
-1 1:0.062942921 2:0.0096410846 3:3.0866293 
-1 1:0.031508221 2:0.089780589 
1 1:0.072833257 2:0.099218786 
1 3:1.007508 4:0.0072073844 5:0.01353073 
-1 2:0.069365247 
1 2:0.080549173 4:0.00062586123 
1 1:0.011342839 2:0.071419464 
-1 1:0.052970542 2:0.027056387 
1 1:0.022550667 2:0.087097293 
1 1:0.065731023 3:2.350519 5:0.0079079887 
-1 3:0.95438147 4:0.006956588 5:0.013535254 
-1 1:0.054289969 2:0.0043539946 3:2.879735 5:4.2733573e-05 
1 1:0.056240528 2:0.015594843 3:3.0511839 
-1 1:0.055348897 2:0.0057291519 3:2.940018 
-1 1:0.0557259 2:0.016080774 3:3.0632663 
1 1:0.012806884 2:0.072657165 
1 1:0.062541395 2:0.018578087 3:3.0809333 
-1 1:0.054132319 2:0.0068013968 3:2.9772913 
1 1:0.070938976 2:0.016084196 3:2.9928658 
-1 1:0.060223224 2:0.014520128 3:3.0287049 
1 1:0.034249872 2:0.064672449 
1 1:0.058135685 2:0.024884801 
1 1:0.052504787 2:0.015173827 3:3.1123195 
-1 1:0.054738364 2:0.023606943 
1 1:0.057897912 2:0.024650054 
1 1:0.062373193 2:0.012374233 3:3.0177438 
1 1:0.059403069 2:0.013126249 3:3.0634327 
1 1:0.053595597 2:0.010403784 3:2.9668445 
-1 1:0.067123026 2:0.025151229 
1 1:0.068883356 2:0.033692792 3:2.7041391 
1 1:0.063573676 2:0.014879008 3:3.0274207 
-1 1:0.06333783 2:0.0090695572 3:3.0080625 
1 1:0.034211523 2:0.081382504 
-1 2:0.062486594 4:0.00060940473 
1 2:0.068672036 4:0.0018346935 
-1 1:0.052284242 2:0.027188609 
1 1:0.065464272 2:0.033416933 3:3.1172187 
1 1:0.058158402 2:0.037954137 
-1 1:0.051819377 2:0.045171148 
-1 1:0.072494128 2:0.037273905 
1 1:0.06212854 2:0.045231376 
-1 1:0.033743003 3:1.5449771 5:0.014332615 
-1 1:0.070539771 2:0.03486109 3:2.9994585 
-1 1:0.036145063 3:1.3099643 5:0.014727017 
1 3:0.72007442 4:0.0092888711 5:0.011930416 
-1 1:0.060830904 2:0.021883967 
-1 4:0.015040543 
1 1:0.020740233 2:0.057713144 
-1 1:0.06511761 3:2.8228884 5:0.0012767733 
1 1:0.058653724 2:0.031981043 
-1 2:0.038572185 
-1 4:0.014927599 
-1 2:0.018782269 4:0.010019365 
-1 1:0.027414062 2:0.016691739 3:3.1206518 
1 1:0.064372216 2:0.01720462 3:2.9935429 
1 1:0.061552588 2:0.015932962 3:2.95387 
1 3:0.41881377 4:0.011501092 5:0.0097306232 
-1 3:0.19505763 4:0.012502056 5:0.0082886505 
1 2:0.055682425 4:0.013097228 
1 3:0.058938627 4:0.013631087 5:0.0062872765 
1 1:0.072417319 2:0.052025839 3:2.9975526 
-1 2:0.0035830634 4:0.014693484 
-1 3:0.27599249 4:0.011748965 5:0.009325418 
1 1:0.010216525 3:1.3601081 5:0.015005675 
1 1:0.096273631 2:0.03776581 3:2.5966209 
1 1:0.067243893 2:0.022259744 3:2.6470292 
1 1:0.063803796 2:0.025188346 3:2.8124024 
1 2:0.084188378 4:0.0082020403 
1 1:0.057101712 2:0.017220057 
-1 1:0.068262475 2:0.011335376 
1 3:0.18599796 4:0.013358023 5:0.006860161 
1 1:0.070695841 2:0.021218455 3:2.7249343 
-1 4:0.014554683 
1 1:0.0025042345 3:0.9831729 4:0.0033099429 5:0.014633319 
-1 1:0.059962595 2:0.041281322 
-1 4:0.014973067 
1 3:0.64139003 4:0.0092680736 5:0.011813696 
-1 1:0.070812585 2:0.017599807 3:2.6776793 5:0.00057489892 
1 1:0.046493969 3:1.7531427 5:0.012401045 
1 2:0.0095509682 4:0.015510048 
1 1:0.040874151 3:2.4883775 5:0.0053069359 
1 1:0.016074033 3:1.1146877 4:0.00033992823 5:0.015100902 
-1 1:0.094619561 3:2.9575597 5:0.00094897835 
1 1:0.014699164 3:1.4688628 5:0.013808887 
-1 3:0.32560016 4:0.01181472 5:0.0092610088 
1 1:0.023267538 3:1.7149923 5:0.012998668 
1 1:0.07880571 3:2.4676212 5:0.0046373516 
-1 1:0.063479705 3:2.7489936 5:0.0036534521 
1 1:0.063563797 3:1.9987242 5:0.010389175 
-1 3:0.26043147 4:0.01319267 5:0.0071412866 
-1 3:0.94793046 4:0.0053352756 5:0.014025456 
1 1:0.034652457 2:0.037821448 
1 1:0.044451858 2:0.089903547 
-1 2:0.0018119086 4:0.015339584 5:0.00033883361 
1 3:0.51073146 4:0.014172323 5:0.0069771785 
1 1:0.078322208 2:0.114618 
-1 1:0.028553866 3:2.6307068 5:0.013104544 
1 1:0.049025779 2:0.03806701 
1 2:0.026649557 3:0.00077430262 4:0.013661375 
-1 4:0.015052267 
-1 1:0.045613509 5:0.013577077 
1 1:0.053630089 5:0.012897664 
-1 1:0.04631635 5:0.013415797 
-1 1:0.0014865487 3:1.4626111 5:0.014994853 
-1 1:0.0067053481 3:1.6114147 5:0.014856924 
-1 1:0.017656518 3:1.7326747 5:0.01443689 
-1 1:0.026131227 3:1.8785998 5:0.013731914 
-1 1:0.023649334 3:1.8688477 5:0.013848948 
-1 1:0.018146038 3:1.7615517 5:0.014397548 
1 1:0.026467836 3:1.934605 5:0.013474258 
-1 1:0.013504241 3:1.7251462 5:0.014563259 
-1 1:0.018058268 3:1.7866748 5:0.014310438 
1 1:0.015550595 3:1.7635335 5:0.014358863 
-1 1:0.011175707 3:1.7081413 5:0.014617611 
1 1:0.019840353 3:1.8658495 5:0.013926981 
-1 1:0.013300735 3:1.7134325 5:0.014583863 
-1 1:0.008543552 3:1.7024023 5:0.014684163 
1 3:1.4901723 4:0.00035475006 5:0.015004482 
1 1:0.026203155 3:1.9891315 5:0.012932665 
-1 1:0.021724374 3:1.9181064 5:0.013500046 
1 1:0.013892858 3:1.7712287 5:0.014361281 
-1 1:0.011559442 3:1.5434684 5:0.014941853 
1 1:0.012917819 3:1.7622029 5:0.014307743 
-1 3:1.5008633 5:0.014996792 
-1 1:0.01503547 3:1.7574824 5:0.014320824 
-1 1:0.006799641 3:1.6446546 5:0.014774018 
1 1:0.012273838 3:1.7597771 5:0.01442013 
1 1:0.019521932 3:1.8765881 5:0.013768408 
1 1:0.0119749 3:1.7556613 5:0.014505139 
-1 3:1.2512865 4:0.0061076779 5:0.013819221 
1 1:0.017065258 3:1.8159195 5:0.014169371 
-1 1:0.011385281 3:1.7128311 5:0.014594896 
1 1:0.016974744 3:1.8871706 5:0.013699275 
-1 1:0.009128187 3:1.6786288 5:0.014676854 
1 1:0.016414059 3:1.8095224 5:0.014184066 
-1 1:0.0050840534 3:1.5844175 5:0.014900633 
1 1:0.011381906 3:1.7424033 5:0.014462851 
1 1:0.0094858018 3:1.6437856 5:0.014725565 
-1 1:0.010842316 3:1.6869216 5:0.01474869 
1 1:0.011370095 3:1.7434381 5:0.014509615 
-1 1:0.0078464194 3:1.6935831 5:0.014660925 
1 1:0.029875939 3:2.0944276 5:0.01206422 
-1 3:1.4190469 4:0.00074354269 5:0.014990098 
1 1:0.030847675 3:2.1204775 5:0.011908442 
-1 1:0.0022207952 3:1.6007825 5:0.014916874 
1 1:0.014624848 2:0.024862192 
-1 3:1.1592245 4:0.0076715389 5:0.013227181 
1 1:0.025990352 3:2.42662 5:0.0094784791 
-1 1:0.011970976 3:1.7307593 5:0.014570121 
1 1:0.010370321 3:1.7158393 5:0.014529675 
-1 1:0.0035467342 3:1.597604 5:0.014913822 
1 1:0.0088314892 3:1.7576955 5:0.014583772 
1 1:0.0079573587 3:1.6979562 5:0.014715684 
-1 1:0.0088545739 3:1.8155535 5:0.014462512 
-1 1:0.017184672 3:1.9411723 5:0.013630688 
1 1:0.0037155489 3:1.6581288 5:0.014871776 
-1 1:0.0054375117 3:1.7360996 5:0.014816586 
1 1:0.013123194 3:1.7843248 5:0.014383324 
-1 1:0.0016995117 3:1.6202561 5:0.01493647 
1 1:0.0099464537 3:1.7812089 5:0.014596917 
1 2:0.075209144 4:0.0030934252 
-1 1:0.013479845 3:1.8972767 5:0.01413268 
1 1:0.010283477 3:1.8268982 5:0.014588313 
-1 3:0.80520954 4:0.0088835807 5:0.01223628 
1 1:0.011473275 3:1.7933237 5:0.01449 
1 1:0.015450586 3:1.8962873 5:0.014179655 
1 3:1.5939391 4:0.0037257909 5:0.015037884 
1 1:0.0071764293 3:1.8449063 5:0.014619989 
-1 1:0.0043238972 3:1.5798289 5:0.015004105 
-1 1:0.01218009 3:1.8012298 5:0.014599676 
-1 1:0.0092083028 3:1.7782452 5:0.014620427 
1 1:0.068943497 3:1.984321 5:0.011266104 
-1 3:1.5591229 5:0.015001165 
1 1:0.007606005 3:1.8571862 5:0.014501428 
-1 2:0.018659796 4:0.011518743 
-1 1:0.004332541 3:1.7650819 5:0.014844713 
1 1:0.004405992 3:1.737222 5:0.014846113 
-1 1:0.0070025041 3:1.745953 5:0.014806927 
1 1:0.0079369101 3:1.7795131 5:0.014716239 
-1 1:0.0094296184 3:1.7634928 5:0.014731973 
1 2:0.029988885 3:0.40070477 4:0.015734298 5:0.00080373626 
1 1:0.0099476134 3:1.8194408 5:0.014707289 
-1 2:0.052499565 4:0.009400014 
1 1:0.0089972383 3:1.7747028 5:0.014796427 
-1 3:1.6404201 5:0.014999946 
1 3:1.4087511 4:0.0034801454 5:0.014595625 
1 2:0.06383204 4:0.0095378409 
-1 1:0.0066158556 3:1.6964962 5:0.014852966 
1 1:0.0025239459 3:1.6196751 5:0.014956458 
-1 1:0.013486588 3:1.8817545 5:0.014365048 
1 3:1.6614549 5:0.014949609 
-1 1:0.00055464151 3:1.6308774 5:0.014978331 
1 3:1.6070604 5:0.014998703 
1 1:0.01273025 3:2.0573656 5:0.013654119 
-1 1:0.0050034411 3:1.6687509 5:0.014886511 
1 1:0.057966906 3:2.1610602 5:0.010391178 
1 2:0.088249001 
1 1:0.0527231 2:0.055042122 
-1 1:0.002815258 3:1.6218367 5:0.014972735 
-1 3:0.81470067 4:0.0092702572 5:0.011932155 
-1 4:0.01474037 5:0.0021186695 
-1 1:0.0050551988 3:1.6618712 5:0.014905652 
-1 2:0.011048018 4:0.013994912 
-1 3:1.2247901 4:0.0044759041 5:0.014328906 
-1 1:0.0061551467 3:1.6765462 5:0.014894044 
1 1:0.008958563 3:1.7401823 5:0.014593644 
-1 3:1.0101693 4:0.0056288552 5:0.014126163 
1 1:0.004634075 3:1.9213942 5:0.012866857 
1 1:0.0016911168 3:1.6433931 5:0.014970202 
1 3:1.2315598 4:0.0047186761 5:0.014241641 
1 1:0.067900548 3:2.0012921 5:0.011605533 
-1 3:0.95674239 4:0.0060241053 5:0.013977269 
1 3:1.5311479 4:0.0033519396 5:0.014909024 
-1 1:0.02753721 3:2.1219325 5:0.012775529 
1 2:0.015323264 3:0.25429629 4:0.01386498 5:0.0014758125 
-1 3:1.6026176 5:0.015005198 
-1 2:0.059750849 4:0.00055861809 
-1 3:0.23755128 4:0.014415481 5:0.0042488679 
1 3:0.80834111 4:0.0095923508 5:0.01160304 
-1 3:0.10864894 4:0.014861794 5:0.0030356254 
-1 3:1.1414473 4:0.0059581859 5:0.013773491 
-1 4:0.012472525 
-1 1:0.014368804 3:1.9203423 5:0.013760224 
-1 4:0.010753974 
1 1:0.0044123676 3:1.9054452 5:0.013865145 
1 3:0.46114045 4:0.013674368 5:0.006165883 
-1 3:0.78803582 4:0.010101068 5:0.011228742 
1 3:1.6699705 4:0.0002903469 5:0.010138215 
1 3:1.0513774 4:0.011283542 5:0.010604881 
1 3:1.2851457 4:0.0054306599 5:0.013956888 
-1 3:0.13074726 4:0.014660009 5:0.004338525 
-1 1:0.001057903 3:1.7041827 5:0.014207046 
-1 4:0.010108354 
-1 2:0.021278432 4:0.010990259 
-1 3:1.1977338 4:0.0060181926 5:0.013745063 
-1 3:0.17815497 4:0.014663668 5:0.0033083221 
1 1:0.0074563189 3:1.4985033 4:0.00020405334 5:0.010929049 
1 3:1.0854735 4:0.0067050351 5:0.013427946 
1 1:0.073472019 2:0.062787615 3:2.5055295 
-1 1:0.067396406 2:0.065663955 3:2.5767606 
1 1:0.070952777 2:0.06536912 3:2.5466304 
1 1:0.070595377 2:0.063664871 3:2.5351157 
-1 1:0.07053264 2:0.063357592 3:2.53986 
1 1:0.057894026 2:0.076270649 3:2.6898774 
-1 1:0.070529211 2:0.063059233 3:2.5320134 
1 1:0.072749493 2:0.065162889 3:2.5378391 
-1 1:0.073348886 2:0.063589264 3:2.52738 
1 1:0.05720235 2:0.061224373 3:0.18358764 
-1 1:0.054337715 2:0.060849049 3:0.22317162 
1 1:0.055273789 2:0.065325472 3:0.26619876 
-1 1:0.051243641 2:0.063249227 3:0.27173509 
-1 1:0.050811308 2:0.064317936 3:0.28909983 
-1 1:0.049192789 2:0.063758627 3:0.31031814 
1 1:0.051894032 2:0.066054671 3:0.27488393 
-1 1:0.044006349 2:0.067859938 3:0.38078445 
1 1:0.048485577 2:0.06556622 3:0.29195181 
-1 1:0.049626637 2:0.062825417 3:0.27774643 
1 1:0.047244031 2:0.067592344 3:0.26267805 
-1 1:0.047503082 2:0.064859933 3:0.32651745 
-1 1:0.042861264 2:0.069091612 3:0.28581711 
-1 1:0.046664928 2:0.067548437 3:0.28743861 
1 1:0.047502536 2:0.068261798 3:0.25512947 
-1 1:0.041047379 2:0.066433327 3:0.33093 
-1 1:0.044576588 2:0.069024199 3:0.35622156 
-1 1:0.035069953 2:0.074968509 3:0.46385592 
-1 1:0.044755541 2:0.069379137 3:0.29747517 
1 1:0.044698091 2:0.072332357 3:0.3512335 
-1 1:0.037391069 2:0.071607683 3:0.4512374 
-1 1:0.041837561 2:0.070890336 3:0.32956616 
-1 1:0.041843072 2:0.069253489 3:0.30440603 
1 1:0.033888002 2:0.077366904 3:0.44642782 
1 1:0.042455726 2:0.069767692 3:0.37304859 
-1 1:0.03043564 2:0.068859088 3:0.41706178 
-1 1:0.028471683 2:0.075016221 3:0.50895022 
1 1:0.044820424 2:0.070208812 3:0.36512429 
-1 1:0.034856607 2:0.068547023 3:0.33171462 
-1 1:0.042051394 2:0.071231157 3:0.36352525 
1 1:0.040097512 2:0.073631045 3:0.34368498 
-1 1:0.042125409 2:0.070286501 3:0.35545267 
1 1:0.047214352 2:0.076502884 3:0.25222345 
1 1:0.046153913 2:0.074051528 3:0.29205511 
-1 1:0.039383761 2:0.072211129 3:0.383586 
-1 1:0.034924254 2:0.07458742 3:0.39991123 
1 1:0.036969066 2:0.078308356 3:0.39311788 
1 1:0.040002909 2:0.076256603 3:0.35680782 
-1 1:0.037342211 2:0.066270068 3:0.33936124 
-1 1:0.032490507 2:0.075122216 3:0.49194643 
-1 1:0.029874955 2:0.07780578 3:0.4467201 
1 1:0.046536458 2:0.077822842 3:0.27363406 
1 1:0.042909073 2:0.074539066 3:0.24595128 
-1 1:0.022970346 2:0.075419524 3:0.55885698 
1 1:0.045194298 2:0.071634262 3:0.23233765 
-1 1:0.033346225 2:0.073554009 3:0.38527158 
-1 1:0.038655584 2:0.074329825 3:0.35549219 
1 1:0.027434202 2:0.078446202 3:0.48303056 
1 1:0.018942236 2:0.076257175 3:0.57476476 
-1 1:0.040863873 2:0.059439897 3:0.39355516 
-1 3:2.4973619 4:0.015070436 5:0.00019300796 
-1 1:0.047112175 2:0.062881637 3:0.31855371 
1 1:0.011590402 2:0.078541732 3:0.45883289 
-1 1:0.036185681 2:0.0719141 3:0.39120963 
1 1:0.034010404 2:0.073164623 3:0.39042579 
-1 1:0.017263415 2:0.055653631 3:0.57269891 
1 1:0.027709476 2:0.08583609 3:0.6391522 
-1 1:0.030793183 2:0.073033601 3:0.4792587 
-1 1:0.042346274 2:0.069410147 3:0.26953988 
1 1:0.04567725 2:0.075006515 3:0.28038286 
1 1:0.040853322 2:0.072687891 3:0.34743628 
-1 1:0.03298587 2:0.071709346 3:0.43189195 
-1 1:0.039117394 2:0.074942149 3:0.3643677 
-1 1:0.014411772 2:0.082388205 3:0.60869115 
1 1:0.039070321 2:0.075771511 3:0.37432384 
-1 1:0.032863454 2:0.071543496 3:0.43318379 
1 1:0.037466452 2:0.0775036 3:0.41112586 
1 1:0.031172513 2:0.062223621 3:0.29138839 
-1 1:0.03407305 2:0.059524232 3:0.36432604 
1 1:0.042941866 2:0.076370443 3:0.37858985 
-1 1:0.026696729 2:0.073591776 3:0.44825525 
-1 2:0.075398775 3:0.66535804 
1 1:0.044117297 2:0.075647164 3:0.31450181 
-1 1:0.037983416 2:0.066506904 3:0.32272552 
-1 1:0.042149311 2:0.07277374 3:0.34891915 
1 1:0.02138284 2:0.080842137 3:0.51586532 
-1 1:0.041701663 2:0.066577605 3:0.30857866 
1 1:0.036834327 2:0.079227185 3:0.37386599 
1 1:0.0064693005 2:0.080222068 3:0.73443855 
-1 1:0.01172572 2:0.060753622 3:0.45209207 
-1 1:0.040616316 2:0.077200028 3:0.39778443 
1 1:0.0027120543 2:0.089561091 3:0.74315536 
-1 1:0.03524527 2:0.063666215 3:0.36786499 
-1 1:0.020872273 2:0.071368797 3:0.547677 
1 1:0.027368682 2:0.070641828 3:0.50153494 
-1 1:0.0081170469 2:0.066947534 3:0.66634903 
-1 1:0.037192967 2:0.064415703 3:0.36532417 
1 1:0.034875976 2:0.072191413 3:0.40587766 
-1 1:0.0079499485 2:0.057933829 3:0.54452663 
1 1:0.029724059 2:0.076056356 3:0.47579068 
-1 1:0.033873681 2:0.071837658 3:0.3839579 
1 1:0.0039145533 2:0.084408608 3:0.58808422 
-1 2:0.081483541 3:0.8587584 
1 1:0.037876719 2:0.078533657 3:0.41743745 
1 1:0.035161758 2:0.07818346 3:0.45457839 
1 1:0.026747409 2:0.072156976 3:0.56763933 
-1 1:0.03089238 2:0.062136868 3:0.42840588 
-1 1:0.024082822 2:0.072258166 3:0.52828727 
1 1:0.02820771 2:0.078275421 3:0.50210048 
-1 1:0.026557653 2:0.07508723 3:0.47001061 
-1 2:0.074883577 3:1.0333769 4:0.0010837875 
-1 1:0.0085922276 2:0.076414084 3:0.60433575 
1 1:0.034260665 2:0.076428358 3:0.46204711 
1 1:0.024682212 2:0.072418234 3:0.49950554 
-1 1:0.028953871 2:0.063037819 3:0.47953526 
1 1:0.029065614 2:0.070516709 3:0.41116708 
-1 1:0.018133878 2:0.072611368 3:0.71184106 
-1 1:0.02458113 2:0.073887504 3:0.54057056 
1 1:0.0049743845 2:0.078718284 3:0.60900864 
-1 1:0.033204742 2:0.061527412 3:0.36129603 
-1 1:0.020563438 2:0.074210416 3:0.57119947 
1 1:0.032329412 2:0.070947892 3:0.46871233 
-1 1:0.024213515 2:0.065883995 3:0.55180283 
-1 1:0.014008275 2:0.074657255 3:0.67475952 
1 1:0.028365856 2:0.076803254 3:0.54766934 
1 1:0.029838193 2:0.072331201 3:0.45900209 
-1 1:0.014296132 2:0.065945972 3:0.57107174 
-1 1:0.023600226 2:0.068262856 3:0.55763479 
1 1:0.028603039 2:0.07847366 3:0.46177829 
-1 1:0.025860634 2:0.059973393 3:0.45677421 
-1 1:0.018475418 2:0.066903204 3:0.5384892 
-1 1:0.027507627 2:0.067561345 3:0.48600641 
-1 1:0.03205347 2:0.078821894 3:0.48167836 
1 1:0.0083200733 2:0.087968111 3:0.7744642 
-1 1:0.03185265 2:0.07839292 3:0.4844936 
1 1:0.021099512 2:0.083061861 3:0.55418071 
-1 1:0.031667587 2:0.077602141 3:0.49063599 
1 1:0.035591534 2:0.081615081 3:0.43822177 
-1 1:0.028696361 2:0.069166763 3:0.40400369 
1 1:0.029923689 2:0.075017087 3:0.4289653 
-1 1:0.022364575 2:0.07578524 3:0.63895386 
-1 1:0.029286249 2:0.078073499 3:0.49757131 
1 1:0.016931944 2:0.08823191 3:0.58960699 
1 1:0.019502813 2:0.077353272 3:0.55953638 
-1 1:0.017389513 2:0.063709473 3:0.51768532 
-1 1:0.020753403 2:0.064434113 3:0.48561661 
-1 1:0.014095407 2:0.069997339 3:0.54118431 
1 1:0.0020433074 2:0.084207263 3:0.86638159 
-1 1:0.011622457 2:0.078240024 3:0.70592897 
1 1:0.016449426 2:0.081988032 3:0.71708352 
-1 1:0.020035494 2:0.060578344 3:0.5595297 
1 1:0.0025716553 2:0.086444688 3:0.77095895 
-1 1:0.027106775 2:0.073178697 3:0.44894663 
-1 2:0.086867664 3:0.96591874 4:0.0017076507 
1 1:0.0205409 2:0.088343689 3:0.62550809 
1 1:0.014914426 2:0.078613828 3:0.62548313 
-1 1:0.0091313604 2:0.076552477 3:0.63126101 
-1 1:0.02102435 2:0.077203878 3:0.70289911 
-1 1:0.029966512 2:0.073726505 3:0.38159788 
1 1:0.030106908 2:0.088310303 3:0.53041492 
-1 1:0.0075637303 2:0.074425822 3:0.77291433 
-1 2:0.083518923 3:0.83085044 
1 2:0.081879292 3:0.94902939 4:0.00036663991 
-1 1:0.040775338 2:0.067977123 3:0.44819291 
1 1:0.017389234 2:0.08287538 3:0.63964093 
1 1:0.020824562 2:0.075693755 3:0.62723805 
-1 1:0.017647357 2:0.056380891 3:0.47303221 
1 1:0.0021712302 2:0.07485385 3:0.75363163 
-1 1:0.0044388176 2:0.07191094 3:0.78401152 
1 1:0.041671212 2:0.082207477 3:0.41691972 
-1 1:0.0018652337 2:0.071261378 3:0.62242705 
-1 1:0.012397285 2:0.076341718 3:0.70648999 
1 1:0.0071018095 2:0.085269329 3:0.76761502 
1 1:0.023651564 2:0.076332153 3:0.50768479 
-1 2:0.077912055 3:0.74352432 
-1 1:0.0083283299 2:0.07927181 3:0.70092124 
1 1:0.014659516 2:0.079322873 3:0.68677044 
1 1:0.01112988 2:0.070032898 3:0.64947882 
-1 1:0.014239461 2:0.061532283 3:0.66523562 
-1 1:0.031050304 2:0.072347951 3:0.3727329 
1 1:0.040593083 2:0.078686184 3:0.32576516 
-1 1:0.022733808 2:0.075333217 3:0.50499673 
-1 2:0.07667069 3:0.97536293 4:0.00089155859 
-1 1:0.058537941 2:0.054346208 3:0.083208892 
-1 2:0.075355296 3:0.70991133 
-1 2:0.075005015 3:1.0159063 4:0.00061892277 
1 1:0.018816589 2:0.080090345 3:0.65129402 
-1 1:0.0037573218 2:0.066827675 3:0.7378394 
-1 2:0.079724103 3:1.0180282 
1 1:0.020854743 2:0.085327351 3:0.68426038 
1 1:0.022929668 2:0.080544519 3:0.51889879 
-1 1:0.0084724904 2:0.08024479 3:0.76596102 
1 1:0.010985115 2:0.085140228 3:0.89172589 
-1 1:0.0013345185 2:0.08036515 3:0.89899703 
1 2:0.081704247 3:0.94035539 4:0.00021745567 
-1 1:0.016392314 2:0.072829266 3:0.62412612 
-1 1:0.00052027432 2:0.076334398 3:0.81981313 
-1 1:0.028873287 2:0.081938093 3:0.68868257 
1 2:0.084785601 3:0.91326591 
-1 1:0.02642485 2:0.070874762 3:0.65806984 
-1 1:0.011360333 2:0.081119691 3:0.67281399 
1 1:0.024466141 2:0.093238166 3:0.41350093 
-1 1:0.018500586 2:0.083339442 3:0.57298039 
1 1:0.011639169 2:0.089604452 3:0.76792383 
-1 1:0.024708627 2:0.078602673 3:0.59790085 
1 1:0.027347996 2:0.083592497 3:0.58378513 
-1 1:0.037505447 2:0.060289793 3:0.52983834 
1 1:0.016891061 2:0.080968018 3:0.66483509 
-1 2:0.076691221 3:1.0758977 
-1 1:0.011347406 2:0.082622514 3:0.85185487 
1 1:0.0573203 2:0.068967641 3:0.1360492 
-1 1:0.0044653773 2:0.080629699 3:0.79095779 
1 1:0.019915086 2:0.078857324 3:0.7489782 
-1 1:0.038247456 2:0.063468762 3:0.39266375 
-1 1:0.029704968 2:0.069389809 3:0.36962908 
1 1:0.028700405 2:0.082945371 3:0.63476824 
-1 1:0.0010915289 2:0.082810817 3:0.92850504 
1 1:0.023764923 2:0.08578983 3:0.67297348 
-1 1:0.0072621202 2:0.085028275 3:0.76805026 
-1 1:0.017206854 2:0.083724563 3:0.60424928 
1 1:0.042887073 2:0.088095525 3:0.16481843 
-1 1:0.029447411 2:0.075425072 3:0.43790029 
1 1:0.040776145 2:0.076393777 3:0.435605 
-1 1:0.0021534074 2:0.074076954 3:0.78071264 
1 1:0.033547344 2:0.080935888 3:0.5998812 
1 1:0.030745371 2:0.067129694 3:0.41006371 
-1 1:0.032760055 2:0.060208895 3:0.37111845 
1 1:0.024847135 2:0.085169656 3:0.56459106 
-1 1:0.024522588 2:0.073232459 3:0.64130323 
-1 1:0.036750424 2:0.073923846 3:0.41405608 
-1 1:0.026885576 2:0.07920559 3:0.53149032 
1 1:0.036123093 2:0.078544957 3:0.504108 
-1 1:0.018444281 2:0.080090607 3:0.61796533 
-1 1:0.01627899 2:0.082580538 3:0.7642364 
1 1:0.03330861 2:0.078280614 3:0.53816911 
1 1:0.020591121 2:0.075006245 3:0.54181667 
-1 1:0.023264657 2:0.070129358 3:0.68000085 
-1 1:0.023045241 2:0.073776261 3:0.61858283 
-1 2:0.085354433 3:0.91192464 
-1 1:0.12861274 3:2.9773245 5:0.014654658 
-1 1:0.12982648 3:2.9987181 5:0.014608089 
-1 1:0.13046849 3:2.977517 5:0.01461194 
-1 1:0.13509866 3:3.0375585 5:0.013879669 
1 1:0.13024314 3:2.9801482 5:0.014641116 
-1 1:0.088581046 3:2.6133307 5:0.01738463 
-1 1:0.080876476 3:1.3465346 5:0.013643803 
1 1:0.079026263 3:1.3094092 5:0.013611633 
-1 1:0.071708952 3:1.1456568 5:0.015331241 
-1 1:0.068013017 3:1.2097891 5:0.015217601 
-1 1:0.061255402 3:1.0731952 5:0.015798573 
1 1:0.067899923 3:1.2529059 5:0.013868238 
1 1:0.062419043 3:1.091836 5:0.015182827 
-1 1:0.043151981 3:0.80409245 5:0.016859642 
-1 1:0.064740587 3:1.212385 5:0.014332868 
-1 1:0.060238939 3:1.193072 5:0.014345709 
-1 1:0.055723012 3:1.0467571 5:0.015091723 
-1 1:0.054324542 3:1.0768205 5:0.015057923 
-1 1:0.059574245 3:1.1667728 5:0.013871639 
1 1:0.054943974 3:1.1964918 5:0.013483973 
-1 1:0.051767245 3:1.1068198 5:0.014690329 
1 1:0.058244242 3:1.2899258 5:0.012635271 
-1 1:0.026242707 3:0.60012651 4:0.0009212197 5:0.016541221 
-1 1:0.061230214 3:1.3054672 5:0.012299201 
1 1:0.058639316 3:1.3652379 5:0.011240008 
-1 1:0.045761567 3:0.88463089 5:0.015810328 
1 1:0.057605671 3:1.2594051 5:0.012452047 
-1 4:0.012907661 5:0.009461565 
-1 1:0.049436362 3:0.96587974 5:0.015195598 
1 1:0.066888754 2:0.0042981181 3:1.6063351 5:0.0072145125 
1 1:0.03726244 3:0.73514619 5:0.015945637 
1 1:0.070405154 3:1.2754607 5:0.01209396 
1 1:0.003039777 3:0.29013237 4:0.005496926 5:0.015419008 
-1 1:0.0058217872 3:0.39795389 4:0.0044248757 5:0.015909499 
1 1:0.042729666 3:0.78945763 5:0.015646514 
-1 4:0.013647354 5:0.0078474217 
-1 1:0.02813088 3:0.64856127 5:0.016145045 
1 1:0.057269955 3:1.0899303 5:0.01376083 
-1 4:0.011692732 5:0.0099175876 
-1 4:0.010053947 5:0.011372005 
-1 4:0.015323231 5:0.0022123824 
1 1:0.05782593 3:1.2448267 5:0.011824979 
1 1:0.058424142 3:1.1588076 5:0.012472021 
-1 1:0.035257244 3:0.8688911 5:0.015717266 
1 1:0.051881293 3:1.0350745 5:0.014088992 
-1 1:0.044746976 3:0.81968867 5:0.015186375 
1 1:0.046746841 3:0.90731866 5:0.014831764 
-1 1:0.06600875 3:1.2775999 5:0.011467782 
-1 1:0.064748384 3:1.5084557 5:0.0083714936 
-1 1:0.058189002 3:1.2221029 5:0.011955418 
1 1:0.058017171 3:1.1992475 5:0.011839817 
-1 1:0.051452469 3:0.97782196 5:0.014141389 
1 1:0.070080151 3:1.4053921 5:0.0087502701 
-1 1:0.056363707 3:1.0929161 5:0.012980217 
-1 1:0.054672999 3:1.1159014 5:0.012975863 
1 1:0.058736072 3:1.174963 5:0.012014128 
-1 1:0.045550961 3:0.78197946 5:0.014862302 
-1 1:0.063305389 3:1.3432641 5:0.010408549 
1 1:0.060340078 3:1.2668815 5:0.010632872 
1 1:0.041020513 3:0.76719816 5:0.014986523 
-1 1:0.051756381 3:0.87798151 5:0.014403188 
1 1:0.05244103 3:0.93332174 5:0.013746218 
-1 1:0.049224709 3:0.94494597 5:0.014174077 
-1 1:0.00011041259 4:0.0060674694 5:0.013730481 
-1 1:0.017084886 3:0.078717667 4:0.0033631272 5:0.014669813 
1 1:0.057414394 3:1.1307514 5:0.011740796 
-1 1:0.058577282 3:1.0114603 5:0.0133328 
1 1:0.060916215 3:1.3411845 5:0.010197925 
1 1:0.046881583 3:0.90387313 5:0.014370835 
-1 1:0.053814303 3:0.82328681 5:0.01426145 
-1 1:0.04660275 3:0.83277098 5:0.014313415 
-1 1:0.056074737 3:0.74888067 5:0.013962836 
1 1:0.069828243 3:1.4542339 5:0.0080090134 
-1 1:0.038574088 3:0.96242488 5:0.014633912 
-1 1:0.062568253 3:1.2436755 5:0.011048823 
-1 4:0.014972565 
-1 1:0.07207161 3:0.97167312 5:0.012399951 
1 1:0.061437671 3:1.1767809 5:0.010977421 
1 1:0.057917398 3:1.2531031 5:0.010899765 
-1 1:0.047926328 3:0.95625858 5:0.013782532 
1 1:0.066815667 3:1.3214645 5:0.0094410259 
1 1:0.064145272 3:1.3137094 5:0.010380498 
-1 1:0.043438676 3:0.81070714 5:0.01445465 
1 1:0.047892607 3:0.898936 5:0.013835733 
-1 1:0.064309256 3:1.287961 5:0.010264445 
1 1:0.066037761 3:1.3166331 5:0.0098678624 
-1 1:0.042127692 3:0.8631751 5:0.014450824 
1 1:0.052124059 2:0.033461474 3:2.1749381 
-1 1:0.045215157 3:0.8111261 5:0.014239605 
1 1:0.061397354 3:1.2545364 5:0.010643467 
1 1:0.027921441 3:0.68328036 5:0.015411546 
-1 1:0.059878059 3:0.86590171 5:0.013715064 
1 1:0.06877317 3:1.5333537 5:0.0059750999 
-1 1:0.063700581 3:1.0915149 5:0.012161247 
1 1:0.043296308 3:0.85975488 5:0.014261166 
-1 1:0.048667737 3:0.85595518 5:0.013937687 
1 1:0.033052301 3:0.66415557 5:0.014970069 
-1 1:0.027960816 3:0.6211667 5:0.015262918 
-1 1:0.036061298 3:0.69781293 5:0.014688306 
1 1:0.069789321 3:1.5094499 5:0.0065301568 
-1 1:0.049088073 3:0.86408677 5:0.013875289 
-1 1:0.04041859 3:0.85227054 5:0.014346172 
1 1:0.036009274 3:0.68084759 5:0.014697549 
-1 4:0.014997646 
-1 1:0.02838834 3:0.53801074 5:0.015169395 
-1 2:0.072096182 4:0.0029494923 
-1 4:0.013455547 5:0.0066300233 
1 1:0.053126838 3:1.1020196 5:0.011915241 
-1 1:0.043297833 3:0.77093731 5:0.014487902 
1 1:0.03524985 3:0.79186682 5:0.014287104 
1 4:0.0070364083 5:0.013416726 
-1 4:0.013986435 5:0.0054247539 
-1 1:0.039991193 3:0.6919578 5:0.014671956 
-1 4:0.0074508971 5:0.013039297 
1 1:0.055185515 3:1.1407188 5:0.011256394 
-1 4:0.013014024 5:0.0077125051 
1 1:0.065387786 3:1.5348316 5:0.0064448454 
-1 1:0.042450078 3:0.71204796 5:0.014348777 
-1 1:0.070532403 2:0.0051642384 3:1.851704 5:0.0024124596 
1 1:0.013269743 2:0.066110489 3:2.6832906 
-1 1:0.046953029 3:0.86120388 5:0.014132121 
-1 1:0.062346767 3:1.3461365 5:0.0098268718 
1 1:0.0622155 3:1.3168717 5:0.0099239333 
1 4:0.0108047 5:0.010596637 
-1 1:0.02718926 3:0.39163044 5:0.015019299 
-1 1:0.032054587 3:0.68554637 5:0.014670552 
-1 2:0.062205349 4:0.0062780374 
1 1:0.051856977 3:0.98433864 5:0.013172369 
1 4:0.015031476 5:0.0022006732 
1 1:0.061946976 2:0.0050089618 3:1.5753693 5:0.0043651368 
-1 1:0.044394933 3:0.69772152 5:0.014342701 
-1 2:0.052270283 3:2.848038 
-1 1:0.011588302 3:0.50843684 5:0.015510636 
1 1:0.034720471 2:0.05945055 3:2.1808189 
-1 4:0.0070293143 5:0.013719972 
1 1:0.061687123 3:1.4367842 5:0.0082313588 
-1 4:0.008718468 5:0.012613173 
-1 1:0.036465304 3:0.60510901 5:0.014495816 
1 1:0.060767005 3:1.5750917 5:0.0055433629 
1 3:0.2159163 4:0.0039652981 5:0.014819261 
1 3:0.00020380485 4:0.0069182598 5:0.013747566 
-1 1:0.03032906 3:0.53580283 5:0.014863648 
-1 1:0.053785497 3:1.2373085 5:0.0096024832 
-1 4:0.013933008 5:0.005605801 
-1 3:0.26211435 4:0.0036156318 5:0.015043071 
-1 4:0.0092916734 5:0.011886635 
-1 1:0.058457858 3:1.396837 5:0.0086124189 
-1 1:0.038484908 3:0.67374983 5:0.01428004 
-1 2:0.04200449 4:0.008146889 
1 1:0.065990919 3:1.5513843 5:0.0060112327 
-1 4:0.012245351 5:0.011590218 
1 1:0.057921635 2:8.5475146e-05 3:1.8154365 5:0.0024642059 
-1 4:0.0075665595 5:0.013476102 
1 1:0.048905488 3:1.3188189 5:0.0083399522 
1 4:0.00529359 5:0.014085511 
-1 4:0.0084346348 5:0.012687563 
-1 1:0.056462788 3:1.4090794 5:0.0068795815 
-1 4:0.014101607 
-1 1:0.034804403 3:0.62531395 5:0.01443422 
1 1:0.059936641 2:0.0002910874 3:1.7221074 5:0.0029770268 
1 1:0.043207722 3:0.84193783 5:0.013777927 
1 3:0.047634266 4:0.0064889683 5:0.013884814 
1 1:0.012914057 3:0.31084179 4:0.00028657336 5:0.015063958 
-1 1:0.039046866 3:0.67602414 5:0.01441209 
1 1:0.052991671 3:1.0873396 5:0.012488151 
-1 1:0.056455261 3:0.86500005 5:0.013471163 
1 1:0.058141307 3:1.4818067 5:0.0070402803 
-1 1:0.048565072 3:0.94229474 5:0.013275857 
1 1:0.017251313 3:0.41684388 5:0.015032783 
1 1:0.054707156 3:0.84182134 5:0.013097039 
-1 1:0.0063254404 3:0.26564534 4:0.0012508014 5:0.015008746 
1 1:0.062984166 3:1.6140236 5:0.005622218 
-1 4:0.011952933 5:0.010369595 
1 2:0.078490597 4:0.017465615 
-1 4:0.0068744898 5:0.013459454 
1 4:0.014103138 5:0.0065620319 
-1 3:0.33555359 4:0.0026937301 5:0.015184033 
-1 1:0.050550485 3:0.93415294 5:0.012591468 
-1 2:0.044063782 4:0.0078153661 
-1 3:0.23743593 4:0.0046850995 5:0.014704135 
1 3:0.20991171 4:0.004418839 5:0.014637148 
1 3:0.31266586 4:0.0038066074 5:0.014906562 
-1 1:0.055951305 3:1.1341878 5:0.013729204 
1 1:0.039159766 3:0.69267858 5:0.014313215 
-1 1:0.06403338 3:1.2798472 5:0.01283956 
-1 4:0.015311462 
1 1:0.028559574 3:0.85003872 5:0.013847925 
-1 1:0.044428067 3:1.0765974 5:0.012403516 
1 1:0.048149575 3:0.8626025 5:0.012052172 
-1 1:0.051334761 3:1.1485536 5:0.012932736 
1 3:0.08530285 4:0.0046144739 5:0.014296072 
-1 3:0.28630873 4:0.0028938632 5:0.014794124 
-1 3:0.1180611 4:0.0042809796 5:0.014392954 
1 4:0.0082807378 5:0.012523371 
1 3:0.016944695 4:0.0051242671 5:0.014110345 
-1 3:0.058676828 4:0.0060080297 5:0.013884009 
1 2:0.06400373 4:0.0039775372 
-1 2:0.035339807 4:0.0077033184 
-1 4:0.011066283 5:0.010334591 
-1 1:0.087116306 2:0.037091728 3:2.1402826 
-1 4:0.013685747 5:0.0066556934 
-1 3:0.41135723 4:0.0025447782 5:0.015016253 
1 1:0.036362385 3:0.79469654 5:0.014181222 
-1 1:0.026203662 3:0.71805547 5:0.014785174 
-1 3:0.40533055 4:0.0032074511 5:0.014979954 
1 1:0.046054137 2:0.069256521 3:2.2905575 
1 3:0.54150963 5:0.015231566 
-1 4:0.014697311 
1 4:0.012392523 5:0.009469761 
-1 4:0.01264725 5:0.0083542301 
-1 1:0.029931181 3:0.94537032 5:0.014009578 
-1 3:0.048523924 4:0.005035299 5:0.014145576 
1 4:0.014744933 5:0.005428641 
-1 4:0.013218754 5:0.0075851988 
1 3:0.10680859 4:0.0043335814 5:0.014380724 
-1 4:0.0087711922 5:0.012551827 
-1 3:0.33987831 4:0.0032449399 5:0.014978797 
1 3:0.068160892 4:0.0083533539 5:0.013457398 
1 3:0.008563828 4:0.0052953047 5:0.014056457 
-1 4:0.0079896621 5:0.013080992 
-1 1:0.023014759 3:0.50638152 5:0.014802665 
-1 2:0.0031716376 4:0.014120471 
1 1:0.031704089 2:0.077429184 3:2.4385354 
-1 2:0.067440566 
-1 1:0.06158585 3:1.1747918 5:0.01069309 
-1 4:0.015051131 
-1 2:0.010149682 4:0.014110234 
-1 4:0.0092657571 5:0.012192852 
1 1:0.049985295 3:0.9228288 5:0.01194732 
1 3:0.20904271 4:0.0045441494 5:0.01466959 
-1 1:0.039739505 3:0.84585288 5:0.014494661 
1 1:0.064868886 3:1.4841477 5:0.0069582618 
-1 1:0.068832147 3:1.1901694 5:0.011438376 
-1 3:0.21465919 4:0.0042596066 5:0.01461881 
-1 1:0.01338031 2:0.066832876 
1 4:0.0064313729 5:0.013697498 
1 3:0.30753495 4:0.0022085504 5:0.015003537 
-1 1:0.065185627 3:1.217795 5:0.012609945 
-1 3:0.20542714 4:0.0052166801 5:0.01441612 
-1 3:0.29253973 4:0.0057676302 5:0.014585836 
1 3:0.37223568 4:0.0025563488 5:0.015030224 
-1 1:0.059785045 3:1.1294217 5:0.012690981 
1 1:0.014834309 2:0.065452627 
-1 1:0.03585437 3:1.010199 5:0.013020062 
1 1:0.017193291 2:0.065111072 
-1 1:0.011057669 2:0.066064127 
1 1:0.041172022 2:0.076462825 3:2.549488 
1 2:0.036641946 4:0.01661189 
1 2:0.068122397 
1 4:0.010612567 5:0.010696669 
-1 3:0.094415995 4:0.0045311454 5:0.014307709 
-1 4:0.011966568 5:0.0091025964 
-1 1:0.031340354 3:0.89546642 5:0.014254913 
-1 3:0.089732652 4:0.0044625685 5:0.014331189 
-1 1:0.0056134106 2:0.062536661 
-1 4:0.010141602 5:0.011086625 
-1 1:0.026264268 3:0.77445998 5:0.014603203 
1 4:0.0088098854 5:0.012400385 
1 3:0.019151019 4:0.0051992379 5:0.014083785 
-1 1:0.041036755 3:0.88556043 5:0.014001319 
-1 3:0.13384439 4:0.0038231863 5:0.014527537 
-1 1:0.0026546621 2:0.05789667 
-1 3:0.002840624 4:0.0053447924 5:0.014022621 
1 2:0.006753303 4:0.014300172 
-1 2:0.046252113 4:0.00088288105 
-1 4:0.014949155 
-1 1:0.061178021 3:1.1094867 5:0.011800031 
-1 3:0.020950345 4:0.0052769047 5:0.01406476 
-1 4:0.0072555204 5:0.013548046 
1 4:0.0059646451 5:0.013786382 
1 4:0.0059827736 5:0.013774044 
-1 2:0.03058557 4:0.0131197 
1 4:0.0053588837 5:0.014037056 
-1 3:0.030086768 4:0.0052609139 5:0.014079296 
1 1:0.055594508 2:0.037035203 3:2.2556683 
1 2:0.07111278 
1 1:0.058688359 2:0.033222972 3:2.1848794 
-1 2:0.072526848 
-1 4:0.011306255 5:0.0099337661 
-1 1:0.0016785544 2:0.070584961 
1 1:0.025549965 2:0.067956753 3:3.1066183 
1 1:0.02397219 2:0.068647976 3:3.107992 
1 1:0.02440269 2:0.069407083 
-1 1:0.081524864 2:0.11893092 4:0.0024016593 5:0.00021958819 
1 1:0.11158829 2:0.10399499 4:0.0018585003 5:5.3967316e-05 
1 1:0.11291346 2:0.060141543 4:0.0017735376 5:0.0011298406 
1 1:0.014203067 4:0.0018997028 
1 4:0.01199602 5:0.0090170405 
-1 4:0.0096144023 5:0.011569984 
1 4:0.013263243 5:0.0070063011 
1 4:0.011677437 5:0.0094215596 
-1 4:0.011379576 5:0.0097774173 
1 4:0.01310053 5:0.0073058973 
1 4:0.011286293 5:0.0098819636 
1 4:0.012376067 5:0.0084766221 
-1 4:0.011293087 5:0.0098784362 
1 3:3.0168492 4:0.012571137 5:0.0082812391 
1 3:2.9461376 4:0.011340665 5:0.0099437222 
1 3:2.9581368 4:0.012470039 5:0.0084291875 
1 3:3.1006201 4:0.011087437 5:0.010206677 
1 3:2.9936294 4:0.012126542 5:0.0089176143 
1 3:3.0421488 4:0.0107098 5:0.010574306 
1 3:3.1184332 4:0.010260099 5:0.011036944 
1 3:3.025893 4:0.011322869 5:0.0098886059 
1 3:3.0732602 4:0.011171931 5:0.010064725 
1 3:2.9955906 4:0.010800421 5:0.010471469 
1 3:2.9388049 4:0.011545238 5:0.009628093 
1 3:3.1363768 4:0.01077935 5:0.010485891 
1 3:3.0704666 4:0.01063755 5:0.010629119 
1 3:2.8885627 4:0.012071115 5:0.0089267316 
1 3:3.0873592 4:0.011515256 5:0.0096452051 
1 3:3.0565875 4:0.012032255 5:0.0089861846 
1 3:2.9463813 4:0.013470214 5:0.0066154082 
1 3:2.9752834 4:0.010883667 5:0.010355342 
-1 3:2.903385 4:0.01078959 5:0.010454611 
1 3:3.0898888 4:0.012162226 5:0.008790138 
1 3:2.9461763 4:0.011805517 5:0.0092679839 
1 3:3.024507 4:0.012106656 5:0.0088702287 
1 3:2.9150299 4:0.012415369 5:0.0084394713 
1 4:0.010142128 5:0.011086609 
1 3:2.9727968 4:0.012203194 5:0.0087351434 
1 3:3.0601203 4:0.011080188 5:0.010121765 
1 3:2.824352 4:0.012569402 5:0.0081974706 
1 3:3.1376457 4:0.011861205 5:0.0091887447 
1 4:0.010182674 5:0.011041961 
1 3:3.0673726 4:0.011326143 5:0.0098548495 
-1 4:0.010464933 5:0.01077439 
1 3:2.9188937 4:0.011222149 5:0.0099644831 
0.3494774608651219 3:2.9325711 4:0.011908317 5:0.0091453547 
1 3:2.9208872 4:0.012578952 5:0.0081900386 
1 3:2.9325186 4:0.012047166 5:0.0089509162 
1 4:0.011277209 5:0.0098989679 
1 4:0.011639036 5:0.009467288 
1 3:3.0495268 4:0.01167688 5:0.0094205813 
1 3:3.0344591 4:0.011897277 5:0.0091502797 
1 3:3.0507762 4:0.0122679 5:0.0086429923 
1 3:2.9627441 4:0.012366187 5:0.0084992702 
1 4:0.011401448 5:0.0097651548 
1 4:0.0098868862 5:0.011287167 
1 4:0.011013278 5:0.010196266 
-1 4:0.01065518 5:0.01056186 
1 3:3.0578066 4:0.012209847 5:0.0087140255 
1 3:2.9536299 4:0.012472297 5:0.0083331837 
-1 4:0.007293175 5:0.013133987 
-1 4:0.010237203 5:0.010965423 
-1 3:3.096725 4:0.010858766 5:0.010358711 
1 3:3.0328046 4:0.011322813 5:0.00983839 
-1 4:0.012192307 5:0.0087377343 
1 4:0.010042084 5:0.011158339 
1 4:0.011807346 5:0.009254345 
-1 4:0.0023025873 5:0.014874891 
-1 4:0.01090161 5:0.010305521 
1 3:3.0180306 4:0.012584471 5:0.0081681729 
1 3:3.0498175 4:0.012251642 5:0.0086577547 
1 4:0.010955636 5:0.010247018 
1 4:0.012187061 5:0.0087502959 
1 4:0.0099975401 5:0.011182694 
-1 4:0.0045056204 5:0.014332265 
1 4:0.011798309 5:0.009263465 
-1 4:0.0092574583 5:0.011806836 
1 3:2.9967147 4:0.013092322 5:0.0073252036 
1 4:0.010735881 5:0.010476888 
1 3:3.1130734 4:0.011255992 5:0.009917704 
-1 4:0.0086573254 5:0.012253274 
1 4:0.010414059 5:0.010795917 
-1 4:0.010768337 5:0.010444806 
1 3:2.9757349 4:0.012304864 5:0.0085937752 
-1 4:0.009512045 5:0.011599412 
-1 4:0.0097936791 5:0.011362327 
1 3:3.0030721 4:0.01278657 5:0.0078430083 
1 4:0.011492586 5:0.0096457096 
-1 4:0.0092853877 5:0.011787036 
1 4:0.0096859586 5:0.011453646 
1 3:3.049519 4:0.011041572 5:0.010154863 
1 4:0.010244874 5:0.010962146 
-1 3:3.0911788 4:0.011016942 5:0.010182687 
1 3:3.1071172 4:0.011129575 5:0.010058091 
1 4:0.0093167092 5:0.011757493 
1 4:0.010188981 5:0.011030807 
1 4:0.0073820066 5:0.013058591 
-1 4:0.010041783 5:0.011175151 
1 3:3.0477779 4:0.011746578 5:0.0093607737 
-1 4:0.0051798038 5:0.014096856 
-1 4:0.0091766867 5:0.01186819 
1 3:2.9778372 4:0.012358238 5:0.0085271071 
1 4:0.008913933 5:0.0120645 
-1 3:3.0061769 4:0.012060639 5:0.008947777 
1 3:2.8822934 4:0.012478928 5:0.0083802793 
1 3:2.9527715 4:0.010337903 5:0.010882876 
1 4:0.0076258775 5:0.01291959 
1 4:0.010369786 5:0.010847433 
1 3:3.1040706 4:0.0090164211 5:0.011989916 
1 3:3.0072851 4:0.011620202 5:0.0095238209 
-1 3:2.9092281 4:0.011975715 5:0.0090585535 
1 3:2.8884296 4:0.01084879 5:0.010359977 
1 4:0.0091465305 5:0.011889021 
-1 3:3.0328017 4:0.010162436 5:0.01107535 
1 3:3.082884 4:0.011535339 5:0.0096077436 
-1 4:0.0067953204 5:0.013394797 
1 4:0.0090308459 5:0.011980922 
-1 3:3.0307948 4:0.0120108 5:0.0090554142 
-1 3:3.0176933 4:0.010737324 5:0.010531117 
1 3:3.1349381 4:0.011380577 5:0.0097980722 
1 3:3.0120088 4:0.010659442 5:0.010563033 
1 4:0.010888815 5:0.010326102 
1 3:3.0636014 4:0.012387091 5:0.0085634891 
1 3:2.98489 4:0.010702294 5:0.01052373 
-1 4:0.0080628341 5:0.012703023 
1 4:0.01108013 5:0.01012038 
1 3:2.9900317 4:0.010843343 5:0.010368081 
-1 3:3.0672083 4:0.011823627 5:0.0092494882 
1 3:3.1315946 4:0.010395394 5:0.010932463 
1 4:0.010585282 5:0.010707309 
-1 3:3.0340778 4:0.011202677 5:0.010050843 
1 4:0.010060156 5:0.011137599 
1 4:0.010533578 5:0.010782301 
1 4:0.01055127 5:0.010679869 
-1 3:2.9977699 4:0.011051741 5:0.010190523 
1 3:3.0205562 4:0.010859619 5:0.010376988 
1 4:0.010870495 5:0.010453093 
-1 4:0.0089676459 5:0.012117635 
1 3:3.0391504 4:0.012015727 5:0.0090435428 
-1 3:2.8885006 4:0.011173714 5:0.010041473 
1 4:0.010620657 5:0.010627368 
-1 4:0.010659743 5:0.010605054 
-1 3:2.9833004 4:0.011796567 5:0.0092961156 
1 3:2.9991453 4:0.01032325 5:0.010900646 
-1 3:3.0931088 4:0.011343456 5:0.0098269692 
1 4:0.0073461508 5:0.013162868 
-1 4:0.003411321 5:0.01467268 
1 3:2.9823709 4:0.011974019 5:0.0090775275 
1 4:0.0083521929 5:0.012465306 
-1 4:0.0096850287 5:0.011476037 
-1 3:2.9891378 4:0.0096197878 5:0.01151052 
1 3:3.0025087 4:0.012097437 5:0.0089210451 
1 3:3.0779777 4:0.01042937 5:0.010803987 
-1 4:0.009375078 5:0.011724077 
1 4:0.0081053044 5:0.012650231 
1 4:0.010180709 5:0.011030762 
1 4:0.0033685425 5:0.014619327 
-1 4:0.0088479497 5:0.012149734 
0.9993779941569074 3:3.1399617 4:0.0089328452 5:0.012050182 
1 4:0.010038848 5:0.011176865 
-1 4:0.0085194371 5:0.012414255 
1 3:2.8846065 4:0.01250905 5:0.0082885488 
-1 3:2.7795155 4:0.011763858 5:0.0093612561 
1 4:0.0080640228 5:0.012652712 
-1 4:0.010194759 5:0.01104486 
1 3:2.7279492 4:0.011532963 5:0.009667404 
1 3:3.0299189 4:0.0091532597 5:0.011891228 
-1 4:0.0043171334 5:0.014365678 
-1 4:0.0096081577 5:0.011528056 
1 4:0.007723011 5:0.012859089 
-1 4:0.0084725382 5:0.012403361 
1 3:3.0379755 4:0.0098182506 5:0.011342681 
1 4:0.0061433332 5:0.013696683 
-1 4:0.0085077031 5:0.01236693 
1 3:2.9844926 4:0.0095793874 5:0.011546864 
1 3:3.0994299 4:0.010690822 5:0.010571435 
-1 3:2.9268347 4:0.010471977 5:0.010775503 
-1 4:0.01224055 5:0.0087123333 
1 3:3.0819691 4:0.0093937523 5:0.011706469 
-1 1:0.057121676 2:0.076041128 3:0.52774319 
-1 1:0.088865701 2:0.041685789 
-1 3:3.1041213 4:0.01040508 5:0.010828657 
1 4:0.010142478 5:0.011083291 
1 4:0.0062171729 5:0.01365597 
-1 4:0.0052502298 5:0.01405526 
1 3:3.0552832 4:0.011341032 5:0.0098185756 
-1 3:2.8887691 4:0.0091011566 5:0.011939251 
1 4:0.0084309452 5:0.012437831 
-1 4:0.007295787 5:0.013127362 
1 4:0.010451572 5:0.010800775 
1 4:0.0090526722 5:0.011963406 
-1 4:0.0061546358 5:0.013780071 
-1 4:0.0094524213 5:0.011671368 
-1 3:2.8831024 4:0.01021076 5:0.011014911 
1 3:2.7438182 4:0.012886969 5:0.0077588644 
1 3:3.0447356 4:0.010251397 5:0.010966517 
-1 4:0.00691044 5:0.01335787 
1 3:3.0733914 4:0.012062497 5:0.0089486522 
1 4:0.0051447629 5:0.014105358 
-1 4:0.0098667065 5:0.011403126 
-1 4:0.0016245535 5:0.015026699 
1 4:0.010459948 5:0.010776622 
-1 3:2.9124982 4:0.011139025 5:0.010083501 
1 3:3.0180138 4:0.010590464 5:0.010641756 
1 4:0.0017616099 5:0.014904016 
-1 4:0.00043557902 5:0.015067979 
1 4:0.0057389638 5:0.013875652 
-1 3:2.9285238 4:0.0078929727 5:0.012764285 
1 4:0.0055367957 5:0.013942418 
-1 4:0.0049104295 5:0.014194168 
1 4:0.0056265953 5:0.013914096 
-1 1:0.096296193 
-1 4:0.011066879 5:0.01018828 
1 5:0.014906625 
-1 4:0.0033249045 5:0.014651385 
-1 3:2.6598753 4:0.011649331 5:0.0094904171 
-1 1:0.037001955 5:0.011138791 
1 4:0.010460144 5:0.010757069 
1 3:2.7116842 4:0.012496996 5:0.008303233 
-1 3:2.862099 4:0.010870498 5:0.01036018 
1 4:0.0033308205 5:0.014635494 
-1 3:3.05983 4:0.011537773 5:0.0096133908 
1 4:0.0075394705 5:0.012968717 
1 4:0.011507502 5:0.0096506695 
-1 4:0.0087738425 5:0.012173778 
-1 1:0.069459578 2:0.048066951 3:0.67697103 
-1 1:0.07428904 2:0.059476326 3:0.060399486 
1 4:0.0072935882 5:0.013107531 
-1 4:0.0013831743 5:0.014942843 
-1 1:0.070539695 2:0.041618953 3:0.41692685 
1 4:0.00099115408 5:0.014981181 
1 4:0.0066816085 5:0.013434979 
-1 3:3.040061 4:0.0082773089 5:0.012511429 
1 3:3.1288931 4:0.0090550677 5:0.01196032 
1 1:0.019657573 5:0.01279011 
-1 4:0.0080238052 5:0.012673828 
1 4:0.00043575227 5:0.014997095 
1 4:0.0037958073 5:0.0145118 
-1 4:0.0088155084 5:0.012137173 
1 1:0.014767617 5:0.013019061 
-1 4:0.010336287 5:0.010871009 
-1 3:2.5014308 4:0.012902776 5:0.0076504963 
-1 1:0.079240467 5:0.0018456364 
1 4:0.000597562 5:0.014990073 
1 3:2.7090371 4:0.011415646 5:0.0097341132 
-1 4:0.0067712414 5:0.013388527 
-1 1:0.14979214 5:0.006692991 
1 1:0.15069097 5:0.0061727577 
-1 1:0.14748702 5:0.0076728351 
-1 1:0.14588942 5:0.0077944623 
1 1:0.14957279 5:0.0073717872 
-1 1:0.14702511 5:0.0093643871 
1 1:0.093700387 3:2.6067713 5:0.0041364036 
-1 1:0.092440988 3:2.5766662 5:0.0042335193 
1 1:0.09968721 2:0.0061632445 3:2.6343002 5:0.0019733607 
-1 1:0.084291288 3:2.3852059 5:0.0077505649 
1 1:0.083390356 3:2.3974818 5:0.0077219322 
-1 1:0.087490124 3:2.3972665 5:0.007292373 
1 1:0.088447606 3:2.4964363 5:0.0056555091 
1 1:0.078947953 2:0.0014413389 3:2.7071266 5:0.0025117636 
1 1:0.076559782 3:2.5920859 5:0.003874691 
-1 1:0.067437432 3:2.2215723 5:0.010111063 
1 1:0.065220126 3:2.2286943 5:0.010071341 
-1 3:0.82329201 4:0.0062195808 5:0.013695154 
1 1:0.069439916 3:2.5649525 5:0.0044595801 
1 1:0.062471444 3:2.2059802 5:0.0098583331 
-1 1:0.04854724 3:1.9594446 5:0.012648637 
1 1:0.058896146 2:0.01607185 3:2.7879814 
1 1:0.060740987 2:0.0082584277 3:2.6957059 5:0.0014954543 
-1 1:0.060363982 2:0.0011121627 3:2.6079009 5:0.0030151471 
-1 1:0.05469819 2:0.015517483 3:2.7940902 5:0.00017107233 
1 1:0.036450741 2:0.052303083 
1 4:0.014977795 5:0.0010562087 
-1 1:0.0486478 2:0.034431258 3:3.0766966 
-1 3:0.24175449 4:0.011453774 5:0.0096910487 
-1 1:0.055753338 3:2.1704572 5:0.0096368055 
-1 4:0.014995367 
-1 1:0.06295178 3:2.3336274 5:0.0069889173 
-1 1:0.054253816 3:2.3475507 5:0.0071029971 
1 1:0.054496625 3:2.4913795 5:0.0049399776 
-1 1:0.055748456 3:2.6097389 5:0.0032555295 
1 1:0.051840049 2:0.0020083172 3:2.575209 5:0.0033617736 
-1 1:0.040717066 3:1.9244246 5:0.013036483 
1 1:0.034943437 2:0.056065558 
1 1:0.055717369 2:0.0062782453 3:2.7339865 5:0.0014874002 
1 1:0.055364631 2:0.01040638 3:2.7868891 5:0.00044957895 
1 1:0.055797331 3:2.5585622 5:0.0036355388 
-1 1:0.012444676 3:1.464819 5:0.015229855 
1 1:0.051815799 2:0.016629977 3:2.8811277 
-1 1:0.055780592 3:2.5165469 5:0.0044403057 
-1 1:0.039542541 3:1.3602244 5:0.014548603 
-1 3:0.5305438 4:0.0082699281 5:0.0125302 
1 3:0.40126422 4:0.0095207088 5:0.01160986 
-1 3:0.44322418 4:0.0089664123 5:0.012039643 
-1 1:0.043880041 3:1.5481818 5:0.013839701 
1 1:0.05168146 3:2.571634 5:0.0038781361 
-1 1:0.05713157 3:2.6621639 5:0.0029836085 
-1 3:0.51551111 4:0.0090407819 5:0.011969944 
-1 1:0.013638237 3:1.3543106 5:0.015117626 
1 1:0.053177037 2:0.0051690245 3:2.6261004 5:0.002545665 
1 1:0.059453046 2:0.014005747 3:2.9186299 
-1 1:0.058461986 3:2.6411858 5:0.0029799905 
1 1:0.055188473 2:0.010769831 3:2.8620527 
-1 1:0.057535888 2:0.00017500717 3:2.7031723 5:0.0021862622 
1 1:0.060570901 2:0.024219675 3:3.0143024 
1 1:0.056055066 2:0.023459726 3:3.0667015 
1 1:0.057027199 2:0.010372602 3:2.8516235 
1 1:0.055530198 2:0.01511895 3:2.8919276 
-1 1:0.056353026 3:2.6652193 5:0.0032002067 
-1 3:0.49863018 4:0.0085063609 5:0.012472237 
-1 1:0.054589436 3:2.7402517 5:0.0021177899 
-1 1:0.0035388929 3:0.95136633 4:0.0024373226 5:0.014843145 
-1 3:0.50644227 4:0.010217667 5:0.011059283 
-1 1:0.055841615 3:1.9459542 5:0.011767996 
1 1:0.057391491 3:2.7127866 5:0.0018323971 
1 1:0.060080023 2:0.01270759 3:2.9304924 
1 1:0.057452065 3:2.7273154 5:0.0022522292 
1 1:0.071867297 3:2.6758359 5:0.0031981952 
-1 1:0.069973556 3:2.3149156 5:0.0082340185 
-1 1:0.062288893 2:0.013782036 3:2.9494517 
-1 3:0.9993406 4:0.0032894142 5:0.014652169 
-1 1:0.074735588 3:2.7087903 5:0.0030637485 
1 1:0.060713638 2:0.016142711 3:3.0390791 
-1 1:0.066703867 3:2.4819205 5:0.0062782383 
1 1:0.062183862 2:0.011374066 3:2.956474 
1 1:0.061894921 2:0.0043637217 3:2.8821828 5:0.0003122183 
1 1:0.058882112 2:0.0019716613 3:2.804183 5:0.0010324703 
1 1:0.06910621 3:2.3627677 5:0.0073951913 
-1 1:0.077069255 3:2.2933676 5:0.0081264446 
1 1:0.066291548 2:0.012222207 3:2.9067467 
-1 1:0.062515014 3:2.0966444 5:0.010474152 
1 1:0.062551859 2:0.011690788 3:2.911038 
-1 1:0.040380229 3:2.0007091 5:0.012405844 
1 1:0.058088027 2:0.0093342701 3:2.9180876 
1 1:0.062381828 2:0.017690741 3:2.9916363 
1 1:0.061229459 2:0.011248629 3:2.9838831 
-1 3:1.2097899 4:0.0038829937 5:0.01489996 
-1 1:0.054751512 3:2.2015846 5:0.011130396 
1 1:0.057231895 2:0.004410819 3:2.7848684 5:0.00037109023 
-1 1:0.050320055 3:1.9694306 5:0.012266061 
-1 1:0.037357303 3:2.0048037 5:0.012831188 
-1 1:0.058849665 2:0.0035476932 3:2.7695258 5:0.00069911219 
1 1:0.083898848 2:0.0030086708 3:2.7187594 5:0.0010632313 
-1 1:0.05795724 2:0.028830443 
-1 1:0.058402119 2:0.018383305 3:3.0408413 
-1 3:0.14048493 4:0.013573003 5:0.0063946388 
1 1:0.055664743 2:0.028772392 
-1 1:0.052511888 3:1.9991595 5:0.011673785 
1 1:0.056944138 3:2.6107627 5:0.0045022647 
-1 3:1.0359788 4:0.0054690594 5:0.014400795 
