svm_type epsilon_svr
kernel_type linear
nr_class 2
total_sv 2930
rho 0.00316666
SV
-1 3:0.29948777 4:0.015017841 
1 3:0.3122248 4:0.015043904 
-0.9575485561498353 3:0.27596933 4:0.014983832 
1 3:0.30976957 4:0.015037822 
-1 3:0.29888433 4:0.015017984 
-1 3:0.27382129 4:0.014977882 
-1 2:0.0018039647 3:0.24187344 4:0.014885357 
1 3:0.31826109 4:0.01505027 
-1 3:0.36324829 4:0.01499215 5:0.00068624788 
1 3:0.31329304 4:0.015039488 
1 2:0.0057759861 3:1.868006 4:0.015151396 
-1 3:1.9532302 4:0.015316141 
-1 3:1.9800999 4:0.01534154 
-1 3:1.9493336 4:0.015295551 
-1 2:0.0051974967 3:1.8846144 4:0.015013171 
1 2:0.0025164122 3:1.9598522 4:0.01512006 
-1 3:1.9984132 4:0.015352186 
-1 3:1.9233834 4:0.015188912 
1 2:0.0013655419 3:1.8949647 4:0.01511788 
1 2:0.0062253535 3:1.9226222 4:0.014938143 
-1 2:0.0082619458 3:1.87823 4:0.014788769 
1 2:0.012181092 3:1.732953 4:0.01433279 
1 2:0.0066966346 3:1.8184033 4:0.014674285 
-1 3:1.8996647 4:0.01514415 
1 2:0.016930922 3:1.7088033 4:0.014056345 
-1 2:0.0028987637 3:1.7751524 4:0.014530626 
1 2:0.014262342 3:1.6872169 4:0.01390328 
-1 2:0.017793523 3:1.5860062 4:0.013551425 
1 2:0.080574977 3:0.9336773 4:0.0040778092 
-1 2:0.028298876 3:1.4911462 4:0.012558611 
1 2:0.035778078 3:1.3957464 4:0.011903933 
-1 1:0.084468156 2:0.049266941 
1 1:0.19149816 2:0.010186941 5:0.00048460035 
1 1:0.12074133 2:0.050766119 
1 1:0.11615214 2:0.042701013 
1 2:0.040115739 3:1.2962541 4:0.0099895129 
1 2:0.029146108 3:1.3807283 4:0.011742711 
1 1:0.019079098 2:0.089136048 3:0.19706984 
1 2:0.031809042 3:1.2674958 4:0.010754052 
-1 1:0.096414921 2:0.055093216 
-1 1:0.081893493 2:0.096596714 
-1 1:0.11935767 2:0.016923015 5:0.0016777151 
1 1:0.064478222 2:0.10380862 
1 2:0.10178681 3:0.027020883 
-1 1:0.062205966 2:0.0756586 
-1 2:0.097061545 3:0.51881482 4:0.0030292262 
1 2:0.049455529 3:0.77170717 4:0.0055410864 
1 1:0.035482871 2:0.072161032 
1 2:0.034721817 3:1.0886228 4:0.0076960886 
-1 1:0.01447182 4:0.0030025366 5:0.014721884 
-1 2:0.037199339 3:0.94836055 4:0.0098215468 
1 2:0.055111626 3:0.44956072 4:0.003284062 
-1 1:0.0083751224 2:0.084562692 
1 2:0.055146591 3:0.17295474 
-1 3:3.0986279 4:0.0067095016 5:0.013592547 
-1 2:0.064274845 3:0.20722645 
1 2:0.028925764 3:1.308358 4:0.010370985 
1 2:0.044756505 3:0.24874349 
-1 1:0.025265255 2:0.076687866 
1 1:0.089056731 2:0.016816121 5:0.0057067304 
-1 4:0.0064168295 5:0.014946042 
1 1:0.019581178 5:0.014847198 
-1 5:0.016273997 
-1 2:0.052926573 
-1 4:0.0033386494 5:0.016686485 
1 1:0.058808935 5:0.013790346 
-1 3:2.6443833 4:0.015082605 5:0.0061607429 
1 3:2.3632627 4:0.014541404 5:0.0047804885 
-1 4:0.0092399207 5:0.015942464 
1 1:0.023495582 5:0.01523979 
1 3:2.9508643 4:0.012663281 5:0.010297968 
1 4:0.00016165593 5:0.016793222 
-1 2:0.0036807053 3:2.4758724 4:0.017304071 5:0.0015139621 
-1 4:0.011008331 5:0.012440889 
1 3:2.3854711 4:0.015694815 5:0.0028043484 
-1 2:0.0057672018 3:2.1268324 4:0.016202768 
1 4:0.0081308574 5:0.013490526 
-1 2:0.0010205612 3:2.1348271 4:0.015978748 
-1 3:2.8258124 4:0.015678153 5:0.0079836593 
1 2:0.0053755408 3:2.2201278 4:0.016174355 
-1 3:2.8615255 4:0.01433732 5:0.0090310207 
1 2:0.023220526 3:1.8871802 4:0.01514656 
1 1:0.0624794 2:0.04685579 
-1 2:0.012075564 3:2.0949424 4:0.016105143 
-1 2:0.035372472 3:1.2740463 4:0.011117316 
1 3:2.4512695 4:0.014023504 5:0.0064123004 
1 1:0.064365852 2:0.035658217 
-1 2:0.017038337 3:2.0818279 4:0.016106362 
1 2:0.0090894479 3:1.9885317 4:0.015595281 
1 1:0.071110826 
-1 2:0.02577701 3:1.602515 4:0.013757532 
-1 3:2.3890259 4:0.014748736 5:0.0047739637 
1 4:0.005329352 5:0.014339098 
1 2:0.037425494 3:1.5212573 4:0.012886389 
1 2:0.038439737 3:1.6688097 4:0.0140171 
1 3:2.1008017 4:0.015535033 
-1 3:2.7273218 4:0.014872971 5:0.0073200001 
1 1:0.054997224 2:0.019670143 
1 3:2.3083513 4:0.015102221 5:0.0030903477 
1 3:2.4629744 4:0.014557755 5:0.0050470873 
-1 2:0.0031340266 3:2.3024715 4:0.016040391 5:0.00068657033 
-1 1:0.05282692 5:0.0085911809 
1 1:0.079100968 2:0.023432435 
-1 2:0.053817673 3:1.2977262 4:0.010240363 
1 2:0.00077777256 3:2.2085175 4:0.015518859 5:0.00069607289 
1 2:0.036877257 3:1.9981029 4:0.015447185 
1 2:0.034612763 3:1.9572172 4:0.015176919 
1 1:0.083225993 2:0.049267337 
-1 2:0.031544127 3:1.8482013 4:0.014723008 
-1 2:0.0082834066 3:2.0193211 4:0.015331565 
1 2:0.010256077 3:1.9455365 4:0.01509907 
1 2:0.02585014 3:1.8949575 4:0.01515458 
1 2:0.044132954 3:1.5199726 4:0.012469973 
1 2:0.04022417 3:1.6447672 4:0.013701768 
-1 2:0.045025838 3:1.5745227 4:0.013125358 
1 2:0.024501292 3:1.8569267 4:0.014915322 
1 1:0.085413405 2:0.042056591 
-1 2:0.013621692 3:2.0470849 4:0.015602537 
-1 2:0.031814581 3:1.8734154 4:0.014846637 
-1 2:0.039691613 3:1.3388455 4:0.01208979 
-1 2:0.04590172 3:1.4478452 4:0.012413633 
1 2:0.063884874 3:1.1270639 4:0.0074672924 
1 3:2.1698554 4:0.014861564 5:0.0028723141 
-1 1:0.041331511 2:0.049226567 
-1 2:0.028729072 3:1.7456053 4:0.014610613 
-1 1:0.072636469 2:0.037538743 
1 1:0.07580659 2:0.05377924 
1 2:0.0055852085 3:2.2253641 4:0.015798779 5:0.0002524511 
-1 2:0.0051987187 3:2.2331436 4:0.015918736 5:0.00027936622 
-1 2:0.030550976 3:2.0016322 4:0.015535444 
-1 2:0.026231111 3:1.8352093 4:0.014811184 
-1 2:0.015756837 3:1.9963331 4:0.015299763 
1 2:0.02800817 3:1.7581549 4:0.014539264 
-1 2:0.036025024 3:1.5900942 4:0.013750032 
1 2:0.05918059 3:1.1913341 4:0.009724611 
1 3:2.2478001 4:0.015077744 5:0.0026885449 
-1 2:0.033393815 3:1.7586103 4:0.014542644 
-1 2:0.02036436 3:1.8959596 4:0.015180061 
-1 1:0.043773404 2:0.062317646 3:0.066870426 
-1 2:0.019898684 3:1.8963951 4:0.0150921 
1 2:0.050745276 3:1.3124967 4:0.011706154 
1 2:0.023766585 3:1.8112313 4:0.014980393 
1 1:0.09561946 2:0.056465808 
1 1:0.083491566 2:0.058567667 
1 2:0.02368586 3:1.8014127 4:0.014780502 
-1 2:0.02951226 3:1.6875167 4:0.014393829 
1 2:0.03263341 3:1.5656175 4:0.014028954 
-1 2:0.019861228 3:1.8618794 4:0.01494096 
-1 1:0.068125312 2:0.048762132 
-1 2:0.01451239 3:1.8361643 4:0.014977937 
-1 2:0.023662502 3:1.7218076 4:0.014600289 
-1 2:0.0093669549 3:1.9102263 4:0.015084491 
1 2:0.019562319 3:1.6478855 4:0.014503591 
1 2:0.0076112065 3:1.8391069 4:0.015017098 
-1 2:0.012551899 3:1.8771795 4:0.015010679 
1 1:0.058604689 2:0.06354217 
1 2:0.013240777 3:1.7803904 4:0.014919363 
1 2:0.0023721818 3:1.9271645 4:0.015064437 5:1.6652704e-05 
1 2:0.014756825 3:1.7440233 4:0.014879914 
1 2:0.0094478321 3:1.8174746 4:0.014964674 
-1 2:0.0073726887 3:1.8740194 4:0.015032138 
-1 2:0.048688444 3:1.0747633 4:0.010752772 
1 2:0.050486415 3:1.0590852 4:0.010452838 
-1 2:0.0041376147 3:1.937229 4:0.015057033 
1 2:0.0053926736 3:1.8548278 4:0.015012805 
-1 2:0.0025080186 3:1.9147406 4:0.015038235 
1 2:0.022812598 3:1.6529782 4:0.014570455 
-1 3:1.923769 4:0.015027154 5:0.00035799109 
1 2:0.0090801687 3:1.7679357 4:0.014931605 
1 2:0.0033193589 3:1.8065654 4:0.014994266 
1 3:2.0074073 4:0.015036756 5:0.00085959578 
-1 3:1.9956726 4:0.014986424 5:0.0011773849 
1 2:0.0030449621 3:1.8432504 4:0.014995716 
1 3:1.8972455 4:0.014988933 5:0.00067473386 
-1 3:2.0562791 4:0.014894519 5:0.002032389 
1 3:2.0169132 4:0.014896526 5:0.0017707889 
-1 3:1.9105193 4:0.014974053 5:0.00088207679 
-1 2:0.062270015 3:0.4579211 4:0.0042231366 
1 2:0.0051066279 3:1.7650017 4:0.014970994 
1 3:1.9750146 4:0.014942806 5:0.0013269628 
-1 3:1.9203212 4:0.014940056 5:0.0013708566 
-1 3:1.9335098 4:0.014931625 5:0.0014387203 
1 2:0.020584373 3:1.3926837 4:0.013973915 
-1 3:1.9147935 4:0.014906604 5:0.0017237507 
1 2:0.025898232 3:1.3465893 4:0.013821845 
1 2:0.0090383319 3:1.5570684 4:0.014847485 
1 3:1.858225 4:0.015021189 5:0.0005149293 
1 3:1.9237518 4:0.014931836 5:0.0018435844 
-1 3:1.8902693 4:0.014998366 5:0.0013521866 
1 3:1.8964373 4:0.014930136 5:0.0016220574 
1 3:2.0167794 4:0.014654599 5:0.0034321572 
1 3:2.0107188 4:0.014755261 5:0.0029738487 
-1 3:1.9710615 4:0.014719401 5:0.0032438997 
-1 3:1.8723764 4:0.014966976 5:0.0021073573 
1 3:1.6742374 4:0.015286439 
1 3:2.0816653 4:0.014166364 5:0.005423863 
1 3:2.0456458 4:0.014357888 5:0.0047856436 
-1 3:1.8335004 4:0.015007394 5:0.0019815053 
1 3:1.7600358 4:0.01514537 5:0.001052569 
-1 3:1.8466907 4:0.015012618 5:0.0019328217 
1 3:1.8106887 4:0.015005712 5:0.002409457 
-1 3:1.8337611 4:0.014986609 5:0.0023151449 
1 3:1.6215443 4:0.015100371 
1 3:1.7137848 4:0.015204636 5:0.0011782498 
-1 3:1.9795099 4:0.01458465 5:0.0041156896 
1 3:1.8990109 4:0.014876071 5:0.0030045668 
-1 3:1.9595327 4:0.014601584 5:0.0041647883 
1 2:0.029405386 3:1.1574545 4:0.012992321 
-1 3:1.9752185 4:0.014538324 5:0.004200511 
1 3:1.8846619 4:0.01494854 5:0.0027045568 
-1 3:1.6239687 4:0.015265597 
1 2:0.0054239905 3:1.4307829 4:0.014952592 
1 3:1.9905656 4:0.01452395 5:0.0044438812 
-1 3:2.2603366 4:0.013341649 5:0.0070570203 
1 3:1.7701939 4:0.015086893 5:0.0016159717 
-1 3:1.7576544 4:0.015171131 5:0.0013898823 
1 2:0.013181311 3:1.142185 4:0.014019059 
1 3:1.6876449 4:0.015215209 5:0.00073544695 
-1 3:1.881165 4:0.014858993 5:0.0029411146 
1 3:1.7011589 4:0.015199661 5:0.00057625133 
-1 3:1.7734695 4:0.015093723 5:0.001368528 
1 2:0.072391211 3:0.3868735 4:0.0039808959 
-1 3:1.5566669 4:0.015198582 
-1 3:2.0370508 4:0.014348736 5:0.0048771054 
-1 1:0.0054154964 2:0.087619121 
1 3:1.7850651 4:0.015062808 5:0.0017092395 
-1 3:1.7099381 4:0.015138584 5:0.00061620837 
1 3:1.5542938 4:0.014912044 
1 3:1.6825721 4:0.015119115 5:9.561963e-05 
-1 3:1.8048726 4:0.015102049 5:0.0005281743 
1 3:1.7916263 4:0.015089792 5:0.00069974776 
-1 3:1.5299268 4:0.01496135 
-1 3:1.8305923 4:0.015027494 5:0.0015962052 
-1 1:0.017642226 2:0.079894843 
-1 3:1.7645192 4:0.015119503 5:0.00095185659 
1 3:1.8289819 4:0.015086156 5:0.0011080847 
-1 3:1.5837859 4:0.015107646 
-1 3:1.8087004 4:0.0150635 5:0.00084604391 
-1 3:1.9310631 4:0.014911137 5:0.0023269928 
-1 1:0.086945655 2:0.0067985971 5:0.0020640242 
-1 3:1.7664983 4:0.015083827 
1 2:0.08390181 3:0.54410269 4:0.0033495142 
1 3:1.9279443 4:0.014915798 5:0.0023225957 
1 2:0.090568256 3:0.29266773 
-1 3:1.6917514 4:0.015091947 
-1 1:0.082129473 5:0.0086229667 
1 3:2.0921409 4:0.01441054 5:0.00442211 
-1 3:1.7918691 4:0.015110184 5:0.00026316944 
1 2:0.029776534 3:1.1724175 4:0.012428794 
-1 3:1.6791013 4:0.015135842 
1 2:0.031225219 3:1.142024 4:0.012060888 
1 3:1.6587567 4:0.015053162 
1 3:1.9312778 4:0.014926789 5:0.0019972786 
1 3:1.7491531 4:0.01510159 
-1 3:1.8762739 4:0.015010136 5:0.001352652 
1 3:1.6327575 4:0.014871311 
-1 3:1.6882735 4:0.015085199 
-1 3:1.6165666 4:0.014881116 
1 2:0.038615187 3:0.94164137 4:0.010209049 
1 2:0.06463218 3:0.68779113 4:0.0072512597 
-1 3:1.5179939 4:0.014766281 
1 3:1.6020013 4:0.014783085 
-1 3:1.7694398 4:0.015067154 
1 3:2.0737181 4:0.014365219 5:0.0047058191 
-1 3:1.5019022 4:0.014485311 
-1 1:0.0084940207 2:0.084968169 
-1 3:1.5308625 4:0.014693973 
1 3:1.5159532 4:0.015159648 5:0.00042255512 
-1 3:1.541895 4:0.015179879 5:0.001200268 
-1 3:1.5405861 4:0.015190501 5:0.0012751305 
1 3:1.5342449 4:0.015175293 5:0.0009535822 
1 3:1.5002662 4:0.015177441 5:0.0002801244 
-1 3:1.5831783 4:0.01513177 5:0.0020975092 
1 3:1.4841876 4:0.015261003 5:0.00056574211 
-1 3:1.5426396 4:0.015170128 5:0.0011169915 
1 2:0.0010801346 3:1.4773312 4:0.015140811 
1 3:1.5535567 4:0.015157018 5:0.0012823923 
-1 3:1.592296 4:0.015084082 5:0.0015962227 
-1 3:1.5405217 4:0.015196505 5:0.0013360058 
1 2:0.028170256 4:0.014174989 
1 2:0.026999147 4:0.014151346 
-1 2:0.02097509 4:0.01438137 
-1 2:0.01396866 4:0.014650531 
-1 2:0.015705924 4:0.014538366 
1 2:0.015224191 4:0.01446944 
-1 2:0.025694509 4:0.014100616 
-1 2:0.015664522 4:0.014504041 
1 2:0.015626377 4:0.014449894 
1 2:0.013471737 4:0.014564252 
1 2:0.011284455 4:0.014630874 
1 1:0.11155223 3:1.8163764 5:0.006092052 
1 2:0.01247082 4:0.014498525 
-1 2:0.010232483 4:0.014648207 
1 4:0.015014942 5:1.6197135e-05 
-1 4:0.015028598 
1 2:0.0029310354 4:0.014736917 
1 1:0.11293398 3:1.6890361 5:0.008328401 
-1 2:0.011747987 4:0.014502395 
1 2:0.0079509843 4:0.014654628 
-1 2:0.040043987 4:0.012909241 
-1 2:0.020553582 4:0.014187368 
-1 2:0.014534631 4:0.014380864 
1 2:0.0077129873 4:0.014624282 
-1 1:0.10213364 3:1.6980136 5:0.007881961 
-1 2:0.014353864 4:0.014399664 
-1 2:0.014558388 4:0.014343703 
1 2:0.018675856 4:0.014085829 
-1 2:0.024047206 4:0.013803383 
1 2:0.022217451 4:0.013925371 
1 2:0.026044957 4:0.013875051 
-1 2:0.016824718 4:0.014265323 
1 2:0.025919557 4:0.013615985 
-1 2:0.024235284 4:0.013743821 
-1 1:0.025550121 3:1.5119818 5:0.012593663 
-1 1:0.051459217 3:1.627518 5:0.0078291881 
-1 2:0.021363889 4:0.014018686 
-1 2:0.026728166 4:0.013605588 
1 1:0.063693191 2:0.0018210519 3:2.0087625 5:0.0033782211 
-1 1:0.060757072 3:1.8964748 5:0.0054062794 
-1 2:0.028571442 4:0.013667087 
1 1:0.069513896 2:0.051297498 3:2.2010512 
-1 1:0.047126743 3:1.8288469 5:0.0065735806 
1 2:0.027630925 4:0.013544162 
-1 2:0.1244629 3:3.1149779 
1 2:0.12553367 4:0.011476929 
-1 2:0.11853698 4:0.010510558 
-1 2:0.12041753 4:0.0037133806 
-1 1:0.014581792 3:1.2167 5:0.015342866 
1 1:0.0091986103 3:0.85682586 5:0.01572285 
-1 3:0.99219032 5:0.016220413 
-1 1:0.028195146 3:1.1930772 5:0.013441732 
1 1:0.037888167 3:1.076744 5:0.01399173 
-1 1:0.010908762 3:0.9676431 5:0.015494357 
-1 1:0.038680422 3:0.87455452 5:0.014445993 
-1 1:0.055641652 2:0.027618121 3:1.841554 5:0.00089229719 
1 1:0.049907205 3:0.7961115 5:0.01400677 
-1 1:0.014748858 3:0.91254133 5:0.015310397 
-1 4:0.015117072 5:0.0040775304 
-1 1:0.032241076 3:1.0806629 5:0.013796996 
-1 1:0.012492689 3:0.54009926 4:0.00030618949 5:0.015090671 
1 1:0.047406215 3:0.95023063 5:0.013275085 
-1 1:0.016274174 3:0.71747537 5:0.015153487 
-1 3:0.3697875 4:0.0050131894 5:0.014452084 
-1 1:0.010371393 3:0.79040794 5:0.015285234 
-1 4:0.010053621 5:0.012091389 
-1 1:0.061627174 3:1.0020914 5:0.012230114 
-1 1:0.033357281 2:0.071024039 3:1.7909502 
-1 1:0.0097749617 3:0.69038408 5:0.015208656 
-1 1:0.010465614 3:0.57882441 4:0.00025491293 5:0.015106746 
1 2:0.065858109 
1 1:0.10399374 3:0.73915298 5:0.011597035 
-1 3:0.35883342 4:0.0036541271 5:0.014598932 
1 2:0.047418718 4:0.0041469153 
-1 1:0.062083569 3:0.21403352 5:0.015784604 
-1 4:0.015030217 
-1 1:0.056742434 3:0.24426161 5:0.015520028 
-1 1:0.0092560627 2:0.059696809 3:1.4600138 5:0.0059339922 
-1 1:0.02645788 2:0.025267705 3:1.4196605 5:0.0079551666 
1 4:0.014783141 
-1 4:0.015479823 
-1 4:0.015037761 
-1 4:0.01449062 5:0.005579259 
-1 1:0.080701553 2:0.019726071 3:0.89895451 5:0.011859762 
1 1:0.012830499 4:0.012048045 5:0.0099886745 
-1 1:0.020489988 3:0.082456258 4:0.0066592551 5:0.013447501 
-1 1:0.038406806 2:0.024886445 3:0.48096809 5:0.0149909 
-1 1:0.037869732 4:0.007213986 5:0.013225732 
1 1:0.063733709 2:0.0029884896 3:0.43120365 5:0.015206348 
-1 1:0.017935395 2:0.085437063 
1 1:0.041718941 2:0.078850806 
1 1:0.026154244 2:0.084468726 
1 1:0.01674542 2:0.087436271 4:0.00011800092 
-1 1:0.016468643 2:0.085586133 
1 1:0.036882622 2:0.08114715 
1 1:0.023815551 2:0.08356235 
1 1:0.0091100885 2:0.086741459 4:0.0014712081 
1 1:0.046709664 2:0.039021613 
-1 1:0.03079305 2:0.044226239 
1 1:0.032090287 2:0.042792222 
1 1:0.020628169 2:0.040445359 
1 1:0.045750742 3:2.493809 5:0.0068051825 
1 1:0.029520851 2:0.037106101 
1 1:0.026660057 2:0.035165234 
1 1:0.026382209 2:0.031626306 
1 1:0.018433795 2:0.033264927 
-1 1:0.0085400287 2:0.034300643 
1 1:0.021018053 2:0.027655324 
-1 1:0.0052488785 2:0.027241 
-1 1:0.050766147 
1 1:0.080147497 2:0.00036986986 
-1 1:0.057383552 3:3.0364081 5:0.0016291997 
-1 2:0.044543484 4:0.013638426 
-1 3:1.5502179 4:0.003527368 5:0.014619158 
-1 1:0.037478442 2:0.005462157 
1 3:1.4663809 4:0.00048564493 5:0.016237441 
-1 1:0.017089416 2:0.059861454 
1 3:1.0555819 4:0.0086599535 5:0.012699667 
-1 3:1.7325608 4:0.00062734355 5:0.015034157 
1 1:0.038794746 3:2.8268023 5:0.0056832295 
1 1:0.038883216 2:0.012369781 
-1 1:0.031473493 2:0.013262688 
-1 2:0.064478492 4:0.011154328 
-1 1:0.012126032 2:0.049679194 
-1 2:0.075620213 4:0.0058132147 
-1 1:0.043700398 2:0.0013367075 
1 3:1.7350707 5:0.015610127 
1 1:0.057286879 
-1 1:0.011098104 2:0.05065392 
-1 1:0.055356819 5:0.00012773597 
-1 3:1.570129 4:0.0039913114 5:0.014540876 
-1 1:0.029372919 2:0.028587233 
-1 1:0.049556724 
-1 1:0.044236261 2:0.025230152 
-1 2:0.035724478 4:0.014576607 
-1 3:1.6739978 5:0.015601191 
-1 2:0.06189132 4:0.0084224828 
1 1:0.035661669 2:0.025306655 
-1 1:0.017626823 2:0.037006064 
-1 1:0.047428138 2:0.016152108 
-1 2:0.0090257192 3:0.18937807 4:0.01551202 5:0.0015385082 
-1 2:0.059636417 4:0.00066883505 
1 1:0.074846206 3:2.9520973 5:0.0037369942 
1 1:0.0030813878 2:0.069396767 4:0.00042781559 
1 1:0.0094002838 2:0.062443774 
-1 1:0.0090611395 2:0.057801343 
1 1:0.0073389239 2:0.060385753 
-1 2:0.062440661 4:0.0077118026 
1 1:0.034793803 2:0.038935307 
1 2:0.060169846 4:0.0014523479 
-1 2:0.058108567 4:0.0024368669 
1 2:0.060708209 4:0.0038556674 
-1 2:0.058755037 
1 2:0.07238046 4:0.0027364535 
1 2:0.057025387 4:0.007921704 
-1 2:0.044157486 4:0.014394944 
1 2:0.06294972 4:0.00048831778 
-1 1:0.021092307 2:0.048319366 
1 1:0.03970056 2:0.051895811 
-1 1:0.0092755137 2:0.041560631 
-1 2:0.06214122 4:0.0093150638 
1 3:0.44194742 4:0.014822171 5:0.0049576435 
1 2:0.041875739 4:0.012250675 
-1 2:0.055016934 4:0.0094848754 
-1 3:0.49253107 4:0.014621003 5:0.0054301857 
-1 2:0.057586246 4:0.0088790987 
-1 2:0.052164455 4:0.0057779825 
1 3:0.83868376 4:0.011149089 5:0.011397769 
-1 2:0.05773437 4:0.0060918496 
-1 2:0.037776262 4:0.014259406 
1 2:0.042308631 4:0.012643233 
-1 2:0.039527155 4:0.014479327 
-1 3:0.40295265 4:0.014928768 5:0.0054756214 
-1 2:0.053659984 4:0.0058243194 
1 2:0.0063026418 4:0.015871507 
-1 2:0.014254345 4:0.015316263 
-1 2:0.0657828 4:0.0034732029 
-1 2:0.029029222 4:0.013949048 
-1 3:0.11249835 4:0.015981805 5:0.0016172799 
-1 1:0.047485629 2:0.031588676 3:3.1408075 
-1 4:0.016694864 
-1 1:0.008557192 2:0.060086999 
-1 2:0.024262611 4:0.014508844 
-1 4:0.016095154 
-1 1:0.011819057 3:1.3415391 4:0.0037316308 5:0.015460509 
1 1:0.039256885 3:1.4983668 4:0.00012462051 5:0.014475919 
-1 4:0.016122903 
-1 2:0.038798344 4:0.0098383923 
-1 1:0.01597619 3:1.4620743 4:0.0027455881 5:0.015740364 
-1 1:0.020499715 3:1.4052034 4:0.0024582293 5:0.014874965 
-1 2:0.071531418 
1 4:0.012716187 
-1 2:0.055699477 4:0.0033538827 
-1 4:0.013796026 
-1 2:0.075535474 4:0.012096661 
1 2:0.073356594 4:0.012222767 
-1 2:0.07367389 4:0.012284951 
1 2:0.073840576 4:0.012110541 
-1 2:0.074974316 4:0.012082451 
1 2:0.074375053 4:0.011884604 
-1 2:0.066703687 4:0.012990396 
1 2:0.042155011 3:0.72976663 4:0.0144973 
-1 2:0.02800454 3:0.93819422 4:0.015437816 
-1 2:0.02728121 3:0.98422161 4:0.015250039 
1 2:0.039047091 3:0.72913606 4:0.014455257 
1 2:0.032128874 3:0.98237508 4:0.01504192 
-1 2:0.036953973 3:0.74365395 4:0.014840698 
-1 2:0.03844277 3:0.72600609 4:0.014313413 
1 2:0.037715793 3:0.70698484 4:0.014202261 
-1 2:0.03774282 3:0.71642223 4:0.014350667 
1 2:0.033586534 3:0.70975555 4:0.014385497 
-1 2:0.040559791 3:0.56150807 4:0.013556406 
1 2:0.044322978 3:0.53624945 4:0.012592776 
1 2:0.047117129 3:0.54731414 4:0.01257684 
-1 2:0.033364588 3:0.76562941 4:0.014873111 
1 2:0.028670044 3:0.90462387 4:0.014862008 
1 2:0.041983173 3:0.50918425 4:0.013052766 
1 2:0.045058343 3:0.19405559 4:0.011135728 
-1 1:0.019528647 2:0.043401051 
1 2:0.042304632 3:0.3449443 4:0.012426119 
-1 2:0.048983884 4:0.0081519231 
-1 1:0.019201891 5:0.005299643 
1 2:0.038973699 3:0.23316012 4:0.0091411225 
1 1:0.038949023 5:0.0096900775 
-1 1:0.029808041 5:0.0055231033 
-1 1:0.030372689 5:0.0067534381 
1 2:0.038740406 3:0.8876105 4:0.014127948 
-1 2:0.032007974 3:0.33870842 4:0.012273774 
-1 2:0.036879352 3:0.26557459 4:0.01007998 
1 1:0.01156746 2:0.037295284 3:0.098763844 4:0.0063966585 
1 1:0.0097565958 2:0.033380732 3:0.10202643 4:0.0071279388 
-1 1:0.0094479728 5:0.01106982 
1 1:1.6898986e-05 2:0.05176994 4:0.0041720992 
-1 3:1.8496248 4:0.0098688925 5:0.012177378 
1 5:0.013309357 
-1 5:0.011134933 
-1 2:0.034366203 3:1.1986336 4:0.01491873 
-1 2:0.0032876117 3:1.9627435 4:0.013163425 5:0.0075340024 
-1 5:0.014796618 
-1 1:0.024182115 2:0.018591169 4:0.00071271016 
-1 3:3.0025326 4:0.00034014948 5:0.015193891 
-1 2:0.013869713 3:1.7379603 4:0.014587677 5:0.0041863769 
1 2:0.046316878 3:0.80396919 4:0.013187282 
-1 2:0.0020836865 3:1.8818032 4:0.01389507 5:0.0063933526 
1 2:0.023948892 3:1.3039259 4:0.014987791 5:0.00069944225 
1 2:0.025283478 3:1.4153662 4:0.014998703 5:0.0010685939 
-1 2:0.027287266 3:1.501998 4:0.015113465 5:0.0013266547 
-1 2:0.04198872 3:1.0908275 4:0.014574025 
1 2:0.051999581 3:0.46004797 4:0.010112672 
-1 2:0.040683594 3:1.0845686 4:0.014647441 
1 2:0.05632959 3:0.69566762 4:0.012438894 
-1 2:0.0528561 3:0.68498633 4:0.012577907 
-1 2:0.056913071 3:0.67841274 4:0.012146563 
-1 2:0.052637777 3:0.34876758 4:0.0091685932 
1 2:0.053041747 3:0.4945138 4:0.010776773 
-1 2:0.030875004 3:1.3733955 4:0.015077195 5:0.00050029077 
-1 2:0.048423848 3:0.58001829 4:0.011849499 
1 2:0.055022092 3:0.71781853 4:0.012252214 
1 2:0.049791477 3:0.542168 4:0.011291524 
-1 2:0.047926625 3:1.0216925 4:0.014349623 
1 2:0.048076014 3:0.7854769 4:0.013351858 
-1 2:0.04374638 3:1.0073193 4:0.014395608 
1 2:0.046486762 3:0.25376607 4:0.0087874899 
1 2:0.047089732 3:0.62174044 4:0.012267497 
1 2:0.044107911 3:1.057066 4:0.014527983 
-1 2:0.017435709 3:1.6295067 4:0.014790507 5:0.0033139985 
1 2:0.040251248 3:0.96210812 4:0.0143094 
-1 2:0.032194501 3:1.3427836 4:0.015075373 
1 2:0.057621552 3:0.55056689 4:0.010985553 
-1 2:0.048446107 3:0.83235647 4:0.013392376 
-1 2:0.043608415 3:0.87530783 4:0.01376213 
1 2:0.050439609 3:0.65649269 4:0.011867553 
1 2:0.025504655 3:1.1666628 4:0.014974735 
1 2:0.050761418 3:0.71639094 4:0.012489682 
-1 2:0.031868594 3:1.4494854 4:0.01514286 5:0.00050989539 
-1 2:0.046613369 3:0.94915714 4:0.014110873 
-1 3:3.0243238 5:0.015062774 
-1 1:0.039613486 2:0.012669703 
-1 2:0.045197213 3:1.0799217 4:0.014457278 
1 2:0.054764078 3:0.7538033 4:0.012130753 
-1 2:0.042723118 3:1.2903994 4:0.014947303 
1 2:0.036831216 3:1.1357247 4:0.014699229 
-1 2:0.033895578 3:1.2012266 4:0.014883764 
-1 2:0.050044241 3:0.58432492 4:0.011584864 
-1 2:0.001523925 3:1.9638266 4:0.013862516 5:0.0064759087 
-1 2:0.016414759 3:1.5381143 4:0.014820029 5:0.0024409257 
1 2:0.051600342 3:0.61214193 4:0.011477706 
-1 2:0.035133369 3:1.1779093 4:0.014853797 
1 2:0.053293205 3:0.43456103 4:0.0094181339 
1 2:0.054231333 3:0.55528593 4:0.010622429 
-1 2:0.034356062 3:1.2264437 4:0.014905172 
1 2:0.045446795 3:0.9466555 4:0.013781196 
-1 2:0.0062681649 3:1.8715194 4:0.014444252 5:0.0049833055 
1 3:2.2567778 4:0.01005703 5:0.011197387 
-1 3:2.1818135 4:0.011736502 5:0.0095770429 
-1 5:0.014060111 
1 2:0.053539246 3:0.61170376 4:0.011153421 
-1 2:0.05457298 3:1.0264587 4:0.013872316 
-1 2:0.052733387 3:0.65954013 4:0.011813541 
1 2:0.048851699 3:0.81045022 4:0.013029021 
-0.9194899150168925 2:0.054867378 3:0.63882027 4:0.011727454 
1 2:0.051273047 3:0.74043238 4:0.01247622 
-1 2:0.040619385 3:1.3178987 4:0.014982946 
-1 5:0.013494548 
-1 2:0.0534269 3:0.746874 4:0.01221428 
-1 3:2.8387091 4:0.0041208108 5:0.014708243 
1 2:0.016237864 3:1.6846271 4:0.01475876 5:0.003084184 
1 2:0.0085913256 3:1.7094754 4:0.014459346 5:0.004093295 
-1 2:0.0005640819 3:1.9392561 4:0.013870744 5:0.0061279235 
1 2:0.0074225703 3:1.8235526 4:0.014210023 5:0.0050922106 
1 2:0.023035136 3:1.6133504 4:0.015012303 5:0.0018328641 
-1 3:1.9853124 4:0.013687596 5:0.0067141492 
1 2:0.054547878 3:0.76037749 4:0.012663006 
-1 3:1.9244739 4:0.013973088 5:0.0060204827 
1 2:0.046686695 3:1.0025249 4:0.014170336 
1 3:1.931213 4:0.013167339 5:0.0073266385 
1 3:2.0482017 4:0.013542381 5:0.0072071048 
-1 3:2.0546853 4:0.013729991 5:0.0070025939 
-1 5:0.011721743 
1 2:0.05045082 3:0.89121689 4:0.013499791 
1 2:0.049307548 3:0.84719377 4:0.013404789 
-1 2:0.032555891 3:1.3625898 4:0.015002793 
1 2:0.04508929 3:1.2420152 4:0.014812079 
1 2:0.035056817 3:1.331342 4:0.014995714 
-1 3:2.2064774 4:0.012327562 5:0.0091818268 
1 2:0.036052918 3:1.3591568 4:0.014994985 
-1 2:0.010228139 3:1.8218548 4:0.014453683 5:0.0047736939 
-1 3:2.297493 4:0.011073238 5:0.010493913 
1 2:0.056041602 3:0.70073636 4:0.011975371 
-1 2:0.041866165 3:1.0542007 4:0.014532996 
-1 1:0.027966715 5:0.0033625365 
-1 2:0.054537911 3:0.6703242 4:0.011964303 
-1 5:0.015375082 
1 2:0.019124164 3:1.5899521 4:0.014786031 5:0.0025772616 
-1 2:0.034628013 3:1.4209173 4:0.015040969 
-1 2:0.052185448 3:0.97884489 4:0.013984538 
-1 3:3.1240341 5:0.015176934 
1 2:0.050691862 3:0.73468603 4:0.012858954 
1 2:0.049231995 3:0.9225459 4:0.014022968 
-1 2:0.04725784 3:1.124639 4:0.014540895 
-1 5:0.011986673 
-1 2:0.042581152 3:1.1824101 4:0.014713566 
-1 2:0.04889248 3:1.1376209 4:0.01454979 
1 2:0.054112472 3:0.81086577 4:0.012961555 
-1 2:0.045711545 3:1.1806858 4:0.014727557 
1 2:0.054069447 3:0.86239624 4:0.013367177 
-1 2:0.053599532 3:0.72473469 4:0.012584515 
-1 5:0.012688733 
-1 2:0.01282457 3:1.8464656 4:0.01432814 5:0.004964765 
1 2:0.043556521 3:1.2743535 4:0.014945197 
0.01569301594877602 2:0.047874516 3:1.2164491 4:0.014779052 
-1 2:0.051069349 3:1.0312427 4:0.014449646 
-1 2:0.05534958 3:0.77105912 4:0.012957694 
-1 5:0.010020839 
1 2:0.048410958 3:1.2831129 4:0.014909741 
-1 2:0.043926706 3:1.134545 4:0.014829369 
-1 2:0.049820469 3:1.1208159 4:0.014632616 
-1 2:0.049463852 3:1.0987308 4:0.01469234 
-1 2:0.055970369 3:0.67877225 4:0.012516629 
-1 2:0.010891245 3:1.8640425 4:0.01409257 5:0.0058569882 
1 2:0.059008639 3:0.68189986 4:0.012226581 
-1 2:0.050710903 3:0.96284213 4:0.014358592 
-1 2:0.055969682 3:0.83077924 4:0.013384654 
-1 1:0.0025575943 5:0.0081475328 
-1 2:0.034192383 3:1.5526998 4:0.015070682 5:0.0018130267 
-1 3:1.8631786 4:0.013436201 5:0.0068776965 
-1 2:0.031492314 3:1.5077686 4:0.014939322 5:0.0020464172 
-1 2:0.046861165 3:1.2567433 4:0.014987788 
-1 2:0.054515492 3:0.88122506 4:0.013873212 
-1 3:2.3473743 4:0.010400682 5:0.011384019 
1 2:0.049729384 3:1.3297847 4:0.015120278 
-1 2:0.029269976 3:1.4115196 4:0.014924208 5:0.0016681249 
-1 2:0.046686519 3:1.2582747 4:0.014972114 
1 2:0.054051111 3:0.75361201 4:0.013302315 
-1 2:0.050052457 3:1.279435 4:0.015040554 
-1 2:0.026863733 3:1.7406269 4:0.014668195 5:0.004226324 
1 2:0.05644061 3:0.94989426 4:0.014096695 
1 2:0.050418259 3:1.015375 4:0.014588316 
-1 2:0.049334768 3:1.2645938 4:0.014970739 
-1 2:0.055422272 3:0.97300878 4:0.014176558 
-1 5:0.0096881543 
1 2:0.052341803 3:1.3049931 4:0.015006262 
1 2:0.052538664 3:1.1024765 4:0.014727524 
-1 2:0.018891856 3:1.8172974 4:0.014532951 5:0.0050533717 
-1 5:0.0099200598 
-1 2:0.04408981 3:1.3822194 4:0.015068158 5:0.00034127404 
1 3:2.2062042 4:0.011148911 5:0.01047702 
-1 3:2.4616697 4:0.0092136305 5:0.012343736 
-1 2:0.045549528 3:1.3224905 4:0.015032775 
-1 2:0.059388397 3:0.92937207 4:0.013925008 
-1 5:0.012735733 
-1 2:0.048225529 3:1.0758538 4:0.01476831 
1 2:0.05637653 3:0.91152865 4:0.013946364 
-1 2:0.052101852 3:0.92247967 4:0.014363032 
-1 2:0.049633432 3:1.1774422 4:0.014886916 
1 3:3.028649 5:0.015227495 
-1 2:0.017039153 3:2.1740755 4:0.012530425 5:0.0090098838 
-1 1:0.0015743759 5:0.0067240559 
-1 2:0.056006764 3:1.1214327 4:0.014670595 
1 2:0.060833127 3:0.73632759 4:0.012795734 
-1 2:0.0035555036 3:2.0369595 4:0.013001988 5:0.0080087645 
-1 2:0.018728991 3:1.6647904 4:0.014276443 5:0.0047180196 
-1 5:0.0067197298 
1 2:0.049228308 3:1.2203332 4:0.014941661 
-1 2:0.042997756 3:1.4154554 4:0.015031136 5:0.00064955481 
-1 2:0.058209331 3:0.69143376 4:0.01253767 
1 5:0.014644417 
1 5:0.010166979 
-1 5:0.013180515 
-1 5:0.010583935 
-1 2:0.0015365759 3:1.9941197 4:0.013035119 5:0.0078175753 
1 5:0.012097202 
-1 5:0.013208481 
-1 3:2.6850093 4:0.0056378079 5:0.014204806 
1 2:0.060280686 3:0.90033806 4:0.01389294 
-1 2:0.036366079 3:1.4392243 4:0.014916516 5:0.0017001144 
-1 2:0.054742614 3:1.0691817 4:0.014690893 
-1 5:0.013831846 
-1 3:2.3611784 4:0.0097922767 5:0.011720693 
1 1:0.012333034 5:0.010287895 
-1 2:0.0091350379 3:1.9746998 4:0.012989982 5:0.0078070497 
-1 5:0.01059602 
-1 2:0.055701126 3:1.1375829 4:0.014817751 
-1 5:0.014836169 
-1 3:2.3209784 4:0.0093143158 5:0.011979703 
-1 3:3.1014632 5:0.015155705 
1 5:0.014813675 
-1 3:1.5918422 4:0.015741394 5:0.005597961 
1 3:1.3711293 4:0.016699637 5:0.0018399423 
-1 3:1.3225627 4:0.017020679 5:0.00059638075 
-1 3:1.2637194 4:0.016953501 
1 3:1.3500155 4:0.016888587 5:0.0012393298 
-1 3:1.1056881 4:0.017016879 
-1 3:1.2842998 4:0.016965564 5:6.7548009e-05 
-1 3:1.4270394 4:0.016672891 5:0.0026309794 
1 3:1.2031507 4:0.016805639 
-1 3:1.505306 4:0.016469232 5:0.0038649003 
1 3:1.7839447 4:0.01374154 5:0.0089216135 
1 1:0.03219449 4:0.00014853124 5:0.016975239 
-1 4:0.016322159 5:0.0047091124 
1 4:0.014267038 5:0.0086276598 
-1 4:0.016920397 5:0.0021221118 
1 4:0.016309547 5:0.0038379721 
-1 4:0.014582319 5:0.009160272 
1 4:0.015951827 5:0.0048878147 
1 4:0.016428327 5:0.0025671259 
1 4:0.016767834 5:0.0012202639 
-1 4:0.010647752 5:0.013297008 
1 4:0.01598402 5:0.0042466009 
1 4:0.016701827 5:0.00035972899 
1 2:0.056546218 3:2.080721 
1 4:0.016161933 5:0.002826589 
1 4:0.016502711 5:0.00016566139 
-1 4:0.016274616 5:0.0022606814 
1 4:0.015377383 5:0.0042264018 
-1 4:0.015129348 5:0.0063765245 
-1 4:0.015925808 5:0.0037834881 
1 4:0.015702321 5:0.0032871974 
1 4:0.015504201 5:0.0040227505 
-1 4:0.01572515 5:0.0037914197 
1 4:0.015017095 5:0.0051643668 
-1 4:0.015178298 
-1 4:0.015614607 5:0.0024003503 
1 4:0.015457177 5:0.0024246386 
-1 4:0.015403372 5:0.0033552554 
1 4:0.014936846 5:0.0042838567 
1 4:0.015497845 5:0.0006108336 
-1 4:0.014564226 5:0.0059000001 
1 4:0.014900836 5:0.0040926559 
1 4:0.014681633 5:0.0051544569 
-1 4:0.015554174 
1 4:0.014208791 5:0.0056399468 
1 4:0.015230729 
-1 4:0.015632653 
1 4:0.0126836 5:0.0087379132 
-1 4:0.015606898 5:0.00080769555 
1 4:0.015132493 5:0.0021602532 
-1 4:0.015332775 
1 4:0.015126871 5:0.0021666746 
-1 1:0.024132664 2:0.033058612 3:1.0254487 
1 4:0.01519829 
-1 4:0.014494259 
1 4:0.01517517 5:0.0026878497 
1 4:0.014878823 
-1 4:0.015064976 
-1 1:0.04172826 2:0.017591426 3:0.42193922 5:0.0060278672 
1 4:0.013848351 
1 4:0.015144497 5:0.00049878192 
-1 4:0.015509084 
-1 1:0.025888403 2:0.030488582 3:1.149677 
-1 4:0.01519373 
1 4:0.015500057 
1 4:0.013081855 
1 4:0.015522036 5:0.0010511278 
-1 4:0.015656787 5:0.00044957389 
1 4:0.015315977 5:0.0017965826 
1 4:0.014491963 5:0.0053282138 
1 4:0.015382413 5:0.00031948314 
-1 4:0.014730343 5:0.0046994501 
1 4:0.014994859 5:0.0036965855 
-1 4:0.015184442 5:0.0024353446 
1 4:0.014763921 5:0.0039738538 
1 4:0.014016042 5:0.0062355799 
-1 4:0.015560461 
1 4:0.015301513 5:0.00072799353 
-1 4:0.015483697 
-1 4:0.014007449 5:0.0063563905 
-1 1:0.01330721 2:0.040399823 3:1.4837724 
1 4:0.01519805 5:0.0017912532 
-1 2:0.066117775 3:2.258005 
-1 4:0.014992343 5:0.0032797317 
1 4:0.014192427 5:0.0057683058 
-1 4:0.015208072 5:0.0024624355 
-1 4:0.015023687 5:0.0027446464 
1 4:0.010820951 5:0.010667843 
1 4:0.015008841 5:0.0030473895 
-1 1:0.04700356 2:0.012961966 3:0.74550812 5:0.0025476856 
-1 4:0.015254372 5:0.00078750383 
1 4:0.015206616 5:0.00026185889 
-1 2:0.032783341 3:3.0229647 4:0.0083865639 
1 4:0.015310804 
-1 4:0.014709045 5:0.0042971867 
-1 1:0.030606646 2:0.031341351 3:1.1909781 
1 4:0.015214181 
1 4:0.015186055 5:0.0013279581 
1 4:0.015006216 
-1 4:0.014261658 5:0.0055565557 
1 4:0.014687611 5:0.0042494992 
-1 4:0.014091677 5:0.0060164279 
-1 1:0.03351858 2:0.028121516 3:1.0279757 
-1 4:0.015083939 5:0.0026731015 
-1 4:0.012679547 5:0.0083610742 
1 4:0.014749017 5:0.0034989373 
1 4:0.014383342 5:0.0050007644 
1 4:0.01319569 5:0.0075644402 
-1 4:0.015282367 5:0.00014020219 
1 4:0.013953808 5:0.0060215835 
1 4:0.01401448 5:0.0061976624 
1 4:0.015299432 
-1 4:0.014792578 5:0.0035851297 
-1 4:0.015186348 5:0.0011854612 
1 4:0.014829068 5:0.0028890958 
1 4:0.014802216 5:0.0034137023 
1 2:0.0043015172 4:0.013606991 
1 1:0.051648493 2:0.012690951 3:0.95366493 5:0.00089803391 
1 4:0.013006512 
-1 2:0.0060933533 4:0.013982547 
-1 4:0.012554159 5:0.0085026349 
1 4:0.014510612 
1 4:0.012460332 5:0.0085156636 
-1 4:0.015235706 
1 4:0.014766047 
-1 4:0.014869039 5:0.00022993928 
1 4:0.012764507 5:0.0060588322 
1 4:0.013944287 5:4.116188e-05 
-1 4:0.013833703 
1 4:0.014083882 5:0.00059109797 
1 4:0.01334384 5:0.004011673 
-1 1:0.013585791 4:0.0019336295 5:0.014729798 
1 4:0.011836691 5:0.005805651 
1 4:0.012208259 5:0.0054052173 
-1 4:0.013455492 5:0.0016171207 
-1 4:0.0094448872 5:0.0078405915 
1 4:0.01077654 5:0.0051627866 
1 4:0.01061925 5:0.0060572874 
-1 4:0.012636121 5:0.0022902643 
1 4:0.010163028 5:0.0062413227 
-1 4:0.012895281 
1 4:0.0087820699 5:0.0072290278 
-1 4:0.013453477 
-1 4:0.011829174 5:0.0031369446 
1 4:0.011151177 5:0.0034400242 
1 4:0.011663073 5:0.00022481705 
-1 2:0.039487349 3:3.0650061 4:0.0065708192 
1 4:0.011255213 
-1 4:0.011630706 5:0.00082287484 
-1 2:0.036602122 3:2.6920476 4:0.0017988502 
1 4:0.010444536 5:0.00027380277 
1 4:0.010577553 5:0.003031876 
-1 4:0.011061245 5:0.0022646429 
1 4:0.0071613863 5:0.0072210622 
-1 4:0.011202694 
-1 1:0.041031923 2:0.031616946 3:1.1750699 
1 4:0.010297839 
-1 4:0.010728166 
1 4:0.0088809491 5:0.0050864335 
-1 4:0.011366619 5:0.00085755746 
1 1:0.037149774 2:0.037040775 3:1.3295343 
1 4:0.0082800054 5:0.0038942452 
-1 4:0.011105287 
1 4:0.0093843133 5:0.00090708161 
1 2:0.068688749 3:2.4358717 
1 1:0.046229407 5:0.010511005 
-1 4:0.010500901 5:0.0037612732 
1 4:0.0085115284 5:0.0031842934 
1 2:0.0065349433 4:0.0086403422 
1 2:0.015259611 4:0.0081103851 
1 2:0.0134245 4:0.0082935715 
-1 2:0.072350066 3:2.4041945 
1 4:0.0069749387 5:0.0048431441 
-1 4:0.0090838187 5:0.0049279793 
1 4:0.0083023006 5:0.0034982865 
-1 4:0.0093162954 5:0.0036972866 
1 4:0.0084333335 
1 2:0.083059095 4:0.0090689059 
-1 2:0.083760873 4:0.009086604 
-1 2:0.085326103 4:0.0087405488 
-1 2:0.084727948 4:0.0085985454 
-1 3:0.67275754 5:0.016964157 
-1 2:0.084824114 4:0.0087323569 
-1 2:0.085480063 4:0.0085063387 
1 2:0.083744128 4:0.0082861975 
-1 2:0.084627766 4:0.0089437491 
-1 2:0.085523109 4:0.0085060188 
1 2:0.082521839 4:0.0087839369 
1 2:0.052619592 3:0.86869568 4:0.012820116 
1 2:0.049130281 3:0.84638491 4:0.013206188 
-1 2:0.047773349 3:0.86618778 4:0.013379763 
1 2:0.047784453 3:0.86253877 4:0.013167135 
-1 2:0.049013209 3:0.86091403 4:0.013040298 
1 2:0.049396108 3:0.82674348 4:0.012490512 
1 2:0.045477542 3:0.87240116 4:0.012863072 
-1 2:0.051680795 3:0.79364603 4:0.012253399 
1 2:0.05000642 3:0.78967721 4:0.012132131 
-1 2:0.050809664 3:0.78404679 4:0.012464117 
1 2:0.047649646 3:0.79903347 4:0.012399336 
-1 2:0.055771192 3:0.67524962 4:0.011786755 
1 2:0.053830275 3:0.63350103 4:0.010611108 
-1 2:0.049511443 3:0.69337266 4:0.012539081 
-1 2:0.054610046 3:0.61199027 4:0.011101443 
1 2:0.049490643 3:0.65068024 4:0.010913678 
-1 2:0.04410269 3:0.6733797 4:0.012525101 
1 2:0.050291035 3:0.54386497 4:0.0095777013 
1 2:0.050432886 3:0.49244082 4:0.0092046336 
1 1:0.1465243 5:0.0074284505 
1 2:0.063031893 3:0.33535793 4:0.0061153962 
-1 2:0.056636432 3:0.42579331 4:0.0092522925 
1 2:0.049268896 3:0.38980889 4:0.0071425959 
1 2:0.039929778 3:0.44565923 4:0.010264583 
-1 2:0.0427595 3:0.40176234 4:0.011970157 
-1 2:0.03565618 3:0.31593296 4:0.0087706456 
1 2:0.042671391 3:0.87977401 4:0.011617942 
1 2:0.046269584 3:0.14617243 4:0.0033336202 
-1 2:0.036319386 3:0.13992321 4:0.0041693521 
-1 1:0.0059843612 2:0.033175492 4:0.00045198591 
-1 2:0.056962836 3:0.61709009 4:0.0093484566 
-1 2:0.060132087 3:0.82536712 4:0.010773594 
-1 2:0.056398158 3:1.2669194 4:0.01369893 
1 2:0.045203333 3:1.4902224 4:0.014921971 
1 1:0.0088801759 2:0.052840406 3:0.30639453 4:0.0033321767 
-1 2:0.057566071 3:0.85982906 4:0.011309323 
-1 2:0.03622004 3:1.5311674 4:0.014970565 
1 1:0.01895945 2:0.044503246 3:0.22327477 4:0.0016220534 
-1 2:0.05804412 3:0.22528643 4:0.0042214959 
1 1:0.059862439 2:0.052661915 
1 1:0.0012786677 2:0.060399448 3:0.29511431 4:0.0038754108 
-1 2:0.063549922 3:0.81795636 4:0.010658604 
-1 1:0.012431613 2:0.061576916 
1 1:0.0050818301 2:0.054546658 3:0.2449368 4:0.0032806396 
1 1:0.015252624 2:0.059145497 3:0.078035894 4:0.00024923172 
1 1:0.005199413 2:0.054321769 3:0.20303423 4:0.0029764483 
0.8208893642808732 1:0.0068406248 2:0.054692246 3:0.20280323 4:0.002514273 
1 1:0.031678655 2:0.051090628 
1 1:0.0079452613 2:0.059937305 3:0.20426932 4:0.0023643991 
-1 2:0.060854296 3:0.39342869 4:0.0076201637 
1 1:0.06703984 2:0.048106326 
-1 2:0.064513175 3:0.56653784 4:0.008595777 
-1 2:0.061029093 3:0.28396598 4:0.0036535642 
1 2:0.061651572 3:0.90272398 4:0.01091532 
-1 2:0.065503698 3:0.60091309 4:0.0074946847 
1 1:0.030350958 2:0.056480821 
-1 2:0.058839218 3:0.86650767 4:0.011757343 
-1 2:0.063316986 3:0.48330602 4:0.0060675523 
1 1:0.03887895 2:0.046398331 
1 2:0.06638376 3:0.60020924 4:0.0088517177 
-1 2:0.061525749 3:0.57048181 4:0.009311273 
1 2:0.063915705 3:0.74424282 4:0.010574596 
-1 2:0.069854275 3:0.69169858 4:0.0098336635 
1 1:0.049208333 2:0.051129979 
1 1:0.0052594676 2:0.057769141 3:0.28942439 4:0.0036555842 
-1 2:0.058096994 3:0.81352446 4:0.011138879 
-1 2:0.060037637 3:0.93843853 4:0.011670095 
1 1:0.0017639013 2:0.056548606 3:0.34206848 4:0.0042419424 
1 2:0.057811652 3:0.71762656 4:0.010747622 
1 2:0.065802881 3:0.42222376 4:0.0069920603 
-1 2:0.049899644 3:1.0168284 4:0.013498423 
1 2:0.062730233 3:0.59485744 4:0.0068708483 
1 2:0.052098335 3:0.9873749 4:0.012941453 
1 1:0.13329367 5:0.0021956933 
1 1:0.016188705 2:0.072293693 3:0.20176602 4:0.0017179428 
1 1:0.0055837292 2:0.063780168 3:0.24721772 4:0.0027260828 
1 2:0.066921316 3:0.29535603 4:0.0036670263 
-1 2:0.06804173 3:0.75955495 4:0.010252525 
1 2:0.066616194 3:0.60792048 4:0.0071643621 
-1 2:0.067416584 3:0.28109708 4:0.0068895274 
1 1:0.06503473 2:0.054030305 
1 2:0.064451201 3:0.56543183 4:0.0091612756 
-1 2:0.0590591 3:0.7342985 4:0.010966178 
-1 2:0.039124374 3:1.3865083 4:0.014492153 
1 2:0.062301053 3:0.83074954 4:0.011417345 
-1 2:0.05563666 3:0.91956838 4:0.012572383 
-1 2:0.058219575 3:0.91297911 4:0.012055051 
-1 2:0.064046516 3:0.86328297 4:0.011420821 
-1 1:0.0001451034 2:0.065434864 3:0.038126332 4:0.0017858892 
1 1:0.1218697 2:0.032641707 
1 2:0.07065406 3:0.38647852 4:0.0062899923 
-1 2:0.071182275 3:0.52961345 4:0.0095953713 
1 2:0.071234155 3:0.25262153 4:0.0031255627 
1 2:0.030928386 3:1.2430263 4:0.014316368 
-1 2:0.070443954 3:0.77196234 4:0.010670941 
1 1:0.038822249 2:0.080897962 3:0.24748245 
-1 2:0.053379763 3:0.85866509 4:0.012219972 
1 2:0.027274998 3:1.427797 4:0.014779887 
-1 2:0.073964934 3:0.32927815 4:0.0074841467 
-1 2:0.065616085 3:0.63978041 4:0.010276306 
1 2:0.044303879 3:1.2213032 4:0.013773734 
1 2:0.073352571 3:0.44494548 4:0.0060911637 
1 2:0.057840036 3:0.82174669 4:0.011600659 
-1 2:0.052784123 3:0.94721849 4:0.012728483 
-1 2:0.058205646 3:0.84780076 4:0.011907385 
1 1:0.014305065 2:0.078258542 3:0.35668798 4:0.0022931713 
1 2:0.066990239 3:0.72223357 4:0.0088140266 
1 2:0.026622273 3:1.3064656 4:0.014544956 
1 2:0.072041777 3:0.51667687 4:0.010035698 
1 1:0.1301633 
-1 2:0.059184934 3:0.88900387 4:0.012766022 
-1 2:0.078558071 3:0.43379616 4:0.0079168465 
1 2:0.033132449 3:1.2596685 4:0.01437961 
-1 2:0.07651888 3:0.58047224 4:0.0090915809 
1 2:0.030678249 3:1.3542459 4:0.01461298 
-1 2:0.071144804 3:0.75179925 4:0.010622556 
1 2:0.073750161 3:0.46040731 4:0.0063116601 
1 1:0.14326782 5:0.00017378464 
1 1:0.021080981 2:0.071125242 3:0.14438006 4:0.00011101075 
1 2:0.065676276 3:0.77804841 4:0.010195823 
-1 2:0.079079478 3:0.51823396 4:0.010755216 
-1 2:0.050737586 3:0.99581646 4:0.013531972 
1 2:0.065010768 3:0.81136089 4:0.010642366 
1 2:0.066025739 3:0.74061643 4:0.010282138 
-1 2:0.061419092 3:0.80278169 4:0.011902541 
1 2:0.063615194 3:0.74130405 4:0.010602522 
1 2:0.06815822 3:0.50754043 4:0.010655743 
1 1:0.12425095 5:0.00099247312 
1 2:0.050071471 3:1.0023588 4:0.013255611 
1 3:2.7587244 4:0.0011446051 5:0.015457566 
-1 2:0.088328833 3:0.45807074 4:0.0075274839 
1 2:0.060462146 3:0.75146528 4:0.01079944 
-1 2:0.057891472 3:0.83717272 4:0.011737788 
1 2:0.0071963866 
1 
-1 2:0.17947696 5:0.0073026595 
1 3:1.1375791 4:0.014339945 5:0.0063130086 
-1 3:1.113001 4:0.014492634 5:0.0059394383 
1 3:1.1216017 4:0.014435493 5:0.0061159307 
-1 3:1.1155355 4:0.014467421 5:0.006077352 
-1 3:1.1201925 4:0.014449975 5:0.006039409 
1 3:1.134435 4:0.014350206 5:0.0063478304 
-1 3:1.0915898 4:0.014639965 5:0.0053178426 
-1 3:1.1456062 4:0.014266586 5:0.0065983349 
1 4:0.014874167 5:0.0019395164 
-1 4:0.014935388 5:0.0014137573 
1 4:0.014866053 5:0.0020053319 
-1 4:0.014942023 5:0.0013407144 
1 4:0.014854193 5:0.002086918 
-1 4:0.01493416 5:0.0014304179 
-1 4:0.014983882 5:0.00076117863 
1 4:0.014878808 5:0.0019031296 
1 4:0.014846518 5:0.0021403757 
-1 4:0.01497166 5:0.0009662289 
1 4:0.014889602 5:0.0018178686 
1 4:0.014957984 5:0.0011566674 
-1 2:0.0037863968 4:0.015013341 
1 4:0.014926928 5:0.0014807143 
1 4:0.01489024 5:0.0018231607 
1 4:0.014881167 5:0.0018857976 
1 4:0.015010842 5:0.00012214505 
-1 2:0.0071281311 4:0.015039842 
1 4:0.014893979 5:0.0017813116 
-1 4:0.014921386 5:0.0015337051 
1 4:0.014692157 5:0.0030542751 
-1 4:0.01493522 5:0.0014630922 
-1 4:0.014885117 5:0.0018607327 
1 4:0.014734393 5:0.0028390988 
-1 4:0.014996973 5:0.0005129975 
1 4:0.014811619 5:0.0023715299 
1 4:0.014713188 5:0.0029348992 
-1 4:0.014950533 5:0.0013338602 
1 4:0.015001592 5:0.0004935024 
-1 4:0.014933788 5:0.0014438489 
-1 4:0.014974546 5:0.0010020518 
1 4:0.014972408 5:0.0010672483 
-1 4:0.014865742 5:0.0020249805 
1 4:0.014975314 5:0.0010222025 
-1 4:0.014954649 5:0.0013442595 
1 4:0.014804902 5:0.0024120433 
-1 4:0.015003384 5:0.00052749405 
1 4:0.014860176 5:0.0020455591 
1 4:0.014936193 5:0.0014206704 
-1 4:0.014896732 5:0.0017874462 
1 4:0.014859466 5:0.0020634856 
-1 4:0.014909207 5:0.0016923869 
1 4:0.014919355 5:0.0016325614 
1 4:0.014952077 5:0.0013205953 
-1 4:0.014862554 5:0.0020609285 
1 4:0.014376079 5:0.0043028045 
1 4:0.014897543 5:0.0018285496 
1 4:0.014913005 5:0.0017375731 
1 4:0.01462056 5:0.0033689276 
-1 2:0.021552356 4:0.014849306 
1 4:0.014848732 5:0.0021575656 
-1 4:0.014970913 5:0.0010947181 
1 4:0.014956473 5:0.0012775148 
1 4:0.01465781 5:0.0031867311 
-1 4:0.014942666 5:0.0015499258 
1 4:0.014708058 5:0.0029762106 
1 4:0.014960697 5:0.001312297 
-1 4:0.014889708 5:0.0019321081 
1 4:0.014865782 5:0.0020488126 
1 4:0.014954142 5:0.001421576 
-1 4:0.014868292 5:0.0020994725 
1 4:0.014753433 5:0.0027212353 
-1 4:0.01501914 5:0.00064471982 
1 4:0.014861612 5:0.0020744955 
-1 4:0.01495701 5:0.0014418285 
1 4:0.014882565 5:0.0019276587 
1 4:0.014860971 5:0.002207195 
-1 4:0.014747139 5:0.0028222814 
1 4:0.01491669 5:0.001752181 
-1 4:0.014915828 5:0.0016908292 
1 4:0.014890321 5:0.0018955547 
1 4:0.014854675 5:0.0021670269 
1 4:0.014911895 5:0.0018660403 
1 4:0.014965457 5:0.0015549978 
-1 2:0.0084572556 4:0.015075339 
1 4:0.014855449 5:0.0021944255 
-1 4:0.014958376 5:0.0013032874 
1 4:0.014836709 5:0.0022489149 
-1 4:0.014896731 5:0.0019192552 
1 4:0.014838343 5:0.0022553565 
-1 2:0.012753548 4:0.015029579 
1 4:0.014824746 5:0.0023451386 
1 4:0.014838531 5:0.002254618 
-1 2:0.018089632 4:0.014985135 
-1 4:0.014731196 5:0.0028721182 
1 4:0.014856099 5:0.0021630219 
-1 4:0.014801977 5:0.0024833115 
1 4:0.014893707 5:0.0019053119 
1 2:0.011585133 4:0.015071631 
-1 2:0.03833674 4:0.014466173 
-1 4:0.014879764 5:0.0020124795 
1 4:0.01487514 5:0.0020203752 
-1 4:0.01493534 5:0.0018468614 
-1 2:0.0051541653 4:0.015079584 5:0.00016429864 
1 4:0.014648676 5:0.0032487931 
1 4:0.014947142 5:0.0015473185 
1 4:0.015034403 5:0.00074203481 
-1 2:0.0033025804 4:0.015047107 5:0.00024670836 
1 4:0.014756259 5:0.0027262516 
1 4:0.01479171 5:0.0025641789 
-1 4:0.014206136 5:0.0048756311 
1 4:0.0148484 5:0.0022880258 
-1 4:0.014947383 5:0.0017145497 
-1 4:0.014820453 5:0.0024881598 
1 4:0.014799108 5:0.0025007759 
1 4:0.014807866 5:0.0026462762 
1 1:0.14614401 3:2.317076 5:0.00034275288 
1 4:0.01482544 5:0.0023973938 
-1 4:0.014770443 5:0.0027570294 
-1 4:0.014659576 5:0.003296451 
-1 4:0.014869061 5:0.0023076619 
1 4:0.014755761 5:0.0027686161 
1 4:0.014899483 5:0.0018928563 
1 4:0.014429077 5:0.0041456646 
1 4:0.014913681 5:0.0018938567 
1 4:0.015002681 5:0.0011739302 
-1 2:0.096740635 4:0.013967386 
1 4:0.014855527 5:0.0022110102 
-1 4:0.01457068 5:0.0036430786 
1 4:0.014893085 5:0.0019640399 
-1 4:0.014783125 5:0.0028561489 
1 4:0.014865459 5:0.0021655651 
1 1:0.17079228 3:2.2622289 5:0.0017836056 
1 4:0.014682996 5:0.003168325 
1 4:0.013187035 5:0.0072775588 
-1 4:0.0138273 5:0.0061328806 
1 4:0.01399846 5:0.0056211694 
-1 1:0.11652872 3:2.2426246 5:0.0018883216 
-1 1:0.15582522 3:2.3839692 5:0.00039188573 
1 1:0.16497419 2:0.015791586 3:2.4800448 
1 1:0.10028223 2:0.051850245 3:2.8293991 
-1 4:0.01366112 5:0.0062836188 
1 4:0.014697465 5:0.0030494359 
1 1:0.11608001 3:2.1305823 5:0.0048455124 
1 4:0.014810714 5:0.0024895098 
1 1:0.14021066 3:2.3574019 5:7.8353498e-05 
-1 4:0.014643285 5:0.0035226089 
-1 1:0.098178906 2:0.046608783 3:2.8603914 
1 1:0.10877145 3:2.2071817 5:0.0029289111 
1 4:0.014671264 5:0.0031498512 
-1 1:0.096715431 2:0.0031730342 3:2.427624 
-1 1:0.098903765 3:2.1620088 5:0.0027676187 
1 1:0.13118661 3:2.123582 5:0.0036300141 
1 4:0.014714782 5:0.003058002 
1 4:0.013257658 5:0.0075392696 
1 1:0.13457452 3:2.13235 5:0.0029580104 
1 4:0.014653319 5:0.0032284204 
1 4:0.014634089 5:0.0033568513 
-1 1:0.1283627 3:2.253816 5:0.0014143881 
-1 1:0.073340429 3:1.5468485 
1 1:0.082187991 3:1.6593362 
-1 1:0.07635367 3:1.5522109 
1 1:0.080261708 3:1.5858509 
-1 1:0.077672513 3:1.6201187 
1 1:0.085555207 3:1.587826 
-1 1:0.083550168 3:1.5956835 
-0.5604158504932538 1:0.09251724 3:1.636509 
1 1:0.092652895 3:1.5848073 
-1 1:0.087719643 3:1.5056208 5:0.0011588447 
-1 1:0.080729479 2:0.011210831 
1 1:0.084033735 2:0.0067430026 
-1 1:0.081181177 2:0.0040997332 
1 1:0.082860516 2:0.0096848101 
-1 1:0.074668829 2:0.0059515194 
1 1:0.08441891 2:0.028973417 
-1 1:0.073313929 2:0.013780011 
-1 1:0.078448369 2:0.0018094602 
1 1:0.078356271 2:0.0075558004 
-1 1:0.075560604 
1 1:0.081911904 2:0.0068172039 
1 1:0.076993915 2:0.0031083892 
-1 1:0.074214561 
1 1:0.078847815 2:0.00068068581 
-1 1:0.076653968 
1 1:0.094612525 
-1 1:0.074643039 2:0.0024571282 
-1 1:0.078035605 
1 1:0.084612145 2:0.004823159 
1 1:0.075636402 2:0.003322961 
-1 1:0.071043469 2:0.011026346 
-1 1:0.073359845 
1 1:0.07979914 2:0.0026035803 
-1 1:0.075817741 2:0.00060815029 
-1 1:0.079996958 
-1 1:0.080395874 2:0.0067104644 
1 1:0.081505062 2:0.0011918646 
1 1:0.078007655 2:0.00040189398 
-1 1:0.069237018 
-1 1:0.07443924 
-1 1:0.074207802 
1 1:0.077343148 
-1 1:0.0699377 
-1 1:0.072549555 
1 1:0.081294608 2:0.014899035 
-1 1:0.072791902 
1 1:0.071530975 2:0.049174023 
-1 1:0.07010677 
1 1:0.078457868 
-1 1:0.066026161 2:0.024129108 
-1 1:0.069181152 
-1 1:0.072754614 
1 1:0.08031012 2:0.016900841 
-1 1:0.076937057 2:0.00095026017 
1 1:0.077851041 2:0.020436548 
-1 1:0.073213608 
-1 1:0.069357163 2:0.0088495383 
1 1:0.073945178 
-1 1:0.069946135 
-1 1:0.071668424 
-1 1:0.068898224 
1 1:0.076182973 
1 1:0.073754209 
-1 1:0.069501994 
1 1:0.072774342 
-1 1:0.069320354 
-1 1:0.072063061 
1 1:0.073534732 
-1 1:0.067589931 
1 1:0.070705647 
-1 1:0.06684251 
-1 1:0.069293693 
1 1:0.069142857 
-1 1:0.06651579 2:0.00015961248 
1 1:0.07389998 2:0.005416833 
-1 1:0.068013608 
1 1:0.073094162 
-1 1:0.068815155 
-1 1:0.071826927 
1 1:0.070967394 
-1 1:0.067650968 
-1 1:0.066995688 
-1 1:0.067043649 
-1 1:0.067769793 
-1 1:0.070177226 
1 1:0.073642412 
-1 1:0.067662008 
1 1:0.076048743 2:0.020824462 
-1 1:0.06712406 
1 1:0.08163689 2:0.018974943 
-1 1:0.06774368 
1 1:0.072073568 
-0.03237956991090716 1:0.068632945 
1 1:0.068987477 
-1 1:0.060168285 
-1 1:0.068506539 
-1 1:0.070451822 
-1 1:0.069582649 2:0.045472971 
-1 1:0.066440534 
-1 1:0.068982994 
1 1:0.071832051 2:0.048081193 
1 1:0.066194658 
-1 1:0.062573047 
-1 1:0.067889023 
1 1:0.071617828 
-1 1:0.066871292 
-1 1:0.060231991 2:0.062391773 
-1 1:0.066384195 
1 1:0.069274529 
-1 1:0.067247705 
1 1:0.061469125 2:0.061889613 
-1 1:0.063989559 2:0.064067403 
-1 1:0.064992245 
1 1:0.069784319 
-1 1:0.066914184 
-1 1:0.070199634 2:0.060820998 
-1 1:0.081689986 2:0.022817424 
-1 1:0.071614843 2:0.063576756 
-1 1:0.076068419 2:0.021741121 
-1 1:0.061314689 2:0.090531495 
1 1:0.079559156 
-1 1:0.070737324 
-1 1:0.054351718 2:0.08425708 
-1 1:0.07371373 
-1 1:0.078418809 
1 1:0.069723794 2:0.051707958 
-1 1:0.020907879 2:0.1042063 4:0.0003655322 
-1 1:0.072093414 2:0.047107884 
-1 1:0.0032185733 2:0.11978241 4:0.0027325356 
1 1:0.079934985 2:0.025113309 
-1 1:0.070092178 
-1 1:0.0031601571 2:0.11666154 4:0.0028480517 
1 1:0.076760199 2:0.025641252 
-1 1:0.066845681 2:0.049546033 
-1 1:0.07014554 
-1 1:0.073501401 
1 1:0.076950182 2:0.024247904 
-1 1:0.065662886 2:0.056938748 
-1 1:0.045258379 2:0.084683516 
-1 1:0.070105821 
-1 1:0.018331612 2:0.10419112 4:0.00097976359 
-1 1:0.079052047 2:0.0064957826 
-1 2:0.12500058 3:0.4489278 4:0.0079833298 
1 1:0.050915527 5:0.0034560434 
-1 1:0.057495045 5:0.0012121428 
1 1:0.057410984 2:0.07340454 
-1 1:0.054001684 2:0.067697215 
-1 2:0.13167133 3:0.20023037 4:0.005566454 
-1 1:0.071396657 2:0.085022687 
-1 2:0.11719622 3:0.82376674 4:0.011307422 
-1 1:0.043248817 2:0.073087441 
-1 1:0.070477865 
1 1:0.079078302 2:0.032105987 
-1 1:0.066080114 
-1 1:0.068340017 
-1 1:0.0057078241 2:0.10696757 3:0.055376258 4:0.0035272276 
-1 1:0.07481974 
-1 1:0.064102255 
-1 1:0.078664233 2:0.0054045439 
-1 1:0.07837582 
-1 1:0.030005423 2:0.096012673 4:0.00092314266 
1 1:0.090768952 
1 1:0.07827574 2:0.03790431 
-1 1:0.071643965 2:0.0039136311 
-1 1:0.072349554 2:0.049252983 
-1 1:0.053542824 
-1 1:0.065007012 
-1 2:0.1201857 3:0.067890686 4:0.0044789775 
1 1:0.064565997 
-1 1:0.23348108 3:0.67812707 4:0.013472745 
1 1:0.25701487 3:0.75865525 4:0.014226571 
1 
-1 3:1.055293 4:0.017376806 5:0.0015466722 
-1 3:1.7055837 4:0.014008782 5:0.011411439 
-1 1:0.084282988 3:2.9570121 5:0.015407039 
-1 3:1.0547133 4:0.017409701 5:0.001492157 
-1 3:1.0476133 4:0.017284488 5:0.0015593465 
1 3:1.6794892 4:0.013640892 5:0.011262474 
-1 3:0.7776567 4:0.016943772 
-1 3:0.9749197 4:0.017468846 5:0.0001069671 
-1 3:1.0357356 4:0.017353944 5:0.0012785348 
1 4:0.017557308 5:0.0020807306 
-1 4:0.017476871 5:0.0049202135 
1 4:0.017181868 
-1 4:0.017264275 
1 4:0.016667538 5:0.0046352149 
-1 4:0.014567423 5:0.0096634639 
1 4:0.0140039 5:0.0097289232 
1 4:0.015864355 5:0.0059027471 
1 4:0.016771998 
-1 4:0.016756759 5:0.0044196212 
-1 3:0.21577812 4:0.010100033 5:0.013501895 
1 1:0.0078151679 3:0.28904695 4:0.0086821899 5:0.014087174 
1 1:0.068064558 3:1.5906555 5:0.012349727 
-1 4:0.016321223 5:0.0031562531 
1 3:0.15465598 4:0.010706985 5:0.012241612 
1 4:0.012865457 5:0.010193129 
1 4:0.016101268 5:0.0037267589 
1 4:0.015895002 5:0.0043062501 
-1 4:0.01624041 5:0.0027636598 
-1 4:0.016155974 5:0.0015289784 
-1 4:0.015734063 5:0.0041134984 
1 1:0.0070267713 2:0.045252167 3:2.8756387 
-1 2:0.050723008 3:2.7760847 
1 4:0.016056068 5:0.0010627829 
-1 4:0.014592479 5:0.0072900292 
-1 1:0.029254771 3:0.92280239 5:0.016190377 
1 1:0.024027597 3:0.45731915 4:0.0046625806 5:0.015193186 
-1 4:0.0154337 5:0.0038047398 
1 1:0.036753185 3:0.4367128 4:0.0035079073 5:0.015081229 
-1 4:0.015231149 5:0.0033637039 
1 1:0.013527297 2:0.049595078 3:2.8689794 
-1 2:0.045455915 3:2.7692563 
-1 1:0.02762492 3:0.41265899 4:0.0044113192 5:0.015115119 
-1 2:0.050179279 3:3.0135378 
-1 1:0.012350218 2:0.035776776 3:1.8275113 5:0.0058311001 
-1 1:0.018560972 2:0.049159936 3:2.6888009 
-1 4:0.015651854 
-1 2:0.050477304 3:2.9243685 
1 1:0.025527553 2:0.04560807 3:3.1029759 
1 1:0.0025888401 2:0.052841592 
1 1:0.01131065 2:0.046766798 3:2.7452462 
1 4:0.013165979 5:0.0084967159 
1 1:0.01322615 2:0.050247637 3:2.8275118 
-1 1:0.03608303 2:0.063973473 3:1.8903289 5:0.0017617028 
1 1:0.1267882 2:0.030377303 3:1.0382808 5:0.0098391221 
-1 2:0.052337587 3:2.7690441 
-1 1:0.021415105 2:0.058658119 3:2.2698431 
-1 4:0.0098575404 
-1 1:0.015437771 2:0.055519165 3:2.8077073 
-1 1:0.0011633787 3:0.35677471 4:0.0071340253 5:0.014753312 
-1 1:0.028948017 3:0.8910013 5:0.015666601 
-1 4:0.014839397 
1 4:0.014877797 5:0.0025994635 
-1 4:0.013965257 5:0.0070549722 
1 1:0.027357234 3:0.50238158 4:0.0024714118 5:0.015430482 
-1 4:0.015385304 5:0.0032712878 
-1 1:0.020993879 2:0.050739738 3:2.3702895 
-1 1:0.032218364 2:0.038102078 3:2.230782 
1 1:0.0067100239 3:0.025231979 4:0.0091642917 5:0.012518612 
1 1:0.047043305 2:0.052734592 3:2.7340082 
-1 1:0.01962755 2:0.050511109 3:2.4497257 
1 1:0.023915906 2:0.050852879 3:2.7577437 
1 1:0.022963559 2:0.049037361 3:2.7388096 
-1 1:0.042643582 2:0.042122654 3:1.9321169 5:0.0023770034 
-1 1:0.029789288 2:0.050857298 3:2.2865619 
-1 2:0.017703369 4:0.010519692 
-1 2:0.045911476 3:2.8510875 
1 4:0.012061731 5:0.0097144374 
-1 4:0.015208347 5:0.0038675467 
-1 4:0.015013797 5:0.0039964256 
-1 1:0.0087416814 3:0.022426714 4:0.0083627005 5:0.013008194 
-1 2:0.039623153 
-1 4:0.013858243 5:0.0073252224 
-1 4:0.015226359 5:0.00085015431 
-1 1:0.028284508 3:0.38016325 4:0.0029983467 5:0.015009961 
-1 2:0.051031343 3:2.6792589 
-1 2:0.012755515 4:0.0082607257 
-1 4:0.01403461 5:0.0059406173 
1 4:0.011538884 
-1 2:0.0022840919 4:0.01135192 
-1 2:0.059872358 
1 4:0.014166766 5:0.005470299 
-1 1:0.042493117 2:0.056028987 3:2.3398016 
1 4:0.015262579 
-1 4:0.014947606 5:0.0032784253 
-1 2:0.033486205 4:0.0028818709 
-1 4:0.01449876 5:0.0048694588 
-1 4:0.013926979 
-1 4:0.012857235 5:0.008272804 
1 1:0.033517653 4:0.0090350245 5:0.012008159 
-1 4:0.014581998 5:0.0041680887 
-1 1:0.013722502 2:0.054230995 3:2.5527545 
-1 4:0.012198122 5:0.0090700261 
1 2:0.036687683 3:2.8436349 
-1 2:0.041569652 4:0.00076191592 
-1 4:0.013358966 5:0.0076381475 
-1 1:0.015471252 3:0.16430127 4:0.0062580778 5:0.013937634 
-1 2:0.011744727 4:0.0071058196 
-1 4:0.014821765 
-1 4:0.012424361 5:0.0093783418 
-1 4:0.013916786 5:0.0062915088 
-1 1:0.018325053 3:0.27739196 4:0.0052218096 5:0.014398737 
-1 4:0.01304733 
-1 3:0.10243722 4:0.0090479188 5:0.012846426 
-1 1:0.01276673 4:0.0082775199 5:0.012720159 
-1 1:0.013511261 4:0.0085018033 5:0.012527392 
-1 1:0.01885312 3:0.019806135 4:0.0075587668 5:0.013112524 
-1 4:0.013010514 
-1 4:0.011814461 5:0.0098597527 
-1 4:0.010251454 5:0.011464689 
-1 4:0.014123566 5:0.0054424919 
-1 4:0.01093111 
1 1:0.020051423 2:0.049276671 3:2.7475678 
1 1:0.0034307133 4:0.010682245 5:0.010754781 
-1 4:0.014499637 5:0.0044601397 
1 4:0.014065301 5:0.0053602848 
-1 4:0.01344127 5:0.0074236398 
-1 4:0.014261876 5:0.0051395417 
-1 4:0.014950736 
-1 2:0.042714428 
-1 1:0.0033443143 3:0.01265027 4:0.008147732 5:0.013049113 
-1 2:0.014303971 4:0.0076311493 
1 3:0.00010166197 4:0.0085503266 5:0.012825893 
-1 4:0.011408732 5:0.01062193 
-1 4:0.012396758 5:0.0089971754 
-1 4:0.012867537 5:0.0079028607 
1 1:0.0023813557 4:0.011116932 5:0.010298722 
1 4:0.011475639 5:0.010047395 
-1 4:0.012099731 5:0.0096189103 
1 1:0.068264141 3:1.1168046 5:0.011108013 
-1 1:0.0039667954 4:0.0099575169 5:0.0113607 
-1 4:0.0097102583 
-1 4:0.01176893 5:0.0098680451 
-1 2:0.0014808149 4:0.0095631768 
-1 4:0.012307844 5:0.0087692682 
1 1:0.0046744764 4:0.010303921 5:0.011028433 
-1 4:0.013275046 
1 1:0.018276025 4:0.0087409183 5:0.012224932 
1 4:0.013354571 5:0.0069977254 
-1 4:0.014795718 5:0.0025439597 
-1 4:0.014297019 5:0.0050482136 
0.4519278850765137 1:0.079035849 3:0.41250466 5:0.014710282 
1 2:0.017162859 4:0.0070798599 
-1 4:0.0098739105 
-1 4:0.013851136 5:0.0060959962 
1 1:0.038291629 4:0.0056532586 5:0.013898016 
1 1:0.05219677 3:1.1284055 5:0.012591454 
1 1:0.0053704242 4:0.011255691 5:0.010009587 
1 1:0.022302294 3:0.066122352 4:0.0060725194 5:0.013773829 
-1 4:0.012616038 5:0.0085153099 
-1 2:0.032735731 4:0.0046162573 
-1 4:0.012016689 5:0.0095332371 
-1 2:0.022254849 4:0.0059749891 
-1 4:0.013886476 5:0.006047817 
1 4:0.013177091 5:0.0073109744 
-1 4:0.011164631 5:0.010498273 
-1 1:0.06000424 3:0.56644003 5:0.014749214 
1 2:0.015347084 4:0.0069593904 
1 4:0.0097766421 
-1 1:0.00021155191 2:0.075594574 
1 1:0.0076204414 2:0.077569573 
-1 2:0.076940851 
-1 1:0.0039694478 2:0.073968873 
1 1:0.015947151 2:0.077266626 
1 2:0.077868027 
-1 2:0.076885426 
-1 1:0.0078573466 2:0.078078464 
1 1:0.014245152 2:0.075852276 
1 1:0.0064000977 2:0.07756178 
1 1:0.0034183104 2:0.075196308 
1 2:0.042390152 3:0.022799155 4:0.0025854316 
1 2:0.042866877 4:0.0015255977 
-1 2:0.040847692 4:0.0018872878 
-1 2:0.046220209 4:0.0022036312 
1 1:0.0013243389 2:0.052719117 3:0.031402824 4:0.0020139139 
1 2:0.047103604 4:0.0016346066 
1 2:0.050187651 3:0.026170974 4:0.0021395811 
-1 2:0.057456337 3:0.23832415 4:0.0054368238 
1 2:0.055759861 3:0.010282501 4:0.002156505 
1 1:0.0031788638 2:0.047007557 
-1 2:0.058094686 3:0.38803759 4:0.0077964427 
1 2:0.05323873 3:0.06824574 4:0.003313761 
1 2:0.054448848 3:0.13871525 4:0.0055802824 
-1 2:0.056755319 3:0.13639505 4:0.0054221691 
1 2:0.05002296 3:0.75573279 4:0.011739356 
1 2:0.063079479 4:0.0028869026 
1 2:0.067417136 3:0.057289116 4:0.004621095 
-1 2:0.06246349 3:0.30760168 4:0.0076907509 
-1 2:0.055472279 3:0.80606757 4:0.011894905 
-1 1:0.022977654 2:0.046579072 
1 2:0.033791763 3:1.1818378 4:0.014769517 
1 2:0.06678926 3:0.20230031 4:0.0064942483 
-1 2:0.061973724 3:0.1071031 4:0.0063818896 
1 2:0.031021381 3:1.1053425 4:0.014520181 
-1 2:0.070552756 4:0.0035069406 
1 2:0.067079284 3:0.2794933 4:0.0081938947 
1 2:0.064714994 3:0.34171187 4:0.0083733479 
-1 2:0.065901276 3:0.45522589 4:0.0096042786 
1 3:1.5872949 4:0.015365139 5:0.0017076915 
-1 2:0.057389127 3:0.61347514 4:0.011489413 
-1 2:0.064505408 3:0.31789374 4:0.0084159694 
-1 2:0.051326143 3:0.89087348 4:0.012820944 
-1 2:0.010855862 3:1.2834547 4:0.015179899 
-1 1:0.043761717 2:0.057134244 
-1 2:0.015894332 3:1.2249692 4:0.015073852 
-1 2:0.063279722 3:0.068583836 4:0.0070262709 
1 2:0.064930606 4:0.0014523536 
-1 2:0.071668815 3:0.0020603428 4:0.0067151953 
-1 2:0.064557695 3:0.37580881 4:0.0088497543 
-1 1:0.038617642 2:0.059701224 
1 1:0.058306388 2:0.044549154 
1 2:0.018445283 3:1.0993879 4:0.014626369 
-1 2:0.028960619 3:0.90245113 4:0.013909517 
1 2:0.061586469 
-1 2:0.074710283 3:0.10409841 4:0.0073857495 
1 2:0.072597561 3:0.11237977 4:0.003431703 
1 2:0.073611366 4:0.0029576248 
-1 2:0.069858896 
1 1:0.064120454 2:0.052090275 
-1 2:0.070691353 4:0.0025923257 
1 2:0.053145628 3:0.67142829 4:0.011854016 
1 1:0.099293937 5:0.0082740268 
-1 2:0.046492416 3:0.64140965 4:0.012871802 
-1 2:0.07004478 3:0.1981492 4:0.0090214735 
1 2:0.068144715 3:0.26546822 4:0.0085637574 
-1 2:0.071130398 3:0.30538443 4:0.0097728607 
1 2:0.057660676 3:0.39464543 4:0.0099333443 
-1 2:0.035574573 3:0.74927509 4:0.013623389 
1 2:0.076460163 3:0.1414846 4:0.0060316128 
1 2:0.060696384 3:0.43296641 4:0.0097693219 
-1 1:0.071463505 2:0.047223185 
1 2:0.075074923 3:0.11187848 4:0.0069696229 
-1 2:0.068062166 3:0.37012081 4:0.010161121 
1 2:0.072578364 3:0.22730107 4:0.0075555033 
-1 2:0.074010329 4:0.00079237516 
-1 2:0.062433192 3:0.35268309 4:0.010893124 
1 2:0.069436654 3:0.22278505 4:0.0091169467 
1 2:0.07657782 3:0.027855429 4:0.0083067989 
1 2:0.0780447 4:0.006984545 
-1 2:0.069456581 3:0.20611318 4:0.010083146 
1 2:0.0867311 4:0.0021900022 
-1 2:0.059205789 3:0.37436516 4:0.011338266 
1 2:0.089110507 4:0.0041836516 
1 2:0.082864157 4:0.0061943159 
-1 2:0.072091081 3:0.25676897 4:0.0092718469 
-1 2:0.063511095 3:0.27023809 4:0.0094543875 
-1 2:0.040295654 3:0.73329412 4:0.012512743 
-1 1:0.067431032 2:0.0018245836 5:0.00031660121 
-1 2:0.077133315 3:0.27419373 4:0.0099422783 
1 1:0.091436192 2:0.0027534937 5:0.0008083076 
-1 1:0.094653432 2:0.29322236 3:2.3413097 4:0.0074071289 5:0.0046013755 
1 1:0.1139397 2:0.34766356 3:2.4783419 4:0.0058537086 5:0.0092003736 
-1 1:0.1452811 2:0.12786704 3:1.835657 4:0.0057580931 
-1 2:0.30123204 5:0.010910751 
1 2:0.10404568 4:0.0050792405 
1 2:0.07944943 4:0.0093984235 
-1 2:0.050390732 4:0.012801646 
1 2:0.11199172 4:8.8724408e-05 
-1 2:0.078502728 4:0.0097394655 
1 2:0.084121438 4:0.0085143576 
1 2:0.070500071 4:0.010477674 
1 2:0.093204064 4:0.0069175367 
-0.2052241484781789 2:0.10280303 4:0.0056252367 
1 2:0.087470865 4:0.0082168083 
1 2:0.047026371 3:0.99924113 4:0.011443398 
1 2:0.059523887 3:0.86425367 4:0.0097486868 
-1 2:0.035570017 3:1.1601689 4:0.012900959 
1 2:0.061168016 3:0.74295006 4:0.0089321262 
1 2:0.024246935 3:1.277123 4:0.013857616 
-1 3:1.7473327 4:0.014980988 5:0.0013589298 
-1 2:0.055624443 3:0.86380856 4:0.010200104 
1 2:0.064822885 3:0.72375489 4:0.00798365 
1 2:0.060794653 3:0.80760839 4:0.009022346 
1 1:0.099226799 5:0.0044653432 
-1 2:0.057497462 3:0.83214919 4:0.0097718875 
1 2:0.0022870162 3:1.5847046 4:0.01498009 
1 2:0.062663975 3:0.72215709 4:0.0080662862 
1 2:0.052985264 3:0.88764506 4:0.010095392 
1 2:0.034130486 3:1.0379297 4:0.012279398 
1 2:0.044654035 3:0.99138462 4:0.011435376 
-1 2:0.074229317 3:0.45812507 4:0.0047856474 
1 2:0.074332863 3:0.40494719 4:0.0035882759 
1 3:1.4822617 4:0.014883063 
-1 2:0.077660762 3:0.5800409 4:0.0058520141 
1 2:0.051340022 3:0.86042432 4:0.0096848062 
1 2:0.043158982 3:0.97173328 4:0.011353819 
1 2:0.032961144 3:1.1340026 4:0.012661649 
-1 2:0.047463452 3:0.95891183 4:0.010883347 
-1 2:0.037343169 3:1.1219384 4:0.012281449 
1 2:0.030445582 3:1.1856731 4:0.012842139 
1 2:0.03658946 3:1.122137 4:0.01237354 
-1 2:0.057306169 3:0.80316376 4:0.0092030614 
-1 2:0.022795154 3:1.2912161 4:0.01370533 
1 2:0.030692466 3:1.2089175 4:0.013064884 
1 2:0.03057174 3:1.1795717 4:0.012856451 
-1 2:0.042323319 3:1.0134989 4:0.011754325 
1 2:0.035092077 3:1.1001042 4:0.012333669 
-1 2:0.051211909 3:0.84667051 4:0.010085001 
1 2:0.052237595 3:0.8967418 4:0.010084187 
1 2:0.040782031 3:1.0253465 4:0.011820543 
1 2:0.030483598 3:1.2039642 4:0.013169284 
-1 2:0.056734216 3:0.94689189 4:0.010442878 
1 2:0.034469229 3:1.1239116 4:0.012587297 
1 2:0.03165014 3:1.1990165 4:0.012935039 
-1 2:0.056992736 3:0.80881067 4:0.0095553869 
1 2:0.05757869 3:0.81438906 4:0.0088526526 
-1 2:0.079352904 3:0.26069927 4:0.0024993 
-1 2:0.071632274 3:0.5637799 4:0.0061811334 
1 2:0.038431317 3:1.0727284 4:0.011931971 
1 3:1.959174 4:0.014509259 5:0.0038331372 
1 2:0.046532142 3:1.0026669 4:0.011159903 
-1 2:0.0059807068 3:1.554917 4:0.014775476 
1 2:0.024420962 3:1.3642128 4:0.013693371 
0.3769393929554317 2:0.02677167 3:1.2438545 4:0.01322546 
1 2:0.05317008 3:0.94085979 4:0.009873432 
1 2:0.044264991 3:1.02826 4:0.011460582 
-1 2:0.052525828 3:0.79486226 4:0.0094391875 
1 2:0.042643405 3:1.0127455 4:0.01140204 
-1 2:0.058607029 3:0.80182161 4:0.0091059477 
1 2:0.061098079 3:0.72049607 4:0.0080785042 
1 2:0.016982974 3:1.3632787 4:0.014073732 
-1 3:2.1307267 4:0.013961231 5:0.0056117233 
-1 2:0.0068498831 3:0.85011684 4:0.012365565 
1 2:0.021504404 3:1.353786 4:0.013951704 
1 2:0.055613397 3:0.80368508 4:0.0085842643 
1 3:1.7954854 4:0.014944617 5:0.0013999436 
1 2:0.04749527 3:0.93466519 4:0.010484972 
1 2:0.051554372 3:0.85506889 4:0.0099902705 
-1 2:0.030385631 3:1.1313146 4:0.013047098 
-1 2:0.041915862 3:1.0247977 4:0.011509673 
1 2:0.0052225407 3:1.5349818 4:0.014808061 
1 2:0.051372078 3:0.8289617 4:0.0096184139 
1 2:0.05048459 3:0.90209239 4:0.010435915 
1 2:0.055077503 3:0.71678616 4:0.008413468 
1 2:0.04414034 3:0.99714292 4:0.011500967 
-1 2:0.051166773 3:0.89780962 4:0.010571276 
1 2:0.056602579 3:0.79542453 4:0.0094247517 
1 2:0.065738005 3:0.64590445 4:0.0075365635 
-1 2:0.03976825 3:1.0048385 4:0.011892586 
1 2:0.02363601 3:1.1471255 4:0.013167013 
-1 2:0.0576771 3:0.60131621 4:0.0076045046 
1 2:0.017481054 3:1.3615904 4:0.014216528 
1 2:0.056910504 3:0.79513497 4:0.0094462444 
1 2:0.027887811 3:1.144523 4:0.013213354 
1 1:0.030401107 5:0.014539058 
1 2:0.049608579 3:0.90244435 4:0.010357798 
1 2:0.063586038 3:0.44564755 4:0.005192553 
1 2:0.057390945 3:0.59912551 4:0.0071422537 
1 2:0.059529544 3:0.61110861 4:0.0073131066 
-1 3:1.4713925 4:0.01496424 
1 3:2.2070357 4:0.012610789 5:0.0081246967 
-1 2:0.052424251 3:0.75678097 4:0.0090016227 
1 3:1.9107759 4:0.014695478 5:0.0031011247 
1 2:0.045467602 3:1.0334838 4:0.011280886 
1 3:2.2421463 4:0.011892764 5:0.0092098389 
1 2:0.040478198 3:0.99335391 4:0.011244953 
-1 3:1.4970242 4:0.014929037 
1 2:0.063964385 3:0.39076339 4:0.0048068526 
1 3:1.9903883 4:0.013455296 5:0.0069607896 
-1 1:0.013612589 5:0.014921411 
-1 2:0.024110579 3:1.2859733 4:0.013821962 
1 1:0.066598028 2:0.0028291634 5:0.0005352825 
-1 1:0.060563705 2:0.0051755274 5:0.00020439283 
1 2:0.0029472371 3:1.2558078 4:0.014447169 
-1 3:1.5566475 4:0.01501752 
-1 2:0.079851331 3:0.43884694 4:0.0040136179 
1 2:0.050524993 3:0.91732372 4:0.010359206 
-1 2:0.017321133 3:1.3858373 4:0.014292334 
1 3:1.3654306 4:0.014922619 
-1 2:0.012967388 3:1.398346 4:0.014482263 
1 2:0.033996838 3:1.0975748 4:0.01227964 
-1 2:0.057048143 3:0.5577987 4:0.0075446145 
1 1:0.060920328 5:0.0084630708 
-1 3:2.5240275 4:0.0097884867 5:0.011389138 
1 2:0.018959891 3:0.92638069 4:0.012571627 
-1 1:0.044692574 2:0.049140667 
1 3:1.1276377 4:0.015182973 
1 1:0.017817455 2:0.068633871 
1 2:0.013234407 3:0.7059131 4:0.011703387 
-1 3:2.2277075 4:0.011421681 5:0.0097665015 
1 2:0.02418208 3:0.70052115 4:0.010233994 
-1 1:0.025078461 2:0.063494639 
1 2:0.01718176 3:1.1342187 4:0.01388497 
-1 3:1.6251071 4:0.015001716 5:0.00014790891 
-1 1:0.031823641 5:0.012367901 
-1 3:2.3217087 4:0.011174551 5:0.01001013 
1 3:2.0376862 4:0.013673851 5:0.0061781777 
-1 2:0.0073718425 3:1.2874293 4:0.014466406 
-1 1:0.019077095 2:0.057934464 
1 1:0.0066081733 2:0.028209106 3:0.96880329 4:0.010178285 
-1 1:0.029170746 2:0.027951067 
-1 3:1.6158175 4:0.015035639 
1 1:0.042305677 5:0.012648705 
1 2:0.0066887927 3:1.509536 4:0.014843873 
-1 3:1.757631 4:0.014435696 5:0.0044654143 
1 3:1.9073164 4:0.0141372 5:0.005068213 
1 2:0.040972997 3:1.0425538 4:0.011847576 
1 2:0.021961404 3:0.73895539 4:0.012288319 
-1 2:0.044819684 3:1.1732585 4:0.013268502 
-1 1:0.050140088 2:0.033157074 
1 1:0.071181157 2:0.017021603 
-1 2:0.0078866119 3:0.97316353 4:0.013745207 
1 3:1.558555 4:0.014986084 
1 3:1.4557838 4:0.015001989 
1 3:2.1007428 4:0.012965537 5:0.0075436523 
-1 2:0.044932155 3:0.97092905 4:0.01147694 
-1 1:0.0065730752 5:0.015064544 
-1 1:0.036964326 5:0.013325082 
1 3:1.9739446 4:0.013002956 5:0.0080842765 
-1 4:0.0013145923 5:0.015013441 
1 1:0.037365764 5:0.013371374 
1 3:1.7445351 4:0.014949513 5:0.0013781096 
1 2:0.037620933 3:1.0573393 4:0.012162278 
-1 1:0.049466138 2:0.047413209 
-1 2:0.01615086 3:1.3187037 4:0.014306231 
1 1:0.037413037 5:0.011666104 
-1 1:0.0045561085 4:0.00054162706 5:0.015010218 
1 3:1.3421177 4:0.014659413 
-1 3:1.7901514 4:0.014768239 5:0.0026676126 
-1 3:1.7627413 4:0.014695935 5:0.0031002334 
-1 1:0.032177048 2:0.044363915 
-1 3:2.2186145 4:0.01172798 5:0.0093522338 
-1 1:0.048621351 2:0.010691863 5:0.0010921926 
-1 1:0.05297416 5:0.0062735583 
-1 3:1.533739 4:0.015143692 5:0.0020157863 
-1 2:0.030562889 3:0.60931141 4:0.0098637089 
1 2:0.03759512 3:0.88307306 4:0.010455136 
-1 1:0.05787282 2:0.017891723 
-1 1:0.0079550316 5:0.015028357 
-1 1:0.038428285 2:0.039594132 
-1 2:0.0055226297 3:1.0313227 4:0.013944084 
-1 3:2.7731851 4:0.0061223793 5:0.013707932 
-1 2:0.036400465 3:0.58685786 4:0.0092666493 
-1 2:0.0057022924 3:1.7330364 4:0.015306666 
1 2:0.0057376789 3:0.88955496 4:0.011791214 
1 3:1.9608055 4:0.013640285 5:0.0062522198 
1 3:2.341467 4:0.011069064 5:0.010123272 
-1 1:0.053437455 2:0.0045857925 5:1.2749594e-05 
-1 3:1.9171427 4:0.014946921 5:0.0025560781 
-1 2:0.04511613 3:0.25652579 4:0.0050303789 
-1 1:0.053816442 5:0.0045021083 
-1 3:2.0984845 4:0.012826154 5:0.0077802657 
1 3:1.5294872 4:0.015137596 5:0.0023045235 
-1 2:0.054844966 
-1 3:2.41908 4:0.0093606033 5:0.011723749 
1 1:0.04180392 5:0.01271193 
-1 3:2.3769114 4:0.010532087 5:0.010681925 
-1 1:0.059018088 2:0.020297609 
-1 3:2.0487192 4:0.013684911 5:0.0061937715 
-1 1:0.025076589 5:0.014371149 
1 2:0.078671331 3:0.23414497 4:0.0031523931 
1 3:2.2250858 4:0.011787241 5:0.0092818354 
-1 1:0.056699358 2:0.0039165664 5:0.0018931393 
1 3:1.7158929 4:0.014491944 5:0.0048600003 
-1 3:2.1132275 4:0.014702359 5:0.0048020163 
-1 3:1.7443978 4:0.014777343 5:0.002612425 
1 3:3.0069524 4:0.0030318984 5:0.014737155 
1 3:2.812582 4:0.0074803562 5:0.013154169 
-1 2:0.003378059 3:1.9093702 4:0.015492686 5:0.0012103339 
1 3:2.2853986 4:0.011823348 5:0.0092322915 
1 3:2.420921 4:0.010828769 5:0.010408387 
-1 3:2.4583622 4:0.010620532 5:0.010669337 
1 3:1.8927474 4:0.014114311 5:0.0054206764 
1 1:0.068179371 2:0.011793364 
1 2:0.0028565849 3:1.2523717 4:0.014064099 
1 1:0.047014485 5:0.010510574 
-1 1:0.045768826 2:0.015561551 
1 1:0.061625775 2:0.0007546993 5:0.0017651609 
1 1:0.024884305 3:3.1301698 5:0.015071825 
1 3:2.066854 4:0.013955042 5:0.0055313252 
-1 3:2.1455073 4:0.012708254 5:0.0079942713 
-1 3:2.2993564 4:0.010782818 5:0.010530726 
-1 1:0.050918378 2:0.012493017 5:0.00071866263 
1 3:2.8681972 4:0.004262818 5:0.014393571 
1 3:1.8398322 4:0.014856052 5:0.0022972238 
-1 1:0.055398024 2:0.0060351172 5:0.0015705116 
1 1:0.051571493 5:0.011336247 
1 3:2.3272259 4:0.0098823192 5:0.011425895 
-1 3:2.0400817 4:0.011580717 5:0.010500135 
1 1:0.028338389 5:0.014025609 
1 1:0.0060097687 3:2.577521 4:0.0077240059 5:0.012875573 
-1 1:0.020459125 2:0.051620596 
-1 1:0.05701541 2:0.0099193602 
1 1:0.0010486146 2:0.072604747 
-1 1:0.047731598 2:0.010406577 5:0.0022454778 
-1 1:0.0078932529 5:0.015094458 
1 1:0.055232422 2:0.038110026 
1 1:0.052876039 2:0.020408175 
1 3:1.8074136 4:0.014627617 5:0.0034231374 
-1 2:0.016635728 3:0.88831116 4:0.012415678 
1 1:0.0038663868 4:1.1887922e-05 5:0.015054524 
-1 3:2.9296648 4:0.0048236515 5:0.014303845 
-1 2:0.067262986 3:0.051869389 4:0.0020688605 
1 1:0.03631344 5:0.012637934 
1 3:2.8914123 4:0.0038934241 5:0.014501161 
1 3:2.3245214 4:0.010732228 5:0.010501107 
1 1:0.060173022 2:0.030115971 
1 1:0.006263677 3:3.0485399 4:0.001263411 5:0.014949258 
-1 3:2.3083069 4:0.011691599 5:0.0095834383 
-1 1:0.0045204766 2:0.070074611 
1 1:0.034091094 5:0.013601997 
1 3:2.1025455 4:0.012389736 5:0.0084559447 
-1 1:0.045005095 2:0.034971455 
1 1:0.0036162984 3:2.9369973 4:0.0017589564 5:0.014900354 
-1 3:2.9269344 4:0.0020771516 5:0.014857374 
-1 1:0.029050549 5:0.014014313 
-1 1:0.04792079 2:0.052864074 
1 1:0.054276151 2:0.044498546 
1 1:0.0055381869 3:3.0087692 4:0.00068310888 5:0.014986648 
-1 1:0.050645901 2:0.043752909 
-1 1:0.036334676 5:0.01316257 
-1 1:0.061521532 2:0.0029593881 5:0.003683099 
-1 3:2.2581434 4:0.0075234572 5:0.013585653 
-1 1:0.05708094 5:0.010863957 
-1 3:2.2648787 4:0.0079268277 5:0.013600142 
-1 1:0.043520221 2:0.056409944 
-1 3:3.0275772 4:0.0027803472 5:0.015 
-1 3:2.418055 4:0.0095212705 5:0.011608813 
1 3:2.6127122 4:0.0057728103 5:0.013852988 
1 3:2.7686226 4:0.0045546582 5:0.014292646 
-1 1:0.027278372 5:0.014337526 
1 3:2.6284215 4:0.0066423491 5:0.013449294 
1 1:0.073983117 5:0.005205135 
1 1:0.054168377 5:0.00957519 
1 3:2.2964816 4:0.010380378 5:0.010849781 
-1 3:3.0391177 4:0.0036857285 5:0.015 
-1 1:0.025731081 5:0.014019518 
1 3:2.9062912 4:0.0026231148 5:0.01476895 
-1 3:2.409609 4:0.011721861 5:0.0098759748 
-1 2:0.037465573 3:1.2748389 4:0.013807551 
1 1:0.038330922 2:0.055375691 
-1 1:0.024514633 5:0.013974224 
1 3:1.3115201 4:0.015074905 
1 1:0.077295846 2:0.038929333 
1 3:1.3314353 4:0.015098433 5:0.00030365177 
1 3:2.4537556 4:0.007459969 5:0.013033168 
-1 1:0.01988634 5:0.014480335 
1 3:1.3158184 4:0.015200264 5:0.0003169945 
-1 3:2.9948034 4:0.00110592 5:0.015001713 
1 3:2.6984932 4:0.0048702368 5:0.014187616 
1 3:1.9138333 4:0.013581615 5:0.0064024444 
1 1:0.057866367 5:0.010874037 
-1 3:3.0485266 4:0.0027476927 5:0.015 
-1 3:1.0928516 4:0.015855534 5:0.00073607367 
1 1:0.044721527 5:0.011580587 
-1 1:0.040294082 2:0.048505926 
-1 1:0.073962609 
1 1:0.070489959 5:0.0062067214 
1 3:1.9147106 4:0.013424356 5:0.0067084882 
1 1:0.051372254 5:0.010907696 
1 1:0.069659842 2:0.023240291 
-1 3:1.7339959 4:0.014068564 5:0.0052698 
1 3:2.4382627 4:0.0085285068 5:0.012347451 
-1 3:2.5987651 4:0.0096911095 5:0.01205702 
-1 1:0.074094898 5:0.0038696145 
1 1:0.063752008 5:0.0084013688 
1 1:0.063027783 5:0.0083944986 
-1 1:0.033518309 5:0.013029199 
1 3:1.8263303 4:0.013652152 5:0.0062149778 
1 3:2.008477 4:0.012348286 5:0.0085194516 
1 3:2.2829646 4:0.010859322 5:0.010366269 
1 1:0.079416644 5:0.0032112107 
1 1:0.042095132 2:0.061062026 
-1 3:1.4364631 4:0.015017291 5:0.00065689576 
-1 1:0.0648109 2:0.00726982 5:0.0003925872 
1 1:0.077617213 5:0.001930094 
1 1:0.052290946 2:0.052321841 
-1 2:0.024759144 3:0.81003656 4:0.01271099 
-1 3:3.0849215 4:0.0036257997 5:0.015 
1 1:0.0072158384 5:0.015061206 
1 1:0.02880619 2:0.053048945 
1 2:0.071378353 3:0.56890572 4:0.0065026432 
1 2:0.039372555 3:0.66102791 4:0.0091702688 
1 3:2.2154044 4:0.013075247 5:0.0076435019 
-1 2:0.03933441 3:1.586888 4:0.015089431 
1 1:0.066660815 2:0.035493142 
1 1:0.0040162723 2:0.31332307 3:3.1183362 4:0.00071929292 5:0.010741561 
1 1:0.087337199 2:0.034633424 
-1 1:0.072404027 
-1 1:0.051266858 2:0.053725779 
1 3:3.1377082 4:0.0010738945 5:0.015 
1 1:0.087930482 5:0.0019665974 
-1 1:0.040457119 3:0.258429 4:0.0031504296 
-1 1:0.070584991 3:0.30513233 4:0.0026366651 
-1 1:0.30971899 3:1.4624102 4:0.0090169341 
-1 1:0.30991259 3:1.4612955 4:0.0089306117 
-1 1:0.13327653 2:0.065553044 
-1 1:0.14381685 2:0.038714556 5:0.0010366048 
-1 1:0.14757789 2:0.027927591 5:0.0021796631 
-1 1:0.13046961 2:0.071599962 
-1 1:0.10017438 2:0.11149252 
-1 1:0.11957802 2:0.092307879 
-1 1:0.11973401 2:0.085296184 
1 3:1.209777 4:0.012368434 5:0.011129378 
-1 1:0.11466312 2:0.08557486 
-1 4:0.014541225 5:0.0083316298 
1 1:0.011105885 3:0.82015773 5:0.015262905 
-1 3:0.30724652 4:0.0079622345 5:0.015674408 
1 1:0.040960302 3:0.85171469 5:0.015247936 
1 1:0.075621265 2:0.040726406 3:2.5048055 
1 4:0.01282459 5:0.0077817788 
1 1:0.076937113 2:0.025844839 3:2.1569084 
-1 1:0.068252121 2:0.02145691 3:2.1471332 
-1 1:0.026108061 3:0.63148262 5:0.0154364 
-1 1:0.064007838 3:1.4103322 5:0.0089455075 
-1 1:0.075137585 2:0.0055640036 3:1.8077111 5:0.0035189062 
-1 4:0.015247658 5:0.0009177557 
1 1:0.042254798 2:0.051359572 3:2.770203 
1 1:0.051971625 3:0.87506868 5:0.013913822 
1 1:0.06587604 3:1.588382 5:0.0079460642 
1 4:0.01478223 
-1 1:0.069323712 2:0.00018658233 3:1.7349978 5:0.0044823982 
1 1:0.0012369974 2:0.075298642 
-1 1:0.068388962 3:1.785056 5:0.0053288615 
-1 1:0.073016171 3:1.5747814 5:0.0065641405 
1 1:0.064250662 3:1.0959524 5:0.011533711 
1 2:0.020284964 4:0.012351814 
1 1:0.055722771 3:0.87830078 5:0.013049741 
-1 1:0.060465538 3:1.3787065 5:0.00859304 
1 1:0.0061954572 3:0.23687734 4:0.0024050037 5:0.01525216 
1 1:0.024816421 2:0.00034708777 
1 1:0.052939094 3:0.70314958 5:0.01360462 
1 1:0.048229374 3:0.87811169 5:0.013335311 
-1 1:0.048992835 2:0.037948841 3:2.2654406 
-1 1:0.052778251 3:1.1601478 5:0.011070969 
1 1:0.058649017 3:1.0046786 5:0.012031373 
-1 4:0.0073137705 5:0.013369173 
1 1:0.0042772032 3:0.033375263 4:0.0039593254 5:0.014597976 
-1 3:0.11274434 4:0.0040870616 5:0.014807604 
-1 1:0.019361533 2:0.061686041 3:2.891183 
1 1:0.073371817 3:1.9361034 5:0.0068763418 
-1 1:0.018563449 3:0.58345753 5:0.015404384 
1 4:0.01519141 5:0.0020947757 
-1 1:0.0074838304 3:0.52827357 5:0.015874584 
-1 1:0.018570195 3:0.4768594 5:0.015316785 
1 1:0.094157629 2:0.0019964365 3:0.84820763 5:0.0087909845 
1 1:0.092140291 2:0.082468395 3:2.4829832 
-1 4:0.01061727 5:0.013138664 
-1 1:0.065591032 2:0.012657312 3:1.846734 5:0.00089307182 
1 1:0.056293646 3:0.37708303 5:0.014380229 
-1 4:0.0063732141 5:0.013584528 
1 1:0.058345093 2:0.047595789 3:1.809571 
1 1:0.059428141 3:2.414781 
1 1:0.03784908 3:0.36464052 5:0.014747206 
-1 1:0.056208621 2:0.017049238 3:2.0922765 
-1 1:0.040597822 3:0.79005616 5:0.014181008 
1 1:0.073426807 3:1.1802366 5:0.010943172 
1 4:0.014825122 5:0.0070090646 
1 1:0.079097862 3:1.8287448 5:0.0081998634 
-1 1:0.045226036 3:0.9901252 5:0.01239033 
1 1:0.061537809 3:0.21434639 5:0.014867983 
-1 4:0.007630321 5:0.012918838 
-1 1:0.050994171 3:0.24192411 5:0.014700884 
1 1:0.061428291 3:0.2435053 5:0.014616932 
1 4:0.015032176 5:0.0021362975 
-1 1:0.074691456 3:1.5400026 5:0.0089178066 
1 1:0.054684616 3:0.97333469 5:0.015894488 
-1 1:0.03778265 3:1.1694364 5:0.010107544 
-1 3:0.11265076 4:0.0036936533 5:0.014892995 
1 4:0.0040407462 5:0.014512072 
1 1:0.059764335 2:0.024575593 3:2.1273378 
-1 1:0.062523907 3:1.6797808 5:0.0029707707 
-1 1:0.050532213 2:0.04329551 3:2.439544 
-1 4:0.0081009457 5:0.01312262 
1 1:0.016731825 3:0.34617941 5:0.015045978 
1 1:0.011284892 3:0.38211378 5:0.015266967 
1 4:0.0082804987 5:0.012920299 
1 1:0.060936309 3:1.1449265 5:0.010906408 
-1 4:0.0087884209 5:0.012523051 
-1 2:0.030402362 4:0.012109721 
1 1:0.036291291 3:0.71701331 5:0.012284841 
1 1:0.04237914 3:0.95182887 5:0.012254302 
-1 1:0.030679257 3:1.0333127 5:0.012467876 
-1 1:0.036103555 3:0.96233112 5:0.017033042 
-1 4:0.0075665724 5:0.01330527 
1 4:0.014463778 5:0.0047403685 
1 1:0.040011604 3:0.9078051 5:0.012402592 
-1 1:0.0060284342 3:0.57849758 5:0.014563676 
1 1:0.034278839 3:0.87872826 5:0.012804561 
-1 1:0.048432697 3:1.5072614 5:0.010877732 
-1 3:0.44674322 4:0.0035767572 5:0.017180267 
-1 2:0.09148338 4:0.0052029976 
-1 2:0.077490515 4:0.0041434257 
1 1:0.032857951 3:1.4940468 5:0.0089561387 
-1 1:0.032569734 3:0.75803284 5:0.011088286 
-1 1:0.051352387 2:0.012957792 3:1.1943547 5:0.004639267 
1 1:0.0075424305 3:0.50176096 5:0.015708728 
1 4:0.013519325 5:0.0090036228 
-1 4:0.0067545323 5:0.014160456 
1 1:0.057877654 2:0.021745502 3:0.9089509 5:0.007115318 
-1 2:0.041545739 4:0.00060543191 
-1 2:0.011878338 4:0.017049762 5:0.00067224397 
-1 4:0.010308376 5:0.012389609 
1 2:0.041753539 4:0.010515226 
1 1:0.054455588 3:1.2140876 5:0.007354521 
-1 1:0.020367117 2:0.043371177 3:2.6879544 
1 1:0.045051052 3:0.67551912 5:0.012767232 
1 1:0.0064131051 3:0.65242322 5:0.013872712 
1 1:0.056669483 3:2.3773841 
1 1:0.023078104 2:0.004400542 3:0.90525494 5:0.009887337 
-1 1:0.0035423757 3:1.8673612 
1 4:0.012535723 5:0.0086821713 
1 2:0.029468541 4:0.014852794 
1 4:0.010977361 5:0.010672242 
-1 1:0.041824927 3:0.93683696 5:0.014274697 
1 4:0.0042051493 5:0.014401079 
-1 3:0.42720636 5:0.015146778 
1 1:0.03867705 2:0.041083816 3:2.6172842 
-1 2:0.010211028 4:0.014873153 
1 2:0.001498035 4:0.011417913 5:0.010897842 
1 1:0.073707348 3:1.8086521 5:0.007308307 
-1 3:0.136976 4:0.005746803 5:0.014743898 
1 1:0.041292497 2:0.017294956 3:1.4239375 5:0.0027899343 
1 1:0.038490517 2:0.015193384 3:1.4093812 5:0.0031869599 
-1 2:0.016047598 4:0.015040489 5:0.0058109753 
1 2:0.01138354 3:0.27765375 5:0.01500089 
1 4:0.014310271 5:0.006523387 
-1 2:0.018160669 4:0.015393463 
-1 4:0.013808016 5:0.0067580189 
-1 1:0.050777256 2:0.011853725 3:1.6027817 5:0.00070572449 
1 1:0.072152684 2:0.048232429 3:2.5242905 
1 2:0.042882492 4:0.011539551 
-1 2:0.053227673 4:0.01263553 
1 2:0.053533684 4:0.0029281075 
-1 1:0.016023648 2:0.053058996 3:3.0178928 
1 3:0.1441439 4:0.0024579046 5:0.014925495 
1 4:0.014679555 5:0.0046766142 
-1 4:0.010675965 5:0.010539154 
1 2:0.0051769782 4:0.012359427 5:0.0095292378 
-1 4:0.0095598933 5:0.012747121 
-1 4:0.014905186 5:0.0034820903 
-1 1:0.051178009 2:0.028932145 3:1.9909853 
1 2:0.054333659 4:0.0091462866 
1 1:0.051677231 3:1.4897577 5:0.007125512 
1 4:0.013447025 5:0.0073486093 
1 1:0.024252557 3:0.85658008 5:0.013214359 
1 1:0.0059901229 2:0.036156185 4:0.006229776 
-1 1:0.046338463 2:0.059646367 3:2.293144 
-1 2:0.059483156 
-1 3:0.60292495 5:0.015854045 
-1 1:0.033354393 3:1.1013123 5:0.011685974 
1 1:0.042536127 2:0.04406101 3:2.618967 
-1 4:0.006724769 5:0.013414358 
-1 2:0.01445076 3:0.20823522 4:0.0014944591 5:0.015003658 
1 1:0.060013924 2:0.015635546 3:1.8241741 
-1 2:0.039223763 4:0.007671622 
-1 1:0.057451492 2:0.0061804068 3:1.8975364 
1 1:0.071905009 2:0.017386123 3:2.2603666 
0.6638563063513669 1:0.023056961 2:0.05411442 3:2.8821217 
1 1:0.0052964533 2:0.058305725 
1 1:0.0073670268 2:0.059378443 
-1 1:0.028551027 2:0.052221697 3:2.8231569 
1 1:0.033891683 2:0.077334394 
1 1:0.028177243 2:0.053051659 3:2.8339684 
-1 1:0.02541651 2:0.056359593 3:2.9067349 
1 2:0.040775404 4:0.015439236 
1 2:0.061188872 
-1 4:0.0073055204 5:0.013100824 
1 2:0.058971605 4:0.0021544229 
-1 2:0.059834684 
-1 1:0.055320767 3:1.7247563 5:0.0019794447 
1 2:0.059335212 
1 1:0.014325512 2:0.057908127 3:3.1151589 
-1 1:0.015815088 2:0.057340503 3:3.1095044 
1 1:0.048527056 2:0.027093101 3:2.5199554 
-1 2:0.061190475 4:0.00041864574 
1 1:0.0038581768 2:0.059595446 
1 1:0.002222765 2:0.059255363 
-1 1:0.0072909963 2:0.060911724 
1 1:0.046786843 2:0.036382781 3:2.6959762 
-1 1:0.014975939 3:0.82348834 5:0.013034849 
-1 1:0.035566131 3:1.3482797 5:0.0073687182 
-1 1:0.025596269 3:0.91924944 5:0.012415468 
1 1:0.0051714551 2:0.060526042 
1 1:0.011526077 3:0.48526045 5:0.014611325 
1 1:0.0095994435 3:0.44593157 5:0.014688225 
-1 1:0.032532293 3:1.0546591 5:0.011301304 
1 1:0.015730146 3:0.58991301 5:0.014217855 
-1 1:0.035856973 3:1.3061659 5:0.007307392 
1 1:0.014268922 3:0.53807466 5:0.014403513 
1 1:0.0066181324 3:0.43470656 5:0.014796534 
-1 3:0.12983653 4:0.0046778619 5:0.014292932 
1 1:0.01243361 3:0.49514752 5:0.014483834 
-1 1:0.0043927926 3:0.71500607 5:0.014528612 
1 1:0.026015319 3:0.57444106 5:0.012715198 
-1 1:0.0064489302 3:0.4124326 5:0.014678791 
1 2:0.032037151 4:0.014839029 
-1 2:0.050008396 4:0.0141284 
-1 2:0.052526039 4:0.014016527 
1 2:0.007718287 4:0.014867351 5:0.0020004578 
1 2:0.042977571 4:0.014465306 
-1 2:0.065697625 4:0.013061882 
1 2:0.099131294 4:0.0050104504 
-1 2:0.068789379 4:0.012564075 
1 2:0.039033355 4:0.014634217 
1 2:0.10233445 4:0.005236516 
1 2:0.028509039 3:2.3048607 4:0.015634946 
1 2:0.043598173 3:2.18667 4:0.014614169 
1 2:0.032633235 3:2.2630845 4:0.015426162 
0.640386403568824 2:0.040784522 3:2.2074266 4:0.014877744 
1 2:0.03659368 3:2.1604715 4:0.015176896 
1 2:0.037433214 3:2.2874415 4:0.015086833 
-1 2:0.043003822 3:2.1733507 4:0.014627702 
1 2:0.021594131 3:2.4025042 4:0.015631479 
-1 2:0.058734008 3:2.0537101 4:0.012905211 
1 2:0.060205854 3:1.8673947 4:0.011657501 
1 2:0.032871996 3:2.2517385 4:0.015248604 
1 2:0.02838478 3:2.4693341 4:0.015429195 
-1 2:0.035794794 3:2.2344541 4:0.015015166 
1 2:0.060700388 3:1.8975587 4:0.011449216 
1 2:0.028043692 3:2.3130289 4:0.01543161 
1 2:0.02439824 3:2.50401 4:0.015516769 
1 2:0.031912519 3:2.2934325 4:0.015163963 
1 2:0.032837366 3:2.2592033 4:0.015070083 
-1 2:0.033068106 3:2.2996578 4:0.015093589 
1 2:0.065269257 3:1.9024421 4:0.010382918 
1 2:0.031480973 3:2.3005945 4:0.015131202 
1 2:0.031758132 3:2.3971716 4:0.015102074 
-1 2:0.034117379 3:2.3928243 4:0.014959154 
1 2:0.069488112 3:1.6516485 4:0.0090097813 
1 2:0.067200909 3:1.7990047 4:0.00911197 
1 2:0.047586931 3:2.0279534 4:0.013694186 
1 2:0.040506437 3:2.2496493 4:0.014442163 
1 2:0.042235598 3:2.1057275 4:0.014279751 
-1 2:0.036686258 3:2.3268338 4:0.014721441 
1 2:0.063499124 3:1.8121361 4:0.010478305 
-1 2:0.023761661 3:2.6218641 4:0.01520492 
1 2:0.061519021 3:1.9194481 4:0.010853918 
1 2:0.03795923 3:2.3467171 4:0.014565329 
1 2:0.042152306 3:2.2042686 4:0.014153233 
-1 2:0.034888684 3:2.2666446 4:0.014761566 
-1 1:0.056169533 2:0.020911912 3:0.19121479 
1 2:0.0670977 3:1.7782124 4:0.0088780611 
-1 2:0.050065753 3:2.0853355 4:0.013147583 
1 2:0.070372292 3:1.620748 4:0.0062790284 
1 2:0.055827307 3:1.9457218 4:0.012141231 
1 2:0.056413767 3:1.9871388 4:0.011943258 
-1 2:0.054728584 3:1.9487175 4:0.012249753 
1 2:0.068392189 3:1.8223162 4:0.008755253 
-1 1:0.016330358 2:0.068462897 3:1.1456656 4:0.0011496004 
1 1:0.00090165866 2:0.071260867 3:1.4692386 4:0.0049593483 
-1 2:0.054977184 3:2.0495205 4:0.012218525 
1 2:0.072843153 3:1.6511186 4:0.0063231564 
-1 2:0.052618052 3:1.9443028 4:0.012581605 
-1 2:0.049472419 3:2.0977257 4:0.013047721 
-1 1:0.065090467 2:0.0037478069 
-1 4:0.011661307 5:0.0095971247 
1 2:0.06434496 3:1.6276299 4:0.0087213544 
1 2:0.055812382 3:1.8704653 4:0.011752876 
-1 2:0.058016967 3:2.0072939 4:0.011476299 
1 1:0.072183701 2:0.019580046 3:0.065542591 
1 2:0.050518897 3:1.9914163 4:0.013032888 
1 2:0.049026312 3:2.157614 4:0.013104411 
1 2:0.042503066 3:2.2817731 4:0.013969686 
-1 2:0.045107942 3:2.1420938 4:0.013575016 
1 1:0.057247304 2:0.045909426 3:0.42267823 
-1 1:0.047409067 5:0.0085761111 
1 5:0.015 
1 5:0.015 
1 1:0.050013067 2:0.057133964 3:0.60363718 
1 2:0.042514092 3:2.1396774 4:0.013921786 
1 2:0.055156296 3:2.0559419 4:0.012113636 
1 2:0.052964363 3:1.9449495 4:0.012525921 
-1 2:0.055901131 3:2.0094201 4:0.011890768 
1 4:0.0094089538 5:0.011915204 
-1 2:0.050794898 3:2.1465829 4:0.012936924 
1 4:0.0077785198 5:0.012931413 
-1 2:0.044960414 3:2.0365977 4:0.013659393 
1 4:0.0062646855 5:0.013824936 
1 2:0.051442107 3:2.0708335 4:0.012766699 
-1 2:0.049185115 3:2.0326758 4:0.013132074 
1 4:0.0088120115 5:0.012280284 
1 2:0.052702706 3:1.941813 4:0.012580979 
-1 2:0.054290966 3:1.9606962 4:0.012410953 
1 4:0.0071505485 5:0.013400581 
1 4:0.0079856853 5:0.012824973 
-1 2:0.052120812 3:1.9931286 4:0.012697995 
1 4:0.011294402 5:0.010022632 
-1 2:0.053206949 3:1.9669688 4:0.012425316 
1 4:0.0072252342 5:0.013315721 
-1 4:0.01338371 5:0.0069702987 
1 4:0.0025096129 5:0.015014257 
1 4:0.0096727254 5:0.011557983 
1 4:0.0090009633 5:0.012104695 
1 4:0.0097385787 5:0.011462206 
-1 2:0.041379007 3:2.2121745 4:0.01402027 
1 4:0.0058451355 5:0.013937152 
1 4:0.0093956876 5:0.011751118 
-1 2:0.053990268 3:1.9531679 4:0.012453385 
1 3:2.9663608 4:0.013576458 5:0.0065401286 
-1 2:0.046705575 3:2.2432349 4:0.013418451 
1 4:0.010347092 5:0.010973373 
-1 2:0.050917084 3:2.1500866 4:0.012830036 
1 1:0.066226286 
1 4:0.009532943 5:0.011682784 
-1 2:0.053563722 3:1.9418049 4:0.012399281 
-1 4:0.0091048315 5:0.01196398 
1 4:0.0091869861 5:0.011959288 
1 3:2.9953547 4:0.013613828 5:0.0064232377 
-1 2:0.051069904 3:1.9246499 4:0.012877147 
1 2:0.033642757 3:2.4365667 4:0.014764619 
1 2:0.041025921 3:2.4837516 4:0.014231072 
1 4:0.0097854072 5:0.011446769 
-1 2:0.05024832 3:2.1463502 4:0.012906805 
1 3:3.0493521 4:0.012516455 5:0.0083185261 
1 4:0.0076494319 5:0.012990294 
1 2:0.047797669 3:2.2358653 4:0.013317661 
-1 2:0.051624735 3:1.9501723 4:0.012748633 
1 4:0.00817208 5:0.012618887 
-1 2:0.050336092 3:2.1369459 4:0.012980791 
1 4:0.010725432 5:0.010557603 
1 4:0.01043384 5:0.010837414 
1 1:0.018723923 5:0.013405542 
1 4:0.0066755214 5:0.013470077 
-1 2:0.055525153 3:1.989991 4:0.012139418 
1 4:0.010573417 5:0.010700776 
1 4:0.0031027314 5:0.014747353 
1 4:0.0092495113 5:0.011836589 
1 2:0.051054427 3:2.0291382 4:0.01297783 
-1 2:0.048621314 3:2.0789865 4:0.01337119 
-1 1:0.07161715 2:0.0074857998 
-1 5:0.015 
1 5:0.015 
1 2:0.050937726 3:2.0870086 4:0.013065443 
1 2:0.058014117 3:1.8632188 4:0.011790238 
-1 2:0.045804949 3:2.1196927 4:0.013688049 
1 2:0.063434883 3:2.082574 4:0.011251384 
-1 2:0.050861434 3:2.039156 4:0.013230588 
1 4:0.0091263057 5:0.011923189 
1 2:0.047531284 3:2.1080388 4:0.013637725 
1 2:0.047306568 3:2.1918735 4:0.013617209 
1 2:0.047083976 3:2.22514 4:0.013670523 
-1 2:0.048714796 3:2.1540911 4:0.013478108 
1 2:0.032918091 3:2.2785648 4:0.014751573 
-1 2:0.056398085 3:1.9979866 4:0.012347362 
1 2:0.0093640986 3:2.6913076 4:0.014759938 5:0.0026762846 
-1 2:0.053204514 3:2.1482118 4:0.012929019 
1 2:0.027901569 3:2.4448111 4:0.014929373 
-1 2:0.055309058 3:2.0743921 4:0.012558794 
1 2:0.069602436 3:1.7583411 4:0.0098871929 
1 2:0.055291052 3:1.9440129 4:0.012558616 
-1 2:0.05486584 3:2.0671263 4:0.012643193 
1 4:0.012175623 5:0.0088007377 
-1 2:0.051819623 3:2.1857274 4:0.013163102 
1 2:0.010387538 3:2.8138802 4:0.014541099 5:0.0037091049 
-1 2:0.051809923 3:2.141382 4:0.013150772 
1 3:3.0310813 4:0.013479209 5:0.0065823549 
1 2:0.046324284 3:2.2669166 4:0.013894076 
1 2:0.051376624 3:2.0137957 4:0.013227707 
-1 2:0.055203105 3:1.9543318 4:0.012750157 
1 2:0.057924296 3:2.0184098 4:0.012520095 
-1 2:0.054024055 3:2.1120222 4:0.012938075 
-1 2:0.030904648 3:2.5738114 4:0.014887459 
1 2:0.007895818 3:2.7779693 4:0.014690306 5:0.0030393996 
-1 2:0.055035629 3:2.1022014 4:0.012957745 
1 2:0.055276276 3:2.011044 4:0.012866821 
1 2:0.054337816 3:2.0296653 4:0.013042075 
-1 2:0.05329007 3:2.0258331 4:0.013229795 
1 2:0.058879046 3:2.0712103 4:0.012310832 
-1 2:0.030068376 3:2.4372325 4:0.014924157 
1 2:0.034226782 3:2.5391763 4:0.014685667 
1 2:0.050498589 3:2.1842695 4:0.013565945 
-1 2:0.055901126 3:1.9656075 4:0.012838201 
1 4:0.0029143977 5:0.014293811 
-1 2:0.040703085 3:2.3842506 4:0.014494871 
1 2:0.0016178987 3:2.8481617 4:0.013043471 5:0.0045041994 
1 4:0.003383641 5:0.01459718 
1 2:0.013221433 3:2.8272027 4:0.013640595 5:0.0018799986 
1 1:0.00035245639 5:0.013661492 
-1 2:0.041022753 3:2.2658852 4:0.014499959 
1 2:0.06628572 3:1.6371691 4:0.0083497076 
1 2:0.013624974 3:2.6166896 4:0.013998529 5:0.0015362357 
-1 2:0.051816771 3:2.0804553 4:0.013600766 
1 1:0.065496222 5:0.0023511082 
1 5:0.012880761 
1 3:2.8972298 4:0.012615293 5:0.0051889682 
-1 2:0.05380551 3:2.0797591 4:0.013119272 
1 4:0.010383756 5:0.008500879 
1 2:0.04495294 3:2.2490469 4:0.011139561 
-1 4:0.009290895 5:0.009343349 
1 4:0.008768274 5:0.0066414324 
-1 2:0.060881446 3:1.8649267 4:0.009868634 
1 3:2.9498259 4:0.010361429 5:0.0057811094 
-1 2:0.058223573 3:2.0799735 4:0.011728552 
1 5:0.01248769 
1 1:0.056221282 2:0.045764725 3:0.72192603 
-1 1:0.056730436 2:0.052491084 3:0.58890202 
1 1:0.038896534 5:0.0068459859 
1 2:0.073439791 3:1.5143192 4:0.0051586473 
1 2:0.017459946 3:2.7224013 4:0.009951588 5:0.0011254105 
1 1:0.045818923 2:0.055675389 3:0.91441717 
1 2:0.069456982 3:1.4393273 4:0.005080136 
1 2:0.060692975 3:1.9431113 4:0.0083499584 
-1 2:0.061937386 3:1.9901925 4:0.009860183 
1 1:0.1586652 2:0.013156176 5:0.0075895079 
1 1:0.12713808 2:0.080345771 
-1 1:0.11636033 2:0.088208089 
1 1:0.10987816 2:0.10562846 
-1 1:0.13782782 2:0.049194189 5:0.0028759269 
-1 1:0.1320102 2:0.066493629 5:0.00061171502 
-1 1:0.14504023 5:0.013836835 
-1 1:0.15226422 2:0.042042318 5:0.0041798648 
1 1:0.15631508 5:0.011102684 
-1 1:0.068373717 2:0.044920293 3:2.8964737 
-1 1:0.073126893 3:1.7495897 5:0.015740842 
1 1:0.083098031 2:0.013657651 3:2.4524637 5:0.0053108911 
-1 1:0.06411892 2:0.039898274 3:2.7741563 
-1 1:0.046368136 3:1.3817389 5:0.018223949 
-1 1:0.057006992 3:1.5716034 5:0.01697221 
-1 1:0.048383729 2:0.055864915 3:3.0669667 
-1 1:0.044947958 3:1.4017971 5:0.017673157 
-1 1:0.016901578 2:0.079682842 
-1 1:0.015890459 2:0.066988937 
1 1:0.062796355 3:1.6429295 5:0.015215223 
-1 1:0.048709218 2:0.04537161 3:2.9027065 
-1 1:0.051943469 3:1.5549969 5:0.016068565 
1 1:0.052648528 2:0.048869267 3:2.8912909 
1 1:0.045329087 2:0.039629743 3:2.8912744 
-1 1:0.024037031 2:0.057893062 
1 1:0.053550118 2:0.044555608 3:2.8812931 
-1 1:0.041967934 2:0.036895689 3:2.8350198 
1 1:0.030506624 2:0.053920197 
-1 1:0.035308345 2:0.041702102 3:2.8381534 
-1 1:0.045872658 2:0.049943192 3:2.9641755 
1 1:0.071078337 2:0.04226726 3:2.8478234 
1 1:0.004060452 2:0.076581823 
-1 1:0.055711234 2:0.038577901 3:2.4521445 5:0.00034088872 
-1 1:0.025263023 2:0.064973457 
1 1:0.035291729 2:0.063415132 
-1 2:0.072102883 
1 1:0.038347496 2:0.055514783 3:3.0193377 
-1 1:0.042754928 3:0.98228196 5:0.015945568 
1 1:0.071360593 3:1.3307359 5:0.013574483 
1 2:0.0589187 4:0.0026900936 
1 1:0.037786206 3:0.45711671 4:0.0038580845 5:0.014725562 
1 4:0.014719723 
-1 1:0.0019832709 2:0.071521508 
1 1:0.06323206 2:0.041819961 3:2.6339264 
1 1:0.046951779 2:0.047088812 3:2.8174394 
-1 1:0.0048649731 2:0.067875489 
-1 2:0.075631422 4:0.00623226 
-1 4:0.01616245 5:0.0027450508 
-1 1:0.00034815841 3:0.4792986 4:0.0073071728 5:0.014359373 
-1 1:0.067277573 3:1.9045476 5:0.0085347376 
1 1:0.071302953 3:1.4275151 5:0.013729285 
-1 1:0.027454753 2:0.05423035 3:3.021794 
1 1:0.034630883 2:0.059031304 3:3.0160052 
-1 1:0.019008519 3:0.77832087 4:0.0028955678 5:0.015756927 
-1 1:0.0061082524 2:0.070161117 
1 2:0.0091817597 4:0.012560361 
1 1:0.060744106 2:0.038756433 3:2.6065379 
-1 3:0.052508159 4:0.013615251 5:0.008876934 
-1 1:0.04178773 3:1.3743803 5:0.014901459 
-1 4:0.013042718 5:0.0090671491 
1 3:0.083507335 4:0.010934793 5:0.010938893 
1 1:0.030916031 2:0.059170075 
-1 1:0.032693419 2:0.055717707 3:2.8400972 
-1 3:0.27978168 4:0.010024906 5:0.012233251 
1 1:0.039126254 3:1.0176393 5:0.015548677 
-1 1:0.0683102 2:0.0010168478 3:1.9939566 5:0.0071052721 
-1 4:0.015106432 
1 4:0.014878844 
-1 3:0.0066621813 4:0.013117727 5:0.0090095679 
-1 1:0.027623192 2:0.060553024 3:2.958689 
-1 3:0.48359523 4:0.0073626863 5:0.014141929 
-1 2:0.068768781 
-1 4:0.014954665 
1 1:0.062595545 3:1.4846756 5:0.012499379 
-1 1:0.069940642 2:0.010272936 3:2.1962939 5:0.0049415511 
1 1:0.062234243 2:0.039556479 3:2.665354 
-1 1:0.038872332 2:0.037584581 3:2.7144734 
1 1:0.050745346 3:1.5942846 5:0.013257678 
1 4:0.014979737 5:0.0042225013 
1 1:0.0049012242 3:0.31341713 4:0.0071389627 5:0.013427948 
1 4:0.015117876 
1 1:0.048896721 2:0.05370447 3:2.7700528 
-1 1:0.019395573 2:0.061500379 3:3.0318445 
1 1:0.026443263 3:0.66344866 4:0.0017486391 5:0.015157836 
1 4:0.014529941 5:0.0059359999 
1 1:0.026967687 2:0.064480641 
1 4:0.015222299 5:0.0012531295 
1 1:0.031936588 2:0.054935624 3:2.7560115 
-1 1:0.021720261 2:0.062048794 3:2.9801038 
-1 3:0.03025597 4:0.012274008 5:0.0098238919 
1 1:0.019841526 2:0.067070826 3:3.1024404 
-1 1:0.024069196 2:0.060448567 3:2.9665243 
-1 1:0.050124129 2:0.032515845 3:2.5199801 
-1 1:0.018623231 2:0.068309452 
-1 1:0.061940017 3:1.8966194 5:0.0084173745 
-1 1:0.054309341 2:0.042301505 3:2.5523804 
-1 4:0.013240782 5:0.0082172763 
1 4:0.015136923 5:0.0022574198 
-1 3:0.10711416 4:0.0087660257 5:0.012363046 
1 4:0.010989445 5:0.010340456 
1 3:0.13219487 4:0.0097213133 5:0.011947345 
-1 3:0.063780292 4:0.010099057 5:0.011554731 
1 1:0.02567267 2:0.061371092 3:2.9258736 
1 4:0.010869233 5:0.010477044 
1 4:0.014920703 
1 1:0.031654548 2:0.046590963 3:2.9841501 
1 4:0.015346616 5:0.00035210781 
-1 2:0.069013799 
1 1:0.075424412 3:1.9259251 5:0.006542364 
1 1:0.060732361 2:0.033679179 3:2.4396776 
1 1:0.048702599 3:1.5414239 5:0.010215819 
1 4:0.014112767 5:0.0054965701 
1 2:0.061096702 
1 4:0.014380487 5:0.004915321 
1 2:0.062644549 
1 4:0.01474937 5:0.0033450459 
-1 2:0.068738526 
1 1:0.075859326 2:0.027676085 3:2.4280978 
1 2:0.062986319 
1 1:0.029379008 2:0.052753698 3:2.6362456 
1 4:0.013610869 5:0.006314758 
1 1:0.038288593 2:0.056730644 3:2.9228616 
-1 1:0.019776239 3:0.52243357 4:0.0024992312 5:0.014881986 
1 1:0.020485157 3:0.19223047 4:0.00515816 5:0.014087445 
1 2:0.01205882 4:0.010889428 
-1 1:0.070172253 2:0.015827002 3:2.1906309 5:0.0014058129 
1 1:0.038241204 3:0.7704336 5:0.014980987 
1 1:0.04849337 2:0.070266287 3:2.9798566 
-1 3:0.19534337 4:0.0082177267 5:0.013256913 
-1 1:0.011324383 2:0.067779705 3:2.9766616 
1 1:0.012297066 2:0.067111498 3:3.0829735 
-1 1:0.021432125 2:0.059225697 3:2.8314471 
-1 1:0.045031474 3:1.4338058 5:0.01182641 
1 1:0.035572341 3:0.94520426 5:0.015051511 
-1 4:0.014586287 5:0.0047871803 
1 1:0.0075151393 2:0.067260226 3:3.09175 
-1 1:0.0023120631 2:0.065971026 3:3.126093 
1 4:0.0096164017 5:0.011720038 
-1 2:0.024937194 4:0.011775356 
1 2:0.051983874 4:0.00371874 
-1 1:0.048728621 2:0.011374339 3:2.0577394 5:0.0025118306 
-1 1:0.069599516 3:1.8895941 5:0.0056591103 
1 2:0.03431933 4:0.011154662 
1 2:0.048615294 4:0.0084311894 
1 1:0.038386563 3:0.68033071 5:0.014947869 
-1 1:0.017486653 3:0.81688568 5:0.015479658 
-1 2:0.065128962 
1 1:0.042665495 3:0.75352573 5:0.014833941 
1 4:0.015092416 5:0.00069555144 
-1 2:0.067110839 4:0.0029074462 
1 2:0.032059619 4:0.0098644339 
1 1:0.0057892639 3:0.24554215 4:0.0043961797 5:0.014468111 
1 2:0.028581246 4:0.011115693 
1 1:0.05484532 3:1.0666613 5:0.014144858 
-1 1:0.026231536 2:0.058813615 3:3.04656 
1 1:0.06592383 3:1.5388591 5:0.0095467954 
1 4:0.014515006 5:0.0038698472 
-1 1:0.070969039 2:0.0056428088 3:2.1480196 5:0.0019386473 
-1 4:0.013054959 5:0.0081791884 
1 1:0.071387599 2:0.0010890593 3:2.0805908 5:0.0028171669 
-1 1:0.0081483023 2:0.065065712 3:3.1022886 
-1 2:0.027976117 4:0.012082112 
-1 1:0.015151331 2:0.063035254 3:2.9565284 
1 1:0.066946248 3:1.7180489 5:0.0075954222 
1 3:0.10872789 4:0.0084166238 5:0.012920132 
-1 3:0.24935012 4:0.0066288896 5:0.013965007 
-1 1:0.011130294 2:0.052038557 3:3.0999706 
-1 1:0.061346238 3:1.5938526 5:0.0091780389 
-1 1:0.017444574 2:0.061155873 3:3.0606906 
1 1:0.025808156 2:0.056387491 3:2.9751891 
1 1:0.024427053 2:0.057710112 3:3.0455459 
1 1:0.02941059 2:0.052893712 3:2.684965 
1 1:0.0034381507 4:0.0083190005 5:0.012482153 
1 1:0.023796936 2:0.059084431 3:2.8391247 
-1 1:0.015642229 2:0.064066783 3:2.9729104 
1 3:0.1841054 4:0.0055072863 5:0.014026699 
1 2:0.061050643 
-1 2:0.061722057 
-1 3:0.1940279 4:0.0072824002 5:0.013549843 
-1 1:0.028926672 3:1.0635503 5:0.01401742 
-1 1:0.064666964 3:1.7844279 5:0.006849109 
-1 2:0.0050754451 4:0.015168446 
-1 1:0.0086138309 3:0.62326216 4:0.0011748704 5:0.015231736 
-1 2:0.053434825 4:0.0051354344 
1 1:0.071093272 2:0.00029336026 3:2.3367172 5:0.00079902165 
1 1:0.066661746 2:0.015959288 3:2.581508 
-1 1:0.017912207 3:0.88220521 5:0.015143885 
1 1:0.00053368246 4:0.0087312934 5:0.011364974 
1 1:0.070158022 2:0.0036774859 3:2.3332799 5:3.8971435e-05 
-1 1:0.017578242 2:0.058869103 
-1 3:0.015946478 4:0.0091960488 5:0.012028352 
1 2:0.060031858 
-1 2:0.059929468 
1 3:0.28549664 4:0.0062400016 5:0.013918521 
-1 3:0.26186138 4:0.0097828025 5:0.012661539 
-1 4:0.014240851 5:0.0061896843 
-1 1:0.05599116 2:0.0013852011 3:2.2963375 5:0.00083176532 
1 1:0.020583566 2:0.058224942 3:3.0860812 
1 1:0.015372667 2:0.059494893 
1 1:0.016092977 2:0.058359521 
1 1:0.0060093281 3:0.000899845 4:0.0060691259 5:0.01092889 
1 4:0.0077077713 5:0.009336476 
1 2:0.062321968 
1 2:0.061138111 
1 1:0.010193752 2:0.060323659 
1 1:0.022226336 2:0.057424106 3:3.0879571 
1 1:0.016170416 2:0.059704733 
-1 1:0.023003223 2:0.058154332 3:3.0688185 
1 1:0.1006286 2:0.031193907 
-1 1:0.081288464 2:0.062819127 
-1 1:0.1056311 2:0.011712808 3:3.1032351 
1 1:0.10848964 2:0.0052622106 3:3.0664109 
1 1:0.10557784 2:0.021016796 
1 1:0.087203421 2:0.059379355 
1 3:0.9739889 5:0.021192418 
1 1:0.11290521 2:0.0033126348 3:3.0251232 
1 1:0.012453104 3:1.1147503 5:0.020600351 
-1 1:0.035616785 2:0.041502218 
1 1:0.056260016 2:0.031749823 3:3.13297 
-1 1:0.039459485 2:0.043907756 
1 1:0.036120707 2:0.04573703 
-1 1:0.035459586 2:0.037133696 
1 1:0.060257155 2:0.033052329 
-1 1:0.043241592 2:0.047237243 
1 1:0.054905259 2:0.035540753 
-1 1:0.048593576 2:0.043141616 
1 1:0.051019529 2:0.043657764 
1 1:0.058569054 2:0.025793464 3:3.062255 
-1 1:0.006323589 2:0.052722122 4:0.00062577991 
-1 1:0.055593069 2:0.015415956 3:3.1368237 
1 1:0.060204626 2:0.027628378 
-1 1:0.053543061 2:0.0013194067 3:2.880953 
-1 1:0.052848775 2:0.036154386 
-1 1:0.06267349 2:0.015831566 
1 1:0.037284613 2:0.056318823 
1 1:0.063883329 3:2.7351009 
-1 1:0.048872791 2:0.015498655 3:3.071919 
1 1:0.064053199 2:0.021724038 
-1 1:0.06057722 2:0.0011102125 3:2.8482625 
1 1:0.063980569 3:2.7120582 
1 1:0.063678349 2:0.0015208056 3:2.9331045 
1 1:0.05660185 3:2.705729 
-1 1:0.052331254 2:0.012400266 3:3.0878162 
1 1:0.057830337 3:2.6450119 
-1 1:0.05849829 3:2.8267179 
-1 1:0.060710929 2:0.0033567589 3:2.9749158 
-1 1:0.060568963 3:2.6418989 
1 1:0.062616626 2:0.0074517913 3:2.9393572 
-1 1:0.054079177 2:0.0034942406 3:2.9718817 
1 1:0.056123643 3:2.9795641 
-1 1:0.055864189 2:0.0028452095 3:3.0551291 
1 1:0.057606304 2:0.0013006984 3:3.0166371 
-1 1:0.051785064 3:2.8180738 
-1 1:0.047611228 3:2.4430445 5:0.0029512124 
1 1:0.062330434 3:2.9681617 
-1 1:0.055691519 3:2.9813984 
-1 1:0.01191038 3:1.8587089 5:0.012960217 
-1 1:0.054148503 2:0.011661685 3:3.1319089 
1 1:0.032388178 3:1.9688963 5:0.011251365 
1 1:0.060297257 2:0.0080011755 3:3.1266639 
-1 1:0.048607307 3:2.7673165 
-1 1:0.057585506 3:2.9952603 
1 1:0.057179175 3:2.6106193 5:0.00074747327 
-1 1:0.05746136 2:0.0059828487 3:3.0875703 
