svm_type epsilon_svr
kernel_type linear
nr_class 2
total_sv 194
rho 0.0012455
SV
-1 3:0.57027511 4:0.013689226 5:0.0091826282 
-1 3:0.55715446 4:0.013839224 5:0.0087993662 
-0.07733743859249541 3:0.53306775 4:0.014022409 5:0.0086585702 
1 3:0.55815987 4:0.013811325 5:0.0089382852 
1 3:2.1481849 4:0.014535471 5:0.0041010262 
-1 3:2.1789658 4:0.014394857 5:0.0043062319 
-1 3:2.2217432 4:0.014439289 5:0.0040954803 
-1 3:2.2427144 4:0.014405583 5:0.0042026133 
1 3:2.1689817 4:0.014617567 5:0.003420702 
1 3:2.1796548 4:0.014742611 5:0.0027993983 
0.1123515681641641 3:2.2732094 4:0.014555685 5:0.0037109878 
1 2:0.0014026262 3:2.2179587 4:0.014647065 5:0.0033299693 
1 2:0.010554437 3:2.2649675 4:0.014758141 5:0.0029493976 
1 2:0.010070245 3:2.2749892 4:0.014534604 5:0.0037139355 
1 2:0.020779654 3:2.2530027 4:0.015049247 5:0.0014731176 
-1 5:0.014392635 
-1 5:0.0046018508 
-1 5:0.0060654287 
-1 5:8.438098e-05 
-1 1:0.014981483 
-1 
-1 
-0.07761380549227673 3:1.8559603 4:0.015025139 5:0.0018447514 
-1 3:1.8985074 4:0.014942641 5:0.0021591506 
-1 3:1.8001547 4:0.015101895 5:0.00096391883 
-0.1475493310795034 3:1.8915428 4:0.014954661 5:0.0021722737 
1 3:1.8088463 4:0.015095915 5:0.0011445039 
1 2:0.04599721 4:0.013395989 
1 2:0.018797989 4:0.014596001 
1 4:0.015163401 
-1 1:0.1087673 2:0.055552932 3:3.0801378 
1 2:0.058911171 4:0.01323529 
0.1159262335679043 1:0.18545426 2:0.0021374225 3:2.66784 
0.1800666010443477 1:0.19835334 3:2.486423 
0.1756946349358795 1:0.19803047 3:2.3460643 
-1 1:0.16905295 3:2.3143265 
-0.5429627059371752 1:0.11218008 
-1 1:0.047379417 5:0.0056720695 
-1 1:0.066617208 
-1 1:0.087217063 5:0.0015423805 
-1 2:0.032131157 3:2.0054665 4:0.014725771 5:0.004183062 
-1 
1 1:0.1728714 3:1.8985724 
0.05958393277976771 1:0.1732423 3:2.0237588 
-1 1:0.16353333 3:1.9294709 
-1 1:0.1050156 2:0.0061734264 
-1 1:0.092637442 
0.005961371165104559 1:0.016718711 2:0.035663624 4:2.3457662e-05 
1 2:0.031843819 4:0.0020883359 
-1 1:0.023153618 5:0.0064410677 
-1 1:0.012195846 5:0.0061858038 
-1 1:0.0058675665 5:0.0072913746 
-1 1:0.012870145 5:0.0055852697 
-1 1:0.079194442 2:0.050246487 3:2.6033207 
-1 2:0.039160874 4:0.01723594 5:0.0028037713 
-1 2:0.036148814 4:0.017081548 5:0.0032384942 
-1 2:0.035250529 4:0.017325962 5:0.0034104756 
-1 2:0.040347686 4:0.017346054 5:0.0027863615 
-1 2:0.038707121 4:0.017177114 5:0.0027790643 
-1 2:0.046334624 4:0.017407368 5:0.0017398892 
-1 2:0.041471158 4:0.017343359 5:0.0025180004 
-1 2:0.042669227 4:0.017441486 5:0.0026768455 
-1 2:0.03838154 4:0.017266034 5:0.0030527593 
-1 2:0.037750279 4:0.017170327 5:0.0031915569 
-1 2:0.035174359 4:0.017242074 5:0.0034958785 
1 2:0.039007898 4:0.017063398 5:0.0027404094 
1 2:0.0074515576 3:2.0105436 4:0.014369551 5:0.0050098201 
-1 2:0.029214226 3:2.1868921 4:0.014401534 5:0.0041962477 
-1 4:0.012781454 5:0.0081657369 
1 4:0.011935694 5:0.0093029901 
1 1:0.016579296 2:0.070022319 4:0.0100926 
-1 1:0.057389112 
-1 1:0.020454739 2:0.2827807 3:2.1347117 5:0.014918286 
1 1:0.0083177875 2:0.076013061 
-1 1:0.016993447 2:0.04650766 
-1 1:0.015977543 2:0.042173438 
-1 1:0.032361003 2:0.064169131 3:2.7026401 
-1 2:0.063357977 
1 2:0.022558611 4:0.002042601 
1 2:0.014787098 4:0.010790394 
1 4:0.014872569 
-1 1:0.0091319962 2:0.061399445 3:2.8789593 
-0.05958393277976771 1:0.054489658 2:0.025849473 3:2.0087497 5:0.0073006816 
-1 1:0.038916097 2:0.04728618 3:2.2488102 5:0.003188021 
-0.5526481581846314 1:0.035269723 2:0.032973447 3:2.077497 5:0.0062671591 
1 1:0.006768397 3:0.57273078 4:0.007118118 5:0.019154568 
-0.1144643824597 3:2.825072 4:0.019606985 5:0.0053400732 
1 4:0.015380204 5:0.011460192 
0.03682358092809843 1:0.0066246981 4:0.0016214887 5:0.016743967 
1 4:0.0050463762 5:0.017388365 
1 3:3.1326387 4:0.011078711 5:0.011756506 
0.8727637300736515 3:3.1285305 4:0.013315766 5:0.011056837 
0.6744705285639329 1:0.096880403 2:0.0658676 
1 1:0.1033823 2:0.045059666 
1 1:0.11099343 2:0.046060598 
1 1:0.10102409 2:0.051180489 
1 1:0.095605468 2:0.053908087 
1 1:0.10744489 2:0.033516075 
1 1:0.10982069 2:0.05396971 
1 1:0.1016356 2:0.054355243 
-1 1:0.10221981 2:0.063151421 
-1 1:0.048245259 3:2.789765 5:0.0017123818 
-1 1:0.0036575725 2:0.049281202 
1 1:0.14780823 3:2.9279718 5:0.0020222025 
1 1:0.1524783 3:2.9374988 5:0.0026182271 
0.4389808361075528 1:0.12519778 2:0.003678677 3:2.9401105 5:0.0014645896 
1 1:0.1325464 3:2.9280986 5:0.0019655097 
1 1:0.15568585 3:2.9457031 5:0.0025412611 
1 1:0.15577493 2:0.0034847937 3:2.9818548 5:0.0016435583 
1 1:0.13521301 2:0.0088303863 3:2.970671 5:0.00085222209 
-1 1:0.14052873 2:0.0018185179 3:2.9469657 5:0.0016873231 
-1 1:0.10400093 5:0.0033293755 
-1 1:0.091866564 2:0.077154097 3:0.10290365 
-1 1:0.076198029 5:0.0065328183 
1 4:0.0039347156 5:0.014485793 
-0.7665143227131685 1:0.075693702 5:0.0050241021 
-1 1:0.10347494 2:0.067528397 3:0.060919652 
-1 1:0.056120381 5:0.0044254784 
-1 1:0.083483768 5:0.0043795173 
-1 1:0.065715795 5:0.0015168681 
-1 1:0.065470296 5:0.0012038033 
-1 1:0.050013079 
-1 1:0.049015495 
-1 1:0.04394255 5:0.0016430684 
-1 1:0.039089454 5:0.010309002 
-0.02154909532747941 3:0.55970883 4:0.014935133 
-0.9834012107018886 2:0.039986349 3:0.079476229 4:0.011316503 
1 2:0.064329044 4:0.0054105207 
1 4:0.01455593 
1 4:0.015534424 
-0.6722130589728308 4:0.013986521 
1 4:0.013120462 
1 4:0.015164489 
1 4:0.013966877 5:0.006026186 
-0.5597034099795326 1:0.064745438 2:0.046134047 3:2.2397601 
1 4:0.015009441 
1 1:0.14156822 4:0.0028904918 5:0.00045352653 
1 1:0.086570423 2:0.014162052 4:0.0046367374 
-1 1:0.10343116 2:0.0016126713 3:1.9428523 
-0.1188087550803721 1:0.075338607 3:0.16949151 
-0.1078173424557305 1:0.070606548 5:0.0060669016 
-1 1:0.0955559 5:0.0042103242 
-1 1:0.062860656 5:0.0033550965 
-1 1:0.055497631 5:0.0064223146 
0.2573458739279411 4:0.00037227811 5:0.015 
-1 3:0.34315931 4:0.014429472 5:0.0061536386 
-0.09930158799075429 3:0.41224145 4:0.01402411 5:0.0068308886 
-1 3:0.33558654 4:0.014420079 5:0.0066064757 
-0.9255196208101643 3:0.34394954 4:0.014434657 5:0.006071353 
-1 3:0.28661143 4:0.014734887 5:0.0057176781 
1 3:0.45059727 4:0.013784415 5:0.0072134862 
1 4:0.011765721 5:0.011479593 
1 2:0.023515478 4:0.015113476 5:0.00076754322 
1 4:0.01097403 5:0.011641955 
1 4:0.013143882 5:0.0078829329 
1 2:0.011775209 4:0.015030179 5:0.0021994193 
1 2:0.024625235 4:0.015036263 5:0.00026949532 
1 4:0.013596911 5:0.0065678385 
1 2:0.057070636 4:0.01377572 
-1 1:0.078895343 3:2.1847912 
-0.08447214678640604 1:0.011600261 3:1.165845 5:0.010159633 
-0.3293749731448911 1:0.11115572 3:2.3917455 
0.7425523476036344 1:0.060652848 2:0.065988452 3:3.1199222 
0.7683740420700484 1:0.10740643 2:0.075835546 
1 1:0.12118475 2:0.053977398 
1 2:0.11824956 4:0.008960905 
1 1:0.040551844 2:0.053004628 
1 1:0.03794165 2:0.045862016 4:0.00032817648 
1 4:0.0035038964 
1 1:0.060298115 
1 1:0.0024972962 2:0.0837444 3:0.26635341 4:0.0016964589 
0.5223846493256332 1:0.0095635759 2:0.071488045 
0.1060212421138854 1:0.11056574 2:0.064316351 3:0.91785406 4:0.012059122 5:0.0094781836 
-1 2:0.074721849 3:0.24399519 4:0.011116674 
-0.03865441739841517 2:0.072323119 3:0.27625901 4:0.011583575 
-0.9524984917173671 2:0.089036328 3:0.09850335 4:0.0099899526 
1 2:0.089104321 3:0.092701195 4:0.009894568 
1 4:0.0022989584 5:0.015 
1 4:0.0026324708 5:0.014804942 
1 5:0.0091430463 
-1 1:0.035382372 3:2.9502731 5:0.015025348 
0.1626870152330055 1:0.0030902201 2:0.023308956 4:0.0024040329 
1 1:0.003669694 2:0.013941016 4:0.0030514563 
1 1:0.0046636214 2:0.051349239 4:0.00084159106 
1 1:0.0010309579 4:0.00096386279 
1 1:0.0019710368 4:0.00059470597 
1 1:0.0053099436 4:0.00027931493 
-1 3:0.51721704 4:0.010192945 5:0.017624375 
-1 3:0.44947048 4:0.011451988 5:0.016907482 
1 3:0.51451673 4:0.010419418 5:0.017635951 
1 1:0.0018615862 4:0.007531608 5:0.016605206 
1 1:0.00088664311 4:0.0072946085 5:0.014161592 
1 1:0.011587916 4:0.0019390133 5:0.015257555 
1 1:0.26126106 2:0.040158172 3:2.9929203 4:0.015280213 5:0.0011012052 
