svm_type epsilon_svr
kernel_type linear
nr_class 2
total_sv 5553
rho 0.000454903
SV
1 1:0.054174348 2:0.11041581 
1 1:0.058090812 2:0.10775957 
-1 1:0.057046172 2:0.10710231 
1 1:0.044650738 2:0.11965178 
-1 1:0.055854537 2:0.10535112 
1 1:0.049183319 2:0.11263634 
1 1:0.048175839 2:0.11379445 
-1 1:0.034148858 2:0.085465219 3:1.1154897 
-1 1:0.029709025 2:0.08683958 3:1.1854195 
1 1:0.025122211 2:0.087278356 3:1.1874231 
1 1:0.027691717 2:0.082771806 3:1.1459911 
-1 1:0.025069778 2:0.077639111 3:1.0688958 
-1 1:0.025274908 2:0.077312174 3:1.0492559 
-1 1:0.0047001082 2:0.082775927 3:1.3453301 
1 2:0.086672168 3:1.3914761 
-1 1:0.0010250656 2:0.079000639 3:1.3024252 
1 2:0.080477028 3:1.2919757 
-1 2:0.0755733 3:1.3336327 
1 1:0.0013641151 2:0.082743472 3:1.3923018 
-1 1:0.010810568 2:0.079583643 3:1.3431024 
1 2:0.083381222 3:1.3920756 
1 1:0.0011923702 2:0.076305084 3:1.3425471 
-1 2:0.066937669 3:1.3491109 
1 2:0.07434768 3:1.5803844 4:0.0013652716 
-1 2:0.076416237 3:1.3971813 
-1 2:0.076206291 3:1.3909368 
1 2:0.10194961 3:1.6084701 
-1 1:0.0012300557 2:0.084825197 3:1.2688399 
1 1:0.0043767497 2:0.099048695 3:1.4153372 
-1 2:0.078347631 3:1.3249996 
-1 2:0.10352151 3:1.1305692 
1 2:0.11131215 3:1.2834999 
-1 2:0.093599866 3:1.3968087 
-1 2:0.094142299 3:1.5559494 4:0.00020649552 
1 2:0.10640984 3:1.6113082 4:3.4899782e-05 
1 2:0.090388544 3:1.5538306 
1 2:0.082805872 3:1.3332006 
1 2:0.07922379 3:1.5451795 
-1 2:0.067461671 3:1.633446 4:0.00051120562 
-1 2:0.075775406 3:1.693312 4:0.0023361967 
-1 2:0.070409647 3:1.6950127 4:0.0013577711 
-1 2:0.08220852 3:1.5460438 
-1 2:0.07991138 3:1.6747054 4:0.0011435046 
1 1:0.014260845 2:0.10805586 3:1.2370439 
1 2:0.096250473 3:1.3936995 4:0.00050305494 
1 2:0.085261259 3:1.5826599 
1 1:0.0039422497 2:0.073792016 3:1.4355683 
-1 2:0.061969095 3:1.6357023 4:0.001586443 
1 1:0.00053796416 2:0.080965839 3:1.4187985 
-1 1:0.0029039704 2:0.07116656 3:1.415956 
-1 2:0.073319346 3:1.4941962 
1 2:0.076816643 3:1.5637622 
-1 2:0.06610075 3:1.4462745 
-1 2:0.073228581 3:1.4154431 
-1 2:0.076727935 3:1.5165249 
1 1:0.0031626044 2:0.076794358 3:1.4729131 
-1 1:0.010503762 2:0.073661895 3:1.4962328 
-1 1:0.0058170396 2:0.075266516 3:1.4900817 
1 2:0.089504008 3:1.7433016 4:0.0038976173 
1 2:0.08366665 3:1.6690429 4:0.00085160558 
-1 1:0.0094767699 2:0.066804449 3:1.5120191 
1 2:0.076307701 3:1.5540063 
-1 2:0.069084156 3:1.4992578 
-1 1:0.0050729049 2:0.07286175 3:1.430048 
1 1:0.0025252833 2:0.079614266 3:1.4271004 
-1 2:0.073235025 3:1.5000169 
1 1:0.0099849382 2:0.07276047 3:1.4282521 
-1 1:0.0034775769 2:0.056922514 3:1.4514819 
-1 2:0.058895897 3:1.5608933 
1 1:0.0010127795 2:0.072173969 3:1.4914914 
-1 1:0.0040825691 2:0.063625439 3:1.4386219 
-1 1:0.0032861825 2:0.070781884 3:1.4287203 
1 1:0.0059726848 2:0.075874633 3:1.4323219 
-1 1:0.0085249149 2:0.052598692 3:1.6844038 
-1 2:0.061307487 3:1.5783417 
-1 2:0.076814654 3:1.5603011 
1 1:0.0062011036 2:0.079321723 3:1.4330334 
-1 2:0.050355658 3:1.7111139 4:0.0020259065 
-1 1:0.0041962521 2:0.0685558 3:1.4096567 
-1 1:0.01014443 2:0.070442101 3:1.3893929 
1 2:0.071074938 3:1.5907956 
-1 1:0.0082829961 2:0.065412128 3:1.3842968 
-1 2:0.065972985 3:1.3492255 
1 2:0.077684787 3:1.4971227 
-1 1:0.020003479 2:0.066718063 3:1.3472349 
1 1:0.010695062 2:0.073941199 3:1.3838178 
-1 2:0.068426982 3:1.5122052 
1 2:0.088520657 3:1.5873567 
1 1:0.0077760889 2:0.076102637 3:1.4838299 
1 1:0.0060138332 2:0.066906931 3:1.416702 
-1 2:0.062518508 3:1.4754719 
-1 1:0.0039464672 2:0.063460232 3:1.5096137 
-1 2:0.066272671 3:1.4257147 
-1 2:0.066588868 3:1.5404158 4:0.00014720571 
-1 2:0.075814124 3:1.4371567 
1 2:0.086765153 3:1.4842075 
-1 2:0.067771552 3:1.5044488 
1 2:0.073817153 3:1.6380006 
1 2:0.071476718 3:1.4574495 
-1 2:0.057523367 3:1.4963477 
-1 2:0.065079331 3:1.4347056 
-1 2:0.064945666 3:1.4828049 
-1 2:0.070681246 3:1.7139571 4:0.0024596511 
-1 2:0.072025137 3:1.675355 4:0.00046634064 
1 2:0.071601936 3:1.6683543 
1 2:0.066188729 3:1.4772216 
-1 2:0.036108494 3:1.5890849 
1 2:0.073189677 3:1.5042773 
-1 2:0.060901301 3:1.7010904 4:0.002538782 
-1 1:0.0093982061 2:0.060600176 3:1.4024712 
-1 2:0.064689729 3:1.6144672 
1 2:0.088293675 3:1.7173546 
-1 1:0.001002024 2:0.068782596 3:1.5787036 
-1 2:0.073494757 3:1.7989794 4:0.0029940363 
1 1:0.0064484868 2:0.07830016 3:1.564437 
1 2:0.071165984 3:1.507388 
1 2:0.065945642 3:1.6733176 4:0.00045715751 
-1 2:0.04840089 3:1.7387086 4:0.0013243026 
1 2:0.077801673 3:1.6447537 
1 1:0.0050975834 2:0.070979751 3:1.5168516 
-1 1:0.0012842224 2:0.067620336 3:1.3557551 
1 1:0.0034063841 2:0.070756006 3:1.5624759 
-1 2:0.068276305 3:1.5343487 
-1 1:0.0079672098 2:0.066733891 3:1.4912772 
1 1:0.0064934266 2:0.08267133 3:1.6114437 
-1 1:0.020537812 2:0.066655431 3:1.3018207 
1 1:0.03546141 2:0.078589206 3:1.2491285 
-1 1:0.010151182 2:0.066874626 3:1.3444323 
1 1:0.0070677887 2:0.06684247 3:1.433728 
-1 1:0.011542113 2:0.0629779 3:1.3497158 
1 2:0.087894375 3:1.5177098 
-1 1:0.0011662035 2:0.059161885 3:1.3899323 
-1 1:7.2194586e-05 2:0.061942068 3:1.4881287 
-1 1:0.0086030078 2:0.066059477 3:1.5294023 
1 1:0.010499497 2:0.0806655 3:1.5058565 
-1 1:0.027226465 2:0.065349625 3:1.3066601 
1 2:0.069227846 3:1.4658383 
-1 1:0.0040122817 2:0.06117786 3:1.5545581 
-1 1:0.028519197 2:0.073214094 3:1.4297985 
1 2:0.075479946 3:1.4083147 
-1 1:0.0014036918 2:0.068464656 3:1.6052894 
1 2:0.07352196 3:1.4470233 
-1 1:0.00070157098 2:0.058633501 3:1.5419486 
1 2:0.070931714 3:1.620258 
1 2:0.066883438 3:1.6161233 
-1 2:0.043637618 3:1.7731472 4:0.0025221943 
-1 1:0.0032513306 2:0.065039215 3:1.3191527 
-1 2:0.066029288 3:1.5550797 
1 1:0.022101729 2:0.072664508 3:1.4487153 
-1 1:0.0078285656 2:0.066809075 3:1.4600891 
-1 2:0.075204205 3:1.5394084 
1 1:0.022218819 2:0.073645166 3:1.3203678 
-1 1:0.0050298393 2:0.072321461 3:1.5240688 
1 1:0.0084411538 2:0.075942996 3:1.5654138 
1 2:0.07143913 3:1.6627791 
-1 1:0.0084358382 2:0.054724747 3:1.5682524 
1 1:0.03097818 2:0.080307466 3:1.3580807 
-1 1:0.025121303 2:0.050465062 3:1.1692664 
1 1:0.0063761714 2:0.071464851 3:1.4742229 
-1 1:0.007472261 2:0.062988025 3:1.5444816 
-1 2:0.066265494 3:1.6262005 
-1 1:0.0095599094 2:0.082229236 3:1.4312792 
1 1:0.0089847144 2:0.085648434 3:1.3420327 
1 1:0.018153748 2:0.080789646 3:1.5016649 
-1 1:0.0014953299 2:0.066787583 3:1.6213696 
1 2:0.073471694 3:1.5421769 
1 2:0.069202755 3:1.708352 
-1 2:0.060845248 3:1.5429063 
-1 2:0.067570498 3:1.641458 
1 1:0.0041168102 2:0.075141968 3:1.5029372 
-1 1:0.0015763308 2:0.07244218 3:1.5181757 
1 1:0.026376913 2:0.087025334 3:1.4241194 
1 2:0.078460467 3:1.482775 
-1 2:0.050041869 3:1.7893134 4:0.00021174173 
-1 1:0.011475924 2:0.063498296 3:1.451146 
-1 1:0.0038285084 2:0.066557904 3:1.4690634 
1 2:0.067483847 3:1.6456567 
1 2:0.065974077 3:1.4751019 
-1 1:0.0017331642 2:0.062839114 3:1.6111458 
1 1:0.013523166 2:0.087306115 3:1.3246965 
-1 1:0.02214762 2:0.069881452 3:1.3894783 
1 1:0.028686867 2:0.079770621 3:1.4273765 
1 1:0.0025881268 2:0.071959519 3:1.5358712 
-1 1:0.0054966121 2:0.060246272 3:1.4916665 
1 1:0.0067165005 2:0.079409918 3:1.4999375 
1 2:0.074588444 3:1.6233003 
-1 1:0.01137825 2:0.069232308 3:1.5271282 
1 2:0.07186438 3:1.8192111 4:0.0034440965 
1 1:0.00054715804 2:0.06779778 3:1.6132335 
-1 2:0.060347459 3:1.5852572 
-1 1:0.0018620528 2:0.06286484 3:1.522274 
-1 2:0.069848507 3:1.7027776 4:0.001872722 
1 1:0.0029173936 2:0.073175543 3:1.5071151 
-1 2:0.064535335 3:1.4842891 
-1 2:0.067610037 3:1.5091378 
-1 1:0.0094651525 2:0.073582692 3:1.4659054 
1 2:0.08009325 3:1.7600862 4:0.0012461302 
-1 2:0.063199191 3:1.6620754 
1 1:0.015642577 2:0.068741751 3:1.3555609 
-1 1:0.0016993225 2:0.063598872 3:1.4181175 
-1 2:0.065058648 3:1.5433502 
1 1:0.003525156 2:0.067351407 3:1.4699884 
-1 2:0.058943384 3:1.7682898 4:0.001832146 
-1 2:0.063185724 3:1.5201646 
1 2:0.068017097 3:1.9528289 4:0.0030245991 
1 1:0.0094581364 2:0.070380262 3:1.4713763 
-1 1:0.00076153389 2:0.057470878 3:1.6770678 
1 2:0.073651967 3:2.0330485 4:0.0048196 
1 2:0.047696456 3:2.6409666 4:0.010946491 
1 2:0.066846745 3:1.4951414 
-1 2:0.062454285 3:1.5273665 
1 1:0.043096775 2:0.086986591 3:1.2086121 
-1 2:0.067361863 3:1.5361541 
1 1:0.015477564 2:0.11689113 3:1.9792788 
-1 2:0.065415049 3:1.7676243 
-1 2:0.072255939 3:1.5792082 
1 2:0.061554902 3:2.3437271 4:0.0081528662 
-1 1:0.00023524444 2:0.068258813 3:1.6615636 
-1 4:0.012481857 5:0.008712272 
1 2:0.022934975 3:2.9049874 4:0.01337659 
-1 2:0.062551202 3:1.7378982 4:0.00076803835 
1 1:0.0055472133 2:0.091165649 3:1.4683356 
1 2:0.057614877 3:2.4744365 4:0.010339486 
1 2:0.085949549 3:1.7251158 
1 2:0.058592557 3:1.8443548 4:0.0020025971 
-1 2:0.053663658 3:1.6904505 
-1 2:0.059300087 3:1.8369466 4:0.0061892753 
-1 2:0.072997469 3:1.5206373 
-1 2:0.07904058 3:1.5783395 
1 1:0.011457815 2:0.090052776 3:1.6881305 
-1 2:0.080262351 3:1.815623 4:0.0012161031 
1 2:0.07748411 3:1.924248 4:0.0049510528 
1 2:0.043822703 3:2.6150646 4:0.011037743 
1 2:0.073925242 3:1.8019925 4:0.0033480171 
-1 2:0.062177843 3:1.8532913 4:0.0056212637 
1 1:0.024366723 2:0.079189231 3:1.1373931 
-1 2:0.064429934 3:1.8838337 4:0.0043450961 
1 2:0.050335269 3:2.6785426 4:0.010918099 
1 2:0.066625846 3:2.1486143 4:0.005289804 
-1 2:0.051826337 3:2.0725062 4:0.0091859364 
1 2:0.073378566 3:2.0313129 4:0.0070775731 
-1 2:0.062571576 3:1.6995609 
-1 2:0.074324288 3:2.1352155 4:0.006859627 
1 1:0.065994215 2:0.078654035 3:2.8011333 
1 1:0.071817652 2:0.075434044 3:2.7503246 
1 1:0.07872105 2:0.071785118 3:2.7039174 
-1 1:0.079931272 2:0.069645806 3:2.7030935 
1 1:0.072964071 2:0.09116455 3:2.8429424 
-1 1:0.081566912 2:0.072257925 3:2.695601 
1 1:0.077421835 2:0.08969408 3:2.8711968 
-1 1:0.065313056 2:0.076123189 
-1 1:0.028974926 2:0.076596161 
-1 1:0.039064976 2:0.081007111 
-1 1:0.050704703 2:0.086786343 
1 1:0.01853133 2:0.094539638 
1 1:0.035801636 2:0.081710301 
-1 1:0.043149319 2:0.052950215 
1 2:0.081019318 
-1 1:0.0073090341 2:0.077682072 
1 1:0.0026539451 2:0.089494583 
-1 1:0.0015004053 2:0.081223838 
-1 1:0.075486255 2:0.037662383 
-1 1:0.024028148 2:0.068782968 
-1 1:0.028815749 2:0.076510313 
1 2:0.082527794 
1 1:0.013810422 2:0.074337184 
1 2:0.08803813 3:0.052402993 4:0.0057185375 
-1 1:0.03358078 2:0.072414143 
-1 1:0.065873046 2:0.050346104 
-1 1:0.010272975 2:0.06911733 
1 1:0.0043770072 2:0.076688267 
-1 1:0.0046714859 2:0.073406316 
1 1:0.10570518 2:0.034243257 
-1 1:0.036249585 2:0.052066471 
1 1:0.0051910946 2:0.075434472 
1 1:0.018302412 2:0.065717243 
1 1:0.049988905 2:0.085439462 
-1 1:0.02083962 2:0.071642069 
1 1:0.0088434243 2:0.073874799 
-1 1:0.0132224 2:0.068127316 
1 1:0.010549631 2:0.074979994 
-1 1:0.0061362775 2:0.072641728 
-1 1:0.021034615 2:0.073736441 
1 1:0.02332561 2:0.071395431 
-1 1:0.017228204 2:0.066117624 
-1 1:0.0095942526 2:0.076003195 
1 1:0.017468368 2:0.075016431 
-1 1:0.020632753 2:0.07473283 
1 1:0.015869334 2:0.079540898 
1 3:1.5494701 4:0.020344223 5:0.0041413927 
1 1:0.0021010983 2:0.076276882 
-1 1:0.0065644761 2:0.074256332 
1 2:0.07680792 
-1 2:0.07206664 
-1 1:0.0096992958 2:0.077473606 
1 2:0.078939924 
-1 2:0.071946965 
1 2:0.079777024 4:0.0018452678 
-1 2:0.080578918 
1 1:0.01450646 2:0.088666387 
1 1:0.0028508206 2:0.072392426 
1 2:0.069151197 
-1 2:0.037496933 4:0.0074533801 
-1 2:0.04114379 4:0.008011047 
-1 2:0.058168852 
-1 2:0.0088172881 4:0.010357206 
-1 2:0.048873252 4:0.00049413073 
1 2:0.072604422 
1 2:0.028625411 4:0.008324173 
-1 2:0.018765058 4:0.0097977211 
-1 3:2.1995431 4:0.0098685363 5:0.01486539 
1 2:0.051409998 
1 1:0.022311597 2:0.052874885 
1 2:0.0058191964 3:1.3074092 4:0.013788042 5:0.00094607967 
-1 3:1.4695612 4:0.013869084 5:0.004566477 
-1 3:1.683832 4:0.013347753 5:0.0049862144 
1 3:2.6191806 4:0.0050673259 5:0.014400767 
-1 3:1.9177988 4:0.010899545 5:0.010669743 
1 2:0.036415107 3:1.0706956 4:0.013441529 
1 3:1.9496279 4:0.012618236 5:0.0088900659 
1 3:1.4388865 4:0.015135467 5:0.0034455538 
-1 3:1.8101766 4:0.0012754913 5:0.015054175 
-0.6661039553272503 3:1.8089513 4:0.0012247924 5:0.015050252 
1 1:0.010850881 3:0.54057399 5:0.014819165 
0.9342180221069796 1:0.010956063 3:0.5131858 5:0.01482192 
1 1:0.0088491193 3:0.62585823 5:0.01482057 
1 1:0.01124301 3:0.57286034 5:0.014761461 
1 1:0.0126002 3:0.60880948 5:0.014734395 
1 1:0.010274956 3:0.50661317 5:0.014824915 
1 1:0.010729492 3:0.541953 5:0.014794089 
-1 1:0.002217839 3:0.4739955 5:0.014996074 
-1 1:0.011636579 3:0.55010275 5:0.01479059 
1 1:0.015211877 3:0.53394084 5:0.014645418 
1 1:0.010276567 3:0.61015033 5:0.014831069 
-1 1:0.011648479 3:0.60322758 5:0.014763325 
1 1:0.015536125 3:0.69742109 5:0.01437939 
1 1:0.018369558 3:0.66080435 5:0.014610083 
1 1:0.013408544 3:0.56442256 5:0.01474641 
1 1:0.011570973 3:0.62415955 5:0.014804513 
-1 1:0.011760973 3:0.56940009 5:0.01481347 
1 1:0.017130274 3:0.53942716 5:0.01477824 
1 1:0.010567892 3:0.55774481 5:0.014809302 
-1 1:0.0093974716 3:0.44790807 5:0.014939418 
1 1:0.012323977 3:0.57901432 5:0.014836191 
1 1:0.018320676 3:0.56848743 5:0.014769569 
-1 1:0.0096047699 3:0.4930661 5:0.014869862 
-1 1:0.013520016 3:0.52908544 5:0.014845864 
1 1:0.015128693 3:0.53323943 5:0.014925438 
1 1:0.020294798 3:0.61190647 5:0.014688983 
-1 1:0.012635075 3:0.47629822 5:0.01489427 
1 1:0.017712347 3:0.58260012 5:0.014769635 
1 1:0.019082362 3:0.62464249 5:0.014669838 
-1 1:0.014367183 3:0.51086113 5:0.014903489 
1 1:0.026100133 3:0.80843496 5:0.013638697 
-1 1:0.0085310425 3:0.54115753 5:0.014858047 
1 1:0.030333102 3:0.70501158 5:0.014227016 
-1 1:0.026107335 3:0.57697043 5:0.01454135 
1 1:0.040473421 3:0.67623102 5:0.01390296 
-1 1:0.026920192 3:0.69418938 5:0.01416462 
1 1:0.022896719 3:0.62283603 5:0.014551773 
1 1:0.017117692 3:0.60285712 5:0.01472724 
1 1:0.022383872 3:0.6145187 5:0.014648191 
-1 1:0.014624649 3:0.56922433 5:0.014805673 
1 1:0.021400703 3:0.6429273 5:0.014458483 
-1 1:0.0042180957 3:0.51861861 5:0.014958712 
-1 1:0.016315085 3:0.66227244 5:0.014611301 
1 1:0.018388659 3:0.63602072 5:0.014530953 
-1 1:0.022841328 3:0.61419264 5:0.014468499 
1 1:0.022485705 3:0.66663038 5:0.014409476 
1 1:0.03197006 3:0.7026707 5:0.014158043 
-1 1:0.015757087 3:0.67923483 5:0.014547335 
-1 1:0.022110369 3:0.65543495 5:0.014441711 
1 1:0.026099002 3:0.7039176 5:0.014420109 
-1 3:0.42507451 4:0.00094049279 5:0.014981941 
1 1:0.011508534 3:0.62592291 5:0.014813906 
-1 3:0.43165041 4:0.001347357 5:0.015016212 
1 1:0.032052898 3:0.65113532 5:0.014314945 
-1 1:0.0041949996 3:0.51654944 5:0.014946237 
1 1:0.011127357 3:0.50680555 5:0.014963291 
1 1:0.019377064 3:0.59472626 5:0.014689765 
-1 1:0.0071231275 3:0.41916148 5:0.014962319 
-1 1:0.013424574 3:0.55432719 5:0.014849544 
1 1:0.0073594794 3:0.52129416 5:0.014907765 
-1 1:0.01050111 3:0.5709036 5:0.014833006 
1 1:0.0305357 3:0.5806524 5:0.014575969 
-1 1:0.027478196 3:0.67703449 5:0.014410833 
-1 1:0.026100832 3:0.56944884 5:0.014545407 
1 1:0.029513798 3:0.59783532 5:0.014630229 
-1 1:0.031372402 3:0.60588912 5:0.014528103 
1 1:0.024171228 3:0.56811659 5:0.01458579 
-1 1:0.021600647 3:0.52351388 5:0.01485773 
1 1:0.033100946 3:0.53865321 5:0.01470278 
-1 1:0.00081632173 3:0.58414748 5:0.01503427 
1 4:0.0093566724 5:0.011830514 
-1 1:0.0033323718 3:0.41554814 4:0.00030509268 5:0.015001212 
1 1:0.013776675 3:0.60621328 5:0.014789879 
-1 1:0.0028198545 3:0.38778338 4:0.00043224868 5:0.014997382 
1 1:0.014289854 3:0.62532754 5:0.014817089 
1 1:0.021718541 3:0.53855119 5:0.014814518 
1 3:0.35871763 4:0.0015149121 5:0.014926667 
-1 1:0.01216465 3:0.22589126 4:0.00076287601 5:0.015242597 
1 1:0.02003404 3:0.51912248 5:0.014821191 
1 1:0.015448156 3:0.45066808 5:0.014915026 
-1 1:0.0016989912 3:0.50664244 5:0.01502952 
1 1:0.00072238005 3:0.38649532 4:0.00072097258 5:0.014982694 
-1 1:0.013551631 3:0.46003668 5:0.015037768 
1 3:0.40543315 4:0.00092142376 5:0.014977732 
-1 1:0.0069772706 3:0.43404889 5:0.014995819 
1 3:0.27688228 4:0.0013828892 5:0.014937504 
1 1:0.0039754308 3:0.4154056 4:0.00018089681 5:0.014999908 
-1 1:0.0012677615 3:0.47447791 4:0.00023198234 5:0.01500489 
1 1:0.017255529 3:0.4864409 5:0.014866687 
-1 1:0.010143634 3:0.50379174 5:0.014958357 
1 1:0.017709385 3:0.57513691 5:0.014866019 
1 1:0.022136921 3:0.55103016 5:0.014866228 
1 1:0.021135212 3:0.36567652 5:0.015161894 
-1 1:0.0022609481 3:0.42963332 4:0.00038960251 5:0.014994939 
1 1:0.0014850351 3:0.32719202 4:0.00096465882 5:0.01497129 
-1 3:0.4840742 4:0.00074803852 5:0.015003424 
-1 1:0.020695704 3:0.55917152 5:0.014856623 
1 1:0.0098202036 3:0.45434693 5:0.01500035 
-1 1:0.010783034 3:0.43178691 5:0.015058246 
-1 4:0.014963077 5:0.0010592391 
1 4:0.0080041303 5:0.012770978 
1 1:0.013014734 3:0.54386266 5:0.014808146 
-1 3:0.3414509 4:0.0017616658 5:0.014899775 
1 1:0.024742193 3:0.58512148 5:0.014639466 
1 1:0.0052120506 3:0.36165708 4:0.00030039692 5:0.014998175 
-1 1:0.026339231 3:0.61086963 5:0.014692641 
1 1:0.034664395 3:0.62505492 5:0.014328894 
-1 1:0.071484416 3:1.5521388 5:0.0086539138 
1 1:0.0064492456 3:0.45829051 5:0.014998672 
-1 4:0.014378421 5:0.004611242 
-1 1:0.013745946 3:0.46352386 5:0.014957611 
1 1:0.069772308 3:1.344905 5:0.0058690492 
1 1:0.020713377 3:0.49178841 5:0.014840052 
-1 1:0.022190809 3:0.2060946 4:0.00018729751 5:0.015534563 
-1 3:0.3546715 4:0.0026049831 5:0.014830188 
1 1:0.02951841 3:0.58102451 5:0.014454119 
-1 3:0.42450268 4:0.0017661366 5:0.015001604 
1 3:0.4489438 4:0.0015788212 5:0.01500696 
1 1:0.00055473089 3:0.42459432 4:0.00076079787 5:0.014985409 
-1 1:0.037781059 3:1.2113261 5:0.013964547 
1 1:0.016077695 3:0.39718573 5:0.014958813 
-1 4:0.014686727 
1 3:0.010420002 4:0.0046568529 5:0.014322935 
-1 1:0.012457535 3:0.47248334 5:0.01495184 
-1 3:0.50332444 4:0.0018114589 5:0.015108957 
1 4:0.014042598 5:0.0054731072 
-1 1:0.016489456 3:0.35870701 5:0.015060462 
-1 3:0.41464819 4:0.0012805456 5:0.015075007 
1 4:0.013162888 5:0.0072000471 
-1 1:0.0048941617 3:0.40410234 4:8.3805765e-05 5:0.014999776 
-1 1:0.024034771 3:1.1244342 5:0.013629553 
-1 1:0.009222065 3:0.50534606 5:0.014941245 
1 1:0.020212837 3:0.56838201 5:0.014788125 
-1 3:0.5724167 5:0.015156751 
1 1:0.018523398 3:0.30319303 5:0.015054885 
-1 3:0.11231788 4:0.0035664704 5:0.01468829 
1 1:0.015579835 3:0.79255063 5:0.014597713 
-1 3:0.20607774 4:0.003976019 5:0.014602141 
-1 1:0.0086431646 3:0.39182253 5:0.015014053 
-1 3:0.25902711 4:0.0016717034 5:0.014908445 
1 2:0.012757119 4:0.015022016 
-1 4:0.011594618 5:0.0095165959 
-1 3:0.30230125 4:0.0024016449 5:0.014954057 
-1 1:0.0079997046 3:0.45265893 5:0.014971094 
1 4:0.012510008 5:0.0083300972 
-1 1:0.0091073852 3:0.38930373 5:0.015062085 
-1 1:0.031337028 3:0.88296543 5:0.013412917 
-1 4:0.0096934176 5:0.011447462 
1 4:0.013146961 5:0.0073649932 
-1 1:0.0074171525 3:0.33475704 4:0.00010149659 5:0.015025124 
-1 4:0.010456492 5:0.010754621 
-1 4:0.011862992 5:0.0092063601 
1 4:0.012934595 5:0.0077129282 
-1 1:0.024285391 3:0.78632485 5:0.013938123 
1 4:0.013544183 5:0.0065403363 
-1 1:0.00048165935 3:0.10627739 4:0.002568992 5:0.014958005 
1 4:0.013244746 5:0.0071430549 
-1 3:0.054613361 4:0.0044337333 5:0.014339079 
1 1:0.017678079 3:0.32722195 5:0.014990088 
-1 1:0.025686599 3:0.31265272 5:0.015076602 
1 4:0.011747702 5:0.0093280379 
1 1:0.0091018748 3:0.34102154 5:0.015010249 
-1 1:0.01084259 3:0.28694804 5:0.015011564 
1 1:0.023079957 3:0.5467705 5:0.014409475 
-1 1:0.0009971171 3:0.35789187 4:0.00047369923 5:0.014995332 
1 4:0.012163729 5:0.0088423108 
-1 1:0.021007534 3:0.33876868 5:0.015072137 
1 4:0.011013209 5:0.010315561 
-1 1:0.021759222 3:0.42655187 5:0.01492515 
1 1:0.003974359 3:0.27714165 4:0.00016121539 5:0.014999218 
-1 3:0.19475148 4:0.0027788899 5:0.014740548 
1 4:0.010785366 5:0.010435222 
-1 1:0.013860712 3:0.2996591 5:0.01497539 
1 1:0.072404596 3:0.8872007 5:0.01047976 
1 4:0.014049623 5:0.0057876533 
1 1:0.01664934 3:0.62384168 5:0.014546757 
1 1:0.036672998 3:0.66596082 5:0.013686346 
-1 1:0.0013266606 3:0.38600577 4:0.00025664058 5:0.015020373 
1 4:0.0072198833 5:0.013182072 
1 3:0.042956349 4:0.0043061447 5:0.014368891 
-1 3:0.35218418 4:0.0022177159 5:0.015138578 
1 1:0.029534442 3:0.5053738 5:0.014568494 
1 3:0.20461596 4:0.0031195744 5:0.014711583 
-1 3:0.39011636 4:0.0010143281 5:0.014966612 
-1 1:0.016351767 3:0.50288159 5:0.014715386 
1 1:0.020152713 3:0.53921501 5:0.014650001 
-1 3:0.28044699 4:0.0043919771 5:0.0144952 
-1 1:0.0012313758 3:0.22239348 4:0.001324164 5:0.014984654 
1 4:0.013823337 5:0.0058525048 
-1 3:0.31180254 4:0.0011871595 5:0.014961747 
1 1:0.012692098 3:0.24178651 5:0.01503947 
1 1:0.015498545 3:0.32660963 5:0.015008663 
1 1:0.026428526 3:0.42982507 5:0.014880453 
-1 1:0.0093382793 3:0.18778134 4:0.00028392958 5:0.015098841 
1 3:0.065792848 4:0.0053940739 5:0.013996571 
-1 3:0.27573983 4:0.0021083481 5:0.014878159 
1 4:0.011722809 5:0.0094948782 
-1 3:0.30069883 4:0.0014272959 5:0.014932336 
1 4:0.0086131404 5:0.012470824 
1 4:0.01053315 5:0.010799496 
-1 1:0.0025343305 3:0.15482307 4:0.0015084472 5:0.015017936 
1 3:0.13779391 4:0.0019383513 5:0.014874257 
-1 3:0.22682844 4:0.0026226191 5:0.014800469 
-1 3:0.25838851 4:0.0018881355 5:0.014888939 
1 4:0.010266349 5:0.0095486834 
-1 1:0.051080071 5:0.013935948 
-1 1:0.056883199 5:0.013486069 
-1 1:0.023180138 3:1.7402519 5:0.014192711 
-1 1:0.0081987906 3:1.726815 5:0.014749714 
1 1:0.016022957 3:1.721843 5:0.014258576 
1 3:1.6580121 5:0.014989219 
-1 3:1.5630901 5:0.015261128 
1 1:0.0040220622 3:1.6144229 5:0.014984271 
1 1:0.0027944406 3:1.6911571 5:0.014839058 
1 1:0.014022405 3:1.7210853 5:0.014547986 
1 1:0.0085716047 3:1.6340264 5:0.015062774 
1 1:0.00053603474 3:1.6605022 5:0.01492091 
-1 3:1.5871096 5:0.01517601 
1 3:1.5364211 5:0.015227754 
1 3:1.5615469 5:0.015226609 
-1 3:1.5247622 5:0.015277032 
1 3:1.5899824 5:0.015211524 
1 3:1.6178624 5:0.015179263 
1 3:1.3603545 4:0.00020446277 5:0.015227725 
1 3:1.606368 5:0.015141738 
-1 3:1.4844202 5:0.015310426 
-1 3:1.6052675 5:0.015169074 
1 3:1.5080246 5:0.01517901 
1 3:1.6116313 5:0.01507161 
1 3:1.5471299 5:0.015162149 
-1 3:1.5220805 4:0.00015821354 5:0.015205881 
1 1:0.005085408 3:1.6203977 5:0.01491723 
1 3:1.5437678 5:0.015171899 
1 3:1.3451745 4:0.0011402515 5:0.015129631 
1 3:1.5542002 4:0.00028304656 5:0.015150404 
-1 3:1.4782642 5:0.015141737 
1 3:1.4565376 4:0.00062704154 5:0.01507872 
-1 3:1.6468036 5:0.015149016 
1 3:1.495668 5:0.015132157 
-1 3:1.4978384 5:0.015136257 
1 1:0.0054586975 3:1.7111847 5:0.015073923 
1 3:1.5649618 5:0.015150197 
-1 3:1.4008879 4:0.0022552263 5:0.014882068 
1 3:1.4894837 5:0.01511449 
-1 1:0.0062414124 3:1.6180679 5:0.015070924 
1 3:1.6143712 5:0.015094371 
-1 3:1.6090288 4:0.0014425321 5:0.01499704 
1 3:1.5414341 5:0.015175554 
1 3:1.4861622 5:0.015244802 
1 3:1.6091904 4:0.00039287535 5:0.015010007 
-1 3:1.4449333 4:0.0021479178 5:0.014860606 
1 3:1.5067444 4:0.0029011829 5:0.014726191 
1 3:1.4995896 5:0.015358792 
1 1:0.025218954 3:1.7065886 5:0.014244483 
1 3:1.6076144 5:0.015071057 
1 3:1.5851458 5:0.015163706 
-1 3:1.4108361 4:0.00035452985 5:0.015125468 
1 3:1.6162338 5:0.015142651 
-1 3:1.5504099 4:0.00080758937 5:0.015144014 
1 3:1.6189235 5:0.015075413 
1 3:1.370746 4:0.0015069173 5:0.014986687 
1 3:1.4664053 4:0.00021651085 5:0.015147741 
1 3:1.6028374 5:0.015144709 
1 1:0.0050619202 3:1.6376909 5:0.015052891 
1 3:1.5706761 4:0.00085741367 5:0.015058267 
1 3:1.5997189 5:0.015146644 
-1 1:0.00023178072 3:1.4657299 5:0.015115506 
1 3:1.5120905 5:0.015079701 
-1 3:1.5038772 4:0.0011931096 5:0.015120683 
1 3:1.664327 5:0.01509001 
1 3:1.4711634 4:0.00039372372 5:0.015073329 
-1 3:1.6013643 4:0.00013934648 5:0.015039399 
1 3:1.5684358 5:0.015169329 
1 3:1.5032237 4:0.0014556535 5:0.015015647 
1 3:1.5623368 4:0.0013270195 5:0.015006718 
-1 3:1.2859226 4:0.0015319676 5:0.015486276 
1 3:1.4011717 4:0.0038967703 5:0.014486235 
1 3:1.4797391 5:0.015124428 
1 3:1.3248471 4:0.0047701055 5:0.014223206 
-1 3:1.5341298 4:0.0028031849 5:0.014735748 
1 3:1.5761746 4:2.7033838e-05 5:0.015047932 
1 3:1.3225758 4:0.00407939 5:0.014435958 
-1 3:1.5858562 4:0.0019789933 5:0.014936015 
1 3:1.5031338 4:0.00086689598 5:0.014351826 
1 3:1.3574215 4:0.0021780639 5:0.014377051 
1 3:1.6018248 5:0.01446843 
-1 3:1.3986634 4:0.0039853478 5:0.014460924 
1 3:1.6076953 4:0.0013392222 5:0.014070616 
1 1:0.0097168435 3:1.3629177 5:0.015118596 
1 1:0.011808417 2:0.10691405 4:0.0081922873 
0.04205559271708932 1:0.012013768 2:0.10757553 4:0.0081841323 
1 1:0.01379996 2:0.1082594 4:0.0079872724 
-1 1:0.010328538 2:0.10817517 4:0.0083734702 
1 1:0.007950257 2:0.073833887 4:0.0083916511 
-1 1:0.010235215 2:0.07095368 4:0.0077954999 
-1 1:0.017195053 2:0.074463331 4:0.0066776957 
-1 1:0.015248731 2:0.074671607 4:0.0064993571 
1 1:0.016597572 2:0.074465296 4:0.0061754429 
-1 1:0.014970943 2:0.072519235 4:0.0064318816 
-1 1:0.014360353 2:0.071477496 4:0.0063933588 
-1 1:0.0096215411 2:0.073573446 4:0.0073197125 
-1 1:0.013653317 2:0.072907999 4:0.0065325591 
-1 1:0.020173255 2:0.072686401 4:0.0052791822 
-1 1:0.019191072 2:0.071503258 4:0.0053427985 
-1 1:0.011737266 2:0.071884613 4:0.0063710349 
-1 1:0.019170277 2:0.070292421 4:0.0050917263 
1 1:0.021669042 2:0.072025674 4:0.0040938158 
-1 1:0.026643371 2:0.069558268 4:0.0037144305 
-1 1:0.020931944 2:0.072163783 4:0.004351987 
1 1:0.017807564 2:0.075641562 4:0.005002303 
1 1:0.02039019 2:0.072876998 4:0.0042539242 
-1 1:0.020373672 2:0.071068371 4:0.0044085263 
-1 1:0.017462541 2:0.069878739 4:0.0045351716 
-1 1:0.021460811 2:0.069229576 4:0.0034592245 
1 1:0.019672878 2:0.069930551 4:0.0036580053 
-1 1:0.019972384 2:0.067669052 4:0.0041540019 
-1 1:0.026052579 2:0.071669027 4:0.0032251594 
-1 1:0.034558474 2:0.070745306 4:0.001899489 
-1 1:0.027985894 2:0.076936641 4:0.0025553126 
1 1:0.034744922 2:0.07514005 4:0.0013906967 
-1 1:0.023945735 2:0.071995761 4:0.0027444272 
-1 1:0.017174756 2:0.073943377 4:0.0034711602 
-1 1:0.020890364 2:0.074602745 4:0.0033923224 
1 1:0.030804948 2:0.077236658 4:0.0019714729 
-1 1:0.019359635 2:0.074773364 4:0.00354307 
-1 1:0.027152623 2:0.075343707 4:0.0017539625 
-1 1:0.030372393 2:0.076345081 4:0.0013688551 
1 1:0.027454288 2:0.083324904 4:0.002106932 
-1 1:0.021499831 2:0.076795283 4:0.0027001117 
-1 1:0.032870101 2:0.074527086 4:0.00077223363 
-1 1:0.032458155 2:0.075691693 4:0.0010755792 
1 1:0.027719353 2:0.075143895 4:0.000920079 
-1 1:0.023316074 2:0.072091099 4:0.0018214688 
1 1:0.033728321 2:0.078907511 4:0.0011223069 
-1 1:0.031769642 2:0.074473615 4:0.00072962179 
-1 1:0.036972991 2:0.07461898 
-1 1:0.029745015 2:0.071576509 4:0.00047809673 
1 1:0.026989868 2:0.076490719 4:0.00099856372 
-1 1:0.029640485 2:0.070523346 4:0.00020893356 
-1 1:0.036547548 2:0.073962453 
1 1:0.025935924 2:0.075889298 4:0.00099102085 
-1 1:0.029753677 2:0.070346279 4:1.9659151e-05 
-1 1:0.034363397 2:0.075285374 4:3.9988027e-05 
1 1:0.024945668 2:0.077695124 4:0.0010719469 
1 1:0.029097436 2:0.070834394 
-1 1:0.028563803 2:0.069010591 
-1 1:0.029960678 2:0.070458879 
1 1:0.022230661 2:0.081619211 4:0.0017568826 
1 1:0.029538879 2:0.075007063 4:0.00035347473 
-1 1:0.034184303 2:0.066240249 
1 1:0.02864352 2:0.070321636 
-1 1:0.030065156 2:0.06641328 
-1 1:0.030014288 2:0.068690306 
1 1:0.036329922 2:0.07457847 
-1 1:0.034606611 2:0.074590328 4:7.8466345e-05 
1 1:0.025105361 2:0.082807275 4:0.00099318143 
-1 1:0.032549063 2:0.071338343 
1 1:0.028361669 2:0.090216967 4:0.0014241453 
1 1:0.024465132 2:0.084124979 4:0.0014994772 
-1 1:0.032925611 2:0.064502361 
-1 1:0.028395735 2:0.078196105 4:0.00064219718 
-1 1:0.034743504 2:0.078231314 
1 1:0.029166561 2:0.081077879 4:0.00042596705 
-1 1:0.027408534 2:0.070403336 
-1 1:0.029873199 2:0.068825812 
1 1:0.035495877 2:0.070469999 
-1 1:0.026632318 2:0.066084349 
1 1:0.045262391 2:0.072885363 
-1 1:0.025613529 2:0.069281497 
-1 1:0.048536677 2:0.073446984 
-1 1:0.024765995 2:0.073253472 
1 1:0.023965181 2:0.079507317 4:0.00063563981 
1 1:0.038173614 2:0.074588312 
-1 1:0.039575557 2:0.05023595 
-1 1:0.026002825 2:0.06683452 
-1 1:0.043525364 2:0.066769971 
-1 1:0.022350145 2:0.072289391 
-1 1:0.022541426 2:0.07336751 4:0.00017206916 
-1 1:0.022554689 2:0.076735719 4:0.00088774594 
1 1:0.034039482 2:0.078409988 
-1 1:0.027520259 2:0.060643107 
-1 1:0.020784012 2:0.071635846 4:0.00014307639 
-1 1:0.028056332 2:0.075169072 
-1 1:0.028268852 2:0.07780593 4:0.00038393376 
1 1:0.033575244 2:0.078962112 
-1 1:0.028571198 2:0.06132599 
-1 1:0.023035205 2:0.071012976 
1 1:0.010421222 2:0.082773355 4:0.0031240137 
-1 1:0.040586607 2:0.06799762 
-1 1:0.019117279 2:0.073799421 4:0.0009995624 
1 1:0.019184486 2:0.082213709 4:0.0018429112 
-1 1:0.022861487 2:0.069309537 
-1 1:0.021131496 2:0.072185227 4:0.0005932603 
-1 1:0.025996617 2:0.071539554 
1 1:0.015920186 2:0.087272014 4:0.0024303432 
-1 1:0.029278617 2:0.065015288 
1 1:0.037081995 2:0.067351506 
1 1:0.03171431 2:0.069421182 
-1 1:0.0084595388 2:0.068080255 4:0.0015404892 
1 1:0.018730617 2:0.074268042 4:0.00088581696 
-1 1:0.040504245 2:0.051905554 
-1 1:0.017449002 2:0.071128688 4:0.00063488982 
1 1:0.0036084135 2:0.088012899 4:0.0037571145 
1 1:0.012799582 2:0.075642281 4:0.00093211378 
1 1:0.030878057 2:0.066391755 
-1 1:0.034341142 2:0.060826546 
1 1:0.013511697 2:0.080334883 4:0.0010766983 
1 1:0.011602723 2:0.075504282 4:0.001151187 
1 1:0.022345244 2:0.069556373 
1 1:0.035297964 2:0.06341688 
-1 1:0.028584662 2:0.057067399 
1 1:0.023356674 2:0.075982917 4:0.00038065295 
-1 1:0.009553695 2:0.06366781 4:0.0015399089 
-1 1:0.015826445 2:0.063503732 4:0.0001979187 
1 1:0.023340394 2:0.075626865 
1 1:0.024530336 2:0.074428749 
1 1:0.013548603 2:0.069669572 4:0.0010603502 
1 1:0.0085946605 2:0.067710154 4:0.0017087716 
-1 1:0.022088922 2:0.057443781 
1 1:0.012860809 2:0.069322506 4:0.00084190165 
-1 1:0.018860101 2:0.060452155 
-1 1:0.024913321 2:0.06845799 
1 1:0.0094359005 2:0.073974621 4:0.0014467992 
0.1157978812684182 1:0.019623127 2:0.069974961 4:7.6700583e-06 
-1 1:0.014957352 2:0.065166784 4:0.00023772317 
1 1:0.02431045 2:0.077826179 4:0.00085009592 
-1 2:0.070340104 4:0.0030845595 
1 1:0.010067249 2:0.07246304 4:0.0012518374 
1 1:0.015373302 2:0.068060334 4:0.00028171608 
-1 1:0.017291786 2:0.054489118 
1 2:0.069390002 4:0.0031649244 
-1 1:0.026575671 2:0.051469648 
1 1:0.0074202153 2:0.064324853 4:0.0014998617 
-1 1:0.023222296 2:0.057655761 
-1 2:0.064431311 4:0.0028873761 
1 1:0.02039874 2:0.064737246 
-1 1:0.0041229378 2:0.061499241 4:0.0018077932 
1 2:0.075212251 3:0.10752229 4:0.0041699527 
-1 1:0.0084931777 2:0.067070802 4:0.0010105827 
1 1:0.0071909743 2:0.07201135 4:0.0014389569 
-1 1:0.034458275 2:0.061269921 
1 2:0.070526018 3:0.15455579 4:0.0037874359 
-1 3:2.7484571 4:0.007943823 5:0.013194427 
-1 3:0.7731282 4:0.010886708 5:0.012285 
-1 3:0.84908555 4:0.010642285 5:0.012313291 
-1 3:0.87780513 4:0.010139111 5:0.01264336 
-1 3:0.9808303 4:0.010092225 5:0.012607067 
1 3:0.79588718 4:0.010455564 5:0.012228458 
1 3:0.80910104 4:0.0095895433 5:0.012700239 
-1 3:0.73579058 4:0.0082664762 5:0.013397165 
1 3:1.0488663 4:0.0070006482 5:0.014036499 
-1 3:1.0032653 4:0.0064813502 5:0.014190083 
-1 3:1.0030334 4:0.0075011591 5:0.013769827 
-1 3:1.1920548 4:0.005954146 5:0.014401807 
1 3:1.0731 4:0.0058683979 5:0.01429235 
-1 3:1.0826968 4:0.0051458524 5:0.014434699 
-1 3:1.1058004 4:0.0063992224 5:0.014388268 
1 3:0.93731797 4:0.0051072169 5:0.014498113 
-1 3:0.89422296 4:0.0066839019 5:0.013811235 
1 3:1.2167759 4:0.0046748114 5:0.014078485 
1 3:1.0051146 4:0.0062776058 5:0.013792454 
-1 3:1.067467 4:0.0042207771 5:0.014474865 
1 3:1.0240683 4:0.0073623068 5:0.012881629 
-1 3:1.1301516 4:0.0062462545 5:0.01398943 
1 3:1.2995118 4:0.0038051566 5:0.012733795 
1 3:1.211435 4:0.0035186653 5:0.012996395 
-1 3:1.1021692 4:0.0035151849 5:0.012718688 
1 3:1.3627379 4:0.0044325368 5:0.012669498 
-1 3:1.1723768 4:0.0046508856 5:0.014036881 
-1 1:0.0056867981 3:1.3111913 4:0.0012972586 5:0.012304738 
1 3:1.1777343 4:0.0032459893 5:0.011021119 
1 3:1.2216455 4:0.0021460255 5:0.011351 
-1 1:0.035540447 3:1.2876452 5:0.012040241 
-1 1:0.017370596 3:1.4085079 5:0.011045115 
1 1:0.01757019 3:1.4540861 5:0.010749435 
1 1:0.0069296144 3:1.2604028 4:0.0015593208 5:0.011779611 
-1 1:0.0029751164 3:1.2604487 4:0.0023053286 5:0.013646896 
1 1:0.0276089 3:1.4950773 5:0.010395804 
-1 1:0.0013191067 3:1.0850664 4:0.0022251923 5:0.01149954 
1 3:1.2770285 4:0.0024008253 5:0.010565853 
-1 1:0.014565751 3:1.1478925 4:0.0011845916 5:0.011429931 
1 1:0.025275083 3:1.3891402 5:0.010535922 
1 1:0.020930903 3:1.236145 4:0.00052023884 5:0.010846879 
-1 3:1.1721152 4:0.0038531431 5:0.013250417 
1 1:0.024881082 3:1.2298237 5:0.010859549 
1 3:1.0732272 4:0.0035582595 5:0.012409876 
-1 1:0.066784261 3:2.7314289 5:0.0094657196 
1 1:0.068770573 3:2.7284104 5:0.0093908176 
-1 1:0.060950482 3:2.6737825 5:0.010398435 
1 1:0.06572375 3:2.7213819 5:0.0096266916 
-1 1:0.06393586 3:2.697714 5:0.010000691 
1 1:0.071771395 3:2.7585771 5:0.0088968806 
1 1:0.065255346 3:2.7092363 5:0.0098181813 
-1 1:0.016228901 3:1.7298221 5:0.012518487 
1 1:0.01299374 3:1.71465 5:0.012621539 
-1 1:0.016942618 3:1.7582505 5:0.012244005 
1 1:0.015308943 3:1.7628737 5:0.012360206 
1 1:0.0051361556 3:1.682035 5:0.013291676 
1 1:0.0021111183 3:1.6335348 5:0.013508 
1 3:1.6099746 5:0.013947373 
1 3:1.5477194 5:0.014305357 
-1 3:1.5717368 5:0.014245816 
1 3:1.574035 5:0.014158411 
-1 3:1.5343811 5:0.014575752 
1 3:1.5800405 5:0.014039468 
-1 3:1.5404008 5:0.014303652 
1 3:1.5579292 5:0.014251663 
1 3:1.6348031 5:0.013897597 
1 3:1.6240562 5:0.013921777 
-1 3:1.6103223 5:0.014134956 
1 3:1.6618504 5:0.013900167 
-1 3:1.5735308 5:0.014449336 
1 3:1.6442408 5:0.013764676 
1 3:1.6401185 5:0.013858433 
-1 3:1.6517479 5:0.014093857 
1 3:1.6306676 5:0.014137285 
1 3:1.6399856 5:0.014059047 
1 3:1.6183938 5:0.014143147 
1 3:1.566967 5:0.014498058 
-1 3:1.6464527 5:0.014124373 
1 3:1.6602384 5:0.013975604 
-1 3:1.6200768 5:0.014174148 
1 3:1.6423895 5:0.014197147 
1 3:1.661655 5:0.014123891 
-1 3:1.6019457 5:0.014459426 
1 3:1.6067841 5:0.014349617 
1 3:1.620175 5:0.014319151 
-1 3:1.6296658 5:0.014423039 
1 3:1.641632 5:0.014351901 
1 3:1.6344679 5:0.014389414 
1 3:1.5655901 5:0.014648529 
1 3:1.6199679 5:0.014534708 
1 3:1.6175962 5:0.014486693 
1 3:1.6179475 5:0.014477519 
1 3:1.6883626 5:0.014221986 
-1 3:1.6241778 5:0.014498218 
1 3:1.5992808 5:0.014582365 
1 3:1.5858093 5:0.014627107 
-1 3:1.5731888 5:0.014609282 
1 3:1.6146139 5:0.014455405 
1 3:1.6122316 5:0.014491435 
1 3:1.5796867 5:0.014751668 
1 3:1.6271216 5:0.014526959 
1 3:1.6049382 5:0.014701505 
1 3:1.6230489 5:0.014719416 
1 3:1.5987744 5:0.01472551 
1 3:1.6034597 5:0.014650296 
1 3:1.6122821 5:0.014682415 
1 3:1.6355265 5:0.01462306 
1 3:1.7029088 5:0.01451287 
-1 3:1.6706552 5:0.014491509 
1 3:1.6443233 5:0.014581475 
1 3:1.6673711 5:0.014602861 
-1 3:1.7050404 5:0.014255647 
1 3:1.6536557 5:0.014608478 
-1 3:1.5689043 5:0.014921452 
1 3:1.6517249 5:0.014617156 
-1 3:1.5664237 5:0.014830946 
1 3:1.5766792 5:0.014878469 
1 3:1.6281533 5:0.014681358 
1 3:1.5487529 5:0.014934258 
-1 3:1.7056999 5:0.014571364 
1 3:1.5380171 5:0.014901773 
1 3:1.5587547 5:0.01488809 
-1 3:1.7393271 5:0.01432713 
1 3:1.5251602 5:0.01495726 
-1 3:1.7098482 5:0.014299381 
1 3:1.6213628 5:0.014837743 
-1 3:1.6181012 5:0.014694197 
1 3:1.5688765 5:0.01490372 
1 3:1.5703741 5:0.01492654 
-1 3:1.6493153 5:0.01466211 
1 3:1.5890785 5:0.014816034 
1 3:1.6476847 5:0.014731338 
-1 3:1.6492763 5:0.014675405 
1 3:1.6109128 5:0.014676576 
-1 3:1.6484421 5:0.014631042 
1 3:1.6057782 5:0.014819373 
-1 3:1.6748843 5:0.014653748 
1 3:1.5741784 5:0.014937895 
-1 3:1.6094154 5:0.014717079 
1 3:1.6202581 5:0.014690161 
1 3:1.6803587 5:0.014545171 
1 3:1.6449741 5:0.014743033 
-1 3:1.7329617 5:0.014494279 
1 3:1.6728544 5:0.014625624 
1 3:1.7027301 5:0.014494597 
-1 3:1.6827264 5:0.014492688 
1 3:1.6525794 5:0.014658406 
1 3:1.783126 5:0.014172185 
-1 3:1.6504419 5:0.014738237 
1 3:1.661861 5:0.014601777 
1 3:1.6512712 5:0.014553252 
-1 3:1.7581009 5:0.01445269 
-1 3:1.715973 5:0.01466223 
1 3:1.6766374 5:0.01463392 
-1 3:1.775441 5:0.014142288 
-1 3:1.7643454 5:0.013916459 
1 3:1.55645 5:0.014895417 
1 3:1.6396397 5:0.014782429 
-1 3:1.6112109 5:0.014722125 
1 3:1.6000178 5:0.014812685 
1 3:1.6841202 5:0.014670273 
1 3:1.6651092 5:0.014666251 
1 3:1.6208635 5:0.014667865 
-1 1:0.16542934 3:2.3420041 5:0.0087571856 
-1 1:0.16476907 3:2.3383035 5:0.0087880379 
-1 1:0.14288771 5:0.007329614 
1 1:0.13385841 2:0.0078456995 5:0.0047581151 
-1 1:0.13563467 5:0.0063049903 
1 1:0.13518059 2:0.0053905928 5:0.0047322546 
1 1:0.13480113 5:0.0051381724 
1 1:0.1312774 2:0.0043547157 5:0.0041314143 
-1 1:0.13657562 2:0.006314973 5:0.0039008281 
1 1:0.13802209 2:0.016213969 5:0.0024747468 
1 1:0.13566177 2:0.017335801 5:0.0022087386 
1 1:0.14075045 2:0.0026404914 5:0.0039064514 
-1 1:0.13866598 2:0.00405259 5:0.0036408708 
1 1:0.13807413 2:0.0089564861 5:0.0030006385 
-1 1:0.14234053 2:0.006842604 5:0.0029747583 
1 1:0.13670593 2:0.01699402 5:0.0017459765 
1 1:0.14587945 2:0.0067200947 5:0.0028918012 
-1 1:0.13324591 5:0.0039041946 
1 1:0.1289693 2:0.018498313 5:0.0012603425 
-1 1:0.13455949 5:0.0039641916 
1 1:0.13759937 2:0.019626984 5:0.0011011765 
1 1:0.13955838 2:0.020041079 5:0.00098503602 
1 1:0.12491264 2:0.0075496199 5:0.0021856545 
-1 1:0.12915504 5:0.0043524115 
1 1:0.12573311 2:0.02552443 
-0.1186080278131358 1:0.13170055 2:0.017053069 5:0.000995411 
1 1:0.13648664 2:0.010948755 5:0.0017144418 
-1 1:0.1310038 2:0.027689855 
1 1:0.12279542 2:0.02565675 
-1 1:0.12293566 2:0.026906534 
1 1:0.13561416 2:0.024135785 5:6.0599189e-05 
-1 1:0.13348251 2:0.010994424 5:0.0014794944 
1 1:0.13474206 2:0.045133814 
1 1:0.12930029 2:0.019533173 5:0.00033625914 
-1 1:0.11833787 5:0.0032499332 
1 1:0.13304967 2:0.044371442 
-1 1:0.12226509 2:0.015573923 5:0.00054775477 
1 1:0.13096101 2:0.063464896 
-1 2:0.031456757 3:1.5768654 4:0.014156587 
1 1:0.13217592 2:0.051661675 
-1 1:0.13114268 2:0.021202838 
-1 1:0.10387819 2:0.089061515 
1 1:0.14118796 2:0.021694881 5:1.5002034e-05 
1 1:0.12851692 2:0.011368231 5:0.00089378737 
1 2:0.0064876719 3:1.8425006 4:0.015352803 
-1 1:0.14157506 2:0.032554669 
1 1:0.11384536 2:0.067349128 
-1 1:0.14792403 5:0.0042496837 
1 1:0.1301003 2:0.039936782 
-1 2:0.048485022 3:1.4990537 4:0.013158016 
-1 1:0.12694681 2:0.012564995 5:0.00045845938 
1 1:0.12910635 2:0.021714373 
-1 1:0.11412469 2:0.038463161 
-1 1:0.140741 2:0.014237899 5:0.0004595811 
-1 2:0.12482162 3:0.39574527 4:0.00050234097 
1 1:0.13012504 2:0.053711947 
1 1:0.07643242 2:0.12557507 
1 1:0.11988568 2:0.063855966 
1 1:0.13219867 2:0.010190689 5:0.00056541318 
-1 1:0.090081977 2:0.086548877 
1 1:0.092255755 2:0.11003104 
-1 1:0.11545283 2:0.060839484 
1 1:0.15000387 2:0.0076410542 5:0.00097698167 
1 2:0.010731342 3:1.8346393 4:0.01524808 
1 1:0.14320396 2:0.041949326 
1 3:2.4928353 4:0.014346476 5:0.0063776934 
1 1:0.14009833 5:0.0029203291 
1 3:2.2470133 4:0.015360108 5:0.0027524079 
1 1:0.12577117 5:0.0062061174 
1 3:2.13789 4:0.015521153 5:0.0011521394 
1 1:0.13687572 2:0.063177067 
1 1:0.1275296 2:0.024534796 
-1 1:0.13081402 5:0.0012627174 
-1 2:0.10957561 3:0.62953605 4:0.0049844733 
1 1:0.12143455 5:0.0039326232 
1 3:2.2106873 4:0.014867189 5:0.0041726888 
-1 1:0.13339726 2:0.0018999484 5:0.00095582659 
-1 1:0.13745466 2:0.037134592 
-1 1:0.10065548 2:0.10644235 
1 1:0.13341204 2:0.053801224 
1 1:0.14131609 2:0.043319166 
-1 2:0.074461954 3:1.1244377 4:0.011056134 
-1 1:0.14032398 2:0.0055545295 5:0.0005261423 
-1 1:0.06114373 2:0.13072174 
1 1:0.075246489 2:0.1474215 
1 1:0.13965106 2:0.0044875646 5:0.00039689347 
-1 1:0.146909 5:0.0042055881 
1 1:0.080102783 2:0.12820875 
1 1:0.11213198 5:0.0047171464 
1 1:0.14107707 5:0.0017119221 
1 3:2.4678518 4:0.014461386 5:0.0064623325 
-1 1:0.14233127 5:0.0015079329 
-1 2:0.079694269 3:1.1024846 4:0.011278437 
-1 1:0.14701942 2:0.0026258014 5:0.00054587063 
1 1:0.14265225 2:0.0037943455 5:0.00023665287 
1 3:2.3484941 4:0.014273458 5:0.0062997865 
1 1:0.13916145 2:0.048473428 
1 1:0.14585855 2:0.022544391 
1 1:0.13677503 2:0.064422262 
1 3:2.2647985 4:0.015085276 5:0.0046022496 
-1 2:0.019098521 3:1.7198581 4:0.015178319 
-1 2:0.08256179 3:1.1415692 4:0.011336019 
1 1:0.12362413 2:0.041506411 
1 3:2.2381878 4:0.014374615 5:0.0057199636 
-1 2:0.0076455569 3:1.6801225 4:0.015105102 
-1 2:0.050663069 3:1.3836934 4:0.01401004 
1 2:0.015615425 3:1.7177495 4:0.01541728 
-1 1:0.11472338 5:0.011013833 
1 3:2.1723957 4:0.015035032 5:0.0040663877 
-1 1:0.13021322 5:0.0054090176 
-1 2:0.038263912 3:1.4712752 4:0.014473491 
-1 1:0.15185573 2:0.036265855 
1 1:0.12946889 2:0.065009883 
-1 2:0.036165447 3:1.5699451 4:0.014788637 
1 1:0.11884779 2:0.074179614 
1 3:2.344071 4:0.013485042 5:0.0074462506 
1 3:2.6967288 4:0.010508525 5:0.011292739 
1 1:0.13462126 5:0.0055620324 
-1 3:2.1991446 4:0.015093975 5:0.0041474892 
1 2:0.0067994553 3:1.9110853 4:0.015627597 
1 1:0.11412758 2:0.098699983 
1 3:2.346657 4:0.013817008 5:0.0071235987 
1 3:2.3789751 4:0.014000688 5:0.0068680452 
1 1:0.14225896 2:0.019653535 
1 1:0.080635449 5:0.0079146491 
-1 3:2.5027518 4:0.012484931 5:0.0091362921 
1 3:2.4223122 4:0.013653335 5:0.0075946587 
-1 2:0.032510144 3:1.5932386 4:0.014944388 
1 2:0.0012453268 3:1.9352342 4:0.015600113 5:0.00074113022 
-1 1:0.11235589 5:0.0071342451 
1 1:0.13236482 2:0.013172903 
1 3:2.0603787 4:0.015192333 5:0.0027833208 
1 3:2.0721947 4:0.015193494 5:0.0033361888 
-1 2:0.01071299 3:1.8277127 4:0.015234387 5:0.00017385636 
-1 3:2.1354471 4:0.014638583 5:0.0046251031 
1 3:2.3219273 4:0.014237975 5:0.0062496212 
-1 3:2.3695857 4:0.014048131 5:0.0064858394 
1 3:2.4194258 4:0.01369361 5:0.0074968616 
1 2:0.026314075 3:1.8718057 4:0.01558885 
1 1:0.12879288 2:0.00034285773 
1 1:0.10023245 5:0.00074676335 
1 1:0.13401617 5:0.00077253564 
-1 1:0.13105895 5:0.0034028013 
1 1:0.039023748 2:0.11881116 
-1 1:0.12873 
1 1:0.086168259 5:0.0067270611 
-1 1:0.12784453 2:0.0073044484 
1 1:0.12340331 2:0.010619162 
-1 1:0.10030595 5:0.008107792 
1 1:0.12699176 2:0.023262125 
1 1:0.099307033 5:0.0059853488 
-1 1:0.12677845 5:0.0022285177 
-1 2:0.066671347 3:1.4762628 4:0.014330337 
1 2:0.031197806 3:1.8300095 4:0.01546914 
1 1:0.090173148 5:0.0059721992 
1 1:0.13976585 
-1 1:0.11548337 
1 1:0.13241042 
1 1:0.11594829 
1 1:0.063711375 5:0.00845793 
1 3:2.1594675 4:0.014767111 5:0.0041586193 
-1 1:0.11385 2:0.027505826 
-1 1:0.019822911 2:0.13514097 3:0.027922431 
-1 1:0.14306065 5:0.00014572005 
1 1:0.062000514 2:0.10018097 
1 1:0.072182726 5:0.0078778207 
-1 1:0.1305451 
-1 2:0.090219488 3:1.1585054 4:0.012566022 
1 1:0.13501362 
1 1:0.10388582 5:0.0018370038 
-1 1:0.1283731 2:0.02050037 
-1 2:0.14467416 3:0.51331354 4:0.0056003985 
-1 1:0.10345916 5:0.0091794921 
1 2:0.14282735 3:0.3837176 4:0.004750007 
-1 1:0.13395908 2:0.005031017 
-1 1:0.13440551 2:0.010019943 
1 2:0.036420894 3:1.7487981 4:0.015079511 
1 2:0.085132908 3:1.3174447 4:0.013575853 
1 1:0.07353077 2:0.1036613 
1 1:0.11067044 
-1 1:0.086389992 5:0.0064870521 
1 1:0.075688371 5:0.0055649997 
1 1:0.080528278 5:0.0059257994 
1 1:0.073626627 5:0.0082269716 
-1 1:0.034645231 5:0.012236536 
1 1:0.062575126 5:0.0075504165 
1 1:0.11126274 2:0.070970374 
1 1:0.13310508 2:0.0011891975 
-1 1:0.048463962 5:0.010666687 
1 1:0.071068027 5:0.0062629239 
1 1:0.048628242 2:0.12841043 3:0.084885308 
1 1:0.13027232 
-1 2:0.038245922 3:1.6847983 4:0.015023663 5:0.00019857921 
1 1:0.029903752 2:0.062684513 3:1.9070522 4:0.0040469065 
1 1:0.03614953 2:0.030517014 3:0.96388907 
-1 3:1.371573 4:0.012636881 5:0.01002702 
-1 3:1.3714414 4:0.012658534 5:0.0099581539 
-1 3:1.3762824 4:0.012599784 5:0.010053076 
-1 3:1.3701761 4:0.012630713 5:0.010076298 
-1 4:0.014151212 5:0.0050211788 
1 4:0.014404014 5:0.0042245203 
1 4:0.014636177 5:0.003328311 
1 4:0.014211825 5:0.0048316865 
-1 4:0.014248515 5:0.0047319239 
1 4:0.014630215 5:0.0033355097 
1 4:0.014299982 5:0.004578425 
1 4:0.014303275 5:0.0045669374 
1 4:0.01427005 5:0.0046658205 
1 4:0.014372226 5:0.0043401028 
1 4:0.014417515 5:0.0041619237 
1 4:0.014565277 5:0.0036240505 
1 4:0.014419405 5:0.0041767675 
1 4:0.014931703 5:0.0014571508 
1 4:0.01451217 5:0.0038360814 
1 4:0.014484721 5:0.0039378147 
1 4:0.014313413 5:0.0045317639 
1 4:0.014485389 5:0.0039411754 
1 4:0.014380063 5:0.0042972085 
-1 4:0.013957643 5:0.0055526874 
1 4:0.014477412 5:0.0039703358 
1 4:0.014722842 5:0.0028971422 
1 4:0.014728504 5:0.0028649598 
1 4:0.014824885 5:0.0023034716 
1 4:0.014665361 5:0.0031826587 
-1 4:0.013560966 5:0.0064790617 
1 4:0.014804649 5:0.0024233691 
1 4:0.014893383 5:0.001830796 
1 4:0.014751281 5:0.0027369856 
1 4:0.0148986 5:0.0017606806 
-1 4:0.013803268 5:0.0059317103 
1 4:0.014515944 5:0.0037990334 
-1 4:0.013615703 5:0.0063646649 
1 4:0.014487183 5:0.0039049616 
1 4:0.014536734 5:0.0037199276 
1 4:0.014856001 5:0.0020775868 
1 4:0.014592121 5:0.003477684 
1 4:0.014171602 5:0.0049364316 
-1 4:0.014107789 5:0.0050971875 
1 4:0.014749138 5:0.0027318358 
1 4:0.014243287 5:0.0047461971 
-1 4:0.01407318 5:0.0052346783 
1 4:0.014773569 5:0.0025972627 
1 4:0.01393305 5:0.0056043817 
1 4:0.014906282 5:0.0016763914 
1 4:0.013476004 5:0.0066341081 
-1 4:0.013914672 5:0.0056325254 
1 4:0.015001187 
1 4:0.014823402 5:0.0023014926 
1 4:0.014510595 5:0.0038007401 
-1 4:0.014345005 5:0.0043842001 
1 4:0.014765192 5:0.002648989 
1 4:0.014696958 5:0.0030011592 
-1 4:0.014217676 5:0.0047922422 
-1 4:0.014526686 5:0.003739297 
1 4:0.014928354 5:0.001520034 
-1 4:0.01459512 5:0.0034748402 
1 4:0.014380402 5:0.0042682133 
-1 4:0.013751988 5:0.0059967657 
1 4:0.014709482 5:0.0029386406 
1 4:0.014711644 5:0.0029285024 
-1 4:0.014842617 5:0.0021671988 
-1 4:0.01478426 5:0.0025357364 
1 4:0.014927896 5:0.0014916591 
-1 4:0.014894964 5:0.0017737687 
1 4:0.014838801 5:0.0022200986 
1 4:0.014295749 5:0.0045430104 
1 4:0.014983256 5:0.00076848632 
1 4:0.014252259 5:0.0046769791 
-1 4:0.013576438 5:0.0064024758 
-1 4:0.01375943 5:0.0059780652 
1 4:0.01495848 5:0.001318016 
-1 4:0.014745896 5:0.0027527272 
1 4:0.014974898 5:0.0010339577 
1 4:0.014850728 5:0.0021142976 
-1 4:0.014780618 5:0.0025621888 
1 2:0.0027304174 4:0.015022373 
1 4:0.014834137 5:0.0022403346 
1 1:0.16580819 2:0.021932926 3:2.8606267 
1 1:0.16562875 2:0.021621722 3:2.8582839 
1 1:0.16757599 2:0.016497521 3:2.8310869 
1 1:0.12203232 2:0.022366132 
-1 1:0.1152754 2:0.020236367 
-1 1:0.11351623 2:0.022543942 
-1 1:0.11965458 2:0.0148665 
1 1:0.11445612 2:0.019024275 
-1 1:0.11276737 2:0.012553188 
-1 1:0.11637721 2:0.016349543 
1 1:0.11755041 2:0.015587813 
1 1:0.11476948 2:0.019316892 
-1 1:0.11434225 2:0.015188345 
1 1:0.11373436 2:0.013897809 
-1 1:0.10660716 2:0.012164584 
-1 1:0.11502103 2:0.017261032 
1 1:0.11319112 2:0.016286214 
1 1:0.11800589 2:0.01521302 
1 1:0.11445567 2:0.0098939135 
1 1:0.11751806 2:0.012289609 
1 1:0.11126358 2:0.0066440625 
-1 1:0.11137779 2:0.0041005305 
-0.6622898228077169 2:0.003209923 3:1.9568868 4:0.015156432 
-1 2:0.0075145998 4:0.015200618 
1 2:0.020495928 4:0.014565299 
-1 2:0.0033024319 4:0.015470691 
-1 4:0.015544571 
-1 2:0.0012178007 4:0.015411958 
1 4:0.015412585 
-1 2:0.0049496134 4:0.015164473 
-1 2:0.012606514 4:0.014889283 
-1 4:0.015329683 
-1 2:0.0031051212 4:0.015220443 
-1 2:0.0048408984 4:0.01517838 
1 2:0.029214988 4:0.014270157 
1 4:0.015347702 
-1 2:0.006983329 4:0.01510467 
1 2:0.018642795 4:0.014774969 
-1 2:0.0073318144 4:0.015074394 
1 2:0.024055574 4:0.01460404 
-1 4:0.015251394 
-1 2:0.0030377098 4:0.015183862 
-1 2:0.014052805 4:0.014934589 
-1 2:0.021178557 4:0.014732278 
-1 3:0.53878765 4:0.013955493 5:0.0088680636 
-1 3:0.54653995 4:0.013908972 5:0.0088147862 
-1 3:0.5411164 4:0.013937062 5:0.0088838056 
-1 3:0.53306775 4:0.014022409 5:0.0086585702 
-1 3:2.0926791 4:0.014519631 5:0.0043082357 
-1 3:2.1290595 4:0.014561561 5:0.0040471751 
-1 3:2.1471212 4:0.014541711 5:0.0040480701 
-1 3:2.1255209 4:0.014633441 5:0.0036454994 
1 3:2.1397541 4:0.01467121 5:0.0033782379 
-1 3:2.146742 4:0.01461366 5:0.0036519995 
-1 3:2.0968008 4:0.014653166 5:0.003523091 
1 3:2.2326626 4:0.014128192 5:0.0051099355 
-1 3:2.1518995 4:0.014404554 5:0.0044113058 
1 3:2.1680533 4:0.014507701 5:0.0039473072 
-1 3:2.1747028 4:0.014369677 5:0.004477798 
-1 3:2.1789658 4:0.014394857 5:0.0043062319 
1 3:2.2341628 4:0.014368966 5:0.0043122803 
-1 3:2.1753116 4:0.014601742 5:0.0034994337 
1 3:2.2425504 4:0.014416813 5:0.0041419201 
-1 3:2.1744458 4:0.01453266 5:0.0037282369 
-1 3:2.2759019 4:0.014328807 5:0.0044371912 
1 3:2.2589378 4:0.014391096 5:0.0042307234 
-1 3:2.2451671 4:0.014431278 5:0.0040914841 
1 3:2.2349376 4:0.014525775 5:0.0037535095 
-1 3:2.1981166 4:0.014615052 5:0.0033773466 
1 2:0.0011256108 3:2.1756029 4:0.014771362 5:0.0026407063 
-1 3:2.2321524 4:0.014485747 5:0.0038973922 
1 2:0.0076341667 3:2.1468782 4:0.014915257 5:0.0017141038 
-1 3:2.2167727 4:0.014508885 5:0.0038109036 
-1 3:2.2475526 4:0.014578244 5:0.0035571264 
1 3:2.2680374 4:0.01455411 5:0.0036677886 
-1 3:2.2383722 4:0.014714047 5:0.0029684974 
1 2:0.0042375267 3:2.1492665 4:0.014822399 5:0.0024108519 
1 3:2.2487163 4:0.014443934 5:0.0040697664 
-1 2:0.0012973584 3:2.1716063 4:0.014796343 5:0.0025368536 
-1 3:2.2455908 4:0.014479695 5:0.0039717777 
-1 3:2.2747381 4:0.014463689 5:0.0040453994 
1 2:0.002299095 3:2.2181167 4:0.014749431 5:0.0028261911 
-1 3:2.270866 4:0.014471087 5:0.0039966759 
1 2:0.0033427197 3:2.1884224 4:0.014760595 5:0.0028099493 
-0.9568480656418582 3:2.2578137 4:0.014463751 5:0.0040263011 
-1 2:0.0014026262 3:2.2179587 4:0.014647065 5:0.0033299693 
1 2:0.0034784618 3:2.2523394 4:0.014674504 5:0.003241674 
-1 2:0.0019454449 3:2.2836531 4:0.014775242 5:0.0028444001 
1 3:2.2690929 4:0.014408977 5:0.0042508524 
1 2:0.0094145583 3:2.1606094 4:0.014946472 5:0.0018849599 
-1 2:0.0014524945 3:2.2100423 4:0.014723126 5:0.0030478973 
1 2:0.00027414472 3:2.2891417 4:0.014440322 5:0.004115422 
-1 3:2.3701895 4:0.014323282 5:0.0045722717 
1 3:2.301454 4:0.014588216 5:0.003794651 
-1 3:2.3440121 4:0.014414693 5:0.0043056144 
-1 3:2.3043542 4:0.014508871 5:0.003916667 
1 3:2.345107 4:0.014469891 5:0.0041227941 
-1 2:0.0076588393 3:2.1963053 4:0.014815273 5:0.0024960941 
1 3:2.306264 4:0.01451537 5:0.0039902475 
-1 3:2.3227422 4:0.014503675 5:0.0039769729 
-1 3:2.3503772 4:0.014330854 5:0.0045175247 
1 2:0.003237862 3:2.3009166 4:0.01461163 5:0.0036110528 
-1 3:2.3044938 4:0.014482924 5:0.0040268551 
-1 3:2.3733455 4:0.014421394 5:0.0043500068 
1 2:0.013420052 3:2.2660112 4:0.01494441 5:0.0022266951 
1 3:2.369668 4:0.014435763 5:0.004311186 
-1 2:0.0061836831 3:2.2870232 4:0.014859793 5:0.0026342188 
-1 3:2.3672142 4:0.014540939 5:0.0040580663 
1 2:0.0081248903 3:2.2947573 4:0.014716216 5:0.0031986646 
-1 2:0.0007039305 3:2.3384489 4:0.014701056 5:0.0034857351 
1 2:0.030126838 3:2.1004873 4:0.015151186 
-1 2:0.012822176 3:2.1863365 4:0.014761013 5:0.0026845917 
1 2:0.0041106625 3:2.3455534 4:0.014267485 5:0.0046674191 
-1 2:0.0012588114 3:2.3979129 4:0.01392172 5:0.0055868034 
-1 2:0.010070245 3:2.2749892 4:0.014534604 5:0.0037139355 
1 2:0.00073205929 3:2.4089794 4:0.01406146 5:0.0053118005 
1 2:0.0067993855 3:2.3550649 4:0.014796632 5:0.0031406797 
-1 3:2.4318358 4:0.014022135 5:0.0053767367 
1 2:0.0029315039 3:2.4270152 4:0.014141775 5:0.0051273896 
-1 3:2.4892095 4:0.013887751 5:0.0058362511 
1 2:0.0094726668 3:2.4134477 4:0.014742818 5:0.0035711841 
1 3:2.5018477 4:0.013976544 5:0.0056410469 
-1 3:2.4761047 4:0.013934648 5:0.0056531769 
1 3:2.5530146 4:0.013352473 5:0.0069116027 
1 3:2.704041 4:0.01199079 5:0.0090521322 
-1 2:0.020779654 3:2.2530027 4:0.015049247 5:0.0014731176 
1 3:2.5958732 4:0.01309743 5:0.0073765357 
1 3:2.6311052 4:0.012986897 5:0.0076070124 
-1 3:2.6641262 4:0.013348558 5:0.0072117958 
1 2:0.010369628 3:2.502531 4:0.014600888 5:0.0043058483 
-1 3:2.602058 4:0.013175049 5:0.0072257541 
1 2:0.0098487446 3:2.4313254 4:0.014171795 5:0.0050397404 
-1 3:2.7224252 4:0.012105898 5:0.0089160601 
1 3:2.7261303 4:0.013292056 5:0.0074886172 
-1 3:2.6738689 4:0.012049322 5:0.0089339112 
1 2:0.0086760803 3:2.6268085 4:0.01375085 5:0.0065308986 
-1 3:2.7599749 4:0.011404118 5:0.0097670987 
1 2:0.010909285 3:2.5357945 4:0.014199194 5:0.0053169584 
-1 3:2.6694274 4:0.011951477 5:0.0090674192 
1 3:2.8504272 4:0.010644979 5:0.010581735 
-1 3:2.7702619 4:0.011264894 5:0.0099072091 
1 2:0.0086844027 3:2.6456987 4:0.014985363 5:0.0046520073 
-1 3:2.8007906 4:0.012670141 5:0.0084496038 
1 3:2.8190799 4:0.0096403579 5:0.011542946 
-1 2:0.035010869 3:2.0069468 4:0.014977114 
1 3:2.9853782 4:0.0090280729 5:0.011987281 
1 1:0.008934318 5:0.010424754 
-1 3:2.9863048 4:0.011384039 5:0.010193748 
-1 5:0.011405122 
1 3:2.9279059 4:0.012741558 5:0.0087721354 
1 2:0.027943026 3:2.4635379 4:0.014778142 5:0.0036621558 
-1 4:0.0077811041 5:0.012964073 
1 3:2.9811989 4:0.0087975635 5:0.012156584 
-1 5:0.014392635 
1 3:3.1297572 4:0.0078646072 5:0.01278806 
1 3:3.0155863 4:0.0089152489 5:0.012074696 
1 2:0.088885717 3:1.8618133 4:0.013812973 
1 2:0.000548357 3:2.9649201 4:0.010451469 5:0.010914446 
-1 4:0.0073946079 5:0.013083669 
-1 4:0.00024436959 5:0.015347094 
-1 4:0.0059320975 5:0.013786994 
-1 4:0.00349497 5:0.014941439 
1 1:0.016548338 5:0.00016210513 
1 1:0.033015543 2:0.065933512 3:0.76777838 4:0.0022050738 
-1 1:0.063026905 2:0.040260575 3:0.55349398 
-1 2:0.052596519 3:1.6173488 4:0.013366431 
-1 1:0.024387355 
1 2:0.069620273 3:1.6164612 4:0.012550491 
-1 5:0.0046018508 
1 2:0.01034659 4:0.0041740491 5:0.014466749 
1 1:0.018679169 2:0.041519511 3:1.5306304 4:0.012649189 
1 2:0.047480507 3:1.1316575 4:0.015530848 
-1 5:0.0060654287 
1 1:0.035066337 
-1 5:0.0072655744 
-1 5:8.438098e-05 
1 1:0.025295499 
-1 5:0.00078780154 
1 1:0.019018461 2:0.045850724 3:2.2213185 4:0.014804498 5:0.0024610246 
1 1:0.014981483 
-1 1:0.012227253 5:0.00096414605 
-1 
-1 
1 
1 1:0.034843223 2:0.050000628 3:2.0723255 4:0.014996132 5:0.00036758321 
-1 3:1.8609545 4:0.015015071 5:0.0018357857 
1 3:1.8985074 4:0.014942641 5:0.0021591506 
-1 3:1.8001547 4:0.015101895 5:0.00096391883 
1 3:1.7914235 4:0.015103858 5:0.0007563262 
1 2:0.0051413151 4:0.01502246 
-1 2:0.013279248 4:0.014698826 
1 2:0.0070920781 4:0.01492476 
-1 2:0.014035378 4:0.014655582 
1 2:0.0090608236 4:0.014866253 
1 4:0.015079311 
1 2:0.0061103917 4:0.014892556 
-1 2:0.018021597 4:0.014601216 
1 2:0.0085230833 4:0.014869338 
-1 2:0.062569733 4:0.01085878 
-1 2:0.04599721 4:0.013395989 
-1 2:0.041529964 4:0.013656946 
1 3:0.86364439 4:0.0046173468 5:0.014690347 
-1 2:0.0176638 4:0.014653159 
-1 4:0.015154795 
1 4:0.015137907 5:0.0014735892 
-1 2:0.037151808 4:0.013762847 
-1 2:0.026230538 4:0.014325465 
1 2:0.018797989 4:0.014596001 
-1 2:0.039008238 4:0.013895194 
1 2:0.013888757 4:0.01480272 
-1 2:0.085966563 4:0.0092846294 
-1 2:0.043179605 4:0.013384717 
1 4:0.01512292 5:0.0002688788 
1 2:0.015401112 4:0.014720261 
-1 2:0.023584628 4:0.014421486 
1 2:0.02275391 4:0.014579875 
1 2:0.027467678 4:0.014386447 
-1 2:0.022917816 4:0.014484375 
1 4:0.015163401 
-1 2:0.029589521 4:0.014405474 
1 2:0.023995392 4:0.014625061 
-1 2:0.025387422 4:0.014472863 
1 4:0.015173465 5:0.00021630862 
1 4:0.01511105 5:0.0012282997 
-1 2:0.011957623 4:0.014833145 
1 4:0.015110194 
-1 2:0.055666339 4:0.012885095 
1 2:0.045434557 4:0.013634867 
-1 1:0.10915586 3:2.6167407 5:0.0011708312 
-1 2:0.047011359 4:0.013841636 
-1 2:0.00014997322 4:0.015077607 
-1 3:0.078254829 4:0.014430014 5:0.005689807 
1 1:0.0063068414 3:1.4147196 5:0.015861402 
-1 2:0.08564913 4:0.010475376 
1 2:0.056656703 4:0.013631638 
1 2:0.0064233826 4:0.015040078 
1 2:0.061191342 4:0.013059205 
-1 1:0.0067284912 2:0.10758039 
-1 2:0.059508473 4:0.013216992 
1 4:0.015228795 
-1 2:0.072367574 4:0.012409205 
1 2:0.041333061 4:0.014222389 
-1 2:0.06210462 4:0.013271609 
1 2:0.046857661 4:0.013653645 
1 2:0.072162583 4:0.012643908 
-1 2:0.085870864 4:0.011001123 
1 3:0.14714243 4:0.014623668 5:0.0058021944 
-1 1:0.1087673 2:0.055552932 3:3.0801378 
1 2:0.067237821 4:0.013268066 
-1 2:0.099212298 4:0.0081771298 
1 2:0.019599887 4:0.014806122 
-1 2:0.11101991 4:0.00790758 
1 2:0.052486903 4:0.01355511 
-1 2:0.13007558 4:0.00052467312 
1 3:0.28119383 4:0.013542843 5:0.0075653264 
1 2:0.037633116 4:0.014374967 
-1 2:0.096045088 4:0.0088595537 
1 2:0.096260986 4:0.0099207267 
-1 1:0.09572024 3:2.3080556 5:0.0075531693 
-1 2:0.12625339 4:0.0050157511 
-1 2:0.0067481743 4:0.015144284 
1 3:0.23508767 4:0.013859214 5:0.0071146845 
1 1:0.12255152 2:0.016624779 3:2.8797406 
-1 1:0.1208757 3:2.712459 5:0.0015434819 
-1 3:0.077324169 4:0.01366344 5:0.006311481 
-1 1:0.06874059 3:1.9948743 5:0.011894931 
-1 1:0.10016129 3:2.4706488 5:0.0049037124 
-1 2:0.080080897 4:0.011297519 
-1 2:0.062909053 4:0.013528311 
-1 2:0.024398813 4:0.014715091 
-1 1:0.086012285 3:2.2971473 5:0.008443139 
-1 2:0.058911171 4:0.01323529 
-1 2:0.027429633 4:0.014579462 
1 2:0.063919707 4:0.012449299 
-1 2:0.0061912071 4:0.014993323 
1 4:0.014992809 5:0.0018686128 
-1 4:0.015000993 5:0.0011053887 
1 4:0.014820028 5:0.0030561403 
1 2:0.00016342012 4:0.015018569 
-1 2:0.022985997 4:0.014617789 
-1 4:0.014982859 5:0.0012726413 
1 3:0.68271429 4:0.011192023 5:0.011052596 
-1 2:0.035256285 4:0.014301571 
1 3:1.2001728 4:0.0033369995 5:0.014938634 
1 2:0.077721951 4:0.011729864 
-1 2:0.036955663 4:0.014203437 
-1 2:0.030311036 4:0.014459754 
-1 1:0.18410018 3:2.3987356 
1 1:0.16719873 3:2.6130929 
-1 1:0.17873809 3:2.3436813 
1 1:0.17701148 3:2.6132191 
-1 1:0.18545426 2:0.0021374225 3:2.66784 
-1 1:0.19803047 3:2.3460643 
1 1:0.17644452 3:2.5911866 
-1 1:0.16905295 3:2.3143265 
-1 1:0.11985292 
1 1:0.13498756 
-1 1:0.11876407 
-1 1:0.12478507 
1 1:0.1204851 
-1 1:0.11433163 
1 1:0.11299137 
-1 1:0.1079611 
-1 1:0.12035801 
-1 1:0.1199909 
-1 1:0.098669887 
1 1:0.091933542 2:0.014605848 
1 1:0.12129921 
-1 1:0.11889774 
1 1:0.10999039 
-1 1:0.10146296 
-1 1:0.11902273 
1 1:0.085801554 2:0.018150787 
1 1:0.085569504 
-1 1:0.089715744 5:0.00033491675 
1 1:0.11218008 
-1 1:0.08634713 5:0.0019612887 
-1 1:0.058340111 2:0.033502615 
1 1:0.057888063 2:0.11189308 
1 1:0.067228776 
-1 1:0.011813445 5:0.0087903992 
1 1:0.083896489 5:0.0019046945 
-1 3:2.1607174 4:0.013186089 5:0.0092080117 
1 1:0.052016282 5:0.0083778593 
1 5:0.01481503 
1 3:2.0819472 4:0.014026965 5:0.0080680936 
-1 1:0.010145755 2:0.052100934 
1 1:0.058711357 5:7.6306569e-05 
-1 1:0.060777015 5:0.0074118433 
1 1:0.048825896 2:0.0032488372 
-1 1:0.047379417 5:0.0056720695 
-1 1:0.047214347 2:0.012269679 
-1 2:0.1050381 3:0.44335216 4:0.016333469 
-1 2:0.084020425 3:1.0392636 4:0.018127744 
-1 1:0.012436159 5:0.012075899 
1 1:0.066617208 
1 3:2.2057391 4:0.013204192 5:0.0082959134 
-1 2:0.050778442 3:0.70023575 4:0.012847052 
-1 1:0.087217063 5:0.0015423805 
-1 1:0.025051449 2:0.050818701 
1 2:0.061682801 3:1.1894679 4:0.016844027 
-1 1:0.0074262436 2:0.031022021 
-1 2:0.041064532 3:0.17447105 4:0.0079233693 
1 2:0.041803321 3:1.7910633 4:0.015459641 5:0.000933788 
-1 2:0.070512799 3:1.0509243 4:0.015458059 
1 2:0.032131157 3:2.0054665 4:0.014725771 5:0.004183062 
-1 1:0.016723007 2:0.005222956 
-1 2:0.0076438623 3:2.127062 4:0.013988265 5:0.0061488862 
1 1:0.026008652 5:0.00098849114 
-1 2:0.072808362 3:1.2499249 4:0.013229121 
1 2:0.032246574 3:1.9893539 4:0.014837914 5:0.0034118548 
1 2:0.01453187 3:2.3735475 4:0.012715043 5:0.0082445883 
1 2:0.022065721 3:0.4358133 4:0.0091242296 
-1 
-1 2:0.025164013 3:2.2192618 4:0.014205228 5:0.0049805122 
-1 
1 
1 
-1 3:2.6403491 4:0.01075986 5:0.010537625 
1 5:0.0010620198 
1 5:0.0013273349 
1 2:0.068012583 3:2.5827173 4:0.012299604 5:0.0085884363 
-1 5:0.0026712324 
1 
1 1:0.14399233 3:1.7619129 5:0.001702144 
1 1:0.12928371 3:1.770052 5:0.0022284424 
-1 1:0.13270987 3:1.7289105 5:0.0031809127 
1 1:0.15046759 3:1.8512867 
-1 1:0.1728714 3:1.8985724 
1 1:0.15615003 3:1.8971246 
-1 1:0.1732423 3:2.0237588 
1 1:0.15147892 3:1.8903884 
-1 1:0.13189555 3:1.704884 5:0.0030036863 
1 1:0.12650036 3:1.6981277 5:0.0027806331 
-1 1:0.16353333 3:1.9294709 
1 1:0.1009685 
-1 1:0.10142512 5:0.00037611925 
1 1:0.11616216 
-1 1:0.10155358 5:0.001594896 
1 1:0.10113944 
-1 1:0.11804276 
-1 1:0.10126144 5:0.00063705705 
1 1:0.10708054 
-1 1:0.10388011 5:0.0010555296 
1 1:0.11042233 
-1 1:0.10285594 
1 1:0.1050156 2:0.0061734264 
-1 1:0.10385257 5:0.00014601345 
1 1:0.084350308 2:0.028107851 
1 1:0.092637442 
1 1:0.070015795 5:0.0033968502 
1 1:0.099624677 
-1 1:0.0756539 5:0.0031773914 
1 1:0.077102459 2:0.028804933 
-1 1:0.080997368 5:0.0029896626 
1 1:0.091718898 
-1 1:0.075606761 
-1 1:0.081135297 5:0.0006915902 
1 1:0.069869741 2:0.018038416 
-1 1:0.085454391 2:0.0049816637 
1 1:0.077465169 5:0.00023049315 
-1 1:0.066593659 5:0.0034115974 
-1 1:0.058445286 5:0.0032011016 
-1 1:0.049151286 5:0.002112319 
-1 1:0.04113363 2:0.041598145 
1 1:0.037368137 2:0.042354001 
1 1:0.024120355 5:0.0080190632 
-1 1:0.01911647 5:0.0088113308 
1 1:0.035589159 2:0.014921995 
1 1:0.045527579 3:3.0522702 5:0.0062240142 
-1 1:0.020253196 3:3.1183924 5:0.010599566 
1 1:0.035080743 5:0.0056875483 
-1 2:0.032061796 3:0.082129216 4:0.0132795 
-1 1:0.032881065 2:0.030069144 
-1 1:0.00098979334 2:0.036312576 4:0.0028616667 
1 1:0.096632397 3:3.087734 5:0.0050612753 
1 2:0.037163329 4:0.010894304 
-1 2:0.038810809 4:0.01381334 
1 1:0.016718711 2:0.035663624 4:2.3457662e-05 
1 1:0.0193064 2:0.037937776 4:0.003656806 
-1 1:0.026509949 2:0.038015464 4:0.0056827188 
1 1:0.032033889 2:0.045552805 4:0.0047934925 
-1 1:0.020501214 2:0.038615627 4:0.0072096101 
1 2:0.047781482 3:0.010052154 4:0.010824371 
-1 1:0.0071460421 
1 2:0.059111666 4:0.0082676537 
-1 1:0.0074835022 2:0.045764682 4:0.0047656043 
1 2:0.047481849 4:0.013552451 
1 3:3.0790235 5:0.011511399 
1 1:0.051844621 5:0.0054792768 
1 5:0.01132434 
1 2:0.054820409 3:0.33460755 4:0.012720117 
-1 1:0.0021471058 
1 2:0.031843819 4:0.0020883359 
-1 1:0.014032467 5:0.0060026858 
1 2:0.028033741 4:0.0023445492 
-1 1:0.024239132 2:0.048865655 3:0.046499059 4:0.0096861329 
-1 1:0.04384285 5:0.0020774196 
-1 2:0.039537969 3:0.61432703 4:0.01462344 
1 1:0.023153618 5:0.0064410677 
1 1:0.012195846 5:0.0061858038 
1 1:0.0058675665 5:0.0072913746 
-1 1:0.011543918 5:0.0084235129 
-1 1:0.014301905 5:0.006749972 
1 5:0.0070094222 
1 1:0.038773521 5:0.0028753283 
1 5:0.0054838158 
-1 1:0.013413754 5:0.0065416154 
1 1:0.0085304178 5:0.0056041763 
-1 1:0.017140887 5:0.003819616 
1 1:0.048964448 
-1 1:0.012870145 5:0.0055852697 
1 1:0.031581994 
-1 5:0.0069704913 
1 5:0.0032655372 
-1 1:0.023578124 5:0.00023426179 
1 1:0.056196785 
1 1:0.019602054 
-1 2:0.055486542 3:1.2218577 4:0.014447444 5:0.0042367279 
-1 5:0.011307698 
1 1:0.011641059 5:0.0046134927 
1 2:0.046991379 3:1.3386313 4:0.015956891 5:0.0017126276 
-1 1:0.032169006 5:0.0058480497 
-1 5:0.0025094817 
1 5:0.0028594404 
1 5:0.013693553 
1 5:0.013039813 
-1 1:0.098437933 2:0.031020194 3:2.3981523 
0.3466328524727152 1:0.086347709 2:0.041833078 3:2.5002461 
1 1:0.081764402 2:0.048575188 3:2.5736941 
1 1:0.079194442 2:0.050246487 3:2.6033207 
1 1:0.04663301 2:0.044884279 3:0.76862047 
-1 1:0.042705884 2:0.044471165 3:0.82315051 
1 1:0.037002636 2:0.045641184 3:0.58120386 
-1 1:0.03692054 2:0.040577303 3:0.54250175 
-1 1:0.039271677 2:0.042452619 3:0.75086718 
1 1:0.018931363 2:0.049737716 3:0.82106905 
-1 1:0.029331439 2:0.036009518 3:0.87325635 
1 1:0.059988184 2:0.023030094 3:0.51881677 
-1 1:0.0330641 2:0.014337552 3:0.63766753 
-1 1:0.014124814 2:0.017514843 3:0.61617778 
-1 2:0.041571015 3:1.4157863 4:0.005585032 
1 1:0.017506763 2:0.044242857 3:1.3133419 4:0.0018612544 
1 1:0.041459065 2:0.039819864 3:1.0092421 
1 1:0.062151136 2:0.035292694 3:1.1397179 
-1 1:0.03540329 3:0.57719044 
1 2:0.020155488 3:0.79938073 
-1 4:0.0015654849 5:0.01521401 
1 2:0.012294983 4:0.0097184244 5:0.011727702 
1 1:0.038222838 2:0.039659052 3:1.4835544 4:0.0045681496 
-1 1:0.03509447 3:0.17949203 
1 1:0.018623879 2:0.032701167 3:1.5839936 4:0.0068383228 
1 1:0.041754063 2:0.022315949 3:1.6108379 4:0.0044290638 
1 5:0.01237992 
-1 5:0.015252687 
-1 5:0.011864162 
-1 1:0.0323128 3:0.85099791 
1 1:0.0061114543 2:0.03166295 3:1.5947697 4:0.0080100096 
-1 5:0.0062880871 
-1 
1 1:0.033472794 2:0.018461921 3:1.4158706 4:0.0042505411 
1 5:0.0079655164 
-1 5:0.011497649 
-1 1:0.015127834 2:0.033096346 3:1.5973012 4:0.0074571945 
-1 1:0.033422841 2:0.029798811 3:1.606977 4:0.0047889817 
1 1:0.02012933 2:0.033424215 3:1.3599945 4:0.0060540102 
-1 1:0.030800237 2:0.029142998 3:1.622603 4:0.0065671507 
1 1:0.0013300358 2:0.037234674 3:1.8114844 4:0.0089977659 
-1 1:0.026167655 2:0.03432308 3:1.7284239 4:0.0080019166 
1 1:0.019049698 2:0.030831889 3:1.6375616 4:0.0083110645 
1 2:0.021621562 3:1.3626089 4:0.0065727621 
-1 1:0.04315576 2:0.016772802 3:1.4559618 4:0.0043546464 
-1 4:0.0025385151 5:0.015876274 
-1 1:0.012224866 2:0.030062168 3:2.0284536 4:0.010840403 
-1 1:0.028414991 2:0.034268859 3:1.6420459 4:0.0092218391 
-1 5:0.012915456 
1 1:0.018472846 2:0.02419064 3:1.5137643 4:0.0064297918 
-1 1:0.040975627 2:0.014705966 3:1.5444168 4:0.0054026732 
-1 1:0.024771403 2:0.024452471 3:1.3649408 4:0.0066170538 
1 2:0.050476853 3:2.3687852 4:0.013522099 
1 1:0.037410363 2:0.033550381 3:1.7892458 4:0.0080105213 
-1 1:0.040206651 2:0.021476585 3:1.5405898 4:0.0056629447 
-1 1:0.032845807 2:0.027894378 3:1.5706633 4:0.0072008322 
-1 2:0.053442501 3:2.3082407 4:0.013380325 
-1 1:0.051935705 2:0.034457488 3:1.9834358 4:0.0075354166 
-1 5:0.010355852 
-1 5:0.012362274 
-1 1:0.041051505 2:0.030954908 3:1.7321653 4:0.0070883058 
1 1:0.036079368 2:0.041583779 3:2.0620128 4:0.0094126992 
-1 1:0.026323168 2:0.020588153 3:1.7494251 4:0.0075214978 
1 1:0.045522219 2:0.041993978 3:1.7353706 4:0.0083363306 
1 5:0.010351139 
1 2:0.013405452 4:0.004703369 5:0.014487957 
1 1:0.027438193 2:0.031123017 3:2.0315512 4:0.0082817777 
1 5:0.0054737193 
1 5:0.010363763 
-1 5:0.010355147 
-1 5:0.012099696 
-1 1:0.031799934 2:0.018300004 3:2.0158476 4:0.011239254 
1 5:0.012261987 
1 5:0.015107747 
1 2:0.036148814 4:0.017081548 5:0.0032384942 
-1 2:0.035250529 4:0.017325962 5:0.0034104756 
-1 2:0.03838154 4:0.017266034 5:0.0030527593 
1 2:0.037750279 4:0.017170327 5:0.0031915569 
-1 2:0.035174359 4:0.017242074 5:0.0034958785 
1 2:0.039007898 4:0.017063398 5:0.0027404094 
-1 2:0.022388633 3:1.3700876 4:0.018844856 5:0.0050141517 
-1 2:0.018707047 3:1.3535293 4:0.018425854 5:0.00543767 
-1 2:0.018030441 3:1.4080302 4:0.018155673 5:0.0055217466 
-1 2:0.017875556 3:1.4624812 4:0.017955421 5:0.0054873186 
-1 2:0.013083153 3:1.5260461 4:0.017412048 5:0.0064289046 
1 2:0.010335228 3:1.6155141 4:0.016761123 5:0.0070968583 
-1 2:0.0119562 3:1.6035351 4:0.017031322 5:0.0066001683 
1 2:0.0090182801 3:1.6335714 4:0.016479588 5:0.0072943045 
-1 2:0.017552241 3:1.5004351 4:0.017478776 5:0.0054313621 
-1 2:0.012764958 3:1.5348859 4:0.016957077 5:0.0061968864 
-1 2:0.0083496225 3:1.6896418 4:0.016248523 5:0.0069831203 
-1 2:0.010807846 3:1.6754248 4:0.016102154 5:0.0065163994 
1 3:1.8583581 4:0.014947023 5:0.0084723864 
-1 2:0.0032772002 3:1.7581613 4:0.015478522 5:0.0075068385 
-1 2:0.0074582176 3:1.7674597 4:0.015671032 5:0.0068869512 
1 2:0.0055981205 3:1.8217855 4:0.015111254 5:0.0075600657 
-1 2:0.018307212 3:1.6376098 4:0.016339157 5:0.0049576257 
-1 2:0.0097350898 3:1.6985006 4:0.015576669 5:0.0064550563 
1 2:0.0076233322 3:1.837091 4:0.015317907 5:0.0068438326 
-1 2:0.015028349 3:1.6501721 4:0.016173558 5:0.0053193015 
-1 2:0.01881072 3:1.6012913 4:0.016266143 5:0.004762056 
-1 2:0.0084534083 3:1.7630489 4:0.015515967 5:0.0063956735 
-1 2:0.0080617836 3:1.7970553 4:0.015305578 5:0.0065354352 
1 2:0.010748105 3:1.7906066 4:0.015385356 5:0.0060887233 
-1 2:0.011455747 3:1.6913723 4:0.015610906 5:0.0056331824 
-1 2:0.012298545 3:1.7604304 4:0.015517548 5:0.0055944308 
1 2:0.0001006071 3:1.9287357 4:0.014366018 5:0.0079076962 
-1 2:0.013024233 3:1.7837811 4:0.015573966 5:0.0052389797 
-1 2:0.01220094 3:1.7660141 4:0.015390034 5:0.0053196263 
-1 2:0.014727214 3:1.7918772 4:0.015364704 5:0.0049661751 
1 2:0.01808676 3:1.7983459 4:0.015277298 5:0.0044072589 
-1 2:0.017892283 3:1.7601592 4:0.015404046 5:0.0042930305 
1 3:2.1974804 4:0.012519291 5:0.009694422 
-1 2:0.012932363 3:1.8828503 4:0.015020527 5:0.0048967905 
1 2:0.01311084 3:1.9001954 4:0.014832838 5:0.0052633878 
-1 2:0.015351536 3:1.8522785 4:0.015046614 5:0.0045618272 
1 2:0.014923889 3:1.8417292 4:0.014966625 5:0.0047474909 
-1 2:0.01899516 3:1.8282674 4:0.01527559 5:0.0039438223 
-1 2:0.020806487 3:1.8402254 4:0.015180138 5:0.0036677888 
1 2:0.014853646 3:1.8742174 4:0.01485571 5:0.004546875 
-1 2:0.017415277 3:1.8863242 4:0.014995349 5:0.0039643571 
1 2:0.016034943 3:1.8402686 4:0.014876795 5:0.0042491318 
-1 3:2.4330125 4:0.01065302 5:0.011528179 
1 5:0.010079893 
-1 2:0.031190595 3:1.7953345 4:0.015277364 5:0.0021012338 
1 2:0.015420148 3:1.9415431 4:0.014814691 5:0.0041823259 
-1 2:0.045461529 3:1.6834228 4:0.015418572 5:0.00018499185 
-1 2:0.018307021 3:1.8833377 4:0.014856166 5:0.0036682382 
1 3:2.4024125 4:0.01137322 5:0.01039294 
1 2:0.0054862555 3:2.1315323 4:0.01387008 5:0.0066309033 
-1 2:0.016030771 3:1.977261 4:0.014664692 5:0.0041520041 
1 2:0.017629309 3:1.9734365 4:0.014612597 5:0.0042908082 
-1 2:0.022298183 3:1.8999495 4:0.014973989 5:0.003187789 
-1 2:0.0074515576 3:2.0105436 4:0.014369551 5:0.0050098201 
-1 2:0.023815335 3:1.9202077 4:0.014888546 5:0.0031232347 
1 2:0.0060368627 3:2.1283678 4:0.014008189 5:0.0057975404 
-1 2:0.017174446 3:1.9754548 4:0.014709697 5:0.003730128 
1 2:0.0053195291 3:2.1194363 4:0.013959718 5:0.0058703735 
-1 2:0.012734709 3:2.0571141 4:0.014396719 5:0.0046582994 
-1 2:0.011570019 3:2.105277 4:0.013928399 5:0.0060957475 
-1 1:0.019538968 2:0.088981271 3:0.55908492 4:0.005121561 
-1 2:0.019254923 3:2.0050176 4:0.01470214 5:0.0035056646 
-1 2:0.018056611 3:2.0667647 4:0.014608972 5:0.0037951049 
1 2:0.021668259 3:2.007672 4:0.014693718 5:0.0033050285 
-1 2:0.055961985 3:1.6809072 4:0.015219215 
-1 2:0.028557944 3:1.9257013 4:0.014910302 5:0.0024940514 
1 2:0.014968668 3:2.1027676 4:0.014404103 5:0.0043405622 
-1 2:0.018331125 3:2.0988531 4:0.014568535 5:0.0037072412 
1 2:0.023288154 3:2.0423674 4:0.014642694 5:0.0034336671 
-1 2:0.0038740345 3:2.1739802 4:0.01386032 5:0.0060313755 
-1 2:0.013750978 3:2.1578842 4:0.014247757 5:0.0048177256 
-1 1:0.045179148 2:0.14000231 3:0.56834124 4:0.0025197961 
-1 2:0.0085184261 3:2.1737732 4:0.014234355 5:0.0048058195 
-1 2:0.022908223 3:2.0405637 4:0.014611115 5:0.0035038552 
-1 1:0.12998789 
-1 2:0.024291249 3:2.0551929 4:0.014626081 5:0.0034166017 
1 2:0.018919629 3:2.2050565 4:0.01426945 5:0.0046660511 
-1 2:0.016400184 3:2.0699711 4:0.014433655 5:0.0042559977 
-1 3:2.2395592 4:0.013603631 5:0.0063991306 
-1 1:0.087959072 
1 2:0.087106796 3:1.5851338 4:0.014939761 
-1 2:0.03598317 3:1.9826701 4:0.014854479 5:0.0022275175 
1 2:0.046419084 3:1.9458592 4:0.014956601 5:0.0013639312 
-1 2:0.013428837 3:2.1702408 4:0.014185986 5:0.0049711012 
1 2:0.033865529 3:2.1298934 4:0.014738486 5:0.002801436 
1 2:0.014058286 3:2.2391661 4:0.014069066 5:0.0052562517 
-1 2:0.075463294 3:1.6243194 4:0.014905091 
1 2:0.081991647 3:1.743167 4:0.014954347 
-1 2:0.024481524 3:2.2242438 4:0.014455626 5:0.0040138034 
1 2:0.048385884 3:2.0490007 4:0.014897965 5:0.0017496837 
-1 2:0.053612092 3:1.915335 4:0.015015693 5:0.00063798443 
1 2:0.028857081 3:2.1861664 4:0.01447513 5:0.0039351428 
1 2:0.019720246 3:2.1995396 4:0.014301647 5:0.0045765538 
-1 2:0.071750129 3:1.820731 4:0.015043502 
1 1:0.13186449 2:0.12793038 3:0.051120785 
1 2:0.029214226 3:2.1868921 4:0.014401534 5:0.0041962477 
-1 4:0.0061871652 5:0.015110216 
-1 4:0.0030883835 5:0.016786008 
1 1:0.033460134 2:0.038654555 3:1.7963589 
-1 4:0.0015040563 5:0.014978433 
-1 4:0.0041218463 5:0.01473732 
-1 1:0.089246459 2:0.018777496 3:1.9484499 
1 4:0.012781454 5:0.0081657369 
1 4:0.0096590583 5:0.012391556 
1 1:0.082717325 2:0.053457557 3:1.9419044 
-1 4:0.0087590155 5:0.012728176 
-1 4:0.0094916745 5:0.011871416 
-1 4:0.0094621508 5:0.011807012 
1 4:0.0097138442 5:0.011648581 
1 4:0.011935694 5:0.0093029901 
1 3:1.0592161 4:0.008626347 5:0.014867698 
1 3:0.58588083 4:0.014593315 5:0.0075830412 
1 1:0.075194335 2:0.01947169 
-1 3:1.2249568 4:0.0067157135 5:0.015256907 
-1 3:1.5121344 4:0.005922015 5:0.01394915 
1 2:0.0092642812 3:0.73628371 4:0.013272568 5:0.0082991751 
1 2:0.013873513 3:0.56498397 4:0.014590015 5:0.0067468203 
-1 3:1.5044332 4:0.0028908451 5:0.015930152 
1 1:0.043588794 2:0.058942263 
-1 3:1.3354123 4:0.0057250772 5:0.014806988 
-1 3:1.5843735 4:0.0037742673 5:0.014981292 
1 1:0.063735883 
1 1:0.0070777436 2:0.073281689 4:0.011487095 
1 2:0.0062012365 3:0.9596291 4:0.011641904 5:0.010665196 
1 2:0.054565635 3:0.34097789 4:0.015345151 5:0.00010123028 
1 1:0.022789683 2:0.067704594 4:0.0076330311 
-1 1:0.018095064 2:0.066531014 4:0.0094745391 
-1 1:0.020814672 2:0.066645226 4:0.0087526144 
1 2:0.070108922 3:0.0035009488 4:0.014518872 
1 1:0.014919498 2:0.068790413 4:0.009635558 
-1 1:0.0035266017 2:0.068462312 4:0.01246816 
-1 1:0.0172939 2:0.067840476 4:0.0089063335 
-1 3:1.9262079 4:0.00032088209 5:0.015217848 
1 1:0.022456484 2:0.068590888 4:0.0079477689 
-1 1:0.021399627 2:0.06817623 4:0.0084453667 
-1 1:0.018946081 2:0.070085656 4:0.0087459226 
-1 3:1.5887668 4:0.0059782737 5:0.013956897 
-1 1:0.017553756 2:0.070650994 4:0.0089412493 
1 2:0.059332403 3:0.26899737 4:0.015217019 
1 3:1.4666275 4:0.0064402137 5:0.013934981 
1 2:0.046428225 3:0.55835824 4:0.015031464 5:0.0023530072 
-1 3:1.4911083 4:0.0063161923 5:0.014126539 
-1 3:1.53564 4:0.0063453809 5:0.013914933 
1 1:0.013861572 5:0.0057865803 
-1 2:0.011946146 3:1.0940461 4:0.011988647 5:0.009326137 
1 1:0.03475044 
-1 2:0.068724887 4:0.012786081 
1 1:0.080772767 2:0.01807085 
-1 1:0.079042008 2:0.018835408 
1 1:0.041744388 5:0.0017617101 
1 3:2.1602862 5:0.015 
-1 1:0.022116152 2:0.067647697 4:0.0091099619 
1 1:0.015429475 2:0.069038544 4:0.010476643 
1 1:0.057389112 
-1 1:0.2864086 3:0.39766707 4:0.016905754 5:0.009495498 
1 1:0.25087096 2:0.10946949 3:0.99117576 4:0.0084744906 5:0.016938552 
-1 1:0.020454739 2:0.2827807 3:2.1347117 5:0.014918286 
1 1:0.011835203 2:0.076072338 
1 1:0.0078790969 2:0.076375828 
1 1:0.0081847134 2:0.076392345 
1 1:0.0080141225 2:0.076230784 
1 1:0.0096704109 2:0.076031723 
1 1:0.027513051 2:0.052516618 
1 1:0.020764468 2:0.049464929 
1 1:0.023825771 2:0.048064046 
1 1:0.016993447 2:0.04650766 
1 1:0.015977543 2:0.042173438 
-1 1:0.0035545733 2:0.042056855 
1 1:0.00755965 2:0.050738037 
1 1:0.0069743373 2:0.036792481 
-1 2:0.033616356 
-1 1:0.009068667 3:0.35589453 4:0.012481691 5:0.011395895 
1 1:0.01801198 3:0.47888873 4:0.01134182 5:0.01265755 
1 2:0.038816699 4:0.00076909731 
-1 2:0.045674936 
-1 2:0.04668878 
1 1:0.017045809 2:0.070660883 3:2.9859534 
1 1:0.024511619 2:0.067407448 3:2.8898877 
-1 1:0.05345318 3:1.1420297 4:0.00022954418 5:0.01657318 
1 2:0.067857095 
1 2:0.052987898 
1 1:0.063001328 3:1.0454367 4:0.00070572357 5:0.016087457 
1 1:0.075318258 2:0.006289416 3:1.779691 5:0.012770573 
-1 1:0.0071037415 2:0.044640977 
1 2:0.068580858 
-1 1:0.063203531 2:0.017392853 3:1.9320295 5:0.011428005 
-1 2:0.056239247 
-1 1:0.054337343 3:1.2434799 5:0.016376115 
-1 1:0.032361003 2:0.064169131 3:2.7026401 
1 2:0.04399732 4:0.0012017756 
-1 2:0.022558611 4:0.002042601 
1 1:0.022055757 3:0.62385155 4:0.0078145453 5:0.01461123 
-1 2:0.026877649 4:0.0035191576 
1 2:0.061962649 
-1 1:0.042200011 2:0.0040376269 3:1.6309996 5:0.014273013 
1 2:0.030430009 4:0.0046007468 
1 2:0.064485217 
1 1:0.03563616 3:1.3132421 5:0.016462537 
1 4:0.016714482 
1 2:0.057327331 4:1.4594997e-05 
-1 2:0.050443645 
-1 2:0.014787098 4:0.010790394 
1 4:0.014110109 5:0.0080861652 
1 4:0.014872569 
-1 1:0.0091319962 2:0.061399445 3:2.8789593 
-1 4:0.015057451 5:0.0031197766 
-1 1:0.054489658 2:0.025849473 3:2.0087497 5:0.0073006816 
1 1:0.038916097 2:0.04728618 3:2.2488102 5:0.003188021 
1 1:0.05664748 3:1.4833578 5:0.014090449 
-1 4:0.015980877 5:0.0038709903 
1 1:0.035269723 2:0.032973447 3:2.077497 5:0.0062671591 
-1 1:0.076107092 2:0.033200878 3:2.077549 5:0.0053412699 
-1 4:0.012554814 
1 4:0.015336389 
1 1:0.041167626 3:0.64092841 4:0.0039464377 5:0.015091413 
-1 4:0.015199286 
-1 4:0.015255361 5:0.0047956415 
1 3:0.18121833 4:0.011753472 5:0.011075549 
-1 4:0.015985907 
1 4:0.014778289 5:0.0070707734 
1 4:0.016028237 5:0.0014897616 
-1 4:0.015062171 5:0.0049592594 
-1 4:0.014061937 5:0.0076731586 
1 4:0.01471412 5:0.0064312034 
-1 4:0.014855601 5:0.0055187132 
-1 4:0.01409582 5:0.0072001173 
-1 2:0.05048786 
1 1:0.040205905 3:1.1067508 5:0.015871384 
1 3:0.063210719 4:0.012437166 5:0.0098880938 
-1 2:0.076422728 
1 4:0.014074558 
-1 4:0.013810028 
1 3:0.066335753 4:0.012648624 5:0.0096003924 
-1 4:0.014122045 
1 4:0.015416647 5:0.0021298032 
-1 4:0.013096428 
-1 4:0.015624763 
1 4:0.014316279 5:0.0079857397 
-1 4:0.014955279 
1 4:0.015502537 5:0.0044566418 
-1 4:0.012836542 
-1 4:0.013510253 
1 1:0.043798223 3:1.4453031 5:0.01341832 
1 1:0.0053453896 3:0.39823797 4:0.0079844615 5:0.013497359 
-1 4:0.014841066 
-1 3:0.53308575 4:0.0074448593 5:0.014282376 
1 1:0.035499572 3:1.1099224 5:0.015713754 
-1 2:0.0036548541 4:0.011492336 
1 2:0.052279647 4:0.0029547123 
1 1:0.006454795 3:0.54477806 4:0.006603416 5:0.014335482 
-1 4:0.014592045 5:0.0057660807 
1 1:0.019846655 2:0.068376339 
-1 2:0.059295585 
-1 4:0.013488929 5:0.00859689 
1 3:0.1742519 4:0.010696828 5:0.011506674 
-1 4:0.014717339 5:0.0066502715 
1 1:0.0030485167 3:0.67057963 4:0.0055904985 5:0.015022308 
1 4:0.014349287 
1 1:0.10937999 2:0.06128216 4:0.0059863112 
1 2:0.067232726 
-1 
-1 1:0.0038290845 3:0.5498817 4:0.0077171462 5:0.019049863 
-1 1:0.0047803176 3:0.56659317 4:0.007400726 5:0.019177374 
1 1:0.00099616506 3:0.57911969 4:0.0076617578 5:0.019479036 
-1 1:0.01314873 3:0.5947063 4:0.0063425494 5:0.019151818 
-1 1:0.0050141068 3:0.57003951 4:0.0073244754 5:0.019198631 
-1 1:0.0080257717 3:0.59367252 4:0.0067625376 5:0.019319979 
-1 1:0.0086365792 3:0.59561777 4:0.0066865555 5:0.019316248 
1 1:0.006768397 3:0.57273078 4:0.007118118 5:0.019154568 
-1 1:0.011153571 4:0.0052817742 5:0.017815489 
-1 1:0.00724381 4:0.004699462 5:0.018249761 
-1 1:0.0073105202 4:0.0060649428 5:0.017419234 
-1 1:0.0025425398 4:0.0046664365 5:0.018319897 
1 1:0.0052106734 4:0.0034778627 5:0.01839992 
-1 1:0.01416614 4:0.0039227437 5:0.017550562 
1 1:0.0027362976 4:0.0037072567 5:0.018296054 
1 1:0.00067696433 4:0.0073662678 5:0.016631322 
-1 1:0.02016653 4:0.00082609535 5:0.017725081 
1 1:0.014592296 4:0.0013896895 5:0.01783695 
1 1:0.0020738407 4:0.0067527076 5:0.016694896 
0.9161878065047592 1:0.018804061 4:0.0028562837 5:0.017114215 
1 1:0.010978974 4:0.0051370747 5:0.016702533 
-1 1:0.017349614 4:0.0035587885 5:0.016924302 
-1 1:0.010383103 5:0.018209227 
-1 2:0.01281201 3:2.7193636 4:0.019181601 5:0.0023928501 
1 1:0.046508439 2:0.038059551 3:0.48465597 
-1 4:0.0052424088 5:0.020555222 
-1 4:0.014082185 5:0.013191396 
-1 2:0.031937065 3:2.0814566 4:0.016901817 
1 4:0.012267019 5:0.017306653 
-1 3:2.7169882 4:0.019269022 5:0.0027182782 
-1 4:0.015189279 5:0.011653422 
1 4:0.0089496061 5:0.017149265 
1 4:0.018813214 5:0.0098011721 
-1 3:2.5544147 4:0.018986439 5:0.00051639379 
1 3:2.825072 4:0.019606985 5:0.0053400732 
-1 4:0.015380204 5:0.011460192 
-1 4:0.013272523 5:0.0130977 
1 3:3.0073652 4:0.0134766 5:0.010081925 
1 2:0.02194303 3:1.9630849 4:0.016443411 
-1 4:0.0051151631 5:0.016393135 
-1 4:0.0072116004 5:0.017243821 
1 1:0.0066246981 4:0.0016214887 5:0.016743967 
1 4:0.0044777205 5:0.016922099 
-1 3:2.9160121 4:0.015839312 5:0.0081446113 
-1 1:0.053509207 2:0.039935529 3:0.25833729 
-1 2:0.010109517 3:2.1447531 4:0.016680675 
-1 4:0.013548495 5:0.012264335 
-1 1:0.049205735 2:0.046483096 3:0.55927101 
-1 3:2.8617627 4:0.015498722 5:0.0078608351 
-1 1:0.046492464 2:0.044330327 3:0.58207763 
1 4:0.0050463762 5:0.017388365 
1 4:0.0075526045 5:0.01645122 
1 3:3.1326387 4:0.011078711 5:0.011756506 
-1 3:2.5777221 4:0.016465965 5:0.003121297 
-1 5:0.016455939 
1 2:0.019428585 3:1.8421931 4:0.01443498 
-1 2:0.013999589 3:1.7698338 4:0.014827316 
1 2:0.036720306 3:1.3718081 4:0.0095738742 
1 2:0.015323779 3:1.7626361 4:0.014686635 
1 2:0.0091008233 3:1.9300513 4:0.015477216 
-1 3:2.775154 4:0.014391001 5:0.0074372812 
1 3:3.1306431 4:0.014008008 5:0.010694237 
1 3:3.1285305 4:0.013315766 5:0.011056837 
-1 3:2.8246185 4:0.013526089 5:0.0088185324 
-1 2:0.0045538046 3:2.1110063 4:0.016012381 
-1 1:0.032659837 2:0.05184248 3:0.42019084 
1 3:3.0525511 4:0.012084989 5:0.011032093 
-1 4:0.0041951558 5:0.015 
1 1:0.0058142548 5:0.013407107 
-1 3:2.8381114 4:0.011013825 5:0.010512719 
1 1:0.058361747 5:0.012959857 
-1 1:0.0090626138 4:0.0029438436 5:0.015 
-1 1:0.064648744 2:0.20073597 4:0.0091973727 5:0.013164207 
1 2:0.2311177 5:0.016584414 
1 1:0.096880403 2:0.0658676 
-1 1:0.1033823 2:0.045059666 
1 1:0.080404436 2:0.066674833 
1 1:0.095605468 2:0.053908087 
-1 1:0.10744489 2:0.033516075 
-1 1:0.10982069 2:0.05396971 
1 1:0.082361525 2:0.062701888 
-1 1:0.1016356 2:0.054355243 
1 1:0.10221981 2:0.063151421 
1 1:0.080296062 2:0.023463858 
-1 1:0.089785748 2:0.015035168 
1 1:0.080745098 2:0.034971978 
1 1:0.089238435 2:0.026789735 
-1 1:0.077474247 
1 1:0.083578394 2:0.034035596 
-1 1:0.079356331 2:0.031471081 
1 1:0.051495049 2:0.041315897 
-1 1:0.034966959 2:0.021444876 
-1 1:0.045892188 2:0.038789802 
1 2:0.015211039 3:0.035591397 4:0.016137128 5:0.0068900348 
1 1:0.06584876 2:0.049090524 
-1 3:0.75702283 4:0.0082841697 5:0.015185566 
1 1:0.055024131 2:0.019419712 
1 1:0.069924767 2:0.019313677 
-1 1:0.048245259 3:2.789765 5:0.0017123818 
1 1:0.056451001 2:0.027555863 
1 3:0.916036 4:0.0052644445 5:0.016495212 
1 3:0.48418853 4:0.011804127 5:0.012118224 
-1 3:0.18591551 4:0.014583342 5:0.014889453 
1 3:0.76812495 4:0.0078173495 5:0.014880667 
1 1:0.030701349 2:0.039756078 
1 3:0.73475925 4:0.0096538481 5:0.012228283 
1 2:0.013693431 3:0.48228806 4:0.01270369 5:0.0093305458 
1 3:1.2457415 5:0.017616799 
1 4:0.019294719 5:0.0027706737 
-1 3:0.083099991 4:0.016375233 5:0.012469936 
1 3:1.3174931 5:0.01760942 
1 3:1.3178002 5:0.017662168 
-1 4:0.016699986 5:0.0078837705 
1 1:0.00605835 3:1.4423334 5:0.017578099 
1 3:0.68793731 4:0.008938555 5:0.014860736 
1 1:0.015562797 3:1.3264703 5:0.018202874 
1 1:0.017683704 3:1.369703 5:0.017844706 
-1 3:0.3735275 4:0.012131325 5:0.013035562 
1 3:1.3589795 5:0.016994066 
1 1:0.016071554 3:1.3786796 5:0.017718849 
-1 3:1.0657497 4:0.0031086116 5:0.017044462 
-1 3:1.4990021 5:0.016348306 
-1 2:0.041450085 
1 2:0.030680996 4:0.0098954943 
-1 1:0.020502639 2:0.044605507 
1 1:0.0036575725 2:0.049281202 
-1 2:0.039226413 4:0.0026009074 
-1 3:1.2422081 4:0.0016559568 5:0.016445317 
1 2:0.032061398 4:0.0092353135 
1 1:0.0017332501 2:0.008585849 3:2.5497347 5:0.0060148385 
-1 1:0.016157336 3:1.439115 5:0.017188346 
1 2:0.044942576 
1 3:0.94744355 4:0.0064936947 5:0.01483703 
-1 3:0.76622411 4:0.0087172849 5:0.014289128 
1 3:1.0492107 4:0.0033039036 5:0.017045574 
-1 3:0.48670671 4:0.011341482 5:0.012841073 
-1 3:0.86467476 4:0.0066241938 5:0.01593448 
1 3:1.6491053 5:0.015345971 
-1 3:1.209572 4:0.0051489979 5:0.014435875 
1 1:0.012901663 3:1.3889275 5:0.016970499 
1 1:0.053725731 2:0.039325105 
1 3:1.0383318 4:0.0038128696 5:0.016445506 
1 3:0.94030882 4:0.0079387809 5:0.013720901 
-1 3:1.1349563 4:0.0057662849 5:0.014442939 
1 2:0.048522759 
-1 2:0.035746403 4:0.0076833314 
1 1:0.047891058 2:0.033643479 
1 1:0.026239193 2:0.042570538 
-1 3:0.81194706 4:0.0099324987 5:0.011917512 
-1 2:0.039289888 4:0.0073717536 
-1 3:0.63130824 4:0.010735315 5:0.01246076 
1 3:0.76264187 4:0.0090663812 5:0.01357324 
-1 1:0.044258062 2:0.032449153 
1 1:0.011640056 2:0.034624176 
1 1:0.028386406 3:2.7710646 5:0.0031682102 
-1 3:0.83800639 4:0.010007966 5:0.011650945 
1 1:0.0096590939 2:0.023799074 
1 3:0.91854797 4:0.0082038083 5:0.0132863 
1 2:0.029247611 4:0.012353594 
-1 1:0.011096119 2:0.018784083 
-1 1:0.032349185 2:0.033666636 
-1 3:0.45433636 4:0.012775403 5:0.0095441767 
-1 3:1.3506631 4:0.0025068664 5:0.015047557 
-1 2:0.012645589 4:0.01571946 
-1 3:0.32771043 4:0.013962635 5:0.0073639957 
-1 3:1.1610877 4:0.004937254 5:0.014699698 
1 3:1.1391365 4:0.003615955 5:0.015800589 
1 1:0.057808874 2:0.0088204297 3:3.0370158 
-1 2:0.048812757 4:0.0058078239 
-1 1:0.01336823 2:0.053237949 
1 3:1.1055784 4:0.0065223975 5:0.013976339 
-1 1:0.066229591 3:2.493915 5:0.0071166664 
1 3:0.97003307 4:0.0068269891 5:0.014389494 
-1 3:1.3046574 4:0.0033156471 5:0.015083942 
-1 3:0.75565502 4:0.010121405 5:0.012130696 
-1 3:0.92777715 4:0.0077775223 5:0.01373593 
-1 3:0.8870116 4:0.0082089453 5:0.013431623 
1 3:0.91723421 4:0.0082276766 5:0.013410008 
-1 3:0.76082935 4:0.010381152 5:0.011793809 
-1 3:0.7388325 4:0.010399778 5:0.011763212 
-1 3:0.69695959 4:0.010427885 5:0.011717043 
-1 3:0.69795249 4:0.010451959 5:0.011677498 
-1 3:0.71850748 4:0.010487099 5:0.011619777 
1 2:0.019535637 4:0.014997047 
1 2:0.014187335 4:0.015201488 
-1 3:1.5936997 4:0.0152518 
1 2:0.0029114015 3:1.5602779 4:0.015093672 
-1 3:1.4971103 4:0.015198106 
1 2:0.015960807 3:1.3617583 4:0.014499541 
1 2:0.00059481399 3:1.5411722 4:0.01510903 
-1 2:0.00096232595 3:1.5279957 4:0.014978494 
-1 3:1.5110749 4:0.015047181 
-1 3:1.5757453 4:0.01530131 
-1 3:1.617976 4:0.015226443 
-1 3:1.6246862 4:0.01523397 
-1 3:1.5767698 4:0.015106795 
1 3:1.6130492 4:0.015314686 
-1 3:1.6248353 4:0.015312431 
-1 3:1.8664365 4:0.015312484 5:0.0015481387 
-1 3:1.7667262 4:0.015427054 
1 3:1.7611767 4:0.015368173 
1 3:1.7321959 4:0.015351478 5:0.00044155581 
-1 3:1.8538475 4:0.015174976 5:0.0018678006 
1 3:1.703272 4:0.015351649 
-1 3:1.9464801 4:0.015007645 5:0.0028839206 
1 3:1.7546323 4:0.015351159 
1 3:1.9292793 4:0.014886888 5:0.0032018819 
1 3:1.7849369 4:0.015208207 5:0.00039405126 
-1 3:2.0255378 4:0.014589478 5:0.0041983058 
1 3:1.8573174 4:0.015136938 5:0.0015273799 
-1 3:1.8833662 4:0.014946401 5:0.002523529 
1 3:1.6860352 4:0.015209211 
-1 3:1.9350909 4:0.014869859 5:0.0028397257 
-1 3:1.8315946 4:0.015107226 5:0.0011318543 
-1 3:1.7731025 4:0.015107219 5:0.0011281117 
1 3:1.7379381 4:0.015189705 5:0.00016321534 
-1 3:2.042138 4:0.014160132 5:0.0052817222 
-1 3:1.7884716 4:0.015019962 5:0.0019070626 
1 3:1.7823889 4:0.015108108 5:0.001049823 
-1 3:1.8783725 4:0.0147614 5:0.0031956827 
-1 3:1.8304523 4:0.014898066 5:0.0026178476 
1 3:1.6684591 4:0.015148725 5:0.00039971646 
-1 3:1.6221623 4:0.01515263 
1 3:1.9431298 4:0.014518092 5:0.0042615282 
-1 3:1.9318355 4:0.014337178 5:0.004633281 
1 3:1.7937771 4:0.014943395 5:0.0023215223 
-1 3:1.9149206 4:0.014575666 5:0.003908219 
-1 3:1.8824397 4:0.014756957 5:0.003234411 
-1 3:1.6816032 4:0.015120348 5:0.00073923004 
1 3:1.6632288 4:0.015188971 
-1 3:1.6688434 4:0.015148792 
1 3:1.69631 4:0.015161582 5:0.00062816099 
-1 3:1.7906197 4:0.014861188 5:0.0026998745 
-1 3:1.9392976 4:0.014623547 5:0.0039076776 
1 3:1.6156975 4:0.015130014 
-1 3:1.6508358 4:0.015122751 
1 3:1.8951212 4:0.014760896 5:0.0033204094 
1 3:1.9852644 4:0.013659599 5:0.0063262551 
-1 3:1.8753948 4:0.014732598 5:0.003357288 
1 3:1.7865518 4:0.015015795 5:0.0015812243 
1 3:1.6644544 4:0.015111822 5:0.0002149925 
-1 3:1.7275829 4:0.014961956 5:0.0019196185 
1 3:1.7737107 4:0.014959013 5:0.0020574673 
1 3:1.7390958 4:0.015101307 5:0.00078623005 
1 2:0.022563832 3:1.3659462 4:0.014363051 
1 3:1.9330981 4:0.014457966 5:0.0043887094 
1 2:0.015606302 3:1.4167125 4:0.014702904 
-1 2:0.007437288 3:1.4339942 4:0.014848549 
-1 3:1.6358849 4:0.01512449 5:0.00024938451 
1 2:0.0024485197 3:1.5692311 4:0.015040538 
-1 2:0.011347368 3:1.4167616 4:0.014752653 
-1 3:2.0990402 4:0.013492931 5:0.0067620411 
1 3:1.7516345 4:0.014918537 5:0.0021102755 
-1 3:1.8683382 4:0.014395036 5:0.0043386774 
-1 3:1.709812 4:0.015070731 5:0.00068040818 
1 2:0.0047676514 3:1.4520198 4:0.01494317 
-1 3:1.683472 4:0.014961608 5:0.0016528597 
1 3:1.5662515 4:0.015100869 5:0.00015237797 
-1 3:1.7520037 4:0.014961839 5:0.0019719919 
-1 3:1.6070326 4:0.015112412 
1 2:0.00074025462 3:1.5651559 4:0.015077806 
1 3:1.7194473 4:0.01490767 5:0.0022106802 
-1 2:0.011380056 3:1.4098275 4:0.014868619 
1 2:0.027570054 3:1.2573176 4:0.014309726 
-1 2:0.0089038975 3:1.4645927 4:0.014912075 
1 2:0.0030239051 3:1.4643366 4:0.015042241 
-1 3:1.634219 4:0.01510312 5:0.00028873249 
1 3:1.5631336 4:0.015095059 
-1 3:1.5624439 4:0.015060549 
1 3:1.6602997 4:0.01504654 5:0.0010404047 
-1 3:1.8393918 4:0.014701159 5:0.0033909952 
1 2:0.018144837 3:1.4222968 4:0.014736652 
-0.986537903134573 3:1.5348358 4:0.015082412 
1 3:1.6831418 4:0.015053457 5:0.001182969 
-1 3:1.8753245 4:0.014359278 5:0.0044610009 
1 2:7.8774128e-05 3:1.5927168 4:0.01509394 
1 3:1.6384578 4:0.015060471 5:0.00061662882 
-1 3:1.5290029 4:0.01504567 
-1 2:0.0012979948 3:1.5704401 4:0.015069337 
1 2:0.035695638 3:1.2537741 4:0.014071475 
-1 3:1.8096753 4:0.01462756 5:0.0035365561 
1 3:1.546745 4:0.015059615 
1 3:1.7450149 4:0.014848975 5:0.0024292379 
-1 3:1.8284752 4:0.014739938 5:0.00304996 
-1 3:1.5920456 4:0.015074292 
-1 3:1.9459222 4:0.014449408 5:0.0044268764 
1 3:1.8295778 4:0.014692311 5:0.0032434461 
1 3:1.7102283 4:0.014900524 5:0.0021385049 
-1 2:0.011495503 3:1.444627 4:0.014903679 
-1 3:1.7285321 4:0.014956108 5:0.0018883164 
1 2:0.03198824 3:1.303157 4:0.014336512 
1 3:1.7018311 4:0.014967274 5:0.0017236175 
-1 3:1.9661422 4:0.014116183 5:0.0053318731 
-1 3:1.7249001 4:0.014984922 5:0.0015719055 
1 3:1.6357892 4:0.015068798 5:0.00041980164 
1 2:0.015287784 3:1.4204391 4:0.014864471 
-1 2:0.013807604 3:1.4339368 4:0.014931621 
1 2:0.010152373 3:1.5111285 4:0.015039799 
1 3:1.6741179 4:0.015100027 5:0.00068987727 
1 3:1.7185525 4:0.014965492 5:0.001784746 
-1 3:1.8459154 4:0.014327935 5:0.0045651454 
-1 3:1.6570191 4:0.014991224 5:0.0016682459 
1 3:1.8030008 4:0.014711958 5:0.0032683248 
1 3:1.8064286 4:0.014823537 5:0.0029464519 
1 3:1.8538068 4:0.014617648 5:0.0037294386 
-1 3:1.6691526 4:0.015124911 5:0.0005242972 
1 3:1.9435242 4:0.01417339 5:0.0052883839 
-1 3:1.8524513 4:0.014623804 5:0.0036919782 
1 3:1.8187057 4:0.014826636 5:0.0029325581 
1 2:0.012592807 3:1.4812977 4:0.015049568 
-1 3:1.7110937 4:0.014907223 5:0.0021943945 
-1 3:1.6173959 4:0.015098801 5:0.00045728589 
1 2:0.0028469035 3:1.6417437 4:0.015122109 5:5.2435077e-05 
1 3:1.6849181 4:0.014876712 5:0.002543757 
1 3:1.6379951 4:0.015074632 5:0.00097233465 
1 3:1.9495206 4:0.014445768 5:0.0045001422 
1 3:1.8758462 4:0.014656737 5:0.0036206494 
1 2:0.014192635 3:1.5318182 4:0.015065182 
1 3:1.9047734 4:0.014321396 5:0.0046606861 
1 3:1.885782 4:0.014587974 5:0.0038770351 
1 2:0.008584064 3:1.5732252 4:0.015098904 
-1 3:1.8177094 4:0.014596725 5:0.0037197243 
-1 3:1.836429 4:0.014794819 5:0.0029583366 
1 3:1.7610505 4:0.014977912 5:0.0021646945 
1 2:0.016117475 3:1.5084569 4:0.015033303 
1 3:1.7457253 4:0.014834863 5:0.0026818134 
-1 2:0.02977483 3:1.3624404 4:0.014727099 
1 3:1.6728457 4:0.015083365 5:0.001237562 
1 2:0.011949324 3:1.5838957 4:0.015091231 
-1 3:1.7111769 4:0.014948917 5:0.0018780265 
1 2:0.029066772 3:1.4325195 4:0.014805351 
1 3:1.9593348 4:0.013670545 5:0.0062225371 
1 3:1.9293319 4:0.014276759 5:0.0048129353 
-1 3:1.7969679 4:0.014645362 5:0.0034763179 
-1 2:0.00043301336 3:1.6504986 4:0.015068061 5:0.00073823643 
-1 2:0.011899111 3:1.5435194 4:0.015100596 
1 3:2.0540659 4:0.013243558 5:0.0071317241 
1 3:1.7894083 4:0.014632792 5:0.0035699638 
-1 3:1.7373357 4:0.014863227 5:0.00264546 
1 3:1.9986542 4:0.013335161 5:0.0070455823 
1 2:0.0092218063 3:1.6364317 4:0.015198914 
1 2:0.020483434 3:1.5098288 4:0.015051841 
1 3:1.9994841 4:0.013486783 5:0.0067082882 
1 2:0.016705428 3:1.5411848 4:0.015098676 
-1 3:1.9373301 4:0.013639253 5:0.0063654721 
1 3:1.7856805 4:0.014753339 5:0.0031321174 
1 3:1.9511969 4:0.014065942 5:0.0054556811 
-1 3:1.8217614 4:0.014662302 5:0.00361568 
1 3:1.860894 4:0.014644266 5:0.003962388 
-1 3:1.9478901 4:0.014240493 5:0.0050410306 
1 3:1.8299739 4:0.014742691 5:0.0031795584 
1 2:0.011806396 3:1.5638265 4:0.015123451 
-1 3:1.7937132 4:0.014905393 5:0.002660128 
-1 2:0.017493564 3:1.4919181 4:0.015114765 
1 2:0.011517962 3:1.61045 4:0.015148178 5:0.0002607851 
1 3:2.0715908 4:0.012876849 5:0.0078456584 
-1 3:2.1199295 4:0.012607138 5:0.0082500808 
1 3:1.8290837 4:0.014376884 5:0.0044569534 
-1 3:2.0249316 4:0.01303586 5:0.007526907 
1 3:1.8082593 4:0.014369199 5:0.0044425913 
-1 2:0.025060939 3:1.4269289 4:0.015009681 
1 3:1.9308616 4:0.014022008 5:0.0057322053 
1 3:1.8172096 4:0.014382765 5:0.0044481336 
1 2:0.010916598 3:1.5762689 4:0.015079441 5:0.00084646855 
1 3:2.4133693 4:0.0089325716 5:0.012113373 
-1 3:2.0556474 4:0.01282452 5:0.0078799782 
1 3:2.1832954 4:0.011092621 5:0.01012505 
-1 3:2.1871563 4:0.011794701 5:0.0093195273 
-1 3:1.9130776 4:0.013676781 5:0.0063035259 
1 3:1.8418003 4:0.01403933 5:0.0054072812 
1 3:2.0301325 4:0.012448296 5:0.0084457132 
-1 3:1.7751971 4:0.014519954 5:0.0040481036 
1 3:2.540961 4:0.0061844283 5:0.013665989 
1 3:2.2717705 4:0.0088635839 5:0.012135949 
-1 3:1.9216804 4:0.013934337 5:0.0059106719 
1 3:1.929242 4:0.014244524 5:0.0054134898 
1 3:1.8402076 4:0.014423941 5:0.0044441853 
-1 3:2.0848964 4:0.011724143 5:0.0093957166 
1 3:1.8634707 4:0.013766606 5:0.0060989474 
1 3:2.0402119 4:0.012408113 5:0.0084758527 
-1 3:2.1593763 4:0.010950365 5:0.010255887 
-1 3:2.9211461 4:0.0017712938 5:0.014958931 
-1 3:1.9463893 4:0.012970879 5:0.0075519864 
1 5:0.014997354 
1 2:0.010691266 3:1.6816844 4:0.014899876 5:0.002491062 
-1 3:1.7449366 4:0.014360802 5:0.0044666091 
1 3:2.2192839 4:0.012120202 5:0.0090942359 
1 2:0.033735136 3:1.4671053 4:0.015061479 
1 3:2.1582391 4:0.011641775 5:0.0095692655 
-1 1:0.18459912 5:0.0093351908 
-1 1:0.18230241 5:0.0094830372 
-1 1:0.18409103 5:0.0092739405 
-1 1:0.18451383 5:0.0092211129 
-1 1:0.12548421 3:0.66591095 5:0.0095196197 
-1 1:0.11922372 3:0.65721805 5:0.0096811368 
-1 1:0.11877179 2:0.0008365939 3:0.66512522 5:0.0094395831 
-0.9942515465957298 1:0.11453617 2:0.00443461 3:0.68556046 5:0.0090942444 
-1 1:0.11266788 2:0.0030814894 3:0.66934549 5:0.0095316246 
-1 1:0.10135154 2:0.0082433471 3:0.65877332 5:0.0095659594 
-1 1:0.090531704 2:0.011344454 3:0.6220758 5:0.010081403 
1 1:0.094713618 2:0.012800588 3:0.61380546 5:0.009745016 
-1 1:0.097612221 2:0.0092616119 3:0.56617608 5:0.010124301 
1 1:0.10012643 2:0.017628903 3:0.61393401 5:0.008337025 
-1 1:0.096999037 2:0.013116693 3:0.58281639 5:0.0088032797 
1 1:0.09315098 2:0.016082113 3:0.59570092 5:0.0083215523 
1 1:0.095946319 2:0.011399012 3:0.53122563 5:0.0089290476 
-1 1:0.095215861 2:0.010609549 3:0.53632091 5:0.0087561532 
1 1:0.093057396 2:0.010197091 3:0.50564896 5:0.008949614 
1 1:0.096234229 2:0.013666833 3:0.54468675 5:0.0076910372 
-1 1:0.090902665 2:0.0068787277 3:0.49598813 5:0.0087019961 
1 1:0.096981412 2:0.0048360108 3:0.43480865 5:0.0090473105 
-1 1:0.10058521 2:0.0031676568 3:0.42969418 5:0.0090166512 
1 1:0.099946892 2:0.0085921759 3:0.44665806 5:0.0076268536 
-1 1:0.10111466 2:0.0021755667 3:0.38232772 5:0.0084117449 
-1 1:0.097746317 2:0.0064253605 3:0.42347614 5:0.0075211619 
0.9589374710138984 1:0.095541973 2:0.014751878 3:0.48337929 5:0.006156114 
1 1:0.092188386 2:0.0075912153 3:0.4196953 5:0.007157739 
-1 1:0.086742298 3:0.37761993 5:0.0085089065 
1 1:0.10018414 2:0.0091776881 3:0.44249265 5:0.0066641951 
1 1:0.099074575 2:0.0025881219 3:0.35561147 5:0.0074951002 
1 1:0.093628918 2:0.00048967637 3:0.33847176 5:0.007763889 
-1 1:0.087493855 3:0.27083123 5:0.0091834655 
-1 1:0.098489347 2:0.0071811305 3:0.39144293 5:0.0064289419 
-1 1:0.09283456 2:0.0029313324 3:0.34864746 5:0.0072101293 
1 1:0.10935305 2:0.016597914 3:0.42487276 5:0.0050744031 
1 1:0.10591965 2:0.024033794 3:0.55381985 5:0.003715765 
-1 1:0.1075978 2:0.023327891 3:0.53952472 5:0.0037221584 
1 1:0.097658711 2:0.059650001 3:0.83648656 
-1 1:0.10617397 2:0.035261857 3:0.64979686 5:0.0019374805 
1 1:0.10822476 2:0.038821246 3:0.60934498 5:0.0016553935 
1 1:0.11106176 2:0.033172401 3:0.58729429 5:0.0023051794 
-1 1:0.10071718 3:0.19741839 5:0.0078605491 
1 1:0.1083384 2:0.02353517 3:0.42298459 5:0.0037924565 
-1 1:0.082244369 2:0.0031764382 3:0.28981969 5:0.0067365492 
1 1:0.11117709 2:0.019108429 3:0.41547265 5:0.0042378387 
-1 1:0.078982178 2:0.0074485336 3:0.34921681 5:0.0058906065 
1 1:0.1103319 2:0.031520161 3:0.52327092 5:0.0022625727 
-1 1:0.093670978 2:0.0018976275 3:0.28393775 5:0.00657595 
1 1:0.1052869 2:0.028354212 3:0.43046422 5:0.0028609751 
1 1:0.10737235 2:0.015784379 3:0.31657098 5:0.0045083015 
-1 1:0.078929834 2:0.0028914163 3:0.25210717 5:0.0065946078 
-1 1:0.10177991 2:0.013958983 3:0.30115784 5:0.0047124251 
1 2:0.010535564 4:0.013587196 
1 1:0.085912428 2:0.053100166 3:0.62219916 
-1 1:0.10460268 2:0.02277858 3:0.39512435 5:0.0032750761 
1 1:0.11665494 2:0.016535545 3:0.27234383 5:0.0042693737 
-1 1:0.10228481 2:0.0180182 3:0.31066784 5:0.003961158 
-1 1:0.10917208 2:0.00059031741 3:0.15117069 5:0.00632675 
1 1:0.15337362 2:0.041727387 3:0.36320634 5:0.0019148716 
1 1:0.095868737 2:0.030053897 3:0.34346791 5:0.0026655066 
-1 1:0.098639724 2:0.0017257298 3:0.076247477 5:0.0066002097 
1 1:0.10045681 2:0.030515821 3:0.26602306 5:0.0028584193 
-1 1:0.11926477 2:0.031268283 3:0.31264457 5:0.0026201792 
-1 1:0.035647234 2:0.11546159 3:1.1926175 
-1 1:0.11507234 2:0.029387941 3:0.30947386 5:0.0026963877 
1 1:0.089576778 2:0.04860784 3:0.51223397 
-1 1:0.079328234 2:0.010747617 3:0.20463 5:0.0055388413 
1 1:0.1377368 2:0.031731006 3:0.21252454 5:0.0031083793 
-1 1:0.099567148 2:0.062859191 3:0.62540565 
-1 1:0.12357922 2:0.015129629 3:0.18071247 5:0.0046953847 
1 1:0.06128438 2:0.10249188 3:1.027668 
-1 1:0.088776224 2:0.037849298 3:0.41196951 5:0.0014186405 
-1 1:0.080627024 2:0.08432166 3:0.86939969 
1 1:0.086354683 2:0.074682221 3:0.7407482 
-1 1:0.11249337 2:0.056496239 3:0.62180847 
1 1:0.087269054 2:0.067754107 3:0.64256293 
-1 1:0.080546065 2:0.070861369 3:0.77907085 
-1 1:0.11960994 2:0.012355774 3:0.11373092 5:0.0052760758 
1 1:0.076270877 2:0.088961526 3:0.78496435 
1 1:0.070214918 5:0.013786054 
-1 1:0.095364969 2:0.070457542 3:0.67816876 
-1 2:0.13504475 3:1.6546977 
1 1:0.14101004 2:0.084943254 3:0.57165154 
1 1:0.099563745 5:0.0098666581 
1 1:0.1476409 2:0.058232682 3:0.36502175 5:0.0012072731 
1 1:0.1062235 2:0.054077395 3:0.44041531 5:0.00013626738 
1 1:0.082458884 5:0.013241251 
1 1:0.094050736 2:0.087046031 3:0.74982885 
-1 1:0.039638288 5:0.015841879 
1 1:0.11116616 2:0.058388109 3:0.3675937 5:0.00034309093 
-1 1:0.10411111 2:0.06827359 3:0.60233458 
1 1:0.14987851 2:0.085127372 3:0.48995634 
1 1:0.13482639 2:0.098212681 3:0.59000909 
-1 2:0.027297809 3:2.7535957 4:0.0085561001 
1 1:0.15502927 2:0.069229497 3:0.34736947 5:0.0011440914 
1 1:0.10489864 5:0.0029705446 
1 1:0.10334729 5:0.003501297 
-1 1:0.10348921 5:0.0029504816 
1 1:0.10780427 5:0.0026354969 
1 1:0.069249445 3:1.4704583 5:0.0093034474 
-1 1:0.068539007 3:1.4839879 5:0.00907498 
1 1:0.066951256 3:1.415425 5:0.0092825505 
-1 1:0.080778699 3:1.4908971 5:0.0082276348 
-1 1:0.074044785 3:1.4933149 5:0.0083924716 
-1 1:0.077942075 3:1.5244464 5:0.0081142593 
1 1:0.06788626 3:1.5378682 5:0.0084571971 
-1 1:0.058787871 3:1.4133371 5:0.0098401682 
1 1:0.049792473 3:1.3918507 5:0.010398413 
-1 1:0.064499889 3:1.433486 5:0.0093146678 
1 1:0.054166473 3:1.4140875 5:0.0097830249 
-1 1:0.058880696 3:1.4257392 5:0.0097802395 
1 1:0.060469106 3:1.4436508 5:0.0092068304 
-1 1:0.07452923 3:1.5920825 5:0.0072267011 
-1 1:0.049797235 3:1.4332106 5:0.0098427419 
1 1:0.059782412 3:1.493456 5:0.008370667 
-1 1:0.050981668 3:1.430175 5:0.0096472445 
1 1:0.056642962 3:1.3704037 5:0.0099792549 
-1 1:0.042409 3:1.1685957 5:0.012257098 
-1 1:0.043462838 3:1.3331385 5:0.010701628 
1 1:0.043664428 3:1.3125204 5:0.010539171 
-1 1:0.051555513 3:1.2620936 5:0.010826801 
1 1:0.037374773 3:1.3067748 5:0.011258578 
-1 1:0.043346206 3:1.1641475 5:0.012148113 
1 1:0.044703358 3:1.2998699 5:0.010477241 
1 1:0.037871944 3:1.282563 5:0.011284238 
-1 1:0.03258427 3:1.1868512 5:0.012184646 
-1 1:0.034016803 3:1.3207802 5:0.011068195 
1 1:0.055012881 3:1.3835951 5:0.009123554 
