svm_type epsilon_svr
kernel_type linear
nr_class 2
total_sv 458
rho 0.00140746
SV
-1 3:0.57027511 4:0.013689226 5:0.0091826282 
-1 3:0.53878765 4:0.013955493 5:0.0088680636 
-0.005979575809822925 3:0.54653995 4:0.013908972 5:0.0088147862 
-1 3:0.55715446 4:0.013839224 5:0.0087993662 
-1 3:0.5411164 4:0.013937062 5:0.0088838056 
-1 3:0.53306775 4:0.014022409 5:0.0086585702 
1 3:0.55815987 4:0.013811325 5:0.0089382852 
1 3:2.1481849 4:0.014535471 5:0.0041010262 
1 3:2.1689817 4:0.014617567 5:0.003420702 
1 3:2.1796548 4:0.014742611 5:0.0027993983 
1 3:2.2732094 4:0.014555685 5:0.0037109878 
1 2:0.0014026262 3:2.2179587 4:0.014647065 5:0.0033299693 
1 2:0.010554437 3:2.2649675 4:0.014758141 5:0.0029493976 
1 2:0.010070245 3:2.2749892 4:0.014534604 5:0.0037139355 
1 2:0.0057278807 3:2.3817798 4:0.01501369 5:0.0028029401 
1 2:0.020779654 3:2.2530027 4:0.015049247 5:0.0014731176 
-1 5:0.014392635 
1 3:3.1297572 4:0.0078646072 5:0.01278806 
-1 5:0.0046018508 
-1 5:0.0060654287 
-0.4009156377854594 5:8.438098e-05 
-0.003490301994705015 3:1.837746 4:0.015057224 5:0.0016021878 
-1 3:1.8559603 4:0.015025139 5:0.0018447514 
-0.5903648659257204 3:1.8985074 4:0.014942641 5:0.0021591506 
-1 3:1.8001547 4:0.015101895 5:0.00096391883 
1 3:1.8088463 4:0.015095915 5:0.0011445039 
1 2:0.04599721 4:0.013395989 
1 2:0.018797989 4:0.014596001 
1 4:0.015163401 
1 2:0.058911171 4:0.01323529 
1 1:0.18410018 3:2.3987356 
1 1:0.16719873 3:2.6130929 
1 1:0.17873809 3:2.3436813 
1 1:0.17701148 3:2.6132191 
1 1:0.16666033 3:2.5073827 
1 1:0.18545426 2:0.0021374225 3:2.66784 
1 1:0.18550335 3:2.6266504 
1 1:0.19835334 3:2.486423 
1 1:0.19230716 3:2.40869 
1 1:0.19803047 3:2.3460643 
1 1:0.17644452 3:2.5911866 
-1 1:0.16905295 3:2.3143265 
-1 1:0.12478507 
-1 1:0.1199909 
-1 1:0.10146296 
-1 1:0.089715744 5:0.00033491675 
-1 1:0.11218008 
-1 1:0.047379417 5:0.0056720695 
-1 1:0.066617208 
-1 1:0.087217063 5:0.0015423805 
-1 
1 1:0.1728714 3:1.8985724 
0.5863050996240343 1:0.15615003 3:1.8971246 
1 1:0.1732423 3:2.0237588 
-1 1:0.16353333 3:1.9294709 
-1 1:0.10126144 5:0.00063705705 
-1 1:0.095288575 5:0.00037647049 
-1 1:0.1050156 2:0.0061734264 
-1 1:0.092637442 
-1 1:0.074027554 5:0.0015397541 
1 1:0.032881065 2:0.030069144 
1 1:0.016718711 2:0.035663624 4:2.3457662e-05 
1 2:0.031843819 4:0.0020883359 
-1 1:0.023153618 5:0.0064410677 
-1 1:0.012195846 5:0.0061858038 
-1 1:0.0058675665 5:0.0072913746 
0.5730288758664998 1:0.081184954 2:0.047416766 3:2.5689166 
0.1380908145348973 1:0.089839643 2:0.044566919 3:2.5372161 
-1 1:0.079194442 2:0.050246487 3:2.6033207 
1 1:0.018931363 2:0.049737716 3:0.82106905 
1 2:0.020155488 3:0.79938073 
-1 2:0.039160874 4:0.01723594 5:0.0028037713 
-1 2:0.036148814 4:0.017081548 5:0.0032384942 
-1 2:0.035250529 4:0.017325962 5:0.0034104756 
-1 2:0.040347686 4:0.017346054 5:0.0027863615 
-1 2:0.038707121 4:0.017177114 5:0.0027790643 
-1 2:0.046334624 4:0.017407368 5:0.0017398892 
-1 2:0.041471158 4:0.017343359 5:0.0025180004 
-1 2:0.042669227 4:0.017441486 5:0.0026768455 
-1 2:0.03838154 4:0.017266034 5:0.0030527593 
-1 2:0.037750279 4:0.017170327 5:0.0031915569 
-1 2:0.035174359 4:0.017242074 5:0.0034958785 
1 2:0.039007898 4:0.017063398 5:0.0027404094 
1 2:0.011088495 3:1.8537068 4:0.01502552 5:0.0054131718 
1 3:2.1974804 4:0.012519291 5:0.009694422 
1 2:0.0074515576 3:2.0105436 4:0.014369551 5:0.0050098201 
-1 4:0.012781454 5:0.0081657369 
1 4:0.011935694 5:0.0093029901 
1 1:0.016579296 2:0.070022319 4:0.0100926 
-1 1:0.057389112 
-0.3393494785209709 1:0.020454739 2:0.2827807 3:2.1347117 5:0.014918286 
1 1:0.0083177875 2:0.076013061 
-1 1:0.016993447 2:0.04650766 
-1 1:0.015977543 2:0.042173438 
-1 1:0.032361003 2:0.064169131 3:2.7026401 
-1 2:0.063357977 
1 2:0.022558611 4:0.002042601 
1 2:0.014787098 4:0.010790394 
1 4:0.014872569 
-1 1:0.038916097 2:0.04728618 3:2.2488102 5:0.003188021 
1 1:0.006768397 3:0.57273078 4:0.007118118 5:0.019154568 
1 4:0.015380204 5:0.011460192 
1 3:3.0073652 4:0.0134766 5:0.010081925 
0.2229246597197666 1:0.0066246981 4:0.0016214887 5:0.016743967 
1 4:0.0050463762 5:0.017388365 
1 3:3.1326387 4:0.011078711 5:0.011756506 
1 3:3.1285305 4:0.013315766 5:0.011056837 
1 3:2.8246185 4:0.013526089 5:0.0088185324 
1 1:0.1033823 2:0.045059666 
1 1:0.11099343 2:0.046060598 
1 1:0.10102409 2:0.051180489 
1 1:0.10744489 2:0.033516075 
1 1:0.10982069 2:0.05396971 
-1 1:0.10221981 2:0.063151421 
-1 1:0.080296062 2:0.023463858 
-1 1:0.077474247 
-1 1:0.048245259 3:2.789765 5:0.0017123818 
1 1:0.10544102 2:0.0052728287 5:0.00091833652 
1 1:0.10583804 5:0.001706941 
1 1:0.10355516 2:0.018084195 
1 1:0.1028464 5:0.0040948435 
1 1:0.1036854 5:0.0035677313 
1 1:0.1002689 2:0.029441592 
1 1:0.10434068 5:0.0021727338 
1 1:0.10333105 5:0.0032450719 
-1 1:0.1057503 5:0.0023006935 
-1 1:0.05444454 2:0.0033021328 3:2.2235448 5:0.0020317086 
-1 1:0.041766258 2:0.01637312 3:2.4804204 
-1 1:0.043612739 2:0.002494009 3:2.0049558 5:0.0042054797 
-1 1:0.040027762 2:0.019355285 3:2.3614022 
1 2:0.058740516 4:0.00028766429 
1 2:0.051454442 
1 2:0.052321844 
1 2:0.052626021 
-0.9862988901005093 1:0.037483702 2:0.039178161 3:2.625953 
-0.1355330015976818 2:0.096605776 3:0.46912808 4:0.011908215 5:0.015116159 
-1 2:0.058090281 4:0.011048801 
1 2:0.072713016 4:0.0076769151 
-1 1:0.040305179 5:0.010243549 
-1 1:0.0540741 2:0.030594193 3:0.5759012 
1 5:0.0098955337 
0.176062189385128 1:0.11018363 2:0.029454039 5:0.0044429327 
1 1:0.11059715 2:0.029843353 5:0.0043664696 
1 1:0.11256082 2:0.025410763 5:0.005051381 
-1 1:0.11547966 2:0.010510897 5:0.0071038909 
-1 1:0.05774604 2:0.029183609 3:2.167541 5:0.0024688604 
-1 1:0.053787339 2:0.026640403 3:2.120721 5:0.0028208873 
-1 1:0.046808337 2:0.028812168 3:2.0695066 5:0.002506747 
-0.04744046907618515 1:0.051352196 2:0.022798819 3:2.0221312 5:0.003609439 
-1 1:0.048690663 2:0.021614551 3:1.9794176 5:0.003561509 
-1 1:0.040012225 3:1.7034035 5:0.011688458 
1 2:0.05738509 4:0.00012758712 
-1 1:0.047094173 2:0.025362061 3:1.9085318 5:0.0026320572 
-1 1:0.047263206 2:0.031915881 3:2.1892166 
-1 1:0.049448656 2:0.084209958 3:2.5811835 
1 2:0.058246804 4:0.0014681361 
1 2:0.052088242 
1 
1 2:0.084968708 4:0.0089092955 
1 1:0.0044826985 2:0.067035071 3:2.0377122 4:0.0077424909 
1 1:0.104205 2:0.030265795 
1 1:0.099218945 2:0.029467144 
1 1:0.10045961 2:0.026300544 
0.9885960463297838 1:0.091764014 2:0.050526694 
1 1:0.10081226 2:0.027198715 
1 1:0.10319276 2:0.026192815 
1 1:0.1052971 2:0.018855284 
1 1:0.10986974 2:0.027422211 
-1 1:0.11897296 5:0.001713633 
-1 1:0.046564233 2:0.016577745 
-1 1:0.042132878 2:0.022003767 
-1 1:0.046162468 2:0.047781778 
-1 1:0.043661751 2:0.023556115 
1 2:0.043089012 
0.06375798796221822 3:0.36036232 4:0.014746388 5:0.0027496447 
1 2:0.051127085 
0.3349804405308083 2:0.049569274 
1 2:0.04953216 
-1 1:0.036499674 2:0.037217178 
1 1:0.074555765 2:0.0004362325 
1 1:0.078385745 
1 1:0.065917355 5:0.0073951941 
1 1:0.080961122 5:0.0013210891 
1 1:0.077857543 2:0.0028257734 
1 1:0.074362127 2:0.001087522 
1 1:0.073273866 5:0.0007481796 
1 1:0.085185796 
-1 1:0.063007268 2:0.038863598 
1 2:0.082726202 4:0.00248145 
1 4:0.0025884089 5:0.015 
1 4:0.0022940414 5:0.012495559 
1 4:0.0013589563 5:0.011014035 
0.05689500757280162 1:0.092401027 2:0.0083223141 5:0.0079772691 
-1 1:0.088607461 2:0.026515644 5:0.0050372719 
-0.1269169831416357 1:0.059395513 2:0.012543124 3:2.3306665 5:0.0075043044 
-1 1:0.057093247 2:0.012009709 3:2.2988397 5:0.0077254671 
-1 1:0.051608888 2:0.013053687 3:2.1937634 5:0.0081992541 
-1 1:0.046859512 2:0.017094052 3:2.2049673 5:0.0071387605 
-0.6975870123357361 1:0.046195483 2:0.02086373 3:2.278592 5:0.006024975 
-1 1:0.047110745 2:0.013955964 3:2.1412572 5:0.0078592432 
-0.2186394874266987 1:0.046489885 2:0.014682396 3:2.1277092 5:0.0075031925 
-1 1:0.047409371 2:0.031311703 3:2.4377606 5:0.0021842287 
-0.5768603379363204 1:0.04735307 2:0.011033162 3:2.1623716 5:0.0075527834 
-1 1:0.04466864 2:0.020161864 3:2.2513505 5:0.0047575941 
-1 1:0.04328482 2:0.032096183 3:2.2976496 5:0.0029333384 
-1 1:0.042609629 2:0.022596905 3:2.3976392 5:0.0020129003 
-1 1:0.043503824 2:0.020401481 3:2.3637266 5:0.0026816023 
-1 1:0.046111881 2:0.02172347 3:2.3792673 5:0.0020118507 
-1 1:0.043603984 2:0.022192487 3:2.4646722 5:0.00036607883 
-1 1:0.046507049 2:0.016866128 3:2.3570858 5:0.0025649008 
1 2:0.052388323 4:0.00041168738 
-1 1:0.041722951 2:0.020422268 3:2.3957609 5:0.00053321609 
-1 1:0.032533363 2:0.027649128 3:2.5944834 
-1 1:0.031200702 2:0.033185105 3:2.6788201 
-1 2:0.055605693 4:0.01206658 
-1 2:0.051847963 4:0.012506244 
-1 2:0.05240294 4:0.012605828 
-1 2:0.059772348 4:0.011498539 
-1 2:0.062931532 4:0.011004249 
-1 2:0.027022944 4:0.01454624 
-1 2:0.05749166 4:0.011878295 
-1 2:0.063423319 4:0.01084532 
1 2:0.057327653 4:0.011898823 
1 2:0.045399562 3:2.6656454 4:0.013598217 
1 3:1.2265135 4:0.00016755409 
0.08224650389471047 3:1.2402596 4:0.00011706405 
1 3:0.46831943 
1 1:0.20070771 3:2.1617917 4:0.00036779741 
1 1:0.20089255 3:2.190704 4:0.00031245767 
1 1:0.23731886 2:0.14000861 4:0.00047341879 
1 1:0.11419592 2:0.044404658 
1 1:0.11328599 2:0.050249874 
1 1:0.1196033 2:0.032783716 5:0.0006572809 
1 1:0.1101417 2:0.052849448 
1 1:0.11424528 2:0.0460287 
1 1:0.11940188 2:0.032333999 5:0.00072501296 
0.2541897263420399 1:0.11022398 2:0.05486416 
-1 1:0.11466241 2:0.045915404 
-0.4663621102692554 1:0.069481518 2:0.011349048 3:2.4398227 5:0.0021414765 
-1 1:0.069525387 2:0.022676406 3:2.6105262 
-1 1:0.059582628 2:0.019231032 3:2.5112577 
-1 1:0.057248733 2:0.015382231 3:2.426873 5:0.00073493096 
-1 1:0.048763697 2:0.024501391 3:2.5871216 
-1 1:0.044493251 2:0.022714065 3:2.5718134 
-0.6476923329724732 1:0.033622398 2:0.024531215 3:2.8142114 
-1 1:0.057416723 2:0.0099748315 3:2.1928093 5:0.0023043276 
-1 1:0.033225458 2:0.030481106 3:2.8308517 
-1 1:0.035367726 2:0.025244726 3:2.7974081 
-1 1:0.015336639 2:0.051717345 3:2.8744921 
1 2:0.050954837 4:0.00024468096 
-1 1:0.037868841 2:0.032975316 3:2.7961064 
-1 1:0.036577789 2:0.041824191 3:2.559179 
1 1:0.027901552 2:0.045015258 3:3.0814506 
1 2:0.037675408 
-1 1:0.03967026 2:0.022442578 3:2.5495755 
1 2:0.051547329 
-1 2:0.0034999585 4:0.016153982 5:0.0088266949 
-1 2:0.0055701914 4:0.016283432 5:0.0087059 
-1 2:0.0097248343 4:0.016428667 5:0.0083600545 
-1 2:0.0081595896 4:0.016315621 5:0.0084399054 
-1 4:0.016053824 5:0.0095068279 
-1 4:0.016019435 5:0.0093734416 
-1 2:0.0041226795 4:0.016195564 5:0.0087906986 
1 2:0.00049938275 4:0.016107777 5:0.0091336963 
1 4:0.016318976 5:0.01036762 
1 4:0.015814883 5:0.010136052 
1 2:0.0031672849 4:0.015959276 5:0.0084404144 
1 2:0.0073513403 4:0.015836001 5:0.0077150864 
1 2:0.0076302507 4:0.015549478 5:0.0068959161 
1 2:0.025990237 4:0.015620597 5:0.0043383818 
1 2:0.019000452 4:0.01556531 5:0.0050689669 
1 2:0.029732416 4:0.015592698 5:0.0034437822 
1 2:0.030719586 4:0.015385229 5:0.0031324682 
1 2:0.035349858 4:0.015337198 5:0.0023105448 
1 2:0.032368049 4:0.015271664 5:0.0025550947 
1 2:0.041073243 4:0.015262606 5:0.0015058902 
1 2:0.038707706 4:0.015166957 5:0.0016392722 
1 2:0.041990614 4:0.015181127 5:0.0011781238 
1 2:0.036394706 4:0.015103782 5:0.001653124 
1 2:0.0567857 4:0.015097915 
1 2:0.047521144 4:0.015141226 5:0.00048753663 
1 2:0.041181067 4:0.01505536 5:0.00090776932 
1 2:0.0038670039 4:0.014672021 5:0.0049277955 
1 2:0.050142165 4:0.015034571 
1 2:0.045297495 4:0.015047471 5:0.00046652014 
1 2:0.083980343 4:0.01462099 
1 2:0.06555704 4:0.01490004 
1 2:0.063211141 4:0.014936206 
1 4:2.5652125e-05 5:0.021213188 
1 5:0.021203639 
1 1:0.23991725 5:0.0020886048 
-1 1:0.16457849 5:0.020024341 
-0.6384546239563335 1:0.088680098 3:0.29082821 5:0.017279588 
-1 1:0.21071759 3:0.7342357 5:0.0097852406 
1 1:0.11451774 5:0.018672927 
1 1:0.04796763 4:0.0078072525 5:0.016258616 
-1 1:0.15780283 2:0.013487104 3:1.256245 
-1 1:0.074238387 3:0.12886064 5:0.01780346 
-1 1:0.097509833 3:0.23993932 5:0.015354789 
1 1:0.15843974 5:0.010474271 
0.8772805602965331 1:0.16436058 5:0.010245802 
1 1:0.16028423 5:0.010112514 
1 1:0.16665215 5:0.010791997 
1 1:0.091452155 4:0.0012353221 5:0.014994963 
1 1:0.11517057 4:4.5464865e-05 5:0.015003727 
-1 1:0.18358107 5:0.010118956 
1 1:0.094588454 4:0.002889899 5:0.014742342 
-1 1:0.17158355 5:0.0085231103 
1 1:0.17419527 5:0.014612409 
-1 1:0.098814378 3:0.12130893 5:0.0105061 
-1 1:0.070164471 3:0.56086452 5:0.0069977705 
1 1:0.18217821 5:0.015176863 
-1 1:0.13003479 2:0.01475426 5:0.0075845363 
1 1:0.18443821 5:0.015151597 
0.1980413209194423 1:0.17910615 4:0.0012950247 5:0.015052949 
-1 1:0.17462422 2:0.014423552 5:0.0076747809 
1 1:0.17452504 4:0.0011336526 5:0.015001096 
-1 1:0.12937689 2:0.063921032 3:0.54080853 5:0.00048547279 
-1 4:0.016076412 5:0.013840122 
-1 4:0.016576585 5:0.013236949 
-1 4:0.01645205 5:0.013391417 
-1 4:0.01540942 5:0.014579087 
-1 4:0.015964603 5:0.013968946 
-1 4:0.016075874 5:0.013840747 
-1 4:0.016486912 5:0.013348473 
-1 4:0.016154411 5:0.013749 
-1 4:0.015286156 5:0.014708277 
1 4:0.016325262 5:0.013545694 
1 3:2.3719965 4:0.016310847 5:0.013563048 
-0.4149154729378324 3:2.3872517 4:0.015647877 5:0.014322847 
-1 2:0.011083633 3:2.3510269 4:0.016287147 5:0.013591499 
-1 2:0.045922887 3:2.3519785 4:0.016114159 5:0.0088736916 
1 2:0.060138785 3:2.2380226 4:0.016966983 5:0.0067690334 
0.1287333767561693 2:0.053399019 3:2.4446893 4:0.015371646 5:0.006926393 
-1 1:0.10749449 5:0.012486552 
-1 1:0.063917947 3:2.7860095 4:0.014025612 5:0.0073795119 
-1 2:0.017191836 4:0.015602999 5:0.0019824373 
-1 2:0.020583044 4:0.015576311 5:0.0016498278 
-1 2:0.01837195 4:0.015598801 5:0.0018715931 
-1 2:0.029642152 4:0.015564227 5:0.00077289074 
-1 2:0.017838258 4:0.015645245 5:0.0019920617 
-1 2:0.015859807 4:0.015612671 5:0.0021186099 
-1 2:0.016716375 4:0.015684077 5:0.0021347062 
-1 2:0.025444403 4:0.015676286 5:0.001305122 
1 2:0.017370858 4:0.015641986 5:0.0020006546 
1 2:0.021674391 3:2.6661102 4:0.015067497 
1 2:0.020245184 3:2.6049888 4:0.015018754 
0.1508972951622053 2:0.031655505 3:2.6686091 4:0.014728643 
1 2:0.02722321 3:2.7151508 4:0.01481657 
1 2:0.033253622 3:2.6391315 4:0.014680871 
1 2:0.031672181 3:2.7034452 4:0.014728164 
1 2:0.033896829 3:2.6938866 4:0.014689389 
1 2:0.03428788 3:2.7272939 4:0.014690365 
1 2:0.036143299 3:2.736067 4:0.014708719 
1 2:0.038160655 3:2.696436 4:0.01465215 
1 2:0.040957678 3:2.7520065 4:0.014640782 
1 2:0.038884154 3:2.7287591 4:0.014676208 
1 2:0.04732111 3:2.7096048 4:0.014470294 
0.05492917757046108 2:0.045288438 3:2.7580421 4:0.014552109 
1 2:0.044460355 3:2.7103697 4:0.014575584 
1 2:0.054615519 3:2.6126959 4:0.014292002 
1 2:0.051761975 3:2.6591564 4:0.014441622 
1 2:0.034526299 3:2.7982286 4:0.014825428 
1 2:0.06457028 3:2.6916999 4:0.014542529 
0.9618288168524701 3:3.0946147 4:0.012657723 5:0.010498632 
1 2:0.05349275 3:2.7492009 4:0.014975413 
1 2:0.062488074 3:2.7801557 4:0.014959593 
-1 2:0.10129813 4:0.010094787 
-0.9925606675676035 2:0.11091784 4:0.0099351044 
-1 2:0.10296217 4:0.010195891 
-1 2:0.13844102 4:0.0065888219 
1 2:0.011257842 3:2.5866025 4:0.014700242 
1 2:0.010178954 3:2.3658195 4:0.014861604 
1 2:0.046270253 3:2.2045478 4:0.013149309 
1 2:0.049459064 3:2.3969453 4:0.013814705 
1 3:2.5131631 4:0.015255795 5:0.0011090556 
1 1:0.060267306 5:0.018819557 
1 1:0.26908556 3:1.8779533 4:0.010591193 
-1 2:0.013029639 4:0.020593163 5:0.0050913298 
-1 2:0.0097036235 4:0.020487625 5:0.0055006547 
-1 4:0.020257565 5:0.0062953214 
-1 4:0.020269946 5:0.0062553403 
-1 4:0.020305124 5:0.0061401897 
-1 4:0.019565143 5:0.0081978762 
-1 2:0.012914352 4:0.020594379 5:0.00508641 
-1 2:0.018481371 4:0.020673084 5:0.0047564274 
-1 4:0.015822021 5:0.014130239 
1 2:0.010418481 4:0.020516905 5:0.00539042 
-0.8621430000876282 2:0.047763083 3:0.93351566 4:0.021177418 5:0.0012316488 
-1 1:0.16828287 5:0.014602991 
-1 1:0.29022612 5:0.0079066405 
-1 1:0.24671238 5:0.0072350442 
-1 1:0.23355392 5:0.0097828131 
-0.2610766829203762 2:0.095674215 3:0.82330951 4:0.021158662 
-1 1:0.23929623 5:0.0087253925 
-1 1:0.1976282 5:0.0097738635 
1 1:0.19658071 2:0.018757285 3:2.5931456 
1 1:0.19770814 2:0.027827968 3:2.6342985 
1 1:0.19262366 2:0.029138657 3:2.6223877 
1 1:0.18954247 2:0.017100004 3:2.6086285 
1 1:0.19219016 2:0.020719167 3:2.6133804 
1 1:0.19690735 2:0.016293524 3:2.5926654 
1 1:0.19433516 2:0.025803256 3:2.6251726 
-1 1:0.18676841 2:0.022926684 3:2.614981 
-1 1:0.13682713 2:0.065341801 3:2.7900894 
-1 1:0.13764654 2:0.061325407 3:2.8123013 
-1 1:0.12558075 2:0.050044052 3:2.8082533 
-1 1:0.13163515 2:0.032658838 3:2.7540045 
-1 1:0.13236648 2:0.028891562 3:2.683172 
-1 1:0.11352238 2:0.037319484 3:2.7843016 
-1 1:0.12221556 2:0.03216891 3:2.7756485 
-1 1:0.11914544 2:0.029808485 3:2.7418647 
-1 1:0.12695095 2:0.019090068 3:2.7230154 
-1 1:0.12727304 2:0.020538466 3:2.7061373 
-1 1:0.11857233 2:0.030714299 3:2.769089 
-1 1:0.1307934 2:0.033434034 3:2.8207328 
-1 1:0.11537344 2:0.011628972 3:2.6118415 
-1 1:0.12219609 2:0.034682591 3:2.8317573 
-1 1:0.12695216 2:0.019370713 3:2.7369142 
-0.2025306585478457 1:0.11689305 2:0.032699693 3:2.8292284 
-1 1:0.12743554 2:0.029959017 3:2.7813881 
-1 1:0.12504788 2:0.029133879 3:2.7727483 
-1 1:0.1264585 2:0.030734928 3:2.8009067 
-0.01764295085656969 1:0.12569583 2:0.029643726 3:2.7945561 
-1 1:0.13239256 2:0.022416483 3:2.7318666 
-1 1:0.12987397 2:0.030627292 3:2.7183055 
-1 1:0.12338988 2:0.028743421 3:2.7280225 
-1 1:0.12822733 2:0.032385619 3:2.7737474 
-1 1:0.12441539 2:0.027539901 3:2.7668635 
-1 2:0.058292869 4:0.015270462 
-1 2:0.054020726 4:0.015514497 
-1 2:0.057980517 4:0.015314647 
-1 2:0.062132064 4:0.015001188 
-1 2:0.053515976 4:0.015744973 
-1 2:0.058323604 4:0.015179787 
-1 2:0.059638535 4:0.014984966 
-1 2:0.060447263 4:0.01509079 
1 2:0.060911476 4:0.015212322 
1 2:0.029351662 3:2.7540161 4:0.01478421 
1 3:2.8404057 4:0.015410104 
1 1:0.10576687 5:0.015965041 
1 1:0.15393653 3:3.0837333 5:0.018033624 
1 1:0.18988547 3:2.899715 5:0.019773213 
1 1:0.14184681 3:2.9287033 5:0.019542236 
1 1:0.19017862 3:2.9282176 5:0.019546242 
1 1:0.14363052 3:3.0772036 5:0.018106181 
1 1:0.19015047 3:2.9162176 5:0.019643746 
1 1:0.18908364 3:2.9054516 5:0.019728817 
-1 1:0.17741546 3:2.8705272 5:0.019988993 
-1 1:0.14850259 3:1.9393184 
-1 1:0.11709879 2:0.056431543 3:2.5701349 
-0.2160333575526004 1:0.19648307 3:0.99521956 5:0.0075505533 
1 1:0.038908178 4:0.0018816481 5:0.015587474 
-1 1:0.22377082 2:0.060937743 3:2.1209518 
1 1:0.073381256 2:0.1003564 3:2.9259225 
1 1:0.066500582 2:0.092671867 
-1 1:0.19712074 3:0.82674377 5:0.004727026 
1 1:0.006427094 4:0.014715688 5:0.0045678358 
