svm_type epsilon_svr
kernel_type linear
nr_class 2
total_sv 2712
rho 0.00718704
SV
-1 2:0.11013838 4:0.013364247 
-1 2:0.10902862 4:0.013598622 
-1 2:0.10933114 4:0.01407239 
-1 2:0.10992379 4:0.013718217 
-1 2:0.11043705 4:0.013254518 
-1 2:0.10941619 4:0.013483951 
-1 2:0.10986928 4:0.013695396 
-1 2:0.066782736 3:1.9337365 4:0.01464952 
-1 2:0.065442248 3:1.9236129 4:0.013458499 
0.5428137116228281 2:0.065438865 3:1.9197692 4:0.013027113 
-1 2:0.064060383 3:1.9181774 4:0.01277238 
-1 2:0.064613036 3:1.8349769 4:0.012262362 
-1 2:0.064919115 3:1.8454632 4:0.012221873 
-1 1:0.0073065364 2:0.064297716 3:1.8044845 4:0.010039291 
-1 1:0.00055083315 2:0.063158681 3:1.7765788 4:0.010362466 
-1 1:0.004759396 2:0.063714843 3:1.7898267 4:0.0099447346 
-1 1:0.00019195132 2:0.064111343 3:1.8440991 4:0.010193105 
-1 1:0.0067153641 2:0.064024674 3:1.844618 4:0.009701056 
-1 1:0.0053489471 2:0.063772649 3:1.852816 4:0.0098200246 
-1 1:0.01632675 2:0.06565941 3:1.8479218 4:0.0090239201 
-1 1:0.025593393 2:0.065673414 3:1.8705602 4:0.0085059385 
1 1:0.010092732 2:0.06761964 3:1.8946663 4:0.00931449 
-1 1:0.0060607936 2:0.065248412 3:1.8845149 4:0.0097514654 
-1 1:0.0099610563 2:0.067474429 3:1.8592909 4:0.0095087771 
-1 1:0.019087613 2:0.067914943 3:1.9371234 4:0.0089769957 
-1 1:0.012362533 2:0.067972387 3:1.9565215 4:0.0093853026 
-1 1:0.0173695 2:0.066529984 3:1.9652657 4:0.009344395 
-1 1:0.018661975 2:0.069191258 3:1.9880709 4:0.0091933165 
-1 1:0.036295428 2:0.068903493 3:2.0398769 4:0.0087064372 
-1 1:0.014530849 2:0.068609082 3:2.0250526 4:0.0095775549 
-1 1:0.032235844 2:0.068390168 3:2.0520758 4:0.0088063588 
-1 1:0.017074026 2:0.069435356 3:2.0059523 4:0.0096592472 
-1 1:0.016739834 2:0.069277984 3:2.0089449 4:0.0097066576 
-1 1:0.014798923 2:0.068516882 3:2.0710749 4:0.0099572127 
-1 1:0.016541338 2:0.07060785 3:2.0789587 4:0.0098716852 
-1 1:0.014703611 2:0.070502193 3:2.0426536 4:0.010037405 
-1 1:0.021974787 2:0.070611141 3:2.1179303 4:0.0096595134 
-1 1:0.026443681 2:0.071357645 3:2.117245 4:0.0095943471 
-1 1:0.02203103 2:0.07251856 3:2.1434188 4:0.0098480027 
-1 1:0.015680782 2:0.072018234 3:2.1651816 4:0.010202449 
1 1:0.02321412 2:0.072099136 3:2.1691259 4:0.010107174 
-1 1:0.02469902 2:0.068489209 3:2.1675441 4:0.010056101 
-1 1:0.026706325 2:0.070442562 3:2.118137 4:0.010144332 
-1 1:0.026619502 2:0.072477356 3:2.2260726 4:0.010354313 
-1 1:0.039686528 2:0.072852406 3:2.2778844 4:0.010112499 
-1 1:0.03208457 2:0.069588104 3:2.1051082 4:0.010392895 
-1 1:0.035136793 2:0.072623555 3:2.25942 4:0.010302208 
-1 1:0.051593039 2:0.070021391 3:2.2548259 4:0.010078816 
-1 2:0.099851583 4:0.0089354712 
-1 2:0.10021178 4:0.0090300415 
-1 2:0.099945491 4:0.0090298036 
-1 2:0.1001868 4:0.0088944318 
-1 2:0.10022874 4:0.0088937495 
-1 2:0.065494858 3:1.1695374 4:0.011534987 
-1 2:0.066142474 3:1.1343038 4:0.011218831 
-1 2:0.064985392 3:1.0489811 4:0.010185311 
-1 2:0.064869056 3:1.0200182 4:0.0096222299 
-1 2:0.06174292 3:0.97707232 4:0.0090529358 
1 2:0.062165047 3:0.97589658 4:0.0092456302 
-1 2:0.059520174 3:0.93721542 4:0.0088983084 
-1 2:0.060872593 3:0.9022077 4:0.00781805 
1 2:0.061849552 3:0.81074854 4:0.0076530479 
-1 2:0.058228702 3:0.83272297 4:0.0078210645 
1 2:0.060114503 3:0.83169975 4:0.0085652402 
-1 2:0.057762791 3:0.84337969 4:0.0076491828 
1 2:0.059543882 3:0.82239279 4:0.0077009838 
-1 2:0.055583186 3:0.81996595 4:0.0073428621 
1 2:0.057952883 3:0.72218302 4:0.0072179738 
-1 2:0.053234805 3:0.76392692 4:0.0079522476 
-1 1:0.0052791901 2:0.056720871 3:0.72860499 4:0.0050813477 
-1 2:0.058353195 3:0.72862789 4:0.0062339912 
1 2:0.059919322 3:0.66810375 4:0.0057895954 
1 2:0.054386683 3:0.75156468 4:0.0065330364 
-1 1:0.0034536662 2:0.053545231 3:0.72717187 4:0.0058032088 
1 2:0.056517761 3:0.73420187 4:0.0074379943 
-1 2:0.053848768 3:0.8079188 4:0.0078261644 
1 2:0.060384914 3:0.82470586 4:0.006840301 
-1 2:0.057022863 3:0.88105413 4:0.0072940489 
1 2:0.061140608 3:0.84997037 4:0.0068398426 
-1 2:0.048752198 3:1.0024292 4:0.0093101178 
-1 2:0.058185112 3:0.86241636 4:0.0072434378 
-1 2:0.059333863 3:0.86018812 4:0.0075252789 
1 2:0.060504541 3:0.88047791 4:0.0076964244 
-1 2:0.058311872 3:0.89841912 4:0.0077477612 
1 2:0.061787958 3:0.91952525 4:0.0073931635 
-1 2:0.059902172 3:0.95945942 4:0.0084692474 
-1 2:0.061342028 3:0.97945786 4:0.0088445366 
1 2:0.064377154 3:0.97603496 4:0.0073450599 
-1 2:0.060841744 3:1.0154205 4:0.0080660061 
1 2:0.062961057 3:1.0388686 4:0.0081185411 
-1 2:0.058120379 3:1.1080845 4:0.0088398498 
-1 1:0.0059575698 2:0.060973151 3:1.0864794 4:0.0079662669 
1 1:0.0031296053 2:0.062482056 3:1.0723252 4:0.0079981128 
-1 1:0.0047332561 2:0.058820079 3:1.1454887 4:0.0090049123 
1 1:0.0065408951 2:0.064955576 3:1.1073021 4:0.0078710038 
-1 1:0.0025833703 2:0.061185807 3:1.0962516 4:0.0086457269 
-1 2:0.065023515 3:1.1489272 4:0.0089943374 
1 1:0.0070915665 2:0.065436508 3:1.1141852 4:0.0081871916 
-1 1:0.0065641609 2:0.062949539 3:1.1364415 4:0.0087779575 
1 1:0.0060755862 2:0.064727112 3:1.1730613 4:0.0089206725 
-1 1:0.0032029414 2:0.062629539 3:1.276157 4:0.010161698 
-1 1:0.0074113554 2:0.067109394 3:1.1900714 4:0.0088608747 
-1 1:0.0073843766 2:0.066448915 3:1.199179 4:0.0094213811 
-1 1:0.015830257 2:0.066477584 3:1.213639 4:0.0091366346 
-1 1:0.0086951307 2:0.066350512 3:1.1977971 4:0.0092901472 
-1 1:0.017152882 2:0.067192282 3:1.1982175 4:0.0090185565 
-1 1:0.010082814 2:0.067490503 3:1.2464471 4:0.0098652466 
1 1:0.024719564 2:0.072476696 3:1.1803193 4:0.0082596314 
-1 1:0.0070257973 2:0.066089123 3:1.2829555 4:0.010666493 
1 1:0.006208048 2:0.066853951 3:1.256576 4:0.010270625 
-1 1:0.017981446 2:0.063988775 3:1.3215412 4:0.010970331 
-1 1:0.027231373 2:0.06750457 3:1.3198191 4:0.010516837 
-0.6843354280029244 1:0.0076171494 2:0.069209729 3:1.3461062 4:0.010878241 
-1 1:0.032563282 2:0.067907234 3:1.3434098 4:0.01042673 
-1 1:0.010115555 2:0.069401091 3:1.3734426 4:0.011186755 
-1 1:0.023104533 2:0.068734855 3:1.3881665 4:0.011088242 
-1 1:0.030585883 2:0.067717692 3:1.3343387 4:0.010602646 
1 1:0.042906881 2:0.073702395 3:1.2095017 4:0.008910512 
-1 2:0.067359351 3:1.7521109 4:0.014316082 
-1 2:0.069010703 3:1.720721 4:0.013861913 
-1 2:0.069287237 3:1.709678 4:0.01364801 
-1 2:0.069499329 3:1.6620312 4:0.013549865 
-1 2:0.068187974 3:1.6523072 4:0.013238169 
-1 2:0.067340592 3:1.6489451 4:0.012889858 
-1 2:0.067753594 3:1.6240049 4:0.012753798 
-1 2:0.066734238 3:1.5807572 4:0.012299439 
-1 2:0.068180807 3:1.567859 4:0.01201834 
1 2:0.069641774 3:1.5324836 4:0.011900381 
-1 2:0.066105656 3:1.5514797 4:0.011963038 
-1 2:0.064719623 3:1.5796096 4:0.012428552 
-1 2:0.066423177 3:1.506275 4:0.011651253 
1 2:0.068016396 3:1.5029195 4:0.010989735 
-1 2:0.064900128 3:1.4967138 4:0.011557755 
1 2:0.0687304 3:1.4579754 4:0.011021053 
-1 2:0.063797401 3:1.4701734 4:0.011092054 
-1 2:0.065196175 3:1.4924037 4:0.011267611 
-1 2:0.065579163 3:1.4734823 4:0.011207201 
-1 2:0.065375936 3:1.5107291 4:0.010929325 
-1 2:0.067223718 3:1.4894986 4:0.011103564 
-1 2:0.069211478 3:1.4863921 4:0.010789459 
-1 2:0.067666073 3:1.5958215 4:0.011564478 
-1 2:0.06797166 3:1.6033599 4:0.011679116 
-1 2:0.0678001 3:1.6466052 4:0.01172446 
-1 2:0.069477571 3:1.6127869 4:0.011224373 
-1 2:0.070399189 3:1.6004866 4:0.011671654 
-1 2:0.070202471 3:1.6578158 4:0.011753723 
-1 2:0.070175903 3:1.663637 4:0.011717772 
-1 2:0.070673463 3:1.681349 4:0.011832241 
-1 2:0.070040042 3:1.7140357 4:0.012155832 
-1 2:0.070633528 3:1.7290142 4:0.012082102 
1 2:0.072306186 3:1.7036016 4:0.011773432 
-1 2:0.068858317 3:1.7447955 4:0.012237997 
-1 2:0.071041467 3:1.7437222 4:0.011979578 
-1 2:0.072294758 3:1.7412765 4:0.012020333 
-1 1:0.00053451049 2:0.073803261 3:1.7530987 4:0.011918595 
-1 2:0.074720891 3:1.7532014 4:0.011877155 
-1 2:0.074442884 3:1.7691932 4:0.012044171 
1 1:0.0003229311 2:0.07482464 3:1.7960248 4:0.012222524 
-1 2:0.071314643 3:1.8158269 4:0.012558643 
-1 2:0.072085793 3:1.8336662 4:0.012680153 
1 2:0.075290251 3:1.8419212 4:0.012534962 
-1 2:0.072216506 3:1.8818683 4:0.01293398 
-1 2:0.074668303 3:1.9046166 4:0.012928285 
-1 1:0.005788907 2:0.075055793 3:1.8880509 4:0.012899513 
1 2:0.076841882 3:1.9017586 4:0.012901575 
-1 1:0.0089899608 2:0.072443781 3:1.9203493 4:0.013159562 
-1 1:0.0046407628 2:0.075580957 3:1.9102716 4:0.012986212 
1 1:0.0091804193 2:0.075365675 3:1.9492277 4:0.013328284 
1 4:0.019423662 5:0.0085276823 
1 4:0.019255205 5:0.0089015211 
1 4:0.019138909 5:0.0091488895 
1 4:0.019200167 5:0.0090196228 
1 4:0.019274574 5:0.0088595033 
1 3:0.69589515 4:0.019104777 5:0.0092199508 
1 3:0.67893152 4:0.019289785 5:0.0088263343 
1 3:0.68921416 4:0.019197315 5:0.0090256901 
1 3:0.69630305 4:0.019132535 5:0.0091622115 
-1 3:0.73623133 4:0.018759323 5:0.0099039286 
1 3:0.68732513 4:0.019276308 5:0.0088557303 
-1 3:0.69079489 4:0.019176254 5:0.0090703508 
1 3:0.67186969 4:0.019354963 5:0.0086824766 
-1 3:0.68041964 4:0.019190666 5:0.0090398191 
1 3:0.6563867 4:0.01941629 5:0.0085444525 
-1 3:0.6423639 4:0.019441722 5:0.0084864267 
1 2:0.0066284136 3:0.59960925 4:0.019761054 5:0.0077136725 
1 2:0.0019223345 3:0.614085 4:0.01952917 5:0.008283206 
1 3:0.66129617 4:0.019182328 5:0.0090574993 
1 2:0.0017820352 3:0.64156935 4:0.019398701 5:0.0085843104 
1 2:0.0009958928 3:0.64546233 4:0.019324512 5:0.0084516467 
-1 3:0.68230851 4:0.01908764 5:0.0092553768 
1 2:0.0093985531 3:0.60029829 4:0.019663901 5:0.0074970787 
-1 3:0.69202588 4:0.018739565 5:0.0085522783 
1 2:0.0026255168 3:0.65409369 4:0.019092881 5:0.0078101823 
1 3:0.68970494 4:0.018622101 5:0.008464418 
-1 3:0.69043629 4:0.018525555 5:0.008312718 
1 2:0.0020474097 3:0.65381354 4:0.018846425 5:0.0075109011 
1 2:0.0026670787 3:0.6342178 4:0.01883905 5:0.0072222675 
-1 3:0.72182101 4:0.017864332 5:0.0081090026 
1 2:0.0012479943 3:0.65274585 4:0.01820304 5:0.0062079221 
1 3:0.68121227 4:0.018142729 5:0.0073186107 
-1 3:0.79409772 4:0.017221516 5:0.0099398509 
1 2:0.0023540942 3:0.65153298 4:0.018290875 5:0.0063989608 
-1 3:0.78816461 4:0.016117959 5:0.0085394373 
-1 3:0.72908437 4:0.017497669 5:0.0069901084 
-1 2:0.013524312 3:0.57184155 4:0.018773057 5:0.0051703003 
1 2:0.023768361 3:0.5028995 4:0.019244573 5:0.0044400299 
1 3:0.74000485 4:0.017399399 5:0.0082331152 
-1 3:0.78735326 4:0.016910556 5:0.0087105436 
1 1:0.12961181 2:0.00928693 
1 2:0.0017003267 3:0.69003614 4:0.017067641 5:0.0052269331 
1 3:0.70519511 4:0.016759261 5:0.0053356883 
1 1:0.13712624 2:0.012562699 
1 2:2.3664762e-05 3:0.69457571 4:0.017627311 5:0.0055245451 
1 3:0.79550184 4:0.014827941 5:0.007143993 
-1 3:0.83819782 4:0.014047389 5:0.007860216 
1 3:0.77630036 4:0.015094223 5:0.0060863281 
1 3:0.7142164 4:0.016943704 5:0.0053114497 
-1 3:0.79297243 4:0.014086409 5:0.0068527518 
1 3:0.75777779 4:0.013971495 5:0.0057862568 
-1 3:0.81673642 4:0.015877927 5:0.0077621125 
1 2:0.0037853874 3:0.67570116 4:0.015659734 5:0.0044948559 
-1 3:0.76677151 4:0.012632512 5:0.0060950205 
1 2:0.0076933938 3:0.65186976 4:0.015799581 5:0.0040176646 
1 3:0.75645089 4:0.013056407 5:0.0057665276 
1 3:0.77682815 4:0.014231409 5:0.0062852825 
-1 3:0.7887635 4:0.01432346 5:0.0063612103 
1 2:0.0086020645 3:0.64396338 4:0.014896232 5:0.0038065046 
-1 1:0.14937235 2:0.025106568 
-1 1:0.23841562 2:0.0085060291 
1 3:0.74805884 4:0.011743756 5:0.0055327887 
-1 3:0.73678229 4:0.011910035 5:0.0051977558 
-1 1:0.12855454 
1 3:0.7991125 4:0.011051403 5:0.0059192105 
1 2:0.0054753793 3:0.68189296 4:0.010999281 5:0.0035696975 
1 3:0.70723856 4:0.012009557 5:0.0044780322 
-1 1:0.23363511 3:2.6672302 
-1 1:0.23303434 3:2.6517534 
-1 1:0.23620801 3:2.6704911 
-1 1:0.23880072 3:2.6775423 
-0.1189941298696136 1:0.23388077 3:2.6701676 
-1 1:0.23618127 3:2.6691191 
1 1:0.16693745 3:2.1520737 
1 1:0.15880202 3:2.1538914 
1 1:0.16215307 3:2.160471 
1 1:0.15538401 3:2.1456561 
1 1:0.15244294 3:2.1420835 
1 1:0.15006041 3:2.1374865 
1 1:0.15481596 3:2.1470723 
1 1:0.15513993 3:2.1568323 
1 1:0.15404182 3:2.1479609 
1 1:0.15392383 3:2.1709871 
1 1:0.15073917 3:2.1660055 
1 1:0.15557369 3:2.1715131 
1 1:0.15440367 3:2.1629338 
1 1:0.15714795 3:2.1715425 
1 1:0.15727794 3:2.174587 
1 1:0.15561312 3:2.1707151 
1 1:0.15457276 3:2.1772443 
1 1:0.15546257 3:2.1638611 
1 1:0.15956776 3:2.1923812 
1 1:0.15611895 3:2.1797328 
1 1:0.15464573 3:2.1960323 
1 1:0.15780919 3:2.1993549 
1 1:0.15885616 3:2.1966982 
1 1:0.15714362 3:2.1933732 
1 1:0.15670203 3:2.1917854 
1 1:0.16099535 3:2.1983474 
1 1:0.16047383 3:2.2004522 
1 1:0.1609536 3:2.1923109 
1 1:0.15956699 3:2.2030948 
1 1:0.16138001 3:2.1987962 
1 1:0.15892268 3:2.2004463 
1 1:0.15806599 3:2.1912964 
1 1:0.16201461 3:2.2119778 
1 1:0.1636014 3:2.2119357 
1 1:0.15932535 3:2.2201969 
1 1:0.15789453 3:2.2144066 
1 1:0.16541855 3:2.213943 
1 1:0.15973269 3:2.216639 
1 1:0.16038449 3:2.2126481 
1 1:0.16488998 3:2.2165624 
1 1:0.16597841 3:2.2292565 
1 1:0.17056401 3:2.2494327 
1 1:0.15802288 3:2.2330486 5:0.00035673086 
1 1:0.15946025 3:2.2211896 5:0.00044943966 
1 1:0.15741873 3:2.2355427 5:0.00050364867 
1 1:0.16666455 3:2.2476375 5:0.00059102204 
1 1:0.15439914 3:2.27232 5:0.00078068243 
1 1:0.16029951 3:2.2609978 5:0.0010391318 
-1 1:0.15946699 3:2.2336401 5:0.0015789271 
1 1:0.16629506 3:2.2575634 5:0.00075546595 
1 1:0.16261498 3:2.2523215 5:0.0012614018 
1 1:0.16155729 3:2.2334732 5:0.0012101098 
1 1:0.16805571 3:2.2651005 5:0.00097469732 
1 1:0.16860761 3:2.2918488 5:0.00089127975 
1 1:0.16282877 3:2.3093757 5:0.0012464099 
1 1:0.17363458 3:2.2967554 5:0.00081817902 
1 1:0.15762997 3:2.278317 5:0.0018434966 
1 1:0.1707066 3:2.2889184 5:0.0015161538 
1 1:0.16699173 3:2.3019927 5:0.0016543945 
-1 1:0.15911641 3:2.3329228 5:0.0019631167 
-1 1:0.15659289 3:2.2739545 5:0.0026230807 
1 1:0.16613743 3:2.2888224 5:0.001867304 
-1 1:0.15869777 3:2.3653775 5:0.0013717979 
1 1:0.173145 3:2.2571967 5:0.0018634494 
-1 1:0.16616223 3:2.3021095 5:0.0019194989 
-1 1:0.17938834 3:2.3015225 5:0.0014694886 
1 1:0.17798623 3:2.2248933 5:0.0020994635 
-1 1:0.17552744 3:2.2814715 5:0.0019436076 
1 1:0.17091959 3:2.2608914 5:0.0019168719 
1 1:0.16893675 3:2.2732233 5:0.0021408737 
-1 1:0.16657148 3:2.2533316 5:0.0027459799 
1 1:0.16754943 3:2.2938061 5:0.0018647678 
-1 1:0.17024342 3:2.2765046 5:0.0026324145 
1 1:0.16218485 3:2.257725 5:0.0024532841 
-1 1:0.15862217 3:2.288159 5:0.0025857766 
1 1:0.16954782 3:2.2817443 5:0.002078591 
-1 1:0.18009409 3:2.2694107 5:0.0020330062 
-1 1:0.1760175 3:2.2477346 5:0.0025334179 
1 1:0.17477768 3:2.2792438 5:0.0024333574 
-1 1:0.16896058 3:2.2594567 5:0.0029477388 
-1 1:0.16190846 3:2.2551614 5:0.0030380816 
-1 1:0.18535288 3:2.2547289 5:0.0023702054 
1 1:0.18639721 3:2.2990216 5:0.0017499183 
-1 1:0.17166504 3:2.2751399 5:0.0029490174 
-1 1:0.18520901 3:2.2825319 5:0.0016835358 
-1 1:0.1938465 3:2.2831376 5:0.00095655859 
1 1:0.17051137 3:2.2316243 5:0.0022138459 
-1 1:0.16471274 3:2.1976024 5:0.0033547026 
1 1:0.18587078 3:2.2745551 5:0.001796675 
-1 1:0.16355956 3:2.183455 5:0.003138484 
-1 1:0.19714618 3:2.2575883 5:0.0016825974 
-1 1:0.18790045 3:2.2316095 5:0.0025820472 
-1 1:0.18539202 3:2.268234 5:0.0021189989 
-1 1:0.19601668 3:2.204551 5:0.002678607 
-1 1:0.20924317 3:2.2487821 5:0.0020996104 
-1 1:0.1887683 3:2.2366179 5:0.0028249092 
-1 1:0.19375529 3:2.2437864 5:0.0025427655 
-0.8217327088114714 1:0.18252812 3:2.2415556 5:0.0027528113 
-1 1:0.19793017 3:2.2541039 5:0.0024434531 
-1 1:0.19165585 3:2.181212 5:0.0036065472 
-1 1:0.21266253 3:2.2411546 5:0.0022886574 
-1 1:0.18409703 3:2.259785 5:0.0021976621 
1 2:0.043363576 4:0.015776653 5:0.00053953526 
1 2:0.044397414 4:0.015795515 5:0.00045698543 
1 2:0.044766395 4:0.01580801 5:0.00045489592 
1 2:0.044751855 4:0.015805399 5:0.00045901262 
1 2:0.045888612 4:0.015797362 5:0.00037428004 
1 2:0.043390017 4:0.015785178 5:0.00049739789 
1 2:0.038970928 3:0.001400833 4:0.015801487 5:0.00089226156 
1 2:0.053803347 3:3.0199256 4:0.014530359 
1 2:0.051816431 3:3.0375751 4:0.014498336 
1 2:0.050738871 3:3.0754896 4:0.014531632 
1 2:0.049104079 3:3.0411767 4:0.014518033 
1 2:0.05280113 3:3.0221152 4:0.01445205 
1 2:0.048376949 3:2.9793168 4:0.01452229 
1 2:0.043026751 3:3.1201167 4:0.01465457 
1 2:0.049633386 3:3.0353843 4:0.014533104 
1 2:0.052512528 3:3.033076 4:0.014396892 
1 2:0.042876751 3:3.0661538 4:0.014572442 
1 2:0.051009341 3:3.0476738 4:0.014428049 
1 2:0.048660933 3:2.9895222 4:0.014504254 
1 2:0.049003677 3:3.1036812 4:0.014435552 
1 2:0.045368908 3:3.0413872 4:0.014443488 
1 2:0.051732617 3:3.0447583 4:0.014439213 
1 2:0.053643153 3:2.9640469 4:0.014296301 
1 2:0.048743131 3:3.0135979 4:0.014456216 
1 2:0.048825772 3:3.0711832 4:0.014458171 
1 2:0.051487537 3:3.0299078 4:0.014350976 
1 2:0.04573266 3:3.0016208 4:0.014431108 
1 2:0.049886791 3:3.0259783 4:0.014418544 
1 2:0.049448504 3:2.9825781 4:0.014428357 
1 2:0.047792469 3:3.0153606 4:0.014461782 
1 2:0.046767913 3:3.0828733 4:0.014402859 
1 2:0.049389783 3:3.0317897 4:0.014410409 
1 2:0.050776899 3:3.0211749 4:0.014301355 
1 2:0.044077404 3:3.0474092 4:0.014523775 
1 2:0.051718882 3:3.0219009 4:0.014426629 
1 2:0.046558686 3:3.0119541 4:0.014379713 
1 2:0.049299267 3:3.0419121 4:0.014390045 
1 2:0.051192484 3:3.034586 4:0.014354231 
1 2:0.050908204 3:3.0389945 4:0.01430007 
1 2:0.051307268 3:3.0145337 4:0.014392791 
1 2:0.050893799 3:3.0385176 4:0.014247386 
1 2:0.04746474 3:3.0462801 4:0.014417361 
1 2:0.044119544 3:3.0980896 4:0.014489891 
1 2:0.056419591 3:2.993522 4:0.014134749 
1 2:0.04939504 3:3.0780562 4:0.014320937 
1 2:0.047771261 3:2.9938799 4:0.014428541 
1 2:0.051083165 3:3.0891592 4:0.014330028 
1 2:0.051557615 3:3.0458199 4:0.014368371 
1 2:0.049984376 3:3.0357646 4:0.014302172 
1 2:0.049212863 3:3.0439097 4:0.014278889 
-1 2:0.050352353 3:3.0137985 4:0.014364815 
1 2:0.054719758 3:2.9628971 4:0.014129341 
1 2:0.054288632 3:2.9673521 4:0.014145715 
1 2:0.053600583 3:3.0054709 4:0.014084869 
-1 2:0.049219797 3:3.0288375 4:0.014399321 
1 2:0.062259145 3:3.0198475 4:0.013958506 
1 2:0.05666167 3:3.0310832 4:0.013985746 
1 2:0.052973911 3:2.9694636 4:0.014293651 
1 2:0.052882869 3:3.0569995 4:0.014320029 
1 2:0.051601865 3:3.0040301 4:0.014213127 
1 2:0.04939441 3:3.048105 4:0.01445869 
1 2:0.053037375 3:3.0246881 4:0.014382196 
1 2:0.054501712 3:2.9625096 4:0.014418146 
1 2:0.052937044 3:3.0249991 4:0.014271251 
1 2:0.050399379 3:3.0179177 4:0.014227197 
1 2:0.054574025 3:2.9813803 4:0.014204082 
1 2:0.05555007 3:3.0512506 4:0.014249605 
1 2:0.059450354 3:2.9555113 4:0.014042036 
1 2:0.057310387 3:2.9446001 4:0.014199944 
1 2:0.058814532 3:2.9456013 4:0.013868816 
-1 2:0.042690654 3:2.984895 4:0.014598594 
1 2:0.058891264 3:2.9801619 4:0.014062729 
1 2:0.061300441 3:2.9076335 4:0.013938088 
1 2:0.056867442 3:2.9422001 4:0.01396298 
1 2:0.052772538 3:3.012686 4:0.014136485 
-0.2959644164287907 2:0.053245356 3:2.9723052 4:0.014166255 
1 2:0.058129002 3:2.9393542 4:0.014116937 
1 2:0.06059971 3:2.9213058 4:0.013981737 
1 2:0.059104768 3:2.8603868 4:0.01397279 
1 2:0.058258 3:2.9503532 4:0.014107853 
1 2:0.062240043 3:2.8714383 4:0.014068302 
0.4993413036119649 2:0.063207912 3:2.91129 4:0.013914917 
1 2:0.06725342 3:2.842406 4:0.013816849 
1 2:0.059107802 3:2.8587485 4:0.014007867 
1 2:0.062363413 3:2.8513409 4:0.014030971 
1 2:0.061414446 3:2.8762929 4:0.013732346 
1 2:0.065438991 3:2.8454077 4:0.013665145 
1 2:0.061681035 3:2.826538 4:0.013516524 
-1 2:0.059849942 3:2.8624568 4:0.013598516 
1 2:0.062843985 3:2.8893888 4:0.013511272 
1 2:0.062312334 3:2.8565996 4:0.01386214 
-1 2:0.06114077 3:2.85856 4:0.0138569 
1 2:0.070009598 3:2.8057833 4:0.013379966 
1 2:0.065872657 3:2.8266933 4:0.013519682 
1 2:0.064239078 3:2.8595718 4:0.013452474 
1 2:0.059643585 3:2.8559449 4:0.014587928 
-1 2:0.053449736 3:2.9009018 4:0.014630709 
1 2:0.065399457 3:2.8623172 4:0.013377233 
1 2:0.063621002 3:2.8498605 4:0.013734433 
-1 2:0.065391479 3:2.8077308 4:0.014139473 
1 2:0.071545836 3:2.7758316 4:0.013699676 
1 2:0.0634035 3:2.8152822 4:0.01340849 
-1 2:0.05944018 3:2.9002135 4:0.013760556 
1 1:0.11020119 5:0.0031119498 
1 1:0.11138042 5:0.0028790241 
1 1:0.10536298 5:0.0035991568 
1 1:0.11185483 5:0.0031489441 
1 1:0.11380706 5:0.0030954956 
-1 1:0.073428008 3:2.0195276 5:0.0087534448 
1 1:0.079022012 3:1.9961672 5:0.0079427072 
1 1:0.070613026 3:2.0002793 5:0.0081500154 
1 1:0.075916149 3:1.9866626 5:0.0080002773 
1 1:0.06554881 3:1.9464554 5:0.0089149146 
-1 1:0.071849454 3:1.8959692 5:0.0089771982 
-1 1:0.056625232 3:1.9135261 5:0.0093720988 
1 1:0.062556408 3:1.9485674 5:0.008608096 
-1 1:0.059968877 3:1.8900683 5:0.0091690784 
1 1:0.051756515 3:1.932406 5:0.0093253173 
-1 1:0.063885236 3:1.9027879 5:0.0093932827 
-1 1:0.065699792 3:1.8995503 5:0.0088290954 
1 1:0.062735473 3:1.9129475 5:0.008400676 
-1 1:0.054934165 3:1.8786178 5:0.0097722407 
1 1:0.05467862 3:1.9558434 5:0.0088898938 
1 1:0.055850649 3:1.9190827 5:0.0093408433 
-1 1:0.058124801 3:1.9128313 5:0.009303942 
1 1:0.057656439 3:1.8985294 5:0.0090277822 
-1 1:0.052445384 3:1.8935889 5:0.0095111655 
1 1:0.038381373 3:1.9187955 5:0.0094326833 
-1 1:0.02758325 3:1.8267946 5:0.0110285 
-1 1:0.026879695 3:1.9114998 5:0.010436235 
1 1:0.04018487 3:1.8906702 5:0.0091943688 
1 1:0.0207043 3:1.8699881 5:0.011088626 
1 1:0.032892268 3:1.8416207 5:0.010639043 
-1 1:0.017828899 3:1.8179299 5:0.01150943 
1 1:0.028257872 3:1.8763941 5:0.0098403693 
1 1:0.011966813 3:1.766855 5:0.011665396 
1 1:0.014478333 3:1.8139386 5:0.01172084 
-1 1:0.031713517 3:1.7090585 5:0.011576442 
-1 1:0.0041617607 3:1.7759546 5:0.011778145 
1 1:0.041324148 3:1.8035957 5:0.0093984338 
-1 1:0.00041791217 3:1.7326702 5:0.012816885 
1 1:0.024199358 3:1.8433924 5:0.010314795 
1 3:1.6927123 5:0.012958597 
-1 3:1.7223255 5:0.012859407 
1 1:0.00047530598 3:1.8025352 5:0.011459667 
-1 1:0.0065089582 3:1.6899383 5:0.012047976 
-1 1:0.020010743 3:1.8522399 5:0.009732725 
1 1:0.026088436 3:1.9270522 5:0.0073351773 
-1 1:0.01955702 3:1.9982085 5:0.007158595 
-1 1:0.14460185 3:1.6244258 5:0.005589989 
-1 3:1.7602459 5:0.013074239 
1 1:0.19113441 3:1.6948826 5:0.0025962106 
-1 1:0.14275868 3:1.721095 5:0.0053806601 
1 1:0.13895373 3:1.6742406 5:0.0052827435 
1 1:0.14201238 3:1.857243 5:0.0031220553 
-1 1:0.11446732 3:1.7271869 5:0.0069112136 
1 1:0.14219752 3:1.7471199 5:0.0049698059 
-1 1:0.13994988 3:1.7581364 5:0.0046438823 
1 1:0.11468853 3:1.7514376 5:0.0062453895 
-1 1:0.12439686 3:1.8306723 5:0.0054408687 
-1 1:0.173206 3:1.7233966 5:0.0046160753 
-1 1:0.12169711 3:1.7141873 5:0.0063217425 
-1 2:0.1012795 4:0.0070964698 
-1 1:0.12472565 3:1.5913192 5:0.0079736698 
-1 2:0.069466479 3:2.7675093 
-1 1:0.18280725 2:0.037538239 3:2.4926318 
-1 1:0.12299536 3:1.7414548 5:0.0070078801 
-1 1:0.11171426 3:1.5673247 5:0.0091592974 
-1 1:0.044450442 2:0.070451688 3:2.9896092 
1 1:0.044088522 2:0.075628106 3:3.0554101 
-1 1:0.070983112 2:0.069593419 
-1 1:0.14453299 3:1.5962426 5:0.0077269148 
1 2:0.077936019 4:0.010963403 
1 2:0.087270244 
-1 1:0.055320026 3:2.2629383 5:0.0047917331 
1 1:0.026099866 2:0.083450102 
-1 1:0.078453336 3:1.9566032 5:0.0076983103 
-1 2:0.084323378 4:0.00042126301 
-1 1:0.10698085 3:1.7963546 5:0.007797826 
-1 1:0.07207292 3:2.2618805 5:0.0039107147 
1 1:0.099330519 3:1.8847553 5:0.0071799583 
1 2:0.051890847 4:0.011189101 
1 1:0.04966852 3:1.3233995 5:0.013547914 
1 1:0.14581612 3:1.9593429 5:0.0053550679 
1 2:0.06902143 4:0.0062820717 
-1 1:0.018358617 2:0.071634832 
1 1:0.13195977 3:1.766163 5:0.0079623654 
-1 1:0.094906176 3:1.9503832 5:0.0077997762 
1 1:0.056233388 2:0.064944885 
-1 3:0.088787192 4:0.010867365 5:0.010413946 
1 1:0.038556912 3:2.2507094 5:0.0072036733 
1 2:0.069537808 4:0.0067265904 
-1 1:0.082194447 3:1.5781988 5:0.011604144 
1 1:0.062614315 3:1.3008406 5:0.013744162 
1 1:0.095864542 3:1.905797 5:0.0092164042 
-1 1:0.032038892 3:1.8849968 5:0.012913841 
-1 1:0.04593556 3:2.0301693 5:0.010820629 
-1 1:0.052401333 3:2.2208372 5:0.008437927 
1 3:0.30619022 4:0.010294247 5:0.010910088 
1 1:0.089035357 3:2.5589036 5:0.004147443 
-1 1:0.083922497 2:0.0074981553 3:2.8225961 
-1 1:0.093798083 3:1.8815279 5:0.0096408532 
-1 1:0.13807875 3:1.7092843 5:0.0095555746 
-1 1:0.069662204 3:1.5339459 5:0.012598036 
1 2:0.064835431 4:0.0089442444 
1 4:0.012499782 5:0.008355637 
1 3:0.81720276 4:0.0042997079 5:0.014440265 
-1 1:0.058711209 3:1.5404444 5:0.01305426 
-1 1:0.0582309 3:1.4130405 5:0.013638016 
-1 3:0.53250414 4:0.0087702889 5:0.01219315 
-1 1:0.069235692 2:0.035680986 
-1 3:0.22669271 4:0.0098519019 5:0.011407784 
1 1:0.064418912 2:0.065779667 
-1 1:0.074952506 2:0.032626199 
1 1:0.012588335 3:0.54796513 4:0.0042108196 5:0.014741878 
-1 1:0.0079750868 3:0.93783208 4:0.00062706218 5:0.014996561 
-1 1:0.056795415 2:0.0098790735 3:2.8841717 
-1 1:0.08341013 3:2.2172885 5:0.0082529712 
-1 3:1.0675352 4:0.0013793814 5:0.015069253 
1 1:0.054613419 2:0.030233928 
-1 3:1.8392781 4:4.0393175e-05 5:0.013081017 
1 3:1.7505782 4:0.0019612346 5:0.011091973 
-1 3:2.4906006 5:0.014645166 
1 2:0.043266636 3:1.4763709 4:0.003536427 5:0.0089062731 
1 2:0.081931542 4:0.0090544799 
-1 2:0.078632043 4:0.0093855195 
1 2:0.087022677 4:0.0084558472 
-1 2:0.083380851 4:0.0088387126 
-1 2:0.089932968 4:0.0084238248 
1 2:0.096779624 4:0.0076253313 
-1 2:0.090744969 4:0.0083843282 
-1 2:0.071262776 3:0.41371113 4:0.0082716977 
1 2:0.070047263 3:0.34382364 4:0.0076453431 
-1 2:0.068599603 3:0.3367629 4:0.007877617 
1 2:0.070258568 3:0.34066075 4:0.0069955508 
-1 2:0.066236806 3:0.32770588 4:0.0078748551 
-1 2:0.069283904 3:0.23999058 4:0.0070969926 
1 2:0.069745477 3:0.22054389 4:0.006686165 
1 2:0.067735926 3:0.21397612 4:0.0061352627 
-1 2:0.064408457 3:0.25969188 4:0.0066517766 
1 2:0.064815329 3:0.22586598 4:0.0055230884 
-1 2:0.062172106 3:0.23083202 4:0.0060784301 
1 2:0.063305541 3:0.17725636 4:0.0055371421 
-1 2:0.061462307 3:0.17844461 4:0.0058691343 
1 2:0.064736412 3:0.15529252 4:0.0053563508 
-1 2:0.056647252 3:0.19207693 4:0.0058609064 
-1 2:0.060044865 3:0.1424435 4:0.0062933032 
1 2:0.062174505 3:0.11684048 4:0.0062787538 
1 2:0.058982236 3:0.085887592 4:0.0057229445 
1 2:0.058512252 3:0.068675959 4:0.0064176214 
1 2:0.057167318 3:0.094847842 4:0.0065820397 
-1 2:0.057034306 3:0.074623994 4:0.0050366296 
1 2:0.05848398 3:0.086885344 4:0.0057807573 
-1 2:0.055649243 3:0.047244561 4:0.0052534457 
1 1:0.0083386557 2:0.058280657 4:0.0030384513 
1 2:0.054741347 4:0.0055140785 
-1 2:0.052294715 4:0.0051037211 
1 2:0.055928793 4:0.0062397772 
-1 2:0.052406166 4:0.0061466437 
1 2:0.057523329 4:0.0039916943 
1 2:0.054413733 4:0.0032961372 
1 2:0.055247905 4:0.003371658 
-1 2:0.046936467 4:0.0048309939 
1 1:0.0057453999 2:0.053004986 4:0.0025189783 
1 1:0.014065708 2:0.051886548 4:0.001867252 
1 2:0.046537539 4:0.0045856012 
-1 2:0.045851714 4:0.0048194826 
1 1:0.0028279102 2:0.049191049 4:0.0030841248 
-1 2:0.044320872 4:0.004791935 
-1 3:3.140583 5:0.017243452 
1 1:0.0094333116 2:0.045827852 4:0.0023334976 
-1 2:0.037342794 4:0.0043747971 
1 2:0.04513835 4:0.0045555777 
-1 3:0.10198254 4:0.010386851 
-1 5:0.017110454 
-1 2:0.02113786 4:0.0080598046 
-1 1:0.010875783 2:0.045913882 4:0.0024617772 
-1 1:0.031345827 2:0.054460496 4:0.0011004269 
-1 1:0.21166528 
-1 1:0.002427565 2:0.039443467 4:0.00354687 
1 1:0.097693817 2:0.046491036 
-1 1:0.021374627 2:0.042361853 4:0.0027008386 
1 1:0.012626487 2:0.04463974 4:0.0025684404 
1 1:0.070599571 2:0.070353992 3:0.086085632 4:0.0033114454 
-1 3:2.9821007 4:0.00013884995 5:0.017433747 
1 3:2.7570292 4:0.0027847831 5:0.016338119 
-1 1:0.025539785 2:0.044877736 4:0.004401363 
1 1:0.0083290383 2:0.047268557 4:0.0039837637 
-1 1:0.023165769 2:0.036893856 4:0.0032638151 
-1 1:0.014664582 2:0.050767722 4:0.0037027145 
-1 5:0.016417245 
1 1:0.019444864 2:0.05004391 4:0.0031309383 
-1 3:3.0776246 5:0.016827485 
1 3:3.0664658 5:0.01543163 
1 1:0.082412625 2:0.056854187 4:0.0014579053 
1 1:0.040904993 2:0.042910337 4:0.0019559155 
1 1:0.13070256 2:0.080947453 3:0.1241116 4:0.0044055327 
-1 3:2.5962991 4:0.0031486833 5:0.015561398 
1 1:0.1207925 2:0.054820876 4:4.1050704e-05 
1 1:0.011488297 2:0.075764466 3:3.069264 
1 1:0.012319154 2:0.076074044 3:3.0680213 
1 1:0.01074072 2:0.075889987 3:3.0706899 
1 1:0.011623245 2:0.076275942 3:3.0704175 
1 1:0.011387956 2:0.075712313 3:3.0758945 
1 1:0.01032522 2:0.07598848 3:3.077064 
1 1:0.0079705234 2:0.07532836 3:3.0747597 
1 1:0.016636973 2:0.076103783 3:3.0679943 
1 2:0.053537799 3:0.7013293 4:0.0021039917 
1 2:0.050601681 3:0.71849241 4:0.0020204271 
1 2:0.050813523 3:0.71444576 4:0.0030552952 
-1 2:0.049337475 3:0.69500556 4:0.0013273416 
1 2:0.052345816 3:0.56617099 4:0.0021643425 
1 1:3.3964071e-05 2:0.045700649 3:0.5606595 4:0.0010258087 
-1 1:0.0074093593 2:0.045990196 3:0.61351784 4:0.00030919147 
1 1:0.00064563355 2:0.053892743 3:0.68432502 4:0.0015880586 
-1 1:0.013864346 2:0.0378486 3:0.53345642 
1 1:0.017806342 2:0.052805883 3:0.56108152 
-1 2:0.047838986 3:0.50985284 4:0.0018074324 
-1 1:0.025093717 2:0.055179003 3:0.6650024 
1 1:0.005325623 2:0.068106808 3:0.79177842 4:0.0019516042 
1 1:0.0012471088 2:0.065803165 3:0.74123555 4:0.0020651835 
1 1:0.01065369 2:0.054044895 3:0.53138611 4:0.0003158029 
-1 1:0.010543622 2:0.051938254 3:0.59719545 4:0.00022701999 
1 1:0.016917737 2:0.058868125 3:0.68887399 4:0.00055983524 
-1 1:0.012433251 2:0.044157311 3:0.51535095 
1 2:0.082776165 3:0.86806989 4:0.0042301646 
-1 1:0.0099060977 2:0.049109815 3:0.69796362 4:0.00052239809 
-1 1:0.0059031717 2:0.068580904 3:0.82260105 4:0.0021534574 
1 4:0.010390827 5:0.01677419 
-1 1:0.01799498 2:0.041297151 3:0.43834822 
1 1:0.0070857218 2:0.070099038 3:0.64926424 4:0.0020811473 
-1 1:0.018558314 2:0.056662106 3:0.71636586 4:0.00074647389 
1 1:0.0036864305 2:0.059755408 3:0.61756045 4:0.001925275 
1 4:0.0059306257 5:0.019265831 
1 4:0.0084810376 5:0.018057439 
1 1:0.0023288654 2:0.061624188 3:0.68874792 4:0.0026888726 
1 1:0.00599493 2:0.044788606 3:0.47079741 4:0.0013444724 
1 5:0.018336649 
-1 4:0.0080925868 5:0.017547117 
-1 1:0.094614496 2:0.068325726 3:0.77203364 
1 1:0.13440745 2:0.051543041 3:0.68603831 
-1 1:0.010066329 2:0.028629291 3:0.34214537 4:0.00045068811 
-1 1:0.0090392409 2:0.049209499 3:0.54091809 4:0.0027354888 
1 2:0.056834606 3:0.66892506 4:0.0041560821 
-1 1:0.011259959 2:0.029685171 3:0.34175971 4:0.00064806196 
1 1:0.095095475 2:0.046040003 3:0.62241191 
-1 2:0.065520878 3:0.82301585 4:0.0048750599 
-1 1:0.14742037 2:0.040622395 3:0.54702035 
1 2:0.048403257 3:0.50051345 4:0.0047702323 
-1 5:0.013733294 
-1 1:0.0020859986 2:0.040273356 3:0.41045932 4:0.0028036715 
1 2:0.080406749 3:0.9516879 4:0.0071679541 
1 2:0.076706696 3:0.88859434 4:0.0063472044 
1 1:0.024831009 2:0.033241339 3:0.26483227 4:0.00021753689 
-1 5:0.00071190595 
-1 1:0.067434317 2:0.055316317 3:0.52319489 
1 2:0.066759566 3:0.87534413 4:0.006258523 
-1 1:0.017417543 2:0.058576908 3:0.65616913 4:0.0032494953 
1 2:0.071761766 3:0.73740576 4:0.0062987441 
1 2:0.062534053 3:0.74917176 4:0.0061010043 
1 4:0.0013825638 5:0.018126023 
1 1:0.15004479 2:0.050895271 3:0.61443467 
-1 5:0.01755829 
1 2:0.0800008 3:0.85284866 4:0.0073872452 
1 2:0.064440563 3:0.82452872 4:0.0070611361 
-1 2:0.046737064 3:0.48707995 4:0.0046276213 
-1 2:0.053164713 3:0.48763143 4:0.0047518602 
1 2:0.066523082 3:0.81666997 4:0.0065677712 
1 2:0.051161284 3:0.63602849 4:0.0049688738 
-1 1:0.013526624 
1 1:0.0061618819 2:0.05260328 3:0.5177788 4:0.0043971721 
-1 2:0.052773006 3:0.64174312 4:0.0048380281 
-1 1:0.0016630563 2:0.068268911 3:0.68641004 4:0.0058271225 
1 1:8.5136579e-05 2:0.071130554 3:0.85832852 4:0.0060731461 
-1 2:0.039336261 3:0.45271775 4:0.0041541236 
-1 1:0.011883231 2:0.058085051 3:0.6921158 4:0.0040514662 
1 1:0.01444829 2:0.062577816 3:0.63240315 4:0.0045936549 
-1 1:0.033405368 2:0.039231019 3:0.53166378 4:0.0010003755 
1 1:0.0013849661 2:0.063816984 3:0.59841449 4:0.0057650229 
-1 2:0.049155628 3:0.66212028 4:0.0052164023 
-1 2:0.083960424 3:0.84613846 4:0.007781014 
1 2:0.085631312 3:1.0574895 4:0.0084812908 
-1 1:0.022912722 2:0.043001077 3:0.51758357 4:0.0021179787 
-1 2:0.061033035 3:0.50677784 4:0.0058409689 
1 2:0.10734454 3:1.6556517 4:0.012715447 
1 1:0.010487438 2:0.054703917 3:0.61295702 4:0.0042228135 
-1 2:0.046609442 3:0.41407212 4:0.0051665576 
-1 1:0.025712145 2:0.068043044 3:0.69485543 4:0.0037913824 
1 2:0.096244382 3:2.3676509 4:0.015948768 5:0.0009551752 
1 2:0.10905631 3:1.2451221 4:0.010759754 
-1 2:0.0574088 3:0.54830378 4:0.0053788289 
1 1:0.00079698092 2:0.062807348 3:0.68984357 4:0.0054713514 
-1 1:0.0042491055 2:0.058808766 3:0.76840719 4:0.0049237348 
1 2:0.066555923 3:0.68539162 4:0.0058587051 
-1 2:0.062727978 3:0.68717022 4:0.0058035702 
1 2:0.072869973 3:0.70686885 4:0.0065239237 
1 2:0.070157772 3:0.77406995 4:0.0060731437 
-1 1:0.0049892466 2:0.065498421 3:0.73533562 4:0.0053315658 
-1 2:0.066875725 3:0.84314557 4:0.0056031837 
-1 2:0.06826622 3:0.64957611 4:0.0058277072 
-1 1:0.0047775397 2:0.073494305 3:0.802761 4:0.0055061531 
1 2:0.085583026 3:0.92473812 4:0.0068663221 
-1 2:0.075564712 3:0.84488554 4:0.0060063614 
-1 1:0.0068239336 3:1.7930684 4:0.0098442557 5:0.017984825 
-1 3:1.7499474 4:0.011264163 5:0.017680481 
-1 1:0.0035958486 3:1.7771307 4:0.010264973 5:0.017857822 
-1 1:0.0063315035 3:1.78832 4:0.009911386 5:0.017933347 
-1 1:0.0038528554 3:1.782626 4:0.010217053 5:0.017926226 
-1 1:0.0039259174 3:1.7834661 4:0.010207082 5:0.017936048 
-1 1:0.0054085583 3:1.786313 4:0.010024137 5:0.017932414 
-1 1:0.012560173 3:0.46281578 4:0.0071344352 5:0.017152149 
-1 1:0.011686241 3:0.44956248 4:0.0070688669 5:0.017108611 
-1 1:0.013491969 3:0.45378894 4:0.0067178726 5:0.017065775 
-1 1:0.015570422 3:0.4620325 4:0.0062456441 5:0.017021446 
-1 1:0.019638427 3:0.4681081 4:0.0056335953 5:0.016944223 
-1 1:0.017354196 3:0.46513754 4:0.0058248489 5:0.016935667 
-1 1:0.018771112 3:0.47662507 4:0.0054101548 5:0.01690009 
-1 1:0.019100093 3:0.47060734 4:0.0052960517 5:0.01680923 
-1 1:0.018191449 3:0.46488006 4:0.0052544722 5:0.016789258 
-1 1:0.027676939 3:0.47538593 4:0.003977841 5:0.016586355 
-1 1:0.023076797 3:0.45178503 4:0.0045308509 5:0.016593286 
-1 1:0.020930172 3:0.47015443 4:0.004633115 5:0.016593474 
-1 1:0.013484937 3:0.47323896 4:0.0052106073 5:0.016788484 
-1 1:0.024582503 3:0.47195646 4:0.003853314 5:0.016527636 
-1 1:0.013837177 3:0.45128078 4:0.0050297038 5:0.016636395 
1 1:0.020567217 3:0.53843756 4:0.0033606197 5:0.016730514 
-1 1:0.026532282 3:0.50147495 4:0.0028947489 5:0.016482121 
-1 1:0.017167293 3:0.53283662 4:0.0035457677 5:0.016624244 
1 1:0.026621893 3:0.57480534 4:0.001609 5:0.016492214 
-1 1:0.02708317 3:0.55422655 4:0.0017777085 5:0.016416554 
1 1:0.047001789 3:0.60206256 5:0.015762746 
-1 1:0.038203453 3:0.56084661 4:0.00084131341 5:0.015981654 
1 1:0.022674743 3:0.53154881 4:0.0020574814 5:0.01636626 
-1 1:0.037987431 3:0.58269039 5:0.0159655 
-1 1:0.030506013 3:0.59987133 4:0.00063414865 5:0.016114069 
-1 1:0.035486228 3:0.56476645 4:0.00028660942 5:0.015915799 
1 1:0.033693572 3:0.55342837 4:0.0003036359 5:0.01595093 
1 1:0.040084761 3:0.57201812 5:0.015682297 
-1 1:0.031464132 3:0.55863729 4:0.00015297466 5:0.015902129 
1 1:0.029675957 3:0.58381139 5:0.015922964 
-1 1:0.019663406 3:0.56425298 4:0.00081488001 5:0.01622919 
1 1:0.046413292 3:0.66358694 5:0.015217349 
-1 1:0.020403851 3:0.51178148 4:0.0014178923 5:0.016058193 
1 1:0.038431285 3:0.61900362 5:0.015535011 
-1 1:0.038756989 3:0.56417416 5:0.015526374 
-1 1:0.016570349 3:0.51025132 4:0.0017396533 5:0.016091562 
1 1:0.030658887 3:0.56401436 5:0.015731023 
1 1:0.036657174 3:0.55016957 5:0.015535363 
-1 1:0.034024089 3:0.51678663 5:0.015586105 
1 1:0.024818518 3:0.52987736 4:0.00010869291 5:0.015853136 
1 1:0.030431481 3:0.52462023 5:0.015641924 
-1 1:0.010718026 3:0.39672674 4:0.0031568942 5:0.015841829 
1 1:0.013371091 3:0.45507527 4:0.0018349352 5:0.016023462 
-1 1:0.023783734 3:0.49368684 4:0.00013725315 5:0.015827749 
1 1:0.026545468 3:0.61948578 5:0.015705418 
-1 1:0.037775415 3:0.57576648 5:0.01533053 
1 1:0.044135144 3:0.62427468 5:0.014910933 
-1 1:0.030626267 3:0.62260416 5:0.015467162 
1 1:0.043574913 3:0.68663238 5:0.014913403 
-1 1:0.027432834 3:0.53111971 4:0.00020291211 5:0.015549873 
1 1:0.046673675 3:0.59324429 5:0.014891779 
-1 1:0.018681279 3:0.44261567 4:0.0012787077 5:0.015707101 
1 1:0.031257992 3:0.58885253 5:0.015386088 
-1 1:0.019505905 3:0.44545923 4:0.00089618285 5:0.01567725 
1 1:0.039915222 3:0.48095991 5:0.015131324 
1 1:0.036904345 3:0.49068282 5:0.015196029 
1 1:0.027226822 3:0.4652694 5:0.015453876 
-1 1:0.017672656 3:0.36130305 4:0.001918457 5:0.015447567 
-1 1:0.043419544 3:0.57011709 5:0.014889788 
1 1:0.043257716 3:0.75530789 5:0.01400918 
1 1:0.034360548 3:0.44945198 5:0.015228612 
-1 1:0.032271413 3:0.45774665 5:0.015252356 
-1 1:0.025599028 3:0.46767177 5:0.01542997 
-1 1:0.038791737 3:0.52834176 5:0.014971033 
-1 1:0.029690084 3:0.5958975 5:0.015195104 
1 2:0.092975922 4:0.003534041 
-1 1:0.042719109 3:0.65550424 5:0.014675499 
1 1:0.040366883 3:0.71186946 5:0.014705087 
-1 1:0.019372395 3:0.56170824 5:0.015612358 
1 1:0.045048018 3:0.65256373 5:0.014493408 
1 1:0.052158242 3:0.63423694 5:0.014207613 
-1 1:0.038791355 3:0.51076319 5:0.015027456 
1 1:0.033937905 3:0.57394253 5:0.015089247 
1 1:0.038439107 3:0.46910615 5:0.015057272 
-1 1:0.036092069 3:0.45467018 5:0.015111971 
1 1:0.03844079 3:0.64584239 5:0.014653684 
-1 1:0.047442402 3:0.50965296 5:0.014719558 
1 1:0.044384376 3:0.52699105 5:0.014840639 
1 1:0.017653706 3:0.37287182 4:0.0014861737 5:0.015335337 
-1 1:0.034619214 3:0.31350071 4:6.5830731e-05 5:0.015078618 
-1 1:0.03321716 3:0.45542475 5:0.015127871 
1 1:0.033900701 3:0.46300736 5:0.015077692 
1 1:0.022050891 3:0.22067083 4:0.002056806 5:0.015005861 
-1 1:0.11800121 3:0.42131401 5:0.013957 
1 1:0.049420606 3:0.52468552 5:0.014612577 
-1 1:0.03508505 3:0.25256171 4:0.00059128901 5:0.01503422 
-1 1:0.051320967 3:0.67627304 5:0.014138139 
1 2:0.054861669 4:0.009133945 
-1 1:0.035942535 3:0.55994716 5:0.015021625 
1 1:0.02535771 3:0.57964177 5:0.015328934 
1 1:0.027839085 3:0.44850985 5:0.015257964 
-1 1:0.033065794 3:0.29464888 4:0.00039638889 5:0.015083144 
-1 1:0.037585136 3:0.39409342 5:0.015062677 
-1 1:0.035248566 3:0.48247925 5:0.015045337 
-1 1:0.058897676 3:0.79839365 5:0.012751152 
1 1:0.099591261 3:0.39704739 5:0.014347846 
1 2:0.039081056 4:0.011206077 
-1 1:0.11056699 3:0.44695723 5:0.013559203 
1 1:0.10649642 3:0.43986802 5:0.013694348 
-1 1:0.1195771 3:0.43308892 5:0.013502313 
-1 1:0.031542745 3:0.53399398 5:0.01515258 
1 1:0.028038664 3:0.69164343 5:0.014838703 
-1 1:0.023543919 3:0.62408542 5:0.015421598 
1 2:0.055291339 4:0.0090918227 
-1 1:0.071347096 3:0.41098375 5:0.014543486 
1 1:0.024009235 3:0.81844808 5:0.014267654 
1 1:0.097792059 3:0.65856706 5:0.012865938 
1 1:0.035344224 3:0.6075079 5:0.015084062 
1 1:0.026331705 3:0.48910256 5:0.015372663 
-1 4:0.013764167 
1 1:0.021110411 3:0.40999709 4:0.00028331596 5:0.015460636 
-1 1:0.023016361 3:0.35005364 4:0.00074560118 5:0.015353182 
1 1:0.024575687 3:0.36982662 4:0.00040321379 5:0.015340358 
-1 1:0.10986114 3:0.41929223 5:0.013849689 
1 1:0.021164169 3:0.52284986 5:0.015515614 
1 1:0.014173335 3:0.32380103 4:0.001997839 5:0.015399233 
-1 1:0.083393647 3:0.44998994 5:0.014313508 
1 1:0.082438202 3:0.66938024 5:0.01298559 
-1 1:0.084857548 3:0.43453795 5:0.014334378 
1 1:0.082733979 3:0.69759716 5:0.013091458 
1 2:0.017209366 4:0.011852793 
-1 1:0.018372055 3:0.55056222 5:0.015592417 
-1 2:0.062641123 4:0.0065940459 
-1 1:0.074145079 3:0.33703126 5:0.014781445 
-1 1:0.08058622 3:0.40558431 5:0.014512563 
1 1:0.094212623 2:0.01230027 3:0.97808898 5:0.0096088894 
-1 1:0.025849595 3:0.46875597 5:0.015400995 
-1 1:0.086741195 2:0.0092997037 3:0.99522069 5:0.010127826 
1 2:0.055630217 4:0.0069406431 
1 1:0.073374692 3:0.53384499 5:0.01422361 
-1 1:0.1011576 3:0.56190929 5:0.013836612 
1 2:0.026047958 4:0.0097063789 
-1 2:0.04783955 4:0.007577555 
-1 2:0.087601294 4:0.0092056814 
1 2:0.14017171 4:0.00482228 
-1 2:0.089489159 4:0.0087276581 
1 2:0.095865771 4:0.0079795574 
1 2:0.092067449 4:0.0082255865 
-1 2:0.07558555 4:0.010264085 
1 2:0.093497792 4:0.0080451066 
-1 2:0.092147569 4:0.0080954641 
1 2:0.068683836 3:2.8855557 4:0.0087288723 
1 2:0.069243322 3:2.8499381 4:0.008471921 
1 2:0.06633124 3:2.829278 4:0.0091449326 
-1 2:0.066203235 3:2.7481388 4:0.0081856945 
1 2:0.11071593 3:2.4743619 4:0.0043257883 
-1 2:0.086093576 3:2.6730136 4:0.0071961647 
1 2:0.10497809 3:2.7007064 4:0.0051064335 
1 2:0.052639361 3:2.7623018 4:0.0094245755 
-1 2:0.052074394 3:2.8386895 4:0.0091515021 
1 2:0.058105662 3:2.7398087 4:0.0088141333 
1 2:0.047335477 3:2.8298727 4:0.0095916622 
1 2:0.044543438 3:2.8435366 4:0.009821035 
-1 2:0.047027328 3:2.7902583 4:0.0091991658 
1 2:0.072755918 3:2.4772345 4:0.0053338081 
1 2:0.046660095 3:2.7411191 4:0.0091733008 
1 2:0.043007076 3:2.8693806 4:0.0098826959 
1 2:0.045102544 3:2.8375167 4:0.0094570533 
1 2:0.040348359 3:2.781547 4:0.010182784 
1 2:0.038892963 3:2.8274298 4:0.010705644 
-1 2:0.02464372 3:2.9435219 4:0.012149245 
1 2:0.08691945 3:2.4229385 4:0.0037225741 
1 2:0.047376466 3:2.8044634 4:0.0096835935 
1 2:0.053152579 3:2.626892 4:0.00716638 
0.9608954419996031 2:0.033926269 3:2.8261194 4:0.010794415 
1 2:0.039555538 3:2.8698492 4:0.010350652 
1 2:0.041055236 3:2.7853443 4:0.0099606175 
-1 2:0.032612492 3:2.8276758 4:0.011489885 
1 2:0.08039675 3:2.5527294 4:0.0043070962 
-1 2:0.044660138 3:2.7472103 4:0.0096886088 
1 1:0.12948722 2:0.11210281 3:1.1730816 
-1 2:0.042137639 3:2.8073027 4:0.010321527 
1 2:0.058449398 3:2.6671024 4:0.0067568053 
-1 2:0.039606656 3:2.8408625 4:0.011239145 
-1 2:0.050085292 3:2.8811439 4:0.010226778 
1 2:0.069176715 3:2.6739937 4:0.008074941 
1 2:0.047892933 3:2.8318471 4:0.010341498 
1 2:0.03960188 3:2.8688023 4:0.011120032 
-1 2:0.038847276 3:2.9021699 4:0.010706866 
1 2:0.052669738 3:2.7713936 4:0.0093039445 
-1 2:0.034916104 3:2.825573 4:0.011599058 
1 2:0.050632065 3:2.8235669 4:0.0099898354 
1 2:0.051426536 3:2.6897174 4:0.0093435764 
-1 2:0.043868314 3:2.6717924 4:0.0096203434 
1 2:0.047099209 3:2.736932 4:0.010128219 
1 2:0.042383637 3:2.886764 4:0.010939829 
1 2:0.043349293 3:2.8357717 4:0.010770742 
-1 2:0.039224207 3:2.8475947 4:0.011326681 
-1 2:0.051908152 3:2.735291 4:0.0095352269 
1 2:0.051994602 3:2.7502371 4:0.010432912 
1 2:0.049094613 3:2.8397377 4:0.01028248 
1 2:0.049548703 3:2.7135782 4:0.01009423 
-1 2:0.050101802 3:2.7197337 4:0.0099253166 
1 2:0.10368763 3:2.6310682 4:0.0062387834 
1 2:0.065148983 3:2.6917449 4:0.0094364651 
1 2:0.057016787 3:2.7282645 4:0.0088180306 
-1 2:0.038358636 3:2.8525948 4:0.011279973 
1 2:0.049829179 3:2.9058034 4:0.011309274 
-1 2:0.059320029 3:2.6948799 4:0.008832266 
1 2:0.083716367 3:2.6709817 4:0.01075351 
-1 2:0.040028212 3:2.9438412 4:0.01191823 
1 2:0.078641651 3:2.5337039 4:0.0073326022 
1 2:0.050603387 3:2.7861634 4:0.010876464 
-1 2:0.048496434 3:2.8243377 4:0.010274948 
1 2:0.05324779 3:2.7605039 4:0.0097826301 
1 2:0.038091975 3:2.859994 4:0.01161264 
-1 2:0.038095679 3:2.9298567 4:0.011482876 
-1 2:0.056139969 3:2.7737025 4:0.010342602 
1 2:0.06390581 3:2.5892223 4:0.0078567159 
-1 2:0.039443033 3:2.8351408 4:0.011314536 
-1 2:0.05307786 3:2.8056525 4:0.010373303 
1 2:0.066885221 3:2.6477449 4:0.0076526338 
-1 2:0.049490095 3:2.703406 4:0.010018921 
-1 2:0.052810292 3:2.7708454 4:0.010057818 
1 2:0.070403802 3:2.6098252 4:0.0075196541 
1 2:0.060165357 3:2.6999598 4:0.0095591249 
1 2:0.046672749 3:2.8939621 4:0.011392317 
1 2:0.051500286 3:2.77774 4:0.0097755455 
-1 2:0.028941344 3:2.942786 4:0.013383021 
1 2:0.073820901 3:2.5220037 4:0.0047299238 
-1 2:0.046332823 3:2.7438025 4:0.010327866 
1 2:0.053941062 3:2.8357489 4:0.010479077 
-1 2:0.048513583 3:2.8037842 4:0.010134149 
1 2:0.055604822 3:2.780037 4:0.010324033 
-1 2:0.040356254 3:2.6967633 4:0.009614828 
1 1:0.098894435 2:0.13898682 3:1.4255857 
1 2:0.069390202 3:2.5807227 4:0.0077786535 
1 2:0.050638736 3:2.7233987 4:0.010174403 
-1 2:0.041829691 3:2.8349489 4:0.011594104 
-1 2:0.059835973 3:2.7080643 4:0.0099405856 
1 2:0.070182211 3:2.5534238 4:0.0078932098 
-1 2:0.049100848 3:2.7720612 4:0.011046847 
-1 2:0.079168936 3:2.464968 4:0.0055643874 
1 2:0.063460124 3:2.7760885 4:0.010407967 
1 2:0.054339036 3:2.8478473 4:0.010951809 
1 2:0.058718281 3:2.765657 4:0.01097176 
-1 2:0.051664206 3:2.7425962 4:0.011095401 
1 2:0.095968647 3:2.364197 4:0.0036936377 
1 2:0.05478065 3:2.8030601 4:0.01065594 
1 2:0.034229821 3:2.9759174 4:0.012855886 
1 1:0.1984585 
1 2:0.09435581 3:2.2682563 4:0.0028976291 
1 2:0.063243077 3:2.8141863 4:0.010195173 
1 2:0.053665875 3:2.8234309 4:0.010949221 
-1 2:0.048054415 3:2.9097109 4:0.011276511 
1 1:0.031707795 2:0.11330624 3:1.6990629 
1 2:0.049017084 3:2.8323401 4:0.011304955 
-1 2:0.048206799 3:2.907699 4:0.011381302 
-1 2:0.04945008 3:2.9127515 4:0.01193935 
1 2:0.086680542 3:2.4357832 4:0.0048313529 
1 2:0.073742813 3:2.5639779 4:0.0068205307 
1 2:0.056529017 3:2.818712 4:0.010702574 
-1 2:0.045365744 3:2.9281982 4:0.011706648 
-1 2:0.064239035 3:2.7703411 4:0.0091077819 
1 2:0.091076058 3:2.6530603 4:0.0079592403 
-1 2:0.042230188 3:2.9310202 4:0.012020382 
1 2:0.05590634 3:2.904015 4:0.011185435 
-1 2:0.056455959 3:2.7551319 4:0.010409252 
-1 2:0.066246609 3:2.6437249 4:0.0082693353 
-1 2:0.072927427 3:2.5349253 4:0.0068390496 
1 2:0.068290601 3:2.7435867 4:0.010093303 
-1 2:0.049781767 3:2.8736453 4:0.011401906 
-1 2:0.049493071 3:2.8732067 4:0.011719386 
-1 2:0.057851713 3:2.8639909 4:0.011009492 
-1 1:0.018231839 2:0.10967165 3:1.8383079 
1 1:0.034740607 2:0.10536412 3:1.600719 
-1 2:0.041875021 3:2.7971343 4:0.011629452 
-1 2:0.047018614 3:2.8655029 4:0.011796447 
1 2:0.074473857 3:2.7318689 4:0.010304626 
1 2:0.066191912 3:2.6200539 4:0.0084436374 
-1 2:0.059957506 3:2.679646 4:0.0094994579 
-1 2:0.064598292 3:2.7005435 4:0.0091962682 
-1 2:0.061776246 3:2.7670366 4:0.011996408 
-1 2:0.088899477 3:2.4463945 4:0.0048724244 
1 1:0.017356489 2:0.09696041 3:1.966136 
-1 2:0.073104367 3:2.6496567 4:0.0089967573 
1 2:0.074963847 3:2.883239 4:0.010230164 
1 1:0.023631136 2:0.10873601 3:1.7502173 
-1 2:0.05259222 3:2.7461476 4:0.010706412 
1 2:0.079138597 3:2.6153471 4:0.00737453 
-1 2:0.060108762 3:2.8489283 4:0.011019865 
1 2:0.11456484 3:2.6611849 4:0.0062623727 
1 2:0.072474432 3:2.6558667 4:0.0089724318 
-1 2:0.04775074 3:2.8570112 4:0.011483928 
1 2:0.057272108 3:2.7229896 4:0.0095978547 
-1 2:0.025320632 3:3.0131815 4:0.013971157 
-1 2:0.043840778 3:2.9770689 4:0.01260373 
-1 2:0.064043827 3:2.6323565 4:0.0088844585 
-1 2:0.079761657 3:2.4158851 4:0.0055376678 
1 1:0.1808773 2:0.072982247 3:0.70789777 
-1 2:0.078288852 3:2.4964407 4:0.0070338132 
1 2:0.079740549 3:2.5851176 4:0.008801435 
-1 2:0.047363466 3:2.7874452 4:0.011461347 
1 2:0.09284793 3:2.7501709 4:0.0090750153 
-1 2:0.060260785 3:2.7758349 4:0.010757801 
-1 2:0.10580651 3:1.9962757 4:0.0012880602 
1 2:0.16154202 3:2.4416341 4:0.0023621312 
1 2:0.12841648 3:2.5945811 4:0.005713597 
1 2:0.11147611 3:2.5525523 4:0.0060294436 
-1 2:0.069412431 3:2.59316 4:0.0082788267 
-1 2:0.056906058 3:2.9437824 4:0.01237938 
1 2:0.12490614 3:2.5954149 4:0.006952196 
1 2:0.085280279 3:2.779096 4:0.010000105 
1 1:0.0046978272 2:0.090827322 3:2.2576411 4:0.0024331977 
1 2:0.061861389 3:2.7944154 4:0.010892774 
-1 2:0.056653413 3:2.8135351 4:0.01158287 
1 2:0.067355645 3:2.7858495 4:0.010819575 
-1 2:0.057452961 3:2.8012784 4:0.011270928 
1 2:0.085209158 3:2.4863304 4:0.0071693753 
1 2:0.080017663 3:2.4900517 4:0.0072241252 
-1 2:0.049700588 3:2.8905411 4:0.012340704 
1 2:0.059010956 3:2.8702463 4:0.011574948 
-1 2:0.048628701 3:2.9015241 4:0.012494543 
1 2:0.056578129 3:2.9573338 4:0.012216845 
-1 2:0.054136139 3:2.8523929 4:0.011646626 
-1 2:0.062348472 3:2.8258391 4:0.011454255 
1 2:0.093601096 3:2.7652114 4:0.009858348 
-1 2:0.062585334 3:2.8654242 4:0.011982713 
1 2:0.075825013 3:2.8940031 4:0.011428673 
1 2:0.058011543 3:2.9397337 4:0.012280403 
-1 2:0.061094455 3:2.7950392 4:0.011388856 
1 2:0.063013276 3:2.841856 4:0.01193108 
-1 2:0.056289296 3:2.8384304 4:0.011603475 
1 2:0.061598472 3:2.927287 4:0.012091188 
-1 2:0.055125816 3:2.8306428 4:0.012034271 
1 2:0.096123782 3:2.7880996 4:0.010755547 
-1 2:0.043870823 3:2.8559787 4:0.012596236 
1 2:0.056165522 3:2.9251505 4:0.012202796 
1 2:0.052768935 3:2.9209355 4:0.012734129 
-1 2:0.050435908 3:2.9757457 4:0.012829431 
1 2:0.08057529 3:2.5794759 4:0.0088754623 
1 2:0.074004846 3:2.6554585 4:0.0099651383 
-1 2:0.046875349 3:2.9933638 4:0.013276378 
1 2:0.0775278 3:2.7342636 4:0.0099223022 
1 2:0.069918323 3:2.747078 4:0.010964825 
-1 2:0.060975976 3:2.9478412 4:0.012242129 
-1 2:0.074056576 3:2.7619239 4:0.010513356 
1 2:0.11804713 3:2.692069 4:0.0095814665 
1 2:0.086235538 3:2.8707725 4:0.011446638 
1 2:0.073753616 3:2.9024405 4:0.01192789 
1 2:0.060172738 3:2.950473 4:0.011898264 
1 2:0.057168554 3:2.9515579 4:0.011939109 
-1 2:0.045816929 3:3.0754751 4:0.012246536 
-1 2:0.057830197 3:2.9588861 4:0.011963713 
1 2:0.11874063 3:2.7795621 4:0.0099375004 
-1 2:0.060783497 3:2.9644135 4:0.011116327 
1 2:0.067031381 3:2.96121 4:0.011134974 
-1 2:0.051955691 3:2.9290895 4:0.0098179331 
1 2:0.10998612 3:2.2811932 4:0.006739634 
1 2:0.063981646 3:2.8454116 4:0.0095178109 
1 2:0.055322076 3:2.9716333 4:0.01008889 
-1 2:0.042698235 3:3.016405 4:0.0097516773 
1 2:0.086924728 3:2.8983945 4:0.0098706887 
-1 2:0.064445021 3:2.8782555 4:0.0091949687 
-1 1:0.13061583 2:0.066697096 5:0.0037319818 
-1 1:0.13165166 2:0.064623202 5:0.004003065 
-1 1:0.13132196 2:0.059526302 5:0.0048226891 
-1 1:0.12948066 2:0.069247057 5:0.0033866862 
1 1:0.12932143 2:0.063893782 5:0.0039698969 
-1 1:0.083817151 2:0.084886133 
-1 1:0.13175701 2:0.058941261 5:0.0046169554 
-1 1:0.132459 2:0.06569705 5:0.004091288 
1 1:0.09239425 2:0.048282745 3:2.3548587 5:0.0032155434 
-1 1:0.074051597 2:0.049354074 3:2.5930719 
-1 1:0.092117271 2:0.041658943 3:2.31902 5:0.0044863615 
1 1:0.085863908 2:0.048894007 3:2.309294 5:0.0044920362 
-1 1:0.085001711 2:0.047756096 3:2.3754707 5:0.0035247011 
1 1:0.083612131 2:0.049491116 3:2.2851144 5:0.0045694603 
1 1:0.072870841 2:0.048375722 3:2.4044078 5:0.0028895072 
-1 1:0.053411075 2:0.051770807 3:2.5234256 
-1 1:0.078799439 2:0.047960526 3:2.3136582 5:0.0046477879 
-1 1:0.072011596 2:0.053691274 3:2.3477921 5:0.0032253483 
1 1:0.062032666 2:0.066250002 3:2.4403957 5:0.00062603217 
-1 1:0.078579951 2:0.044662721 3:2.2406304 5:0.0054841112 
1 1:0.068109772 2:0.064428282 3:2.3321634 5:0.0024836376 
1 1:0.076112771 2:0.050895393 3:2.1683352 5:0.0054649162 
-1 1:0.065334079 2:0.06101813 3:2.3731712 5:0.0016428271 
1 1:0.07705812 2:0.069016877 3:2.2265418 5:0.0030657046 
-1 1:0.083467257 2:0.053111487 3:2.1910554 5:0.0044999084 
1 1:0.090761736 2:0.05179375 3:2.0754442 5:0.005797344 
1 1:0.0654163 2:0.061569406 3:2.2982505 5:0.0020955333 
-1 1:0.082258611 2:0.042871085 3:2.1214658 5:0.0058470229 
1 1:0.070846554 2:0.058760553 3:2.243888 5:0.00270028 
-1 1:0.06358394 2:0.062265607 3:2.3627842 5:0.00090368312 
-1 1:0.053842955 2:0.079564443 3:2.4655247 
1 1:0.076665163 2:0.066238052 3:2.2464405 5:0.0020865478 
-1 1:0.07873172 2:0.057331194 3:2.2234602 5:0.0031354849 
-1 1:0.069117215 2:0.061812665 3:2.2717622 5:0.0016833425 
1 1:0.065848088 2:0.064321893 3:2.2086366 5:0.0019958479 
-1 1:0.06163741 2:0.068352947 3:2.3101362 5:0.00029763961 
1 1:0.073492625 2:0.0647768 3:2.2149794 5:0.0018561166 
-1 1:0.057331841 2:0.067996097 3:2.3126235 
-1 1:0.067259818 2:0.067704185 3:2.2634727 5:0.00055003493 
-1 1:0.056082964 2:0.071925863 3:2.2630099 
1 1:0.088848503 2:0.051817565 3:1.9911776 5:0.0046872555 
-1 1:0.07122948 2:0.068508091 3:2.2173726 5:0.00061117471 
1 1:0.051107941 2:0.075652016 3:2.2300955 
-1 1:0.085366916 2:0.063030719 3:2.0945727 5:0.0022513657 
-1 1:0.05546726 2:0.07599613 3:2.3172717 
-1 1:0.075005051 2:0.069547965 3:2.1859335 5:0.00073820117 
-1 1:0.062989216 2:0.077849452 3:2.2647142 
1 1:0.06971473 2:0.076248574 3:2.2397723 
-1 1:0.053421157 2:0.078761843 3:2.3574957 
1 1:0.081049502 2:0.072981586 3:2.1333732 5:0.00046287186 
-1 1:0.051983137 2:0.080386326 3:2.3270173 
-1 1:0.055712691 2:0.078890488 3:2.261769 
1 1:0.066720793 2:0.082874534 3:2.2269841 
-1 1:0.056837116 2:0.082669686 3:2.2792105 
-1 1:0.044642239 2:0.086176169 3:2.3580715 
-1 1:0.067303381 2:0.078527216 3:2.2209235 
-1 1:0.048055587 2:0.087199718 3:2.350499 
1 1:0.042316765 2:0.090727896 3:2.2597525 
-1 1:0.055971181 2:0.087260275 3:2.226799 
1 1:0.085075891 2:0.071195227 3:1.936264 5:0.0016174983 
-1 1:0.033178283 2:0.0927562 3:2.4553577 
1 1:0.081495507 2:0.08320322 3:1.9962547 
-1 1:0.047528453 2:0.089606362 3:2.280336 
-1 1:0.060246888 2:0.086760978 3:2.1700042 
-1 1:0.028715539 2:0.093496566 3:2.3603648 
1 1:0.032239601 2:0.098094036 3:2.292708 
-1 1:0.027670886 2:0.095652271 3:2.4434492 
-1 1:0.042991627 2:0.096441003 3:2.2103625 
1 1:0.063942549 2:0.097489834 3:1.9665285 
-1 1:0.069882081 2:0.088941511 3:2.0329531 
1 1:0.053807173 2:0.1061936 3:2.1789651 
1 1:0.020740716 2:0.10781005 3:2.3883049 
1 1:0.030560466 2:0.10078707 3:2.2824817 
-1 1:0.024036434 2:0.095727295 3:2.4156108 
-1 1:0.021831445 2:0.09679011 3:2.3405081 
1 1:0.034876752 2:0.10215098 3:2.3020571 
-1 1:0.028214892 2:0.096364123 3:2.3379904 
-1 1:0.022296606 2:0.098440707 3:2.3802968 
-1 1:0.02376905 2:0.10001039 3:2.3590158 
-1 1:0.041531246 2:0.093980922 3:2.1486946 
1 1:0.010282569 2:0.10257183 3:2.3963065 
-1 2:0.092735337 3:2.5722611 
-1 1:0.019402391 2:0.10199216 3:2.376097 
-1 1:0.021614009 2:0.1008236 3:2.3558718 
-1 1:0.019053428 2:0.10257514 3:2.3943948 
1 1:0.025868081 2:0.10681431 3:2.2780732 
-1 1:0.024858621 2:0.099762407 3:2.2654752 
1 1:0.015001697 2:0.10459465 3:2.3319579 
-1 2:0.067436206 3:2.7594337 
1 1:0.021332226 2:0.10204746 3:2.0947142 
-1 1:0.01072617 2:0.096415239 3:2.3334458 
-1 1:0.0059423837 2:0.10585953 3:2.3679589 
-1 1:0.0044374048 2:0.10527814 3:2.3811992 
1 2:0.10865448 3:2.4083478 
-1 2:0.10343106 3:2.4034689 
1 2:0.10597434 3:2.436055 
-1 4:0.0016582328 
1 2:0.11304739 3:2.4065057 
-1 2:0.098133372 3:2.574634 
-1 2:0.105382 3:2.4293971 
-1 1:0.0046028165 2:0.10993331 3:2.1355627 
-1 2:0.095105513 3:2.6282868 
-1 2:0.10959187 3:2.2712786 
-1 2:0.097998978 3:2.6014566 
-1 4:0.012639291 5:0.017036676 
-1 4:0.012943089 5:0.016807035 
-1 4:0.012000077 5:0.017492803 
-1 4:0.012510678 5:0.017131343 
1 4:0.012657801 5:0.017022928 
-1 4:0.010457816 5:0.018456275 
1 3:1.9486422 4:0.012437668 5:0.017184423 
-1 3:1.9995341 4:0.012040382 5:0.017465086 
-1 3:1.9245575 4:0.0133448 5:0.016489885 
-1 3:1.9809499 4:0.012218467 5:0.017340965 
-1 3:1.9364803 4:0.012643279 5:0.017033716 
-1 3:1.9636745 4:0.012571759 5:0.01708657 
1 3:1.9837472 4:0.012252001 5:0.017317288 
-1 3:2.0542264 4:0.010960664 5:0.018162154 
-1 3:1.9706665 4:0.012653054 5:0.017026457 
1 3:2.0156662 4:0.011595748 5:0.017763407 
-1 3:2.0543229 4:0.01133874 5:0.017928552 
1 3:2.057574 4:0.011622937 5:0.017745629 
-1 3:2.0701744 4:0.010760116 5:0.018281682 
1 3:2.0343638 4:0.0118223 5:0.017613439 
-1 3:2.1564103 4:0.0091700754 5:0.019128767 
1 3:2.1808732 4:0.0090728591 5:0.019175068 
-1 3:2.1618618 4:0.0095690402 5:0.018932339 
-1 3:1.9727015 4:0.012641711 5:0.01703488 
-1 3:1.9707802 4:0.012542266 5:0.017108231 
1 3:1.9344764 4:0.013321881 5:0.016508407 
-1 3:1.9519985 4:0.012658282 5:0.01702257 
-1 3:1.9972743 4:0.01229605 5:0.017286039 
1 3:2.0036835 4:0.012118517 5:0.017410961 
1 3:2.0438231 4:0.011428805 5:0.017871273 
-1 3:2.0399993 4:0.011402446 5:0.017888103 
-1 3:2.1389923 4:0.0099057361 5:0.018758369 
1 3:2.0719839 4:0.011181116 5:0.018027275 
-1 3:2.0854243 4:0.010755563 5:0.018284361 
-1 3:1.9887507 4:0.012467992 5:0.017162435 
1 3:2.0081415 4:0.011914692 5:0.017551071 
-1 3:2.1062508 4:0.010284876 5:0.018553203 
-1 3:2.0944307 4:0.010621775 5:0.018362404 
1 3:2.1089367 4:0.010705986 5:0.018313434 
-1 3:2.0876832 4:0.011007692 5:0.01813369 
1 3:2.1358029 4:0.010012163 5:0.018701781 
-1 3:2.1580753 4:0.0099301377 5:0.018745463 
-1 3:2.2436826 4:0.0078852817 5:0.019693205 
1 3:2.2036034 4:0.0090310317 5:0.019194803 
-1 3:2.0651625 4:0.011296614 5:0.017955125 
1 3:2.1994633 4:0.008653174 5:0.019368081 
-1 3:2.3040226 4:0.0069256125 5:0.020050833 
1 3:2.117563 4:0.010752237 5:0.018286318 
-1 1:0.15196771 2:0.041848212 
1 3:2.1525555 4:0.0096992435 5:0.018865966 
-1 1:0.0027360611 3:2.6572241 4:3.9296456e-06 5:0.021213203 
1 3:2.2350584 4:0.0087952523 5:0.019303977 
-1 1:0.14978744 5:0.0099692804 
1 3:2.1759507 4:0.0099508713 5:0.018734465 
-1 1:0.13508352 5:0.0099205054 
1 3:2.2860829 4:0.0077694018 5:0.01973921 
-1 3:2.1820222 4:0.0092066738 5:0.019111179 
1 3:2.0901129 4:0.011100714 5:0.018076896 
-1 1:0.01358298 3:2.6875659 5:0.021172884 
1 1:0.0079884413 3:2.7343826 5:0.021133465 
-1 3:2.565597 4:0.0019037036 5:0.02112761 
-1 3:2.2381498 4:0.0080543027 5:0.019624684 
1 3:2.2789409 4:0.0064358094 5:0.019612908 
-1 1:0.066044208 2:0.090636254 
-1 1:0.12080777 2:0.047098734 
-1 1:0.10244052 2:0.063363629 
1 1:0.10078007 2:0.074980298 
-1 1:0.030168277 2:0.095828388 
1 1:0.096984118 2:0.080697305 
-1 2:0.092409429 4:0.0089325877 
1 1:0.068311702 2:0.054266868 
-1 2:0.01854125 4:0.019829411 
-1 2:0.045656754 4:0.016524539 
1 1:0.065230368 2:0.041779517 
1 2:0.031406751 4:0.020284021 
-1 1:0.002044946 2:0.022053315 4:0.020217198 
-1 1:0.063823677 2:0.027517224 3:3.0811472 
1 1:0.10190194 2:0.0054781016 3:2.6372832 
1 2:0.032962978 4:0.019309607 
1 1:0.048760109 2:0.027435137 3:3.0029296 
1 1:0.064781096 3:2.1134704 5:0.0027277173 
1 1:0.061659376 3:2.0663688 5:0.0035660287 
1 1:0.0629347 3:2.1017244 5:0.0028905157 
-1 1:0.059931676 3:2.0561252 5:0.0036212632 
-1 3:0.80961865 5:0.019364218 
-1 1:0.072375784 3:2.3300957 5:3.4087407e-06 
1 1:0.0705733 3:2.3506521 5:0.00019885479 
1 1:0.068102433 3:2.2754638 5:0.0011107773 
1 1:0.06668996 3:2.1943423 5:0.0024310885 
-1 1:0.066219885 3:2.1385435 5:0.0028524857 
-1 1:0.055050891 2:0.022182315 
-1 1:0.063674756 2:0.057698647 
1 2:0.0866214 4:0.010985627 
-1 1:0.037377095 2:0.018165323 4:0.0041491713 
-1 1:0.004679563 2:0.089685275 4:0.01022576 
1 1:0.074658687 2:0.048694741 
-1 1:0.071501683 3:2.2297508 5:0.0019796251 
-1 3:0.92367568 5:0.018044587 
1 1:0.073307294 2:0.050273469 
-1 1:0.072275842 2:0.048304591 
1 1:0.10301835 3:0.71529882 5:0.020616185 
-1 1:0.0084288408 2:0.086903536 4:0.0091572769 
-1 1:0.0071523947 2:0.087714995 4:0.0092164738 
1 2:0.089184014 4:0.0099636258 
-1 1:0.086102455 2:0.0027875984 3:3.1379001 
1 1:0.059677313 2:0.064223568 
-1 1:0.020124443 2:0.034857411 4:0.015907658 
1 4:0.011772015 5:0.013030332 
-1 1:0.0009730893 2:0.091317352 4:0.009343804 
-1 2:0.092669772 4:0.0095304188 
-1 1:0.0060876247 2:0.092435322 4:0.0085938492 
1 1:0.091563591 2:0.019129076 
-1 1:0.073224025 2:0.055095611 
-1 1:0.066003396 2:0.0604788 
-1 2:0.091267666 4:0.0092390875 
-1 1:0.026036691 2:0.088919117 4:0.0039352868 
-1 1:0.027005508 2:0.088175658 4:0.0037740261 
-1 1:0.039012026 2:0.081519602 4:0.0014175499 
-1 1:0.04467959 2:0.077691462 
-1 1:0.048874354 2:0.078059863 
-1 1:0.04559898 2:0.074870135 
-1 1:0.041067787 2:0.078764293 4:0.00036283841 
1 1:0.048117574 2:0.075215449 
-1 1:0.00089524028 2:0.055819634 4:0.012099867 
1 3:0.37427914 4:0.0079495641 5:0.014421075 
1 1:0.076757024 3:2.2148307 5:0.0016946575 
-1 1:0.050101289 2:0.07523331 
-1 1:0.029627095 2:0.086857772 4:0.0021128751 
-1 1:0.024905058 2:0.089072803 4:0.0029503678 
1 1:0.031623267 2:0.08788602 4:0.001784363 
-1 1:0.0071080847 2:0.092354832 4:0.0066518495 
1 2:0.092953171 4:0.0076183191 
-1 2:0.065843375 4:0.011423374 
-1 1:0.0063313775 2:0.091832899 4:0.0064485927 
-1 1:0.0071150387 2:0.091450995 4:0.006300047 
-1 1:0.0057552594 2:0.09143077 4:0.0063751857 
-1 1:0.0065696201 2:0.092482385 4:0.0062050743 
-1 1:0.078694847 2:0.047294162 
1 1:0.00043170547 2:0.094833774 4:0.0066912722 
-1 1:0.026552024 2:0.046963365 4:0.0095480243 
-1 3:0.59874424 4:0.0064887778 5:0.014836897 
1 3:0.57696395 4:0.0075585676 5:0.013837711 
1 1:0.010785744 3:1.8026784 5:0.011851166 
1 3:0.12039446 4:0.013017023 5:0.0092462333 
1 3:0.46879273 4:0.0092389321 5:0.01307719 
-1 3:0.41170412 4:0.0094931658 5:0.013032968 
-1 2:0.036194078 4:0.015270877 
-1 2:0.095701578 4:0.0066902173 
1 2:0.094638433 4:0.0065261015 
-1 1:0.030286036 2:0.085044986 4:0.00052870356 
1 1:0.031878937 2:0.085539847 4:9.5712408e-05 
-1 2:0.069695719 4:0.0089888763 
-1 2:0.093876079 4:0.0061858208 
-1 1:0.068332321 2:0.061609199 
1 1:0.0033711559 2:0.092584549 4:0.0053163749 
-1 1:0.00046811268 2:0.041487053 4:0.014200149 
-1 3:1.0194714 4:6.9148018e-05 5:0.015984719 
-1 1:0.080777116 2:0.048811064 
-1 2:0.094308847 4:0.0057951535 
-1 1:0.0017440812 2:0.093896052 4:0.0051539128 
-1 2:0.096604915 4:0.0053431322 
-1 1:0.0029429516 2:0.095922898 4:0.0049213199 
-1 1:0.073605026 2:0.06184419 
-1 1:0.075212853 3:2.286288 5:0.0057409809 
-1 2:0.039152213 4:0.014302937 
-1 1:0.073717733 2:0.060836253 
1 1:0.00037765921 2:0.094781291 4:0.0049650211 
1 2:0.029312251 4:0.015226747 5:0.0014407918 
-1 3:0.53061371 4:0.0088737929 5:0.012920413 
1 2:0.031893015 4:0.015306722 
1 2:0.094394731 4:0.0053308667 
1 1:0.0020996342 2:0.0801036 4:0.0081712689 
-1 1:0.082998781 2:0.016955319 
-1 2:0.096552326 4:0.0052873836 
1 1:0.046878413 2:0.084301124 
-1 1:0.027384792 2:0.062119205 
-1 2:0.096185061 4:0.0045917739 
1 1:0.078497355 2:0.058089651 
-1 3:0.85380049 4:0.0036921164 5:0.015592179 
-1 2:0.091954453 4:0.0052282566 
-1 1:0.0604255 2:0.074053647 
-1 1:0.056738895 2:0.074006021 
-1 1:0.055656858 2:0.074143043 
-1 2:0.09361872 4:0.0051463514 
-1 2:0.093100285 4:0.0056021101 
-1 1:0.042474573 2:0.084217405 
-1 1:0.045351115 2:0.088426841 
-1 1:0.064005349 2:0.075755326 
-1 2:0.099689516 4:0.0046212702 
-1 1:0.067639324 2:0.074969853 
1 2:0.098898141 4:0.0053242879 
1 3:0.23249505 4:0.012965824 5:0.0078745834 
-1 2:0.098928308 4:0.0054327711 
-1 2:0.10029484 4:0.0050835558 
-1 1:0.093659836 2:0.045772498 
-1 1:0.031119029 2:0.093335476 
-1 1:0.02382547 2:0.098438664 
-1 1:0.017295371 2:0.096990494 
-1 1:0.01035922 2:0.10092326 4:0.00084488553 
-1 1:0.013202405 2:0.10041362 4:0.00029092553 
-1 1:0.0093655333 2:0.10078559 4:0.00083304947 
-1 1:0.02606163 2:0.095342177 
-1 1:0.024423392 2:0.097651499 
1 1:0.023681051 2:0.096881503 
1 2:0.053898913 4:0.011940289 
-1 1:0.019380405 2:0.053269325 4:0.0013048518 
1 2:0.05402108 4:0.012169542 
1 2:0.10045298 4:0.0056821979 
-1 2:0.096673889 4:0.0057878464 
1 1:0.10202022 2:0.022581703 3:2.8569747 
-1 2:0.044845 4:0.011729661 
-1 1:0.095350393 3:2.8348018 
-1 1:0.0085424343 2:0.10188496 
-1 1:0.01201815 3:1.500268 5:0.014685994 
1 1:0.0071126301 2:0.10333044 4:0.00026359568 
1 1:0.022714572 2:0.053772533 4:0.00051712873 
-1 1:0.028039164 2:0.056315889 4:0.0011199292 
-1 2:0.09990463 4:0.0056953612 
-1 2:0.098280007 4:0.0062900476 
-1 1:0.0053526756 2:0.10265592 4:0.00013082668 
1 1:0.0026059413 2:0.10209028 4:0.00045343136 
-1 1:0.09241881 3:2.7217629 5:0.000545084 
-1 1:0.0060115315 2:0.10538981 4:1.4851821e-05 
-1 1:0.024648446 2:0.10122815 
-1 1:0.0052115672 2:0.1040417 
1 1:0.0060548306 2:0.10328933 
1 1:0.098452177 3:2.6321467 5:0.0013763425 
-1 1:0.09839062 2:0.01439861 3:2.9670117 
-1 1:0.024544371 2:0.10084585 
1 1:0.011270795 2:0.10562182 
1 1:0.088605717 2:0.042224779 3:3.1290603 
1 1:0.0026969583 2:0.12879641 4:0.0017041654 
1 2:0.072143753 4:0.007702002 
-1 1:0.024258634 2:0.061920801 
-1 2:0.017138152 4:0.015000747 
-1 1:0.034476531 2:0.057801397 
-1 1:0.10343392 3:2.7001139 5:0.0020752709 
1 1:0.12131005 3:2.524202 5:0.0011200986 
1 1:0.09769107 2:0.020323077 3:2.8401037 
1 1:0.10212581 3:2.7015971 5:0.00076686148 
-1 1:0.046746593 3:1.8657578 5:0.012952203 
1 1:0.091372516 2:0.032958684 3:2.9155435 
1 1:0.010253584 2:0.10655931 
1 1:0.081840238 2:0.048877643 
-1 1:0.02819317 3:1.6274465 5:0.01437845 
-1 1:0.10228012 2:0.01732223 3:2.8707406 
1 1:0.098095395 2:0.024178807 3:2.8263715 
-1 1:0.0395072 2:0.068329771 
-1 1:0.109136 2:0.00043625292 3:2.7529102 
1 1:0.097524739 3:2.1774388 5:0.0059958539 
-1 1:0.10075542 2:0.04715794 3:3.0341765 
-1 1:0.029421997 2:0.10190092 
1 1:0.11062523 2:0.0048202256 3:2.6832302 
1 1:0.10789632 2:0.021371581 3:2.9912556 
1 1:0.041199171 2:0.065350021 
-1 1:0.025671058 2:0.024752497 
-1 1:0.01870802 2:0.10867171 
-1 1:0.0092152953 2:0.11208362 
-1 1:0.017032528 2:0.10887197 
-1 1:0.012575703 2:0.10935218 
-1 1:0.010940614 2:0.11219372 
1 1:0.011130232 2:0.11128836 
-1 1:0.061152795 2:0.076048386 
-1 1:0.10191468 2:0.013767313 3:2.8655775 
-1 2:0.082253699 4:0.012582643 
1 2:0.076298275 4:0.012401696 
1 2:0.063944083 4:0.013511329 
-1 2:0.016024003 4:0.015057153 
1 2:0.10210126 4:0.010253635 
1 2:0.077369625 4:0.012416394 
-1 2:0.010683932 4:0.015123192 
1 2:0.10216245 4:0.010427343 
-1 2:0.071038441 4:0.013303583 
-1 2:0.050411377 3:1.0976264 4:0.013905132 
-1 2:0.050545749 3:1.1125902 4:0.013849144 
1 2:0.098128421 3:0.80757967 4:0.011704241 
1 2:0.049841038 3:1.127799 4:0.013820693 
-1 2:0.048394065 3:1.129628 4:0.013808761 
1 2:0.055898931 3:1.057542 4:0.013216621 
1 2:0.055965688 3:1.0297184 4:0.013626446 
-1 2:0.042060976 3:1.1007867 4:0.013972991 
1 2:0.046122239 3:1.1087846 4:0.013738795 
-1 3:1.4618673 4:0.01544237 5:0.0021960305 
-1 2:0.022574235 3:1.2389813 4:0.014871356 
1 2:0.044513903 3:1.0898668 4:0.013541979 
-1 2:0.041091266 3:1.1159913 4:0.013727388 
1 2:0.042163616 3:1.1361435 4:0.013827289 
-1 2:0.043960855 3:1.1186902 4:0.01355988 
1 2:0.047160321 3:1.1114794 4:0.013476298 
-1 2:0.047948032 3:1.0887519 4:0.013195375 
1 2:0.048768797 3:1.1225608 4:0.013403999 
-1 2:0.04714344 3:1.1019186 4:0.013321181 
1 2:0.062815065 3:0.92571237 4:0.012312716 
1 2:0.047464211 3:1.0993661 4:0.013507871 
1 2:0.043048379 3:1.1401694 4:0.013702555 
-1 2:0.024204028 3:1.2555831 4:0.014737167 
1 2:0.041723345 3:1.159162 4:0.013697427 
-1 3:1.6082418 4:0.014808691 5:0.0056486697 
1 2:0.04529662 3:1.1453549 4:0.013577525 
-1 2:0.044099828 3:1.1166046 4:0.013582253 
1 2:0.083118963 3:0.71985722 4:0.0092635524 
-1 2:0.047857476 3:1.0654433 4:0.01330488 
1 2:0.0864188 3:0.73436959 4:0.0088886137 
1 2:0.067516335 3:0.87170817 4:0.011380233 
-1 2:0.04596872 3:1.1256132 4:0.013477904 
1 2:0.065105749 3:1.0095531 4:0.011727007 
-1 2:0.045468452 3:1.1605539 4:0.013474325 
-1 2:0.076163177 3:0.90738995 4:0.010491155 
1 2:0.095162816 3:0.72397102 4:0.010159139 
1 2:0.078296528 3:0.8491309 4:0.010647003 
-1 2:0.036918246 3:1.2313148 4:0.014074209 
1 2:0.054815273 3:1.0940045 4:0.012836275 
-1 2:0.045724147 3:1.1215517 4:0.013367605 
1 2:0.047966246 3:1.214934 4:0.0134355 
-1 2:0.04184612 3:1.2273315 4:0.013707504 
1 2:0.069834808 3:0.99929365 4:0.01111511 
-1 2:0.046132494 3:1.2269428 4:0.013412374 
1 2:0.06705271 3:1.0621257 4:0.011347058 
1 2:0.060059492 3:1.0439789 4:0.011979112 
1 2:0.051400926 3:1.215014 4:0.013073129 
-1 2:0.042042163 3:1.2641576 4:0.01376021 
-1 2:0.051001366 3:1.2561759 4:0.01327351 
1 2:0.078207893 3:1.0028749 4:0.010459375 
-1 2:0.047890312 3:1.1958504 4:0.013383869 
1 2:0.063831203 3:1.0729767 4:0.011627216 
-1 2:0.044841502 3:1.2264921 4:0.013581155 
-1 2:0.059257795 3:1.1340011 4:0.012249836 
1 2:0.058651707 3:1.1316546 4:0.012407377 
1 2:0.052033341 3:1.2023756 4:0.013112646 
-1 2:0.04878002 3:1.2424486 4:0.013140675 
1 2:0.067077047 3:1.0484802 4:0.011180748 
-1 2:0.046016463 3:1.2574027 4:0.013560862 
-1 2:0.058814194 3:1.2198033 4:0.012832522 
1 2:0.074029045 3:0.95446526 4:0.010654175 
1 2:0.044280969 3:1.2530258 4:0.013678213 
-1 2:0.028973285 3:1.4060166 4:0.014678874 
1 2:0.058296441 3:1.2282843 4:0.012734956 
-1 2:0.051847909 3:1.253747 4:0.013248649 
1 2:0.074381553 3:1.0800763 4:0.010798621 
1 2:0.057615871 3:1.2041915 4:0.01277157 
1 2:0.040940663 3:1.3576678 4:0.013873999 
-1 2:0.00099080173 3:1.641305 4:0.015147298 5:0.00036999703 
1 2:0.0648207 3:1.2100911 4:0.011960411 
-1 2:0.012766638 3:1.4486889 4:0.015213157 
-1 2:0.039844061 3:1.3726266 4:0.013950717 
-1 2:0.045408393 3:1.2939226 4:0.013693263 
1 2:0.052400444 3:1.3400325 4:0.013611473 
-1 2:0.047565619 3:1.3059986 4:0.013552948 
1 2:0.077046667 3:0.96975296 4:0.010414394 
1 2:0.05793051 3:1.104871 4:0.012463347 
-1 2:0.019959656 3:1.5831499 4:0.014911193 
1 2:0.067994208 3:1.138469 4:0.01182336 
-1 2:0.048162538 3:1.2678276 4:0.013567803 
1 2:0.06724742 3:1.1571992 4:0.012142097 
-1 2:0.044918754 3:1.2737116 4:0.01377047 
1 2:0.06550526 3:1.1166521 4:0.012131344 
-1 2:0.0569956 3:1.1377594 4:0.012626623 
-1 2:0.061898576 3:1.1394531 4:0.012225985 
1 2:0.060141224 3:1.1270323 4:0.012530862 
1 2:0.035155569 3:1.380478 4:0.014354815 
-1 2:0.015705388 3:1.5064233 4:0.014982557 
1 2:0.03750731 3:1.3632038 4:0.014091989 
-1 2:0.022492551 3:1.4315416 4:0.014773636 
1 2:0.032995071 3:1.4461705 4:0.014434278 
-1 2:0.036895359 3:1.3569245 4:0.014085949 
1 2:0.065116733 3:1.1398599 4:0.012181213 
1 2:0.054506583 3:1.170335 4:0.012931135 
-1 2:0.039811416 3:1.3354415 4:0.01395487 
-1 2:0.047109887 3:1.3066013 4:0.013552806 
-1 2:0.066577674 3:1.0770067 4:0.01169018 
1 2:0.069002878 3:1.0419743 4:0.012014015 
-1 2:0.047481817 3:1.2508441 4:0.013948803 
1 2:0.070888267 3:1.0800003 4:0.011208165 
-1 2:0.020770578 3:1.4280818 4:0.014888299 
1 2:0.065102002 3:1.1275044 4:0.012228879 
1 2:0.039222114 3:1.2878248 4:0.014226099 
-1 2:0.036974904 3:1.3585403 4:0.014274663 
-1 2:0.046937105 3:1.312155 4:0.013688057 
1 2:0.055430126 3:1.2149688 4:0.01322355 
-1 2:0.041086867 3:1.2976978 4:0.014069964 
-1 2:0.052337772 3:1.2720065 4:0.013533235 
1 2:0.069181142 3:1.0337233 4:0.012091442 
-1 2:0.053009893 3:1.1193224 4:0.01315316 
-1 2:0.05366583 3:1.1172447 4:0.013241682 
-0.7255338904605867 2:0.068005276 3:0.9819849 4:0.011885301 
1 2:0.064497016 3:1.0236334 4:0.012375066 
-1 2:0.039660695 3:1.1778471 4:0.014099358 
1 2:0.074766251 3:0.94456528 4:0.011627841 
1 2:0.050249745 3:1.1684946 4:0.013492932 
1 2:0.048517989 3:1.144628 4:0.013552613 
-1 2:0.049794895 3:1.0776786 4:0.013378805 
-1 2:0.05660833 3:1.0482574 4:0.013282186 
1 1:0.043496888 2:0.13222375 
1 2:0.067807844 3:0.97532076 4:0.012783949 
1 2:0.039056641 3:1.2204627 4:0.014259686 
-1 2:0.027507579 3:1.3541189 4:0.014884637 
1 2:0.041835697 3:1.2340235 4:0.014126856 
-1 2:0.039763029 3:1.1939813 4:0.014189467 
1 2:0.038012394 3:1.2899253 4:0.014402947 
1 2:0.046739059 3:1.198738 4:0.013897558 
-1 2:0.038930109 3:1.2249118 4:0.0142333 
1 2:0.10070763 3:0.74397644 4:0.0078536666 
1 2:0.056587751 3:1.0779708 4:0.013066337 
-1 2:0.039057403 3:1.2627639 4:0.014244497 
-1 2:0.048577754 3:1.2214775 4:0.013783924 
-1 2:0.047271222 3:1.2396459 4:0.013980781 
1 2:0.05956275 3:1.1285952 4:0.012824205 
-1 2:0.041096298 3:1.2446966 4:0.014138474 
1 2:0.046518482 3:1.2523139 4:0.013910226 
-1 2:0.0064681654 3:1.5363048 4:0.015089923 5:0.00052125838 
-1 2:0.037039616 3:1.3477063 4:0.014390051 
1 2:0.083362968 3:0.89812417 4:0.010355687 
-1 2:0.039276647 3:1.2924508 4:0.014340901 
1 2:0.064908763 3:1.1377523 4:0.012653135 
-1 2:0.038040793 3:1.2843245 4:0.014266956 
1 2:0.044514894 3:1.2831375 4:0.014100336 
-1 2:0.042817925 3:1.2631637 4:0.014077269 
1 2:0.066440882 3:1.0524795 4:0.012181197 
1 2:0.053509383 3:1.1788675 4:0.013490516 
-1 2:0.031671758 3:1.3770166 4:0.014678283 
1 2:0.059314862 3:1.145175 4:0.013022493 
1 2:0.044359255 3:1.272107 4:0.014104219 
-1 2:0.042679063 3:1.3349344 4:0.014176952 
1 2:0.096285058 3:0.876718 4:0.0093859476 
-1 2:0.042503536 3:1.2527818 4:0.01411595 
-1 2:0.06196045 3:1.1833096 4:0.01293112 
1 2:0.075928681 3:1.007946 4:0.011793464 
-1 2:0.039798663 3:1.2605696 4:0.014268467 
1 2:0.051778951 3:1.1809908 4:0.013590489 
1 2:0.048514559 3:1.243411 4:0.01383354 
-1 2:0.044705133 3:1.2800477 4:0.014074117 
1 2:0.05080238 3:1.2608629 4:0.013841123 
1 2:0.047449014 3:1.2888239 4:0.013946471 
-1 2:0.043727041 3:1.3063671 4:0.014124272 
-1 2:0.043521925 3:1.333695 4:0.014221757 
1 2:0.069727002 3:1.1458463 4:0.012502973 
-1 2:0.042003065 3:1.2751849 4:0.01413014 
1 2:0.061296593 3:1.2181267 4:0.013108505 
1 2:0.046457905 3:1.3029388 4:0.014123458 
-1 2:0.049166751 3:1.2875766 4:0.013794256 
1 2:0.070505579 3:1.1153226 4:0.012435013 
1 2:0.043717055 3:1.3291603 4:0.014210941 
-1 2:0.041484981 3:1.3270813 4:0.01425717 
-1 2:0.056457871 3:1.2297162 4:0.013411099 
1 2:0.062239451 3:1.1718654 4:0.013014632 
1 2:0.047151653 3:1.2636126 4:0.013922099 
-1 2:0.039513018 3:1.3635151 4:0.014391797 
1 2:0.088192659 3:0.97894387 4:0.010754484 
1 2:0.047722307 3:1.3062357 4:0.014077564 
-1 2:0.040538068 3:1.375915 4:0.014354145 
1 2:0.076479566 3:1.1533811 4:0.012338575 
1 2:0.043397963 3:1.3488021 4:0.014218622 
-1 2:0.045156515 3:1.2885535 4:0.014053432 
-1 2:0.054501851 3:1.2715115 4:0.013600098 
-1 2:0.058261829 3:1.2209484 4:0.013458565 
1 2:0.068803854 3:1.1205246 4:0.012523597 
1 2:0.052091311 3:1.2613144 4:0.013734533 
-1 2:0.03584576 3:1.3627806 4:0.014480359 
1 2:0.049351314 3:1.3016385 4:0.013957606 
1 2:0.045068922 3:1.3071523 4:0.014105626 
-1 2:0.047106726 3:1.2870524 4:0.013893886 
1 2:0.060169643 3:1.1733505 4:0.013311915 
-1 2:0.042645194 3:1.3042053 4:0.014300413 
1 2:0.14096728 3:0.28109765 4:0.0012824792 
1 2:0.047048868 3:1.2974892 4:0.014041622 
-1 2:0.044708414 3:1.3267563 4:0.014243259 
1 2:0.060999602 3:1.3023425 4:0.013502963 
1 2:0.037661226 3:1.4156545 4:0.014577147 
-1 2:0.010368973 3:1.6023499 4:0.015034288 5:0.00029791617 
1 2:0.085627875 3:1.0737741 4:0.011653361 
1 2:0.038588447 3:1.4478642 4:0.014552181 
-1 2:0.044538061 3:1.3381711 4:0.014256555 
1 1:0.13642272 2:0.13780082 
-1 2:0.025592784 3:1.480572 4:0.014877342 
1 2:0.074014304 3:1.3117592 4:0.013725207 
1 2:0.031531549 3:1.4790911 4:0.014772897 
1 2:0.035444678 3:1.4665724 4:0.01469589 
1 2:0.031038809 3:1.4551749 4:0.014783672 
-1 2:0.032528102 3:1.4320384 4:0.014716557 
1 1:0.13163202 2:0.1330602 
-1 2:0.063423183 3:1.2517762 4:0.01358937 
1 1:0.095810836 2:0.12044391 
-1 2:0.053074977 3:1.2432265 4:0.013970816 
1 1:0.04921012 2:0.16756865 3:0.032138071 
-1 2:0.037276233 3:1.3282894 4:0.014520701 
1 2:0.052468716 3:1.2534783 4:0.013847977 
-1 2:0.00087577127 3:1.656218 4:0.014993491 5:0.0016286631 
1 2:0.043272685 3:1.3461254 4:0.014338571 
-1 2:0.032173296 3:1.3864993 4:0.014676911 
1 2:0.047810661 3:1.44338 4:0.014403391 
1 2:0.054516866 3:1.3445798 4:0.013936266 
-1 2:0.02574503 3:1.491124 4:0.01491728 
1 2:0.10055595 3:0.80885254 4:0.0098602925 
-1 2:0.047327667 3:1.3135835 4:0.014207405 
-1 2:0.11125074 3:0.79640245 4:0.0086021574 
1 1:0.068826715 2:0.12597077 
1 2:0.12116122 3:0.6038328 4:0.0071326486 
1 2:0.024244152 3:1.5422822 4:0.014955443 
-1 3:1.9017073 4:0.013635851 5:0.0073524262 
1 2:0.14849778 3:0.42570918 4:0.005128766 
-1 2:0.022005567 3:1.470545 4:0.014960926 
1 2:0.092913941 3:0.95362062 4:0.01106154 
-1 2:0.022316823 3:1.431214 4:0.014962915 
-1 2:0.041507722 3:1.3395569 4:0.014434709 
1 2:0.19962281 3:0.80420664 4:0.005283878 
1 1:0.14202082 2:0.078876402 
-1 1:0.061317242 2:0.14439411 
1 1:0.11904635 2:0.14094755 
-1 2:0.026644238 3:1.4154085 4:0.014875753 
1 1:0.15382038 2:0.092349867 
-1 2:0.052305764 3:1.0499044 4:0.013432826 
1 1:0.1444646 2:0.10853916 
1 2:0.18677775 3:0.8071455 4:0.0063531213 
-1 2:0.053948645 3:1.0134438 4:0.012904042 
1 1:0.041951106 2:0.1335382 
-1 2:0.028299803 3:1.4205051 4:0.01496351 
1 1:0.069563174 2:0.12296714 
-1 2:0.055426683 3:0.94270852 4:0.012553331 
1 1:0.15739518 2:0.090924391 
-1 2:0.070184047 3:1.0541227 4:0.013048323 
-1 2:0.13812878 3:0.30736916 4:0.0051030496 
1 3:0.66813616 4:0.013826325 5:0.0075902128 
1 3:0.73914782 4:0.013082998 5:0.0086904777 
1 3:0.67961731 4:0.01346195 5:0.0080022571 
-1 3:0.93985064 4:0.010272693 5:0.01155144 
-1 1:0.018512542 2:0.17282155 
-1 1:0.13088286 2:0.11080059 
-1 1:0.051557683 2:0.082021996 3:2.7946609 
-1 1:0.051705877 2:0.079089058 3:2.7931748 
-1 1:0.047586014 2:0.077538986 3:2.8182103 
-1 1:0.04714606 2:0.076690299 3:2.8050168 
1 1:0.052538061 2:0.074952973 3:2.7514856 
-1 1:0.047334887 2:0.072817839 3:2.7900738 
0.5605176021910204 1:0.0480795 2:0.072143719 3:2.7550405 
1 1:0.044963309 2:0.071208278 3:2.8181856 
-1 1:0.04014878 2:0.071832434 3:2.8655635 
1 1:0.041614512 2:0.072866028 3:2.82697 
1 1:0.040177514 2:0.068163081 3:2.8591599 
1 1:0.03730419 2:0.068003982 3:2.89697 
-1 1:0.036871396 2:0.067841587 3:2.8933741 
1 1:0.012896365 2:0.079466954 
1 1:0.038298633 2:0.06835808 3:2.8778694 
-1 1:0.026309572 2:0.069304893 3:2.9668222 
-1 1:0.016793318 2:0.071995198 3:3.0647332 
-1 1:0.022938696 2:0.073174404 3:2.984199 
-1 1:0.020470123 2:0.077222091 3:3.038463 
1 1:0.020726669 2:0.079571486 3:3.008311 
-1 1:0.015281951 2:0.076488202 3:3.0701738 
1 1:0.012487519 2:0.079094223 3:3.1265687 
-1 1:0.020397199 2:0.069562345 3:3.0379396 
1 1:0.023487808 2:0.092058957 
-1 2:0.072424484 4:0.00084539125 
-1 1:0.019755817 2:0.072981141 3:3.0441353 
1 1:0.018629925 2:0.077087263 3:3.0830948 
1 1:0.026689036 2:0.0722384 3:2.9850131 
-1 1:0.0243923 2:0.071491833 3:3.0392975 
-1 2:0.075304947 
-1 1:0.0096718104 2:0.078177524 
1 1:0.012843477 2:0.0805229 
-1 1:0.017955603 2:0.077258934 3:3.0971165 
1 1:0.015481046 2:0.080001368 3:3.1341877 
-1 1:0.022315336 2:0.078016122 3:3.0626348 
1 1:0.019663467 2:0.079994292 3:3.0990144 
-1 1:0.027019643 2:0.075909055 3:3.0000003 
1 1:0.018650123 2:0.081431333 3:3.1021472 
-1 1:0.030805572 2:0.072640329 3:2.9952624 
1 1:0.024482418 2:0.077699552 3:3.0386856 
-1 1:0.021504569 2:0.074887758 3:3.093179 
1 1:0.019411804 2:0.081149227 3:3.1218538 
-1 1:0.026426092 2:0.076801992 3:3.0375507 
1 1:0.021054697 2:0.081113305 3:3.1145198 
1 1:0.025215579 2:0.076163237 3:3.0876583 
-1 1:0.035806618 2:0.069821394 3:2.9456682 
1 1:0.031238586 2:0.075777679 3:2.9952208 
-1 1:0.043901326 2:0.067184644 3:2.8627404 
-1 1:0.051002078 2:0.068036482 3:2.7709005 
-1 1:0.02085903 2:0.082950425 3:3.0898324 
-1 1:0.020331137 2:0.083566492 3:3.1159337 
1 1:0.022570042 2:0.084678411 3:3.0968914 
1 1:0.019651748 2:0.080987173 3:3.1315782 
-1 1:0.031848821 2:0.075305205 3:3.0182134 
1 1:0.033692823 2:0.077301124 3:2.9991741 
-1 1:0.037054212 2:0.073657383 3:2.9520973 
-1 1:0.017181243 2:0.081677608 
1 1:0.021765493 2:0.082080667 
-1 1:0.035010229 2:0.076022128 3:2.9789749 
-1 1:0.027127087 2:0.079395307 3:3.083075 
-1 1:0.020732197 2:0.083384914 
-1 1:0.041731808 2:0.077104493 3:2.9674497 
-0.9075048162861354 1:0.032804822 2:0.080111481 3:3.0387146 
-1 1:0.025104463 2:0.082023941 3:3.0991656 
1 1:0.01974687 2:0.084154977 
-1 1:0.048701633 2:0.067532728 3:2.863461 
1 1:0.017051914 2:0.085079464 
-1 1:0.046023933 2:0.068750615 3:2.9085837 
-1 1:0.048420485 2:0.068575218 3:2.878276 
-1 1:0.015076162 2:0.086249519 
-1 1:0.018719621 2:0.084914718 
-1 1:0.0077344168 2:0.086330957 
1 1:0.0049646968 2:0.087659701 
1 1:0.033875389 2:0.078602771 3:3.092753 
-1 1:0.032662918 2:0.07725728 3:3.0915468 
-1 1:0.024074597 2:0.084839147 
1 1:0.014315288 2:0.086378314 
-1 1:0.037122878 2:0.077003474 3:3.0913311 
-1 1:0.024399782 2:0.081062669 
1 1:0.012474201 2:0.086266542 
-1 1:0.028955035 2:0.078785098 
1 1:0.015699846 2:0.084292236 
-1 1:0.029989017 2:0.077869361 
-1 1:0.010096113 2:0.086878973 
-1 1:0.014173454 2:0.085885784 
-1 1:0.023651904 2:0.084691827 
-1 1:0.021099679 2:0.085806532 
1 1:0.02119671 2:0.08476993 
-1 1:0.039413703 2:0.077079321 3:3.0826027 
1 1:0.028477134 2:0.082417351 
-1 1:0.039186892 2:0.073714974 3:3.061711 
-1 1:0.062086712 2:0.059274256 3:2.7578953 
1 1:0.033753703 2:0.08460746 
-1 1:0.04363008 2:0.074336354 3:3.0170991 
1 1:0.0098989324 2:0.090319332 
1 1:0.054498224 2:0.069546587 3:2.8837614 
-1 1:0.050194287 2:0.069636319 3:2.9302788 
-1 1:0.052962998 2:0.069459488 3:2.9125449 
-1 1:0.024714753 2:0.085244339 
-1 1:0.0091832277 2:0.090557168 
-1 1:0.013673851 2:0.088430316 
-1 1:0.067609942 2:0.058066244 3:2.7034671 
-1 1:0.018820053 2:0.088470889 
-1 1:0.0069490199 2:0.092337708 
-1 1:0.026217537 2:0.08841394 
-1 1:0.044959282 2:0.081879543 3:3.0736901 
-1 1:0.012185506 2:0.090318739 
-1 1:0.011161578 2:0.090273943 
-1 1:0.012774508 2:0.092352151 
-1 1:0.05627079 3:1.1608414 5:0.011939455 
1 3:0.10842859 4:0.005325445 5:0.014127084 
1 3:0.078752877 4:0.0054574217 5:0.014110152 
1 3:0.017439935 4:0.0063197359 5:0.013729268 
-1 1:0.037724463 3:0.90198196 5:0.013650738 
1 3:0.34423697 4:0.0012560028 5:0.015010173 
1 1:0.006031791 3:0.52583689 5:0.015010423 
1 3:0.41321719 4:4.4514838e-05 5:0.015053376 
-1 1:0.027354055 3:0.76929998 5:0.014341467 
1 3:0.1610211 4:0.0041127134 5:0.014523128 
-1 3:0.40568777 4:0.0010117119 5:0.015104993 
1 4:0.0066111011 5:0.0136041 
1 3:0.3281307 4:0.0011006608 5:0.015023123 
1 3:0.24345114 4:0.002831493 5:0.014818555 
1 3:0.42959102 5:0.015085228 
1 1:0.013918644 3:0.68103015 5:0.014849016 
-1 1:0.02073796 3:0.73050731 5:0.014682839 
1 3:0.3864702 4:0.00066074769 5:0.015045405 
1 3:0.31475459 4:0.0020826675 5:0.014960998 
1 3:0.41182597 5:0.015015274 
-1 1:0.001198678 3:0.49889282 5:0.015043786 
1 3:0.4453095 5:0.015048129 
1 1:0.0080087868 3:0.61298204 5:0.014993421 
-1 1:0.011816962 3:0.6503428 5:0.014894208 
1 3:0.28197518 4:0.0028586106 5:0.014873675 
1 1:0.015552131 3:0.69905926 5:0.01475113 
1 3:0.35168897 4:0.0007477559 5:0.015027437 
1 3:0.35025173 4:0.00077487366 5:0.015023683 
1 1:0.0046341682 3:0.55704905 5:0.01501156 
1 3:0.47012493 5:0.015124893 
1 1:0.010126094 3:0.62806112 5:0.014884208 
1 3:0.46418212 5:0.015127361 
1 3:0.43654255 4:0.00010763624 5:0.015112259 
1 3:0.47568832 5:0.015114955 
1 3:0.49046674 5:0.015136072 
1 3:0.51332784 5:0.015123916 
1 1:0.0054658427 3:0.57404039 5:0.014941307 
0.06973315811993799 3:0.53999654 5:0.01509785 
1 3:0.51278234 5:0.01510921 
1 3:0.45638259 5:0.015072063 
1 3:0.48468453 5:0.015073047 
1 3:0.44703714 5:0.015092667 
1 3:0.47785485 5:0.01502021 
1 1:8.862439e-05 3:0.50572798 5:0.01501308 
1 3:0.4837129 5:0.01505152 
1 3:0.45659571 5:0.015121177 
1 3:0.4971512 5:0.01505316 
1 1:0.00028091112 3:0.53567351 5:0.015029662 
1 1:0.0019400192 3:0.56156559 5:0.015002574 
-1 1:0.0007384455 3:0.56855121 5:0.015023629 
1 3:0.53412222 5:0.015008121 
1 1:3.1775164e-05 3:0.54625609 5:0.014976201 
1 3:0.52226771 5:0.014976814 
1 3:0.45551397 5:0.015023296 
1 3:0.4861995 5:0.014996553 
-1 3:0.50089877 5:0.014987883 
1 3:0.45588446 5:0.015014735 
1 3:0.39350846 5:0.015034823 
-1 3:0.42269852 5:0.015017545 
1 3:0.26768897 4:0.00082091238 5:0.014989344 
1 3:0.34477596 4:6.6071636e-05 5:0.015023127 
1 3:0.36738081 5:0.01504168 
-1 3:0.43888408 5:0.015048649 
1 3:0.20871224 4:0.0021577506 5:0.014860007 
1 3:0.19922779 4:0.0019201175 5:0.014889982 
1 3:0.25875225 4:0.0011930746 5:0.014968287 
1 3:0.32239927 4:0.00058811827 5:0.015020387 
1 3:0.29649962 4:0.0010103637 5:0.015001757 
1 3:0.17169213 4:0.0022514859 5:0.014839445 
-1 3:0.36471605 5:0.015051043 
1 3:0.18484862 4:0.0018545202 5:0.014896377 
1 3:0.26345022 4:0.001197951 5:0.014974762 
1 3:0.30111204 4:0.00042332351 5:0.015024316 
1 3:0.35792732 5:0.015044782 
1 3:0.39514195 5:0.015049147 
1 3:0.27914549 4:0.001176722 5:0.014975515 
1 3:0.32402121 4:0.00028253379 5:0.015023256 
-1 3:0.30604611 4:0.00044021165 5:0.015018816 
1 3:0.30479677 4:0.00048187098 5:0.015009338 
1 3:0.34437078 4:0.00019859112 5:0.015026874 
1 3:0.19235488 4:0.0021293736 5:0.014856592 
1 3:0.17322925 4:0.0022125751 5:0.014838555 
1 3:0.27555055 4:0.00096803673 5:0.014979266 
1 3:0.31276334 4:0.00056732464 5:0.014995981 
1 3:0.3331463 4:0.00023309873 5:0.01500527 
-1 3:0.34726135 5:0.015004462 
1 3:0.1979337 4:0.0015742622 5:0.014917173 
1 3:0.23731675 4:0.0012829237 5:0.014945151 
1 3:0.35080035 4:0.00012579649 5:0.015002616 
-1 3:0.33473025 5:0.014998158 
1 3:0.18022828 4:0.0019259226 5:0.014882715 
1 3:0.24252236 4:0.00070951327 5:0.014985187 
1 3:0.20315975 4:0.0013794753 5:0.014944524 
1 3:0.29083009 4:0.00038260925 5:0.014998906 
1 3:0.28483887 4:0.00042290439 5:0.014996691 
1 3:0.17355528 4:0.0015265359 5:0.014935571 
-1 3:0.34101462 5:0.015005131 
1 3:0.10341897 4:0.0024514801 5:0.01483191 
1 3:0.19050979 4:0.0013525702 5:0.014959395 
1 3:0.2765582 4:0.00020335302 5:0.015005388 
1 3:0.12906658 4:0.0021982603 5:0.014873525 
1 3:0.2503161 4:0.00031479614 5:0.015016616 
1 3:0.1658811 4:0.0014493355 5:0.01496765 
1 3:0.15825913 4:0.0013401925 5:0.014986463 
1 3:0.091002938 4:0.0020629728 5:0.014907318 
1 3:0.22255909 4:0.00058948193 5:0.015012266 
1 3:0.066941348 4:0.0027268721 5:0.01480032 
1 3:0.059677068 4:0.0027083543 5:0.014796245 
-1 3:0.23109571 4:0.00032652104 5:0.015021276 
1 3:0.026776409 4:0.0030427683 5:0.014746377 
1 3:0.1480715 4:0.0017601744 5:0.014932847 
1 3:0.10365358 4:0.0021419815 5:0.014885401 
1 3:0.067811333 4:0.0028346396 5:0.014775334 
1 3:0.1035532 4:0.0019920544 5:0.014916952 
1 3:0.20388665 4:0.00087011113 5:0.014998496 
0.7425987443851203 3:0.23597887 4:0.00053152766 5:0.015002387 
-1 2:0.079674266 4:0.010679284 
1 2:0.090395157 4:0.0096653709 
1 2:0.07787418 4:0.010858798 
-1 1:0.13634028 3:1.3750742 5:0.011401687 
-1 2:0.078847369 4:0.010663853 
1 2:0.11421258 4:0.0069260492 
1 2:0.098762527 4:0.0089021529 
-1 2:0.087054691 4:0.010692527 
-1 2:0.099944105 4:0.0081858611 
1 2:0.095744632 4:0.0089257259 
-1 2:0.079163115 4:0.010887732 
1 2:0.076977945 3:2.583496 4:0.0085341732 
1 2:0.071936159 3:2.5362995 4:0.008781745 
-1 2:0.049920939 3:2.7803609 4:0.012003797 
-1 2:0.056731515 3:2.593155 4:0.01054002 
1 2:0.064039946 3:2.6476621 4:0.0095920955 
1 2:0.067244203 3:2.4894679 4:0.0078979971 
1 2:0.045983759 3:2.7313263 4:0.011696441 
1 2:0.047678872 3:2.6449683 4:0.011001923 
-1 2:0.050406735 3:2.548228 4:0.0095160314 
1 2:0.051359215 3:2.5957263 4:0.010194203 
1 2:0.0437385 3:2.7230192 4:0.010775734 
1 2:0.047508136 3:2.6584283 4:0.010170141 
-1 2:0.03635472 3:2.6179255 4:0.011293008 
1 2:0.051180114 3:2.6981549 4:0.011020244 
-1 2:0.032596873 3:2.7052581 4:0.011782891 
-1 2:0.05053547 3:2.5741728 4:0.009823973 
1 2:0.085916038 3:2.2631109 4:0.0075072262 
-1 2:0.043343634 3:2.611571 4:0.010544052 
1 2:0.043310872 3:2.7560188 4:0.011540707 
1 2:0.03324753 3:2.7580806 4:0.012012115 
-1 2:0.03277889 3:2.6762427 4:0.011787277 
1 2:0.059545562 3:2.6544798 4:0.010411811 
1 2:0.039143847 3:2.7096257 4:0.011475992 
-1 2:0.038657621 3:2.6443236 4:0.011611675 
-1 2:0.050480994 3:2.4816763 4:0.0091114413 
-1 2:0.051465808 3:2.6579133 4:0.011197537 
1 2:0.081305517 3:2.3533855 4:0.0047550069 
-1 2:0.037390986 3:2.6327009 4:0.0121463 
1 2:0.06210998 3:2.6358292 4:0.009787453 
1 2:0.047797336 3:2.5860689 4:0.010333446 
-1 2:0.033664509 3:2.6381259 4:0.011708101 
-1 2:0.055213756 3:2.5993159 4:0.0094245528 
1 2:0.064629919 3:2.4256226 4:0.0084174218 
1 2:0.05088271 3:2.5295583 4:0.0098409248 
1 2:0.052772329 3:2.5122771 4:0.0089796979 
1 2:0.050651992 3:2.4689818 4:0.0096087469 
1 2:0.045091382 3:2.6137089 4:0.010738993 
1 2:0.038273363 3:2.6960529 4:0.011561584 
1 2:0.040542741 3:2.6528234 4:0.011437131 
1 2:0.047629813 3:2.5309915 4:0.011317669 
-1 2:0.034804527 3:2.5830644 4:0.011466388 
1 2:0.053467893 3:2.5797073 4:0.0095669375 
-1 2:0.030984399 3:2.6322541 4:0.012164606 
1 2:0.098815368 3:2.4447377 4:0.006603225 
1 2:0.043767935 3:2.5780195 4:0.011151241 
-1 2:0.043198889 3:2.6490256 4:0.011196049 
1 2:0.049884143 3:2.6510745 4:0.010889032 
1 2:0.045973726 3:2.6635435 4:0.011479066 
1 2:0.053098438 3:2.5389401 4:0.0095737425 
-1 2:0.053285498 3:2.4431215 4:0.0098527038 
-1 2:0.059099193 3:2.3864427 4:0.0075947998 
1 2:0.058621157 3:2.4511307 4:0.0086952923 
1 2:0.049886629 3:2.6073879 4:0.010657989 
-1 2:0.037929973 3:2.694915 4:0.011776645 
-1 2:0.056155317 3:2.4780459 4:0.0087707186 
1 2:0.055568983 3:2.5902068 4:0.010895776 
1 2:0.059825055 3:2.5569747 4:0.0094472032 
1 2:0.052687713 3:2.5668128 4:0.010489009 
-1 2:0.046570502 3:2.5733886 4:0.010311186 
1 2:0.062301738 3:2.4821167 4:0.0094314005 
0.001340144052222888 2:0.058789347 3:2.5025496 4:0.010036828 
-1 2:0.061258291 3:2.4446521 4:0.0085660851 
1 2:0.061102224 3:2.6170982 4:0.010940319 
-1 2:0.044250399 3:2.6384413 4:0.01159452 
-1 2:0.050529097 3:2.5806791 4:0.011085456 
1 2:0.11948851 3:2.0534372 4:0.0051209928 
-1 2:0.06410558 3:2.4334014 4:0.010304409 
1 2:0.095846901 3:2.0935037 4:0.0062608408 
1 2:0.058694841 3:2.4131589 4:0.0093203559 
-1 2:0.046138044 3:2.6099799 4:0.011785825 
1 2:0.072423966 3:2.2530703 4:0.0058864965 
-1 2:0.04119039 3:2.6510741 4:0.01203181 
-1 2:0.059112807 3:2.5615467 4:0.0098315428 
1 2:0.073195301 3:2.444757 4:0.0086026496 
-1 2:0.046593038 3:2.4940514 4:0.011357743 
1 2:0.09970775 3:1.9446087 4:0.0022325272 
-1 2:0.044561713 3:2.4978022 4:0.011472826 
-1 2:0.048876543 3:2.573666 4:0.010963938 
1 2:0.041780205 3:2.6963176 4:0.012721299 
-1 2:0.019100442 3:2.8110797 4:0.01372947 
1 2:0.058259797 3:2.4853314 4:0.0094807483 
-1 4:0.0078776629 5:0.014598527 
-1 2:0.053045408 3:2.5739742 4:0.010986205 
1 2:0.060135498 3:2.4905782 4:0.010856991 
1 2:0.048894972 3:2.644042 4:0.012011224 
-1 2:0.042350567 3:2.5983613 4:0.011882847 
-1 2:0.05136502 3:2.6012335 4:0.011541139 
-1 2:0.073501801 3:2.3737691 4:0.0084222197 
-1 1:0.021807394 2:0.098246271 3:1.6588689 
-1 2:0.083912157 3:2.3001901 4:0.0085410966 
1 2:0.070022273 3:2.50977 4:0.011200808 
1 2:0.055543062 3:2.5320865 4:0.010055573 
1 2:0.044438315 3:2.5902142 4:0.011318722 
-1 2:0.031548451 3:2.6437887 4:0.012519501 
1 2:0.073344464 3:2.4652198 4:0.0096312638 
-1 2:0.05345758 3:2.5646065 4:0.010189145 
-1 2:0.070008258 3:2.4076226 4:0.0088712719 
1 2:0.084524592 3:2.013773 4:0.0022360093 
1 2:0.072920239 3:2.163389 4:0.0043350944 
-1 2:0.04614583 3:2.6977988 4:0.012465514 
-1 2:0.066982897 3:2.3217462 4:0.0066554714 
-1 2:0.056696357 3:2.5228849 4:0.010900698 
-1 1:0.047431756 2:0.10672893 3:1.4122211 
1 1:0.10759842 2:0.18866532 3:1.3792813 
1 2:0.055934133 3:2.5481085 4:0.011972426 
-1 2:0.047177554 3:2.7108491 4:0.012294065 
-1 2:0.056170332 3:2.5862135 4:0.011018167 
1 2:0.092015915 3:2.0140339 4:0.0024648656 
-1 2:0.058515452 3:2.4872186 4:0.010249842 
-1 1:0.015407494 2:0.088894979 3:1.939831 
-1 2:0.075805972 3:2.3233883 4:0.0092852324 
1 2:0.074113129 3:2.3838017 4:0.0098196907 
-1 2:0.042637576 3:2.5796302 4:0.012003035 
-1 2:0.063695868 3:2.5643896 4:0.010057499 
1 2:0.082088162 3:2.3312316 4:0.0071774135 
-1 2:0.061053397 3:2.4595455 4:0.010116344 
-1 2:0.065240447 3:2.5854361 4:0.0099387723 
-1 2:0.069723349 3:2.5415898 4:0.0095027277 
1 2:0.082812456 3:2.1014598 4:0.0034633069 
-1 2:0.055444384 3:2.451868 4:0.0094101915 
-1 2:0.068551889 3:2.4778163 4:0.009024938 
1 2:0.055826621 3:2.7671491 4:0.012395107 
-1 2:0.060399067 3:2.6409359 4:0.011332997 
1 2:0.068794018 3:2.5751275 4:0.0099847395 
-1 2:0.067505713 3:2.4089755 4:0.0082974405 
-1 2:0.061870738 3:2.592495 4:0.011215987 
-1 2:0.062530596 3:2.7624485 4:0.011982569 
1 2:0.079967924 3:2.1458825 4:0.0032961293 
1 2:0.065964727 3:2.4316533 4:0.0090708822 
-1 2:0.054617218 3:2.5079881 4:0.010308578 
-1 2:0.067487944 3:2.5988183 4:0.010512775 
1 2:0.068896302 3:2.5715508 4:0.010290512 
-1 2:0.059068826 3:2.5698189 4:0.010262212 
1 2:0.072926289 3:2.5123881 4:0.0095738423 
1 2:0.062502668 3:2.5805116 4:0.01091202 
-1 2:0.03945509 3:2.5754679 4:0.011394639 
1 2:0.067324959 3:2.6726253 4:0.011303235 
-1 2:0.071738763 3:2.4459226 4:0.0083143449 
-1 2:0.068895719 3:2.5389039 4:0.0096128331 
1 1:0.022375435 2:0.095086815 3:2.0960891 4:0.00042171243 
1 2:0.073740155 3:2.4983828 4:0.0094159447 
1 2:0.059016833 3:2.6976341 4:0.011490501 
-1 2:0.058304817 3:2.5952452 4:0.010106004 
-1 2:0.08542803 3:2.3569736 4:0.0054896067 
-1 2:0.076374463 3:2.5416834 4:0.0097149879 
-1 2:0.075800956 3:2.6492212 4:0.0097903321 
1 2:0.11234901 3:2.5140059 4:0.0068258552 
1 2:0.088105756 3:2.1789356 4:0.0046587648 
-1 2:0.070719935 3:2.4392634 4:0.007774499 
-1 2:0.078959641 3:2.3134334 4:0.0056255481 
1 2:0.077814147 3:2.4111985 4:0.0085849059 
-1 2:0.053361102 3:2.8377933 4:0.012921747 
-1 2:0.073171907 3:2.5334925 4:0.0088815554 
1 2:0.054846947 3:2.8018233 4:0.013079208 
-1 2:0.061511212 3:2.4189151 4:0.0083775191 
-1 2:0.050457427 3:2.8498134 4:0.013568604 
1 2:0.069085455 3:2.5763315 4:0.009361683 
-1 2:0.061091521 3:2.5903685 4:0.01070141 
-1 2:0.038198067 3:3.0089913 4:0.014219089 
1 2:0.071370527 3:2.5430608 4:0.0093049699 
-1 2:0.066834549 3:2.5031272 4:0.0096352085 
-1 2:0.070436961 3:2.4778266 4:0.0091263837 
-1 2:0.072116102 3:2.5063937 4:0.0088351214 
1 2:0.078116026 3:2.753241 4:0.011604751 
1 2:0.064058122 3:2.7871675 4:0.012323375 
-1 2:0.069778253 3:2.4884537 4:0.0089937279 
-1 2:0.072071234 3:2.6137477 4:0.011372199 
1 2:0.11484638 3:2.4711497 4:0.0077472959 
1 2:0.05195222 3:2.8895128 4:0.013569659 
1 2:0.073863802 3:2.5758191 4:0.0106161 
1 2:0.072474646 3:2.4036754 4:0.0093660759 
-1 2:0.051566616 3:2.7877353 4:0.013070328 
-1 2:0.074162475 3:2.5721065 4:0.0094959573 
-1 2:0.06401294 3:2.8657379 4:0.013110127 
1 2:0.063663578 3:2.9255901 4:0.013348266 
1 2:0.08055131 3:2.5569233 4:0.010289758 
-1 2:0.046204258 3:2.8251057 4:0.013878829 
-1 2:0.053082351 3:2.8606383 4:0.013490642 
-1 2:0.070329732 3:2.5518639 4:0.010264461 
-1 2:0.077282375 3:2.5649918 4:0.010168845 
1 2:0.09737917 3:2.6345627 4:0.0093095651 
-1 2:0.091106836 3:2.4716586 4:0.0079930861 
-1 2:0.061556056 3:2.9278272 4:0.013568573 
-1 2:0.049519233 3:2.8824429 4:0.013839116 
1 2:0.085591094 3:2.6090915 4:0.0097830755 
-1 2:0.041943974 3:2.953689 4:0.014236725 
-1 2:0.021994731 4:0.014964502 
-1 2:0.08713061 3:2.4759468 4:0.0088462201 
-1 2:0.08827145 3:2.4757268 4:0.0089235596 
-1 2:0.078230996 3:2.558751 4:0.0095618999 
-1 2:0.082860444 3:2.4842312 4:0.0089935251 
1 2:0.092740696 3:2.654381 4:0.010288535 
1 2:0.093144081 3:2.5206638 4:0.0082074983 
-1 2:0.070980736 3:2.6422065 4:0.010948031 
1 2:0.1188685 3:2.7891773 4:0.011091958 
-1 2:0.066421301 3:2.831929 4:0.012954819 
1 2:0.089095236 3:2.3515006 4:0.0065004997 
-1 2:0.079604918 3:2.2318603 4:0.0063700898 
-1 2:0.086506488 3:2.4588503 4:0.0079762397 
1 2:0.06716024 3:2.7679556 4:0.012711153 
-1 2:0.0714242 3:2.5850912 4:0.010002086 
-1 2:0.071222752 3:2.6126616 4:0.010511774 
1 2:0.055470153 3:2.9441913 4:0.013721324 
-1 2:0.044762242 3:3.0671096 4:0.014414998 
-1 2:0.10020128 3:2.4668324 4:0.0078547325 
-1 2:0.082645007 3:2.7401909 4:0.01197616 
1 2:0.10432853 3:2.6787946 4:0.0095863888 
-1 2:0.063339847 3:3.0853078 4:0.0140522 
-1 2:0.10481632 3:2.6265744 4:0.0096615166 
1 2:0.13961267 3:2.5106659 4:0.0072706312 
1 2:0.096086563 3:2.1902021 4:0.0049534647 
-1 2:0.082529617 3:2.5948383 4:0.010015886 
-1 2:0.094527775 3:2.6358175 4:0.0096194209 
1 2:0.09644552 3:2.6935708 4:0.01039037 
-1 2:0.077683143 3:2.7719741 4:0.012445807 
-1 2:0.092697863 3:2.6155738 4:0.010925962 
1 2:0.093403978 3:2.5732472 4:0.010015135 
-1 2:0.065922327 3:2.7934126 4:0.012926944 
-1 2:0.093421521 3:2.6566192 4:0.010020129 
1 2:0.10477588 3:2.5756298 4:0.0092768278 
-1 2:0.054145682 3:2.9441548 4:0.014035271 
1 2:0.1148646 3:2.6694703 4:0.0093936998 
-1 2:0.064623995 3:2.8412655 4:0.013507996 
1 2:0.084939718 3:2.6805742 4:0.011081268 
1 2:0.078270564 3:2.7519137 4:0.011427415 
-1 2:0.075016393 3:2.7691027 4:0.011684269 
1 2:0.077096583 3:2.8250478 4:0.012683145 
-1 2:0.082233697 3:2.6448727 4:0.01087318 
1 2:0.084723673 3:2.6161771 4:0.011244792 
-1 2:0.083284454 3:2.479014 4:0.0090221665 
1 2:0.083089224 3:2.7883788 4:0.011855243 
-1 2:0.055848353 3:3.0887059 4:0.014380609 
1 2:0.089448351 3:2.7456433 4:0.011281194 
-1 2:0.079726456 3:2.6252222 4:0.011010423 
1 2:0.088618743 3:2.7791667 4:0.012282065 
1 2:0.087756826 3:2.7343198 4:0.011004668 
-1 2:0.077899973 3:2.7791284 4:0.012037104 
-1 2:0.089010213 3:2.6819073 4:0.010561146 
-1 2:0.089001259 3:2.6893234 4:0.010973235 
1 2:0.13698415 3:2.7855352 4:0.01069349 
-1 2:0.086555269 3:2.8368938 4:0.01219714 
1 2:0.097604454 3:2.8037793 4:0.01165704 
-1 2:0.07878252 3:2.7218143 4:0.011987933 
1 2:0.11341206 3:2.6021659 4:0.0098771681 
-1 2:0.061445362 3:3.0379808 4:0.014499512 
1 2:0.16222188 3:2.7216994 4:0.0097107741 
-1 2:0.077334348 3:2.9356956 4:0.013754348 
-1 2:0.093093697 3:2.762112 4:0.011538417 
1 1:0.13374236 2:0.064641774 5:0.0013472045 
-1 1:0.1350677 2:0.065224323 5:0.001169638 
-1 1:0.1277931 2:0.074531983 
-1 1:0.12733313 2:0.074842984 
-1 1:0.13325926 2:0.065162381 5:0.0010957315 
-1 1:0.12821268 2:0.074072123 
-1 1:0.12980938 2:0.07189905 5:7.7025344e-05 
-1 1:0.13374929 2:0.069686309 5:0.00058426354 
-0.364900637034398 1:0.089071036 2:0.058446567 3:1.2448158 
-1 1:0.084993173 2:0.055615698 3:1.214319 
-1 1:0.081417687 2:0.059478076 3:1.2645912 
-1 1:0.076501918 2:0.064270454 3:1.2749654 
-1 1:0.074401172 2:0.064524398 3:1.3048395 
1 1:0.089457046 2:0.050981147 3:1.0764536 
1 1:0.069632217 2:0.064140063 3:1.2723535 
-1 1:0.06914942 2:0.058707548 3:1.2515173 
1 1:0.068112193 2:0.064442523 3:1.2709901 
-1 1:0.070508334 2:0.053161807 3:1.1579649 
1 1:0.057794123 2:0.071039986 3:1.3735087 
-1 1:0.063465378 2:0.059315247 3:1.2455691 
-1 1:0.060179225 2:0.05993224 3:1.2282571 
1 1:0.057724592 2:0.065039667 3:1.2270034 
-1 1:0.063067274 2:0.054250374 3:1.1859913 
1 1:0.072649755 2:0.062175524 3:1.0943562 
-1 1:0.076686073 2:0.043538838 3:0.97399997 
1 1:0.043424598 2:0.067375226 3:1.3275024 
-1 1:0.053282702 2:0.060194817 3:1.2393446 
-1 1:0.057696828 2:0.064563181 3:1.2258849 
-1 1:0.05718632 2:0.065030959 3:1.203651 
1 1:0.066751481 2:0.062418019 3:1.1264721 
-1 1:0.072546592 2:0.052238703 3:1.0706422 
1 1:0.07323172 2:0.057084878 3:0.97499674 
-1 1:0.079475278 2:0.060899417 3:1.0431034 
1 1:0.083925737 2:0.051431788 3:0.91698583 
-1 1:0.068503175 2:0.055998737 3:1.0245527 
1 1:0.068670724 2:0.066083626 3:0.98486285 
-1 1:0.074052418 2:0.063438449 3:1.0131183 
1 1:0.084799401 2:0.058918451 3:0.89081391 
-1 1:0.080300948 2:0.063408407 3:1.0154546 
-1 1:0.080077151 2:0.059140999 3:0.97146026 
1 1:0.086862541 2:0.055330632 3:0.90768556 
-1 1:0.068262992 2:0.065738019 3:1.0820519 
1 1:0.10195739 2:0.041133746 3:0.74142902 5:0.00028089458 
-1 1:0.10413087 2:0.043213317 3:0.78133429 
1 1:0.10250465 2:0.051785789 3:0.71002238 
-1 1:0.066395387 2:0.06118444 3:1.0305819 
-1 1:0.095067636 2:0.038974519 3:0.76173626 5:6.0138091e-05 
-1 1:0.035950441 2:0.072787545 3:1.2476529 
1 1:0.084845392 2:0.051087591 3:0.82473604 
1 1:0.088518149 2:0.040575044 3:0.74344804 
-1 1:0.082028565 2:0.051332832 3:0.88947384 
-1 1:0.095035281 2:0.050843729 3:0.82366887 
1 1:0.0785277 2:0.063360968 3:0.90299699 
-1 1:0.027616569 2:0.080773594 3:1.399496 
1 1:0.09456369 2:0.052731394 3:0.83085672 
-1 1:0.080192659 2:0.054455842 3:0.97164395 
1 1:0.096933098 2:0.056000197 3:0.85815479 
-1 1:0.085722675 2:0.050327719 3:0.96241672 
-1 1:0.084670258 2:0.060068037 3:1.0149265 
-1 1:0.078100567 2:0.062778918 3:1.0380397 
-1 1:0.096666662 2:0.046704698 3:0.80780661 
1 1:0.093255846 2:0.059063003 3:0.89496162 
1 1:0.092124888 2:0.054546755 3:0.9207343 
-1 1:0.085133961 2:0.036413252 3:0.76378316 
1 1:0.053627369 2:0.076508597 3:1.240903 
-1 2:0.0033855659 3:2.7309702 4:0.0049775753 
-1 1:0.065678596 2:0.055814928 3:1.0169989 
-1 1:0.080175943 2:0.060348131 3:0.99651681 
-1 1:0.10849466 2:0.042364385 3:0.79153687 
-1 1:0.08630802 2:0.06266082 3:1.039184 
1 1:0.10198026 4:0.00072787444 5:0.015486074 
-1 1:0.076850687 2:0.055114666 3:0.98579406 
-1 1:0.066298903 2:0.06450098 3:1.1164547 
-1 1:0.065104647 2:0.069254927 3:1.1437828 
1 1:0.097559649 2:0.060879668 3:0.88354394 
1 1:0.061696172 2:0.066181347 3:1.0234609 
-1 1:0.089958903 2:0.049854483 3:0.88891466 
-1 1:0.055613075 2:0.078785583 3:1.2695144 
1 1:0.092724848 2:0.053998511 3:0.93896472 
-1 2:0.0055264538 3:2.5436854 4:0.0027654428 
1 1:0.096545223 2:0.059002001 3:0.97078731 
-1 1:0.062729378 2:0.07307972 3:1.1910899 
1 1:0.042184253 2:0.080557382 3:1.343708 
1 1:0.077866303 2:0.056450854 3:1.1164494 
1 1:0.030592226 2:0.063437341 3:1.5862766 
-1 2:0.0442025 3:1.8121302 
-1 1:0.10116186 2:0.026462372 3:0.71302158 5:0.00058768979 
1 2:0.051024804 3:2.1383935 
1 2:0.020684485 3:2.1706816 
1 1:0.0019853804 2:0.017979275 3:2.5869352 4:0.0019359784 
-1 2:0.012833046 3:2.529508 4:0.0014772603 
-1 2:0.041364122 3:2.6430808 4:0.0035420633 
1 1:0.069628727 2:0.062262297 3:1.141428 
-1 1:0.061424637 2:0.063530759 3:1.1954864 
-1 1:0.067708448 2:0.057993313 3:1.1010754 
1 1:0.12230783 5:0.013762913 
