svm_type epsilon_svr
kernel_type linear
nr_class 2
total_sv 632
rho 0.00131187
SV
-1 2:0.01676097 4:0.015094687 
-1 2:0.019535637 4:0.014997047 
-1 2:0.014263574 4:0.015167861 
-1 2:0.014187335 4:0.015201488 
-1 2:0.012006163 4:0.01525799 
-1 2:0.0084815471 4:0.015422329 
-1 2:0.012055059 4:0.015273809 
-1 2:0.01008573 4:0.015346809 
1 2:0.013693799 4:0.015205475 
1 3:1.9647199 4:0.014833478 5:0.0034655857 
1 3:1.9350909 4:0.014869859 5:0.0028397257 
1 3:1.7937771 4:0.014943395 5:0.0023215223 
1 2:0.015606302 3:1.4167125 4:0.014702904 
1 3:1.709812 4:0.015070731 5:0.00068040818 
1 3:1.5631336 4:0.015095059 
1 3:1.6354177 4:0.015110108 5:0.00034745854 
1 2:0.0025600257 3:1.5534853 4:0.015118691 
1 1:0.18459912 5:0.0093351908 
1 1:0.18372822 5:0.0093166227 
1 1:0.18481996 5:0.0091421727 
1 1:0.18230241 5:0.0094830372 
1 1:0.18545039 5:0.0092937428 
1 1:0.18409103 5:0.0092739405 
1 1:0.18451383 5:0.0092211129 
-1 1:0.1826487 5:0.0091042019 
-1 1:0.1272429 3:0.66619519 5:0.0094648572 
-1 1:0.11847182 2:0.0023542599 3:0.66315795 5:0.0093063184 
-1 1:0.11061907 2:0.005462071 3:0.68839902 5:0.0093388284 
-1 1:0.10385102 2:0.007575812 3:0.66219484 5:0.0095521863 
-1 1:0.099966531 2:0.010134535 3:0.66428236 5:0.0095016517 
-1 1:0.097026769 2:0.00971177 3:0.65436975 5:0.0097682428 
-1 1:0.09282386 2:0.01479403 3:0.67984501 5:0.0091540141 
-1 1:0.095143148 2:0.011191709 3:0.65469833 5:0.010069933 
-1 1:0.092809773 2:0.012578615 3:0.62286784 5:0.0098733105 
-1 1:0.09281519 2:0.012955136 3:0.58208174 5:0.0094751141 
-1 1:0.095392767 2:0.011555715 3:0.5548835 5:0.0094803822 
-1 1:0.10012643 2:0.017628903 3:0.61393401 5:0.008337025 
-1 1:0.096999037 2:0.013116693 3:0.58281639 5:0.0088032797 
-1 1:0.095780914 2:0.0079994364 3:0.52231592 5:0.0095872047 
-1 1:0.095946319 2:0.011399012 3:0.53122563 5:0.0089290476 
-1 1:0.09542088 2:0.011667274 3:0.53245163 5:0.0084875263 
-1 1:0.096981412 2:0.0048360108 3:0.43480865 5:0.0090473105 
-1 1:0.10058521 2:0.0031676568 3:0.42969418 5:0.0090166512 
-1 1:0.093763547 2:0.0066069183 3:0.43112274 5:0.0084531196 
-1 1:0.096145955 2:0.0091452059 3:0.45191968 5:0.0079317564 
-1 1:0.10481687 2:0.014611095 3:0.500323 5:0.0067151955 
-1 1:0.10111466 2:0.0021755667 3:0.38232772 5:0.0084117449 
-1 1:0.093162202 2:0.011577691 3:0.46888521 5:0.0067963373 
-1 1:0.095541973 2:0.014751878 3:0.48337929 5:0.006156114 
-1 1:0.092188386 2:0.0075912153 3:0.4196953 5:0.007157739 
-1 1:0.093628918 2:0.00048967637 3:0.33847176 5:0.007763889 
-1 1:0.10935305 2:0.016597914 3:0.42487276 5:0.0050744031 
-1 1:0.1075978 2:0.023327891 3:0.53952472 5:0.0037221584 
-1 1:0.10822476 2:0.038821246 3:0.60934498 5:0.0016553935 
-1 1:0.1083384 2:0.02353517 3:0.42298459 5:0.0037924565 
-1 1:0.078982178 2:0.0074485336 3:0.34921681 5:0.0058906065 
-1 1:0.10677147 2:0.013036003 3:0.3123477 5:0.0049535094 
-1 1:0.10177991 2:0.013958983 3:0.30115784 5:0.0047124251 
-0.9617385942074149 1:0.15337362 2:0.041727387 3:0.36320634 5:0.0019148716 
-1 1:0.099567148 2:0.062859191 3:0.62540565 
-1 1:0.086354683 2:0.074682221 3:0.7407482 
-1 1:0.080546065 2:0.070861369 3:0.77907085 
1 1:0.039638288 5:0.015841879 
-0.6757983389118305 1:0.10411111 2:0.06827359 3:0.60233458 
1 2:0.027297809 3:2.7535957 4:0.0085561001 
1 1:0.10455694 5:0.0029806874 
1 1:0.10362938 5:0.0025466127 
1 1:0.10668277 5:0.0025009117 
1 1:0.10581783 5:0.0027457601 
1 1:0.10489864 5:0.0029705446 
1 1:0.10247758 5:0.0032881669 
1 1:0.09940739 5:0.0036878711 
1 1:0.10334729 5:0.003501297 
1 1:0.10348921 5:0.0029504816 
1 1:0.10780427 5:0.0026354969 
-1 1:0.099733893 5:0.0039950159 
-0.2058732806607185 1:0.064499889 3:1.433486 5:0.0093146678 
0.01044977496970646 2:0.057079115 4:0.0057762431 
1 4:0.011050192 5:0.00012500781 
-1 1:0.023377986 2:0.0935353 
1 2:0.053378324 3:0.026825156 4:0.0022044253 
1 2:0.052596794 4:0.0019191033 
1 2:0.056119597 3:0.013569457 4:0.0027116121 
1 1:0.0014080897 2:0.050959245 4:0.0010239181 
1 1:0.0094685605 2:0.052185845 3:0.025210005 4:0.00030673101 
1 2:0.052956277 4:0.0019231767 
1 1:0.0040778889 2:0.051096566 4:0.00089118936 
1 1:0.0013750774 2:0.049704774 3:0.065983959 4:0.0017942436 
1 2:0.056103423 3:0.14170627 4:0.0042647861 
1 2:0.057520457 3:0.17057673 4:0.0049802304 
1 2:0.057005504 3:0.12158922 4:0.0037899152 
1 2:0.055841441 3:0.076864095 4:0.0045573897 
1 2:0.049592427 4:0.0016066698 
1 2:0.053336543 3:0.029592347 4:0.0034475326 
1 2:0.054340207 3:0.073060183 4:0.0025083518 
1 1:0.0049061459 2:0.050814565 4:0.0010446148 
1 1:0.021696717 2:0.04763602 3:0.025488524 
1 2:0.052257857 3:0.044751026 4:0.0030838519 
1 1:0.0056766697 2:0.050616047 3:0.088021238 4:0.0016400512 
1 1:0.01436744 2:0.050544393 
1 2:0.05165207 3:0.055631578 4:0.0022978968 
1 2:0.049441846 3:0.0065836073 4:0.0020617705 
1 1:0.0035938152 2:0.046142055 4:0.00071868065 
1 1:0.012708718 2:0.054235289 3:0.048827387 4:0.00069172422 
-1 1:0.060052956 
0.9713374576823673 1:0.042792636 2:0.053322815 3:0.14766276 4:5.4182927e-05 
-1 1:0.00065756128 3:3.0600807 4:0.013359336 5:0.016478111 
-1 3:3.0421945 4:0.013651914 5:0.01623654 
-1 3:3.0337808 4:0.013788039 5:0.016121104 
-1 3:3.0561968 4:0.013423234 5:0.016426101 
-1 3:3.0370382 4:0.013735452 5:0.016165932 
-1 3:3.0432703 4:0.013634439 5:0.016251218 
-1 3:3.0419492 4:0.013655897 5:0.01623319 
-1 3:3.0288178 4:0.013867878 5:0.016052475 
-1 3:3.027995 4:0.013881081 5:0.016041059 
-1 1:0.0085013791 2:0.064668472 3:1.4090755 
-1 2:0.067353646 3:1.331775 
-0.6531490485325393 2:0.068876011 3:1.3007152 
-0.04944164376197208 2:0.065413838 3:1.0926613 5:0.0012839566 
-1 2:0.070296225 3:1.1731422 
1 1:0.099170044 2:0.044020904 3:2.3153474 
1 1:0.10550952 2:0.043970925 3:2.3161335 
-1 1:0.075898327 2:0.054418186 3:2.4106803 
-1 1:0.056570391 2:0.038908662 
1 1:0.035077609 2:0.073228797 
1 3:1.7592708 4:0.0061346431 5:0.014730308 
1 4:0.006464646 5:0.013574616 
1 4:0.0070620889 5:0.013244175 
1 4:0.0064096206 5:0.013659576 
1 4:0.0076156527 5:0.01297623 
1 2:0.046726333 4:0.00050097838 
1 4:0.0073410085 5:0.013081291 
-1 1:0.020036802 2:0.095605343 
-1 1:0.014027782 2:0.069515626 
-1 1:0.0071436262 2:0.06433239 
-1 2:0.058261983 
1 2:0.056435775 
1 2:0.054591411 
1 2:0.055752302 4:0.00031417149 
1 2:0.058951298 4:0.002067997 
1 2:0.053804473 
1 2:0.053127258 
1 2:0.058240272 4:0.0011184817 
-1 2:0.0047505461 3:1.7060891 4:0.018358338 5:0.0055908108 
-1 3:1.795276 4:0.018466823 5:0.0064460867 
-1 2:0.050342361 3:0.82546659 4:0.015697442 
-1 3:1.9722145 4:0.015066836 5:0.010730384 
-1 1:0.036877304 3:1.9765643 4:0.0066223591 5:0.020153024 
1 1:0.042079626 3:0.44458265 4:0.0030028064 5:0.0182247 
0.2120921529011756 1:0.033144295 3:0.066503444 4:0.0061725969 5:0.016193048 
1 1:0.042705954 4:0.0055994541 5:0.015138752 
1 1:0.050192193 4:0.0060539951 5:0.014188199 
1 1:0.054805723 4:0.0087761022 5:0.012170202 
1 1:0.052130336 4:0.0076596791 5:0.01292622 
1 1:0.071421261 4:0.0091012651 5:0.011955846 
1 1:0.052782563 4:0.0099816289 5:0.011333929 
-1 3:2.0935869 4:0.020432355 
-1 3:2.104522 4:0.02049349 
-1 3:2.0920903 4:0.020423798 
-1 3:2.1058326 4:0.020500653 
-1 3:2.0955672 4:0.020443608 
-1 3:2.0964193 4:0.020448425 
-1 3:2.0993475 4:0.020464866 
1 3:2.0868826 4:0.020393665 
1 4:0.020464941 
1 4:0.02002072 
1 4:0.019162534 
1 4:0.016961171 
1 4:0.016464556 
1 4:0.015987411 5:0.0022772713 
-1 2:0.11013838 4:0.013364247 
-1 2:0.10902862 4:0.013598622 
-1 2:0.10933114 4:0.01407239 
-1 2:0.10992379 4:0.013718217 
-1 2:0.11043705 4:0.013254518 
-1 2:0.10941619 4:0.013483951 
1 2:0.10986928 4:0.013695396 
1 2:0.073991778 3:1.9779213 4:0.015275609 
1 2:0.067822329 3:1.9299085 4:0.014210218 
1 2:0.10040249 4:0.0088745344 
1 1:0.017981446 2:0.063988775 3:1.3215412 4:0.010970331 
-1 2:0.076065002 4:0.014221379 
-1 2:0.076682826 4:0.014135711 
-1 2:0.077274823 4:0.014101612 
-1 2:0.076528965 4:0.014144857 
-1 2:0.076675073 4:0.014130467 
-1 2:0.077069887 4:0.014139709 
-1 2:0.077117749 4:0.014135936 
-1 2:0.077407173 4:0.01415973 
-1 2:0.07703508 4:0.014135843 
1 2:0.067745672 3:1.8047713 4:0.015388892 
-1 4:0.019423662 5:0.0085276823 
-1 4:0.019212165 5:0.0089940371 
-1 4:0.019297896 5:0.0088085874 
-1 4:0.019255205 5:0.0089015211 
-1 4:0.019138909 5:0.0091488895 
-1 4:0.019008887 5:0.0094160614 
-1 4:0.019200167 5:0.0090196228 
1 4:0.019274574 5:0.0088595033 
-1 3:0.69928161 4:0.019163286 5:0.0090977186 
1 2:0.0012479943 3:0.65274585 4:0.01820304 5:0.0062079221 
-1 1:0.12961181 2:0.00928693 
1 1:0.23363511 3:2.6672302 
1 1:0.23257655 3:2.6711993 
1 1:0.23303434 3:2.6517534 
1 1:0.23481838 3:2.6668748 
1 1:0.23620801 3:2.6704911 
1 1:0.23880072 3:2.6775423 
1 1:0.23388077 3:2.6701676 
-1 1:0.23618127 3:2.6691191 
-1 1:0.18893962 3:2.1382396 
-1 1:0.17996756 3:2.1358554 
-1 1:0.17357108 3:2.1441669 
-1 1:0.16693745 3:2.1520737 
-1 1:0.1632838 3:2.1602277 
-1 1:0.15584934 3:2.1434657 
-1 1:0.15337117 3:2.1492605 
-1 1:0.15805291 3:2.1713628 
-1 1:0.15727794 3:2.174587 
-1 1:0.15885616 3:2.1966982 
-1 1:0.1609536 3:2.1923109 
-0.942576889959476 1:0.16201461 3:2.2119778 
-1 1:0.16232504 3:2.3068288 5:0.0011920096 
-1 1:0.17363458 3:2.2967554 5:0.00081817902 
-1 1:0.17552744 3:2.2814715 5:0.0019436076 
-1 1:0.1645966 3:2.2651138 5:0.0023589743 
-1 1:0.17518813 3:2.322018 5:0.0017076069 
-0.6409642342539198 1:0.17024342 3:2.2765046 5:0.0026324145 
-1 1:0.17176787 3:2.2479165 5:0.0026487763 
-1 2:0.043363576 4:0.015776653 5:0.00053953526 
-1 2:0.044397414 4:0.015795515 5:0.00045698543 
-1 2:0.044766395 4:0.01580801 5:0.00045489592 
-1 2:0.044751855 4:0.015805399 5:0.00045901262 
-1 2:0.045888612 4:0.015797362 5:0.00037428004 
-1 2:0.043390017 4:0.015785178 5:0.00049739789 
1 2:0.038970928 3:0.001400833 4:0.015801487 5:0.00089226156 
0.9972747558792732 2:0.053803347 3:3.0199256 4:0.014530359 
1 2:0.051816431 3:3.0375751 4:0.014498336 
1 2:0.048027911 3:3.0623347 4:0.014554689 
1 2:0.043026751 3:3.1201167 4:0.01465457 
1 2:0.042876751 3:3.0661538 4:0.014572442 
1 2:0.048660933 3:2.9895222 4:0.014504254 
1 2:0.045368908 3:3.0413872 4:0.014443488 
1 2:0.051732617 3:3.0447583 4:0.014439213 
1 2:0.053069246 3:3.0537608 4:0.014300801 
1 2:0.051487537 3:3.0299078 4:0.014350976 
1 2:0.041173195 4:0.014685096 
1 2:0.047792469 3:3.0153606 4:0.014461782 
1 2:0.048167424 3:3.029266 4:0.014431061 
1 2:0.04633243 3:3.0426029 4:0.014416461 
1 2:0.050776899 3:3.0211749 4:0.014301355 
1 2:0.044077404 3:3.0474092 4:0.014523775 
1 2:0.049299267 3:3.0419121 4:0.014390045 
1 2:0.050908204 3:3.0389945 4:0.01430007 
1 2:0.050893799 3:3.0385176 4:0.014247386 
1 2:0.045238904 3:3.065859 4:0.014617171 
1 2:0.056419591 3:2.993522 4:0.014134749 
0.335972774562153 2:0.040969247 3:3.0545947 4:0.014773467 
1 2:0.051083165 3:3.0891592 4:0.014330028 
1 2:0.047140383 3:3.0590506 4:0.014505364 
1 2:0.049984376 3:3.0357646 4:0.014302172 
1 2:0.03767839 3:3.0729744 4:0.01489765 
1 2:0.054288632 3:2.9673521 4:0.014145715 
1 2:0.052973911 3:2.9694636 4:0.014293651 
1 2:0.047542847 3:3.0500898 4:0.014460285 
1 2:0.047757847 3:3.0014642 4:0.01432177 
1 2:0.052937044 3:3.0249991 4:0.014271251 
1 2:0.054574025 3:2.9813803 4:0.014204082 
1 2:0.05555007 3:3.0512506 4:0.014249605 
1 2:0.058891264 3:2.9801619 4:0.014062729 
1 2:0.056867442 3:2.9422001 4:0.01396298 
1 2:0.053245356 3:2.9723052 4:0.014166255 
1 2:0.06059971 3:2.9213058 4:0.013981737 
1 2:0.059267183 3:2.9985437 4:0.014287247 
1 2:0.057721732 3:2.9069184 4:0.014296624 
1 2:0.063693411 3:2.8857802 4:0.013961206 
1 2:0.06548864 3:2.8793122 4:0.013972512 
1 2:0.06725342 3:2.842406 4:0.013816849 
1 2:0.063922787 3:2.8942014 4:0.014039328 
1 2:0.062363413 3:2.8513409 4:0.014030971 
1 2:0.059261238 3:2.8700872 4:0.014400254 
1 2:0.062843985 3:2.8893888 4:0.013511272 
1 2:0.067379881 3:2.8597815 4:0.013793297 
0.6055070090539344 2:0.063621002 3:2.8498605 4:0.013734433 
1 1:0.11020119 5:0.0031119498 
1 1:0.11138042 5:0.0028790241 
1 1:0.10536298 5:0.0035991568 
1 1:0.1099233 5:0.0036752809 
1 1:0.11185483 5:0.0031489441 
-1 1:0.11380706 5:0.0030954956 
-1 1:0.073428008 3:2.0195276 5:0.0087534448 
-1 1:0.079214141 3:1.9970539 5:0.008088451 
-0.1833675387234821 1:0.051756515 3:1.932406 5:0.0093253173 
-1 1:0.038381373 3:1.9187955 5:0.0094326833 
-0.7457978234401195 1:0.041324148 3:1.8035957 5:0.0093984338 
-1 3:1.7602459 5:0.013074239 
-1 1:0.14722569 3:1.7054621 5:0.0046041329 
-0.1256787016819001 1:0.12169711 3:1.7141873 5:0.0063217425 
1 2:0.051890847 4:0.011189101 
-1 1:0.052401333 3:2.2208372 5:0.008437927 
1 2:0.090744969 4:0.0083843282 
1 2:0.07103305 3:0.30498807 4:0.0070462955 
1 2:0.052294715 4:0.0051037211 
1 2:0.05642836 4:0.0047392635 
1 2:0.055623674 4:0.0042819315 
1 2:0.053895818 4:0.0054089904 
1 2:0.044320872 4:0.004791935 
1 1:0.027513721 2:0.045925581 4:0.0005998595 
1 3:0.10198254 4:0.010386851 
1 1:0.031345827 2:0.054460496 4:0.0011004269 
-1 1:0.21166528 
1 1:0.021374627 2:0.042361853 4:0.0027008386 
1 1:0.0058859845 2:0.049002051 4:0.0045623391 
1 1:0.023165769 2:0.036893856 4:0.0032638151 
1 1:0.019444864 2:0.05004391 4:0.0031309383 
1 1:0.082412625 2:0.056854187 4:0.0014579053 
1 1:0.13070256 2:0.080947453 3:0.1241116 4:0.0044055327 
1 1:0.1207925 2:0.054820876 4:4.1050704e-05 
-1 1:0.019078625 2:0.076121615 3:3.0529242 
1 1:0.016917737 2:0.058868125 3:0.68887399 4:0.00055983524 
1 1:0.067434317 2:0.055316317 3:0.52319489 
0.3992311902489104 1:0.15004479 2:0.050895271 3:0.61443467 
0.7006823609657106 1:0.025712145 2:0.068043044 3:0.69485543 4:0.0037913824 
-0.4673662510449486 3:1.7499474 4:0.011264163 5:0.017680481 
-1 1:0.0063315035 3:1.78832 4:0.009911386 5:0.017933347 
1 1:0.0054085583 3:1.786313 4:0.010024137 5:0.017932414 
-1 2:0.11424257 4:0.0096559688 
-1 2:0.11479681 4:0.0094182517 
-1 2:0.11608138 4:0.0093578171 
-1 2:0.11537832 4:0.0093955239 
-1 2:0.11573344 4:0.0093642951 
-1 2:0.11473681 4:0.0095177348 
-1 2:0.11516147 4:0.0094513511 
-0.6571449851321702 2:0.11696793 4:0.0091729218 
1 2:0.1154877 4:0.0094608104 
-1 1:0.094310524 2:0.051812479 3:0.55942736 
1 2:0.0096083875 3:3.0848869 4:0.01495375 
-1 2:0.074847549 4:0.010846132 
-1 2:0.070233326 4:0.011775968 
-1 2:0.070393201 4:0.01187299 
-1 2:0.074533521 4:0.010796836 
-1 2:0.074954498 4:0.011007617 
-1 2:0.074391875 4:0.011147109 
-1 2:0.072967683 4:0.011078778 
-1 2:0.069774472 4:0.012128969 
-1 2:0.073825933 4:0.010529375 
-1 2:0.078932863 4:0.010668115 
-1 2:0.081221818 4:0.010255745 
-1 2:0.077532882 4:0.011238187 
1 1:0.14569469 2:0.042053941 
1 1:0.14331858 2:0.051505584 
1 1:0.14277226 2:0.054979767 
1 1:0.14352195 2:0.053834767 
1 1:0.14302739 2:0.054307668 
1 1:0.15261685 2:0.029961674 
1 1:0.15146293 2:0.035621433 
1 1:0.14274105 2:0.054924492 
-1 1:0.14531178 2:0.052532796 
-1 1:0.071410259 2:0.03589518 
-1 1:0.074741607 2:0.027236656 
-1 1:0.067794425 2:0.017929056 
-1 1:0.048390939 2:0.027301079 
-1 1:0.049662291 2:0.0295004 
-1 1:0.053363166 2:0.026196474 
-1 1:0.052831758 2:0.034446996 
-1 1:0.048670508 2:0.030669982 
-1 1:0.052150623 2:0.030157676 
-1 1:0.035103392 2:0.044377347 
-1 1:0.049066833 2:0.056072319 
-1 1:0.038064122 2:0.044508489 
-1 1:0.054132319 2:0.0068013968 3:2.9772913 
-1 1:0.062373193 2:0.012374233 3:3.0177438 
1 2:0.062486594 4:0.00060940473 
-1 1:0.052400268 2:0.016400186 
-1 1:0.064372216 2:0.01720462 3:2.9935429 
-1 1:0.061552588 2:0.015932962 3:2.95387 
-1 1:0.057101712 2:0.017220057 
0.7479021067575462 1:0.043329279 3:3.131115 5:0.013722211 
-1 1:0.039558998 3:3.1119647 5:0.013911114 
-1 1:0.075537102 2:0.071346182 3:2.5481017 
-1 1:0.054337715 2:0.060849049 3:0.22317162 
-1 1:0.049192789 2:0.063758627 3:0.31031814 
-1 1:0.046991773 2:0.069324114 3:0.35287148 
-1 1:0.044576588 2:0.069024199 3:0.35622156 
-0.5414744357399793 1:0.040443568 2:0.072023817 3:0.35061063 
-0.07633341740206133 1:0.039383761 2:0.072211129 3:0.383586 
-1 1:0.036969066 2:0.078308356 3:0.39311788 
-1 1:0.040863873 2:0.059439897 3:0.39355516 
-1 1:0.039070321 2:0.075771511 3:0.37432384 
-1 1:0.037466452 2:0.0775036 3:0.41112586 
-1 1:0.041701663 2:0.066577605 3:0.30857866 
1 1:0.12861274 3:2.9773245 5:0.014654658 
1 1:0.13358853 3:3.0385641 5:0.013981503 
1 1:0.12982648 3:2.9987181 5:0.014608089 
1 1:0.13046849 3:2.977517 5:0.01461194 
1 1:0.13509866 3:3.0375585 5:0.013879669 
1 1:0.13708539 3:3.0649972 5:0.013610853 
1 1:0.13024314 3:2.9801482 5:0.014641116 
-1 1:0.088581046 3:2.6133307 5:0.01738463 
-1 1:0.061437671 3:1.1767809 5:0.010977421 
1 4:0.0092916734 5:0.011886635 
1 2:0.044063782 4:0.0078153661 
1 4:0.014697311 
1 2:0.067440566 
1 2:0.07111278 
0.6890008401728074 2:0.072526848 
1 1:0.11291346 2:0.060141543 4:0.0017735376 5:0.0011298406 
-1 4:0.01199602 5:0.0090170405 
-1 4:0.01341927 5:0.0067041488 
-1 4:0.013263243 5:0.0070063011 
-1 4:0.011677437 5:0.0094215596 
-1 4:0.011415539 5:0.009744253 
-1 4:0.011379576 5:0.0097774173 
-1 4:0.012880495 5:0.007689273 
-1 4:0.01310053 5:0.0073058973 
-1 4:0.011286293 5:0.0098819636 
-1 4:0.012376067 5:0.0084766221 
1 4:0.011293087 5:0.0098784362 
1 3:2.9787309 4:0.012013574 5:0.0090738637 
1 4:0.010974049 5:0.010256196 
1 4:0.011277209 5:0.0098989679 
1 3:3.0507762 4:0.0122679 5:0.0086429923 
1 3:3.044077 4:0.011515515 5:0.0096219055 
1 3:3.0180306 4:0.012584471 5:0.0081681729 
1 4:0.010735881 5:0.010476888 
1 3:2.9778372 4:0.012358238 5:0.0085271071 
1 3:2.8822934 4:0.012478928 5:0.0083802793 
1 4:0.0091465305 5:0.011889021 
1 4:0.01108013 5:0.01012038 
1 3:2.897442 4:0.011055844 5:0.01019443 
1 3:2.9823709 4:0.011974019 5:0.0090775275 
1 4:0.0084725382 5:0.012403361 
0.8466846454192302 3:3.0994299 4:0.010690822 5:0.010571435 
1 3:2.9285238 4:0.0078929727 5:0.012764285 
0.3639212783829186 3:2.7090371 4:0.011415646 5:0.0097341132 
1 1:0.14910587 5:0.0066616761 
1 1:0.15197152 5:0.0058171398 
1 1:0.14965667 5:0.0064542392 
1 1:0.14979214 5:0.006692991 
1 1:0.15069097 5:0.0061727577 
1 1:0.14748702 5:0.0076728351 
1 1:0.14965052 5:0.0068843607 
1 1:0.14588942 5:0.0077944623 
1 1:0.15022552 5:0.006849979 
1 1:0.15235162 5:0.006570654 
1 1:0.14957279 5:0.0073717872 
-1 1:0.14702511 5:0.0093643871 
-1 1:0.092440988 3:2.5766662 5:0.0042335193 
-1 1:0.078947953 2:0.0014413389 3:2.7071266 5:0.0025117636 
-1 1:0.055361943 2:0.0053858665 3:2.6422109 5:0.0021338133 
-1 1:0.054496625 3:2.4913795 5:0.0049399776 
-1 1:0.043880041 3:1.5481818 5:0.013839701 
-1 1:0.055530198 2:0.01511895 3:2.8919276 
-1 1:0.062288893 2:0.013782036 3:2.9494517 
-1 1:0.060915809 2:0.0059931799 3:2.9123853 
-1 1:0.05795724 2:0.028830443 
-1 1:0.055664743 2:0.028772392 
-1 1:0.06060999 2:0.0062916775 3:2.8904257 
-1 1:0.066172836 2:0.0033090825 3:2.9310385 
-1 1:0.064351024 3:2.792805 5:0.00041726532 
-1 1:0.057746647 3:2.6255215 5:0.0032184518 
-1 1:0.069115218 2:0.020386766 3:3.0108662 
0.1130217349583929 4:0.015033678 5:0.002036716 
-1 1:0.072574789 2:0.0077817053 3:2.629398 5:0.0001748648 
-0.9786431504705462 1:0.066457404 3:2.9182728 
1 4:0.015151308 5:0.00082673091 
-1 1:0.052582599 3:2.6629602 5:0.0012510409 
1 2:0.063169331 4:0.00053592644 
1 1:0.017200369 2:0.068564504 
-1 1:0.074936215 
1 1:0.017879453 2:0.068374147 
1 1:0.010894028 2:0.10192146 
-1 1:0.0080216712 2:0.09573648 
-1 1:0.01953867 2:0.083664138 
-1 1:0.016285507 2:0.085163652 
-1 1:0.0087892513 2:0.087483685 
-1 1:0.015339132 2:0.084268078 
-1 1:0.013489421 2:0.086243645 
-1 1:0.015441972 2:0.086363394 
-1 1:0.018471168 2:0.088347084 
-1 1:0.0043349833 2:0.08692549 
-1 1:0.011914544 2:0.084002969 
1 3:1.1901644 4:0.016952945 
-1 1:0.11985487 2:0.12150761 
-1 1:0.13544827 5:0.0059921875 
1 2:0.06829038 4:0.00058263127 
1 1:0.0028361692 2:0.068263097 
-1 1:0.083165611 5:0.0021136265 
1 1:0.0060485203 2:0.11748135 4:0.001766084 
1 1:0.022993987 2:0.06978374 4:0.00011593731 
1 1:0.024069911 2:0.071235495 4:0.00027080963 
1 1:0.02425992 2:0.065549914 4:0.00039918042 
1 1:0.11982185 3:2.7194302 5:0.0092955203 
1 1:0.11699219 3:2.6793142 5:0.0099329475 
1 1:0.12299563 3:2.7434084 5:0.0087910081 
1 1:0.11954516 3:2.6859055 5:0.0095466229 
1 1:0.11959543 3:2.7369726 5:0.009002624 
1 1:0.119611 3:2.694023 5:0.0097731312 
1 1:0.11415611 3:2.6255988 5:0.010378342 
1 1:0.10943854 3:2.6009754 5:0.010805269 
-1 1:0.10394802 3:2.5431364 5:0.011455248 
-1 1:0.081054846 3:0.90912792 5:0.0095550444 
-0.5465427333544596 1:0.078499024 3:1.5309184 5:0.0048642591 
-0.8488558522793476 1:0.081067752 3:1.3294581 5:0.003042248 
1 1:0.00188303 3:0.097229577 5:0.015023348 
1 1:0.0069780765 3:0.019860282 5:0.015004092 
1 3:0.016282614 4:0.0004225486 5:0.015016708 
1 3:0.051561739 4:0.00013441341 5:0.015022636 
-1 2:0.050390732 4:0.012801646 
-1 2:0.070500071 4:0.010477674 
1 2:0.087470865 4:0.0082168083 
1 2:0.050987747 3:0.91275873 4:0.010838839 
1 2:0.057497462 3:0.83214919 4:0.0097718875 
1 1:0.0045561085 4:0.00054162706 5:0.015010218 
1 1:0.024884305 3:3.1301698 5:0.015071825 
-1 1:0.041498259 2:0.031370526 
1 1:0.070584991 3:0.30513233 4:0.0026366651 
1 1:0.30971899 3:1.4624102 4:0.0090169341 
1 1:0.30991259 3:1.4612955 4:0.0089306117 
1 1:0.13327653 2:0.065553044 
1 1:0.14381685 2:0.038714556 5:0.0010366048 
1 1:0.14757789 2:0.027927591 5:0.0021796631 
1 1:0.13046961 2:0.071599962 
1 1:0.12893387 2:0.084516102 
1 1:0.12843412 2:0.076356213 
1 1:0.11973401 2:0.085296184 
-1 3:1.209777 4:0.012368434 5:0.011129378 
-1 1:0.11466312 2:0.08557486 
-0.4506086561221544 1:0.042254798 2:0.051359572 3:2.770203 
1 4:0.0063732141 5:0.013584528 
-1 1:0.056208621 2:0.017049238 3:2.0922765 
-0.6886706590418257 1:0.073426807 3:1.1802366 5:0.010943172 
1 4:0.0087884209 5:0.012523051 
-0.1496463491744642 1:0.036291291 3:0.71701331 5:0.012284841 
-0.874073031643775 1:0.04237914 3:0.95182887 5:0.012254302 
-1 1:0.048432697 3:1.5072614 5:0.010877732 
1 2:0.041545739 4:0.00060543191 
-1 1:0.041824927 3:0.93683696 5:0.014274697 
-1 2:0.010211028 4:0.014873153 
-1 1:0.046338463 2:0.059646367 3:2.293144 
1 2:0.059483156 
-0.2542021765598805 1:0.060013924 2:0.015635546 3:1.8241741 
1 2:0.061188872 
0.187674548141413 2:0.059335212 
1 1:0.0051714551 2:0.060526042 
-1 2:0.032037151 4:0.014839029 
-1 2:0.050008396 4:0.0141284 
-1 2:0.052526039 4:0.014016527 
-1 2:0.018772403 4:0.015000221 5:0.00012950386 
-1 2:0.007718287 4:0.014867351 5:0.0020004578 
-1 2:0.042977571 4:0.014465306 
-1 2:0.065697625 4:0.013061882 
-1 2:0.068789379 4:0.012564075 
-1 2:0.039033355 4:0.014634217 
-1 2:0.053284918 4:0.013930377 
-1 2:0.10233445 4:0.005236516 
-1 1:0.047409067 5:0.0085761111 
-0.9521608339700149 2:0.055901126 3:1.9656075 4:0.012838201 
1 2:0.017459946 3:2.7224013 4:0.009951588 5:0.0011254105 
1 1:0.1586652 2:0.013156176 5:0.0075895079 
1 1:0.12713808 2:0.080345771 
1 1:0.13782782 2:0.049194189 5:0.0028759269 
1 1:0.1320102 2:0.066493629 5:0.00061171502 
1 1:0.14504023 5:0.013836835 
1 1:0.15226422 2:0.042042318 5:0.0041798648 
-1 1:0.15631508 5:0.011102684 
-1 1:0.06411892 2:0.039898274 3:2.7741563 
-0.9982354732496711 1:0.048383729 2:0.055864915 3:3.0669667 
-1 1:0.048709218 2:0.04537161 3:2.9027065 
-1 1:0.052648528 2:0.048869267 3:2.8912909 
-0.4709874885159488 1:0.041967934 2:0.036895689 3:2.8350198 
-1 1:0.071078337 2:0.04226726 3:2.8478234 
1 2:0.0091817597 4:0.012560361 
-1 1:0.062234243 2:0.039556479 3:2.665354 
-1 1:0.048896721 2:0.05370447 3:2.7700528 
1 4:0.015222299 5:0.0012531295 
-1 1:0.02567267 2:0.061371092 3:2.9258736 
1 2:0.03431933 4:0.011154662 
-1 1:0.015151331 2:0.063035254 3:2.9565284 
-1 1:0.070158022 2:0.0036774859 3:2.3332799 5:3.8971435e-05 
1 1:0.1006286 2:0.031193907 
1 1:0.081288464 2:0.062819127 
1 1:0.10552692 2:0.0091022114 3:3.0915954 
1 1:0.1056311 2:0.011712808 3:3.1032351 
1 1:0.10848964 2:0.0052622106 3:3.0664109 
1 1:0.10557784 2:0.021016796 
1 1:0.10388806 2:0.0092692023 3:3.0896561 
1 1:0.087203421 2:0.059379355 
-1 1:0.11290521 2:0.0033126348 3:3.0251232 
-1 1:0.039459485 2:0.043907756 
1 1:0.006323589 2:0.052722122 4:0.00062577991 
-1 1:0.055593069 2:0.015415956 3:3.1368237 
-1 1:0.06267349 2:0.015831566 
-1 1:0.063678349 2:0.0015208056 3:2.9331045 
-1 1:0.052331254 2:0.012400266 3:3.0878162 
-1 1:0.05849829 3:2.8267179 
-1 1:0.062616626 2:0.0074517913 3:2.9393572 
-1 1:0.054079177 2:0.0034942406 3:2.9718817 
-1 1:0.054347336 3:2.8546631 
-1 1:0.050568862 3:2.7362573 
-1 1:0.053417227 2:0.01449559 3:2.8344788 
-0.6497842556071016 1:0.034284095 3:2.3884744 5:0.0072629925 
-1 1:0.074001434 
-1 1:0.05239481 3:2.8400877 5:0.0034663592 
-1 1:0.039487908 2:0.010433517 3:2.8309809 
1 2:0.032918168 4:0.011412222 
1 1:0.012027224 2:0.011806016 4:0.00086607985 
-1 2:0.074894307 4:0.011033256 
-1 4:0.015061696 
-1 2:0.057118462 4:0.012933144 
-1 2:0.04181001 4:0.014013878 
-1 2:0.069996177 4:0.011639546 
-1 2:0.021593228 4:0.014845751 
-1 2:0.078974638 4:0.010792578 
-1 2:0.017077772 4:0.01492274 
-1 2:0.080067301 4:0.010690283 
1 2:0.070741455 4:0.011924781 
0.03814006304128889 2:0.067048492 3:0.28978359 4:0.0083346624 
-1 1:0.085652361 
1 1:0.16978163 3:1.0705843 4:0.0097247455 5:0.00036450041 
1 1:0.067669342 2:0.044028734 
1 1:0.070548252 2:0.011898324 5:0.0012299375 
1 1:0.069246002 2:0.044375345 
1 1:0.070681057 5:0.0063507281 
1 1:0.066565648 2:0.044815978 
1 1:0.05924788 2:0.052791693 
1 1:0.078720465 2:0.018441148 
1 1:0.076816419 5:0.0049207995 
1 1:0.080306301 5:0.0038508831 
-1 1:0.081166338 5:0.0035123535 
-0.4297768496951028 1:0.064367957 2:0.023335843 3:2.6355933 
-1 1:0.059263793 2:0.027296915 3:2.683659 
