svm_type epsilon_svr
kernel_type linear
nr_class 2
total_sv 168
rho 0.000221392
SV
-1 2:0.01676097 4:0.015094687 
-1 2:0.019535637 4:0.014997047 
-1 2:0.014263574 4:0.015167861 
-1 2:0.014187335 4:0.015201488 
-1 2:0.012006163 4:0.01525799 
-1 2:0.0084815471 4:0.015422329 
-1 2:0.012055059 4:0.015273809 
-1 2:0.01008573 4:0.015346809 
1 2:0.013693799 4:0.015205475 
1 3:1.9647199 4:0.014833478 5:0.0034655857 
1 3:1.9350909 4:0.014869859 5:0.0028397257 
0.398255335392592 3:1.8783725 4:0.0147614 5:0.0031956827 
0.665926742895274 3:1.7937771 4:0.014943395 5:0.0023215223 
1 2:0.015606302 3:1.4167125 4:0.014702904 
1 3:1.709812 4:0.015070731 5:0.00068040818 
1 3:1.5631336 4:0.015095059 
1 2:0.014526273 3:1.4367674 4:0.014853345 
1 3:1.6354177 4:0.015110108 5:0.00034745854 
1 2:0.0025600257 3:1.5534853 4:0.015118691 
0.9533811584865904 3:1.7110937 4:0.014907223 5:0.0021943945 
0.000219573221768689 3:2.9211461 4:0.0017712938 5:0.014958931 
1 2:0.033735136 3:1.4671053 4:0.015061479 
1 1:0.18459912 5:0.0093351908 
1 1:0.18372822 5:0.0093166227 
1 1:0.18481996 5:0.0091421727 
1 1:0.18230241 5:0.0094830372 
1 1:0.18545039 5:0.0092937428 
1 1:0.18409103 5:0.0092739405 
1 1:0.18451383 5:0.0092211129 
-1 1:0.1826487 5:0.0091042019 
-1 1:0.1272429 3:0.66619519 5:0.0094648572 
-1 1:0.11061907 2:0.005462071 3:0.68839902 5:0.0093388284 
-1 1:0.10385102 2:0.007575812 3:0.66219484 5:0.0095521863 
-0.9241048302636143 1:0.099966531 2:0.010134535 3:0.66428236 5:0.0095016517 
-1 1:0.09282386 2:0.01479403 3:0.67984501 5:0.0091540141 
-1 1:0.092809773 2:0.012578615 3:0.62286784 5:0.0098733105 
-1 1:0.09281519 2:0.012955136 3:0.58208174 5:0.0094751141 
-1 1:0.095392767 2:0.011555715 3:0.5548835 5:0.0094803822 
-1 1:0.10012643 2:0.017628903 3:0.61393401 5:0.008337025 
-1 1:0.096999037 2:0.013116693 3:0.58281639 5:0.0088032797 
-1 1:0.095780914 2:0.0079994364 3:0.52231592 5:0.0095872047 
-1 1:0.095946319 2:0.011399012 3:0.53122563 5:0.0089290476 
-1 1:0.09542088 2:0.011667274 3:0.53245163 5:0.0084875263 
-1 1:0.096981412 2:0.0048360108 3:0.43480865 5:0.0090473105 
-1 1:0.10058521 2:0.0031676568 3:0.42969418 5:0.0090166512 
-0.8849488507765537 1:0.093763547 2:0.0066069183 3:0.43112274 5:0.0084531196 
-1 1:0.096145955 2:0.0091452059 3:0.45191968 5:0.0079317564 
-1 1:0.10481687 2:0.014611095 3:0.500323 5:0.0067151955 
-1 1:0.10111466 2:0.0021755667 3:0.38232772 5:0.0084117449 
-1 1:0.093162202 2:0.011577691 3:0.46888521 5:0.0067963373 
-1 1:0.095541973 2:0.014751878 3:0.48337929 5:0.006156114 
-1 1:0.092188386 2:0.0075912153 3:0.4196953 5:0.007157739 
-1 1:0.093628918 2:0.00048967637 3:0.33847176 5:0.007763889 
-0.7977497329353814 1:0.09283456 2:0.0029313324 3:0.34864746 5:0.0072101293 
-1 1:0.10935305 2:0.016597914 3:0.42487276 5:0.0050744031 
-1 1:0.1075978 2:0.023327891 3:0.53952472 5:0.0037221584 
-1 1:0.10822476 2:0.038821246 3:0.60934498 5:0.0016553935 
-1 1:0.1083384 2:0.02353517 3:0.42298459 5:0.0037924565 
-1 1:0.078982178 2:0.0074485336 3:0.34921681 5:0.0058906065 
-1 1:0.10677147 2:0.013036003 3:0.3123477 5:0.0049535094 
-1 1:0.10177991 2:0.013958983 3:0.30115784 5:0.0047124251 
1 2:0.027297809 3:2.7535957 4:0.0085561001 
1 1:0.10455694 5:0.0029806874 
1 1:0.10362938 5:0.0025466127 
1 1:0.10668277 5:0.0025009117 
1 1:0.10581783 5:0.0027457601 
1 1:0.10489864 5:0.0029705446 
1 1:0.10247758 5:0.0032881669 
1 1:0.09940739 5:0.0036878711 
1 1:0.10334729 5:0.003501297 
1 1:0.10348921 5:0.0029504816 
1 1:0.10780427 5:0.0026354969 
-1 1:0.099733893 5:0.0039950159 
-1 1:0.068539007 3:1.4839879 5:0.00907498 
-1 1:0.066934647 3:1.5110423 5:0.0085785989 
-0.6738903156174476 1:0.06788626 3:1.5378682 5:0.0084571971 
-1 1:0.064499889 3:1.433486 5:0.0093146678 
-1 1:0.048923941 3:1.3694286 5:0.0097916774 
-0.01003279260955319 1:0.052938295 3:1.4107259 5:0.0094386645 
-1 1:0.023377986 2:0.0935353 
1 2:0.056119597 3:0.013569457 4:0.0027116121 
1 1:0.0013750774 2:0.049704774 3:0.065983959 4:0.0017942436 
1 2:0.056103423 3:0.14170627 4:0.0042647861 
1 2:0.057520457 3:0.17057673 4:0.0049802304 
1 2:0.057005504 3:0.12158922 4:0.0037899152 
1 2:0.053336543 3:0.029592347 4:0.0034475326 
1 2:0.054340207 3:0.073060183 4:0.0025083518 
0.8885101557242111 1:0.0049061459 2:0.050814565 4:0.0010446148 
-1 1:0.060052956 
-1 1:0.015951802 5:0.0049692962 
1 3:2.9691205 4:0.0067705715 5:0.014560144 
-1 1:0.041155795 5:0.004510367 
-1 1:0.0089046406 5:0.010956281 
-1 3:3.027995 4:0.013881081 5:0.016041059 
-0.5803824690600183 2:0.07271853 3:1.5803137 
-1 1:0.008235632 2:0.056314408 3:1.1762386 5:0.0030906418 
-1 1:0.007249967 2:0.067794309 3:1.4717095 
-1 1:0.0085013791 2:0.064668472 3:1.4090755 
-1 2:0.068734777 3:1.2384015 
-1 2:0.067353646 3:1.331775 
-1 2:0.070855684 3:1.220821 
-1 2:0.068876011 3:1.3007152 
-0.45149982734752 2:0.065413838 3:1.0926613 5:0.0012839566 
-1 2:0.070296225 3:1.1731422 
1 1:0.084381376 2:0.047991586 3:2.3403763 
1 1:0.082444796 2:0.048303197 3:2.3346183 
1 1:0.083106657 2:0.047333496 3:2.3339524 
1 1:0.082521374 2:0.047228505 3:2.3297581 
1 1:0.080199222 2:0.047094069 3:2.3490297 
1 1:0.099170044 2:0.044020904 3:2.3153474 
1 1:0.10550952 2:0.043970925 3:2.3161335 
1 1:0.091549773 2:0.061590286 3:2.502538 
1 1:0.073914974 2:0.074059102 3:2.5988831 
1 1:0.081720767 2:0.063586263 3:2.505677 
-1 1:0.075898327 2:0.054418186 3:2.4106803 
-1 1:0.056570391 2:0.038908662 
1 1:0.035077609 2:0.073228797 
-1 1:0.073810064 2:0.00082084313 
0.02324753354877767 1:0.098929342 2:0.046059683 
0.6685035783447273 1:0.020427085 2:0.056826296 3:0.16258859 4:0.012103458 
0.2026286492442468 1:0.016526302 2:0.057502094 3:0.35331729 4:0.013935193 
1 2:0.067144791 3:0.2073734 4:0.01316162 
1 1:0.058782984 2:0.064113074 4:0.0089284684 
1 2:0.064717668 3:0.27847273 4:0.013872753 
1 3:1.7592708 4:0.0061346431 5:0.014730308 
1 4:0.006464646 5:0.013574616 
1 4:0.0070620889 5:0.013244175 
1 4:0.0073410085 5:0.013081291 
1 1:0.028229436 2:0.050190645 3:3.030681 
1 1:0.012173731 2:0.058325445 3:3.047586 
0.9253984689989501 1:0.027278329 2:0.057283006 3:3.1282381 
-0.8550008775340248 1:0.058210264 2:0.0032384815 3:2.431398 
-1 1:0.020036802 2:0.095605343 
-1 1:0.014027782 2:0.069515626 
-1 1:0.0071436262 2:0.06433239 
-1 2:0.058261983 
-0.7234505177833913 1:0.00663167 5:0.0072801866 
-1 2:0.0047505461 3:1.7060891 4:0.018358338 5:0.0055908108 
-1 3:1.795276 4:0.018466823 5:0.0064460867 
-1 3:1.9722145 4:0.015066836 5:0.010730384 
-1 1:0.036877304 3:1.9765643 4:0.0066223591 5:0.020153024 
1 1:0.039316247 3:0.47250044 4:0.0043883943 5:0.019251541 
1 1:0.036125357 3:0.39981168 4:0.004570704 5:0.01840287 
1 1:0.042079626 3:0.44458265 4:0.0030028064 5:0.0182247 
1 1:0.042054881 3:0.22653302 4:0.0042854903 5:0.016947658 
1 1:0.033144295 3:0.066503444 4:0.0061725969 5:0.016193048 
1 1:0.042705954 4:0.0055994541 5:0.015138752 
1 1:0.050192193 4:0.0060539951 5:0.014188199 
1 1:0.054805723 4:0.0087761022 5:0.012170202 
1 1:0.063714725 4:0.0095801875 5:0.011563763 
1 1:0.05983228 4:0.0078524511 5:0.012817377 
1 1:0.052130336 4:0.0076596791 5:0.01292622 
1 1:0.071421261 4:0.0091012651 5:0.011955846 
0.4716592915767706 1:0.078852574 4:0.0077633313 5:0.012858048 
1 1:0.052782563 4:0.0099816289 5:0.011333929 
0.703329726493595 1:0.096937042 4:0.0068160652 5:0.01337031 
-1 3:2.0935869 4:0.020432355 
-1 3:2.104522 4:0.02049349 
-1 3:2.0920903 4:0.020423798 
-1 3:2.1058326 4:0.020500653 
-1 3:2.0955672 4:0.020443608 
-1 3:2.0964193 4:0.020448425 
-1 3:2.0993475 4:0.020464866 
1 3:2.0868826 4:0.020393665 
1 4:0.020464941 
1 4:0.02002072 
1 4:0.019162534 
1 4:0.016961171 
