svm_type epsilon_svr
kernel_type linear
nr_class 2
total_sv 583
rho 0.0011035
SV
-1 1:0.1199251 3:2.2583425 5:0.011189008 
-1 1:0.14052873 2:0.0018185179 3:2.9469657 5:0.0016873231 
1 1:0.072263447 5:0.0097562942 
1 1:0.076198029 5:0.0065328183 
1 4:0.0039347156 5:0.014485793 
1 1:0.059516103 5:0.01169516 
1 1:0.061244712 5:0.00050101943 
1 1:0.065715795 5:0.0015168681 
1 1:0.062457215 5:0.0079838544 
1 1:0.063231912 5:0.011544426 
1 1:0.050349524 5:0.00043637265 
1 1:0.048384465 5:0.00038006268 
1 1:0.049015495 
1 1:0.040023286 5:0.011507918 
1 1:0.051926942 5:0.00078701665 
1 1:0.04778914 5:0.0094237191 
1 1:0.029890598 5:0.011845714 
1 1:0.039934492 5:0.010743007 
1 1:0.03759974 5:0.011150571 
1 1:0.039089454 5:0.010309002 
1 2:0.083557942 4:0.0032492811 
1 2:0.07219131 4:0.0028724584 
1 2:0.078937061 
1 2:0.078910841 
1 2:0.050857951 4:0.0078346304 
-1 2:0.064329044 4:0.0054105207 
-1 2:0.045061464 4:0.0017749119 
-1 2:0.025526804 4:0.0072009768 
-1 4:0.010205971 
1 4:0.015639869 
1 4:0.013966877 5:0.006026186 
1 1:0.10343116 2:0.0016126713 3:1.9428523 
-1 1:0.072343537 2:0.069819588 3:0.38638121 
1 1:0.070606548 5:0.0060669016 
1 1:0.071521194 5:0.0078587006 
1 1:0.03954031 5:0.011593939 
1 1:0.078799632 5:0.0065006325 
1 1:0.03392435 5:0.012516456 
-0.2241111998899867 1:0.09131327 2:0.010219319 3:0.43626608 
1 1:0.058903521 5:0.008446725 
1 1:0.062860656 5:0.0033550965 
1 1:0.069458084 5:0.0001874741 
1 1:0.064773381 5:0.0096846425 
1 1:0.01870059 5:0.012899135 
1 1:0.039403145 5:0.010135219 
1 1:0.027357085 5:0.011830133 
-1 2:0.066467108 3:2.3212979 4:0.01072656 
-0.934283160853484 2:0.074259375 3:2.0138151 4:0.0089588992 
-0.6742254302392309 1:0.0027424298 3:1.8518017 5:0.014821369 
-1 1:0.03238215 2:0.057538393 4:0.0026188651 
1 4:0.01097403 5:0.011641955 
-1 1:0.014330176 2:0.063640224 4:0.0018632519 
1 2:0.024625235 4:0.015036263 5:0.00026949532 
1 4:0.013596911 5:0.0065678385 
1 4:0.0090758499 5:0.012078235 
0.4505065219221526 2:0.023443775 4:0.014807868 5:0.0024166673 
-1 1:0.0074179719 2:0.054310418 4:0.0053554644 
1 4:0.011589977 5:0.0095292804 
1 2:0.025196246 4:0.014981192 5:0.00094551345 
1 1:0.085039635 2:0.089618653 
1 1:0.088627127 2:0.089614865 
1 1:0.08560687 2:0.091635923 
-1 2:0.11824956 4:0.008960905 
1 1:0.076703513 2:0.070431045 
-1 1:0.016464466 2:0.077496967 4:0.0052142033 
-1 1:0.028669605 2:0.063230463 4:0.0014594699 
-1 1:0.057710735 2:0.055755035 
-1 1:0.029375982 2:0.061069124 4:0.0014103385 
-1 1:0.048895625 2:0.052532398 
-1 1:0.032979763 2:0.045666182 4:0.0019133496 
-1 2:0.071359679 4:0.0078596047 
-1 1:0.048149759 2:0.051444629 
-1 2:0.070091798 4:0.0074889985 
-1 1:0.047167019 2:0.053938638 
-1 1:0.046799326 2:0.051409679 
-1 1:0.044317364 2:0.051711822 
-1 1:0.044285393 2:0.051612613 
-1 1:0.048182265 2:0.050639686 
-1 1:0.033745517 2:0.048939349 
-1 4:0.0035038964 
1 2:0.077695365 3:0.40525804 4:0.0035148826 
1 1:0.046129883 2:0.085812037 3:0.061222616 
1 2:0.077561601 3:0.43018629 4:0.0039693551 
1 2:0.078426105 3:0.41421731 4:0.0036143268 
1 2:0.077828894 3:0.41143964 4:0.0036985769 
1 2:0.079376262 3:0.33669549 4:0.0026107761 
1 2:0.081184987 3:0.52809173 4:0.005505881 
1 2:0.094472433 3:0.47188789 4:0.0042817983 
1 1:4.0657565e-05 2:0.081856725 3:0.29098725 4:0.0020884626 
1 1:0.0024985922 2:0.082484538 3:0.25392883 4:0.0015339147 
-1 1:0.0024972962 2:0.0837444 3:0.26635341 4:0.0016964589 
-1 1:0.01063634 2:0.066623789 
-1 1:0.00046655933 2:0.059196475 
-1 2:0.057161771 4:0.00038407593 
-1 1:0.063817131 4:0.0078158101 
1 
1 2:0.074721849 3:0.24399519 4:0.011116674 
1 2:0.10061901 4:0.0062368444 
1 2:0.10078318 4:0.0063422139 
1 2:0.071057723 4:0.0084259529 
1 2:0.094380658 3:0.0096728786 4:0.0082338385 
1 2:0.092084429 3:0.052719353 4:0.0089786968 
1 2:0.097027567 4:0.007982382 
1 2:0.092368862 3:0.036655424 4:0.0087128139 
0.8391422291061372 2:0.072323119 3:0.27625901 4:0.011583575 
1 2:0.089036328 3:0.09850335 4:0.0099899526 
-1 2:0.089104321 3:0.092701195 4:0.009894568 
-1 2:0.065453407 4:0.00304034 
-1 1:0.0099226634 2:0.061633788 
-1 1:0.0055775511 2:0.057045357 
-1 4:0.0043031784 5:0.014526919 
-1 4:0.0024908384 5:0.015166117 
-1 4:0.0021076391 5:0.015 
-1 4:0.0020313642 5:0.015 
-1 4:0.0042642833 5:0.01454178 
-1 4:0.002641159 5:0.015128318 
-1 4:0.0020848761 5:0.015 
-1 4:0.0022538006 5:0.015 
-1 4:0.0029831758 5:0.014867451 
-1 4:0.0026527005 5:0.014932149 
-1 4:0.0024789499 5:0.01515804 
1 4:0.0022989584 5:0.015 
1 1:0.0015451876 5:0.014779562 
-0.632825896183841 2:0.061799114 3:1.1836149 4:0.0045468586 
-0.3885406078140983 2:0.057733013 3:1.3183115 4:0.0034893288 
-1 2:0.058854813 3:1.2969459 4:0.004034717 
1 2:0.095932124 4:0.0084899908 
1 2:0.095783468 4:0.0086372875 
1 2:0.094289853 4:0.0089607052 
1 2:0.093632409 4:0.0091091516 
1 2:0.10644804 3:0.03977328 4:0.0078519606 
1 2:0.093340307 4:0.0095324989 
-1 1:0.038632333 3:2.982863 5:0.014709068 
1 1:0.035382372 3:2.9502731 5:0.015025348 
-1 1:0.0037705156 2:0.047748777 4:0.0006442052 
-1 1:0.0020175251 2:0.04881017 4:0.00038104648 
-1 1:0.0030680732 2:0.050455402 
-1 1:0.0021451257 2:0.051595944 
-1 3:0.50371068 4:0.010504544 5:0.017500567 
-1 3:0.49395699 4:0.010671242 5:0.017396588 
-1 3:0.51721704 4:0.010192945 5:0.017624375 
-1 3:0.49480654 4:0.010672555 5:0.01740884 
-1 3:0.49345725 4:0.010711963 5:0.017397561 
-1 3:0.49528058 4:0.01066442 5:0.017413921 
-1 3:0.47425226 4:0.011067861 5:0.017192851 
-1 3:0.44947048 4:0.011451988 5:0.016907482 
-1 3:0.49532292 4:0.010693496 5:0.017420301 
1 3:0.51451673 4:0.010419418 5:0.017635951 
1 1:0.0018615862 4:0.007531608 5:0.016605206 
1 1:0.00088664311 4:0.0072946085 5:0.014161592 
1 2:0.11013838 4:0.013364247 
1 2:0.10902862 4:0.013598622 
1 2:0.10933114 4:0.01407239 
1 2:0.10992379 4:0.013718217 
1 2:0.11043705 4:0.013254518 
1 2:0.10941619 4:0.013483951 
-1 2:0.10986928 4:0.013695396 
-1 2:0.073991778 3:1.9779213 4:0.015275609 
-0.00179148291274622 1:0.025593393 2:0.065673414 3:1.8705602 4:0.0085059385 
-1 1:0.012362533 2:0.067972387 3:1.9565215 4:0.0093853026 
-0.616315174841657 1:0.016739834 2:0.069277984 3:2.0089449 4:0.0097066576 
-0.1787288353511994 1:0.016541338 2:0.07060785 3:2.0789587 4:0.0098716852 
-1 1:0.014703611 2:0.070502193 3:2.0426536 4:0.010037405 
-1 1:0.026443681 2:0.071357645 3:2.117245 4:0.0095943471 
-1 1:0.02203103 2:0.07251856 3:2.1434188 4:0.0098480027 
-1 1:0.015680782 2:0.072018234 3:2.1651816 4:0.010202449 
-1 1:0.02469902 2:0.068489209 3:2.1675441 4:0.010056101 
1 2:0.099851583 4:0.0089354712 
1 2:0.10021178 4:0.0090300415 
1 2:0.10155494 4:0.0089271091 
1 2:0.099945491 4:0.0090298036 
1 2:0.1001868 4:0.0088944318 
1 2:0.10001963 4:0.0089856201 
1 2:0.10022874 4:0.0088937495 
-1 2:0.10040249 4:0.0088745344 
-0.4354542210553343 2:0.061064284 3:0.90172001 4:0.0079499443 
-1 2:0.06227329 3:0.84205112 4:0.0078414559 
-0.06539138716945286 2:0.055583186 3:0.81996595 4:0.0073428621 
-1 2:0.059919322 3:0.66810375 4:0.0057895954 
-1 2:0.061140608 3:0.84997037 4:0.0068398426 
-1 1:0.0074113554 2:0.067109394 3:1.1900714 4:0.0088608747 
-1 1:0.024719564 2:0.072476696 3:1.1803193 4:0.0082596314 
-0.6114593921859017 1:0.030585883 2:0.067717692 3:1.3343387 4:0.010602646 
1 2:0.076065002 4:0.014221379 
1 2:0.076682826 4:0.014135711 
1 2:0.077274823 4:0.014101612 
1 2:0.076528965 4:0.014144857 
1 2:0.076675073 4:0.014130467 
1 2:0.077069887 4:0.014139709 
1 2:0.077117749 4:0.014135936 
1 2:0.077407173 4:0.01415973 
-1 2:0.07703508 4:0.014135843 
1 4:0.019274574 5:0.0088595033 
-1 1:0.12961181 2:0.00928693 
1 1:0.23618127 3:2.6691191 
-1 1:0.18893962 3:2.1382396 
-0.07384727044233583 1:0.18458923 3:2.1439369 
-1 1:0.17996756 3:2.1358554 
-1 1:0.17357108 3:2.1441669 
-0.8919754654368687 1:0.16693745 3:2.1520737 
1 2:0.038970928 3:0.001400833 4:0.015801487 5:0.00089226156 
-1 1:0.11380706 5:0.0030954956 
1 1:0.073428008 3:2.0195276 5:0.0087534448 
1 1:0.079214141 3:1.9970539 5:0.008088451 
1 3:1.6927123 5:0.012958597 
1 1:0.052401333 3:2.2208372 5:0.008437927 
1 2:0.081931542 4:0.0090544799 
1 2:0.078632043 4:0.0093855195 
1 2:0.087022677 4:0.0084558472 
1 2:0.083380851 4:0.0088387126 
1 2:0.091199547 4:0.0082391866 
1 2:0.089932968 4:0.0084238248 
1 2:0.096779624 4:0.0076253313 
-1 2:0.090744969 4:0.0083843282 
-1 2:0.071262776 3:0.41371113 4:0.0082716977 
-1 2:0.072839806 3:0.37430539 4:0.0078573388 
-1 2:0.071641004 3:0.36683704 4:0.0076970778 
-1 2:0.068599603 3:0.3367629 4:0.007877617 
-1 2:0.070258568 3:0.34066075 4:0.0069955508 
-1 2:0.066236806 3:0.32770588 4:0.0078748551 
-1 2:0.07103305 3:0.30498807 4:0.0070462955 
-1 2:0.069283904 3:0.23999058 4:0.0070969926 
-1 2:0.064408457 3:0.25969188 4:0.0066517766 
-1 2:0.065826241 3:0.24784362 4:0.0060327333 
-1 2:0.064815329 3:0.22586598 4:0.0055230884 
-1 2:0.062172106 3:0.23083202 4:0.0060784301 
-1 2:0.063712994 3:0.22200193 4:0.0057379491 
-1 2:0.063305541 3:0.17725636 4:0.0055371421 
-1 2:0.064736412 3:0.15529252 4:0.0053563508 
-1 2:0.060044865 3:0.1424435 4:0.0062933032 
-1 2:0.062174505 3:0.11684048 4:0.0062787538 
-1 2:0.057034306 3:0.074623994 4:0.0050366296 
-1 2:0.05848398 3:0.086885344 4:0.0057807573 
-1 1:0.0083386557 2:0.058280657 4:0.0030384513 
-1 2:0.052294715 4:0.0051037211 
-1 2:0.05642836 4:0.0047392635 
-1 2:0.055623674 4:0.0042819315 
-1 2:0.055247905 4:0.003371658 
-1 1:0.0057453999 2:0.053004986 4:0.0025189783 
-1 2:0.044320872 4:0.004791935 
-1 1:0.027513721 2:0.045925581 4:0.0005998595 
-1 2:0.04513835 4:0.0045555777 
-1 3:0.10198254 4:0.010386851 
-1 2:0.02113786 4:0.0080598046 
-1 1:0.010875783 2:0.045913882 4:0.0024617772 
-1 1:0.21166528 
-1 1:0.097693817 2:0.046491036 
-1 1:0.021374627 2:0.042361853 4:0.0027008386 
1 3:2.9890523 4:0.0021195375 5:0.0177025 
-1 1:0.070599571 2:0.070353992 3:0.086085632 4:0.0033114454 
-1 1:0.025539785 2:0.044877736 4:0.004401363 
-1 1:0.023165769 2:0.036893856 4:0.0032638151 
-1 1:0.019444864 2:0.05004391 4:0.0031309383 
1 3:3.0664658 5:0.01543163 
-1 1:0.082412625 2:0.056854187 4:0.0014579053 
-1 1:0.040904993 2:0.042910337 4:0.0019559155 
-0.9918357310919168 1:0.13070256 2:0.080947453 3:0.1241116 4:0.0044055327 
-1 1:0.1207925 2:0.054820876 4:4.1050704e-05 
1 1:0.011488297 2:0.075764466 3:3.069264 
1 1:0.012319154 2:0.076074044 3:3.0680213 
1 1:0.01074072 2:0.075889987 3:3.0706899 
1 1:0.011623245 2:0.076275942 3:3.0704175 
1 1:0.011387956 2:0.075712313 3:3.0758945 
1 1:0.01032522 2:0.07598848 3:3.077064 
1 1:0.0079705234 2:0.07532836 3:3.0747597 
1 1:0.016636973 2:0.076103783 3:3.0679943 
-1 1:0.019078625 2:0.076121615 3:3.0529242 
-1 2:0.053537799 3:0.7013293 4:0.0021039917 
-1 2:0.050601681 3:0.71849241 4:0.0020204271 
-0.1017739585883543 2:0.049248354 3:0.67198749 4:0.0020008519 
-1 2:0.049337475 3:0.69500556 4:0.0013273416 
-1 2:0.052345816 3:0.56617099 4:0.0021643425 
-1 1:0.012423822 2:0.046196967 3:0.72008909 4:0.00017413538 
-1 1:0.0090544329 2:0.045712012 3:0.45736592 4:8.5022818e-05 
-0.9056871625645144 1:0.017806342 2:0.052805883 3:0.56108152 
-1 2:0.047838986 3:0.50985284 4:0.0018074324 
-1 1:0.01065369 2:0.054044895 3:0.53138611 4:0.0003158029 
-1 1:0.0099060977 2:0.049109815 3:0.69796362 4:0.00052239809 
-1 1:0.01799498 2:0.041297151 3:0.43834822 
-1 1:0.0036864305 2:0.059755408 3:0.61756045 4:0.001925275 
-1 1:0.094614496 2:0.068325726 3:0.77203364 
-1 1:0.011259959 2:0.029685171 3:0.34175971 4:0.00064806196 
-0.05040064183151488 1:0.095095475 2:0.046040003 3:0.62241191 
1 5:0.00071190595 
-0.750674410995629 1:0.15004479 2:0.050895271 3:0.61443467 
-1 1:0.025712145 2:0.068043044 3:0.69485543 4:0.0037913824 
1 2:0.096244382 3:2.3676509 4:0.015948768 5:0.0009551752 
-1 2:0.070157772 3:0.77406995 4:0.0060731437 
-1 1:0.0068239336 3:1.7930684 4:0.0098442557 5:0.017984825 
-1 3:1.7499474 4:0.011264163 5:0.017680481 
-1 1:0.0035958486 3:1.7771307 4:0.010264973 5:0.017857822 
-1 1:0.0063315035 3:1.78832 4:0.009911386 5:0.017933347 
-1 1:0.0038528554 3:1.782626 4:0.010217053 5:0.017926226 
-1 1:0.0039259174 3:1.7834661 4:0.010207082 5:0.017936048 
1 1:0.0054085583 3:1.786313 4:0.010024137 5:0.017932414 
1 1:0.017354196 3:0.46513754 4:0.0058248489 5:0.016935667 
0.4915749404839741 1:0.018191449 3:0.46488006 4:0.0052544722 5:0.016789258 
1 1:0.016734094 3:0.50089518 4:0.0032866816 5:0.016435087 
1 1:0.034977791 3:0.56733038 4:0.00019219405 5:0.01590769 
1 1:0.033805491 3:0.57493482 4:3.3135337e-06 5:0.015917764 
1 1:0.04153737 3:0.58129609 5:0.015545544 
1 1:0.018681279 3:0.44261567 4:0.0012787077 5:0.015707101 
1 1:0.019505905 3:0.44545923 4:0.00089618285 5:0.01567725 
-0.3543891086080759 1:0.035248566 3:0.48247925 5:0.015045337 
-1 1:0.071465108 3:1.4266384 5:0.017838792 
-1 1:0.11630279 3:1.9453216 5:0.013053599 
-1 1:0.088450222 3:1.6130259 5:0.017784166 
-1 1:0.055637142 3:1.1302052 5:0.019828545 
-1 1:0.087695581 3:1.621589 5:0.017781084 
-1 1:0.086000551 3:1.5851146 5:0.018140081 
-1 1:0.088655763 3:1.6238178 5:0.017674528 
-1 1:0.087701716 3:1.6158904 5:0.017771504 
-1 1:0.086105515 3:1.585859 5:0.018103672 
1 1:0.090337143 3:1.6324672 5:0.017644703 
1 4:0.0041883025 5:0.015 
1 4:0.010387526 5:0.012020799 
-0.5711978147272274 1:0.040339546 2:0.089958554 3:1.9669302 4:0.0027433421 
-1 3:1.0136223 4:0.0082378444 5:0.012619017 
-0.07004519754221619 3:0.88284057 4:0.0097276363 5:0.011525963 
-0.08685502665261828 3:0.81516671 4:0.010848022 5:0.010408451 
1 3:0.976722 4:0.0091146382 5:0.011947052 
1 2:0.031046642 4:0.015100151 
1 2:0.016722705 4:0.014808644 5:0.0024791774 
1 1:0.062079131 3:2.83298 
-1 1:0.019846664 2:0.062632235 4:0.00058049425 
1 1:0.05991881 3:2.7791585 
1 1:0.06572568 3:2.9891707 
1 1:0.059501075 3:2.7848227 
1 1:0.060003093 3:2.7299707 5:0.0005554256 
1 1:0.059115731 3:2.7155511 5:0.00058781094 
1 1:0.059249147 3:2.7086996 5:0.000819484 
1 1:0.062895849 3:2.7316171 5:0.00030441282 
1 1:0.061914573 3:2.7514391 5:0.00026131248 
1 1:0.060201829 3:2.7492318 
1 1:0.014928691 2:0.1133419 
1 1:0.044553732 2:0.076150454 3:2.8728009 
1 1:0.04277261 2:0.077584439 3:2.8929663 
-1 2:0.053431439 4:0.011191228 
1 3:2.6310386 4:0.015027836 5:0.0013158943 
1 3:2.5728391 4:0.015189149 5:0.00060015052 
1 3:2.6661482 4:0.015314308 5:0.0012406497 
0.005937572088666814 3:2.6519966 4:0.015328712 5:0.0010436089 
1 3:2.7091843 4:0.015118171 5:0.0028946703 
1 3:2.9135667 4:0.014392439 5:0.0055431944 
1 4:0.0036856768 5:0.015 
-1 1:0.085570593 2:0.017840471 3:0.20660373 
1 2:0.12562885 4:0.0044162659 
-1 3:1.8466478 4:0.014060344 5:0.015884166 
-1 3:1.7422231 4:0.015639439 5:0.01433206 
1 1:0.016899972 3:2.1070173 4:0.0094972587 5:0.01896845 
1 4:0.020702782 5:0.0046254539 
1 1:0.0017020072 4:0.01608029 5:0.0082807201 
-1 2:0.031628751 3:2.43045 
-1 3:2.2205807 4:0.0082696392 5:0.012799215 
-1 3:2.2165858 4:0.0084097817 5:0.012682303 
-1 3:2.2675481 4:0.0079672496 5:0.012912243 
-1 3:2.1852748 4:0.0089196772 5:0.012295676 
-1 3:2.0832962 4:0.0097921484 5:0.011733102 
-1 3:2.0863547 4:0.0099412685 5:0.011536874 
-1 3:2.2784065 4:0.0076111867 5:0.013176814 
-1 3:2.2183266 4:0.0087448793 5:0.012362174 
1 3:1.921014 4:0.011397822 5:0.010278372 
1 4:0.0076147468 5:0.013025106 
-1 1:0.079703543 5:0.010730819 
-1 1:0.081245754 5:0.010403125 
1 2:0.11597112 4:0.0099533203 
1 1:0.11051505 2:0.10518355 
1 1:0.062006609 2:0.13487844 4:0.0040849776 
-1 3:0.6438764 5:0.020449067 
-1 1:0.054600015 2:0.13769447 4:0.0051382827 
-1 1:0.077802533 2:0.090516883 
-1 2:0.078782988 3:0.2867528 4:0.015706355 
-1 1:0.033530776 2:0.09442928 4:0.0067699384 
-1 1:0.071164362 2:0.069369768 
1 1:0.05458998 5:0.0040261826 
1 1:0.01781875 2:0.12321381 4:0.010326222 
1 2:0.098979973 4:0.016185594 
-1 2:0.057567349 4:0.020159013 5:0.0014084264 
-1 2:0.048120104 4:0.020714373 5:0.0021688553 
-1 4:0.018903017 5:0.009626835 
-1 4:0.018331676 5:0.010674721 
-1 1:0.036043419 5:0.019668572 
-1 4:0.018485636 5:0.010405828 
-1 4:0.018998833 5:0.0094363307 
-1 4:0.017919703 5:0.01135272 
-1 4:0.018349584 5:0.010643908 
1 2:0.041679653 4:0.021135741 
0.4259022831516676 3:2.6605389 4:0.012473699 5:0.010187596 
1 4:0.00055727897 5:0.016936975 
1 4:0.006815659 5:0.013967594 
1 3:3.0302869 4:0.0083696361 5:0.011689624 
1 2:0.087601294 4:0.0092056814 
1 2:0.14017171 4:0.00482228 
1 2:0.089489159 4:0.0087276581 
1 2:0.095865771 4:0.0079795574 
1 2:0.092067449 4:0.0082255865 
1 2:0.07558555 4:0.010264085 
1 2:0.089854376 4:0.0086872491 
1 2:0.093497792 4:0.0080451066 
-1 2:0.092147569 4:0.0080954641 
-1 2:0.10497809 3:2.7007064 4:0.0051064335 
-1 2:0.052639361 3:2.7623018 4:0.0094245755 
-1 2:0.072755918 3:2.4772345 4:0.0053338081 
-1 2:0.08039675 3:2.5527294 4:0.0043070962 
-1 2:0.058449398 3:2.6671024 4:0.0067568053 
-1 2:0.073820901 3:2.5220037 4:0.0047299238 
-1 2:0.070182211 3:2.5534238 4:0.0078932098 
-1 2:0.079168936 3:2.464968 4:0.0055643874 
1 1:0.1984585 
-1 2:0.091076058 3:2.6530603 4:0.0079592403 
-1 2:0.05590634 3:2.904015 4:0.011185435 
-1 2:0.072927427 3:2.5349253 4:0.0068390496 
-1 2:0.058365653 3:2.7495169 4:0.009801612 
-1 2:0.079138597 3:2.6153471 4:0.00737453 
-1 2:0.057272108 3:2.7229896 4:0.0095978547 
-1 2:0.09284793 3:2.7501709 4:0.0090750153 
-1 2:0.068181424 3:2.6906046 4:0.010045926 
1 2:0.064445021 3:2.8782555 4:0.0091949687 
1 1:0.083817151 2:0.084886133 
-1 1:0.132459 2:0.06569705 5:0.004091288 
1 1:0.092117271 2:0.041658943 3:2.31902 5:0.0044863615 
1 1:0.078799439 2:0.047960526 3:2.3136582 5:0.0046477879 
1 1:0.07705812 2:0.069016877 3:2.2265418 5:0.0030657046 
1 1:0.069117215 2:0.061812665 3:2.2717622 5:0.0016833425 
1 1:0.065848088 2:0.064321893 3:2.2086366 5:0.0019958479 
1 1:0.073492625 2:0.0647768 3:2.2149794 5:0.0018561166 
1 1:0.067259818 2:0.067704185 3:2.2634727 5:0.00055003493 
1 1:0.075005051 2:0.069547965 3:2.1859335 5:0.00073820117 
1 1:0.081049502 2:0.072981586 3:2.1333732 5:0.00046287186 
1 1:0.055712691 2:0.078890488 3:2.261769 
0.01776852482765836 1:0.066720793 2:0.082874534 3:2.2269841 
1 1:0.042316765 2:0.090727896 3:2.2597525 
1 1:0.055971181 2:0.087260275 3:2.226799 
1 1:0.081495507 2:0.08320322 3:1.9962547 
1 1:0.042991627 2:0.096441003 3:2.2103625 
1 1:0.063942549 2:0.097489834 3:1.9665285 
1 1:0.034876752 2:0.10215098 3:2.3020571 
1 1:0.041531246 2:0.093980922 3:2.1486946 
1 2:0.092735337 3:2.5722611 
0.7620005638813261 1:0.021332226 2:0.10204746 3:2.0947142 
1 1:0.0044374048 2:0.10527814 3:2.3811992 
0.8856348467475835 2:0.10343106 3:2.4034689 
1 2:0.105382 3:2.4293971 
1 2:0.10959187 3:2.2712786 
-1 4:0.012639291 5:0.017036676 
-1 4:0.013036205 5:0.016734914 
-1 4:0.012943089 5:0.016807035 
-1 4:0.012000077 5:0.017492803 
-1 4:0.012510678 5:0.017131343 
-1 4:0.012657801 5:0.017022928 
-1 4:0.010457816 5:0.018456275 
1 4:0.012811776 5:0.016907348 
0.06931707531555223 3:2.0156662 4:0.011595748 5:0.017763407 
0.7293139065603736 3:2.1618618 4:0.0095690402 5:0.018932339 
1 3:2.0036835 4:0.012118517 5:0.017410961 
1 3:2.2350584 4:0.0087952523 5:0.019303977 
1 3:2.1759507 4:0.0099508713 5:0.018734465 
1 3:2.565597 4:0.0019037036 5:0.02112761 
0.2233059577253528 1:0.092550311 2:0.075379753 
1 1:0.066044208 2:0.090636254 
1 1:0.0032436723 2:0.10092992 4:0.0074086627 
1 1:0.030168277 2:0.095828388 
1 1:0.096984118 2:0.080697305 
-1 2:0.092409429 4:0.0089325877 
-1 1:0.065230368 2:0.041779517 
-1 1:0.063674756 2:0.057698647 
-1 1:0.084792354 2:0.034891578 
-1 1:0.041581045 2:0.081030679 4:0.00055696416 
-1 2:0.092953171 4:0.0076183191 
-1 1:0.0065696201 2:0.092482385 4:0.0062050743 
-1 1:0.00043170547 2:0.094833774 4:0.0066912722 
-1 2:0.094638433 4:0.0065261015 
-1 2:0.069695719 4:0.0089888763 
-1 1:0.073717733 2:0.060836253 
-1 2:0.096552326 4:0.0052873836 
-1 1:0.027384792 2:0.062119205 
-1 1:0.03181294 2:0.091679001 
-1 2:0.09361872 4:0.0051463514 
-1 1:0.042474573 2:0.084217405 
-1 1:0.045351115 2:0.088426841 
-1 2:0.098928308 4:0.0054327711 
-1 1:0.02382547 2:0.098438664 
-1 2:0.096673889 4:0.0057878464 
-1 2:0.09990463 4:0.0056953612 
-1 1:0.0060115315 2:0.10538981 4:1.4851821e-05 
-1 1:0.0092152953 2:0.11208362 
-1 1:0.010940614 2:0.11219372 
1 1:0.10191468 2:0.013767313 3:2.8655775 
1 2:0.082253699 4:0.012582643 
1 2:0.076298275 4:0.012401696 
1 2:0.063944083 4:0.013511329 
1 2:0.10210126 4:0.010253635 
1 2:0.073246202 4:0.012777015 
1 2:0.077369625 4:0.012416394 
1 2:0.10216245 4:0.010427343 
-1 2:0.071038441 4:0.013303583 
-1 2:0.077046667 3:0.96975296 4:0.010414394 
-1 2:0.066577674 3:1.0770067 4:0.01169018 
-1 2:0.052337772 3:1.2720065 4:0.013533235 
1 2:0.038012394 3:1.2899253 4:0.014402947 
-1 2:0.10070763 3:0.74397644 4:0.0078536666 
-0.07743357638120954 2:0.11125074 3:0.79640245 4:0.0086021574 
0.2543999508028987 2:0.19962281 3:0.80420664 4:0.005283878 
1 1:0.018512542 2:0.17282155 
-1 1:0.097134388 2:0.14729505 
-1 1:0.01429562 2:0.084635065 
-1 1:0.017051914 2:0.085079464 
-1 1:0.024074597 2:0.084839147 
-1 1:0.010096113 2:0.086878973 
-1 1:0.028477134 2:0.082417351 
-1 1:0.033753703 2:0.08460746 
-1 1:0.030869966 2:0.089221058 
-1 1:0.012774508 2:0.092352151 
1 3:0.078752877 4:0.0054574217 5:0.014110152 
1 3:0.41321719 4:4.4514838e-05 5:0.015053376 
0.1476951209330001 1:0.027354055 3:0.76929998 5:0.014341467 
1 1:0.019168438 3:0.64186621 5:0.014681096 
1 3:0.3281307 4:0.0011006608 5:0.015023123 
1 3:0.31475459 4:0.0020826675 5:0.014960998 
1 1:0.0080087868 3:0.61298204 5:0.014993421 
1 1:0.015552131 3:0.69905926 5:0.01475113 
1 1:0.0046341682 3:0.55704905 5:0.01501156 
1 3:0.46832045 5:0.015097583 
1 3:0.4837129 5:0.01505152 
1 1:0.0019400192 3:0.56156559 5:0.015002574 
1 3:0.39350846 5:0.015034823 
1 3:0.28352317 4:0.0011882189 5:0.014979166 
1 3:0.19922779 4:0.0019201175 5:0.014889982 
1 3:0.21676235 4:0.001906788 5:0.014896375 
1 3:0.26345022 4:0.001197951 5:0.014974762 
1 3:0.30156549 4:0.00060285133 5:0.015010349 
-0.6682130874972958 3:0.31726409 4:0.00059044722 5:0.014997559 
1 3:0.14796854 4:0.0022072684 5:0.014841268 
1 2:0.079674266 4:0.010679284 
1 2:0.090638879 4:0.0093938091 
1 2:0.090395157 4:0.0096653709 
1 2:0.07787418 4:0.010858798 
-0.05441655892592975 1:0.13634028 3:1.3750742 5:0.011401687 
1 2:0.078847369 4:0.010663853 
1 2:0.11421258 4:0.0069260492 
1 2:0.098762527 4:0.0089021529 
1 2:0.087054691 4:0.010692527 
1 2:0.099944105 4:0.0081858611 
1 2:0.095744632 4:0.0089257259 
-1 2:0.079163115 4:0.010887732 
-1 2:0.064039946 3:2.6476621 4:0.0095920955 
-1 2:0.085916038 3:2.2631109 4:0.0075072262 
-1 2:0.055213756 3:2.5993159 4:0.0094245528 
-1 2:0.059099193 3:2.3864427 4:0.0075947998 
-1 2:0.056155317 3:2.4780459 4:0.0087707186 
-1 2:0.046570502 3:2.5733886 4:0.010311186 
-1 2:0.072423966 3:2.2530703 4:0.0058864965 
-1 2:0.073501801 3:2.3737691 4:0.0084222197 
-1 2:0.073344464 3:2.4652198 4:0.0096312638 
-0.05775897164562352 2:0.067505713 3:2.4089755 4:0.0082974405 
-1 2:0.078959641 3:2.3134334 4:0.0056255481 
-1 2:0.096086563 3:2.1902021 4:0.0049534647 
-1 2:0.094527775 3:2.6358175 4:0.0096194209 
1 2:0.055848353 3:3.0887059 4:0.014380609 
1 2:0.061445362 3:3.0379808 4:0.014499512 
-1 1:0.13374929 2:0.069686309 5:0.00058426354 
1 1:0.089457046 2:0.050981147 3:1.0764536 
1 1:0.095067636 2:0.038974519 3:0.76173626 5:6.0138091e-05 
1 1:0.084845392 2:0.051087591 3:0.82473604 
-1 1:0.019822604 2:0.026146805 3:2.5079494 
1 4:0.015079244 5:0.0041914301 
1 2:0.11000742 4:0.0041373487 
1 2:0.096050925 4:0.0044524958 
1 2:0.094417057 4:0.0062158336 
1 2:0.092346617 4:0.0062400624 
1 2:0.10708949 4:0.0033960723 
1 2:0.1005174 4:0.0064679432 
1 2:0.13522878 4:0.0010883575 
1 2:0.095302866 4:0.0061846736 
1 2:0.072315511 4:0.0093342437 
1 2:0.089982916 4:0.0066518853 
-1 2:0.094899539 4:0.0057260293 
-0.6611130899992077 2:0.092988885 3:0.53620492 4:0.004251729 
-1 2:0.10080685 3:0.60828884 4:0.0070855428 
-0.1717556321188801 3:1.2288837 4:0.015932923 5:0.014005069 
1 3:0.65882705 4:0.020971708 5:0.0031917774 
1 4:0.020672116 5:0.0047606307 
1 2:0.011161077 4:0.017996027 5:0.011231341 
