svm_type epsilon_svr
kernel_type linear
nr_class 2
total_sv 15572
rho 0.0010037
SV
-1 2:0.027321682 4:0.017828967 5:0.0065813144 
-1 2:0.033058278 4:0.018076938 5:0.0058991777 
-1 2:0.029193806 4:0.01792162 5:0.0063248211 
-1 2:0.022761599 4:0.017584601 5:0.0071854858 
-1 2:0.022822531 4:0.017668613 5:0.0072418749 
-1 2:0.022082178 4:0.017649164 5:0.0073723016 
-1 2:0.020447758 4:0.017550738 5:0.0075812811 
-1 2:0.017000407 4:0.017445907 5:0.0080138417 
-1 2:0.017961204 3:1.5477562 4:0.017296167 5:0.0067677022 
1 2:0.018564745 3:1.5518862 4:0.017300534 5:0.0065654011 
1 2:0.017809742 3:1.6023311 4:0.016476677 5:0.0065265001 
1 2:0.017486821 3:1.6185745 4:0.016549732 5:0.0063776189 
1 2:0.017506942 3:1.6571222 4:0.016069269 5:0.0060997878 
1 2:0.017072885 3:1.6717148 4:0.015972662 5:0.0058885129 
1 2:0.017532957 3:1.6875978 4:0.015836894 5:0.0056198517 
1 2:0.01512813 3:1.7331478 4:0.015567735 5:0.005877605 
1 2:0.01719264 3:1.7326101 4:0.015564288 5:0.0054957949 
-1 2:0.016419539 3:1.7640723 4:0.015465783 5:0.0054336846 
1 2:0.017771704 3:1.7645125 4:0.015438162 5:0.0052319929 
1 2:0.019367584 3:1.750391 4:0.015540109 5:0.0048576166 
1 2:0.022197383 3:1.7438132 4:0.015444907 5:0.0044722421 
1 2:0.016767208 3:1.7905118 4:0.015214613 5:0.0051371699 
1 2:0.015378138 3:1.7969688 4:0.015196059 5:0.0052115464 
1 2:0.020719386 3:1.7637118 4:0.015333264 5:0.0044272151 
1 2:0.017159746 3:1.79135 4:0.015183785 5:0.004814689 
1 2:0.016883863 3:1.8208275 4:0.01510743 5:0.0048041767 
1 2:0.012328135 3:1.8851531 4:0.01481348 5:0.0052032 
1 2:0.00893014 3:1.9116141 4:0.014717489 5:0.0054564193 
1 2:0.032099962 3:1.7927793 4:0.015205539 5:0.0027148287 
1 2:0.020219595 3:1.875443 4:0.01493654 5:0.0040922455 
1 2:0.031623056 3:1.7922285 4:0.015177406 5:0.0027176898 
1 2:0.015812928 3:1.9215027 4:0.014716679 5:0.0046157964 
1 2:0.014582142 3:1.9039609 4:0.014758318 5:0.0045986527 
1 2:0.016496125 3:1.9364384 4:0.01468749 5:0.0044380658 
1 2:0.021540391 3:1.920843 4:0.014804078 5:0.0038566409 
1 2:0.020300512 3:1.9436921 4:0.014707872 5:0.0041285105 
1 2:0.029391403 3:1.8994367 4:0.01490909 5:0.0029425596 
1 2:0.020473291 3:1.9526461 4:0.014729185 5:0.0039177719 
1 2:0.017348935 3:1.9879599 4:0.014542405 5:0.0044794647 
1 2:0.020320238 3:1.9748932 4:0.014652638 5:0.0040561987 
1 2:0.020041271 3:1.938948 4:0.01468789 5:0.0042329047 
1 2:0.016042415 3:2.0188432 4:0.014459969 5:0.0044354586 
1 2:0.033698225 3:1.814505 4:0.015094943 5:0.0019534436 
-1 2:0.011864615 3:2.0400339 4:0.014299124 5:0.0050875126 
-1 1:0.18004058 
1 3:2.0783883 4:0.013548955 5:0.0072782101 
1 2:0.028159785 3:1.9566449 4:0.014664228 5:0.0033352535 
1 2:0.017796772 3:2.0607406 4:0.01431317 5:0.0045343748 
1 2:0.075174548 3:1.6597982 4:0.014792642 
1 2:0.020813401 3:1.9846854 4:0.014510209 5:0.0039951705 
1 1:0.16031487 5:0.0011721517 
1 2:0.015044191 3:2.0536408 4:0.014224769 5:0.0049834078 
1 2:0.040859471 3:1.8423788 4:0.014954081 5:0.0016501062 
0.02399858699022015 1:0.12058114 5:0.0034467032 
1 2:0.019411631 3:2.1196028 4:0.014207727 5:0.0048192286 
1 2:0.11786102 3:1.4260153 4:0.014293947 
1 3:2.665328 4:0.0083470756 5:0.012578132 
1 1:0.1087226 5:0.0054344735 
1 2:0.081061152 3:1.6855341 4:0.015014254 
1 1:0.14511213 5:0.00061588459 
1 2:0.038304804 3:1.980602 4:0.014668744 5:0.0031729678 
1 2:0.08916131 3:1.648317 4:0.014686181 
1 2:0.076693712 3:1.7291036 4:0.015026217 5:0.00024036433 
1 2:0.032509085 3:1.9779632 4:0.01460344 5:0.0034865185 
1 2:0.034939543 3:2.0758005 4:0.014447338 5:0.0040349107 
1 2:0.029264333 3:2.1187175 4:0.014303577 5:0.0045224796 
1 2:0.049677083 3:2.0204969 4:0.014783393 5:0.0025474237 
1 2:0.064594277 3:1.9155663 4:0.014984005 5:0.0008244676 
1 1:0.16055304 
1 2:0.0896185 3:1.7099495 4:0.014848069 
1 2:0.053705158 3:2.0180713 4:0.014793326 5:0.0025260642 
1 2:0.03174384 3:2.2328874 4:0.013999515 5:0.0053938043 
1 2:0.059017228 3:2.0023436 4:0.014779029 5:0.0025806551 
-1 4:0.0025304083 5:0.021061743 
-1 4:0.010757787 5:0.017359135 
1 1:0.068712116 2:0.055974755 3:1.6897765 
-1 4:0.010886766 5:0.017091548 
-1 4:0.010870632 5:0.017205474 
-1 4:0.0063436497 5:0.020187984 
-1 4:0.010035937 5:0.018509948 
-1 4:0.011753398 5:0.01696746 
-1 4:0.013147211 5:0.016647848 
1 3:2.4503591 4:0.011527906 5:0.017807509 
-1 3:2.4733282 4:0.01009852 5:0.017735376 
-1 1:0.084302986 2:0.054586799 
-1 3:2.4845058 4:0.0093931498 5:0.017522708 
1 1:0.0086190536 3:2.836798 4:0.0025567724 5:0.019826095 
-1 3:2.4956051 4:0.0088696879 5:0.017237543 
1 3:2.8755268 4:0.0037847245 5:0.02087285 
1 3:2.8080291 4:0.004756555 5:0.019850964 
-1 3:2.5044866 4:0.0091719805 5:0.017608866 
1 3:2.883812 4:0.0020645792 5:0.019868665 
1 3:2.6580681 4:0.0056960321 5:0.018407735 
1 3:2.444527 4:0.0095006634 5:0.017132751 
1 3:2.4931614 4:0.0084054969 5:0.017554016 
-1 3:2.5578586 4:0.0066611032 5:0.017808452 
1 3:2.855308 4:0.0040042967 5:0.020831841 
-0.3966018470084224 3:2.4281188 4:0.010277221 5:0.016671361 
-1 3:2.7473108 4:0.0038244266 5:0.01904219 
-1 3:2.7132008 4:0.0046087147 5:0.018772056 
1 3:2.6766166 4:0.0041834289 5:0.018253804 
1 3:2.9895023 4:0.00052189216 5:0.020509369 
-1 3:2.8887898 4:0.0015795693 5:0.019599483 
-1 1:0.082812671 2:0.013869 
1 5:0.02025903 
1 3:2.9266897 5:0.018985141 
-1 1:0.07189954 2:0.028612284 
-1 1:0.069843741 2:0.038607875 
-1 1:0.054027687 2:0.04479808 
1 1:0.11164662 
-1 1:0.083548652 2:0.050264571 
1 3:2.897217 4:0.00059114253 5:0.019211302 
-1 1:0.061876994 2:0.052241374 
-1 1:0.06605327 
-1 1:0.056657331 2:0.045848785 
-1 3:2.7637391 4:0.0079429551 5:0.016645288 
-1 1:0.058520271 2:0.0095442033 
-0.01362334488359146 3:2.7965781 4:0.0078746508 5:0.016173499 
-1 2:0.1105212 3:0.71749726 4:0.012839638 
-1 1:0.056119109 2:0.013444699 
-1 1:0.064377947 2:0.0052728111 
-1 2:0.0058717996 3:2.4066211 4:0.012844741 5:0.012833007 
1 3:2.9944269 4:0.0034973349 5:0.016647459 
-1 1:0.023814968 2:0.025725922 
-1 3:2.9498496 5:0.016435616 
-1 1:0.057376287 2:0.012091117 
1 5:0.014783325 
-1 1:0.0550876 2:0.010616298 
-1 1:0.099786422 5:0.003159461 
-0.9772369219996162 1:0.10504344 5:0.0029800898 
-1 1:0.10079209 5:0.0037755309 
-1 1:0.10146407 5:0.0043653528 
-1 1:0.10715147 5:0.0030998146 
1 1:0.099684129 3:2.8736832 5:0.0059371447 
1 1:0.11459818 3:2.9391635 5:0.0041012434 
-1 1:0.10059344 3:2.8885429 5:0.0053407298 
1 1:0.10420433 3:2.8625493 5:0.0064438881 
1 1:0.10073085 3:2.8719656 5:0.006097853 
1 1:0.10199901 3:2.9664914 5:0.0051140956 
1 1:0.10144171 3:2.9457176 5:0.0049859821 
1 1:0.10771729 3:2.9313047 5:0.0054848173 
1 1:0.1132962 3:2.9910881 5:0.0043643124 
1 1:0.11844337 3:3.0006097 5:0.0036572262 
1 1:0.10291288 3:2.9478281 5:0.0059553151 
1 1:0.11316148 3:3.0081186 5:0.0044044515 
1 1:0.096225928 3:2.8803429 5:0.0069558377 
-1 1:0.098834953 3:2.8910142 5:0.0072830991 
1 1:0.045175668 2:0.12455903 
1 1:0.045903963 2:0.12344625 
1 1:0.045809468 2:0.12306679 
1 1:0.048987074 2:0.12100032 
1 1:0.050101103 2:0.1195698 
-1 1:0.049167548 2:0.12105788 
-1 1:0.038792335 2:0.099637409 
-1 1:0.037655092 2:0.094768277 
-1 1:0.037336268 2:0.08952766 
-1 1:0.037456587 2:0.089008198 
-1 1:0.036798607 2:0.083335295 
-1 1:0.036799678 2:0.079396882 
-1 1:0.038876714 2:0.075215627 
-1 1:0.036898406 2:0.070074342 
-1 1:0.034771303 2:0.068386037 
-1 1:0.034277914 2:0.065430886 
-1 1:0.038691767 2:0.060324765 
-1 1:0.028364332 2:0.060071549 
-1 1:0.030238545 2:0.057130621 
-1 1:0.03450524 2:0.057905441 
-1 1:0.038494843 2:0.061176255 
-1 1:0.035730716 2:0.05434745 
-1 1:0.037110209 2:0.059372152 
-1 1:0.026264651 2:0.058341882 
-1 1:0.027610914 2:0.055621375 
-1 1:0.035651573 2:0.050056745 
-1 1:0.034104607 2:0.059725119 4:0.00089351863 
-1 1:0.026955659 2:0.056324287 4:0.00035022453 
-1 1:0.02714356 2:0.054123283 4:0.00032584483 
-1 1:0.036623554 2:0.053204298 
-1 1:0.030427862 2:0.052263167 4:0.00023286731 
-1 1:0.032226404 2:0.059776001 4:0.001203619 
-1 1:0.030793462 2:0.046130757 
-1 1:0.033966634 2:0.046739904 
-1 1:0.030450848 2:0.059528757 
-1 1:0.040968228 2:0.051040545 
-1 1:0.027266442 2:0.056220006 4:1.6825736e-05 
-1 1:0.043382822 2:0.054006445 
-1 1:0.04120326 2:0.057445348 
-1 1:0.044243399 2:0.056087993 
-1 1:0.0274913 2:0.055766148 4:0.00033763251 
-1 1:0.042448238 2:0.041938798 
-1 1:0.039371397 2:0.056714615 
-1 1:0.047540934 2:0.05255774 
-1 1:0.04651265 2:0.045300941 
-1 1:0.043358856 2:0.065428655 
-1 1:0.037258579 2:0.053362048 
-1 1:0.015172933 2:0.055167682 4:0.00024825796 
-1 1:0.030624377 2:0.051091299 
-1 1:0.042451246 2:0.052464799 
-1 1:0.014370562 2:0.055699014 4:0.00047312001 
-1 1:0.052647042 2:0.055296331 
-1 1:0.050918083 2:0.051961606 
-1 1:0.045705847 2:0.051527514 
-1 1:0.021113494 2:0.056785645 4:0.00045814432 
-1 1:0.050459725 2:0.054736898 
-1 1:0.021642588 2:0.065419169 
-1 1:0.018790763 2:0.051658856 
-1 1:0.05760291 2:0.04652195 
-1 1:0.05980975 2:0.049269982 
-1 1:0.017801888 2:0.049409792 
-1 1:0.047634041 2:0.051251188 
-1 1:0.054840122 2:0.046249678 
-1 1:0.03427411 2:0.0566774 
-1 1:0.027188461 2:0.056438898 
-1 1:0.055419137 2:0.052388726 
-1 1:0.045920833 2:0.053406543 
-1 1:0.057826731 2:0.043756218 
-1 1:0.040061497 2:0.061025161 
-1 1:0.052476124 2:0.056716676 
-1 1:0.052521786 2:0.053933572 
-1 1:0.032630193 2:0.057267112 
-1 1:0.040790655 2:0.051011007 
-1 1:0.040707178 2:0.053178565 
-1 1:0.050284018 2:0.046802369 
-1 1:0.036109107 2:0.054430532 
-1 1:0.055708146 2:0.045705204 
-1 1:0.069079236 2:0.043502462 
-1 1:0.061760486 2:0.05099 
-1 1:0.068005711 2:0.059993815 
-1 1:0.066623393 2:0.054370259 
-1 1:0.070451867 2:0.035737688 
-1 1:0.064387181 2:0.055892913 
-1 1:0.055799894 2:0.047593106 
-1 1:0.077257789 2:0.041168797 
-1 1:0.040695394 2:0.053042394 
-1 1:0.084088553 2:0.05461495 
-1 1:0.074493894 2:0.0541576 
-1 1:0.063718193 2:0.053064898 
-1 1:0.079235869 2:0.046834283 
-1 1:0.069685761 2:0.055560156 
-1 1:0.066457911 2:0.052558049 
-1 1:0.086960011 2:0.056358738 
-1 1:0.054604394 2:0.048503321 
-1 1:0.066840058 2:0.047132611 
-1 1:0.039191737 2:0.050240235 
-1 1:0.026025884 2:0.055750269 
-1 1:0.018913437 2:0.056828667 
-1 1:0.04383508 2:0.049311238 
-1 1:0.073655796 2:0.051712534 
-1 1:0.086306998 2:0.044005191 
-1 1:0.066302667 2:0.058027914 
-1 1:0.044491683 2:0.054323974 
-1 1:0.034221215 2:0.051203475 
-1 1:0.023411791 2:0.054265958 
-1 1:0.071536464 2:0.050194757 
-1 1:0.072736999 2:0.047595239 
-1 1:0.050115404 2:0.052066173 
-1 1:0.07732499 2:0.042753481 
-1 1:0.031499099 2:0.054082849 
-1 1:0.067449325 2:0.054770863 
-1 1:0.033706966 2:0.03378992 
-1 1:0.082252857 3:2.0250927 5:0.0084994537 
-1 1:0.047385954 2:0.055525865 
-1 1:0.062701964 2:0.063834407 
-1 1:0.062102126 2:0.059129457 
-1 1:0.03630263 2:0.060699995 
1 2:0.059861556 
1 2:0.045211161 
-1 3:0.68203548 4:0.006262177 5:0.014728324 
-1 4:0.01492935 5:0.010227922 
-1 4:0.015300908 5:0.010020802 
-1 4:0.014939506 5:0.01007821 
-1 4:0.014923458 5:0.010243441 
-1 4:0.015728065 5:0.0089348152 
-1 4:0.015111308 5:0.010125621 
-1 4:0.015089321 5:0.0099555275 
-1 4:0.015172337 5:0.0099431633 
1 4:0.015259856 5:0.009832535 
1 4:0.013109014 5:0.011111886 
1 4:0.012116459 5:0.011385144 
1 4:0.011913636 5:0.011247175 
1 4:0.011760004 5:0.011446563 
1 4:0.011618622 5:0.011468601 
1 4:0.011119115 5:0.011846993 
1 4:0.011141334 5:0.0117111 
1 4:0.010861028 5:0.01209779 
1 4:0.010488689 5:0.01208105 
1 4:0.011778046 5:0.011453916 
1 4:0.010940207 5:0.011940382 
1 4:0.010387553 5:0.012171491 
1 4:0.010934988 5:0.011724876 
1 4:0.010135821 5:0.012331065 
1 4:0.011228415 5:0.011449158 
1 4:0.011129468 5:0.011486909 
1 4:0.010695154 5:0.012112574 
1 4:0.0097516799 5:0.012565876 
1 4:0.0098783301 5:0.012572837 
1 4:0.009524499 5:0.012675972 
1 4:0.010140622 5:0.012236091 
1 4:0.0094818443 5:0.012729196 
1 4:0.0093066274 5:0.012592755 
1 4:0.0094747904 5:0.012639838 
1 4:0.008998507 5:0.013064091 
1 4:0.0089117107 5:0.013003831 
-1 4:0.0090381426 5:0.01298876 
1 4:0.009004047 5:0.012792904 
-1 4:0.0085940473 5:0.013256103 
1 4:0.0086245598 5:0.013258563 
1 4:0.0091985706 5:0.012840228 
-1 4:0.0090375495 5:0.01302854 
1 4:0.008780085 5:0.013085223 
1 4:0.0086433668 5:0.013371989 
1 4:0.0086614458 5:0.013011555 
1 4:0.0086624609 5:0.013116293 
1 4:0.0081922874 5:0.013475746 
1 4:0.0083855763 5:0.01345529 
1 4:0.0070467192 5:0.01397549 
1 4:0.0082360362 5:0.013457061 
-1 4:0.0076672305 5:0.013714028 
1 4:0.0077384929 5:0.013683239 
-1 4:0.0077628792 5:0.013763424 
1 4:0.0076616396 5:0.013748335 
1 4:0.007518983 5:0.01381889 
1 4:0.0076202638 5:0.013664144 
1 4:0.0079775979 5:0.013917235 
1 4:0.0072388472 5:0.01399068 
1 4:0.0070533097 5:0.013969698 
1 4:0.0070639154 5:0.013979893 
1 4:0.0069801403 5:0.014004914 
1 4:0.0073936409 5:0.013849712 
1 4:0.0069372526 5:0.014060205 
1 4:0.0073634335 5:0.013780008 
-1 4:0.006918623 5:0.013969 
1 4:0.0067345334 5:0.014107319 
1 4:0.0069752254 5:0.013995564 
1 4:0.0081160224 5:0.013527441 
1 4:0.0065923535 5:0.01413402 
1 4:0.0064726207 5:0.014124486 
1 4:0.0059710426 5:0.014272719 
1 4:0.0062593109 5:0.014267459 
1 4:0.0054721064 5:0.014532153 
1 4:0.0048483861 5:0.014738739 
1 4:0.0066617322 5:0.013862476 
1 4:0.0052178578 5:0.014575593 
1 4:0.0068647502 5:0.014105132 
1 4:0.0074577537 5:0.013661398 
1 4:0.0045742236 5:0.014586703 
1 4:0.0055839012 5:0.014498512 
1 4:0.0053639006 5:0.014596158 
1 1:0.040677338 5:0.013248219 
1 4:0.0064894682 5:0.013740301 
1 4:0.011394619 5:0.011066338 
1 4:0.0036266347 5:0.015256142 
1 4:0.0045151538 5:0.014719411 
1 4:0.0016891292 5:0.01500272 
1 1:0.0088863701 5:0.015227749 
1 4:0.0022504271 5:0.01592772 
1 4:0.0052724111 5:0.01510056 
1 1:0.026338194 5:0.013947416 
1 4:0.0028216308 5:0.015307269 
1 4:0.0051115239 5:0.01507773 
1 1:0.049958327 5:0.013016465 
1 4:0.0047118222 5:0.014918411 
1 4:0.0021500494 5:0.015429333 
1 4:0.0014338785 5:0.015717269 
1 1:0.019827361 5:0.014572101 
1 1:0.0252303 5:0.014187239 
1 4:0.014205081 5:0.0063882025 
1 1:0.0084605556 5:0.014945234 
1 1:0.026913764 5:0.014283788 
1 4:0.012818379 5:0.0085218341 
1 1:0.022775812 5:0.014883967 
1 4:0.0058171184 5:0.014283218 
1 1:0.033574391 5:0.013447562 
1 1:0.03781513 5:0.013800618 
-1 1:0.12520106 2:0.039132199 3:1.6741295 
1 5:0.014958267 
1 5:0.015217782 
1 4:0.0041640857 5:0.014542846 
-1 2:0.060529579 3:2.8950138 4:0.011816861 
1 1:0.059162297 5:0.011821981 
-1 1:0.046543504 2:0.10314829 3:2.7635053 4:0.007369396 
1 4:0.0029395942 5:0.015475978 
1 1:0.086338546 5:0.0061087054 
1 4:0.0086990149 5:0.013539045 
1 2:0.08766434 4:0.018341907 
1 2:0.088530239 4:0.017331697 
1 4:0.0024266181 5:0.015281067 
1 2:0.085451937 4:0.017888985 5:0.003531733 
1 4:0.010581081 5:0.010830334 
1 1:0.021547206 5:0.013683291 
-1 1:0.093124193 2:0.10058738 3:2.6373076 4:0.0052881396 
1 1:0.0075200447 2:0.1063294 3:3.1337854 4:0.013671997 
-1 2:0.059272306 3:3.0755324 4:0.013412129 
-1 2:0.051333607 3:2.7694051 4:0.012311617 
1 2:0.097266115 4:0.015414292 
1 2:0.10968797 4:0.016509262 
-1 2:0.077032634 4:0.014637461 
-1 2:0.060999888 3:2.9020827 4:0.012756178 
-1 2:0.066206695 3:2.7194876 4:0.010706791 
1 2:0.064125291 4:0.016694599 
1 5:0.013574851 
-1 2:0.057571399 3:2.7715386 4:0.011835089 
-1 2:0.073330463 3:2.795258 4:0.011859434 
1 2:0.076481108 4:0.015253639 
-1 2:0.068404754 3:2.8487808 4:0.012213595 
1 2:0.046110709 4:0.012174479 5:0.0098878749 
-1 1:0.015385419 2:0.063944188 3:2.5966183 4:0.0090063074 
1 1:0.0014415837 2:0.054196693 3:2.9104544 4:0.013284852 
1 1:0.0015465813 2:0.055764307 3:3.0609214 4:0.013749795 
-1 1:0.026804042 2:0.080442786 3:3.0158507 4:0.013093865 
1 2:0.059149108 4:0.014692657 
1 2:0.00031983255 4:0.0073842686 5:0.013312026 
1 2:0.0025937775 4:0.0072064375 5:0.013424835 
1 4:0.0086074656 5:0.012594795 
1 2:0.076566546 4:0.015330602 5:0.00094974027 
1 2:0.055718424 4:0.01225367 5:0.0088884819 
1 2:0.044927583 4:0.012318658 5:0.009031069 
1 1:0.19369501 2:0.026103758 5:0.0020922593 
1 1:0.1932819 2:0.032058074 5:0.0016686614 
1 1:0.19986126 2:0.024325173 5:0.0026331344 
1 1:0.1274051 2:0.027544806 3:2.0499252 
-1 1:0.12188031 2:0.032869957 3:2.104159 
-1 1:0.12672051 2:0.029024362 3:2.1364157 
-0.6896027490061258 1:0.12588878 2:0.02883954 3:2.0558173 
-1 1:0.126988 2:0.027721654 3:2.0789459 
-1 1:0.12864527 2:0.027680947 3:2.0758015 
-1 1:0.12338329 2:0.031834716 3:2.0704258 
1 1:0.12719537 2:0.024714021 3:2.0766499 
-1 1:0.12763866 2:0.023905704 3:2.0632051 
-1 1:0.12639431 2:0.025446295 3:2.0820704 
-1 1:0.12918197 2:0.023810241 3:2.0911405 
-1 1:0.12592604 2:0.028054442 3:2.0756592 
-1 1:0.12905592 2:0.022045123 3:2.0560967 
-1 1:0.12720409 2:0.025288816 3:2.0801967 
-1 1:0.13247696 2:0.028677866 3:2.105956 
-1 1:0.12915583 2:0.016098321 3:2.0458184 
-1 1:0.12373082 2:0.04067996 3:2.1843839 
-1 1:0.1280968 2:0.022563806 3:2.0430111 
-1 1:0.12830646 2:0.017247129 3:2.0422297 
-1 1:0.12826918 2:0.019413449 3:2.0688328 
-1 1:0.12707151 2:0.017416046 3:2.071483 
1 1:0.13121629 2:0.00050764755 3:1.9567661 5:0.000190712 
-1 1:0.13065292 2:0.016522159 3:2.0621761 
-0.8578495607301848 1:0.12822148 2:0.017595583 3:1.9634959 
-1 1:0.12929325 2:0.01542634 3:2.0361738 
-0.9549018794055841 1:0.13367152 2:0.013207773 3:1.9389899 
-1 1:0.14278047 2:0.03862367 3:2.1304322 
1 1:0.13163377 2:0.013103754 3:1.9803017 
-1 1:0.12549319 3:1.7988834 5:0.0015219493 
-1 1:0.12614233 2:0.017274182 3:2.0084626 
1 1:0.12219673 2:0.0087325439 3:1.9716061 
-1 1:0.1306888 2:0.01325938 3:1.9845237 
1 1:0.1306545 3:1.9596016 
-1 1:0.13437631 2:0.023682368 3:2.0446501 
-1 1:0.13297568 2:0.015212175 3:1.9613903 
-1 1:0.13908085 2:0.007352455 3:1.8781972 
1 1:0.12917574 3:1.7966893 5:0.00050275791 
-1 1:0.1264605 2:0.0049326584 3:1.953558 
1 1:0.1273389 3:1.8157145 
-1 1:0.12913114 2:0.017759996 3:2.0319245 
1 1:0.13349 2:0.0041672465 3:1.8999765 
-1 1:0.13648509 2:0.018697346 3:1.980963 
-1 1:0.12823566 2:0.011391226 3:1.9884569 
-1 1:0.13255207 2:0.0083764423 3:1.9792424 
-1 1:0.1232407 2:0.0063730915 3:1.94643 
1 1:0.10735979 3:1.8929863 5:0.0011706081 
-1 1:0.13096217 3:1.9836057 
-1 1:0.1335275 3:1.9129438 
-1 1:0.13456524 2:0.02537634 3:2.0768297 
-1 1:0.12544257 2:0.0054979476 3:1.9611937 
-1 1:0.12349684 3:1.9476576 
-1 1:0.12516256 3:1.959183 5:0.00075117613 
-1 1:0.12033923 3:1.984559 
-0.2972209722941686 1:0.12791255 2:0.003461756 3:2.0161451 
1 1:0.11458899 3:1.6446847 5:0.0021283886 
-1 1:0.12448859 3:1.9437515 
1 1:0.12841414 3:1.847495 5:0.0011995532 
-1 1:0.12814095 3:1.9339244 
-1 1:0.11602678 2:0.013054819 3:2.0342375 
1 1:0.10642279 3:1.6319109 5:0.0067978423 
-1 1:0.12208833 2:0.025761463 3:2.1442371 
1 1:0.13027605 3:1.8042147 5:0.001183957 
-1 1:0.11587802 3:1.8157652 5:0.0023036382 
-1 1:0.13605188 2:0.016450947 3:2.0421937 
-1 1:0.12399562 3:1.978787 
-0.6011576147558744 1:0.13377481 2:0.011694171 3:2.0007491 
1 1:0.12118735 3:1.9418117 5:0.0002825878 
-1 1:0.12073127 3:1.9438414 
-1 1:0.12798594 2:0.0069554968 3:1.9345347 
1 1:0.12095116 3:1.8719404 5:0.00088859213 
-1 1:0.13567152 3:1.8962489 5:0.00014162473 
-1 1:0.12831125 3:1.8145343 5:0.00045325586 
-1 1:0.1288241 3:1.8691846 
-1 1:0.13177791 3:1.8498337 5:0.0014326078 
-1 1:0.12815646 3:1.7670515 5:0.0015322509 
1 1:0.1222765 3:1.768123 5:0.0014774474 
-1 1:0.12843435 3:1.8347484 5:0.0011593472 
1 1:0.086672276 3:1.1377587 5:0.0082536509 
1 1:0.10443101 3:1.2931515 5:0.0072865066 
1 1:0.12199075 3:1.4313284 5:0.0043672488 
-1 4:0.013703276 5:0.0061553929 
-1 4:0.012804399 5:0.0079852615 
-1 4:0.013690524 5:0.0061918759 
-1 4:0.013694927 5:0.0061697156 
-1 4:0.01271922 5:0.008119703 
-1 4:0.013261461 5:0.0071442946 
-1 4:0.013758453 5:0.0060621556 
-1 4:0.013644062 5:0.0062951231 
1 4:0.013704646 5:0.0061512879 
1 3:1.8189454 4:0.014473098 5:0.0041789863 
1 3:1.8343087 4:0.014485923 5:0.0041285916 
1 3:1.8307882 4:0.014368061 5:0.0044305978 
1 3:1.8363684 4:0.014468851 5:0.004129416 
-1 3:1.8755254 4:0.01411864 5:0.0051170225 
1 3:1.8785174 4:0.01433251 5:0.0045369134 
-1 3:1.8072126 4:0.01462883 5:0.0035514506 
-1 3:1.685627 4:0.014910993 5:0.0021483215 
-1 3:1.7067612 4:0.014908214 5:0.0022262252 
1 3:1.7431896 4:0.01465346 5:0.0033835029 
1 3:1.8087901 4:0.014558595 5:0.0038169926 
-1 3:1.7292377 4:0.014968361 5:0.0020395647 
-1 3:1.7313039 4:0.014903657 5:0.0023534575 
1 3:1.7147603 4:0.014839771 5:0.0026072257 
1 3:1.6851114 4:0.015006963 5:0.002092425 
-1 3:1.6951423 4:0.014952524 5:0.0022692462 
-1 3:1.6797951 4:0.014911015 5:0.0023245033 
1 3:1.7056852 4:0.014907993 5:0.0025926822 
-1 3:1.6374344 4:0.01498599 5:0.0019342915 
1 3:1.7325453 4:0.014778462 5:0.0031317176 
1 3:1.7158273 4:0.014845536 5:0.0027868753 
1 3:1.6952019 4:0.014972578 5:0.0023265767 
1 3:1.7648104 4:0.014728414 5:0.0034581604 
1 3:1.8542808 4:0.014224431 5:0.0051561925 
-1 3:1.6671409 4:0.01493759 5:0.0024534919 
1 3:1.667329 4:0.014650018 5:0.0035094575 
1 3:1.68404 4:0.01492113 5:0.0025188941 
-1 3:1.6750398 4:0.01479103 5:0.0030080062 
1 3:1.8107869 4:0.014588953 5:0.0043174509 
-1 3:1.68332 4:0.014934955 5:0.0026204226 
1 3:1.6741557 4:0.014599099 5:0.0036996705 
-1 3:1.6804595 4:0.014747084 5:0.0031677862 
1 3:1.7711688 4:0.014081053 5:0.0053205703 
-1 3:1.6847426 4:0.014752876 5:0.0031955854 
1 3:1.6795735 4:0.014940704 5:0.0028133896 
-1 3:1.7457019 4:0.015008365 5:0.0027269685 
-1 3:1.742813 4:0.014776181 5:0.0035124621 
1 3:1.8973501 4:0.013821032 5:0.0062265951 
-1 3:1.7383974 4:0.01478046 5:0.003329979 
1 3:1.9810155 4:0.013529853 5:0.0068001718 
1 3:1.7736741 4:0.014535563 5:0.0040789962 
1 3:1.9459969 4:0.013481286 5:0.0067237473 
1 3:1.7913966 4:0.01431843 5:0.0046691667 
-1 3:1.7744924 4:0.014655824 5:0.0037551583 
1 3:1.9204026 4:0.013388009 5:0.0068433549 
1 3:1.8241222 4:0.014290374 5:0.0048640359 
-1 3:1.8191441 4:0.014293487 5:0.004843626 
1 3:1.9314272 4:0.014077808 5:0.0055178623 
-1 2:0.0014493085 3:1.8085876 4:0.014522312 5:0.0041393982 
-0.6387022075491812 3:1.9645607 4:0.013133771 5:0.0072793013 
1 3:2.057172 4:0.012271777 5:0.0086727797 
1 3:1.9376838 4:0.013345876 5:0.0068950877 
-1 3:1.8226855 4:0.01433169 5:0.0047276297 
1 3:1.868482 4:0.014185529 5:0.0051268661 
1 3:2.5168139 4:0.0064276109 5:0.013557004 
1 3:1.9937549 4:0.013249833 5:0.0071150636 
1 3:2.1286875 4:0.011447118 5:0.0096968102 
1 3:2.0120598 4:0.013181274 5:0.0072549756 
-1 3:1.8684787 4:0.014170752 5:0.0050805409 
1 3:1.918308 4:0.013356205 5:0.0068434068 
1 3:2.6226011 4:0.0033888301 5:0.014745089 
1 3:2.0295106 4:0.011958011 5:0.0090610705 
1 3:1.9447474 4:0.013252041 5:0.0070782942 
1 3:2.074136 4:0.012005281 5:0.0090281152 
1 3:2.1026661 4:0.012554414 5:0.0083792061 
-1 3:2.9522773 4:0.011526733 5:0.0099578491 
-1 3:3.1034421 4:0.01105413 5:0.010897883 
-1 1:0.087452144 5:0.012931586 
-1 3:3.0558533 4:0.010379033 5:0.011133164 
-1 4:0.0105009 5:0.012134066 
-1 3:2.7175541 4:0.01331107 5:0.0072859162 
-1 3:2.8136856 4:0.012617179 5:0.0084579397 
-1 3:3.1305962 4:0.010781351 5:0.011178964 
-1 3:2.5571333 4:0.013703769 5:0.0061853334 
-1 4:0.010748365 5:0.011345437 
-1 1:0.1005623 5:0.011855436 
1 3:3.0179478 4:0.010106724 5:0.011219781 
1 3:1.4269366 4:0.014430859 5:0.0064231455 
-1 3:1.6579988 4:0.014228891 5:0.0072273071 
-1 3:2.2662131 4:0.010265886 5:0.013136767 
-1 3:0.68195868 4:0.014132387 
1 2:0.12587831 4:0.0081975644 
1 3:1.7851683 4:0.011785022 5:0.010385445 
-1 3:1.562281 4:0.011313544 5:0.010082653 
1 3:1.6289651 4:0.01128262 5:0.010108699 
-1 1:0.058780463 5:0.014983204 
-1 3:2.9792509 4:0.011620697 5:0.009946832 
-1 4:0.011066944 5:0.011074995 
-1 1:0.055531798 5:0.015252772 
-1 1:0.067200123 5:0.014451749 
-1 1:0.024213584 4:0.00079964406 5:0.015717176 
-1 4:0.0087617688 5:0.012795143 
-1 1:0.068450846 5:0.014764148 
-1 3:3.0576831 4:0.010940755 5:0.010736815 
-1 3:2.7647749 4:0.012369903 5:0.008578574 
-1 1:0.076881341 5:0.013940727 
-1 1:0.05744338 5:0.015247675 
-1 1:0.10235826 5:0.012579908 
-1 3:1.3282498 4:0.01425249 5:0.0087409504 
-1 3:1.1347881 4:0.01397329 5:0.0083299623 
1 3:1.2158416 4:0.013532985 5:0.010289104 
-1 3:1.21863 4:0.013966562 5:0.0068667277 
0.3944313553972042 1:0.055777752 3:2.1594281 5:0.016114772 
-1 3:1.618028 4:0.0097186728 5:0.013075609 
-1 3:0.91697663 4:0.015236111 5:0.0051177886 
1 1:0.14826172 2:0.046902411 5:0.0014741633 
-1 1:0.096183594 3:2.4065302 5:0.014949909 
-1 1:0.062296978 3:2.1089307 5:0.015650157 
-1 1:0.16645699 3:2.9709525 5:0.0063907928 
-0.6984498739285827 3:0.63285483 4:0.015032058 5:0.0033389473 
-1 3:0.51711942 4:0.014989358 5:0.0034281289 
-1 3:0.61487767 4:0.014974926 5:0.0034582693 
1 1:0.1929297 2:0.063853607 5:0.0041242846 
1 1:0.19178276 2:0.068108987 5:0.0037736315 
1 1:0.18966603 2:0.069161525 5:0.0035989399 
1 1:0.19192307 2:0.067941793 5:0.0037498292 
1 1:0.19325687 2:0.067663122 5:0.0038830173 
1 1:0.19092724 2:0.069338495 5:0.0036134084 
-1 1:0.19087194 2:0.07246625 5:0.0033668085 
1 1:0.11201812 2:0.055091192 3:2.2125146 5:0.001204493 
1 1:0.1147197 2:0.052929362 3:2.2280326 5:0.0015335956 
1 1:0.11656201 2:0.052748768 3:2.1676816 5:0.0016906334 
1 1:0.11309076 2:0.053784477 3:2.1640094 5:0.0013456378 
1 1:0.11564861 2:0.054778608 3:2.1516434 5:0.0012958577 
1 1:0.11390617 2:0.051474127 3:2.1268596 5:0.0015529771 
1 1:0.11404687 2:0.053675432 3:2.1371873 5:0.0011505702 
1 1:0.11796429 2:0.050832587 3:2.0878029 5:0.0016601353 
1 1:0.11835653 2:0.048612324 3:2.0749906 5:0.0018800655 
1 1:0.11440336 2:0.052932571 3:2.0999207 5:0.0010830565 
1 1:0.11898366 2:0.052958921 3:2.0572436 5:0.0012676712 
1 1:0.11475747 2:0.054634721 3:2.0974687 5:0.00082252678 
1 1:0.11350714 2:0.052782715 3:2.0942047 5:0.00093815875 
1 1:0.11772074 2:0.052426549 3:2.0867713 5:0.0010611332 
1 1:0.11654594 2:0.051998253 3:2.0889798 5:0.00092313504 
1 1:0.11877695 2:0.050470802 3:2.0533205 5:0.0011552031 
1 1:0.11980469 2:0.050852235 3:2.049845 5:0.0010896743 
1 1:0.11458814 2:0.047796212 3:2.0064616 5:0.0011564215 
1 1:0.11536501 2:0.05125111 3:2.0202531 5:0.00067429068 
1 1:0.11766131 2:0.054050269 3:2.0233106 5:0.0003623659 
1 1:0.12139993 2:0.054364619 3:2.0275553 5:0.00039546716 
1 1:0.11865645 2:0.053402904 3:2.0184909 5:0.00033083734 
1 1:0.11865352 2:0.046240991 3:1.982509 5:0.0010675081 
1 1:0.11920096 2:0.054929672 3:2.0159524 
1 1:0.12187709 2:0.048258481 3:1.9703768 5:0.00080380126 
1 1:0.12309562 2:0.055303679 3:2.024965 
1 1:0.12162232 2:0.049824484 3:1.9931631 5:0.00045542363 
1 1:0.12507829 2:0.048478519 3:1.9671831 5:0.00066382097 
1 1:0.11906328 2:0.047297602 3:1.9651907 5:0.00052126785 
1 1:0.1168464 2:0.05101691 3:1.9807103 
1 1:0.12468104 2:0.049525658 3:1.9794399 5:0.00032663364 
1 1:0.12111468 2:0.046709576 3:1.970619 5:0.00045945129 
1 1:0.12390281 2:0.053402507 3:1.983037 
1 1:0.12131039 2:0.042996733 3:1.9224538 5:0.00077731498 
1 1:0.11816624 2:0.060863023 3:2.045354 
1 1:0.12094918 2:0.061487986 3:2.0344285 
1 1:0.1238403 2:0.049109968 3:1.9735265 
1 1:0.11972348 2:0.053364843 3:1.9980426 
1 1:0.12446312 2:0.049601408 3:1.9548134 
1 1:0.11996882 2:0.0527133 3:1.987822 
1 1:0.12253519 2:0.050961278 3:1.9864749 
1 1:0.12173972 2:0.051675933 3:1.9697382 
1 1:0.12387735 2:0.047180629 3:1.9526743 
1 1:0.12423514 2:0.048606179 3:1.9414417 
1 1:0.12098141 2:0.053499547 3:1.9581745 
1 1:0.12391653 2:0.045093244 3:1.9117388 
1 1:0.12096145 2:0.049486352 3:1.9476898 
0.5340614938255345 1:0.1228021 2:0.053970387 3:1.9568912 
1 1:0.12379535 2:0.04857768 3:1.9339236 
1 1:0.1242184 2:0.044781791 3:1.9223088 
1 1:0.12737236 2:0.046220529 3:1.9019195 
1 1:0.1247193 2:0.052517638 3:1.9240678 
1 1:0.12605875 2:0.048980684 3:1.9426334 
-1 1:0.12806967 2:0.04676729 3:1.9770274 
1 1:0.12418596 2:0.047884218 3:1.9498624 
1 1:0.12642489 2:0.046615752 3:1.9214292 
1 1:0.13027065 2:0.043007048 3:1.9024423 
1 1:0.12698549 2:0.045719572 3:1.9026489 
1 1:0.12564301 2:0.042172275 3:1.8603409 
1 1:0.12322585 2:0.039515624 3:1.8633683 
1 1:0.12681699 2:0.039848019 3:1.8396672 
-1 1:0.11953059 2:0.053891808 3:1.9365134 
1 1:0.12381418 2:0.04298878 3:1.8862048 
-1 1:0.11472778 2:0.073961306 3:2.0720728 
1 1:0.11579619 2:0.060788592 3:2.0002641 
1 1:0.12769697 2:0.044610138 3:1.8988947 
-1 1:0.1257127 2:0.049977853 3:1.9211737 
1 1:0.12780477 2:0.044170512 3:1.873852 
-1 1:0.12189004 2:0.054699427 3:1.9200288 
1 1:0.12727647 2:0.039875455 3:1.8328114 
-1 1:0.12495434 2:0.043595278 3:1.858717 
-1 1:0.12267968 2:0.052532797 3:1.9370133 
-1 1:0.12863787 2:0.043558657 3:1.8872757 
1 1:0.1282883 2:0.043669812 3:1.8859293 
-1 1:0.1248546 2:0.047824098 3:1.8907762 
1 1:0.1278232 2:0.041518342 3:1.8587319 
1 1:0.12420562 2:0.039735301 3:1.8617059 
-1 1:0.12594821 2:0.037779719 3:1.8607824 
-1 1:0.12869513 2:0.039706927 3:1.8569763 
1 1:0.12949669 2:0.025163906 3:1.7442751 
-1 1:0.126628 2:0.039245577 3:1.8740359 
1 1:0.12334805 2:0.030585201 3:1.8273142 
-1 1:0.11921059 2:0.051905186 3:1.9086209 
1 1:0.12312385 2:0.031240623 3:1.8088064 
-1 1:0.12496431 2:0.034883802 3:1.8533486 
-1 1:0.12635374 2:0.038383567 3:1.8923381 
1 1:0.12462659 2:0.032506921 3:1.8557354 
-1 1:0.12708922 2:0.035911707 3:1.842202 
-1 1:0.12658669 2:0.033367426 3:1.8354433 
-1 1:0.10920846 2:0.062623626 3:2.0332423 
1 1:0.12596098 2:0.028465333 3:1.8037654 
-1 1:0.1264477 2:0.03989459 3:1.9183703 
1 1:0.12794751 2:0.021263983 3:1.7764565 
-1 1:0.12200106 2:0.024337663 3:1.8034063 
-1 1:0.12212088 2:0.033285267 3:1.8594218 
-1 1:0.12593311 2:0.038490225 3:1.9137748 
-1 1:0.12276609 2:0.033205125 3:1.8978805 
1 1:0.12866469 2:0.02067859 3:1.8278163 
-1 1:0.12394057 2:0.029434126 3:1.8604777 
1 1:0.12625727 2:0.020102413 3:1.8141678 
-1 1:0.12440169 2:0.032276758 3:1.8857875 
-1 1:0.12565817 2:0.037156864 3:1.9551127 
1 1:0.12262004 2:0.036609442 3:1.922923 
-1 1:0.11967718 2:0.036145441 3:1.9547626 
1 1:0.12761004 2:0.0246877 3:1.8362956 
-1 1:0.12082765 2:0.034689508 3:1.9643844 
-1 1:0.1218095 2:0.042828705 3:2.0102388 
-1 1:0.12141681 2:0.032916975 3:1.9626879 
-1 1:0.12040251 2:0.033898518 3:1.9875236 
1 1:0.060038024 2:0.097050241 
1 1:0.063667946 2:0.096680147 
1 1:0.058728284 2:0.10071568 
1 1:0.062600365 2:0.099529993 
1 1:0.057510816 2:0.10190117 
1 1:0.061356236 2:0.098900011 
-1 1:0.06459156 2:0.097367739 
-1 1:0.061233888 2:0.090407429 
-1 1:0.053449113 2:0.068975132 
-1 1:0.051959822 2:0.071115711 
-1 1:0.049506517 2:0.069807838 
-1 1:0.054727099 2:0.065164348 
-1 1:0.04622551 2:0.066685176 
-1 1:0.04527878 2:0.065344954 
-1 1:0.037925847 2:0.064986906 
-1 1:0.039550797 2:0.064609624 
-1 1:0.038729623 2:0.059840985 
-1 1:0.029835701 2:0.064584924 
-1 1:0.02625637 2:0.062336888 
-1 1:0.034357547 2:0.060012491 
-1 1:0.022169198 2:0.057143266 
-1 1:0.034712512 2:0.056503218 
-1 1:0.033158926 2:0.053423278 
-1 1:0.033626288 2:0.056541599 
-1 1:0.030660821 2:0.057689945 
-1 1:0.017378476 2:0.056177083 
-1 1:0.028415077 2:0.056639491 
-1 1:0.029819329 2:0.053745425 
-1 1:0.03938982 2:0.054504586 
-1 1:0.036232059 2:0.056878114 
-1 1:0.04021807 2:0.057654694 
-1 1:0.031341712 2:0.056591318 
-1 1:0.034135045 2:0.053461506 
-1 1:0.020752544 2:0.060152818 
-1 1:0.032132256 2:0.05763873 
-1 1:0.034137065 2:0.049812631 
-1 1:0.03660121 2:0.056589134 
-1 1:0.024745984 2:0.055331027 
-1 1:0.030554448 2:0.053972619 
-1 1:0.044752962 2:0.054699703 
-1 1:0.027799571 2:0.056196509 
-1 1:0.029302186 2:0.058323926 
-1 1:0.025859925 2:0.054054585 
-1 1:0.02750149 2:0.056194361 
-1 1:0.042798325 2:0.054266385 
-1 1:0.042774306 2:0.06269619 
-1 1:0.025510084 2:0.061412497 
-1 1:0.016410409 2:0.063300779 
-1 1:0.035071052 2:0.055302509 
-1 1:0.022759523 2:0.060469664 
-1 1:0.023787962 2:0.059378559 
-1 1:0.033510212 2:0.054608989 
-1 1:0.029824355 2:0.060701166 
-1 1:0.026714439 2:0.057345036 
-1 1:0.029824715 2:0.05333122 
-1 1:0.050510191 2:0.055768986 
-1 1:0.038181855 2:0.054137787 
-1 1:0.024304364 2:0.059360856 
-1 1:0.031104377 2:0.056329046 
-1 1:0.019486268 2:0.058760854 
-1 1:0.048500039 2:0.053843794 
-1 1:0.04476887 2:0.052700276 
-1 1:0.042084718 2:0.053638119 
-1 1:0.053660039 2:0.05553261 
-1 1:0.026186271 2:0.059233007 
-1 1:0.037017144 2:0.053353326 
-1 1:0.022541405 2:0.052665935 
-1 1:0.031960217 2:0.062542509 
-1 1:0.028425279 2:0.061365652 
-1 1:0.043102985 2:0.06006984 
-1 1:0.036703961 2:0.060674469 
-1 1:0.016198525 2:0.061854264 
-1 1:0.047923271 2:0.060088165 
-1 1:0.031082319 2:0.060441865 
-1 1:0.043156112 2:0.054209236 
-1 1:0.026116912 2:0.063456456 
-1 1:0.020917313 2:0.063012556 
-1 1:0.032559881 2:0.058584328 
-1 1:0.030874914 2:0.064551366 
-1 1:0.015448774 2:0.063604477 
-1 1:0.04895776 2:0.061593436 
-1 1:0.054537933 2:0.055718459 
-1 1:0.039641026 2:0.060753187 
-1 1:0.019713979 2:0.062648391 
-1 1:0.033799268 2:0.060512504 
-1 4:0.012821006 5:0.0080176721 
-1 4:0.01289978 5:0.0078981161 
-1 4:0.01277803 5:0.0081105658 
-1 4:0.012849681 5:0.0079986282 
-1 4:0.013081315 5:0.0077064524 
-1 4:0.012639899 5:0.0082601153 
-1 4:0.012371583 5:0.0087552067 
1 4:0.012486113 5:0.0085279373 
1 4:0.0099352666 5:0.011340854 
1 4:0.0084425992 5:0.012477432 
1 4:0.0090968898 5:0.012034082 
1 4:0.0081489817 5:0.012751192 
1 4:0.011015955 5:0.010184197 
1 4:0.0083937429 5:0.012525395 
1 4:0.0081654214 5:0.01268632 
1 4:0.0088999195 5:0.012141216 
1 4:0.0073334358 5:0.013213072 
1 4:0.0079306228 5:0.012801571 
1 4:0.0046638046 5:0.014445431 
1 4:0.0047390417 5:0.014377643 
1 4:0.0069902851 5:0.013365747 
1 4:0.0045023765 5:0.014435564 
1 4:0.0086117868 5:0.012295915 
1 4:0.0037425262 5:0.014801612 
1 4:0.0038020465 5:0.014688364 
1 4:0.0034287995 5:0.014695217 
1 4:0.0032203659 5:0.014770908 
1 4:0.0060906821 5:0.013792852 
1 4:0.0048196553 5:0.014209724 
1 4:0.0022393787 5:0.014877949 
1 4:0.0037049992 5:0.014577266 
1 4:0.0050262153 5:0.014259783 
1 4:0.0064326208 5:0.013627266 
1 4:0.0029928368 5:0.01488108 
1 4:0.0046822952 5:0.014351048 
1 4:0.0047770154 5:0.014237905 
1 4:0.0039941083 5:0.014497679 
1 4:0.0037824868 5:0.014537578 
1 4:0.0090450291 5:0.013475316 
1 4:0.0052376173 5:0.014189265 
1 4:0.00064262148 5:0.015181524 
1 1:0.0018855689 4:0.0062761371 5:0.014387005 
1 4:0.0047367149 5:0.014249119 
1 4:0.0052027324 5:0.01413346 
-1 1:0.12781697 2:0.088682468 3:1.3450933 
1 2:0.0095346611 3:3.0277378 4:0.015000228 5:2.8703572e-05 
1 4:0.0043727503 5:0.014378499 
1 4:0.0031732223 5:0.014664155 
1 2:0.0087580599 4:0.014853991 5:0.0022160213 
1 4:0.0064182362 5:0.013560065 
-1 1:0.12415847 2:0.057557242 3:1.3045414 
1 4:0.0073994591 5:0.013293782 
1 4:0.0051590814 5:0.014751285 
1 1:0.01201695 4:0.0027990037 5:0.01570576 
1 4:0.0033345547 5:0.015069383 
1 4:0.0017321302 5:0.014945499 
1 4:0.001951502 5:0.015184954 
1 2:0.01118041 4:0.014834242 5:0.0023295963 
1 2:0.0098495673 4:0.014225627 5:0.0051309631 
1 4:0.006269281 5:0.015232116 
1 4:0.0071431547 5:0.015906652 
1 1:0.0034744454 4:0.0052537656 5:0.01491403 
-1 1:0.13854035 2:0.046545551 3:1.3629113 
1 4:0.0081804748 5:0.013217044 
1 1:0.033580631 5:0.015650595 
1 4:0.010885173 5:0.010384407 
1 4:0.0054140731 5:0.014419778 
1 4:0.0060447719 5:0.016029916 
1 4:0.0040534828 5:0.015373777 
1 4:0.00096258544 5:0.01532034 
1 4:0.00598065 5:0.014473419 
1 4:0.010280688 5:0.011013644 
1 1:0.069808791 5:0.011015148 
1 4:0.0065959897 5:0.015573915 
1 4:0.0074983809 5:0.013072137 
1 4:0.013321296 5:0.0069490648 
1 2:0.086437352 4:0.015468043 
1 4:0.0045952508 5:0.016103272 
-1 1:0.03140513 2:0.11951357 3:2.6734615 4:0.0090849535 
1 4:0.0030254272 5:0.015010059 
1 4:0.0021017113 5:0.016851462 
1 4:0.0036738563 5:0.016475286 
-1 2:0.035510659 3:1.5330333 4:0.0089252351 
1 4:0.0032525451 5:0.015275206 
1 4:0.0038165748 5:0.016375928 
1 1:0.029305321 5:0.015371939 
-1 1:0.11533997 2:0.10823946 3:2.086897 
1 2:0.012619126 4:0.013812969 5:0.0059672605 
1 4:0.012166336 5:0.0087821599 
0.3254921222885993 1:0.031241378 2:0.12744113 3:2.9031203 4:0.012184163 
1 4:0.0055761314 5:0.014909007 
-1 1:0.13371627 2:0.080532365 3:1.8523365 
-1 4:0.005515847 5:0.013952521 
1 5:0.016469572 
1 4:0.004649341 5:0.014301565 
1 4:0.00051901485 5:0.015410283 
1 4:0.0017819943 5:0.016144641 
1 5:0.014130445 
-1 1:0.061256052 2:0.10785592 3:2.5632261 4:0.0075989564 
-1 1:0.11942856 2:0.09866091 3:2.1492816 4:0.00045417115 
1 4:0.00095931544 5:0.015249425 
1 4:0.0031394328 5:0.014669674 
1 5:0.0138786 
1 4:0.0045463876 5:0.014294583 
1 5:0.015117306 
1 5:0.015629984 
-1 5:0.015430131 
1 5:0.015015291 
-1 1:0.071694903 2:0.097711633 3:2.3080701 4:0.0055107522 
1 2:0.048191744 4:0.014987743 5:0.0012137501 
1 5:0.015037966 
1 5:0.014761414 
1 1:0.068595598 5:0.011581775 
1 5:0.015179642 
1 4:8.9408787e-05 5:0.015279473 
1 5:0.014970552 
1 5:0.013985312 
1 5:0.015335128 
-1 1:0.037755233 2:0.11043517 3:3.0386187 4:0.014154299 
-1 2:0.065652476 3:2.5625658 4:0.012259978 
1 2:0.057841648 3:2.6700957 4:0.013391692 
-1 2:0.067382486 3:2.5455232 4:0.01170421 
1 1:0.029464649 2:0.091186475 3:2.7426434 4:0.012325804 
1 2:0.051258387 3:2.9080319 4:0.014303064 
-1 2:0.059788537 3:2.7294259 4:0.013471489 
-1 1:0.077398807 2:0.090244771 3:2.2602271 4:0.0045921544 
1 5:0.011620433 
1 2:0.089529402 4:0.015500417 
1 1:0.024470314 2:0.11200766 4:0.015140286 
1 2:0.08428053 3:3.0001711 4:0.01463039 
1 2:0.099955823 4:0.015403274 
-1 1:0.12515208 2:0.0031288143 3:1.0443053 
-1 1:0.12778687 
-1 1:0.12115338 
-1 1:0.12148361 
-1 1:0.11838569 
-1 1:0.12813585 
-1 1:0.12093284 
-1 1:0.12056492 
-1 1:0.12178551 
-1 1:0.12145901 
-1 1:0.12124436 
-1 1:0.11682042 
-1 1:0.11716133 
-1 1:0.12063027 
-1 1:0.1212328 
-1 1:0.12011119 
-1 1:0.12241729 
-1 1:0.1196787 
-1 1:0.11900312 
-1 1:0.12010153 
-1 1:0.12216895 
-1 1:0.1246982 
-1 1:0.12340946 
-1 1:0.12306903 
-1 1:0.11940492 
-1 1:0.1246578 
-1 1:0.12641503 
-1 1:0.1269312 
-1 1:0.13220558 
-1 1:0.12246578 
-1 1:0.12802132 
-1 1:0.13602223 2:0.0021802467 
-1 1:0.13494647 2:0.0010787695 
1 2:0.015523117 3:2.0366876 4:0.016684539 5:0.0055537884 
-1 1:0.12866494 2:0.0050700802 
-1 1:0.13197231 
-1 1:0.12416849 
-1 1:0.12327846 
-1 1:0.13786406 
-1 1:0.12828357 2:0.0049209969 
0.6755254834691553 1:0.14595071 
-1 1:0.13933759 
-1 1:0.13376485 2:0.0024719947 
-1 1:0.12816638 2:0.021525117 
-1 1:0.13485956 
-1 1:0.12907472 
-1 1:0.13873976 
-1 1:0.11901023 
-1 1:0.13269964 
-1 1:0.14188038 2:0.0059615224 
-1 1:0.13869552 
-1 1:0.14185571 
-1 1:0.14466917 2:0.0050631194 
-1 1:0.12271119 
-1 1:0.14152586 
-1 1:0.12701994 
-1 1:0.13609157 
-1 1:0.13561076 
-1 1:0.14728296 2:0.010434309 
-1 1:0.13220231 
-1 1:0.13689442 
-1 1:0.12418846 
-1 1:0.14492952 2:0.0021484999 
1 1:0.13568457 
-1 1:0.1184905 
-1 1:0.13654527 
-1 1:0.12261167 
-1 1:0.1502706 2:0.0045415804 
-1 1:0.12535027 
-1 1:0.13863361 
-1 1:0.11964795 
-1 1:0.13630213 
1 1:0.12375541 
-1 1:0.11992902 
1 1:0.13214609 5:0.0036402412 
-1 1:0.1218728 
-1 1:0.13236082 2:0.018807086 
-1 1:0.1243774 2:0.09468524 3:0.43371052 
1 1:0.13396753 
1 2:0.033703176 3:2.2267076 4:0.015278503 5:0.0027215843 
1 1:0.12138572 
-1 3:2.5130449 4:0.013478093 5:0.0085553469 
-1 1:0.12918878 
1 1:0.10977174 
1 2:0.12361047 3:1.6630677 4:0.013456013 
-0.03305360278285892 2:0.15596769 3:1.1173016 4:0.0088111919 
-1 1:0.11230575 
1 2:0.15675146 3:1.2748924 4:0.010243307 
-1 1:0.14562071 2:0.010284596 
1 2:0.028665052 3:2.3138634 4:0.014871 5:0.0034582241 
-1 1:0.14599265 
1 2:0.16317118 3:1.2565154 4:0.010545899 
1 2:0.089080498 3:1.9470953 4:0.015065052 
1 3:2.9359053 4:0.0090527085 5:0.012981349 
1 2:0.061731956 3:2.1279388 4:0.015147326 
1 1:0.011331618 5:0.013544887 
1 1:0.033133269 2:0.18527446 3:0.8724551 4:0.004788935 
1 2:0.12820701 3:1.7254308 4:0.013449268 
1 2:0.11935748 3:0.64444397 4:0.0088310862 
1 2:0.1306234 3:0.63534305 4:0.0076502228 
1 2:0.12306731 3:0.56470142 4:0.0068117512 
1 2:0.12704045 3:0.57093129 4:0.0067683314 
1 2:0.14481142 3:0.75921283 4:0.013008907 
1 2:0.081447354 3:0.93805609 4:0.013980104 
1 2:0.0880959 3:1.0067849 4:0.014658313 
-1 3:2.4654076 4:0.0086880021 5:0.017185999 
-1 3:2.8999315 4:0.0027392907 5:0.017441856 
1 2:0.10444697 3:0.77245758 4:0.0093674766 
1 2:0.10126472 3:0.77454636 4:0.0099607904 
1 2:0.10137329 3:0.77556381 4:0.0099658687 
1 2:0.1375951 3:0.84750137 4:0.010704777 
1 2:0.19113685 
1 2:0.11086543 4:0.0013088609 
1 2:0.18075897 
-1 2:0.10901518 4:0.0011406632 
1 1:0.026167634 2:0.17453962 
1 1:0.048109233 2:0.17079127 
1 1:0.046656773 2:0.16861682 
-1 3:0.50597355 4:0.012639563 5:0.0081352896 
1 1:0.11986712 2:0.11838153 
1 1:0.094642886 2:0.15770782 
1 3:0.59910901 4:0.015455141 5:0.0051456469 
1 2:0.14446591 4:0.0054644886 
-1 3:0.061420044 4:0.014639848 5:0.00328573 
-1 3:0.44184046 4:0.013409134 5:0.0067914735 
1 1:0.10968487 2:0.034922278 
1 2:0.14546347 4:0.0040456418 
1 1:0.11613286 2:0.086266107 
1 1:0.13513911 2:0.1408844 
1 1:0.11496771 2:0.11239406 
1 1:0.11629827 2:0.013467835 
-1 1:0.11159099 2:0.086395331 
1 2:0.14160834 4:0.0043354485 
-1 1:0.053907882 3:2.5089013 5:0.015176949 
-1 3:0.007900839 4:0.019312882 
-1 4:0.016942458 
-1 4:0.016781724 
-1 4:0.016566463 
1 4:0.016068361 
1 4:0.016015776 5:6.100231e-05 
1 4:0.016034764 5:0.00024916618 
1 4:0.015960047 5:0.00034610974 
1 4:0.015940445 5:0.00057173836 
1 4:0.015864584 5:0.00070019174 
1 4:0.015841688 5:0.0006018635 
1 4:0.01580494 5:0.0006495777 
1 4:0.015537939 5:0.0018261754 
1 4:0.015757926 5:0.00091219707 
1 4:0.015690975 5:0.00088609138 
1 4:0.015614496 5:0.0010495635 
1 4:0.015609139 5:0.00092474584 
1 4:0.015473194 5:0.0016547015 
1 4:0.015465619 5:0.0017786723 
1 4:0.015732922 5:0.00033262225 
1 4:0.015439544 5:0.0017788908 
1 4:0.015499335 5:0.0014852077 
1 4:0.015296657 5:0.0025188498 
1 4:0.015261722 5:0.0028005782 
1 4:0.015066406 5:0.0033367363 
1 4:0.015299066 5:0.0024090517 
1 4:0.01534591 5:0.0019451338 
1 4:0.015113581 5:0.0028341486 
1 4:0.015176862 5:0.0028507604 
1 4:0.015429286 5:0.0016688869 
1 4:0.014995523 5:0.0033920437 
1 4:0.01446854 5:0.0049599076 
1 4:0.014775763 5:0.0040185749 
1 4:0.014659089 5:0.004447187 
1 4:0.014046232 5:0.0059287322 
1 4:0.014836793 5:0.003880397 
1 4:0.013532972 5:0.006739544 
1 4:0.013396364 5:0.0069965441 
1 4:0.013436535 5:0.0069866035 
1 4:0.013305885 5:0.0071972955 
1 4:0.013580609 5:0.0067589601 
1 4:0.013023608 5:0.0076262633 
1 4:0.012779722 5:0.007996481 
1 4:0.012338635 5:0.0086407219 
1 4:0.012380248 5:0.0085588413 
1 4:0.013203711 5:0.0073819421 
1 4:0.01205008 5:0.0090050185 
1 4:0.013072309 5:0.0076308771 
1 4:0.012473765 5:0.008542011 
1 4:0.012000476 5:0.0090851914 
1 4:0.012156991 5:0.0089625112 
1 4:0.012030563 5:0.0090475613 
1 4:0.011890052 5:0.0092295638 
1 4:0.012587932 5:0.0083686063 
1 4:0.011976127 5:0.0090905357 
1 4:0.012259601 5:0.0087423657 
1 4:0.012192735 5:0.0088117822 
1 4:0.011793758 5:0.0093231196 
1 4:0.011863705 5:0.0092064417 
1 4:0.011921912 5:0.0091816265 
1 4:0.012432539 5:0.0085324233 
1 4:0.011999712 5:0.009018829 
1 4:0.011689674 5:0.0095507073 
1 4:0.011569843 5:0.0096130651 
1 4:0.012022705 5:0.0090673224 
1 4:0.011565061 5:0.0095863136 
1 4:0.012228016 5:0.0086919016 
1 4:0.011276108 5:0.0099583033 
1 4:0.012123913 5:0.0088471726 
1 4:0.012013496 5:0.0090173556 
1 4:0.012238081 5:0.0087605349 
1 4:0.011909465 5:0.0092159046 
1 4:0.011492021 5:0.0097315818 
1 4:0.012111105 5:0.0090420418 
1 4:0.012364362 5:0.0087429258 
1 4:0.011834705 5:0.0093489098 
-1 4:0.011462488 5:0.009677269 
1 4:0.011606717 5:0.0095783699 
1 4:0.01169551 5:0.0094159185 
1 4:0.011853802 5:0.0093309797 
1 4:0.011827457 5:0.0094029055 
1 4:0.011117072 5:0.010138509 
1 4:0.01226267 5:0.0088971785 
1 4:0.0098345578 5:0.011330901 
-1 4:0.012130457 5:0.0089129997 
1 4:0.0099256179 5:0.011256116 
-1 4:0.012038454 5:0.0091048048 
1 4:0.010659131 5:0.010684226 
1 4:0.012024926 5:0.0091196847 
1 4:0.011794577 5:0.0093265854 
1 4:0.012048141 5:0.0090084883 
1 4:0.011682521 5:0.0095187948 
1 4:0.011156634 5:0.010069727 
1 4:0.011350057 5:0.0098099012 
1 4:0.011333458 5:0.0099082083 
1 4:0.010754642 5:0.010532952 
1 4:0.01192443 5:0.0092608369 
1 4:0.010751982 5:0.010485406 
1 4:0.010446441 5:0.010765829 
1 4:0.010619715 5:0.011228186 
-1 4:0.014317946 5:0.005118175 
1 4:0.014222396 5:0.0056285715 
1 4:0.010959798 5:0.010252609 
1 4:0.011652306 5:0.0095687438 
1 4:0.012600726 5:0.0082507979 
1 4:0.011806367 5:0.0094267938 
1 4:0.012209378 5:0.0087713899 
1 4:0.011068472 5:0.010274543 
1 4:0.011106837 5:0.010314281 
1 4:0.013749651 5:0.0066209044 
1 4:0.012007254 5:0.0092742189 
1 4:0.013182322 5:0.0071627772 
1 4:0.010548531 5:0.010758188 
1 4:0.013067123 5:0.0077116827 
1 4:0.0086100777 5:0.012388659 
1 4:0.012829343 5:0.0083963551 
1 4:0.012160447 5:0.0087820845 
1 4:0.0084968087 5:0.012452966 
-1 4:0.010846254 5:0.01083249 
1 1:0.069519775 3:1.2204074 5:0.017225704 
-1 4:0.0096568578 5:0.011574249 
1 4:0.00940827 5:0.011813239 
1 4:0.011590933 5:0.0097891594 
1 4:0.010596192 5:0.010793279 
1 4:0.011363354 5:0.010296577 
1 4:0.012649384 5:0.0087028531 
1 4:0.012245463 5:0.0087603536 
1 4:0.012180776 5:0.0096402624 
1 4:0.0074884934 5:0.013060092 
1 3:0.018125908 4:0.0088938606 5:0.012997531 
1 4:0.0089353733 5:0.0121247 
1 3:0.1182422 4:0.0051038301 5:0.014264839 
1 4:0.010751365 5:0.010767546 
1 4:0.0066830611 5:0.013470193 
-1 2:0.029649208 4:0.014802608 
1 4:0.0097228152 5:0.012005862 
1 4:0.0081638973 5:0.012666851 
1 1:0.00075836043 4:0.008929557 5:0.012214065 
1 4:0.0081462343 5:0.012731506 
1 4:0.010213518 5:0.011119295 
1 4:0.0079904211 5:0.012952994 
1 4:0.0072399963 5:0.013467007 
1 4:0.010500199 5:0.010832405 
1 4:0.0095558091 5:0.011708268 
1 3:0.16935691 4:0.0063791238 5:0.014241987 
-1 1:0.015772778 2:0.052159831 3:3.0413651 
-1 4:0.011927473 5:0.0090989066 
1 4:0.0079700549 5:0.012876387 
-1 4:0.0085255317 5:0.012694131 
1 3:0.077758411 4:0.0087713856 5:0.013197144 
1 4:0.0072644257 5:0.013191555 
-1 4:0.010981741 5:0.01023253 
1 4:0.010698756 5:0.010967918 
1 2:0.057212188 3:3.1405218 
1 3:0.56204828 4:0.0010804825 5:0.015758882 
-1 2:0.087723593 4:0.0048591819 
1 3:0.31420803 4:0.0055480434 5:0.015148051 
1 3:0.14048 4:0.0072115309 5:0.014125846 
-1 3:0.47754539 4:0.0025092148 5:0.014963984 
1 3:0.53199953 4:0.0021810623 5:0.01585029 
1 1:0.040931138 2:0.12617197 3:2.9701509 
1 1:0.042138292 2:0.12755297 3:2.9742455 
1 1:0.042463799 2:0.12619456 3:2.9670838 
1 1:0.040320128 2:0.12916787 3:2.9927849 
1 1:0.041503706 2:0.12671697 3:2.9788062 
1 1:0.041424344 2:0.12642881 3:2.9757676 
1 1:0.042727657 2:0.12637196 3:2.9624775 
1 1:0.044374942 2:0.12702373 3:2.9578012 
-1 1:0.041178423 2:0.12654966 3:2.974209 
-1 1:0.0089620156 2:0.11139308 3:1.1775502 
-1 1:0.0075068574 2:0.10813516 3:1.201614 
-1 1:0.0076938797 2:0.10351566 3:1.200408 
-0.3984889051514113 1:0.0071844313 2:0.091836139 3:1.1717562 
-1 1:0.0062469214 2:0.080245456 3:1.2036789 
-1 1:0.01103557 2:0.076764112 3:1.0992886 
-1 1:0.014527516 2:0.074989516 3:1.0821733 
-1 1:0.0096841322 2:0.077964577 3:1.020221 
-1 1:0.017988921 2:0.071576711 3:0.98973338 
-0.7496619023932118 1:0.01578366 2:0.072274791 3:0.90024248 
-1 1:0.020946723 2:0.071490201 3:0.8933221 
-1 1:0.030717158 2:0.066928272 3:0.83255542 
-0.752933499711208 1:0.015911252 2:0.070787787 3:0.89813596 
-1 1:0.010552949 2:0.071547875 3:0.94556577 
-1 1:0.020188617 2:0.069329548 3:0.84828849 
-1 1:0.011685943 2:0.068110846 3:1.0317364 
-1 1:0.01375366 2:0.068022564 3:0.96148992 
-0.2214478872456079 1:0.012028071 2:0.07067967 3:0.93749173 
-1 1:0.012911666 2:0.070122171 3:1.0458508 
-0.09852594998343697 1:0.030395505 2:0.070810087 3:0.77133667 
-1 1:0.0033434874 2:0.063055545 3:1.0129861 
-0.02352987799479981 1:0.014714351 2:0.069008509 3:0.87353836 
-1 1:0.019189066 2:0.061216042 3:0.91818643 
-1 1:0.030340311 2:0.070168721 3:0.76604309 
-1 1:0.0085356855 2:0.065293086 3:0.99337236 
-1 1:0.0042514137 2:0.086305678 3:0.959153 
-1 1:0.017127539 2:0.068028996 3:0.89938935 
-1 1:0.020308094 2:0.090386493 3:0.92426089 
-1 2:0.079598354 3:1.1890821 4:0.00051510672 
-1 2:0.072645206 3:1.2968764 4:0.0034631653 
-1 1:0.0032081988 2:0.067634528 3:1.0447174 
-1 1:0.010923551 2:0.10404805 3:1.1042409 
-1 2:0.072076637 3:1.172327 4:0.002517854 
-1 1:0.0071849359 2:0.10496886 3:1.0345655 
-1 2:0.08791575 3:1.2266049 4:0.00090927939 
-1 2:0.10740301 3:1.1697176 4:0.0010618226 
-0.2231395823495474 2:0.097492845 3:1.3098982 4:0.0021020831 
1 1:0.00080672369 2:0.10052556 3:1.0182503 
-1 2:0.092395507 3:1.0447379 
-1 2:0.081977014 3:1.5682714 4:0.0069614789 
-1 2:0.09343748 3:1.4307628 4:0.0043219048 
-1 2:0.079956172 3:1.1534563 4:0.0044021384 
1 2:0.0028621735 3:2.9704784 4:0.015084744 
-1 2:0.057621274 3:1.6557686 4:0.009797617 
1 1:0.014424454 2:0.11306245 3:0.90844486 
-1 2:0.088712833 3:1.8673063 4:0.0054827332 
-1 1:0.034453321 2:0.094082585 3:0.78423802 
-1 2:0.076768749 3:1.8928963 4:0.0074393974 
1 1:0.047816431 2:0.09679404 3:0.53534458 
-1 2:0.13011908 3:1.2457364 4:0.0028803047 
1 2:0.12336439 3:1.1801635 4:0.0025773999 
-1 2:0.091278429 3:0.93922099 4:0.0002868754 
1 4:0.014352199 5:0.0071082504 
1 1:0.060356484 2:0.12539168 3:1.0764463 
1 4:0.01299276 5:0.0090724431 
-1 2:0.094742662 3:1.564835 4:0.0070020868 
1 2:0.12100512 3:1.3044286 4:0.0082687477 
1 4:0.01578195 5:0.0013337669 
1 4:0.01543042 5:0.0031835153 
1 2:0.07170351 3:1.5011058 4:0.0032362117 
1 3:3.05309 4:0.015665556 5:0.00028948216 
-1 1:0.044314916 2:0.091534107 3:1.0203917 
-1 2:0.045491756 3:2.0402133 4:0.01107289 
-1 2:0.030337601 3:1.9738301 4:0.014398463 
1 2:0.01519983 3:2.6551978 4:0.014823585 
-1 2:0.06970852 3:1.5239925 4:0.010538209 
1 2:0.11223272 3:1.2005383 4:0.0091199884 
1 2:0.10086847 3:1.3166456 4:0.0091733414 
1 2:0.099429251 3:2.1637394 4:0.012671736 
-1 2:0.064239135 3:1.5490975 4:0.0093074297 
1 1:0.011817982 2:0.054475862 3:0.051096008 
1 1:0.038264561 5:0.0035554549 
1 3:2.8818725 4:0.015008237 
1 1:0.041640688 2:0.036831249 
1 2:0.12611294 3:0.54358111 
1 1:0.011165983 2:0.072961974 3:0.4055654 
1 1:0.011595796 2:0.041093864 3:0.027830126 
1 1:0.038447245 2:0.044939742 
1 2:0.1285866 3:1.1439495 4:0.0069815162 
1 1:0.018799949 2:0.15088018 3:1.0505837 
-1 4:0.0078985903 5:0.014410174 
1 2:0.097080803 3:0.90442039 4:0.0017517755 
1 2:0.0048000987 3:2.544482 4:0.015073905 
1 2:0.10861053 3:0.81048413 
-1 1:0.070875074 5:0.010944804 
1 1:0.0017776823 2:0.087912099 3:0.1557295 
1 1:0.10179186 5:0.017421714 
1 1:0.089775021 2:0.011674639 5:0.002843676 
-1 2:0.075878332 3:1.8087532 4:0.010176268 
1 3:3.0028408 4:0.014395729 5:0.0042220931 
-1 2:0.05360594 3:1.9002639 4:0.014309252 
1 3:3.0598102 4:0.013513483 5:0.0067957286 
1 1:0.06812511 5:0.011352975 
-1 2:0.14912308 3:1.2466594 4:0.0074177437 
-1 1:0.18933061 5:0.0098614315 
-0.3172764007502643 2:0.16526477 3:0.54693943 
1 1:0.11993796 2:0.041501071 5:0.00052812317 
-1 2:0.013791892 3:1.8750127 4:0.01550627 
1 1:0.095289258 2:0.098805721 
-1 2:0.018682313 5:0.012781651 
-1 1:0.29564903 2:0.067378276 3:2.5980918 4:0.014753524 
1 1:0.054174348 2:0.11041581 
1 1:0.058090812 2:0.10775957 
1 1:0.057046172 2:0.10710231 
1 1:0.044650738 2:0.11965178 
1 1:0.055854537 2:0.10535112 
1 1:0.049183319 2:0.11263634 
1 1:0.045042899 2:0.11411887 
-1 1:0.048175839 2:0.11379445 
1 1:0.034148858 2:0.085465219 3:1.1154897 
-1 1:0.025069778 2:0.077639111 3:1.0688958 
-0.005416062632053853 1:0.011687528 2:0.082381025 3:1.1983463 
-1 1:0.0047001082 2:0.082775927 3:1.3453301 
-1 1:0.0010250656 2:0.079000639 3:1.3024252 
-1 2:0.0755733 3:1.3336327 
-1 2:0.083381222 3:1.3920756 
-1 1:0.0011923702 2:0.076305084 3:1.3425471 
-1 2:0.07434768 3:1.5803844 4:0.0013652716 
-1 2:0.076416237 3:1.3971813 
1 2:0.10194961 3:1.6084701 
-1 2:0.10352151 3:1.1305692 
-1 2:0.094142299 3:1.5559494 4:0.00020649552 
-1 2:0.10640984 3:1.6113082 4:3.4899782e-05 
-1 2:0.075775406 3:1.693312 4:0.0023361967 
-1 2:0.08220852 3:1.5460438 
-1 1:0.014260845 2:0.10805586 3:1.2370439 
-1 2:0.076277217 3:1.5366674 
-0.003646588183500166 1:0.0039422497 2:0.073792016 3:1.4355683 
-1 2:0.061969095 3:1.6357023 4:0.001586443 
-1 2:0.070024725 3:1.5488965 4:0.00098489521 
-1 2:0.073987834 3:1.4605594 
-1 2:0.076816643 3:1.5637622 
-1 2:0.073228581 3:1.4154431 
-1 2:0.076727935 3:1.5165249 
-1 1:0.0031626044 2:0.076794358 3:1.4729131 
-1 1:0.0058170396 2:0.075266516 3:1.4900817 
-1 2:0.089504008 3:1.7433016 4:0.0038976173 
-1 2:0.08366665 3:1.6690429 4:0.00085160558 
-1 1:0.0094767699 2:0.066804449 3:1.5120191 
-1 2:0.073235025 3:1.5000169 
-1 1:0.0034775769 2:0.056922514 3:1.4514819 
-1 2:0.058895897 3:1.5608933 
-1 1:0.0040825691 2:0.063625439 3:1.4386219 
-1 1:0.0059726848 2:0.075874633 3:1.4323219 
-1 1:0.0085249149 2:0.052598692 3:1.6844038 
-1 2:0.061307487 3:1.5783417 
-1 1:0.0062011036 2:0.079321723 3:1.4330334 
-1 2:0.050355658 3:1.7111139 4:0.0020259065 
-1 1:0.0041962521 2:0.0685558 3:1.4096567 
-1 1:0.01014443 2:0.070442101 3:1.3893929 
-1 2:0.071074938 3:1.5907956 
-1 1:0.0082829961 2:0.065412128 3:1.3842968 
-1 2:0.065972985 3:1.3492255 
-1 1:0.020003479 2:0.066718063 3:1.3472349 
-1 1:0.0077760889 2:0.076102637 3:1.4838299 
-1 2:0.062518508 3:1.4754719 
-1 2:0.075814124 3:1.4371567 
-1 2:0.073817153 3:1.6380006 
-1 2:0.071476718 3:1.4574495 
-1 2:0.065079331 3:1.4347056 
-1 2:0.064945666 3:1.4828049 
-1 2:0.072025137 3:1.675355 4:0.00046634064 
-1 2:0.036108494 3:1.5890849 
-1 2:0.060901301 3:1.7010904 4:0.002538782 
-1 2:0.066700564 3:1.6040095 4:0.0013269598 
-1 1:0.0064484868 2:0.07830016 3:1.564437 
-1 2:0.077801673 3:1.6447537 
-0.9888178901591135 2:0.071326289 3:1.6778835 4:0.0010606084 
-1 1:0.0050975834 2:0.070979751 3:1.5168516 
-1 1:0.0012842224 2:0.067620336 3:1.3557551 
-1 2:0.068276305 3:1.5343487 
-1 1:0.020537812 2:0.066655431 3:1.3018207 
-1 1:0.010151182 2:0.066874626 3:1.3444323 
-1 1:0.0011662035 2:0.059161885 3:1.3899323 
-1 1:7.2194586e-05 2:0.061942068 3:1.4881287 
-1 1:0.027226465 2:0.065349625 3:1.3066601 
-1 1:0.0014036918 2:0.068464656 3:1.6052894 
-1 1:0.00070157098 2:0.058633501 3:1.5419486 
-1 2:0.070931714 3:1.620258 
-1 1:0.0032513306 2:0.065039215 3:1.3191527 
-1 1:0.0050298393 2:0.072321461 3:1.5240688 
-1 1:0.03097818 2:0.080307466 3:1.3580807 
-1 1:0.007472261 2:0.062988025 3:1.5444816 
-1 1:0.0095599094 2:0.082229236 3:1.4312792 
-0.004553540318341471 1:0.018153748 2:0.080789646 3:1.5016649 
-1 1:0.010769923 2:0.074876384 3:1.503161 
-1 2:0.069202755 3:1.708352 
-1 2:0.067570498 3:1.641458 
-1 1:0.0041168102 2:0.075141968 3:1.5029372 
-1 1:0.026376913 2:0.087025334 3:1.4241194 
-1 2:0.050041869 3:1.7893134 4:0.00021174173 
-1 1:0.0038285084 2:0.066557904 3:1.4690634 
-1 2:0.065974077 3:1.4751019 
-1 1:0.0017331642 2:0.062839114 3:1.6111458 
-1 1:0.0025881268 2:0.071959519 3:1.5358712 
-1 2:0.074588444 3:1.6233003 
-1 2:0.07186438 3:1.8192111 4:0.0034440965 
-0.001535982929231046 1:0.00054715804 2:0.06779778 3:1.6132335 
-1 2:0.064859927 3:1.5367042 
-1 2:0.074757135 3:1.6494124 
-1 2:0.064535335 3:1.4842891 
-1 1:0.0094651525 2:0.073582692 3:1.4659054 
-1 2:0.058943384 3:1.7682898 4:0.001832146 
-1 2:0.068017097 3:1.9528289 4:0.0030245991 
1 1:0.015477564 2:0.11689113 3:1.9792788 
-1 2:0.072255939 3:1.5792082 
-1 2:0.061554902 3:2.3437271 4:0.0081528662 
-0.5921749542713672 2:0.022934975 3:2.9049874 4:0.01337659 
-1 1:0.011457815 2:0.090052776 3:1.6881305 
1 2:0.080262351 3:1.815623 4:0.0012161031 
-1 2:0.043822703 3:2.6150646 4:0.011037743 
-1 2:0.064429934 3:1.8838337 4:0.0043450961 
1 1:0.065994215 2:0.078654035 3:2.8011333 
1 1:0.070871416 2:0.075015834 3:2.7609995 
1 1:0.071817652 2:0.075434044 3:2.7503246 
1 1:0.079522085 2:0.069928749 3:2.7041523 
1 1:0.07872105 2:0.071785118 3:2.7039174 
1 1:0.079931272 2:0.069645806 3:2.7030935 
1 1:0.072964071 2:0.09116455 3:2.8429424 
1 1:0.081566912 2:0.072257925 3:2.695601 
-1 1:0.077421835 2:0.08969408 3:2.8711968 
-1 1:0.065313056 2:0.076123189 
-1 1:0.028974926 2:0.076596161 
-1 1:0.039064976 2:0.081007111 
-1 1:0.050704703 2:0.086786343 
-1 1:0.01853133 2:0.094539638 
-1 1:0.035801636 2:0.081710301 
-1 1:0.043149319 2:0.052950215 
-1 1:0.016689404 2:0.084983609 
-1 1:0.033568617 2:0.082387569 
-1 2:0.081019318 
-1 1:0.0073090341 2:0.077682072 
-1 1:0.0026539451 2:0.089494583 
-1 1:0.0015004053 2:0.081223838 
-1 1:0.075486255 2:0.037662383 
-1 1:0.024028148 2:0.068782968 
-1 1:0.028815749 2:0.076510313 
-1 2:0.082527794 
-1 2:0.08803813 3:0.052402993 4:0.0057185375 
-1 1:0.03358078 2:0.072414143 
1 1:0.065873046 2:0.050346104 
-1 1:0.021343407 2:0.069319138 
-1 1:0.010272975 2:0.06911733 
-1 1:0.0043770072 2:0.076688267 
-1 2:0.07043222 
-1 1:0.019321445 2:0.065509425 
1 1:0.0046714859 2:0.073406316 
1 1:0.10570518 2:0.034243257 
-1 1:0.036249585 2:0.052066471 
1 1:0.0051910946 2:0.075434472 
-1 1:0.018302412 2:0.065717243 
-1 1:0.049988905 2:0.085439462 
-1 1:0.02083962 2:0.071642069 
-1 1:0.0088434243 2:0.073874799 
-1 1:0.0132224 2:0.068127316 
1 1:0.010549631 2:0.074979994 
-1 1:0.0061362775 2:0.072641728 
-1 1:0.021034615 2:0.073736441 
1 1:0.02332561 2:0.071395431 
-1 1:0.017228204 2:0.066117624 
-1 1:0.0095942526 2:0.076003195 
1 1:0.017468368 2:0.075016431 
1 1:0.015803756 2:0.071683025 
-1 1:0.020632753 2:0.07473283 
-1 1:0.015869334 2:0.079540898 
-1 1:0.0021010983 2:0.076276882 
-1 1:0.0065644761 2:0.074256332 
-1 2:0.07680792 
-1 1:0.0096992958 2:0.077473606 
-1 2:0.078939924 
-1 2:0.071946965 
-1 2:0.079777024 4:0.0018452678 
-1 2:0.080578918 
-1 1:0.01450646 2:0.088666387 
-1 2:0.067403508 4:0.00056240039 
-1 1:0.0028508206 2:0.072392426 
-1 2:0.069151197 
-1 2:0.037496933 4:0.0074533801 
-1 2:0.04114379 4:0.008011047 
-1 2:0.058168852 
-1 1:0.078224991 2:0.056186968 
-1 2:0.0088172881 4:0.010357206 
-1 2:0.048873252 4:0.00049413073 
1 3:2.5598468 4:0.0036646032 5:0.017443514 
-1 2:0.072604422 
-1 2:0.028625411 4:0.008324173 
-1 2:0.018765058 4:0.0097977211 
-1 2:0.051409998 
-1 1:0.022311597 2:0.052874885 
1 2:0.0094950446 3:1.1845604 4:0.014094675 
-1 3:2.6191806 4:0.0050673259 5:0.014400767 
-1 3:1.9177988 4:0.010899545 5:0.010669743 
-1 3:1.9496279 4:0.012618236 5:0.0088900659 
-1 3:1.8254311 4:0.0011043361 5:0.015074839 
-1 3:1.8101766 4:0.0012754913 5:0.015054175 
-1 3:1.8031737 4:0.0012891859 5:0.015042289 
-1 3:1.8089513 4:0.0012247924 5:0.015050252 
-1 3:1.8152734 4:0.0012509041 5:0.015062582 
-1 3:1.8073134 4:0.0010801694 5:0.015042754 
1 3:1.8097329 4:0.001253952 5:0.015052627 
1 1:0.010375652 3:0.44716332 5:0.014947291 
1 1:0.0088850922 3:0.4633219 5:0.01496244 
1 1:0.0086325833 3:0.42692157 5:0.014960545 
1 1:0.0090713303 3:0.44426105 5:0.014954516 
-1 1:0.010552253 3:0.4247492 5:0.014950423 
1 1:0.0086952354 3:0.45072056 5:0.014954999 
1 1:0.0087908366 3:0.4449992 5:0.014950869 
1 1:0.0084967375 3:0.44403555 5:0.014938353 
-1 1:0.010360206 3:0.45411162 5:0.014864739 
1 1:0.010850881 3:0.54057399 5:0.014819165 
1 1:0.012608264 3:0.54988114 5:0.014761125 
-1 1:0.010956063 3:0.5131858 5:0.01482192 
1 1:0.0097452038 3:0.60318654 5:0.014837362 
1 1:0.0126002 3:0.60880948 5:0.014734395 
1 1:0.0093558996 3:0.61664221 5:0.014794557 
1 1:0.010729492 3:0.541953 5:0.014794089 
-1 1:0.002217839 3:0.4739955 5:0.014996074 
1 1:0.011636579 3:0.55010275 5:0.01479059 
1 1:0.015211877 3:0.53394084 5:0.014645418 
-1 1:0.01700149 3:0.61020136 5:0.014661545 
-1 1:0.010276567 3:0.61015033 5:0.014831069 
1 1:0.011033918 3:0.54997201 5:0.014838035 
1 1:0.011648479 3:0.60322758 5:0.014763325 
-1 1:0.015536125 3:0.69742109 5:0.01437939 
-1 1:0.0098913483 3:0.50932791 5:0.014842049 
1 1:0.018369558 3:0.66080435 5:0.014610083 
-1 1:0.015827531 3:0.55765852 5:0.014780878 
1 1:0.013408544 3:0.56442256 5:0.01474641 
1 1:0.0090036302 3:0.49048166 5:0.014870442 
1 1:0.0051900736 3:0.56115305 5:0.014931538 
1 1:0.011760973 3:0.56940009 5:0.01481347 
1 1:0.010567892 3:0.55774481 5:0.014809302 
1 1:0.0093974716 3:0.44790807 5:0.014939418 
-1 1:0.018320676 3:0.56848743 5:0.014769569 
1 1:0.005057829 3:0.50670644 5:0.014953919 
1 1:0.011408449 3:0.47256175 5:0.014940576 
-1 1:0.011270268 3:0.50182314 5:0.01488476 
1 1:0.013520016 3:0.52908544 5:0.014845864 
1 1:0.020294798 3:0.61190647 5:0.014688983 
-1 1:0.012635075 3:0.47629822 5:0.01489427 
1 1:0.017712347 3:0.58260012 5:0.014769635 
1 1:0.0038297796 3:0.50000571 5:0.014962742 
1 1:0.019082362 3:0.62464249 5:0.014669838 
-1 1:0.026107335 3:0.57697043 5:0.01454135 
-1 1:0.026920192 3:0.69418938 5:0.01416462 
-1 1:0.022896719 3:0.62283603 5:0.014551773 
1 1:0.017117692 3:0.60285712 5:0.01472724 
1 1:0.022383872 3:0.6145187 5:0.014648191 
-1 1:0.014624649 3:0.56922433 5:0.014805673 
-1 1:0.0042180957 3:0.51861861 5:0.014958712 
-1 1:0.016315085 3:0.66227244 5:0.014611301 
1 1:0.022841328 3:0.61419264 5:0.014468499 
-1 1:0.022485705 3:0.66663038 5:0.014409476 
-1 1:0.022110369 3:0.65543495 5:0.014441711 
1 3:0.42507451 4:0.00094049279 5:0.014981941 
1 1:0.020676578 3:0.62948933 5:0.014518708 
-1 1:0.011508534 3:0.62592291 5:0.014813906 
1 3:0.43165041 4:0.001347357 5:0.015016212 
1 1:0.032052898 3:0.65113532 5:0.014314945 
1 1:0.0041949996 3:0.51654944 5:0.014946237 
1 1:0.011127357 3:0.50680555 5:0.014963291 
1 1:0.019377064 3:0.59472626 5:0.014689765 
1 1:0.013424574 3:0.55432719 5:0.014849544 
1 1:0.0073594794 3:0.52129416 5:0.014907765 
1 1:0.01050111 3:0.5709036 5:0.014833006 
1 1:0.027478196 3:0.67703449 5:0.014410833 
1 1:0.026100832 3:0.56944884 5:0.014545407 
1 1:0.029513798 3:0.59783532 5:0.014630229 
1 1:0.031372402 3:0.60588912 5:0.014528103 
1 1:0.027592157 3:0.67507061 5:0.01436551 
-1 1:0.024171228 3:0.56811659 5:0.01458579 
-1 1:0.021600647 3:0.52351388 5:0.01485773 
1 1:0.033100946 3:0.53865321 5:0.01470278 
-1 4:0.0093566724 5:0.011830514 
-1 1:0.0033323718 3:0.41554814 4:0.00030509268 5:0.015001212 
1 1:0.013776675 3:0.60621328 5:0.014789879 
-1 1:0.0028198545 3:0.38778338 4:0.00043224868 5:0.014997382 
1 1:0.014289854 3:0.62532754 5:0.014817089 
1 1:0.01216465 3:0.22589126 4:0.00076287601 5:0.015242597 
1 1:0.02003404 3:0.51912248 5:0.014821191 
1 1:0.015448156 3:0.45066808 5:0.014915026 
-1 1:0.0016989912 3:0.50664244 5:0.01502952 
1 1:0.00072238005 3:0.38649532 4:0.00072097258 5:0.014982694 
-1 1:0.013551631 3:0.46003668 5:0.015037768 
1 1:0.0069772706 3:0.43404889 5:0.014995819 
-1 3:0.27688228 4:0.0013828892 5:0.014937504 
-1 1:0.0039754308 3:0.4154056 4:0.00018089681 5:0.014999908 
-1 1:0.017255529 3:0.4864409 5:0.014866687 
1 1:0.010143634 3:0.50379174 5:0.014958357 
-1 1:0.017709385 3:0.57513691 5:0.014866019 
-1 1:0.022136921 3:0.55103016 5:0.014866228 
1 1:0.021135212 3:0.36567652 5:0.015161894 
1 1:0.0022609481 3:0.42963332 4:0.00038960251 5:0.014994939 
-1 1:0.0014850351 3:0.32719202 4:0.00096465882 5:0.01497129 
-1 3:0.4840742 4:0.00074803852 5:0.015003424 
1 1:0.020695704 3:0.55917152 5:0.014856623 
-1 1:0.0098202036 3:0.45434693 5:0.01500035 
1 3:0.3414509 4:0.0017616658 5:0.014899775 
-1 3:0.23762089 4:0.0055470389 5:0.014069029 
1 1:0.024742193 3:0.58512148 5:0.014639466 
-1 1:0.0052120506 3:0.36165708 4:0.00030039692 5:0.014998175 
1 1:0.034664395 3:0.62505492 5:0.014328894 
-1 1:0.071484416 3:1.5521388 5:0.0086539138 
1 1:0.0064492456 3:0.45829051 5:0.014998672 
-1 4:0.014378421 5:0.004611242 
1 1:0.013745946 3:0.46352386 5:0.014957611 
-1 1:0.020713377 3:0.49178841 5:0.014840052 
1 1:0.022190809 3:0.2060946 4:0.00018729751 5:0.015534563 
1 3:0.42450268 4:0.0017661366 5:0.015001604 
1 3:0.4489438 4:0.0015788212 5:0.01500696 
-1 1:0.00055473089 3:0.42459432 4:0.00076079787 5:0.014985409 
1 1:0.016077695 3:0.39718573 5:0.014958813 
-1 4:0.014686727 
1 3:0.010420002 4:0.0046568529 5:0.014322935 
1 1:0.039978764 3:0.73365314 5:0.013668557 
1 1:0.012457535 3:0.47248334 5:0.01495184 
-1 3:0.50332444 4:0.0018114589 5:0.015108957 
1 4:0.014042598 5:0.0054731072 
1 4:0.013162888 5:0.0072000471 
1 1:0.009222065 3:0.50534606 5:0.014941245 
-1 1:0.020212837 3:0.56838201 5:0.014788125 
1 1:0.018523398 3:0.30319303 5:0.015054885 
-1 3:0.11231788 4:0.0035664704 5:0.01468829 
1 3:0.20607774 4:0.003976019 5:0.014602141 
1 3:0.25902711 4:0.0016717034 5:0.014908445 
1 4:0.011594618 5:0.0095165959 
1 3:0.30230125 4:0.0024016449 5:0.014954057 
1 1:0.0079997046 3:0.45265893 5:0.014971094 
-1 4:0.012510008 5:0.0083300972 
1 1:0.0091073852 3:0.38930373 5:0.015062085 
1 1:0.031337028 3:0.88296543 5:0.013412917 
-1 4:0.008153374 5:0.012592851 
1 4:0.0096934176 5:0.011447462 
-1 4:0.013146961 5:0.0073649932 
1 1:0.0074171525 3:0.33475704 4:0.00010149659 5:0.015025124 
1 4:0.010456492 5:0.010754621 
1 4:0.011862992 5:0.0092063601 
1 4:0.012934595 5:0.0077129282 
1 1:0.024285391 3:0.78632485 5:0.013938123 
1 4:0.013544183 5:0.0065403363 
1 1:0.00048165935 3:0.10627739 4:0.002568992 5:0.014958005 
1 4:0.013244746 5:0.0071430549 
1 3:0.054613361 4:0.0044337333 5:0.014339079 
1 1:0.017678079 3:0.32722195 5:0.014990088 
-1 1:0.025686599 3:0.31265272 5:0.015076602 
1 4:0.011747702 5:0.0093280379 
-1 1:0.01084259 3:0.28694804 5:0.015011564 
1 1:0.023079957 3:0.5467705 5:0.014409475 
-1 1:0.0009971171 3:0.35789187 4:0.00047369923 5:0.014995332 
1 1:0.021007534 3:0.33876868 5:0.015072137 
1 4:0.011013209 5:0.010315561 
1 1:0.021759222 3:0.42655187 5:0.01492515 
1 1:0.003974359 3:0.27714165 4:0.00016121539 5:0.014999218 
1 3:0.19475148 4:0.0027788899 5:0.014740548 
-1 4:0.010785366 5:0.010435222 
1 1:0.055619325 3:0.56740574 5:0.013692072 
1 1:0.013860712 3:0.2996591 5:0.01497539 
1 1:0.072404596 3:0.8872007 5:0.01047976 
1 4:0.014049623 5:0.0057876533 
1 1:0.036672998 3:0.66596082 5:0.013686346 
0.004868125601339575 1:0.0013266606 3:0.38600577 4:0.00025664058 5:0.015020373 
1 4:0.0072198833 5:0.013182072 
1 3:0.042956349 4:0.0043061447 5:0.014368891 
1 3:0.35218418 4:0.0022177159 5:0.015138578 
1 1:0.029534442 3:0.5053738 5:0.014568494 
1 3:0.39011636 4:0.0010143281 5:0.014966612 
-1 1:0.020152713 3:0.53921501 5:0.014650001 
1 3:0.28044699 4:0.0043919771 5:0.0144952 
1 1:0.0012313758 3:0.22239348 4:0.001324164 5:0.014984654 
1 4:0.013823337 5:0.0058525048 
1 3:0.31180254 4:0.0011871595 5:0.014961747 
1 1:0.012692098 3:0.24178651 5:0.01503947 
1 1:0.015498545 3:0.32660963 5:0.015008663 
1 1:0.026428526 3:0.42982507 5:0.014880453 
1 3:0.27573983 4:0.0021083481 5:0.014878159 
-1 4:0.011722809 5:0.0094948782 
1 3:0.30069883 4:0.0014272959 5:0.014932336 
1 4:0.0086131404 5:0.012470824 
1 4:0.01053315 5:0.010799496 
1 1:0.0025343305 3:0.15482307 4:0.0015084472 5:0.015017936 
1 3:0.13779391 4:0.0019383513 5:0.014874257 
1 3:0.22682844 4:0.0026226191 5:0.014800469 
-1 3:0.25838851 4:0.0018881355 5:0.014888939 
-1 4:0.010266349 5:0.0095486834 
-1 1:0.055319291 5:0.013495706 
-1 1:0.051080071 5:0.013935948 
-1 1:0.054677674 5:0.013619535 
-1 1:0.059192073 5:0.013144819 
-1 1:0.056099086 5:0.013430333 
-1 1:0.056816234 5:0.01356608 
-1 1:0.056883199 5:0.013486069 
-1 1:0.053912813 5:0.013919208 
1 1:0.048728659 5:0.014197961 
1 1:0.023180138 3:1.7402519 5:0.014192711 
1 1:0.015577358 3:1.7242899 5:0.014419819 
1 1:0.015423522 3:1.7227249 5:0.014390283 
1 1:0.0081987906 3:1.726815 5:0.014749714 
-1 1:0.022728357 3:1.7948574 5:0.014095592 
1 1:0.016022957 3:1.721843 5:0.014258576 
1 1:0.0081861445 3:1.723486 5:0.014634212 
1 3:1.6580121 5:0.014989219 
1 3:1.5630901 5:0.015261128 
1 1:0.0040220622 3:1.6144229 5:0.014984271 
1 1:0.017805632 3:1.6709805 5:0.014428565 
1 1:0.0093811068 3:1.785817 5:0.014480986 
1 1:0.0027944406 3:1.6911571 5:0.014839058 
1 1:0.014022405 3:1.7210853 5:0.014547986 
1 3:1.5654934 5:0.015100856 
1 1:0.00053603474 3:1.6605022 5:0.01492091 
1 3:1.5871096 5:0.01517601 
1 3:1.5615469 5:0.015226609 
1 3:1.5247622 5:0.015277032 
1 3:1.6178624 5:0.015179263 
1 3:1.3603545 4:0.00020446277 5:0.015227725 
1 3:1.4844202 5:0.015310426 
1 3:1.6052675 5:0.015169074 
1 3:1.6116313 5:0.01507161 
1 3:1.5471299 5:0.015162149 
1 3:1.5724547 5:0.015200815 
1 1:0.005085408 3:1.6203977 5:0.01491723 
1 3:1.5437678 5:0.015171899 
1 3:1.6468036 5:0.015149016 
1 3:1.4978384 5:0.015136257 
-1 1:0.0054586975 3:1.7111847 5:0.015073923 
-1 3:1.5649618 5:0.015150197 
1 3:1.4008879 4:0.0022552263 5:0.014882068 
1 3:1.4894837 5:0.01511449 
1 1:0.0062414124 3:1.6180679 5:0.015070924 
-1 3:1.6143712 5:0.015094371 
-1 3:1.6090288 4:0.0014425321 5:0.01499704 
-1 3:1.5414341 5:0.015175554 
1 3:1.4861622 5:0.015244802 
1 3:1.6091904 4:0.00039287535 5:0.015010007 
1 3:1.598667 4:0.00034147628 5:0.015173459 
-1 3:1.4995896 5:0.015358792 
1 1:0.025218954 3:1.7065886 5:0.014244483 
-1 3:1.7606997 5:0.01506307 
1 3:1.6076144 5:0.015071057 
-1 3:1.5851458 5:0.015163706 
1 3:1.6162338 5:0.015142651 
1 3:1.5504099 4:0.00080758937 5:0.015144014 
-1 3:1.6189235 5:0.015075413 
-1 3:1.5543971 5:0.015139771 
-1 3:1.5550076 5:0.015100739 
-1 3:1.4664053 4:0.00021651085 5:0.015147741 
1 3:1.4821675 4:0.0036561875 5:0.014549266 
-1 3:1.6028374 5:0.015144709 
1 1:0.0050619202 3:1.6376909 5:0.015052891 
-1 3:1.4874171 4:0.00064148527 5:0.015112688 
1 3:1.5706761 4:0.00085741367 5:0.015058267 
1 3:1.4711634 4:0.00039372372 5:0.015073329 
-1 3:1.5684358 5:0.015169329 
-1 3:1.5623368 4:0.0013270195 5:0.015006718 
-1 3:1.4011717 4:0.0038967703 5:0.014486235 
-1 3:1.3248471 4:0.0047701055 5:0.014223206 
-1 3:1.5341298 4:0.0028031849 5:0.014735748 
1 3:1.5761746 4:2.7033838e-05 5:0.015047932 
1 3:1.3225758 4:0.00407939 5:0.014435958 
-1 3:1.5031338 4:0.00086689598 5:0.014351826 
-1 3:1.4688605 4:0.00093717238 5:0.014757702 
1 3:1.6076953 4:0.0013392222 5:0.014070616 
1 1:0.011808417 2:0.10691405 4:0.0081922873 
1 1:0.013040853 2:0.10661577 4:0.0080571944 
1 1:0.012013768 2:0.10757553 4:0.0081841323 
1 1:0.01169668 2:0.10745846 4:0.008226205 
1 1:0.01379996 2:0.1082594 4:0.0079872724 
1 1:0.011489191 2:0.10682124 4:0.0082407591 
1 1:0.015247932 2:0.10777399 4:0.0077302307 
-1 1:0.010328538 2:0.10817517 4:0.0083734702 
-1 1:0.0065860961 2:0.075486012 4:0.0084842313 
-1 1:0.007950257 2:0.073833887 4:0.0083916511 
-1 1:0.010235215 2:0.07095368 4:0.0077954999 
-1 1:0.017195053 2:0.074463331 4:0.0066776957 
-1 1:0.015248731 2:0.074671607 4:0.0064993571 
-1 1:0.016597572 2:0.074465296 4:0.0061754429 
-1 1:0.014970943 2:0.072519235 4:0.0064318816 
-1 1:0.014360353 2:0.071477496 4:0.0063933588 
-1 1:0.0096215411 2:0.073573446 4:0.0073197125 
-1 1:0.012701021 2:0.074094006 4:0.0067221184 
-1 1:0.013653317 2:0.072907999 4:0.0065325591 
-1 1:0.020173255 2:0.072686401 4:0.0052791822 
-1 1:0.014545586 2:0.074513492 4:0.0059622199 
-1 1:0.019191072 2:0.071503258 4:0.0053427985 
-1 1:0.011737266 2:0.071884613 4:0.0063710349 
-1 1:0.019170277 2:0.070292421 4:0.0050917263 
-1 1:0.021669042 2:0.072025674 4:0.0040938158 
-1 1:0.026643371 2:0.069558268 4:0.0037144305 
-1 1:0.020931944 2:0.072163783 4:0.004351987 
-1 1:0.017807564 2:0.075641562 4:0.005002303 
-1 1:0.02039019 2:0.072876998 4:0.0042539242 
-1 1:0.020373672 2:0.071068371 4:0.0044085263 
-1 1:0.020248267 2:0.071210128 4:0.0039491825 
-1 1:0.017462541 2:0.069878739 4:0.0045351716 
-1 1:0.021460811 2:0.069229576 4:0.0034592245 
-1 1:0.017164109 2:0.072873864 4:0.0043734639 
-1 1:0.019672878 2:0.069930551 4:0.0036580053 
-1 1:0.019972384 2:0.067669052 4:0.0041540019 
-1 1:0.025215445 2:0.072376248 4:0.0028359887 
-1 1:0.026052579 2:0.071669027 4:0.0032251594 
-1 1:0.018694291 2:0.075237663 4:0.0044389265 
-1 1:0.034558474 2:0.070745306 4:0.001899489 
-1 1:0.027985894 2:0.076936641 4:0.0025553126 
-1 1:0.039877507 2:0.074974732 4:0.00083392095 
-1 1:0.034744922 2:0.07514005 4:0.0013906967 
-1 1:0.023945735 2:0.071995761 4:0.0027444272 
-1 1:0.025360993 2:0.074418406 4:0.0027834565 
-1 1:0.017174756 2:0.073943377 4:0.0034711602 
-1 1:0.034267434 2:0.072761409 4:0.0013159477 
-1 1:0.020890364 2:0.074602745 4:0.0033923224 
-1 1:0.030804948 2:0.077236658 4:0.0019714729 
-1 1:0.019359635 2:0.074773364 4:0.00354307 
-1 1:0.024140973 2:0.07675314 4:0.0023647091 
-1 1:0.030372393 2:0.076345081 4:0.0013688551 
-1 1:0.027454288 2:0.083324904 4:0.002106932 
-1 1:0.026293324 2:0.07539068 4:0.0014471129 
-1 1:0.021499831 2:0.076795283 4:0.0027001117 
-1 1:0.032870101 2:0.074527086 4:0.00077223363 
-1 1:0.030227537 2:0.074049452 4:0.00074637159 
-1 1:0.032458155 2:0.075691693 4:0.0010755792 
-1 1:0.027719353 2:0.075143895 4:0.000920079 
-1 1:0.023316074 2:0.072091099 4:0.0018214688 
-1 1:0.033728321 2:0.078907511 4:0.0011223069 
-1 1:0.024200661 2:0.075696421 4:0.0017558551 
-1 1:0.031769642 2:0.074473615 4:0.00072962179 
-1 1:0.036972991 2:0.07461898 
-1 1:0.025749912 2:0.075751527 4:0.0012096266 
-1 1:0.040786301 2:0.069827532 
-1 1:0.029745015 2:0.071576509 4:0.00047809673 
-1 1:0.026989868 2:0.076490719 4:0.00099856372 
-1 1:0.029640485 2:0.070523346 4:0.00020893356 
-1 1:0.036547548 2:0.073962453 
-1 1:0.025935924 2:0.075889298 4:0.00099102085 
-1 1:0.029753677 2:0.070346279 4:1.9659151e-05 
-1 1:0.045928733 2:0.072603022 
-1 1:0.046747537 2:0.072969922 
-1 1:0.034363397 2:0.075285374 4:3.9988027e-05 
-1 1:0.024945668 2:0.077695124 4:0.0010719469 
-1 1:0.028563803 2:0.069010591 
-1 1:0.039376107 2:0.080380545 
-1 1:0.022230661 2:0.081619211 4:0.0017568826 
-1 1:0.029538879 2:0.075007063 4:0.00035347473 
-1 1:0.034184303 2:0.066240249 
-1 1:0.02864352 2:0.070321636 
-1 1:0.030065156 2:0.06641328 
-1 1:0.030014288 2:0.068690306 
-1 1:0.036329922 2:0.07457847 
-1 1:0.034606611 2:0.074590328 4:7.8466345e-05 
-1 1:0.025105361 2:0.082807275 4:0.00099318143 
-1 1:0.024465132 2:0.084124979 4:0.0014994772 
-1 1:0.033125599 2:0.064175528 
-1 1:0.032925611 2:0.064502361 
-1 1:0.028395735 2:0.078196105 4:0.00064219718 
-1 1:0.034743504 2:0.078231314 
-1 1:0.027408534 2:0.070403336 
-1 1:0.032810404 2:0.07259949 
-1 1:0.029873199 2:0.068825812 
-1 1:0.035495877 2:0.070469999 
-1 1:0.026632318 2:0.066084349 
-1 1:0.045262391 2:0.072885363 
-1 1:0.025613529 2:0.069281497 
-1 1:0.031987048 2:0.074655621 
-1 1:0.048536677 2:0.073446984 
-1 1:0.024765995 2:0.073253472 
-1 1:0.038173614 2:0.074588312 
-1 1:0.039575557 2:0.05023595 
1 1:0.026002825 2:0.06683452 
-1 1:0.043525364 2:0.066769971 
-1 1:0.022350145 2:0.072289391 
-1 1:0.022541426 2:0.07336751 4:0.00017206916 
-1 1:0.022554689 2:0.076735719 4:0.00088774594 
-1 1:0.034039482 2:0.078409988 
-1 1:0.027520259 2:0.060643107 
-1 1:0.020784012 2:0.071635846 4:0.00014307639 
-1 1:0.028056332 2:0.075169072 
-1 1:0.028268852 2:0.07780593 4:0.00038393376 
-1 1:0.033575244 2:0.078962112 
-1 1:0.028571198 2:0.06132599 
-1 1:0.023035205 2:0.071012976 
-1 1:0.010421222 2:0.082773355 4:0.0031240137 
-1 1:0.040586607 2:0.06799762 
1 1:0.019117279 2:0.073799421 4:0.0009995624 
-1 1:0.019184486 2:0.082213709 4:0.0018429112 
-1 1:0.022861487 2:0.069309537 
1 1:0.021131496 2:0.072185227 4:0.0005932603 
-1 1:0.025996617 2:0.071539554 
-1 1:0.015920186 2:0.087272014 4:0.0024303432 
-1 1:0.023844893 2:0.067274151 
-1 1:0.029278617 2:0.065015288 
-1 1:0.037081995 2:0.067351506 
-1 1:0.03171431 2:0.069421182 
-1 1:0.0084595388 2:0.068080255 4:0.0015404892 
1 1:0.018730617 2:0.074268042 4:0.00088581696 
-1 1:0.0036084135 2:0.088012899 4:0.0037571145 
1 1:0.012799582 2:0.075642281 4:0.00093211378 
-1 1:0.030878057 2:0.066391755 
-1 1:0.034341142 2:0.060826546 
-1 1:0.013511697 2:0.080334883 4:0.0010766983 
1 1:0.011602723 2:0.075504282 4:0.001151187 
1 1:0.022345244 2:0.069556373 
-1 1:0.035297964 2:0.06341688 
-1 1:0.028254843 2:0.074081923 
-1 1:0.009553695 2:0.06366781 4:0.0015399089 
-1 1:0.015826445 2:0.063503732 4:0.0001979187 
-1 1:0.024530336 2:0.074428749 
-1 1:0.013548603 2:0.069669572 4:0.0010603502 
-1 1:0.0085946605 2:0.067710154 4:0.0017087716 
1 1:0.012860809 2:0.069322506 4:0.00084190165 
-1 1:0.018860101 2:0.060452155 
-1 1:0.024913321 2:0.06845799 
1 1:0.0094359005 2:0.073974621 4:0.0014467992 
-1 1:0.019623127 2:0.069974961 4:7.6700583e-06 
1 1:0.040873324 2:0.061209563 
1 1:0.014957352 2:0.065166784 4:0.00023772317 
1 1:0.02431045 2:0.077826179 4:0.00085009592 
-1 1:0.0091110119 2:0.070455072 4:0.0014175882 
1 2:0.070340104 4:0.0030845595 
-1 1:0.010067249 2:0.07246304 4:0.0012518374 
-0.9472435028212344 1:0.015373302 2:0.068060334 4:0.00028171608 
1 1:0.017291786 2:0.054489118 
1 2:0.069390002 4:0.0031649244 
1 1:0.026575671 2:0.051469648 
-1 1:0.0074202153 2:0.064324853 4:0.0014998617 
1 1:0.023222296 2:0.057655761 
1 2:0.064431311 4:0.0028873761 
1 1:0.02039874 2:0.064737246 
1 1:0.0041229378 2:0.061499241 4:0.0018077932 
1 2:0.075212251 3:0.10752229 4:0.0041699527 
1 1:0.0084931777 2:0.067070802 4:0.0010105827 
1 1:0.0071909743 2:0.07201135 4:0.0014389569 
1 1:0.034458275 2:0.061269921 
-1 1:0.010914324 2:0.069363352 4:0.00089058517 
1 2:0.070526018 3:0.15455579 4:0.0037874359 
-1 3:2.7459323 4:0.0080781016 5:0.013141342 
-1 3:2.771302 4:0.0078014488 5:0.013324312 
-1 3:2.7426924 4:0.0080283024 5:0.01314559 
-1 3:2.7434359 4:0.0081641726 5:0.013103581 
-1 3:2.7542505 4:0.0078281052 5:0.013252653 
-1 3:2.7583737 4:0.0080120861 5:0.013210127 
-1 3:2.7376887 4:0.0081045735 5:0.013101697 
1 3:2.7484571 4:0.007943823 5:0.013194427 
1 3:0.81693963 4:0.010737618 5:0.012284747 
-1 3:0.87780513 4:0.010139111 5:0.01264336 
-1 3:0.81580601 4:0.010307381 5:0.012428315 
1 3:0.97857803 4:0.010559573 5:0.0123997 
-1 3:0.9808303 4:0.010092225 5:0.012607067 
1 3:0.85458397 4:0.0099323473 5:0.012483717 
-1 3:0.80910104 4:0.0095895433 5:0.012700239 
1 3:0.73579058 4:0.0082664762 5:0.013397165 
-1 3:1.0488663 4:0.0070006482 5:0.014036499 
1 3:1.0032653 4:0.0064813502 5:0.014190083 
-1 3:1.0030334 4:0.0075011591 5:0.013769827 
-1 3:1.0731 4:0.0058683979 5:0.01429235 
1 3:1.0826968 4:0.0051458524 5:0.014434699 
1 3:0.93731797 4:0.0051072169 5:0.014498113 
-1 3:1.0051146 4:0.0062776058 5:0.013792454 
1 3:1.067467 4:0.0042207771 5:0.014474865 
1 3:1.141568 4:0.0034901813 5:0.014157083 
-1 3:1.0240683 4:0.0073623068 5:0.012881629 
-1 3:1.1301516 4:0.0062462545 5:0.01398943 
1 3:1.211435 4:0.0035186653 5:0.012996395 
1 1:0.0056867981 3:1.3111913 4:0.0012972586 5:0.012304738 
1 1:0.0069296144 3:1.2604028 4:0.0015593208 5:0.011779611 
-1 1:0.0029751164 3:1.2604487 4:0.0023053286 5:0.013646896 
-1 1:0.0013191067 3:1.0850664 4:0.0022251923 5:0.01149954 
-1 1:0.020930903 3:1.236145 4:0.00052023884 5:0.010846879 
-1 3:1.1721152 4:0.0038531431 5:0.013250417 
1 1:0.024881082 3:1.2298237 5:0.010859549 
-1 1:0.066784261 3:2.7314289 5:0.0094657196 
-1 1:0.068770573 3:2.7284104 5:0.0093908176 
-1 1:0.059469275 3:2.672103 5:0.010476535 
-1 1:0.060950482 3:2.6737825 5:0.010398435 
-1 1:0.06572375 3:2.7213819 5:0.0096266916 
-1 1:0.06393586 3:2.697714 5:0.010000691 
-1 1:0.071771395 3:2.7585771 5:0.0088968806 
1 1:0.065255346 3:2.7092363 5:0.0098181813 
1 1:0.041228902 3:1.9015269 5:0.0098160693 
1 1:0.031736995 3:1.830765 5:0.010935697 
-1 1:0.032059912 3:1.8374841 5:0.01072868 
1 1:0.024681994 3:1.8120922 5:0.011581348 
-1 1:0.016228901 3:1.7298221 5:0.012518487 
-1 1:0.01299374 3:1.71465 5:0.012621539 
1 1:0.0051361556 3:1.682035 5:0.013291676 
1 1:0.0021111183 3:1.6335348 5:0.013508 
-1 1:0.001623979 3:1.6285627 5:0.013549015 
1 3:1.6099746 5:0.013947373 
-1 3:1.5717368 5:0.014245816 
1 3:1.574035 5:0.014158411 
1 3:1.5343811 5:0.014575752 
1 3:1.5800405 5:0.014039468 
1 3:1.5579292 5:0.014251663 
-1 3:1.6103691 5:0.01398734 
1 3:1.6348031 5:0.013897597 
-1 3:1.6438662 5:0.013697673 
-1 3:1.6240562 5:0.013921777 
1 3:1.6103223 5:0.014134956 
-1 3:1.6618504 5:0.013900167 
-1 3:1.61384 5:0.014006638 
1 3:1.6401185 5:0.013858433 
1 3:1.6652878 5:0.014040335 
-1 3:1.6517479 5:0.014093857 
1 3:1.6148326 5:0.014215775 
1 3:1.6399856 5:0.014059047 
1 3:1.6183938 5:0.014143147 
-1 3:1.6278357 5:0.014235761 
-1 3:1.6857811 5:0.013861551 
1 3:1.566967 5:0.014498058 
-1 3:1.6464527 5:0.014124373 
-1 3:1.6602384 5:0.013975604 
1 3:1.6200768 5:0.014174148 
-1 3:1.6423895 5:0.014197147 
-1 3:1.661655 5:0.014123891 
-1 3:1.6019457 5:0.014459426 
1 3:1.6194821 5:0.014362401 
-1 3:1.6067841 5:0.014349617 
-1 3:1.6291098 5:0.014284356 
1 3:1.620175 5:0.014319151 
-1 3:1.6253729 5:0.014381745 
-1 3:1.6344679 5:0.014389414 
-1 3:1.6372034 5:0.01435371 
-1 3:1.6112978 5:0.014557039 
-1 3:1.6259141 5:0.014336708 
1 3:1.6199679 5:0.014534708 
-1 3:1.6184886 5:0.014488268 
1 3:1.6175962 5:0.014486693 
1 3:1.6179475 5:0.014477519 
-1 3:1.6883626 5:0.014221986 
1 3:1.6241778 5:0.014498218 
-1 3:1.5992808 5:0.014582365 
1 3:1.5858093 5:0.014627107 
1 3:1.5731888 5:0.014609282 
1 3:1.6146139 5:0.014455405 
1 3:1.6122316 5:0.014491435 
1 3:1.6249119 5:0.014488081 
1 3:1.5796867 5:0.014751668 
1 3:1.6271216 5:0.014526959 
-1 3:1.6049382 5:0.014701505 
1 3:1.6230489 5:0.014719416 
1 3:1.6420442 5:0.014613654 
1 3:1.5987744 5:0.01472551 
-1 3:1.5850377 5:0.01471763 
1 3:1.6034597 5:0.014650296 
-1 3:1.6122821 5:0.014682415 
1 3:1.6358511 5:0.014644465 
-1 3:1.6355265 5:0.01462306 
1 3:1.7080609 5:0.01430514 
-1 3:1.6540418 5:0.01468692 
1 3:1.7029088 5:0.01451287 
-1 3:1.6706552 5:0.014491509 
1 3:1.6443233 5:0.014581475 
1 3:1.6673711 5:0.014602861 
1 3:1.7103972 5:0.014433556 
-1 3:1.7050404 5:0.014255647 
1 3:1.6343161 5:0.014804322 
-1 3:1.5689043 5:0.014921452 
-1 3:1.5664237 5:0.014830946 
1 3:1.6568545 5:0.014644522 
1 3:1.6281533 5:0.014681358 
1 3:1.5487529 5:0.014934258 
1 3:1.7056999 5:0.014571364 
-1 3:1.5380171 5:0.014901773 
1 3:1.5587547 5:0.01488809 
1 3:1.7393271 5:0.01432713 
-1 3:1.5251602 5:0.01495726 
1 3:1.7098482 5:0.014299381 
-1 3:1.6189898 5:0.014757185 
-1 3:1.6213628 5:0.014837743 
1 3:1.6843489 5:0.014639424 
-1 3:1.6174563 5:0.014671179 
1 3:1.6181012 5:0.014694197 
1 3:1.5688765 5:0.01490372 
-1 3:1.5703741 5:0.01492654 
-1 3:1.6493153 5:0.01466211 
-1 3:1.6476847 5:0.014731338 
1 3:1.6109128 5:0.014676576 
-1 3:1.6484421 5:0.014631042 
-1 3:1.6748843 5:0.014653748 
-1 3:1.5741784 5:0.014937895 
-1 3:1.6094154 5:0.014717079 
-1 3:1.5800953 5:0.014781536 
-1 3:1.6202581 5:0.014690161 
1 3:1.6803587 5:0.014545171 
-1 3:1.6449741 5:0.014743033 
-1 3:1.6177187 5:0.014781715 
-1 3:1.7329617 5:0.014494279 
-1 3:1.7027301 5:0.014494597 
-1 3:1.6827264 5:0.014492688 
1 3:1.6525794 5:0.014658406 
-1 3:1.783126 5:0.014172185 
-1 3:1.6504419 5:0.014738237 
1 3:1.661861 5:0.014601777 
-1 3:1.7581009 5:0.01445269 
1 3:1.6766374 5:0.01463392 
-1 3:1.775441 5:0.014142288 
-1 3:1.55645 5:0.014895417 
-1 3:1.6722044 5:0.014720565 
-1 3:1.6396397 5:0.014782429 
-1 3:1.607662 5:0.014934965 
-1 3:1.6112109 5:0.014722125 
-1 3:1.6000178 5:0.014812685 
1 3:1.787237 5:0.014125193 
1 3:1.6606729 5:0.014771246 
1 3:1.6632047 5:0.01471844 
-1 3:1.6841202 5:0.014670273 
-1 3:1.6374133 5:0.014634754 
-1 3:1.6651092 5:0.014666251 
1 3:1.6208635 5:0.014667865 
-1 1:0.16542934 3:2.3420041 5:0.0087571856 
-1 1:0.16422785 3:2.3418241 5:0.0086137317 
-1 1:0.16476907 3:2.3383035 5:0.0087880379 
-1 1:0.16450004 3:2.3542394 5:0.0084269253 
-1 1:0.16475158 3:2.3651188 5:0.0082700984 
-1 1:0.16451807 3:2.3499676 5:0.0085178672 
1 1:0.16505661 3:2.3590602 5:0.0084639559 
1 1:0.14288771 5:0.007329614 
1 1:0.13385841 2:0.0078456995 5:0.0047581151 
1 1:0.13253349 5:0.0062311421 
1 1:0.13519081 5:0.0066467544 
1 1:0.13563467 5:0.0063049903 
1 1:0.13518059 2:0.0053905928 5:0.0047322546 
1 1:0.13797666 5:0.0057591215 
1 1:0.13660659 5:0.0054683459 
1 1:0.1365969 5:0.0052489147 
1 1:0.13516159 5:0.0051545513 
1 1:0.13480113 5:0.0051381724 
1 1:0.13702021 5:0.0054496423 
1 1:0.13536378 2:0.0014523389 5:0.0045516602 
1 1:0.1312774 2:0.0043547157 5:0.0041314143 
1 1:0.13657562 2:0.006314973 5:0.0039008281 
1 1:0.13596584 2:0.0028823662 5:0.0042097079 
1 1:0.14076633 5:0.005080812 
1 1:0.13597997 5:0.0047225691 
1 1:0.13802209 2:0.016213969 5:0.0024747468 
1 1:0.13543134 2:0.013808117 5:0.0026691761 
1 1:0.13566177 2:0.017335801 5:0.0022087386 
1 1:0.14075045 2:0.0026404914 5:0.0039064514 
1 1:0.13349716 2:0.0021864723 5:0.003869339 
1 1:0.13866598 2:0.00405259 5:0.0036408708 
1 1:0.13807413 2:0.0089564861 5:0.0030006385 
1 1:0.1352905 2:0.0093109378 5:0.0028756617 
1 1:0.14311769 2:0.0074814678 5:0.0031211874 
1 1:0.1400516 2:0.016012486 5:0.0020979424 
1 1:0.13134012 5:0.0049552665 
1 1:0.13670593 2:0.01699402 5:0.0017459765 
1 1:0.14229054 2:0.015454772 5:0.001976961 
1 1:0.14587945 2:0.0067200947 5:0.0028918012 
1 1:0.13324591 5:0.0039041946 
1 1:0.1289693 2:0.018498313 5:0.0012603425 
1 1:0.13629479 2:0.0091459108 5:0.0024422154 
1 1:0.13455949 5:0.0039641916 
1 1:0.12893851 2:0.019670216 5:0.00097754617 
1 1:0.13759937 2:0.019626984 5:0.0011011765 
1 1:0.13916999 2:0.0058214468 5:0.0026450001 
1 1:0.13355086 5:0.0039485243 
1 1:0.13955838 2:0.020041079 5:0.00098503602 
1 1:0.12491264 2:0.0075496199 5:0.0021856545 
1 1:0.12915504 5:0.0043524115 
1 1:0.12664813 2:0.019811356 5:0.00062964367 
1 1:0.12573311 2:0.02552443 
1 1:0.13170055 2:0.017053069 5:0.000995411 
1 1:0.13648664 2:0.010948755 5:0.0017144418 
1 1:0.13537605 5:0.0033633715 
1 1:0.1310038 2:0.027689855 
1 1:0.12279542 2:0.02565675 
1 1:0.12293566 2:0.026906534 
1 1:0.13561416 2:0.024135785 5:6.0599189e-05 
1 1:0.13348251 2:0.010994424 5:0.0014794944 
1 1:0.13474206 2:0.045133814 
1 1:0.12930029 2:0.019533173 5:0.00033625914 
1 1:0.11833787 5:0.0032499332 
1 1:0.13304967 2:0.044371442 
1 1:0.12226509 2:0.015573923 5:0.00054775477 
1 1:0.13096101 2:0.063464896 
1 1:0.13819671 2:0.0019801916 5:0.0023404637 
1 1:0.13217592 2:0.051661675 
1 1:0.13114268 2:0.021202838 
0.2157576847958015 1:0.10387819 2:0.089061515 
1 1:0.14118796 2:0.021694881 5:1.5002034e-05 
1 1:0.12851692 2:0.011368231 5:0.00089378737 
1 1:0.14157506 2:0.032554669 
1 1:0.14248816 2:0.046422989 
1 1:0.11384536 2:0.067349128 
1 1:0.14792403 5:0.0042496837 
1 1:0.1301003 2:0.039936782 
-1 2:0.048485022 3:1.4990537 4:0.013158016 
1 1:0.12694681 2:0.012564995 5:0.00045845938 
1 1:0.12910635 2:0.021714373 
1 1:0.12724764 2:0.024432937 
1 1:0.11412469 2:0.038463161 
1 1:0.140741 2:0.014237899 5:0.0004595811 
1 2:0.12482162 3:0.39574527 4:0.00050234097 
1 1:0.13012504 2:0.053711947 
0.1268166278365517 1:0.11988568 2:0.063855966 
1 1:0.13219867 2:0.010190689 5:0.00056541318 
1 1:0.090081977 2:0.086548877 
1 1:0.092255755 2:0.11003104 
-1 1:0.11545283 2:0.060839484 
1 1:0.15000387 2:0.0076410542 5:0.00097698167 
1 1:0.14320396 2:0.041949326 
-1 1:0.12577117 5:0.0062061174 
1 1:0.13687572 2:0.063177067 
1 1:0.1275296 2:0.024534796 
1 1:0.13081402 5:0.0012627174 
1 2:0.10957561 3:0.62953605 4:0.0049844733 
1 1:0.12143455 5:0.0039326232 
1 1:0.13745466 2:0.037134592 
-1 1:0.10065548 2:0.10644235 
1 1:0.13341204 2:0.053801224 
1 1:0.14032398 2:0.0055545295 5:0.0005261423 
1 1:0.06114373 2:0.13072174 
-1 1:0.075246489 2:0.1474215 
1 1:0.13965106 2:0.0044875646 5:0.00039689347 
1 1:0.080102783 2:0.12820875 
1 1:0.11213198 5:0.0047171464 
1 1:0.14233127 5:0.0015079329 
1 2:0.079694269 3:1.1024846 4:0.011278437 
1 1:0.13259505 5:0.0038778564 
1 1:0.14701942 2:0.0026258014 5:0.00054587063 
1 1:0.14265225 2:0.0037943455 5:0.00023665287 
1 3:2.3484941 4:0.014273458 5:0.0062997865 
1 1:0.13916145 2:0.048473428 
1 1:0.14585855 2:0.022544391 
1 1:0.13677503 2:0.064422262 
1 1:0.12362413 2:0.041506411 
-1 2:0.050663069 3:1.3836934 4:0.01401004 
-1 1:0.11472338 5:0.011013833 
1 3:2.1723957 4:0.015035032 5:0.0040663877 
1 1:0.13021322 5:0.0054090176 
1 1:0.15185573 2:0.036265855 
-1 1:0.12946889 2:0.065009883 
-1 1:0.11884779 2:0.074179614 
-1 3:2.344071 4:0.013485042 5:0.0074462506 
-1 1:0.11412758 2:0.098699983 
1 3:2.5064033 4:0.012633691 5:0.0089712492 
1 1:0.14225896 2:0.019653535 
1 1:0.080635449 5:0.0079146491 
-1 3:2.5027518 4:0.012484931 5:0.0091362921 
-1 3:2.4223122 4:0.013653335 5:0.0075946587 
-1 1:0.11235589 5:0.0071342451 
1 1:0.11649003 5:0.0041038827 
-1 3:2.3695857 4:0.014048131 5:0.0064858394 
1 1:0.12879288 2:0.00034285773 
1 1:0.10023245 5:0.00074676335 
0.7913152847831331 1:0.13401617 5:0.00077253564 
1 1:0.13105895 5:0.0034028013 
1 1:0.039023748 2:0.11881116 
1 1:0.12873 
1 1:0.086168259 5:0.0067270611 
-1 1:0.12784453 2:0.0073044484 
1 1:0.10030595 5:0.008107792 
1 1:0.099307033 5:0.0059853488 
1 2:0.066671347 3:1.4762628 4:0.014330337 
1 2:0.031197806 3:1.8300095 4:0.01546914 
1 1:0.11548337 
1 1:0.11594829 
1 1:0.063711375 5:0.00845793 
-1 3:2.1594675 4:0.014767111 5:0.0041586193 
1 1:0.11385 2:0.027505826 
1 1:0.019822911 2:0.13514097 3:0.027922431 
1 1:0.14306065 5:0.00014572005 
1 1:0.062000514 2:0.10018097 
1 1:0.072182726 5:0.0078778207 
1 2:0.090219488 3:1.1585054 4:0.012566022 
1 1:0.13501362 
1 1:0.10388582 5:0.0018370038 
-1 1:0.1283731 2:0.02050037 
1 2:0.14467416 3:0.51331354 4:0.0056003985 
1 1:0.10345916 5:0.0091794921 
1 2:0.14282735 3:0.3837176 4:0.004750007 
1 1:0.043607985 2:0.11815383 
1 2:0.036420894 3:1.7487981 4:0.015079511 
-1 1:0.07353077 2:0.1036613 
1 1:0.11067044 
1 1:0.086389992 5:0.0064870521 
-1 1:0.075688371 5:0.0055649997 
1 1:0.073626627 5:0.0082269716 
1 1:0.034645231 5:0.012236536 
-1 1:0.11126274 2:0.070970374 
1 1:0.048463962 5:0.010666687 
1 1:0.048628242 2:0.12841043 3:0.084885308 
1 1:0.13027232 
1 2:0.038245922 3:1.6847983 4:0.015023663 5:0.00019857921 
1 1:0.068336044 5:0.0073751529 
1 2:0.048736368 3:1.5832672 4:0.0091237257 
1 2:0.048736368 3:1.5832672 4:0.0091237257 
1 2:0.048736368 3:1.5832672 4:0.0091237257 
1 2:0.048736368 3:1.5832672 4:0.0091237257 
1 1:0.029903752 2:0.062684513 3:1.9070522 4:0.0040469065 
1 1:0.029903752 2:0.062684513 3:1.9070522 4:0.0040469065 
1 1:0.03614953 2:0.030517014 3:0.96388907 
1 2:0.030828613 4:0.015329854 5:0.0019128487 
1 2:0.030828613 4:0.015329854 5:0.0019128487 
1 2:0.030828613 4:0.015329854 5:0.0019128487 
1 2:0.030828613 4:0.015329854 5:0.0019128487 
-1 3:1.3667459 4:0.012691991 5:0.0099428524 
-1 3:1.371573 4:0.012636881 5:0.01002702 
-1 3:1.3731518 4:0.012653388 5:0.0099406835 
-1 3:1.3714414 4:0.012658534 5:0.0099581539 
-1 3:1.3762824 4:0.012599784 5:0.010053076 
-1 3:1.3728127 4:0.012634984 5:0.010008002 
-1 3:1.3891047 4:0.012468631 5:0.010217586 
1 3:1.3701761 4:0.012630713 5:0.010076298 
1 4:0.014078767 5:0.0052443255 
1 4:0.014101843 5:0.0051761577 
1 4:0.014093915 5:0.0051875907 
1 4:0.014244029 5:0.0047446025 
1 4:0.014128163 5:0.0050843793 
1 4:0.014209006 5:0.0048491503 
1 4:0.01417421 5:0.0049586312 
1 4:0.014125972 5:0.0050901926 
1 4:0.014404014 5:0.0042245203 
1 4:0.014158184 5:0.0050015568 
1 4:0.014219734 5:0.0048219057 
1 4:0.014146831 5:0.0050233474 
1 4:0.01422102 5:0.0048213784 
1 4:0.014211825 5:0.0048316865 
1 4:0.014248515 5:0.0047319239 
1 4:0.014299982 5:0.004578425 
1 4:0.014287873 5:0.0046123546 
1 4:0.014311574 5:0.0045343737 
1 4:0.014303275 5:0.0045669374 
1 4:0.014254973 5:0.0047192683 
1 4:0.01427005 5:0.0046658205 
1 4:0.01434144 5:0.0044500788 
1 4:0.014222836 5:0.0048190231 
1 4:0.014262928 5:0.0046860998 
1 4:0.014187383 5:0.0049265018 
1 4:0.014291406 5:0.0046122032 
1 4:0.014337294 5:0.004457361 
1 4:0.014372226 5:0.0043401028 
1 4:0.014214402 5:0.0048384384 
1 4:0.014417515 5:0.0041619237 
1 4:0.014313379 5:0.0045342903 
-1 4:0.014565277 5:0.0036240505 
1 4:0.014114191 5:0.005123583 
-1 4:0.014213272 5:0.0048294406 
-1 4:0.014363499 5:0.0043652902 
1 4:0.014342301 5:0.0044666888 
1 4:0.014419405 5:0.0041767675 
1 4:0.014176479 5:0.0049471111 
1 4:0.014228242 5:0.0047834018 
1 4:0.01433873 5:0.0044633115 
1 4:0.014287875 5:0.0046017778 
-1 4:0.01451217 5:0.0038360814 
1 4:0.01435975 5:0.0043808535 
1 4:0.014313413 5:0.0045317639 
-1 4:0.014551369 5:0.0036871818 
1 4:0.014562539 5:0.0036444829 
1 4:0.014485389 5:0.0039411754 
1 4:0.013957643 5:0.0055526874 
-1 4:0.014375768 5:0.0043307655 
1 4:0.014464176 5:0.004023264 
1 4:0.014347962 5:0.0044065138 
-1 4:0.014480347 5:0.0039632866 
1 4:0.014477412 5:0.0039703358 
1 4:0.014523112 5:0.0037833656 
-1 4:0.014722842 5:0.0028971422 
1 4:0.014408482 5:0.0042230986 
1 4:0.013890863 5:0.0057249078 
1 4:0.014270178 5:0.0046485483 
1 4:0.01436749 5:0.0043342579 
-1 4:0.014824885 5:0.0023034716 
1 4:0.014458658 5:0.0040334481 
1 4:0.013560966 5:0.0064790617 
1 4:0.014167789 5:0.0049935641 
-1 4:0.014804649 5:0.0024233691 
-1 4:0.014893383 5:0.001830796 
1 4:0.01426472 5:0.0046911224 
-1 4:0.014751281 5:0.0027369856 
1 4:0.013803268 5:0.0059317103 
1 4:0.014515944 5:0.0037990334 
1 4:0.013615703 5:0.0063646649 
1 4:0.014502813 5:0.0038573822 
1 4:0.014536734 5:0.0037199276 
-1 4:0.014864811 5:0.002019145 
1 4:0.014652557 5:0.0032257224 
-1 4:0.014856001 5:0.0020775868 
1 4:0.014337539 5:0.0044290983 
-1 4:0.014592121 5:0.003477684 
1 4:0.013605682 5:0.0063525028 
-1 4:0.014539378 5:0.0036931093 
1 4:0.014539864 5:0.003701581 
-1 4:0.014749705 5:0.0027335536 
1 4:0.014171602 5:0.0049364316 
1 4:0.014107789 5:0.0050971875 
1 4:0.014243287 5:0.0047461971 
1 4:0.01407318 5:0.0052346783 
-1 4:0.014773569 5:0.0025972627 
1 4:0.01393305 5:0.0056043817 
1 4:0.013476004 5:0.0066341081 
-1 4:0.012890786 5:0.0077371893 
-1 4:0.013914672 5:0.0056325254 
1 4:0.015001187 
1 4:0.014716763 5:0.0029157918 
1 4:0.014794315 5:0.0024792771 
1 4:0.014548178 5:0.0036576061 
-1 4:0.014614969 5:0.003389853 
-1 4:0.014823402 5:0.0023014926 
1 4:0.014345952 5:0.0044025529 
1 4:0.014365854 5:0.0043173767 
1 4:0.013323291 5:0.0069145778 
-1 4:0.014345005 5:0.0043842001 
1 4:0.014696958 5:0.0030011592 
1 4:0.014217676 5:0.0047922422 
-1 4:0.014526686 5:0.003739297 
1 4:0.014928354 5:0.001520034 
1 4:0.01459512 5:0.0034748402 
1 4:0.014380402 5:0.0042682133 
-1 4:0.014246217 5:0.0046954178 
-1 4:0.014703799 5:0.0029665077 
1 4:0.014709482 5:0.0029386406 
1 4:0.014778702 5:0.0025679924 
1 4:0.014532272 5:0.0037168952 
1 4:0.01478426 5:0.0025357364 
1 4:0.014894964 5:0.0017737687 
1 4:0.014295749 5:0.0045430104 
1 4:0.014252259 5:0.0046769791 
-1 4:0.013576438 5:0.0064024758 
1 4:0.01375943 5:0.0059780652 
-1 4:0.01495848 5:0.001318016 
1 4:0.014751097 5:0.0027256656 
-1 4:0.014974898 5:0.0010339577 
1 4:0.014850728 5:0.0021142976 
1 4:0.014996575 5:0.00039565233 
1 4:0.014834137 5:0.0022403346 
1 1:0.16591174 2:0.019461418 3:2.8463199 
1 1:0.16580819 2:0.021932926 3:2.8606267 
1 1:0.16568192 2:0.018013767 3:2.8405276 
1 1:0.16722069 2:0.023184201 3:2.8686546 
1 1:0.16562875 2:0.021621722 3:2.8582839 
1 1:0.16757599 2:0.016497521 3:2.8310869 
1 1:0.16579378 2:0.016844647 3:2.8378298 
1 1:0.16627425 2:0.018578013 3:2.8411777 
-0.7842261946391111 1:0.12378363 2:0.023985259 
-1 1:0.11348369 2:0.020563819 
1 1:0.1160038 2:0.020258152 
-1 1:0.11351623 2:0.022543942 
1 1:0.11641791 2:0.020911755 
1 1:0.11547739 2:0.015029305 
1 1:0.11574646 2:0.015654037 
-1 1:0.11599246 2:0.017910854 
1 1:0.11596761 2:0.018442442 
0.03670883472632859 1:0.11637721 2:0.016349543 
1 1:0.11755041 2:0.015587813 
1 1:0.115622 2:0.015963469 
1 1:0.12059986 2:0.019150045 
1 1:0.11476948 2:0.019316892 
1 1:0.11434225 2:0.015188345 
1 1:0.1188489 2:0.016679371 
1 1:0.11373436 2:0.013897809 
1 1:0.10660716 2:0.012164584 
1 1:0.11838492 2:0.011803139 
-1 1:0.11943486 2:0.022379805 
1 1:0.11419455 2:0.016122416 
1 1:0.11971125 2:0.013914001 
1 1:0.11319112 2:0.016286214 
1 1:0.11151783 2:0.013573528 
-1 1:0.11557389 2:0.017016575 
1 1:0.11716817 2:0.010912309 
1 1:0.11801471 2:0.014567801 
1 1:0.11545003 2:0.014561444 
1 1:0.11278687 2:0.01442698 
1 1:0.11322106 2:0.012250402 
1 1:0.11323973 2:0.01662642 
1 1:0.11584556 2:0.014359169 
1 1:0.11324386 2:0.016760841 
1 1:0.11408295 2:0.012205576 
-1 1:0.11590178 2:0.016203994 
1 1:0.11609804 2:0.0093567226 
1 1:0.11190622 2:0.0092531813 
1 1:0.11628039 2:0.014682505 
1 1:0.115588 2:0.010692322 
1 1:0.1127802 2:0.009056982 
1 1:0.11411878 2:0.0063544001 
1 1:0.11612822 2:0.0073098753 
-1 1:0.11810203 2:0.01022252 
1 1:0.11445567 2:0.0098939135 
1 1:0.11679143 2:0.0093592885 
1 1:0.11139483 2:0.011360589 
1 1:0.11873729 2:0.011410519 
1 1:0.11478846 2:0.012640054 
1 1:0.11536037 2:0.008529861 
1 1:0.11511762 2:0.0096798435 
1 1:0.11283919 2:0.012868018 
1 1:0.11415441 2:0.0032373582 
1 1:0.11177929 2:0.0089742953 
1 1:0.11012337 2:0.0059937796 
-1 1:0.10926521 2:0.010399894 
1 1:0.11614841 2:0.0063443682 
1 1:0.11599422 2:0.0066768196 
1 1:0.11126358 2:0.0066440625 
1 1:0.11269867 2:0.0048109981 
1 1:0.11139738 2:0.0043583998 
1 1:0.11137779 2:0.0041005305 
1 1:0.11442925 2:0.0018056676 
1 1:0.11310927 2:0.004781113 
1 3:1.9832152 4:0.015295607 
-1 2:0.013453644 4:0.015366651 
-1 2:0.011032441 4:0.015429039 
-1 2:0.008480409 4:0.015504474 
-1 2:0.0083883361 4:0.015434601 
-1 2:0.0089616133 4:0.015362345 
-1 2:0.0076460117 4:0.015386169 
-1 2:0.0086501354 4:0.015272942 
-1 2:0.0052489653 4:0.01538307 
-1 2:0.0075145998 4:0.015200618 
-1 2:0.020495928 4:0.014565299 
-1 2:0.0033024319 4:0.015470691 
-1 2:0.0099084533 4:0.015184073 
-1 2:0.01542251 4:0.014809296 
-1 2:0.0080763264 4:0.015198434 
-1 2:0.0078419513 4:0.015204566 
-1 4:0.015544571 
-1 2:0.01044653 4:0.015044401 
-1 2:0.0012178007 4:0.015411958 
-1 2:0.01103809 4:0.015038729 
1 2:0.006847249 4:0.015190497 
-1 2:0.0084864879 4:0.015127701 
-1 2:0.0079374677 4:0.015151942 
-1 2:0.004934354 4:0.015268922 
-1 4:0.015462993 
-1 2:0.0082122726 4:0.015098654 
1 2:0.0028265243 4:0.015287616 
-1 4:0.015417381 
-1 2:0.019252736 4:0.01455508 
1 2:0.0083561889 4:0.01507292 
-1 2:0.01108856 4:0.014969672 
-1 2:0.0099545498 4:0.015015459 
-1 2:0.013453245 4:0.014859283 
1 2:0.0068073358 4:0.015107271 
-1 2:0.007238155 4:0.015092779 
-1 2:0.0049496134 4:0.015164473 
-1 2:0.0095115344 4:0.01499097 
-1 2:0.011942134 4:0.014947421 
-1 2:0.015916754 4:0.014795436 
-1 2:0.0060835485 4:0.015143245 
-1 2:0.0088666142 4:0.015015167 
1 4:0.015329683 
-1 2:0.0091127062 4:0.015020434 
1 2:0.0032127253 4:0.015248146 
-1 2:0.0056376065 4:0.0151507 
1 2:0.0031051212 4:0.015220443 
-1 2:0.011437728 4:0.014974578 
1 2:0.0058154537 4:0.01514888 
-1 2:0.014649619 4:0.014864112 
-1 2:0.0082411653 4:0.015064428 
-1 2:0.0040073824 4:0.015194826 
-1 2:0.006624042 4:0.015120827 
1 2:0.0028794276 4:0.015228429 
-1 2:0.0048408984 4:0.01517838 
-1 2:0.029214988 4:0.014270157 
1 2:0.0065227405 4:0.015110146 
-1 4:0.015284399 
1 2:0.00077007356 4:0.01523494 
-1 2:0.024532553 4:0.014460975 
1 2:0.009135171 4:0.015020783 
-1 2:0.0046082367 4:0.015156069 
-1 2:0.006983329 4:0.01510467 
-1 2:0.018642795 4:0.014774969 
1 2:0.0072904587 4:0.015091173 
-1 2:0.011196234 4:0.014999732 
1 2:0.008258628 4:0.015069402 
-1 2:0.012449441 4:0.014978576 
-1 2:0.0073318144 4:0.015074394 
-1 2:0.010520312 4:0.015025153 
1 2:0.0030377098 4:0.015183862 
-1 2:0.019642514 4:0.014788939 
1 2:0.013614947 4:0.014960187 
-1 2:0.010254556 4:0.015053772 
-1 2:0.014052805 4:0.014934589 
1 2:0.018462564 4:0.014829876 
-1 2:0.017028534 4:0.014886873 
-1 2:0.01579425 4:0.014907163 
1 2:0.0092022587 4:0.015071269 
-1 2:0.021178557 4:0.014732278 
-1 3:0.57027511 4:0.013689226 5:0.0091826282 
-1 3:0.54754595 4:0.013893082 5:0.0088783519 
-1 3:0.53878765 4:0.013955493 5:0.0088680636 
-1 3:0.54653995 4:0.013908972 5:0.0088147862 
-1 3:0.55715446 4:0.013839224 5:0.0087993662 
-1 3:0.57370596 4:0.013682694 5:0.0090806772 
-1 3:0.55049769 4:0.013875986 5:0.0088558628 
-1 3:0.5411164 4:0.013937062 5:0.0088838056 
-1 3:0.53306775 4:0.014022409 5:0.0086585702 
1 3:0.55815987 4:0.013811325 5:0.0089382852 
1 3:2.0926791 4:0.014519631 5:0.0043082357 
-1 3:2.1224245 4:0.014644801 5:0.0036125727 
1 3:2.1250425 4:0.014574531 5:0.0039717631 
1 3:2.1481849 4:0.014535471 5:0.0041010262 
-1 3:2.1255209 4:0.014633441 5:0.0036454994 
1 3:2.1397541 4:0.01467121 5:0.0033782379 
-1 3:2.1484219 4:0.014459608 5:0.0041790399 
-1 3:2.1182727 4:0.014548405 5:0.0037796161 
-1 3:2.1789658 4:0.014394857 5:0.0043062319 
-1 3:2.138662 4:0.014600126 5:0.0035327166 
-1 3:2.1744458 4:0.01453266 5:0.0037282369 
1 3:2.1796548 4:0.014742611 5:0.0027993983 
-1 3:2.2563097 4:0.014417385 5:0.0041425688 
-1 3:2.2179342 4:0.014487588 5:0.0038884131 
-1 3:2.2759019 4:0.014328807 5:0.0044371912 
-1 3:2.2446916 4:0.014527636 5:0.0037416816 
-1 3:2.2321524 4:0.014485747 5:0.0038973922 
1 3:2.2167727 4:0.014508885 5:0.0038109036 
1 3:2.2487163 4:0.014443934 5:0.0040697664 
1 3:2.2455908 4:0.014479695 5:0.0039717777 
-1 2:0.002299095 3:2.2181167 4:0.014749431 5:0.0028261911 
1 3:2.2732094 4:0.014555685 5:0.0037109878 
-1 3:2.270866 4:0.014471087 5:0.0039966759 
-1 3:2.2629675 4:0.014450935 5:0.004079308 
1 2:0.0014026262 3:2.2179587 4:0.014647065 5:0.0033299693 
1 3:2.3299033 4:0.014456545 5:0.0041614577 
-1 3:2.3009162 4:0.014559137 5:0.0037967159 
-1 3:2.2889728 4:0.014600076 5:0.0036176882 
-1 2:0.0069600352 3:2.1929868 4:0.01479212 5:0.00277455 
1 3:2.301454 4:0.014588216 5:0.003794651 
-1 3:2.3440121 4:0.014414693 5:0.0043056144 
-1 3:2.3043542 4:0.014508871 5:0.003916667 
-1 3:2.336426 4:0.014469669 5:0.0041547777 
-1 2:0.0043182186 3:2.2664857 4:0.01476479 5:0.0029851754 
-1 3:2.3503772 4:0.014330854 5:0.0045175247 
-0.08411455498972675 2:0.003237862 3:2.3009166 4:0.01461163 5:0.0036110528 
