svm_type epsilon_svr
kernel_type linear
nr_class 2
total_sv 493
rho 9.87418e-06
SV
-1 2:0.01676097 4:0.015094687 
-1 2:0.019535637 4:0.014997047 
-1 2:0.014263574 4:0.015167861 
-1 2:0.014187335 4:0.015201488 
-1 2:0.012006163 4:0.01525799 
-1 2:0.0084815471 4:0.015422329 
-1 2:0.012055059 4:0.015273809 
-1 2:0.01008573 4:0.015346809 
1 2:0.013693799 4:0.015205475 
1 3:1.5936997 4:0.0152518 
1 2:0.00059481399 3:1.5411722 4:0.01510903 
1 3:1.6248353 4:0.015312431 
1 3:1.8103375 4:0.015432168 5:0.00026494452 
1 3:1.7611767 4:0.015368173 
1 3:1.7321959 4:0.015351478 5:0.00044155581 
0.3078564953039621 3:1.8538475 4:0.015174976 5:0.0018678006 
1 3:1.8134658 4:0.015168299 5:0.001497486 
1 3:1.9647199 4:0.014833478 5:0.0034655857 
0.7075822776861622 3:1.7849369 4:0.015208207 5:0.00039405126 
-0.03318342007796182 3:2.0255378 4:0.014589478 5:0.0041983058 
1 3:1.8833662 4:0.014946401 5:0.002523529 
1 3:1.9350909 4:0.014869859 5:0.0028397257 
1 3:1.7379381 4:0.015189705 5:0.00016321534 
1 3:1.8783725 4:0.0147614 5:0.0031956827 
1 3:1.6221623 4:0.01515263 
1 3:1.7937771 4:0.014943395 5:0.0023215223 
-1 3:1.6508358 4:0.015122751 
1 3:1.8951212 4:0.014760896 5:0.0033204094 
-1 3:1.6644544 4:0.015111822 5:0.0002149925 
1 2:0.0068033079 3:1.4848879 4:0.014885338 
1 3:1.7117752 4:0.015030557 5:0.0012033957 
1 2:0.015606302 3:1.4167125 4:0.014702904 
1 3:1.6358849 4:0.01512449 5:0.00024938451 
-1 3:1.7516345 4:0.014918537 5:0.0021102755 
1 3:1.709812 4:0.015070731 5:0.00068040818 
-0.9418225465942377 3:1.6290962 4:0.015056532 5:0.00093443391 
-1 3:1.7520037 4:0.014961839 5:0.0019719919 
-1 3:1.7194473 4:0.01490767 5:0.0022106802 
1 3:1.5777515 4:0.015088805 
1 3:1.5631336 4:0.015095059 
1 2:0.014526273 3:1.4367674 4:0.014853345 
1 2:0.0012979948 3:1.5704401 4:0.015069337 
-1 3:1.8284752 4:0.014739938 5:0.00304996 
-1 3:1.5920456 4:0.015074292 
-0.9999999999999999 3:1.9459222 4:0.014449408 5:0.0044268764 
1 3:1.7285321 4:0.014956108 5:0.0018883164 
1 2:0.017647227 3:1.4327631 4:0.014794498 
1 2:0.03198824 3:1.303157 4:0.014336512 
1 3:1.9661422 4:0.014116183 5:0.0053318731 
1 3:1.6683419 4:0.015071485 5:0.00084324013 
1 3:1.5704587 4:0.015048054 5:0.00032492652 
1 3:1.6354177 4:0.015110108 5:0.00034745854 
1 3:1.7185525 4:0.014965492 5:0.001784746 
1 3:1.6570191 4:0.014991224 5:0.0016682459 
-1 3:1.8030008 4:0.014711958 5:0.0032683248 
1 2:0.0047872935 3:1.5357208 4:0.015115673 
-1 3:1.8524513 4:0.014623804 5:0.0036919782 
1 2:0.0025600257 3:1.5534853 4:0.015118691 
-1 3:1.6679716 4:0.015088459 5:0.0008113612 
1 3:1.7110937 4:0.014907223 5:0.0021943945 
0.1581345761894871 2:0.0073329688 3:1.5792103 4:0.015126902 
1 2:0.0028469035 3:1.6417437 4:0.015122109 5:5.2435077e-05 
-1 3:1.6849181 4:0.014876712 5:0.002543757 
1 3:1.6379951 4:0.015074632 5:0.00097233465 
-1 3:1.8956486 4:0.014338454 5:0.0046634287 
-1 3:1.8177094 4:0.014596725 5:0.0037197243 
1 3:1.7457253 4:0.014834863 5:0.0026818134 
-1 3:1.6728457 4:0.015083365 5:0.001237562 
1 3:1.8033208 4:0.014982155 5:0.0020730948 
1 2:0.029066772 3:1.4325195 4:0.014805351 
1 3:1.9293319 4:0.014276759 5:0.0048129353 
1 3:1.7969679 4:0.014645362 5:0.0034763179 
1 2:0.011899111 3:1.5435194 4:0.015100596 
1 3:1.6758039 4:0.014918656 5:0.0023250014 
-1 3:2.0540659 4:0.013243558 5:0.0071317241 
-1 2:0.0092218063 3:1.6364317 4:0.015198914 
1 2:0.020483434 3:1.5098288 4:0.015051841 
-1 2:0.016705428 3:1.5411848 4:0.015098676 
-1 3:1.9373301 4:0.013639253 5:0.0063654721 
1 3:1.9261836 4:0.014098114 5:0.0053293666 
-1 3:1.8217614 4:0.014662302 5:0.00361568 
-1 3:1.9478901 4:0.014240493 5:0.0050410306 
1 3:1.7937132 4:0.014905393 5:0.002660128 
1 3:1.8290837 4:0.014376884 5:0.0044569534 
1 3:1.8082593 4:0.014369199 5:0.0044425913 
-1 3:1.9216804 4:0.013934337 5:0.0059106719 
-1 3:2.2042095 4:0.010737104 5:0.010513332 
1 3:2.9211461 4:0.0017712938 5:0.014958931 
1 2:0.033735136 3:1.4671053 4:0.015061479 
1 1:0.18459912 5:0.0093351908 
1 1:0.18372822 5:0.0093166227 
1 1:0.18481996 5:0.0091421727 
1 1:0.18230241 5:0.0094830372 
1 1:0.18545039 5:0.0092937428 
1 1:0.18409103 5:0.0092739405 
1 1:0.18451383 5:0.0092211129 
-1 1:0.1826487 5:0.0091042019 
-1 1:0.1272429 3:0.66619519 5:0.0094648572 
-0.4752167984067145 1:0.11847182 2:0.0023542599 3:0.66315795 5:0.0093063184 
-1 1:0.11061907 2:0.005462071 3:0.68839902 5:0.0093388284 
-1 1:0.10385102 2:0.007575812 3:0.66219484 5:0.0095521863 
-1 1:0.099966531 2:0.010134535 3:0.66428236 5:0.0095016517 
-1 1:0.097026769 2:0.00971177 3:0.65436975 5:0.0097682428 
-1 1:0.09282386 2:0.01479403 3:0.67984501 5:0.0091540141 
-1 1:0.095143148 2:0.011191709 3:0.65469833 5:0.010069933 
-1 1:0.092809773 2:0.012578615 3:0.62286784 5:0.0098733105 
-1 1:0.097612221 2:0.0092616119 3:0.56617608 5:0.010124301 
-1 1:0.09281519 2:0.012955136 3:0.58208174 5:0.0094751141 
-0.8629441291388367 1:0.095087797 2:0.0081978387 3:0.5475827 5:0.010200341 
-1 1:0.095392767 2:0.011555715 3:0.5548835 5:0.0094803822 
-1 1:0.10012643 2:0.017628903 3:0.61393401 5:0.008337025 
-1 1:0.096999037 2:0.013116693 3:0.58281639 5:0.0088032797 
-1 1:0.095780914 2:0.0079994364 3:0.52231592 5:0.0095872047 
-1 1:0.095946319 2:0.011399012 3:0.53122563 5:0.0089290476 
-1 1:0.095215861 2:0.010609549 3:0.53632091 5:0.0087561532 
-1 1:0.093057396 2:0.010197091 3:0.50564896 5:0.008949614 
-1 1:0.09542088 2:0.011667274 3:0.53245163 5:0.0084875263 
-1 1:0.097862469 2:0.0082294657 3:0.50141536 5:0.0087529803 
-1 1:0.096981412 2:0.0048360108 3:0.43480865 5:0.0090473105 
-1 1:0.10058521 2:0.0031676568 3:0.42969418 5:0.0090166512 
-1 1:0.093763547 2:0.0066069183 3:0.43112274 5:0.0084531196 
-1 1:0.096145955 2:0.0091452059 3:0.45191968 5:0.0079317564 
-1 1:0.10481687 2:0.014611095 3:0.500323 5:0.0067151955 
-1 1:0.10111466 2:0.0021755667 3:0.38232772 5:0.0084117449 
-1 1:0.092736209 2:0.0093062119 3:0.42582694 5:0.0072953427 
-1 1:0.093162202 2:0.011577691 3:0.46888521 5:0.0067963373 
-1 1:0.095541973 2:0.014751878 3:0.48337929 5:0.006156114 
-1 1:0.092188386 2:0.0075912153 3:0.4196953 5:0.007157739 
-1 1:0.10018414 2:0.0091776881 3:0.44249265 5:0.0066641951 
-1 1:0.099074575 2:0.0025881219 3:0.35561147 5:0.0074951002 
-1 1:0.093628918 2:0.00048967637 3:0.33847176 5:0.007763889 
-1 1:0.09283456 2:0.0029313324 3:0.34864746 5:0.0072101293 
-1 1:0.10935305 2:0.016597914 3:0.42487276 5:0.0050744031 
-1 1:0.087666215 3:0.239337 5:0.008868433 
-1 1:0.1075978 2:0.023327891 3:0.53952472 5:0.0037221584 
-1 1:0.10822476 2:0.038821246 3:0.60934498 5:0.0016553935 
-1 1:0.1083384 2:0.02353517 3:0.42298459 5:0.0037924565 
1 1:0.080741867 3:0.22792212 5:0.0080743416 
-1 1:0.082244369 2:0.0031764382 3:0.28981969 5:0.0067365492 
-1 1:0.078982178 2:0.0074485336 3:0.34921681 5:0.0058906065 
-1 1:0.10677147 2:0.013036003 3:0.3123477 5:0.0049535094 
-0.372109345374342 1:0.078929834 2:0.0028914163 3:0.25210717 5:0.0065946078 
-1 1:0.10177991 2:0.013958983 3:0.30115784 5:0.0047124251 
-1 1:0.10917208 2:0.00059031741 3:0.15117069 5:0.00632675 
1 1:0.12943492 2:0.045837639 3:0.4456081 5:0.00088017201 
1 1:0.095868737 2:0.030053897 3:0.34346791 5:0.0026655066 
-1 1:0.079328234 2:0.010747617 3:0.20463 5:0.0055388413 
-1 1:0.099567148 2:0.062859191 3:0.62540565 
-1 1:0.086354683 2:0.074682221 3:0.7407482 
-1 1:0.080546065 2:0.070861369 3:0.77907085 
0.01356035640995217 2:0.10866475 3:2.0092038 
-0.1745695247455679 2:0.13504475 3:1.6546977 
1 1:0.14101004 2:0.084943254 3:0.57165154 
1 1:0.1062235 2:0.054077395 3:0.44041531 5:0.00013626738 
1 1:0.039638288 5:0.015841879 
-1 1:0.10411111 2:0.06827359 3:0.60233458 
0.1722898877777168 1:0.13482639 2:0.098212681 3:0.59000909 
1 2:0.027297809 3:2.7535957 4:0.0085561001 
1 1:0.15226364 2:0.080318361 3:0.44449736 5:0.00015374853 
1 1:0.15502927 2:0.069229497 3:0.34736947 5:0.0011440914 
1 1:0.10455694 5:0.0029806874 
1 1:0.10362938 5:0.0025466127 
1 1:0.10668277 5:0.0025009117 
1 1:0.10581783 5:0.0027457601 
1 1:0.10489864 5:0.0029705446 
1 1:0.10247758 5:0.0032881669 
1 1:0.09940739 5:0.0036878711 
1 1:0.10334729 5:0.003501297 
1 1:0.10348921 5:0.0029504816 
1 1:0.10780427 5:0.0026354969 
-1 1:0.099733893 5:0.0039950159 
-1 1:0.068539007 3:1.4839879 5:0.00907498 
-1 1:0.066934647 3:1.5110423 5:0.0085785989 
-1 1:0.06788626 3:1.5378682 5:0.0084571971 
-0.9748428794837956 1:0.066939204 3:1.5226454 5:0.0088059116 
-1 1:0.064499889 3:1.433486 5:0.0093146678 
-0.006291972311854548 1:0.043462838 3:1.3331385 5:0.010701628 
-1 1:0.048923941 3:1.3694286 5:0.0097916774 
-0.9815930818296627 1:0.052669857 3:1.4753029 5:0.0089655268 
-1 1:0.052938295 3:1.4107259 5:0.0094386645 
-1 1:0.054788614 3:1.4812618 5:0.0082936221 
-1 4:0.015012742 5:0.0013164351 
-1 4:0.014957715 5:0.0033966222 
-1 4:0.014558151 5:0.004531411 
1 4:0.014279771 5:0.0053327093 
-1 4:0.014279735 5:0.0054167971 
0.9230583849972516 1:0.054860279 3:0.74773284 5:0.014631304 
1 4:0.010321669 5:0.0077798152 
1 2:0.057079115 4:0.0057762431 
1 4:0.011050192 5:0.00012500781 
-1 4:0.011186492 
1 4:0.0092813781 5:0.0021691325 
-1 1:0.023377986 2:0.0935353 
1 2:0.068568774 3:0.061655648 4:0.0036238302 
1 2:0.063103349 3:0.07033809 4:0.0039009425 
1 2:0.053378324 3:0.026825156 4:0.0022044253 
1 2:0.052596794 4:0.0019191033 
1 2:0.053065357 3:0.001688039 4:0.00204425 
1 2:0.056119597 3:0.013569457 4:0.0027116121 
1 1:0.0014080897 2:0.050959245 4:0.0010239181 
1 1:0.0094685605 2:0.052185845 3:0.025210005 4:0.00030673101 
1 2:0.052956277 4:0.0019231767 
1 1:0.0040778889 2:0.051096566 4:0.00089118936 
1 1:0.0013750774 2:0.049704774 3:0.065983959 4:0.0017942436 
1 2:0.056103423 3:0.14170627 4:0.0042647861 
0.4903434036148707 2:0.054116008 3:0.077916585 4:0.0036558383 
1 2:0.057520457 3:0.17057673 4:0.0049802304 
1 2:0.057005504 3:0.12158922 4:0.0037899152 
1 2:0.055841441 3:0.076864095 4:0.0045573897 
1 2:0.049592427 4:0.0016066698 
1 2:0.053336543 3:0.029592347 4:0.0034475326 
1 2:0.054340207 3:0.073060183 4:0.0025083518 
1 2:0.053518448 3:0.096508224 4:0.0046213135 
1 2:0.058374184 3:0.22798006 4:0.0053545665 
1 1:0.0049061459 2:0.050814565 4:0.0010446148 
1 1:0.021696717 2:0.04763602 3:0.025488524 
1 2:0.052257857 3:0.044751026 4:0.0030838519 
1 1:0.0056766697 2:0.050616047 3:0.088021238 4:0.0016400512 
1 1:0.01436744 2:0.050544393 
1 2:0.05165207 3:0.055631578 4:0.0022978968 
0.2519912408638146 2:0.054413108 3:0.015649763 4:0.002839331 
1 2:0.049441846 3:0.0065836073 4:0.0020617705 
1 2:0.053833867 3:0.088951183 4:0.0037838541 
1 1:0.0035938152 2:0.046142055 4:0.00071868065 
1 1:0.012708718 2:0.054235289 3:0.048827387 4:0.00069172422 
1 3:3.0119321 4:0.0074734509 5:0.014807156 
-1 1:0.040911089 5:0.0012714234 
-1 1:0.060052956 
1 3:2.9275002 4:0.007812536 5:0.014209955 
-1 5:0.010711002 
-1 1:0.015951802 5:0.0049692962 
1 3:2.9691205 4:0.0067705715 5:0.014560144 
-1 1:0.041155795 5:0.004510367 
-1 1:0.0089046406 5:0.010956281 
-1 5:0.013699054 
1 1:0.042792636 2:0.053322815 3:0.14766276 4:5.4182927e-05 
-0.5812813518874759 2:0.069363819 3:1.5143008 4:0.015197726 
0.246493916531923 3:2.9291152 4:0.0075049701 5:0.014053142 
-1 1:0.1026324 
-1 3:3.0421945 4:0.013651914 5:0.01623654 
-1 3:3.0337808 4:0.013788039 5:0.016121104 
-1 3:3.0370382 4:0.013735452 5:0.016165932 
-0.2050326003906781 3:3.0419492 4:0.013655897 5:0.01623319 
-1 3:3.0288178 4:0.013867878 5:0.016052475 
-1 3:3.027995 4:0.013881081 5:0.016041059 
1 4:0.013422367 5:0.016426809 
-1 1:0.0077560759 4:0.013623582 5:0.016260321 
1 1:0.011026179 4:0.013824543 5:0.016089811 
-1 1:0.017669314 4:0.014223248 5:0.015738463 
-1 1:0.019750709 4:0.01556169 5:0.013665166 
-1 1:0.017829255 4:0.015446999 5:0.013939164 
1 1:0.01786386 4:0.015901531 5:0.012429215 
1 1:0.020001403 4:0.015083653 5:0.012750443 
-1 1:0.013865862 4:0.015561124 5:0.012636932 
-1 1:0.019278675 4:0.014424675 5:0.013817244 
-1 1:0.025280068 4:0.014658667 5:0.011777615 
1 1:0.10206471 4:0.0020959285 5:0.016590595 
-1 2:0.071360616 3:1.3648243 
-1 2:0.07271853 3:1.5803137 
-1 1:0.008235632 2:0.056314408 3:1.1762386 5:0.0030906418 
-1 2:0.063753596 3:1.3741749 
-1 1:0.007249967 2:0.067794309 3:1.4717095 
-1 1:0.0037129614 2:0.061254778 3:1.408213 
-1 1:0.0085013791 2:0.064668472 3:1.4090755 
1 1:0.056361847 4:0.012048775 5:0.011677383 
-1 2:0.068295987 3:1.2439911 
-1 2:0.065439572 3:1.2900594 
-1 2:0.065297494 3:1.2723701 
-1 2:0.068734777 3:1.2384015 
-1 2:0.062408185 3:1.4136629 
-1 2:0.067353646 3:1.331775 
-1 2:0.070855684 3:1.220821 
-1 2:0.068876011 3:1.3007152 
-0.2311546260640408 2:0.068313422 3:1.2735611 
-1 2:0.065413838 3:1.0926613 5:0.0012839566 
-0.7439862419008684 2:0.068980925 3:1.1393539 5:9.4709639e-05 
-1 2:0.068484842 3:1.2494088 
-1 2:0.074161064 3:1.1143922 5:5.6882912e-05 
-0.3649603827593826 2:0.069262767 3:1.2290289 
-1 2:0.070296225 3:1.1731422 
1 1:0.084381376 2:0.047991586 3:2.3403763 
1 1:0.082444796 2:0.048303197 3:2.3346183 
1 1:0.083106657 2:0.047333496 3:2.3339524 
1 1:0.082521374 2:0.047228505 3:2.3297581 
1 1:0.080199222 2:0.047094069 3:2.3490297 
1 1:0.099170044 2:0.044020904 3:2.3153474 
1 1:0.10550952 2:0.043970925 3:2.3161335 
1 1:0.091549773 2:0.061590286 3:2.502538 
1 1:0.073914974 2:0.074059102 3:2.5988831 
1 1:0.081720767 2:0.063586263 3:2.505677 
-1 1:0.075898327 2:0.054418186 3:2.4106803 
-1 1:0.046575145 2:0.04800865 
-1 1:0.056570391 2:0.038908662 
1 1:0.035077609 2:0.073228797 
-1 1:0.048914155 2:0.04726065 
-1 1:0.029966342 5:0.0062685551 
-1 1:0.073810064 2:0.00082084313 
1 1:0.098929342 2:0.046059683 
1 2:0.011984689 3:1.2218905 4:0.012987136 5:0.0075218137 
-0.62169578110041 3:2.0604376 4:0.0054526543 5:0.014318305 
-1 1:0.0057373429 3:2.4816071 5:0.01417439 
1 3:1.605925 4:0.0077674357 5:0.012891848 
0.0446307479285247 1:0.0025890642 3:2.1158663 5:0.015209047 
1 1:0.064216698 2:0.053599497 
1 1:0.028250853 3:3.0423225 5:0.010383624 
1 1:0.020427085 2:0.056826296 3:0.16258859 4:0.012103458 
-1 2:0.061853191 3:0.1956744 4:0.013026421 
1 1:0.06099978 2:0.040801226 
1 1:0.016526302 2:0.057502094 3:0.35331729 4:0.013935193 
-0.8397493329383612 2:0.069384239 3:0.30139848 4:0.013560354 
-1 2:0.069762984 3:0.3111395 4:0.013636564 
-1 2:0.064027062 3:0.23339547 4:0.0133464 
-1 1:0.0079912019 2:0.056975377 3:0.26412192 4:0.013689421 
-1 2:0.06282846 3:0.46564458 4:0.01440786 
-1 2:0.064529332 3:0.38969798 4:0.013974135 
-0.9230583849972516 2:0.038960375 3:0.77966213 4:0.014753464 5:0.0027089705 
1 2:0.067144791 3:0.2073734 4:0.01316162 
1 1:0.058782984 2:0.064113074 4:0.0089284684 
1 2:0.061803871 3:0.27847382 4:0.013627545 
-1 2:0.076121102 3:0.27099599 4:0.013493903 
0.5728875682560521 2:0.076844072 3:0.1952278 4:0.012695764 
1 2:0.064717668 3:0.27847273 4:0.013872753 
1 2:0.061373288 3:0.29132677 4:0.013949999 
-1 3:1.7738035 4:0.0062579769 5:0.014516522 
-1 3:1.7673101 4:0.006255894 5:0.014562484 
-1 3:1.7975379 4:0.0055625134 5:0.014957697 
-1 3:1.7832032 4:0.0058493115 5:0.014812598 
-1 3:1.7747197 4:0.0059829412 5:0.014755164 
-1 3:1.7753012 4:0.0057161094 5:0.014988187 
1 3:1.7592708 4:0.0061346431 5:0.014730308 
1 4:0.0085913006 5:0.012323933 
1 4:0.0077556047 5:0.012856794 
1 4:0.006464646 5:0.013574616 
1 4:0.0070620889 5:0.013244175 
1 4:0.0064096206 5:0.013659576 
1 4:0.0076156527 5:0.01297623 
1 1:0.029420707 2:0.052752621 3:2.9927692 
-1 1:0.020200643 2:0.048709549 
1 4:0.0073410085 5:0.013081291 
-1 1:0.038353774 2:0.053652158 
1 1:0.028229436 2:0.050190645 3:3.030681 
1 1:0.012173731 2:0.058325445 3:3.047586 
-1 3:0.26830035 4:0.0093289445 5:0.012319411 
-1 2:0.057730783 4:0.0096906502 
1 1:0.027278329 2:0.057283006 3:3.1282381 
0.1635815395686974 2:0.032464587 4:0.013199513 
-1 1:0.058210264 2:0.0032384815 3:2.431398 
-1 1:0.020036802 2:0.095605343 
-1 1:0.014027782 2:0.069515626 
-1 1:0.012824273 2:0.066540288 
-1 1:0.0071436262 2:0.06433239 
-1 1:0.0056893517 2:0.060741294 
-1 1:0.0026767985 2:0.060337343 
-1 1:0.004521406 2:0.05776012 
-1 1:0.00039575999 2:0.055070542 
-1 1:0.00061531125 2:0.057328568 
-1 2:0.060003017 
-1 2:0.058261983 
-1 2:0.057097975 
-1 2:0.056965592 
-1 2:0.052245284 
1 2:0.054591411 
-1 1:0.026042466 5:0.0077077231 
1 2:0.058951298 4:0.002067997 
1 2:0.06458873 4:0.0043509707 
1 2:0.053804473 
1 2:0.053127258 
1 2:0.058240272 4:0.0011184817 
-1 1:0.0078575715 5:0.0084587763 
-1 1:0.00663167 5:0.0072801866 
-1 2:0.0047505461 3:1.7060891 4:0.018358338 5:0.0055908108 
-1 3:1.795276 4:0.018466823 5:0.0064460867 
-0.367231130579665 3:1.9796373 4:0.011640001 5:0.011890836 
-0.4772036060466937 3:2.0051863 4:0.011256477 5:0.012160404 
-1 3:1.7912714 4:0.015064904 5:0.0088244688 
-0.307856495303962 3:1.8363794 4:0.01357224 5:0.010259584 
-1 3:1.7800613 4:0.012936491 5:0.010395105 
1 1:0.013268548 3:2.8944445 5:0.015777325 
-1 2:0.0024872727 3:1.6486348 4:0.013171566 5:0.0089200129 
-1 3:1.9722145 4:0.015066836 5:0.010730384 
-1 1:0.079096255 5:0.0081335451 
1 3:2.1737087 4:0.0071514742 5:0.014489604 
-1 1:0.066106841 5:0.0091202649 
1 1:0.059736976 3:3.0399166 5:0.012090404 
1 1:0.021452807 3:2.7104172 5:0.01488271 
1 3:2.7022901 5:0.015890117 
-1 1:0.040371269 5:0.012938727 
0.007951845751628163 3:2.665716 4:0.00074669114 5:0.017139774 
-1 1:0.017733999 5:0.012148624 
0.5051432033634472 3:2.4011809 4:0.0042028819 5:0.015197789 
1 3:2.8264137 5:0.015283796 
-1 1:0.01783573 5:0.011245803 
-1 3:1.6732629 4:0.014355225 5:0.0094048024 
-1 3:1.87785 4:0.010548021 5:0.011598643 
1 1:0.024310811 3:2.9706798 5:0.013384835 
-1 1:0.043244998 5:0.010759239 
-1 3:1.8261082 4:0.011751302 5:0.0095484377 
1 3:2.7179027 4:0.0019074597 5:0.013830051 
-1 1:0.036877304 3:1.9765643 4:0.0066223591 5:0.020153024 
1 1:0.039316247 3:0.47250044 4:0.0043883943 5:0.019251541 
1 1:0.037756502 3:0.46008078 4:0.0042645613 5:0.018747762 
1 1:0.036125357 3:0.39981168 4:0.004570704 5:0.01840287 
1 1:0.042079626 3:0.44458265 4:0.0030028064 5:0.0182247 
1 1:0.041357502 3:0.27217836 4:0.0043854453 5:0.017139475 
1 1:0.042054881 3:0.22653302 4:0.0042854903 5:0.016947658 
1 1:0.033144295 3:0.066503444 4:0.0061725969 5:0.016193048 
1 1:0.02232645 4:0.0098923678 5:0.01424141 
1 1:0.040079406 4:0.0064888134 5:0.014562211 
-1 1:0.01421471 4:0.0098984743 5:0.014805491 
1 1:0.005899875 4:0.011746828 5:0.013756581 
1 1:0.042705954 4:0.0055994541 5:0.015138752 
1 1:0.060491058 3:0.025663998 4:0.0027635729 5:0.015362503 
1 1:0.050192193 4:0.0060539951 5:0.014188199 
1 1:0.057810217 4:0.0032948097 5:0.015085579 
1 1:0.060639814 4:0.0030434105 5:0.015078755 
1 1:0.062158766 4:0.0027568371 5:0.015073903 
1 1:0.066953122 4:0.0022310315 5:0.015074162 
1 1:0.054356074 4:0.0045455839 5:0.014749529 
1 1:0.08636612 4:0.0057784935 5:0.013842406 
1 1:0.047745171 4:0.011778663 5:0.0093294052 
1 1:0.054805723 4:0.0087761022 5:0.012170202 
1 1:0.056334324 4:0.0073676771 5:0.013110146 
1 1:0.042884854 4:0.0083064019 5:0.012753175 
1 1:0.063714725 4:0.0095801875 5:0.011563763 
1 1:0.048985483 4:0.0069317326 5:0.013367041 
1 1:0.047447762 4:0.0070907767 5:0.013283422 
1 1:0.05983228 4:0.0078524511 5:0.012817377 
1 1:0.052130336 4:0.0076596791 5:0.01292622 
1 1:0.077326707 4:0.006777423 5:0.013382368 
1 1:0.027082399 4:0.013832976 5:0.0062495123 
1 1:0.071421261 4:0.0091012651 5:0.011955846 
1 1:0.078852574 4:0.0077633313 5:0.012858048 
1 1:0.052782563 4:0.0099816289 5:0.011333929 
1 1:0.050859412 4:0.010449444 5:0.010890228 
1 1:0.074590457 4:0.010119907 5:0.011151768 
1 1:0.096937042 4:0.0068160652 5:0.01337031 
-1 3:2.0935869 4:0.020432355 
-1 3:2.104522 4:0.02049349 
-1 3:2.0920903 4:0.020423798 
-1 3:2.1058326 4:0.020500653 
-1 3:2.0955672 4:0.020443608 
-1 3:2.0964193 4:0.020448425 
-1 3:2.0993475 4:0.020464866 
1 3:2.0868826 4:0.020393665 
1 4:0.020464941 
-1 4:0.020231134 
-1 4:0.019988953 
1 4:0.020197055 
-1 4:0.020532603 
-1 4:0.02026865 
-1 4:0.020094663 
-1 4:0.020322649 
-1 4:0.020515659 
-1 4:0.020359169 
1 4:0.02038211 
-1 4:0.02033358 
1 4:0.02002072 
-1 4:0.020035444 
1 4:0.019975477 
-1 4:0.019919123 
-1 4:0.02024618 
-1 4:0.019931182 
-1 4:0.019738718 
-1 4:0.019648625 
1 4:0.019162534 
-1 4:0.019151994 
-1 4:0.019224376 
1 4:0.018814962 
-1 4:0.018299288 
-0.3983698332968987 4:0.018242161 
1 4:0.018122457 
-1 4:0.017944662 
-1 4:0.017574483 
1 4:0.017352995 
-1 4:0.017139283 5:0.00029730138 
-0.681351979014829 4:0.017398441 
-1 4:0.017017205 
1 4:0.016961171 
1 4:0.016374042 5:0.0017816908 
1 4:0.016578186 
1 4:0.016739612 5:0.00021589655 
1 4:0.016464556 
1 4:0.016709602 
1 4:0.015755673 5:0.0036537909 
-1 4:0.016602193 5:0.00097543116 
1 4:0.016479916 5:0.0004679312 
-1 4:0.015452828 5:0.0039785215 
-1 4:0.016557339 5:0.001051539 
1 4:0.016186312 5:0.0008429706 
-1 4:0.015889862 5:0.0019413191 
1 4:0.01546404 5:0.0039300707 
1 4:0.016323344 5:0.0015382754 
1 4:0.015987411 5:0.0022772713 
