svm_type epsilon_svr
kernel_type precomputed
nr_class 2
total_sv 111
rho 4.52189
SV
0.4206660690313054 0:1 
1.846474218502019 0:2 
0.7653146015617041 0:3 
-0.6434812511265093 0:4 
2 0:5 
0.1332756381517051 0:6 
-0.4200619333490246 0:7 
0.2222962058314386 0:9 
-0.8308054460022031 0:10 
-2 0:12 
2 0:14 
2 0:15 
0.582855237383067 0:16 
0.7648586199586922 0:17 
1.14751162339277 0:18 
0.2945509680228648 0:19 
0.9484151639073374 0:20 
-2 0:21 
0.5131351180741596 0:22 
-2 0:24 
2 0:25 
0.08751797589266551 0:26 
-0.4855920004907123 0:28 
0.8542119844671933 0:31 
0.05754898964937253 0:32 
1.76802303018994 0:33 
1.484863342875907 0:34 
0.9582415949791291 0:36 
-1.237040161321017 0:37 
-0.736845192993038 0:39 
-1.807960025310449 0:40 
-0.7485586988711905 0:41 
0.6142677019806451 0:42 
-0.7134849973870619 0:43 
-1.974267548223156 0:44 
1.619536528551289 0:45 
-2 0:47 
-1.787058239623158 0:48 
-0.0265108591742366 0:51 
0.0340431960497376 0:52 
0.5077814652415251 0:57 
0.3071209299639442 0:59 
-0.07768232518473536 0:60 
-0.8292296650478176 0:61 
1.670115438475724 0:62 
-0.1954946652198667 0:63 
1.954157006734499 0:65 
0.3920380170767794 0:66 
-0.4316531823236744 0:67 
1.272418811366666 0:68 
-1.248882296827801 0:69 
0.4541142161008609 0:71 
-1.192876700947475 0:72 
-1.610263025163235 0:73 
2 0:74 
1.443491692252243 0:75 
0.7981256531069737 0:76 
-1.972760915690028 0:77 
0.6275816694966286 0:78 
0.7815120428597493 0:80 
-1.249139817946299 0:82 
0.07155071930105865 0:83 
0.1857156920770094 0:85 
1.143881835436468 0:86 
0.629463188398106 0:87 
-2 0:89 
1.559057743726303 0:90 
-2 0:91 
-0.9590763700176268 0:92 
-0.7280059482700568 0:93 
-0.9545290321210814 0:94 
0.1237594568776447 0:95 
0.2195199137837805 0:96 
1.59559673126465 0:97 
2 0:98 
1.051390399276508 0:100 
0.1660660661564774 0:101 
-1.890580081290308 0:106 
0.3719418081634788 0:107 
0.1620196849507919 0:108 
-0.698565985339221 0:109 
-1.121631918960952 0:110 
2 0:111 
-0.3313501325946455 0:113 
0.40235625920206 0:115 
-0.5124256178375797 0:116 
0.3846259701958588 0:117 
-1.960070973810863 0:118 
-2 0:119 
-2 0:120 
-2 0:122 
-0.554023117604094 0:123 
2 0:124 
-2 0:125 
-1.051034761964539 0:126 
-2 0:127 
0.1393520857844522 0:128 
0.8288234864797819 0:129 
2 0:130 
-2 0:131 
-0.651050284059659 0:132 
-2 0:133 
2 0:135 
-1.566363403486652 0:136 
-2 0:137 
2 0:138 
1.765433322205119 0:139 
1.868596772277421 0:140 
0.7584480393353551 0:141 
1.246371061662327 0:142 
-0.8016784121032168 0:143 
